SVM-light Version V6.02
0 # kernel type
3 # kernel parameter -d 
1 # kernel parameter -g 
1 # kernel parameter -s 
1 # kernel parameter -r 
empty# kernel parameter -u 
1961 # highest feature index 
333 # number of training documents 
130 # number of support vectors plus 1 
0.96051825 # threshold b, each following line is a SV (starting with alpha*y)
-25.133387852666150052982629858889 17:0.00054278987 38:0.0028953487 53:0.002298017 64:0.0032973127 78:0.0049693007 98:0.030696532 129:0.0032973127 177:0.0080208741 180:0.0025103062 207:0.014826023 208:0.0032973127 259:0.0009516346 275:0.0086164987 316:0.021296166 322:0.0057049957 328:0.013251469 333:0.0098503651 349:0.015688738 478:0.0065946253 502:0.0091028679 558:0.0032973127 566:0.0018411776 571:0.0032973127 576:0.0032973127 584:0.0050206124 601:0.0021168028 606:0.0080208741 607:0.0087114284 611:0.0019360151 648:0.010694499 664:0.005659855 677:0.0065946253 681:0.0098919384 696:0.0025103062 697:0.0058076191 705:0.005659855 719:0.015960852 736:0.014519047 742:0.0032973127 803:0.0032973127 813:0.0019360151 874:0.0029038095 879:0.0032973127 882:0.0032973127 901:0.020326667 924:0.012700818 927:0.0032973127 949:0.0025103062 951:0.0042336057 953:0.0021168028 957:0.0032973127 989:0.0020499369 997:0.006561636 1013:0.010794637 1055:0.0032973127 1068:0.026378501 1081:0.0065946253 1090:0.00089358841 1093:0.0073647103 1099:0.0025103062 1115:0.0044611474 1206:0.0024542003 1216:0.026219891 1264:0.0098919384 1265:0.0029038095 1303:0.0029038095 1313:0.0013123272 1319:0.0018411776 1347:0.0065946253 1356:0.0032973127 1385:0.0047672531 1387:0.0026736248 1397:0.0019901232 1414:0.0026736248 1424:0.0029038095 1437:0.0047672531 1501:0.0026736248 1513:0.027518438 1537:0.0022801214 1544:0.0018866183 1574:0.0032973127 1597:0.0029038095 1601:0.0045960341 1615:0.0032973127 1621:0.0061498107 1642:0.004157044 1643:0.0032973127 1648:0.0026736248 1651:0.012551531 1655:0.0058076191 1673:0.005659855 1675:0.0050206124 1687:0.0028960165 1726:0.0069554169 1738:0.010694499 1747:0.0032973127 1749:0.0029038095 1764:0.0068931985 1779:0.002590759 1789:0.0053472496 1795:0.0047672531 1824:0.0065946253 1827:0.01456459 1828:0.019051226 1832:0.0032973127 1869:0.0032973127 1880:0.0032973127 1886:0.0032973127 1896:0.0032973127 1930:0.0029038095 1934:0.0029038095 1935:0.025081336 1938:0.0073626004 1944:0.0032973127 #
29.37186814124830291916623536963 17:0.0052561299 53:0.011126475 97:0.021232231 181:0.015192721 259:0.0023037989 333:0.0052992469 502:0.017629607 572:0.021232231 597:0.012707978 623:0.042464461 688:0.01546094 906:0.084928922 1090:0.051918618 1211:0.018269151 1290:0.039695811 1308:0.0098007116 1311:0.017829126 1617:0.0071924268 1642:0.040254921 1779:0.012543865 1881:0.016354371 1892:0.021232231 1912:0.01546094 1956:0.042464461 #
-0.89338535803000640456161818292458 17:0.025952142 83:0.095152766 259:0.011375007 1176:0.12783268 1788:0.095152766 #
-3.6301869125998185161563469591783 44:0.012884036 82:0.026428681 333:0.0063430383 410:0.05872706 452:0.017586611 633:0.05819346 701:0.016292214 827:0.02909673 915:0.024535671 963:0.02909673 1036:0.013624166 1090:0.010357502 1115:0.0043090624 1206:0.0071116029 1308:0.011731154 1673:0.021867622 1687:0.0041959328 #
-1.5438946862961484551846069734893 17:0.0086507136 154:0.079198234 259:0.0037916692 333:0.0087216776 449:0.022730842 802:0.036339436 933:0.052550923 1071:0.023796521 1115:0.0059249611 1206:0.009778454 1325:0.031717587 1519:0.11396714 1687:0.011538816 1726:0.013856495 1850:0.029343769 #
29.37186814124830291916623536963 17:0.0050638323 78:0.030906627 89:0.016784344 91:0.030761516 113:0.044474982 166:0.067137375 238:0.024942962 327:0.040910881 490:0.019748222 502:0.016984621 1069:0.019124411 1093:0.01717684 1199:0.049885925 1299:0.037132785 1419:0.030761516 1530:0.0095375795 1557:0.0077555305 1687:0.0067544286 1764:0.016077125 1817:0.022237491 1879:0.049885925 1938:0.0057239733 #
-0.69896665827241521995460971083958 17:0.011222548 154:0.068495773 259:0.0049189222 1036:0.024302566 1366:0.04533368 1540:0.12007645 1557:0.017187933 1696:0.030392006 1706:0.055278998 1827:0.018820796 1913:0.051902276 #
-4.2090565546569864707748820364941 38:0.026793651 207:0.016630363 259:0.0014677428 326:0.061947878 333:0.0067522665 399:0.012277776 597:0.024288636 631:0.010029763 688:0.0098501146 694:0.032989081 997:0.032384846 998:0.014705437 1011:0.014705437 1115:0.0045870668 1127:0.027053971 1179:0.01548697 1308:0.012488003 1313:0.0080962116 1319:0.011358878 1397:0.06138888 1601:0.0070886416 1617:0.0045822719 1682:0.058821749 1687:0.0089332759 1755:0.047581512 1779:0.0079916557 1827:0.011231765 1845:0.01791463 1938:0.015140832 #
9.4941380691879153630452492507175 15:0.032387085 17:0.0083046854 259:0.0036400023 423:0.034885861 509:0.038407683 541:0.032387085 602:0.030448884 893:0.074621439 1086:0.032387085 1090:0.054687612 1103:0.024873812 1290:0.041812919 1617:0.011364034 1642:0.021200925 1687:0.0055386312 1735:0.032387085 1782:0.038407683 1798:0.074621439 1938:0.018774632 #
-2.9274636696436235894225319498219 4:0.0062282574 17:0.0010252697 53:0.0021703495 78:0.0031288192 89:0.0067966231 96:0.0062282574 130:0.0062282574 140:0.0047416897 144:0.00505018 275:0.0032551216 333:0.013437844 335:0.0047416897 349:0.0026940259 350:0.028508898 371:0.0036569175 389:0.021941504 465:0.0038721031 472:0.0086137922 496:0.041017439 523:0.11824452 555:0.01645492 573:0.0085978992 611:0.0036569175 688:0.0030158376 696:0.0047416897 698:0.0025458827 705:0.0071272245 741:0.0037591215 743:0.010969947 789:0.015993623 793:0.0094833793 902:0.0054849735 921:0.0062282574 924:0.0039984058 951:0.0039984058 953:0.0039984058 995:0.0077442061 997:0.0099153612 1089:0.0062282574 1115:0.00070221763 1206:0.015066062 1209:0.0062282574 1214:0.0054849735 1296:0.0038721031 1308:0.0095587187 1398:0.0041415957 1426:0.00505018 1431:0.0062282574 1449:0.0062282574 1450:0.0062282574 1530:0.0019310656 1535:0.0094833793 1553:0.0054849735 1564:0.0062282574 1586:0.0039984058 1605:0.010969947 1621:0.0038721031 1664:0.0077442061 1687:0.014359415 1726:0.011495759 1742:0.0062282574 1755:0.0058272667 1793:0.0086137922 1825:0.0079650832 1827:0.015474876 1873:0.06851083 1890:0.0027765536 #
-29.37186814124830291916623536963 17:0.0054636085 38:0.058287941 44:0.033566304 333:0.016525283 452:0.045817751 489:0.066380113 502:0.0091627557 893:0.098186105 1103:0.016364351 1465:0.022070345 1530:0.010290546 1601:0.011565679 1617:0.0074763387 1779:0.039117053 1798:0.098186105 1918:0.066380113 1938:0.018527597 #
-13.517118622740662559067459369544 166:0.13763162 259:0.009100006 1115:0.014219906 1938:0.02346829 #
-7.2161315219020059075205608678516 69:0.028659223 423:0.018959707 502:0.037846163 509:0.020873742 561:0.040555131 698:0.056037094 778:0.057318445 947:0.054696072 1090:0.022291146 1115:0.0030912841 1195:0.036668617 1235:0.013045923 1290:0.034086619 1344:0.037919413 1392:0.056879118 1402:0.016098386 1530:0.0085008861 1601:0.028662767 1617:0.0061761057 1641:0.032196771 1687:0.0090303775 1779:0.021542724 1890:0.06111436 1936:0.032196771 1938:0.035712615 #
-0.65133155753538296561799825212802 259:0.009100006 282:0.12612221 703:0.11107071 1115:0.014219906 1811:0.091173708 #
-25.127089022524785377754596993327 16:0.014665374 44:0.0049438742 89:0.0080018388 102:0.023782825 113:0.010601594 166:0.016003678 214:0.0072307596 234:0.011891413 259:0.0010581402 274:0.014665374 299:0.012915199 327:0.0097520128 397:0.0055479216 412:0.0091174515 440:0.014665374 452:0.0067483513 490:0.0094148507 502:0.0080973189 602:0.12391988 740:0.014665374 855:0.012915199 935:0.0094148507 1115:0.0016534775 1148:0.012915199 1206:0.019102097 1299:0.0088514201 1311:0.0081889583 1374:0.010601594 1414:0.011891413 1468:0.0081889583 1469:0.021203188 1492:0.018829701 1532:0.014665374 1620:0.014665374 1633:0.014665374 1652:0.011891413 1679:0.014665374 1687:0.012880538 1740:0.030423716 1764:0.0076646758 1817:0.010601594 1825:0.012503328 1827:0.012145978 1955:0.014665374 1957:0.022330049 #
29.37186814124830291916623536963 57:0.052798823 259:0.0075833383 518:0.10510185 1115:0.011849922 1119:0.14535774 1243:0.16003202 1667:0.049167566 1825:0.044803593 #
29.37186814124830291916623536963 701:0.076806158 1367:0.18017459 #
29.37186814124830291916623536963 5:0.0032737418 12:0.012085753 17:0.00074548344 24:0.0065474836 38:0.015906224 46:0.0032737418 52:0.005466586 53:0.0047342456 69:0.0023668299 75:0.0032737418 127:0.0032737418 143:0.0025287268 154:0.013649965 181:0.0043096049 192:0.0032737418 207:0.031469304 223:0.0065474836 224:0.019708101 310:0.0023668299 316:0.026589794 333:0.0060127899 346:0.0065474836 397:0.0034263644 399:0.005466586 439:0.005466586 444:0.0032737418 449:0.0019588519 454:0.0098212259 502:0.006251072 561:0.0066985134 597:0.01081433 664:0.0051822728 674:0.0032737418 688:0.0065785325 778:0.023668298 789:0.055238295 818:0.0062631704 868:0.0032737418 905:0.0041013751 912:0.0032737418 997:0.0018023883 1007:0.0032737418 1014:0.009034181 1039:0.0065474836 1051:0.0032737418 1067:0.002733293 1069:0.011261771 1084:0.0032737418 1090:0.0073636821 1115:0.0005105891 1159:0.0032737418 1184:0.0031315852 1195:0.018169727 1202:0.0032737418 1235:0.0021548024 1246:0.0032737418 1250:0.0032737418 1266:0.025422368 1282:0.0032737418 1290:0.015013616 1313:0.0054071648 1319:0.0050574536 1328:0.0032737418 1331:0.0032737418 1338:0.0034477275 1362:0.0031315852 1368:0.012526341 1377:0.0032737418 1402:0.010635918 1463:0.0030113936 1513:0.029072788 1530:0.0014040961 1541:0.0065474836 1544:0.0025911364 1579:0.0030113936 1586:0.0058145574 1600:0.0032737418 1601:0.0031561635 1617:0.0010201108 1687:0.010938051 1694:0.015657926 1726:0.002388193 1779:0.012453783 1820:0.0065474836 1827:0.010001715 1828:0.037794624 1830:0.0065785325 1881:0.0069586821 1912:0.0087713767 1932:0.013094967 1936:0.0026589795 1938:0.0092693428 #
29.37186814124830291916623536963 5:0.0032737418 12:0.012085753 17:0.00074548344 24:0.0065474836 38:0.015906224 46:0.0032737418 52:0.005466586 53:0.0047342456 69:0.0023668299 75:0.0032737418 127:0.0032737418 143:0.0025287268 154:0.013649965 181:0.0043096049 192:0.0032737418 207:0.031469304 214:0.0044656754 223:0.0065474836 224:0.019708101 310:0.0023668299 316:0.026589794 333:0.0060127899 346:0.0065474836 397:0.0034263644 399:0.005466586 439:0.005466586 444:0.0032737418 449:0.0019588519 454:0.0098212259 502:0.006251072 561:0.0066985134 597:0.01081433 674:0.0032737418 688:0.0065785325 778:0.023668298 789:0.055238295 818:0.0062631704 868:0.0032737418 905:0.0041013751 912:0.0032737418 997:0.0018023883 1007:0.0032737418 1014:0.009034181 1039:0.0065474836 1051:0.0032737418 1067:0.002733293 1069:0.011261771 1084:0.0032737418 1090:0.0073636821 1115:0.0005105891 1159:0.0032737418 1184:0.0031315852 1195:0.018169727 1202:0.0032737418 1235:0.0021548024 1246:0.0032737418 1250:0.0032737418 1266:0.025422368 1282:0.0032737418 1290:0.015013616 1311:0.0025287268 1313:0.0054071648 1319:0.0050574536 1328:0.0032737418 1331:0.0032737418 1362:0.0031315852 1368:0.012526341 1377:0.0032737418 1402:0.010635918 1463:0.0030113936 1513:0.029072788 1530:0.0014040961 1541:0.0065474836 1544:0.0025911364 1579:0.0030113936 1586:0.0058145574 1600:0.0032737418 1601:0.0031561635 1617:0.0010201108 1687:0.010938051 1694:0.015657926 1726:0.002388193 1779:0.012453783 1820:0.0065474836 1827:0.010001715 1828:0.037794624 1830:0.0065785325 1881:0.0069586821 1912:0.0087713767 1932:0.013094967 1936:0.0026589795 1938:0.0092693428 #
29.37186814124830291916623536963 5:0.0032737418 12:0.012085753 17:0.00074548344 24:0.0065474836 38:0.015906224 46:0.0032737418 52:0.005466586 53:0.0047342456 69:0.0023668299 75:0.0032737418 127:0.0032737418 143:0.0025287268 154:0.013649965 181:0.0043096049 192:0.0032737418 207:0.031469304 223:0.0065474836 224:0.019708101 310:0.0023668299 316:0.026589794 333:0.0060127899 346:0.0065474836 397:0.0034263644 399:0.005466586 419:0.0039881766 439:0.005466586 444:0.0032737418 449:0.0019588519 454:0.0098212259 502:0.006251072 561:0.0066985134 597:0.01081433 674:0.0032737418 688:0.0065785325 778:0.023668298 789:0.055238295 818:0.0062631704 868:0.0032737418 905:0.0041013751 912:0.0032737418 997:0.0018023883 1007:0.0032737418 1014:0.009034181 1039:0.0065474836 1051:0.0032737418 1067:0.002733293 1069:0.011261771 1084:0.0032737418 1090:0.0073636821 1115:0.0005105891 1159:0.0032737418 1184:0.0031315852 1195:0.018169727 1202:0.0032737418 1235:0.0021548024 1246:0.0032737418 1250:0.0032737418 1266:0.025422368 1282:0.0032737418 1290:0.015013616 1313:0.0054071648 1319:0.0050574536 1328:0.0032737418 1331:0.0032737418 1362:0.0031315852 1368:0.012526341 1377:0.0032737418 1402:0.010635918 1446:0.0065474836 1463:0.0030113936 1513:0.029072788 1530:0.0014040961 1541:0.0065474836 1544:0.0025911364 1579:0.0030113936 1586:0.0058145574 1600:0.0032737418 1601:0.0031561635 1617:0.0010201108 1687:0.010938051 1694:0.015657926 1726:0.002388193 1779:0.012453783 1820:0.0065474836 1827:0.010001715 1828:0.037794624 1830:0.0065785325 1881:0.0069586821 1912:0.0087713767 1932:0.013094967 1936:0.0026589795 1938:0.0092693428 #
-18.264847482004430645474712946452 17:0.012582856 259:0.0055151549 664:0.043735243 1093:0.042681843 1385:0.055256795 1513:0.049071342 1606:0.076437704 1764:0.03994922 1789:0.061979484 1827:0.021102104 1828:0.049071342 1938:0.028446412 #
-25.735124783205318266254835180007 12:0.029268542 17:0.0090268319 52:0.033096615 310:0.028659223 316:0.064393543 397:0.020744402 439:0.033096615 502:0.015138466 1067:0.033096615 1090:0.029721528 1195:0.048891488 1235:0.026091846 1266:0.025652643 1446:0.039640743 1530:0.017001772 1601:0.019108512 1617:0.012352211 1687:0.0060202512 1830:0.053104967 1938:0.040814418 #
-6.598906900048607582220938638784 69:0.028659223 502:0.037846163 561:0.040555131 694:0.022231771 698:0.056037094 778:0.057318445 947:0.054696072 1090:0.022291146 1115:0.0030912841 1195:0.036668617 1235:0.013045923 1290:0.034086619 1344:0.037919413 1392:0.056879118 1402:0.016098386 1530:0.0085008861 1601:0.028662767 1617:0.0061761057 1641:0.032196771 1687:0.0090303775 1779:0.021542724 1890:0.06111436 1936:0.032196771 1938:0.035712615 1954:0.027417872 #
-0.39779351375502264298589238933346 17:0.0040709241 143:0.027617665 201:0.05648189 332:0.032889143 333:0.0041043186 610:0.016444571 669:0.02177857 701:0.010542021 746:0.017100912 755:0.024729846 813:0.029040227 1147:0.020052185 1206:0.0046016253 1255:0.024729846 1468:0.05523533 1585:0.020052185 1687:0.0081450464 1730:0.065778285 1754:0.034201823 1938:0.0046016253 #
29.37186814124830291916623536963 25:0.011842461 56:0.011842461 78:0.011898326 89:0.0064615784 113:0.0085609118 121:0.010429175 140:0.0090158889 144:0.0096024554 206:0.0064615784 209:0.011842461 238:0.0096024554 275:0.018567948 322:0.0051224437 327:0.01574973 328:0.0059491629 349:0.030734662 350:0.0067758826 353:0.010429175 389:0.0069532935 397:0.0044800118 420:0.011842461 455:0.011842461 490:0.015205204 520:0.010429175 538:0.010429175 566:0.0066126804 573:0.0054493728 584:0.0090158889 587:0.011842461 611:0.0069532935 631:0.0058389232 673:0.0085609118 705:0.013551765 744:0.0090158889 750:0.011842461 825:0.011842461 905:0.010725193 935:0.0076026022 951:0.0076026022 989:0.0073624495 997:0.02356644 1000:0.011842461 1052:0.023684923 1069:0.0073624495 1074:0.0096024554 1093:0.0066126804 1107:0.0096024554 1110:0.0096024554 1174:0.011842461 1184:0.0081891688 1199:0.0096024554 1213:0.011842461 1299:0.014295251 1411:0.011842461 1463:0.0078748651 1489:0.010429175 1530:0.0036717444 1586:0.0076026022 1598:0.018031778 1621:0.0073624495 1654:0.0036350056 1664:0.022087349 1673:0.0067758826 1764:0.0061893156 1781:0.011842461 1786:0.011842461 1806:0.011842461 1817:0.0085609118 1825:0.0050482922 1826:0.011842461 1829:0.0076026022 1833:0.035527382 1879:0.0096024554 1912:0.05160905 1923:0.017121824 1938:0.0088143814 #
29.37186814124830291916623536963 17:0.0074148974 68:0.045043647 102:0.073047251 113:0.03256204 166:0.024577076 327:0.02995261 490:0.028917041 800:0.045043647 1069:0.028003601 1206:0.0083815316 1215:0.031148089 1268:0.089857832 1299:0.027186504 1492:0.028917041 1740:0.062296178 1764:0.023541505 1817:0.03256204 1851:0.027186504 1879:0.073047251 #
29.37186814124830291916623536963 17:0.0055364571 53:0.011719887 97:0.022364616 181:0.016003 259:0.0024266683 333:0.0055818735 502:0.018569851 572:0.022364616 597:0.013385737 623:0.044729233 688:0.016285524 906:0.089458466 1090:0.054687612 1211:0.019243507 1308:0.010323416 1617:0.0075760228 1642:0.04240185 1779:0.013212871 1881:0.017226605 1892:0.022364616 1912:0.016285524 1956:0.044729233 #
14.914031937449525599959088140167 15:0.034454346 17:0.0088347718 259:0.0038723429 541:0.034454346 602:0.032392431 694:0.043517511 893:0.079384506 1086:0.034454346 1090:0.058178309 1103:0.026461503 1617:0.012089399 1642:0.022554176 1687:0.0058921608 1735:0.034454346 1798:0.079384506 1845:0.047264133 1938:0.019973012 #
-2.7245074878713317900746915256605 78:0.028159373 264:0.021337602 341:0.028027158 349:0.10910805 371:0.032912258 465:0.017424464 491:0.028027158 542:0.028027158 566:0.01565001 586:0.028027158 601:0.017992824 705:0.016036255 718:0.045451622 905:0.025382955 935:0.017992824 953:0.017992824 989:0.017424464 997:0.011154781 1017:0.028027158 1033:0.01863718 1036:0.019982111 1268:0.01863718 1350:0.12802562 1482:0.028027158 1488:0.022725811 1555:0.028027158 1581:0.049364761 1616:0.028027158 1725:0.022725811 1746:0.02468238 1793:0.019381033 1795:0.020260824 1829:0.017992824 1854:0.028027158 1912:0.067856349 1929:0.02468238 1948:0.020260824 #
29.37186814124830291916623536963 5:0.0032737418 12:0.012085753 17:0.00074548344 24:0.0065474836 38:0.015906224 45:0.0034477275 46:0.0032737418 52:0.005466586 53:0.0047342456 69:0.0023668299 75:0.0032737418 127:0.0032737418 143:0.0025287268 154:0.013649965 181:0.0043096049 192:0.0032737418 207:0.031469304 223:0.0065474836 224:0.019708101 310:0.0023668299 316:0.026589794 333:0.0060127899 346:0.0065474836 397:0.0034263644 399:0.005466586 439:0.005466586 444:0.0032737418 449:0.0019588519 454:0.0098212259 502:0.006251072 561:0.0066985134 597:0.01081433 674:0.0032737418 688:0.0065785325 778:0.023668298 789:0.055238295 818:0.0062631704 868:0.0032737418 905:0.0041013751 912:0.0032737418 997:0.0018023883 1007:0.0032737418 1014:0.009034181 1039:0.0065474836 1051:0.0032737418 1067:0.002733293 1069:0.011261771 1084:0.0032737418 1090:0.0073636821 1115:0.0005105891 1159:0.0032737418 1184:0.0031315852 1195:0.018169727 1202:0.0032737418 1235:0.0021548024 1246:0.0032737418 1250:0.0032737418 1266:0.025422368 1282:0.0032737418 1290:0.015013616 1313:0.0054071648 1319:0.0050574536 1328:0.0032737418 1331:0.0032737418 1362:0.0031315852 1368:0.012526341 1377:0.0032737418 1402:0.010635918 1463:0.0030113936 1513:0.029072788 1530:0.0014040961 1541:0.0065474836 1544:0.0025911364 1579:0.0030113936 1586:0.0058145574 1600:0.0032737418 1601:0.0031561635 1617:0.0010201108 1687:0.010938051 1694:0.015657926 1726:0.002388193 1779:0.012453783 1820:0.0065474836 1827:0.010001715 1828:0.037794624 1830:0.0065785325 1881:0.0069586821 1912:0.0087713767 1932:0.013094967 1936:0.0026589795 1938:0.010954677 #
-6.0289211653221155273740805569105 17:0.015379047 259:0.0067407452 793:0.071125343 1036:0.033303518 1290:0.077431329 1339:0.18684772 1557:0.023553833 #
-3.0119976197533211426105026475852 207:0.028641181 375:0.16003202 570:0.050652061 597:0.027886953 701:0.029869061 722:0.1234119 1187:0.070067897 1456:0.070067897 1557:0.017665375 1687:0.0076925433 1938:0.013037939 #
-6.3921510948954196607019184739329 36:0.021359753 38:0.085190065 65:0.01612833 115:0.021359753 138:0.024254272 177:0.058999702 333:0.012076168 403:0.072762817 510:0.031473476 680:0.021359753 683:0.013877529 698:0.0099142548 701:0.010339291 1094:0.013877529 1102:0.024254272 1115:0.0027345973 1199:0.098332837 1266:0.022692721 1271:0.018465234 1348:0.015570714 1455:0.019666567 1604:0.01612833 1687:0.007988411 #
-4.5772410298403647388454373867717 17:0.0081418483 186:0.040104371 207:0.04043461 259:0.0035686297 350:0.028299274 389:0.029040227 398:0.049459692 501:0.043557141 683:0.028299274 720:0.16041748 1085:0.043557141 1094:0.028299274 #
-21.868242507140095653994649183005 17:0.0027682285 53:0.017579831 57:0.0084478119 102:0.027270973 113:0.012156495 147:0.0084478119 166:0.0091754412 259:0.0012133342 281:0.01162862 327:0.011182308 329:0.016816296 333:0.0055818735 355:0.0087888287 412:0.010454678 490:0.010795695 514:0.016816296 526:0.050448883 600:0.057730518 1115:0.0018959875 1206:0.0093873162 1290:0.02787528 1299:0.010149628 1311:0.037560023 1469:0.012156495 1492:0.010795695 1550:0.016816296 1687:0.0055386312 1723:0.014809429 1726:0.0044340785 1740:0.023257241 1764:0.0087888287 1817:0.012156495 1825:0.0071685747 1831:0.033632591 1851:0.020299256 1890:0.007496695 1938:0.0031291053 1949:0.033632591 #
-25.498191786108996836901496862993 44:0.016352816 57:0.024368687 259:0.0035000022 449:0.041964635 459:0.073860936 1115:0.0054691946 1119:0.067088194 1206:0.0090262648 1243:0.036930468 1371:0.015508479 1454:0.036930468 1557:0.012229875 1630:0.036930468 1667:0.022692721 1825:0.020678582 #
-5.7583705630289285792855480394792 17:0.005931918 78:0.018102454 206:0.019661659 207:0.01472975 212:0.036034919 278:0.036034919 328:0.018102454 349:0.046760593 434:0.031734489 905:0.016317613 989:0.022402883 997:0.014341861 1036:0.025691284 1110:0.029218899 1158:0.036034919 1277:0.036034919 1374:0.026049633 1390:0.018833203 1408:0.026049633 1437:0.026049633 1445:0.031734489 1515:0.036034919 1525:0.031734489 1530:0.011172594 1570:0.026049633 1594:0.031734489 1617:0.0081171673 1685:0.029218899 1739:0.036034919 1770:0.063468978 1795:0.052099265 1829:0.023133632 1912:0.087243877 1940:0.072069839 #
-1.8177006756599245473893233793206 175:0.18593845 496:0.10067917 701:0.097753294 #
-11.254829560773536911710834829137 33:0.012621672 78:0.021599518 90:0.014332069 101:0.012621672 120:0.014332069 235:0.014332069 322:0.024797283 327:0.019060751 328:0.0071998392 340:0.057328276 349:0.037195925 351:0.014332069 397:0.010843665 400:0.014332069 494:0.014332069 510:0.0061993208 511:0.014332069 544:0.012621672 546:0.012621672 583:0.012621672 584:0.021822548 596:0.037865017 601:0.0092008766 631:0.014132848 660:0.014332069 663:0.014332069 705:0.024601074 733:0.012621672 741:0.0086502517 774:0.075730033 812:0.014332069 817:0.014332069 821:0.011621153 822:0.028664138 837:0.028664138 869:0.014332069 904:0.011621153 905:0.01297992 932:0.0092008766 935:0.0092008766 975:0.014332069 985:0.012621672 997:0.034224898 1003:0.025243344 1006:0.011621153 1090:0.01165219 1163:0.037865017 1191:0.0095303757 1197:0.014332069 1204:0.014332069 1217:0.014332069 1226:0.010360649 1258:0.014332069 1299:0.051901508 1323:0.014332069 1369:0.012621672 1376:0.025243344 1390:0.022471435 1436:0.014332069 1439:0.014332069 1464:0.012621672 1520:0.014332069 1544:0.0082003577 1587:0.014332069 1595:0.028664138 1619:0.014332069 1664:0.0089102369 1673:0.0082003577 1681:0.028664138 1693:0.010360649 1698:0.011621153 1744:0.014332069 1764:0.0074904789 1813:0.014332069 1818:0.014332069 1829:0.0092008766 1912:0.076338388 1926:0.012621672 1958:0.012621672 #
-0.62949549241824132028710891972878 701:0.076806158 702:0.18017459 1371:0.05760292 1667:0.084287256 1687:0.019780826 1827:0.049740672 #
22.856043079959118102806314709596 15:0.034454346 17:0.0088347718 188:0.043517511 259:0.0038723429 541:0.034454346 602:0.032392431 893:0.079384506 1086:0.034454346 1090:0.058178309 1103:0.026461503 1446:0.038797323 1617:0.012089399 1642:0.022554176 1687:0.0058921608 1735:0.034454346 1798:0.079384506 1938:0.019973012 #
15.776110944419620807366300141439 15:0.032387085 17:0.0083046854 259:0.0036400023 541:0.032387085 602:0.030448884 664:0.028865259 893:0.074621439 932:0.032387085 1086:0.032387085 1090:0.054687612 1103:0.024873812 1290:0.041812919 1338:0.038407683 1617:0.011364034 1642:0.021200925 1687:0.0055386312 1735:0.032387085 1798:0.074621439 1938:0.018774632 #
11.320943851609774455369006318506 15:0.032387085 17:0.0083046854 45:0.038407683 259:0.0036400023 524:0.044428285 541:0.032387085 602:0.030448884 893:0.074621439 1086:0.032387085 1090:0.054687612 1103:0.024873812 1290:0.041812919 1617:0.011364034 1642:0.021200925 1687:0.0055386312 1735:0.032387085 1798:0.074621439 1938:0.028161947 #
7.0953306906292148426018684403971 15:0.032387085 17:0.0083046854 259:0.0036400023 541:0.032387085 602:0.030448884 642:0.040906459 893:0.074621439 1086:0.032387085 1090:0.054687612 1103:0.024873812 1196:0.036469486 1290:0.041812919 1617:0.011364034 1642:0.021200925 1687:0.0055386312 1735:0.032387085 1798:0.074621439 1897:0.044428285 1938:0.018774632 #
29.37186814124830291916623536963 5:0.0032737418 12:0.012085753 17:0.00074548344 24:0.0065474836 38:0.015906224 46:0.0032737418 52:0.005466586 53:0.0047342456 69:0.0023668299 75:0.0032737418 127:0.0032737418 143:0.0025287268 154:0.013649965 181:0.0043096049 192:0.0032737418 207:0.031469304 223:0.0065474836 224:0.019708101 310:0.0023668299 316:0.026589794 333:0.0060127899 346:0.0065474836 397:0.0034263644 399:0.005466586 439:0.005466586 444:0.0032737418 449:0.0019588519 454:0.0098212259 502:0.006251072 561:0.0066985134 580:0.0034477275 597:0.01081433 674:0.0032737418 688:0.0065785325 778:0.023668298 789:0.055238295 818:0.0062631704 868:0.0032737418 905:0.0041013751 912:0.0032737418 997:0.0018023883 1007:0.0032737418 1014:0.009034181 1039:0.0065474836 1051:0.0032737418 1067:0.002733293 1069:0.011261771 1084:0.0032737418 1090:0.0073636821 1115:0.0005105891 1159:0.0032737418 1184:0.0031315852 1195:0.018169727 1202:0.0032737418 1235:0.0021548024 1246:0.0032737418 1250:0.0032737418 1266:0.025422368 1282:0.0032737418 1290:0.015013616 1313:0.0054071648 1319:0.0050574536 1328:0.0032737418 1331:0.0032737418 1362:0.0031315852 1368:0.012526341 1377:0.0032737418 1402:0.010635918 1422:0.0041013751 1463:0.0030113936 1513:0.029072788 1530:0.0014040961 1541:0.0065474836 1544:0.0025911364 1579:0.0030113936 1586:0.0058145574 1600:0.0032737418 1601:0.0031561635 1617:0.0010201108 1687:0.010938051 1694:0.015657926 1726:0.002388193 1779:0.012453783 1820:0.0065474836 1827:0.010001715 1828:0.037794624 1830:0.0065785325 1881:0.0069586821 1912:0.0087713767 1932:0.013094967 1936:0.0026589795 1938:0.0092693428 #
-18.489575211814880617566814180464 9:0.021745209 17:0.00051137223 33:0.0027357319 38:0.016366566 45:0.0023650052 53:0.001082502 71:0.0027357319 85:0.0027357319 98:0.0020656972 170:0.015532292 172:0.0054714638 181:0.002956219 207:0.012698061 221:0.0062129167 259:0.00022413807 322:0.0013436952 333:0.0051556714 342:0.0031064583 355:0.0016235521 377:0.0031064583 397:0.0023503511 399:0.0093746567 458:0.0093193753 461:0.012425833 502:0.0042879889 524:0.0082071954 561:0.0015316387 597:0.0098909391 630:0.024851667 631:0.0015316387 657:0.021745209 673:0.040421844 679:0.021885855 682:0.0093193753 688:0.0090252282 717:0.0031064583 723:0.0062129167 741:0.0018749313 778:0.0032471041 791:0.0031064583 818:0.042962883 851:0.0031064583 854:0.0031064583 997:0.0061818366 998:0.0022456578 1014:0.0020656972 1115:0.002101464 1127:0.0041313944 1138:0.0093193753 1141:0.0031064583 1189:0.018638751 1190:0.012425833 1219:0.0031064583 1224:0.0031064583 1266:0.0058129141 1291:0.03009305 1308:0.0047675874 1313:0.0074182041 1319:0.001734607 1374:0.0022456578 1378:0.0093193753 1393:0.0031064583 1397:0.0093746567 1513:0.019942787 1530:0.0038526184 1601:0.0075775133 1617:0.0034987791 1635:0.0062129167 1645:0.0093193753 1654:0.0009535175 1664:0.0019312829 1682:0.011228289 1687:0.015006144 1694:0.0064444323 1726:0.00081910315 1727:0.0062129167 1748:0.015532292 1753:0.018638751 1755:0.0029064571 1766:0.0031064583 1779:0.0048816027 1800:0.0027357319 1827:0.0068607824 1848:0.0031064583 1884:0.024621587 1938:0.018497175 1959:0.0093193753 #
-1.9795461385760473316253182929358 259:0.011375007 423:0.10901831 597:0.062745646 1617:0.035512608 1654:0.048391014 1687:0.017308222 1875:0.15765277 1894:0.15765277 #
-20.668666764876782337978511350229 207:0.015162978 259:0.0013382362 265:0.049001783 275:0.0096935611 281:0.012825684 306:0.016333928 310:0.0096935611 322:0.0080226501 333:0.0092347171 355:0.0096935611 397:0.014032978 449:0.0080226501 502:0.0051203636 510:0.0080226501 561:0.009144784 609:0.018547384 741:0.011194443 758:0.018547384 769:0.016333928 789:0.035721049 821:0.015039139 902:0.016333928 924:0.011907017 932:0.011907017 1115:0.006273488 1163:0.032667857 1195:0.016536826 1206:0.0034512191 1216:0.013407899 1256:0.018547384 1278:0.015039139 1297:0.018547384 1371:0.0059297122 1533:0.018547384 1557:0.0046761287 1601:0.0064631733 1642:0.0077944575 1667:0.017353259 1671:0.018547384 1687:0.012217569 1726:0.0048905276 1763:0.016333928 1827:0.010240727 1830:0.026942961 1871:0.018547384 1938:0.010353657 1958:0.016333928 #
-2.1842218129798012249409566720715 17:0.0098865302 154:0.090512268 259:0.0043333364 262:0.060058195 333:0.0099676317 1071:0.027196024 1115:0.0067713843 1206:0.011175376 1263:0.039936814 1325:0.036248673 1491:0.1371703 1687:0.0065936088 1726:0.015835993 #
-2.1842218136264950345548641053028 17:0.0098865302 154:0.090512268 259:0.0043333364 333:0.0099676317 1071:0.027196024 1115:0.0067713843 1155:0.060058195 1206:0.011175376 1263:0.039936814 1325:0.036248673 1687:0.0065936088 1726:0.015835993 1745:0.1371703 #
-4.8793502214555841689502813096624 17:0.015379047 259:0.0067407452 841:0.062123932 1036:0.033303518 1351:0.15150541 1368:0.12920688 1557:0.023553833 #
-3.051326491453363320971448047203 17:0.00075497141 53:0.0047944994 89:0.0075071794 270:0.0045862622 283:0.012116805 333:0.0053281519 352:0.077966459 525:0.041276362 555:0.0040389351 573:0.0063311802 738:0.087138981 743:0.064622961 986:0.0030497203 1144:0.012116805 1266:0.060073823 1308:0.0042232159 1313:0.0018253278 1422:0.0020767872 1530:0.0028439329 1573:0.12841535 1617:0.001033094 1628:0.036690097 1654:0.0014077385 1687:0.0060421433 1726:0.012092941 1732:0.0045862622 1822:0.036690097 1825:0.0058651976 1827:0.0012661263 1870:0.050448883 #
-2.889425747610145034371953443042 17:0.017301427 259:0.0075833383 272:0.10510185 1266:0.098335132 1348:0.13494618 1593:0.092558928 1938:0.039113816 #
-0.28919366210703623121247574090376 259:0.0072800047 1036:0.035967797 1115:0.011375926 1266:0.094401725 1348:0.12954834 1473:0.10089777 1891:0.10089777 1938:0.037549265 #
-2.8823045251373726749477555131307 259:0.012133341 688:0.081427619 878:0.16816294 1617:0.037880115 1654:0.051617082 1687:0.018462105 1938:0.031291053 #
22.915213904548675571959392982535 15:0.034454346 17:0.0088347718 259:0.0038723429 541:0.034454346 602:0.032392431 893:0.079384506 1086:0.034454346 1090:0.058178309 1103:0.026461503 1422:0.024302829 1617:0.012089399 1642:0.022554176 1687:0.0058921608 1735:0.034454346 1798:0.079384506 1868:0.043517511 1938:0.019973012 #
-2.2402113511089836173084677284351 89:0.026986592 144:0.040104371 206:0.026986592 328:0.074539512 397:0.018710637 463:0.032889143 472:0.034201823 566:0.027617665 701:0.021084042 813:0.029040227 887:0.049459692 949:0.037654594 953:0.031752042 1090:0.013403826 1092:0.098919384 1108:0.049459692 1114:0.049459692 1128:0.049459692 1180:0.087114282 1206:0.018406501 1316:0.029040227 1322:0.037654594 1459:0.049459692 1470:0.049459692 1586:0.031752042 1829:0.031752042 1938:0.0092032505 #
-4.434880827132365865850260888692 206:0.025023932 369:0.040389352 397:0.017349863 453:0.040389352 510:0.019837826 620:0.045862623 634:0.034916077 935:0.029442804 1036:0.016348999 1042:0.045862623 1045:0.045862623 1090:0.012429003 1107:0.037187692 1115:0.01034175 1206:0.017067848 1268:0.030497203 1397:0.027680805 1604:0.030497203 1648:0.037187692 1649:0.045862623 1714:0.030497203 1827:0.037983786 #
-2.3916599065808274993116810946958 23:0.17458038 701:0.097753294 995:0.14256379 #
-10.721405302157801742168885539286 17:0.006017888 98:0.024309365 259:0.0079130484 333:0.0060672536 581:0.036557164 924:0.046937805 1115:0.0082434239 1222:0.036557164 1485:0.036557164 1601:0.012739008 1759:0.03219441 1828:0.046937805 1839:0.036557164 1938:0.020407209 #
-2.2539746613995590429624371608952 17:0.0037074487 78:0.011314034 166:0.024577076 210:0.01445852 259:0.0016250011 275:0.011770752 333:0.0074757235 349:0.019483579 390:0.099170275 442:0.018261813 686:0.019834056 841:0.02995261 951:0.01445852 997:0.0089636631 1074:0.036523625 1090:0.0061035282 1206:0.012572298 1268:0.02995261 1308:0.0069130016 1337:0.11260912 1421:0.045043647 1535:0.034292575 1545:0.019834056 1557:0.011356313 1673:0.012886276 1687:0.012363017 1705:0.045043647 1767:0.017146287 1793:0.015574045 1827:0.018652752 1907:0.019834056 1950:0.022521824 #
-2.8419751113418878496474917483283 2:0.092558928 531:0.10510185 778:0.10986035 1036:0.037466455 1115:0.011849922 1371:0.06720341 1557:0.026498063 1726:0.02771299 #
-0.37302801892074766154649978489033 286:0.13417639 667:0.15733254 1420:0.11392704 1422:0.087864079 1687:0.021302428 #
-2.1946530234520906788020511157811 152:0.16816294 259:0.012133341 597:0.066928685 1617:0.037880115 1654:0.051617082 1687:0.018462105 1938:0.031291053 #
-2.1946530234520915669804708159063 259:0.012133341 597:0.066928685 652:0.16816294 1617:0.037880115 1654:0.051617082 1687:0.018462105 1938:0.031291053 #
-4.4019660215194438279695532401092 243:0.058437798 357:0.054868121 701:0.092167392 1057:0.058437798 1206:0.026820902 1366:0.047924176 1687:0.015824661 1706:0.058437798 #
-12.775131967067693494755076244473 38:0.0075984281 53:0.0045231124 78:0.0021735365 143:0.0024159534 181:0.0020587048 206:0.0023607481 207:0.0017685806 239:0.0043266625 298:0.0035082726 321:0.038939964 322:0.0037429861 333:0.0050265584 343:0.0043266625 349:0.011228958 371:0.0025403972 397:0.0032735593 425:0.002777623 488:0.0035082726 496:0.013297249 502:0.0011944587 512:0.024557909 533:0.0043266625 538:0.0038103161 565:0.008653325 592:0.0043266625 597:0.0034440148 601:0.005555246 631:0.00426652 647:0.014164489 655:0.0043266625 661:0.008653325 698:0.0035371613 705:0.0024755797 724:0.012979987 727:0.0070165452 728:0.0029919262 771:0.0043266625 778:0.022612765 787:0.009881909 788:0.0043266625 789:0.005555246 820:0.0043266625 828:0.0043266625 844:0.0070165452 905:0.0058776997 917:0.0043266625 920:0.0043266625 943:0.012979987 944:0.0026113966 997:0.0034440148 1013:0.014164489 1020:0.012979987 1025:0.0043266625 1036:0.0061694337 1048:0.0038103161 1090:0.0023450949 1100:0.0038103161 1110:0.0035082726 1115:0.0048781838 1173:0.0038103161 1177:0.0043266625 1194:0.0043266625 1206:0.0072457842 1241:0.0070165452 1308:0.0013280553 1313:0.0034440148 1315:0.0043266625 1371:0.0013832605 1390:0.0022612766 1398:0.0028770948 1437:0.003127743 1502:0.0076206322 1510:0.0043266625 1530:0.0013414777 1557:0.0076358053 1570:0.003127743 1601:0.0015077043 1651:0.0032939694 1654:0.0053122211 1676:0.0043266625 1687:0.010450248 1696:0.0019288238 1698:0.0035082726 1711:0.01730665 1713:0.0043266625 1716:0.0038103161 1726:0.0034225304 1769:0.0070165452 1779:0.0016997689 1796:0.01730665 1827:0.0047778348 1829:0.002777623 1830:0.0062851505 1842:0.0043266625 1847:0.012979987 1867:0.0043266625 1874:0.016469847 1890:0.0038576475 1912:0.010475251 1921:0.0038103161 1930:0.0038103161 1938:0.0056356099 1941:0.0038103161 #
-5.8098461920933850421988609014079 259:0.0082727326 1115:0.012927188 1266:0.053637344 1812:0.11465655 1938:0.021334808 #
-2.1454436498635383046007518714759 17:0.0050028223 154:0.045801386 166:0.016582122 210:0.019510292 250:0.026764028 254:0.030390894 259:0.0021927725 319:0.030390894 322:0.013145547 333:0.0050438615 349:0.039436642 424:0.030390894 529:0.04928489 546:0.053528056 594:0.12321223 611:0.017843995 709:0.02196957 715:0.030390894 731:0.030390894 838:0.026764028 905:0.013761844 913:0.030390894 922:0.02196957 997:0.012095545 1036:0.010833674 1064:0.030390894 1090:0.008236086 1557:0.015324181 1637:0.030390894 1660:0.030390894 1664:0.018893996 1687:0.0066730496 1827:0.02516998 #
-2.0199669208940260745066552772187 17:0.0036424058 78:0.011115542 166:0.024145897 210:0.014204862 250:0.03897218 259:0.0015964922 275:0.011564248 333:0.0073445705 349:0.019141763 390:0.097430453 442:0.01794143 686:0.01948609 841:0.029427126 951:0.014204862 997:0.0088064065 1090:0.0059964485 1178:0.022126704 1206:0.012351732 1268:0.029427126 1308:0.0067917211 1326:0.097430453 1442:0.03588286 1535:0.033690952 1545:0.01948609 1557:0.011157079 1673:0.012660202 1687:0.012146121 1767:0.016845476 1792:0.03897218 1793:0.015300816 1827:0.018325511 1907:0.01948609 #
-1.3126462475464166779204333579401 17:0.0062914281 53:0.013318053 93:0.19109426 136:0.047521263 175:0.030989742 207:0.015622463 259:0.0027575775 333:0.0063430383 597:0.015211065 892:0.02909673 1206:0.0071116029 1244:0.030989742 1308:0.011731154 1365:0.067315586 1410:0.023067337 1557:0.0096356589 1687:0.0041959328 1726:0.01007745 1827:0.031653155 1850:0.021340922 #
-13.044382335224740998569359362591 44:0.0017789673 53:0.0091944728 57:0.0079529602 73:0.0046473099 122:0.00527708 181:0.0050218618 206:0.0028793225 214:0.013009316 224:0.032807566 311:0.034231346 315:0.020087702 333:0.0070065358 355:0.011032002 378:0.00527708 397:0.0019963232 413:0.01055416 449:0.0045651901 452:0.0024282769 453:0.0092946198 459:0.0080350805 463:0.0035090924 477:0.00527708 502:0.010197879 561:0.018213043 563:0.021394592 598:0.00527708 600:0.0030193785 698:0.0021570765 801:0.00527708 814:0.0046473099 864:0.00527708 905:0.0023896089 997:0.0021002726 1018:0.00527708 1028:0.00527708 1082:0.00527708 1115:0.0041648261 1119:0.0036491484 1134:0.012836755 1214:0.0046473099 1239:0.00527708 1290:0.013121209 1308:0.0016197829 1359:0.01055416 1371:0.020245379 1465:0.0035090924 1511:0.00527708 1557:0.009313127 1598:0.036157861 1601:0.0018388944 1654:0.012958263 1667:0.0049373289 1687:0.0052141924 1726:0.0027828943 1755:0.032092635 1760:0.0042789183 1779:0.0062194476 1780:0.00527708 1794:0.032140322 1804:0.01055416 1825:0.0022495526 1827:0.0029136797 1829:0.0033877704 1836:0.0040175403 1890:0.0023525192 1912:0.0076657799 1923:0.034333196 1938:0.0019638736 1957:0.0040175403 #
-0.82073547301808869036676696850918 259:0.010111118 1115:0.015799897 1130:0.10130412 1422:0.063457392 1563:0.14013579 #
-0.54568877661007675339277511739056 17:0.027682284 83:0.10149628 786:0.16816294 1788:0.10149628 #
-0.84851921951063347115962187672267 259:0.0042325608 368:0.058661494 393:0.058661494 608:0.058661494 983:0.12169486 1013:0.032007355 1093:0.032755833 1115:0.01322782 1257:0.10332159 1422:0.026563559 1492:0.037659403 1617:0.013213994 1740:0.040564954 1764:0.030658703 #
-1.7031679085554332075957972847391 17:0.021854434 40:0.11691654 259:0.0095789535 1164:0.10107286 #
-1.1630072624211997833754139719531 17:0.021854434 237:0.13276023 259:0.0095789535 1309:0.13276023 #
-1.8193194091294144776327357249102 229:0.13635486 701:0.071685746 1371:0.053762726 #
-0.75126188655053682818873994619935 1743:0.22931311 #
-2.3840215046712507351855947490549 17:0.0098865302 154:0.090512268 259:0.0043333364 333:0.0099676317 754:0.060058195 1071:0.027196024 1115:0.0067713843 1206:0.011175376 1263:0.039936814 1325:0.036248673 1526:0.13024816 1687:0.0065936088 1726:0.015835993 #
-0.75429097494836538917439838769496 1724:0.22931311 #
-0.32108369866281977200728192656243 1026:0.34916076 #
-0.48049582212163288730266685888637 1240:0.15857209 1509:0.20194675 #
-0.23729041828848695949716329778312 66:0.40906459 #
-0.028299340938299069603267810180114 301:0.38349807 1549:0.095152766 1650:0.1388384 1687:0.017308222 #
-0.24982218203633890785120286182064 1549:0.13840403 1809:0.3718769 #
-2.1607744492318157192300986935152 17:0.0017017798 38:0.004538815 53:0.0072048488 194:0.031013658 199:0.0078704273 225:0.045520782 259:0.00074590213 268:0.0083824713 333:0.010294439 425:0.013273396 476:0.0066366978 481:0.0091041569 492:0.0091041569 493:0.0068743695 578:0.0091041569 624:0.027312471 629:0.007473255 647:0.0056406399 689:0.0091041569 728:0.014297483 778:0.021611873 852:0.010337886 861:0.0091041569 866:0.083824709 1002:0.0091041569 1036:0.0073704505 1044:0.0083824713 1058:0.0091041569 1113:0.033529885 1115:0.0011655662 1125:0.0083824713 1206:0.007694521 1226:0.007473255 1313:0.0041144686 1371:0.0099152569 1406:0.010337886 1484:0.0091041569 1557:0.0026063668 1558:0.0091041569 1623:0.045520782 1627:0.0078704273 1634:0.0071487417 1646:0.0078704273 1667:0.0096723074 1687:0.013619585 1726:0.0027258678 1914:0.031481709 #
-2.3534893649078485466930032998789 222:0.077491194 275:0.015329352 397:0.011095843 585:0.029330747 601:0.018829701 619:0.021203188 692:0.021203188 714:0.025830397 727:0.023782825 787:0.044660099 1036:0.010455756 1090:0.0079487804 1115:0.0033069551 1266:0.013721181 1296:0.018234903 1348:0.018829701 1350:0.022330049 1414:0.023782825 1452:0.029330747 1554:0.029330747 1557:0.0073948083 1654:0.0090029789 1687:0.0032201344 1746:0.025830397 1874:0.022330049 1883:0.025830397 #
-0.56401810356663384382613912748639 259:0.013000009 662:0.18017459 1375:0.18017459 #
-0.33200942283759776740836855424277 233:0.18017459 986:0.11981044 1422:0.081588075 1617:0.040585838 1654:0.055304013 1687:0.019780826 #
-0.3617642922437654395828587894357 17:0.0018620371 44:0.0038132125 51:0.0099614989 133:0.011311409 140:0.0086115887 164:0.017223177 180:0.0086115887 253:0.0099614989 258:0.027515557 259:0.00081614405 286:0.031287767 333:0.013141182 349:0.0048927376 371:0.0066414867 374:0.0099614989 479:0.011311409 493:0.015043464 502:0.0062454659 667:0.036687408 850:0.011311409 1033:0.0075217318 1036:0.0040322645 1054:0.011311409 1090:0.0030654492 1115:0.001275328 1135:0.0086115887 1206:0.0042095585 1308:0.0034720008 1358:0.0091718519 1371:0.003616327 1380:0.0091718519 1398:0.0075217318 1420:0.01992446 1493:0.082546666 1512:0.011311409 1537:0.015643883 1557:0.0085554281 1613:0.011311409 1687:0.0086929193 1772:0.019922998 1827:0.0093681989 1838:0.0081770141 1901:0.011311409 1908:0.022622818 1910:0.011311409 #
-1.4800056251431386034056458811392 11:0.020455441 184:0.027090417 259:0.0022195138 333:0.0051053721 510:0.01330586 597:0.012243052 706:0.027090417 1013:0.016784344 1115:0.0034682699 1130:0.022237491 1308:0.0094421487 1422:0.013929671 1589:0.030761516 1687:0.0067544286 1726:0.0081111183 1814:0.12304606 1862:0.049885925 #
-0.26869805930047363506929514187505 259:0.018200012 640:0.22214143 1895:0.25224441 #
-0.55827622926515607648667582907365 259:0.009100006 423:0.087214649 1115:0.014219906 1160:0.12612221 1317:0.12612221 #
-0.40478363758801128025055504622287 17:0.011863836 259:0.0052000033 288:0.072069839 292:0.072069839 328:0.036204908 356:0.058437798 381:0.072069839 635:0.063468978 905:0.032635227 954:0.054868121 1352:0.072069839 1383:0.072069839 1617:0.016234335 1687:0.0079123303 1756:0.072069839 1819:0.1753134 1829:0.046267264 1909:0.058437798 #
-1.0574207174135890063837450725259 259:0.009100006 932:0.080967709 1115:0.014219906 1151:0.11107071 1663:0.12612221 #
-0.32879467428226627490062128345016 11:0.083867311 17:0.020761713 259:0.009100006 773:0.19203842 1471:0.080967709 1850:0.14085008 #
-0.078773652928840753872918867273256 17:0.016609371 148:0.16362584 259:0.0072800047 502:0.055709556 683:0.057730518 999:0.20179553 1094:0.057730518 1422:0.045689318 #
-0.61697011474810925513168058387237 50:0.076437704 62:0.076437704 460:0.061979484 701:0.032584429 832:0.047521263 986:0.050828673 1191:0.050828673 1230:0.055256795 1422:0.034613121 1530:0.02369944 1617:0.017218234 1654:0.023462309 1687:0.0083918655 1696:0.034075886 1706:0.061979484 1851:0.046134673 #
-1.3295497883905356140132880682359 17:0.0023864037 143:0.040474162 332:0.019279841 333:0.0024059799 485:0.020959474 569:0.070528381 610:0.0096399207 701:0.0061798058 746:0.010024672 779:0.012766749 813:0.042558953 1035:0.014496806 1137:0.014496806 1185:0.012766749 1188:0.012766749 1206:0.0026975046 1207:0.014496806 1307:0.012766749 1373:0.014496806 1432:0.014496806 1468:0.05666383 1542:0.012766749 1687:0.0047746822 1728:0.012766749 1730:0.067479447 1938:0.0026975046 #
-4.5244634001268630996150932332966 44:0.012884036 57:0.038399145 259:0.0027575775 266:0.061979484 1115:0.0043090624 1119:0.052857362 1349:0.030989742 1371:0.024437603 1448:0.061979484 1454:0.02909673 1557:0.0096356589 1630:0.02909673 1667:0.035758227 1825:0.016292214 1836:0.05819346 #
-1.1263265867192693292508920421824 22:0.012244875 154:0.067664512 259:0.00088349573 333:0.020322355 357:0.018644508 379:0.012244875 485:0.017703634 1115:0.002761147 1206:0.0022784746 1234:0.017703634 1308:0.033826727 1325:0.0073905061 1332:0.012244875 1366:0.016284915 1435:0.009322254 1491:0.018644508 1519:0.017703634 1526:0.017703634 1629:0.010783564 1687:0.01344328 1689:0.016934883 1696:0.054587584 1726:0.032286979 1737:0.1469385 1745:0.018644508 1754:0.016934883 1797:0.010783564 1851:0.0073905061 1939:0.024489749 #
-2.654776983828623482253306065104 224:0.053159382 315:0.032548886 551:0.030906342 573:0.019673159 698:0.034951951 1115:0.0048203073 1206:0.0079553528 1324:0.03466649 1626:0.03466649 1654:0.013122987 1794:0.032548886 1825:0.018225189 1834:0.032548886 1890:0.038118787 1923:0.061812684 #
-0.73368735214001279398843280432629 701:0.031626064 811:0.074189536 1115:0.0083646514 1206:0.013804876 1420:0.13068102 1784:0.074189536 1815:0.074189536 #
-0.37911998279119479837717676673492 259:0.009100006 301:0.2045323 519:0.12612221 1115:0.014219906 #
-2.028751526432753138351472443901 13:0.01586443 17:0.0026115363 27:0.025727334 53:0.011056498 154:0.0239089 171:0.012863667 259:0.0011446548 286:0.010970396 333:0.0052659186 449:0.0068621412 502:0.0043796818 597:0.0063140271 753:0.0098629035 802:0.010970396 1071:0.014367711 1115:0.0017886675 1206:0.0088559585 1270:0.064318329 1325:0.0095751211 1371:0.0050719553 1420:0.018629579 1537:0.010970396 1557:0.0039997078 1687:0.0087085394 1726:0.012549278 1754:0.054851979 1850:0.0088584963 #
-2.274852137117777228780823861598 17:0.0057671424 44:0.011810366 82:0.024226291 333:0.0058144517 410:0.053833138 452:0.016121062 464:0.035033949 701:0.01493453 827:0.026672004 963:0.026672004 1036:0.012488819 1090:0.0094943773 1206:0.0065189693 1308:0.010753558 1543:0.030852975 1557:0.0088326875 1566:0.061705951 1673:0.02004532 1687:0.0038462717 #
-0.38238011787943981811821458904888 259:0.012133341 604:0.14809428 1579:0.11182308 1617:0.037880115 1654:0.051617082 1687:0.018462105 1938:0.031291053 #
-3.2589429707328307905811470845947 2:0.00899358 44:0.0068853959 48:0.00828066 214:0.0050351848 259:0.0014736851 333:0.0033898018 387:0.01798716 449:0.00441733 452:0.0046992567 753:0.006348995 808:0.020424649 886:0.01798716 938:0.00828066 1008:0.010212325 1019:0.010212325 1036:0.0036404654 1046:0.00899358 1071:0.004624425 1093:0.0057024327 1115:0.0034542284 1116:0.00899358 1201:0.010212325 1206:0.0019002664 1237:0.00828066 1296:0.006348995 1299:0.012327484 1302:0.026980739 1355:0.00899358 1391:0.00828066 1415:0.00899358 1607:0.00899358 1636:0.01798716 1687:0.002242361 #
-0.41260432360453508371378461561108 701:0.076806158 915:0.11566816 1206:0.033526126 1687:0.019780826 1827:0.049740672 1922:0.15867245 #
-0.43813099799708554726862530515064 41:0.11465655 57:0.057598714 259:0.0082727326 287:0.092969224 1115:0.012927188 1755:0.053637344 #
-0.43813099799709076531684104338638 57:0.057598714 227:0.092969224 259:0.0082727326 643:0.11465655 1115:0.012927188 1755:0.053637344 #
-0.15390310190298947534692786121013 1240:0.31714419 #
-1.1388417375971604528217540064361 17:0.0046137138 100:0.022725811 147:0.014079686 154:0.042239059 164:0.021337602 259:0.0020222235 322:0.012123116 328:0.014079686 331:0.02468238 333:0.013954684 349:0.012123116 410:0.014355503 449:0.012123116 485:0.060782474 496:0.012305232 647:0.015292402 802:0.019381033 977:0.028027158 1036:0.0099910554 1071:0.012691477 1090:0.0075955014 1115:0.0031599791 1121:0.021337602 1206:0.0052151754 1325:0.016916048 1420:0.016456129 1557:0.0070661502 1570:0.020260824 1687:0.0061540348 1688:0.016916048 1726:0.0073901303 1762:0.028027158 1802:0.021337602 1827:0.015474876 1850:0.01565001 #
-0.34433091090832529390652894107916 44:0.0068576322 53:0.0070886416 169:0.01649454 259:0.0014677428 307:0.01649454 309:0.01649454 322:0.008799036 333:0.0067522665 452:0.0093606161 496:0.0089312168 631:0.010029763 668:0.073527187 795:0.020342292 815:0.020342292 905:0.0092115561 1090:0.0055128639 1115:0.0022935334 1118:0.061026875 1206:0.011355624 1244:0.01649454 1308:0.0062440014 1314:0.01649454 1410:0.012277776 1557:0.0051286574 1590:0.10748778 1670:0.020342292 1687:0.0089332759 1726:0.0053638043 1827:0.02246353 1885:0.020342292 1941:0.01791463 #
-16.171229265106742190027944161557 12:0.029268542 17:0.0090268319 52:0.033096615 310:0.028659223 316:0.064393543 397:0.020744402 439:0.033096615 502:0.015138466 1067:0.033096615 1090:0.029721528 1195:0.048891488 1235:0.026091846 1266:0.025652643 1422:0.024831152 1530:0.017001772 1601:0.019108512 1617:0.012352211 1687:0.0060202512 1830:0.053104967 1938:0.040814418 #
-2.8695118694606609466291047283448 12:0.032837879 17:0.010127665 69:0.064308502 872:0.076497644 1090:0.016673053 1195:0.027426932 1196:0.088949963 1235:0.029273778 1530:0.019075159 1617:0.013858579 1641:0.072246417 1687:0.020263284 1938:0.022895893 #
-0.53046812151830613490943733268068 17:0.017301427 148:0.17044358 259:0.0075833383 502:0.087046176 683:0.060135957 1094:0.060135957 #
-0.32126389841473690367479321139399 6:0.035033949 17:0.0057671424 44:0.011810366 76:0.035033949 124:0.035033949 181:0.016669791 207:0.014320591 259:0.0025277794 332:0.093185902 333:0.0058144517 355:0.018310059 450:0.035033949 452:0.016121062 493:0.023296475 502:0.009671798 597:0.013943477 729:0.070067897 809:0.035033949 1111:0.035033949 1455:0.028407265 1465:0.023296475 1601:0.012208216 1610:0.035033949 1634:0.024226291 1755:0.016389187 1851:0.021145059 1938:0.0065189693 #
-0.69270489620777275785457050005789 17:0.0030987631 89:0.010271017 154:0.094565056 333:0.012496732 350:0.032311857 389:0.06631574 496:0.066117667 523:0.13664562 573:0.017324125 1144:0.016577719 1206:0.010508189 1308:0.011556063 1530:0.0058364295 1687:0.022733187 1726:0.0099270409 1825:0.016049048 #
-0.90822546228482536889714538119733 17:0.004800396 106:0.023645353 210:0.018720858 243:0.023645353 258:0.023645353 259:0.0021040477 333:0.0048397747 665:0.02568109 701:0.0062155272 832:0.0090647498 903:0.014580603 1135:0.022200974 1206:0.010852388 1230:0.063241884 1366:0.0096956426 1516:0.02568109 1666:0.014580603 1687:0.003201521 1696:0.013000049 1827:0.0040252567 1913:0.011100487 #
-0.077422715216640194957342657744448 10:0.15765277 259:0.011375007 588:0.15765277 832:0.098012611 1191:0.10483414 1696:0.070281513 1846:0.15765277 #
-0.36222222323277725175572072657815 44:0.0023819227 74:0.01413134 78:0.0035495006 103:0.011458392 196:0.0070656701 203:0.077722371 206:0.0038552275 207:0.0057763727 220:0.0070656701 246:0.0046984488 259:0.00050980423 275:0.011078355 322:0.0091687432 328:0.0035495006 333:0.0082086371 349:0.024449982 355:0.003692785 452:0.0032513065 463:0.0046984488 502:0.0019506146 520:0.018667346 611:0.0041486039 668:0.0051077711 675:0.012444898 741:0.0042645498 823:0.024889795 892:0.010758455 922:0.0051077711 937:0.0070656701 953:0.013608019 997:0.0028121297 1001:0.02826268 1010:0.0070656701 1015:0.049459692 1037:0.0070656701 1087:0.012444898 1090:0.0038296646 1115:0.0031865337 1139:0.0062224488 1206:0.010518 1208:0.0062224488 1242:0.0062224488 1265:0.012444898 1269:0.0070656701 1289:0.011458392 1308:0.0043375697 1313:0.0056242594 1314:0.0057291961 1316:0.0082972078 1320:0.035328351 1321:0.035328351 1322:0.032275364 1390:0.003692785 1410:0.012793649 1437:0.010215542 1474:0.0070656701 1523:0.02826268 1557:0.0071255295 1568:0.0062224488 1593:0.0062224488 1594:0.0062224488 1664:0.0087854434 1675:0.0053792275 1687:0.010860061 1714:0.0046984488 1726:0.0055891741 1779:0.0055516264 1810:0.0070656701 1827:0.013654303 1860:0.0062224488 1938:0.0013147501 1948:0.0051077711 #
-0.1082049837608450026937845223074 259:0.0086666727 640:0.21156326 1115:0.013542769 1447:0.12011639 1948:0.086832106 #
-0.075998438362425868586313981722924 7:0.11732299 259:0.0021162804 425:0.15063761 460:0.023782825 470:0.029330747 493:0.019504026 832:0.018234903 918:0.025830397 1036:0.052278776 1135:0.022330049 1171:0.025830397 1191:0.019504026 1299:0.070811361 1488:0.023782825 1530:0.036375884 1617:0.026427988 1654:0.036011916 1687:0.012880538 1690:0.0951313 1696:0.01307563 1769:0.023782825 1803:0.023782825 1914:0.022330049 #
-0.040779683652998902076980414221907 259:0.0075833383 612:0.10510185 1071:0.047593042 1115:0.011849922 1234:0.075978093 1407:0.21020369 1689:0.072678871 1696:0.046854343 #
-0.64123933812659650310905590231414 17:0.00078941876 30:0.009591043 44:0.0032332563 48:0.0077768937 53:0.0016710866 78:0.0048181433 82:0.0033161463 85:0.004223221 97:0.0031888711 116:0.0047955215 126:0.0038884468 131:0.009591043 137:0.0047955215 141:0.0047955215 150:0.0047955215 156:0.0047955215 181:0.0022817964 191:0.0047955215 205:0.0047955215 207:0.0019602329 214:0.0047288616 230:0.0047955215 259:0.00069201569 275:0.0050126398 281:0.0033161463 295:0.004223221 318:0.0047955215 333:0.0015917891 335:0.0036509207 349:0.0082971901 397:0.005442448 429:0.0038884468 449:0.0020742975 502:0.0013238962 515:0.009591043 597:0.0019086127 672:0.015553787 673:0.0034666811 684:0.0047955215 734:0.0047955215 782:0.008446442 899:0.0047955215 904:0.0077768937 905:0.0021715455 908:0.004223221 945:0.004223221 990:0.0047955215 997:0.0076344507 1033:0.022322098 1036:0.0034189923 1078:0.0047955215 1099:0.0036509207 1101:0.0047955215 1115:0.0016220426 1116:0.012669663 1127:0.0031888711 1165:0.004223221 1206:0.0035693217 1237:0.0077768937 1242:0.004223221 1249:0.0047955215 1253:0.0077768937 1259:0.0047955215 1306:0.0047955215 1374:0.0069333622 1381:0.0047955215 1390:0.0050126398 1391:0.0077768937 1398:0.0031888711 1408:0.0034666811 1424:0.004223221 1492:0.0030786202 1503:0.004223221 1505:0.004223221 1530:0.0014868471 1535:0.0073018414 1557:0.0048361486 1584:0.0073018414 1604:0.0031888711 1642:0.0020152971 1654:0.00294394 1662:0.009591043 1687:0.0042118868 1696:0.0064135222 1726:0.002528942 1740:0.0066322926 1750:0.0047955215 1767:0.0036509207 1827:0.014562859 1861:0.0047955215 1887:0.0047955215 1938:0.00089233043 1945:0.009591043 1960:0.03356865 #
-0.069340915072994266377115479826898 259:0.0075833383 408:0.10510185 510:0.045461684 1040:0.10510185 1115:0.011849922 #
-3.5421840559438160234151382610435 69:0.028659223 502:0.037846163 561:0.040555131 642:0.022231771 698:0.056037094 778:0.057318445 947:0.054696072 1090:0.022291146 1115:0.0030912841 1195:0.036668617 1196:0.019820372 1235:0.013045923 1290:0.034086619 1344:0.037919413 1392:0.056879118 1402:0.016098386 1530:0.0085008861 1601:0.028662767 1617:0.0061761057 1641:0.032196771 1687:0.0090303775 1779:0.021542724 1890:0.06111436 1936:0.032196771 1938:0.035712615 #
