SVM-light Version V6.02
0 # kernel type
3 # kernel parameter -d 
1 # kernel parameter -g 
1 # kernel parameter -s 
1 # kernel parameter -r 
empty# kernel parameter -u 
1961 # highest feature index 
333 # number of training documents 
80 # number of support vectors plus 1 
1.0148064 # threshold b, each following line is a SV (starting with alpha*y)
-0.015574019782046529675190171815302 259:1 582:1 1115:1 1167:1 1617:1 1938:1 #
-0.0099045732870955659199463383401962 17:1 148:1 259:1 502:1 683:1 999:1 1094:1 1422:1 #
-0.015215362058524320443275712477771 17:1 259:1 272:1 1266:1 1348:1 1593:1 1938:1 #
-0.0005891458480259646746102220049579 229:1 701:1 1371:1 #
-0.0038467368053647140596629228070924 44:1 57:1 259:1 449:1 459:1 1115:1 1119:1 1206:1 1243:1 1371:1 1454:1 1557:1 1630:1 1667:1 1825:1 #
0.058733706864020691906791427072676 17:1 78:1 89:1 91:1 113:1 166:1 238:1 327:1 490:1 502:1 1069:1 1093:1 1199:1 1299:1 1419:1 1530:1 1557:1 1687:1 1764:1 1817:1 1879:1 1938:1 #
0.010601306018330196312415836246146 17:1 97:1 207:1 259:1 893:1 1090:1 1103:1 1211:1 1290:1 1311:1 1617:1 1642:1 1798:1 1881:1 1938:1 #
-0.0037033633597001961584860296738952 17:1 38:1 53:1 64:1 78:1 98:1 129:1 177:1 180:1 207:1 208:1 259:1 275:1 316:1 322:1 328:1 333:1 349:1 478:1 502:1 558:1 566:1 571:1 576:1 584:1 601:1 606:1 607:1 611:1 648:1 664:1 677:1 681:1 696:1 697:1 705:1 719:1 736:1 742:1 803:1 813:1 874:1 879:1 882:1 901:1 924:1 927:1 949:1 951:1 953:1 957:1 989:1 997:1 1013:1 1055:1 1068:1 1081:1 1090:1 1093:1 1099:1 1115:1 1206:1 1216:1 1264:1 1265:1 1303:1 1313:1 1319:1 1347:1 1356:1 1385:1 1387:1 1397:1 1414:1 1424:1 1437:1 1501:1 1513:1 1537:1 1544:1 1574:1 1597:1 1601:1 1615:1 1621:1 1642:1 1643:1 1648:1 1651:1 1655:1 1673:1 1675:1 1687:1 1726:1 1738:1 1747:1 1749:1 1764:1 1779:1 1789:1 1795:1 1824:1 1827:1 1828:1 1832:1 1869:1 1880:1 1886:1 1896:1 1930:1 1934:1 1935:1 1938:1 1944:1 #
-0.0044210517558457597397936211791603 166:1 259:1 1115:1 1938:1 #
0.011466225619845700836596513738641 17:1 188:1 207:1 259:1 419:1 893:1 1090:1 1103:1 1211:1 1290:1 1617:1 1642:1 1798:1 1881:1 1938:1 #
-0.058733706864020691906791427072676 17:1 38:1 44:1 333:1 452:1 489:1 502:1 893:1 1103:1 1465:1 1530:1 1601:1 1617:1 1779:1 1798:1 1918:1 1938:1 #
-0.0049466557157203036587667099865939 17:1 78:1 166:1 210:1 250:1 259:1 275:1 333:1 349:1 390:1 442:1 686:1 841:1 951:1 997:1 1090:1 1178:1 1206:1 1268:1 1308:1 1326:1 1442:1 1535:1 1545:1 1557:1 1673:1 1687:1 1767:1 1792:1 1793:1 1827:1 1907:1 #
-0.023180913667650879933512797492767 12:1 17:1 52:1 310:1 316:1 397:1 439:1 502:1 1067:1 1090:1 1195:1 1235:1 1266:1 1446:1 1530:1 1601:1 1617:1 1687:1 1830:1 1938:1 #
-0.01221760668267980916301684857217 259:1 368:1 393:1 608:1 983:1 1013:1 1093:1 1115:1 1257:1 1422:1 1492:1 1617:1 1740:1 1764:1 #
-0.0045811240902548745410061137306457 17:1 259:1 288:1 292:1 328:1 356:1 381:1 635:1 905:1 954:1 1352:1 1383:1 1617:1 1687:1 1756:1 1819:1 1829:1 1909:1 #
0.058733706864020691906791427072676 57:1 259:1 518:1 1115:1 1119:1 1243:1 1667:1 1825:1 #
0.058733706864020691906791427072676 701:1 1367:1 #
0.058733706864020691906791427072676 17:1 68:1 102:1 113:1 166:1 327:1 490:1 800:1 1069:1 1206:1 1215:1 1268:1 1299:1 1492:1 1740:1 1764:1 1817:1 1851:1 1879:1 #
0.058733706864020691906791427072676 17:1 53:1 97:1 181:1 259:1 333:1 502:1 572:1 597:1 623:1 688:1 906:1 1090:1 1211:1 1308:1 1617:1 1642:1 1779:1 1881:1 1892:1 1912:1 1956:1 #
-0.0038671894275273642482826375044169 17:1 53:1 89:1 270:1 283:1 333:1 352:1 525:1 555:1 573:1 738:1 743:1 986:1 1144:1 1266:1 1308:1 1313:1 1422:1 1530:1 1573:1 1617:1 1628:1 1654:1 1687:1 1726:1 1732:1 1822:1 1825:1 1827:1 1870:1 #
-0.037202652222545574967060844073785 17:1 53:1 57:1 102:1 113:1 147:1 166:1 259:1 281:1 327:1 329:1 333:1 355:1 412:1 490:1 514:1 526:1 600:1 1115:1 1206:1 1290:1 1299:1 1311:1 1469:1 1492:1 1550:1 1687:1 1723:1 1726:1 1740:1 1764:1 1817:1 1825:1 1831:1 1851:1 1890:1 1938:1 1949:1 #
-0.0056335217990878599589321673590803 23:1 43:1 48:1 66:1 67:1 104:1 108:1 117:1 179:1 238:1 240:1 302:1 325:1 327:1 387:1 401:1 410:1 425:1 426:1 429:1 483:1 484:1 490:1 505:1 594:1 600:1 629:1 693:1 700:1 712:1 774:1 787:1 904:1 909:1 915:1 919:1 944:1 945:1 1006:1 1029:1 1033:1 1047:1 1060:1 1088:1 1135:1 1146:1 1191:1 1237:1 1240:1 1248:1 1262:1 1268:1 1299:1 1384:1 1404:1 1435:1 1445:1 1467:1 1493:1 1494:1 1519:1 1543:1 1549:1 1561:1 1617:1 1629:1 1658:1 1661:1 1688:1 1690:1 1691:1 1699:1 1710:1 1764:1 1803:1 1809:1 1877:1 1878:1 1888:1 1903:1 1906:1 1909:1 1912:1 1921:1 #
-0.0079337817149493037455210142638862 33:1 78:1 90:1 101:1 120:1 235:1 322:1 327:1 328:1 340:1 349:1 351:1 397:1 400:1 494:1 510:1 511:1 544:1 546:1 583:1 584:1 596:1 601:1 631:1 660:1 663:1 705:1 733:1 741:1 774:1 812:1 817:1 821:1 822:1 837:1 869:1 904:1 905:1 932:1 935:1 975:1 985:1 997:1 1003:1 1006:1 1090:1 1163:1 1191:1 1197:1 1204:1 1217:1 1226:1 1258:1 1299:1 1323:1 1369:1 1376:1 1390:1 1436:1 1439:1 1464:1 1520:1 1544:1 1587:1 1595:1 1619:1 1664:1 1673:1 1681:1 1693:1 1698:1 1744:1 1764:1 1813:1 1818:1 1829:1 1912:1 1926:1 1958:1 #
-0.017021511066976323378607816039221 17:1 259:1 664:1 1093:1 1385:1 1513:1 1606:1 1764:1 1789:1 1827:1 1828:1 1938:1 #
-0.033019100877922091807903370863642 17:1 259:1 793:1 1036:1 1290:1 1339:1 1557:1 #
0.03960175695829486891552662086724 15:1 17:1 259:1 541:1 602:1 694:1 893:1 1086:1 1090:1 1103:1 1617:1 1642:1 1687:1 1735:1 1798:1 1845:1 1938:1 #
0.053006199422717885372247081932073 15:1 17:1 259:1 541:1 602:1 893:1 1086:1 1090:1 1103:1 1422:1 1617:1 1642:1 1687:1 1735:1 1798:1 1868:1 1938:1 #
0.042886171561160063570028455615102 15:1 17:1 188:1 259:1 541:1 602:1 893:1 1086:1 1090:1 1103:1 1446:1 1617:1 1642:1 1687:1 1735:1 1798:1 1938:1 #
0.03444732736611764295497906118726 17:1 207:1 259:1 642:1 893:1 1090:1 1103:1 1211:1 1290:1 1617:1 1642:1 1798:1 1881:1 1897:1 1938:1 #
0.038889532363394110903165312720375 17:1 207:1 259:1 893:1 932:1 1090:1 1103:1 1211:1 1290:1 1338:1 1617:1 1642:1 1798:1 1881:1 1938:1 #
-0.016652159119590979191594115604858 207:1 375:1 570:1 597:1 701:1 722:1 1187:1 1456:1 1557:1 1687:1 1938:1 #
-0.03049653736939365172853300123279 259:1 688:1 878:1 1617:1 1654:1 1687:1 1938:1 #
-0.014568362433156137325518386660406 152:1 259:1 597:1 1617:1 1654:1 1687:1 1938:1 #
-0.01458429946581352512624540906927 259:1 597:1 652:1 1617:1 1654:1 1687:1 1938:1 #
-0.00045316458198265546775118650657532 259:1 604:1 1579:1 1617:1 1654:1 1687:1 1938:1 #
0.024310642673213467973569734681405 25:1 56:1 78:1 89:1 113:1 121:1 140:1 144:1 206:1 209:1 238:1 275:1 322:1 327:1 328:1 349:1 350:1 353:1 389:1 397:1 420:1 455:1 490:1 520:1 538:1 566:1 573:1 584:1 587:1 611:1 631:1 673:1 705:1 744:1 750:1 825:1 905:1 935:1 951:1 989:1 997:1 1000:1 1052:1 1069:1 1074:1 1093:1 1107:1 1110:1 1174:1 1184:1 1199:1 1213:1 1299:1 1411:1 1463:1 1489:1 1530:1 1586:1 1598:1 1621:1 1654:1 1664:1 1673:1 1764:1 1781:1 1786:1 1806:1 1817:1 1825:1 1826:1 1829:1 1833:1 1879:1 1912:1 1923:1 1938:1 #
0.027302799230598980007034271011435 5:1 12:1 17:1 24:1 38:1 46:1 52:1 53:1 69:1 75:1 127:1 143:1 154:1 181:1 192:1 207:1 214:1 223:1 224:1 310:1 316:1 333:1 346:1 397:1 399:1 439:1 444:1 449:1 454:1 502:1 561:1 597:1 674:1 688:1 778:1 789:1 818:1 868:1 905:1 912:1 997:1 1007:1 1014:1 1039:1 1051:1 1067:1 1069:1 1084:1 1090:1 1115:1 1159:1 1184:1 1195:1 1202:1 1235:1 1246:1 1250:1 1266:1 1282:1 1290:1 1311:1 1313:1 1319:1 1328:1 1331:1 1362:1 1368:1 1377:1 1402:1 1463:1 1513:1 1530:1 1541:1 1544:1 1579:1 1586:1 1600:1 1601:1 1617:1 1687:1 1694:1 1726:1 1779:1 1820:1 1827:1 1828:1 1830:1 1881:1 1912:1 1932:1 1936:1 1938:1 #
-0.011244315807906560614193303138109 16:1 44:1 89:1 102:1 113:1 166:1 214:1 234:1 259:1 274:1 299:1 327:1 397:1 412:1 440:1 452:1 490:1 502:1 602:1 740:1 855:1 935:1 1115:1 1148:1 1206:1 1299:1 1311:1 1374:1 1414:1 1468:1 1469:1 1492:1 1532:1 1620:1 1633:1 1652:1 1679:1 1687:1 1740:1 1764:1 1817:1 1825:1 1827:1 1955:1 1957:1 #
-0.0093620368850723459375196000564756 17:1 78:1 206:1 207:1 212:1 278:1 328:1 349:1 434:1 905:1 989:1 997:1 1036:1 1110:1 1158:1 1277:1 1374:1 1390:1 1408:1 1437:1 1445:1 1515:1 1525:1 1530:1 1570:1 1594:1 1617:1 1685:1 1739:1 1770:1 1795:1 1829:1 1912:1 1940:1 #
-2.2204460492503130808472633361816e-16 12:1 17:1 69:1 423:1 872:1 1090:1 1195:1 1235:1 1530:1 1617:1 1641:1 1687:1 1938:1 #
-0.012033638432507764992607235399191 26:1 38:1 97:1 207:1 214:1 259:1 326:1 333:1 399:1 502:1 561:1 597:1 631:1 688:1 997:1 998:1 1006:1 1011:1 1115:1 1127:1 1179:1 1299:1 1308:1 1311:1 1313:1 1319:1 1397:1 1601:1 1617:1 1682:1 1687:1 1755:1 1779:1 1827:1 1938:1 #
-0.018389376514728137529397500316009 17:1 186:1 207:1 259:1 350:1 389:1 398:1 501:1 683:1 720:1 1085:1 1094:1 #
-0.010543223132892930171689016560777 17:1 78:1 166:1 210:1 259:1 275:1 333:1 349:1 390:1 442:1 686:1 841:1 951:1 997:1 1074:1 1090:1 1206:1 1268:1 1308:1 1337:1 1421:1 1535:1 1545:1 1557:1 1673:1 1687:1 1705:1 1767:1 1793:1 1827:1 1907:1 1950:1 #
-0.01578197397795739684300819760665 89:1 144:1 206:1 328:1 397:1 463:1 472:1 566:1 701:1 813:1 887:1 949:1 953:1 1090:1 1092:1 1108:1 1114:1 1128:1 1180:1 1206:1 1316:1 1322:1 1459:1 1470:1 1586:1 1829:1 1938:1 #
-0.011161379011500088126451757375435 17:1 136:1 181:1 259:1 397:1 502:1 1013:1 1173:1 1263:1 1687:1 1830:1 1938:1 1952:1 #
-0.013727724861826738622649912713314 17:1 83:1 786:1 1788:1 #
-0.0086270487323158191045324727497245 17:1 38:1 44:1 259:1 333:1 452:1 465:1 574:1 719:1 870:1 924:1 1093:1 1216:1 1278:1 1387:1 1453:1 1517:1 1582:1 1621:1 1642:1 1764:1 1789:1 1925:1 1935:1 #
-0.024507574047392691185542901166627 17:1 40:1 259:1 1164:1 #
-0.024507574047392687716095949213013 17:1 237:1 259:1 1309:1 #
-0.010698278666140747031332303151885 11:1 17:1 259:1 773:1 1471:1 1850:1 #
-0.021848118379783988685094442416812 259:1 1428:1 1617:1 1770:1 #
0.034132051980280353475905030791182 17:1 207:1 259:1 509:1 893:1 1090:1 1103:1 1211:1 1290:1 1617:1 1642:1 1782:1 1798:1 1881:1 1938:1 #
0.016382248320296846633148390992574 17:1 53:1 97:1 181:1 259:1 333:1 502:1 572:1 597:1 623:1 688:1 906:1 1090:1 1211:1 1290:1 1308:1 1311:1 1617:1 1642:1 1779:1 1881:1 1892:1 1912:1 1956:1 #
-0.0057646407896733854042681244322921 17:1 154:1 166:1 210:1 250:1 254:1 259:1 319:1 322:1 333:1 349:1 424:1 529:1 546:1 594:1 611:1 709:1 715:1 731:1 838:1 905:1 913:1 922:1 997:1 1036:1 1064:1 1090:1 1557:1 1637:1 1660:1 1664:1 1687:1 1827:1 #
-0.0051573526057905830916050504697523 69:1 502:1 561:1 694:1 698:1 778:1 947:1 1090:1 1115:1 1195:1 1235:1 1290:1 1344:1 1392:1 1402:1 1530:1 1601:1 1617:1 1641:1 1687:1 1779:1 1890:1 1936:1 1938:1 1954:1 #
-0.0050410924299628808928352974305653 11:1 184:1 259:1 510:1 691:1 983:1 1093:1 1115:1 1257:1 1617:1 1764:1 1862:1 #
-0.0020559396373514096136025930405822 17:1 19:1 38:1 44:1 53:1 119:1 139:1 147:1 162:1 180:1 182:1 204:1 214:1 247:1 259:1 275:1 281:1 296:1 306:1 322:1 328:1 333:1 349:1 354:1 409:1 416:1 428:1 446:1 502:1 510:1 544:1 547:1 566:1 593:1 596:1 607:1 648:1 664:1 679:1 688:1 696:1 705:1 710:1 714:1 719:1 733:1 736:1 741:1 759:1 790:1 806:1 821:1 857:1 905:1 923:1 924:1 932:1 960:1 996:1 1014:1 1050:1 1065:1 1074:1 1075:1 1090:1 1104:1 1112:1 1115:1 1149:1 1206:1 1216:1 1218:1 1261:1 1278:1 1292:1 1298:1 1308:1 1319:1 1333:1 1362:1 1371:1 1372:1 1385:1 1390:1 1395:1 1397:1 1422:1 1464:1 1472:1 1489:1 1521:1 1530:1 1546:1 1557:1 1601:1 1612:1 1642:1 1651:1 1667:1 1673:1 1687:1 1697:1 1707:1 1726:1 1738:1 1758:1 1779:1 1795:1 1827:1 1884:1 1912:1 1926:1 1928:1 1934:1 1935:1 1938:1 #
-0.0014350999239910082819204895088205 17:1 30:1 44:1 48:1 53:1 78:1 82:1 85:1 97:1 116:1 126:1 131:1 137:1 141:1 150:1 156:1 181:1 191:1 205:1 207:1 214:1 230:1 259:1 275:1 281:1 295:1 318:1 333:1 335:1 349:1 397:1 429:1 449:1 502:1 515:1 597:1 672:1 673:1 684:1 734:1 782:1 899:1 904:1 905:1 908:1 945:1 990:1 997:1 1033:1 1036:1 1078:1 1099:1 1101:1 1115:1 1116:1 1127:1 1165:1 1206:1 1237:1 1242:1 1249:1 1253:1 1259:1 1306:1 1374:1 1381:1 1390:1 1391:1 1398:1 1408:1 1424:1 1492:1 1503:1 1505:1 1530:1 1535:1 1557:1 1584:1 1604:1 1642:1 1654:1 1662:1 1687:1 1696:1 1726:1 1740:1 1750:1 1767:1 1827:1 1861:1 1887:1 1938:1 1945:1 1960:1 #
-0.0010869090558700039879369558804001 78:1 264:1 341:1 349:1 371:1 465:1 491:1 542:1 566:1 586:1 601:1 705:1 718:1 905:1 935:1 953:1 989:1 997:1 1017:1 1033:1 1036:1 1268:1 1350:1 1482:1 1488:1 1555:1 1581:1 1616:1 1725:1 1746:1 1793:1 1795:1 1829:1 1854:1 1912:1 1929:1 1948:1 #
-0.00046450146078924278453953222722816 17:1 86:1 143:1 147:1 201:1 258:1 333:1 338:1 569:1 610:1 617:1 651:1 669:1 701:1 746:1 779:1 810:1 813:1 967:1 974:1 1133:1 1147:1 1185:1 1188:1 1229:1 1262:1 1307:1 1308:1 1353:1 1370:1 1420:1 1433:1 1468:1 1542:1 1585:1 1591:1 1728:1 1736:1 1821:1 #
-0.0024394297240057094544596338892006 175:1 496:1 701:1 #
-0.0028406941561827194799028095673066 69:1 502:1 561:1 642:1 698:1 778:1 947:1 1090:1 1115:1 1195:1 1196:1 1235:1 1290:1 1344:1 1392:1 1402:1 1530:1 1601:1 1617:1 1641:1 1687:1 1779:1 1890:1 1936:1 1938:1 #
-0.0017196181797720401507323373380132 14:1 17:1 84:1 259:1 333:1 355:1 402:1 432:1 435:1 451:1 467:1 482:1 537:1 759:1 884:1 926:1 1079:1 1104:1 1206:1 1216:1 1218:1 1385:1 1557:1 1601:1 1638:1 1642:1 1667:1 1687:1 1827:1 1935:1 1938:1 #
-0.0019656349749141883986869316913726 206:1 369:1 397:1 453:1 510:1 620:1 634:1 935:1 1036:1 1042:1 1045:1 1090:1 1107:1 1115:1 1206:1 1268:1 1397:1 1604:1 1648:1 1649:1 1714:1 1827:1 #
-0.0002284143446144859534996385264094 17:1 83:1 259:1 894:1 1176:1 1788:1 #
-0.0021633077409006998964580148481218 17:1 259:1 683:1 1094:1 1351:1 1552:1 1938:1 #
-0.0067194594556413888772339326749261 17:1 83:1 259:1 1176:1 1788:1 #
-0.00071658050952529139809854541454115 17:1 89:1 154:1 333:1 350:1 389:1 496:1 523:1 573:1 1144:1 1206:1 1308:1 1530:1 1687:1 1726:1 1825:1 #
-0.00018651814130360452425975992252205 176:1 206:1 259:1 275:1 322:1 333:1 349:1 356:1 365:1 392:1 397:1 421:1 442:1 566:1 823:1 855:1 862:1 905:1 922:1 949:1 951:1 954:1 1031:1 1090:1 1130:1 1267:1 1291:1 1422:1 1530:1 1538:1 1557:1 1672:1 1702:1 1764:1 1827:1 #
-0.00075851040683100920229697816665748 9:1 17:1 33:1 38:1 45:1 53:1 71:1 85:1 98:1 170:1 172:1 181:1 207:1 221:1 259:1 322:1 333:1 342:1 355:1 377:1 397:1 399:1 458:1 461:1 502:1 524:1 561:1 597:1 630:1 631:1 657:1 673:1 679:1 682:1 688:1 717:1 723:1 741:1 778:1 791:1 818:1 851:1 854:1 997:1 998:1 1014:1 1115:1 1127:1 1138:1 1141:1 1189:1 1190:1 1219:1 1224:1 1266:1 1291:1 1308:1 1313:1 1319:1 1374:1 1378:1 1393:1 1397:1 1513:1 1530:1 1601:1 1617:1 1635:1 1645:1 1654:1 1664:1 1682:1 1687:1 1694:1 1726:1 1727:1 1748:1 1753:1 1755:1 1766:1 1779:1 1800:1 1827:1 1848:1 1884:1 1938:1 1959:1 #
-0.044058096247784277188497270572043 12:1 17:1 69:1 872:1 1090:1 1195:1 1235:1 1530:1 1617:1 1641:1 1687:1 1938:1 #
-0.00050937621767758794674718636485977 32:1 78:1 206:1 214:1 246:1 259:1 322:1 328:1 348:1 349:1 496:1 512:1 554:1 601:1 621:1 631:1 647:1 748:1 905:1 962:1 997:1 1033:1 1038:1 1053:1 1090:1 1107:1 1115:1 1153:1 1182:1 1206:1 1253:1 1390:1 1398:1 1410:1 1417:1 1441:1 1458:1 1472:1 1477:1 1544:1 1557:1 1576:1 1646:1 1654:1 1696:1 1760:1 1816:1 1827:1 1889:1 1943:1 #
-0.001740697758185283904042162106407 44:1 259:1 264:1 310:1 397:1 433:1 502:1 510:1 664:1 769:1 845:1 932:1 1115:1 1318:1 1601:1 1617:1 1642:1 1654:1 1687:1 1793:1 1830:1 1915:1 1938:1 #
-0.00072372316984006942672258411164421 23:1 701:1 995:1 #
-0.00120762987154637044077964969091 17:1 53:1 93:1 136:1 175:1 207:1 259:1 333:1 597:1 892:1 1206:1 1244:1 1308:1 1365:1 1410:1 1557:1 1687:1 1726:1 1827:1 1850:1 #
-0.00021267533380509159261079199509936 259:1 449:1 1287:1 1625:1 #
-0.0040691767437044798136347445449701 12:1 17:1 52:1 310:1 316:1 397:1 439:1 502:1 1067:1 1090:1 1195:1 1235:1 1266:1 1422:1 1530:1 1601:1 1617:1 1687:1 1830:1 1938:1 #
-0.0024225001167832329977691596667455 69:1 423:1 502:1 509:1 561:1 698:1 778:1 947:1 1090:1 1115:1 1195:1 1235:1 1290:1 1344:1 1392:1 1402:1 1530:1 1601:1 1617:1 1641:1 1687:1 1779:1 1890:1 1936:1 1938:1 #
-0.00022841434461447207571183071195264 17:1 83:1 259:1 1142:1 1176:1 1788:1 #
