SVM-light Version V6.02
0 # kernel type
3 # kernel parameter -d 
1 # kernel parameter -g 
1 # kernel parameter -s 
1 # kernel parameter -r 
empty# kernel parameter -u 
215 # highest feature index 
20 # number of training documents 
20 # number of support vectors plus 1 
0.97216404 # threshold b, each following line is a SV (starting with alpha*y)
-1.7108219681788836563640643362305 3:0.010164297 13:0.010164297 17:0.010164297 19:0.010164297 20:0.010164297 21:0.010164297 26:0.020328594 32:0.010164297 35:0.010164297 38:0.020328594 39:0.010164297 42:0.010164297 44:0.010164297 46:0.0078125 48:0.010164297 50:0.010164297 55:0.010164297 57:0.010164297 63:0.0020284164 69:0.010164297 71:0.010164297 73:0.010164297 79:0.010164297 84:0.010164297 88:0.010164297 89:0.0078125 91:0.071150079 94:0.010164297 103:0.0064367871 104:0.03125 118:0.010164297 121:0.015625 126:0.010164297 128:0.010164297 139:0.010164297 141:0.010164297 142:0.0078125 144:0.010164297 145:0.010164297 146:0.010164297 147:0.014110781 158:0.010164297 159:0.0064367871 161:0.010164297 162:0.0094071878 163:0.01225497 166:0.0031089063 167:0.0064367871 169:0.040657189 170:0.012873574 173:0.010164297 177:0.010164297 183:0.010164297 187:0.010164297 192:0.010164297 194:0.010164297 200:0.0035619684 202:0.0054607033 210:0.010164297 215:0.0096813729 #
-3.888900063678782714760018279776 18:0.0025502634 27:0.034237631 33:0.034237631 40:0.02168181 46:0.02631579 47:0.034237631 59:0.052631579 64:0.02631579 86:0.034237631 89:0.02631579 102:0.034237631 114:0.034237631 120:0.034237631 142:0.02631579 170:0.02168181 199:0.015843684 200:0.023996418 205:0.02631579 206:0.034237631 215:0.016305469 #
-0.24319445195172376128489588609227 2:0.03826559 8:0.019132795 11:0.019132795 12:0.019132795 18:0.0014251473 24:0.019132795 40:0.012116305 58:0.019132795 59:0.014705882 60:0.019132795 62:0.019132795 90:0.019132795 98:0.019132795 100:0.019132795 101:0.019132795 107:0.03826559 110:0.019132795 117:0.019132795 151:0.014705882 155:0.019132795 159:0.024232609 162:0.026561471 164:0.019132795 186:0.019132795 205:0.014705882 215:0.0091118803 #
-20.672277900565738661953218979761 18:0.0024848722 51:0.013407147 63:0.013314734 93:0.042251728 127:0.025641026 147:0.030874871 150:0.030874871 156:0.042251728 162:0.030874871 193:0.023381125 215:0.01588738 #
-38.465422147822984300091775367036 18:0.0023636587 63:0.018997852 68:0.024390243 70:0.024390243 93:0.060286004 147:0.029368781 149:0.024390243 150:0.029368781 156:0.040190671 162:0.01468439 193:0.022240583 215:0.015112386 #
105.7158381079632789578681695275 18:0.0010420432 22:0.021505376 29:0.01398957 45:0.027979139 51:0.005622352 52:0.027979139 63:0.008375397 64:0.010752688 68:0.010752688 70:0.010752688 72:0.012947527 75:0.027979139 93:0.026577702 127:0.010752688 133:0.027979139 147:0.025895054 149:0.010752688 150:0.012947527 153:0.027979139 156:0.017718468 162:0.0064737634 193:0.019609977 200:0.0098049883 203:0.027979139 208:0.027979139 211:0.027979139 215:0.0066624498 #
-8.5699017620457826893698438652791 22:0.021739131 28:0.028283261 63:0.0056442893 66:0.021739131 76:0.021739131 78:0.021739131 82:0.028283261 105:0.021739131 113:0.021739131 119:0.021739131 131:0.028283261 150:0.013088261 166:0.0086508701 197:0.028283261 201:0.028283261 202:0.015195 #
-1.9067928712745365604774860912585 15:0.013379111 18:0.0021535559 25:0.022222223 31:0.028911777 63:0.011539436 72:0.013379111 74:0.015532667 106:0.015532667 109:0.015532667 122:0.018309083 135:0.013379111 143:0.028911777 148:0.018309083 163:0.011619528 168:0.015532667 171:0.013379111 176:0.015532667 181:0.015532667 188:0.010131821 199:0.013379111 200:0.020263642 213:0.028911777 215:0.010326797 #
-4.3901346118870776535914046689868 15:0.014001396 18:0.0022537212 30:0.023255814 36:0.030256512 63:0.012076154 72:0.014001396 74:0.016255116 92:0.030256512 106:0.016255116 109:0.016255116 135:0.014001396 148:0.019160669 163:0.012159971 166:0.0092544192 168:0.032510232 176:0.016255116 181:0.016255116 188:0.010603068 193:0.010603068 199:0.014001396 200:0.010603068 215:0.0072047422 #
-1.480057250319682271566534836893 15:0.0150515 18:0.0024227502 63:0.0064909328 72:0.0150515 74:0.017474251 106:0.017474251 109:0.017474251 116:0.065051503 135:0.0150515 163:0.013071968 166:0.0099485004 168:0.034948502 176:0.017474251 181:0.017474251 188:0.011398299 193:0.011398299 199:0.0150515 212:0.032525752 215:0.0077450979 #
-3.3927049429719340345457112562144 18:0.0046147625 51:0.024898987 96:0.061953809 122:0.039233748 166:0.018949524 188:0.021711046 193:0.021711046 215:0.0073762839 #
-0.63589500021889433512001232884359 9:0.054209583 18:0.0040379171 37:0.054209583 103:0.03432953 111:0.054209583 138:0.041666668 140:0.03432953 160:0.041666668 179:0.03432953 198:0.041666668 204:0.054209583 #
-1.1508737534427759818811409786576 10:0.061953809 18:0.0046147625 103:0.039233748 138:0.047619049 140:0.039233748 160:0.047619049 179:0.039233748 198:0.047619049 #
-3.9594985081516362868114811135456 4:0.0097091794 5:0.0097091794 7:0.0097091794 14:0.0097091794 16:0.019418359 34:0.0097091794 53:0.0097091794 56:0.0097091794 61:0.0097091794 65:0.0097091794 67:0.0097091794 80:0.0097091794 85:0.019418359 87:0.0097091794 95:0.0097091794 104:0.0074626864 121:0.014925373 123:0.019418359 129:0.0097091794 132:0.0097091794 136:0.0097091794 137:0.0097091794 140:0.012297145 151:0.0074626864 152:0.0097091794 154:0.019418359 157:0.0097091794 166:0.0059394031 172:0.0097091794 174:0.0061485725 175:0.0097091794 178:0.0097091794 179:0.0061485725 180:0.0097091794 182:0.019418359 184:0.0097091794 185:0.019418359 190:0.0097091794 191:0.019418359 202:0.0052161939 209:0.0097091794 214:0.0097091794 #
-0.50757394399105704163588370647631 15:0.037628751 18:0.0060568759 63:0.016227331 125:0.081314377 135:0.037628751 188:0.028495748 #
-7.2068745062846781834764442464802 18:0.0042134789 25:0.043478262 51:0.022733858 171:0.026176522 215:0.006734868 #
-3.8339954888524503395785814063856 18:0.0035892597 30:0.037037037 51:0.019365879 122:0.030515138 166:0.014738519 171:0.022298519 188:0.016886368 193:0.016886368 215:0.0057371096 #
-3.1290168505231834572555271734018 6:0.014084507 15:0.0084797181 18:0.0013649297 41:0.014084507 54:0.028169014 63:0.0073137269 72:0.0084797181 74:0.0098446477 77:0.018324366 106:0.0098446477 108:0.028169014 109:0.0098446477 112:0.036648732 115:0.014084507 130:0.018324366 134:0.018324366 135:0.0084797181 147:0.0084797181 148:0.011604348 150:0.0084797181 163:0.029457957 165:0.014084507 167:0.023208696 168:0.0098446477 171:0.0084797181 174:0.023208696 176:0.0098446477 181:0.0098446477 188:0.0064215767 196:0.014084507 199:0.0084797181 200:0.012843153 215:0.0065451534 #
-0.57190208580178758523970827809535 23:0.023232678 40:0.014712656 43:0.023232678 49:0.023232678 63:0.0046363804 66:0.017857144 76:0.017857144 78:0.017857144 81:0.023232678 83:0.023232678 97:0.023232678 99:0.023232678 105:0.017857144 113:0.017857144 119:0.017857144 159:0.014712656 166:0.014212144 170:0.014712656 189:0.023232678 200:0.0081416424 202:0.012481607 207:0.023232678 #
