SVM-light Version V6.02
0 # kernel type
3 # kernel parameter -d 
1 # kernel parameter -g 
1 # kernel parameter -s 
1 # kernel parameter -r 
empty# kernel parameter -u 
605 # highest feature index 
47 # number of training documents 
42 # number of support vectors plus 1 
0.54480269 # threshold b, each following line is a SV (starting with alpha*y)
-34.505615908807016012360691092908 2:0.0068528601 3:0.004385401 16:0.0068528601 21:0.0068528601 42:0.0068528601 50:0.0068528601 58:0.0068528601 59:0.0068528601 75:0.01370572 77:0.0033893436 89:0.0068528601 92:0.0068528601 93:0.0068528601 98:0.0068528601 99:0.0051697143 104:0.0068528601 108:0.0068528601 120:0.01370572 134:0.0015981689 137:0.0068528601 140:0.004385401 143:0.0068528601 144:0.0068528601 146:0.0068528601 149:0.011238261 158:0.0068528601 172:0.0055089989 200:0.0068528601 206:0.0068528601 210:0.0068528601 238:0.0068528601 239:0.01370572 241:0.0068528601 246:0.012606686 252:0.0068528601 256:0.016857391 258:0.0068528601 274:0.020558581 281:0.0036637157 284:0.0063870572 301:0.020558581 306:0.0056191306 309:0.0068528601 317:0.0068528601 319:0.0068528601 331:0.0068528601 336:0.01370572 343:0.0068528601 346:0.0068528601 348:0.0068528601 350:0.0068528601 352:0.0068528601 362:0.01370572 365:0.0068528601 366:0.0033893436 389:0.0060830796 394:0.0068528601 397:0.01765218 409:0.0068528601 415:0.0056191306 419:0.0068528601 420:0.0068528601 422:0.0068528601 428:0.0068528601 435:0.0068528601 436:0.020558581 439:0.0068528601 445:0.0068528601 450:0.015343537 478:0.0068528601 487:0.0068528601 489:0.00882609 490:0.0068528601 500:0.0068528601 502:0.0054301098 505:0.0068528601 511:0.0068528601 514:0.016262511 518:0.014480293 520:0.0685286 521:0.0068528601 522:0.0068528601 524:0.0056191306 541:0.0068528601 546:0.0056191306 549:0.0020328138 551:0.0068528601 557:0.0068528601 562:0.0022875185 569:0.0015207699 571:0.0033893436 572:0.0068528601 577:0.0029420301 579:0.0068528601 581:0.01370572 584:0.0039882287 589:0.0068528601 594:0.0068528601 595:0.0068528601 600:0.0068528601 601:0.0068528601 #
-7.3895105051181877442445511405822 46:0.050780293 77:0.030629624 114:0.1238591 134:0.014442711 203:0.06192955 229:0.039631031 265:0.016357368 367:0.06192955 508:0.00034592691 #
-28.280511595034511174162616953254 17:0.034124445 81:0.016877547 86:0.034124445 96:0.034124445 99:0.012871535 103:0.018243808 134:0.0079582287 135:0.034124445 140:0.021837508 153:0.024387278 186:0.034124445 221:0.021837508 222:0.019859752 234:0.013716283 281:0.018243808 282:0.034124445 284:0.0021203293 333:0.034124445 450:0.0095505686 456:0.019859752 480:0.034124445 486:0.034124445 489:0.014650109 497:0.027980978 508:0.00019061279 514:0.010122583 518:0.018026488 554:0.024387278 582:0.034124445 583:0.024387278 #
-9.4702446055985358697171250241809 18:0.01576763 27:0.041802447 79:0.041802447 81:0.020674996 103:0.022348665 107:0.029874414 148:0.03153526 151:0.041802447 233:0.041802447 234:0.016802447 259:0.041802447 284:0.0025974032 289:0.034276698 305:0.034276698 355:0.034276698 399:0.013953863 403:0.011699446 423:0.034276698 457:0.034276698 508:0.00023350066 526:0.041802447 555:0.041802447 567:0.024328196 #
-27.533688256990370035737214493565 24:0.011628219 69:0.034835372 80:0.020273497 81:0.017229162 91:0.017229162 134:0.0040620128 148:0.013139691 168:0.034835372 223:0.0060809711 226:0.024895346 234:0.014002039 246:0.016020996 260:0.028563913 261:0.034835372 266:0.034835372 284:0.0021645029 299:0.034835372 355:0.028563913 388:0.0086838612 456:0.040546995 464:0.006868233 473:0.024895346 482:0.028563913 508:0.00019458387 542:0.034835372 566:0.0081946719 602:0.017229162 #
82.416516641034661461162613704801 3:0.0040685851 18:0.0023981186 20:0.0063577867 28:0.0063577867 30:0.0063577867 36:0.0063577867 43:0.0052131857 45:0.0094334576 51:0.012715573 61:0.0063577867 67:0.0052131857 73:0.031279113 88:0.0052131857 94:0.0063577867 95:0.0045436374 99:0.0023981186 102:0.014800424 103:0.01019711 106:0.0063577867 124:0.0052131857 131:0.0052131857 134:0.0051894914 139:0.0063577867 140:0.0040685851 147:0.0040685851 153:0.0045436374 154:0.0063577867 155:0.0063577867 161:0.0063577867 163:0.0063577867 165:0.0052131857 173:0.0063577867 182:0.013630912 184:0.0052131857 191:0.0067980732 199:0.0045436374 216:0.0063577867 218:0.0052131857 222:0.0037001059 225:0.0033990366 234:0.0025555051 240:0.0037001059 244:0.012715573 246:0.023391875 262:0.0063577867 267:0.0081371702 268:0.0033990366 272:0.0033990366 277:0.0058479686 284:0.0019752118 286:0.0063577867 291:0.0052131857 292:0.0094334576 294:0.0052131857 298:0.010426371 316:0.0063577867 323:0.0052131857 329:0.012205755 337:0.012715573 338:0.0037001059 344:0.012715573 347:0.0063577867 353:0.0063577867 356:0.0063577867 366:0.015722429 378:0.0052131857 381:0.0011801141 389:0.0014109045 397:0.0027294881 398:0.0063577867 405:0.0074002119 407:0.0052131857 417:0.0063577867 442:0.012715573 450:0.0071175341 451:0.010426371 454:0.01907336 462:0.0052131857 470:0.0063577867 477:0.020852743 481:0.0063577867 489:0.016376927 497:0.010426371 498:0.0063577867 502:0.0050378204 508:3.5513407e-05 514:0.0056578699 518:0.0050378204 525:0.012715573 529:0.0052131857 535:0.0063577867 537:0.0052131857 545:0.0063577867 553:0.0063577867 554:0.0045436374 560:0.0045436374 568:0.0063577867 577:0.0054589761 578:0.0063577867 583:0.0045436374 605:0.012715573 #
82.416516641034661461162613704801 39:0.037157729 111:0.037157729 157:0.037157729 224:0.037157729 225:0.019865479 232:0.037157729 277:0.017089063 281:0.019865479 284:0.0023088029 315:0.037157729 338:0.021625064 345:0.037157729 494:0.037157729 501:0.037157729 508:0.00020755614 530:0.037157729 #
50.143393137627384703591815195978 15:0.066883914 35:0.016673014 112:0.066883914 134:0.0077990643 228:0.066883914 234:0.026883915 281:0.035757866 284:0.0083116908 369:0.054842714 381:0.012414801 389:0.014842714 425:0.13376783 508:0.00037360104 514:0.019840265 #
62.46855028238680773711166693829 73:0.057127826 91:0.034458324 103:0.037247777 134:0.0081240255 222:0.040546995 281:0.037247777 292:0.034458324 366:0.034458324 405:0.040546995 415:0.057127826 450:0.019499078 462:0.057127826 502:0.018402038 508:0.00038916775 604:0.069670744 #
82.416516641034661461162613704801 3:0.01188931 6:0.018578865 23:0.018578865 24:0.031008584 25:0.015234088 41:0.015234088 43:0.015234088 45:0.0091888867 54:0.013277518 63:0.018578865 84:0.015234088 88:0.015234088 95:0.013277518 99:0.0070078354 102:0.010812532 118:0.013277518 124:0.030468175 134:0.0021664067 145:0.013277518 150:0.02756666 180:0.018578865 189:0.018578865 190:0.018578865 223:0.0032431846 225:0.019865479 236:0.013277518 271:0.015234088 284:0.0034632045 303:0.015234088 322:0.015234088 363:0.018578865 382:0.0079761706 385:0.018578865 388:0.0092627853 390:0.015234088 391:0.013175924 450:0.010399508 453:0.018578865 464:0.0036630575 467:0.01188931 483:0.018578865 489:0.0079761706 502:0.0098144207 508:0.00010377807 516:0.015234088 547:0.018578865 560:0.013277518 573:0.037157729 586:0.0058441092 #
-37.059222346172973061584343668073 229:0.07133586 235:0.033067107 281:0.059596442 369:0.091404527 508:0.00062266842 569:0.024737857 #
-34.908270519358744365945312893018 19:0.024387278 24:0.022781817 35:0.0085066399 57:0.024387278 76:0.014650109 128:0.018243808 150:0.016877547 223:0.0059568696 268:0.018243808 278:0.036487617 284:0.0021203293 307:0.010734078 308:0.021837508 388:0.01701328 391:0.024200678 421:0.034124445 424:0.016877547 464:0.0067280647 465:0.010122583 467:0.021837508 469:0.014650109 508:0.00019061279 536:0.021837508 549:0.010122583 562:0.011390909 569:0.0075728134 602:0.016877547 #
-82.416516641034661461162613704801 3:0.0022338994 8:0.0034908098 10:0.0034908098 18:0.0013167122 29:0.0034908098 31:0.0034908098 32:0.014968392 35:0.00087019906 37:0.0034908098 38:0.0034908098 45:0.0051795398 52:0.0034908098 55:0.0034908098 64:0.0034908098 65:0.0034908098 67:0.005724709 71:0.0034908098 74:0.013963239 83:0.010472429 85:0.0034908098 102:0.012189493 103:0.0093313847 105:0.0034908098 109:0.0034908098 113:0.0034908098 119:0.0034908098 123:0.0034908098 127:0.010472429 134:0.0032563943 136:0.0069816196 140:0.0022338994 142:0.0034908098 147:0.0022338994 152:0.0034908098 153:0.0024947319 165:0.0028623545 171:0.020944858 172:0.0084187621 174:0.0034908098 175:0.0034908098 176:0.014968392 177:0.0028623545 179:0.0034908098 182:0.0099789277 183:0.0034908098 185:0.0044677989 188:0.0034908098 191:0.0037325537 195:0.0034908098 201:0.0034908098 205:0.0069816196 208:0.0034908098 212:0.0034908098 217:0.0034908098 222:0.0040631643 227:0.0034908098 230:0.005724709 231:0.0034908098 234:0.0014031271 235:0.0010355044 246:0.017659888 249:0.0034908098 251:0.0069816196 253:0.0034908098 254:0.0034908098 255:0.0017265131 256:0.005724709 263:0.010472429 264:0.0034908098 267:0.0022338994 270:0.0034908098 271:0.0028623545 276:0.010472429 277:0.0048163333 283:0.0028623545 284:0.0032535323 285:0.0034908098 287:0.0034908098 290:0.0034908098 291:0.0028623545 292:0.0051795398 293:0.0034908098 294:0.0028623545 295:0.0069816196 306:0.017174128 312:0.0022338994 313:0.0034908098 320:0.010472429 323:0.0028623545 325:0.0034908098 328:0.0028623545 329:0.0067016985 341:0.0016054444 360:0.0034908098 361:0.0034908098 364:0.0034908098 366:0.0051795398 368:0.0034908098 373:0.0034908098 376:0.0069816196 377:0.0034908098 378:0.005724709 380:0.0069816196 381:0.0019438623 382:0.0029973083 383:0.0034908098 387:0.0028623545 389:0.0038733596 395:0.0034908098 397:0.0029973083 399:0.0081567466 400:0.020944858 401:0.0034908098 404:0.0034908098 407:0.0028623545 411:0.0034908098 418:0.0034908098 431:0.0034908098 433:0.0034908098 438:0.0069816196 443:0.0034908098 444:0.0034908098 446:0.010472429 449:0.0034908098 450:0.0029309678 451:0.0028623545 458:0.0034908098 460:0.0069816196 466:0.0034908098 472:0.0034908098 475:0.0034908098 477:0.014311773 479:0.0034908098 488:0.0034908098 489:0.007493271 492:0.0034908098 502:0.00645416 503:0.0034908098 508:1.9499012e-05 509:0.0089355977 510:0.0034908098 514:0.0041420176 517:0.0034908098 518:0.0055321371 523:0.0034908098 524:0.0028623545 528:0.0028623545 529:0.0028623545 531:0.0034908098 533:0.0034908098 534:0.0034908098 537:0.0028623545 543:0.0069816196 549:0.0031065131 552:0.0034908098 561:0.0034908098 563:0.0034908098 564:0.017454049 569:0.0046480317 571:0.0034530263 574:0.0034908098 580:0.0034908098 583:0.0049894638 593:0.0034908098 599:0.0034908098 #
-21.406393462971390562188389594667 5:0.045810901 24:0.022937857 35:0.0057099364 44:0.0081221452 47:0.032739084 54:0.016369542 87:0.0098336348 129:0.0098336348 148:0.0086397966 150:0.011328764 159:0.0092068203 223:0.0039984467 278:0.024491688 284:0.0014232347 307:0.0072050663 311:0.045810901 335:0.0092068203 381:0.004251644 388:0.017129809 391:0.0081221452 402:0.0098336348 410:0.0098336348 413:0.0098336348 416:0.045810901 464:0.0045160982 465:0.013589222 467:0.029316107 469:0.0098336348 508:0.00012794556 538:0.037563503 549:0.006794611 558:0.02290545 562:0.007645952 565:0.016369542 566:0.0053882776 569:0.0050831214 602:0.011328764 #
-33.000758674719065766112180426717 18:0.0081909765 19:0.015519177 24:0.014497519 35:0.0054133162 44:0.0077002156 68:0.027793191 87:0.0093227969 102:0.012638024 129:0.0093227969 148:0.0081909765 150:0.010740258 159:0.0087285433 170:0.017806076 181:0.021715557 223:0.0037907353 246:0.0099871149 247:0.017806076 278:0.023219392 284:0.002698601 302:0.017806076 307:0.006830777 308:0.013896596 329:0.013896596 335:0.0087285433 379:0.021715557 381:0.0040307795 388:0.010826632 391:0.015400431 402:0.0093227969 410:0.0093227969 413:0.0093227969 424:0.010740258 450:0.0060776346 464:0.0042814957 465:0.012883288 508:0.00012129904 536:0.013896596 538:0.017806076 549:0.0064416439 556:0.013896596 562:0.0072487597 566:0.0051083672 569:0.004819063 602:0.010740258 #
82.416516641034661461162613704801 33:0.029723274 60:0.038085219 177:0.038085219 223:0.0081079612 265:0.012268026 269:0.029723274 284:0.0057720076 328:0.038085219 381:0.017242778 464:0.0091576437 474:0.046447162 508:0.00025944517 518:0.012268026 586:0.014610273 #
82.416516641034661461162613704801 33:0.039631031 134:0.0072213556 223:0.010810615 265:0.016357368 381:0.011495186 440:0.06192955 459:0.044258393 464:0.012210192 508:0.00034592691 532:0.039631031 586:0.019480364 #
82.416516641034661461162613704801 60:0.044227995 134:0.0062895678 223:0.0094156973 265:0.014246739 297:0.053938642 381:0.010011937 406:0.053938642 464:0.010634683 508:0.00030129118 585:0.053938642 586:0.016966768 #
72.42701001778107183781685307622 41:0.042845871 80:0.030410245 82:0.052253056 223:0.0091214571 225:0.027935831 260:0.042845871 277:0.024031496 322:0.042845871 357:0.052253056 388:0.013025792 391:0.018528644 464:0.010302349 508:0.00029187583 512:0.052253056 518:0.013801529 519:0.052253056 566:0.012292008 569:0.01159587 #
82.416516641034661461162613704801 45:0.021763153 56:0.044002574 99:0.016597504 118:0.031446751 196:0.044002574 223:0.0076812268 225:0.02352491 280:0.044002574 298:0.036080733 388:0.010969088 450:0.024630414 464:0.0086756628 491:0.044002574 502:0.01162234 508:0.00024579017 560:0.031446751 569:0.0097649442 586:0.013841311 598:0.044002574 #
-44.833843937330300377652747556567 25:0.038085219 33:0.029723274 99:0.017519588 211:0.046447162 215:0.027031329 222:0.027031329 284:0.0028860038 381:0.008621389 403:0.012999386 468:0.046447162 506:0.046447162 508:0.00025944517 509:0.029723274 565:0.033193793 569:0.010307441 575:0.035039175 586:0.014610273 #
-82.416516641034661461162613704801 24:0.0078613311 35:0.0058707795 66:0.015070956 91:0.011647885 128:0.012590798 134:0.0027461494 162:0.015070956 166:0.015070956 209:0.012590798 215:0.013706026 223:0.004111079 235:0.0069860085 240:0.013706026 255:0.011647885 265:0.0062204078 272:0.012590798 284:0.0043899775 381:0.0043714088 382:0.010110639 388:0.0058707795 389:0.005226308 391:0.0083509386 399:0.0078613311 408:0.015070956 424:0.011647885 450:0.0065912376 459:0.016830657 464:0.0046433122 465:0.0069860085 471:0.015070956 502:0.0062204078 508:0.00013154966 514:0.0069860085 518:0.0062204078 532:0.015070956 540:0.015070956 566:0.0055400599 571:0.011647885 575:0.017766343 584:0.013706026 586:0.0074080257 588:0.015070956 #
-22.545423517792531953318757587112 77:0.018795451 125:0.038002223 134:0.01329386 147:0.024319042 209:0.020316968 235:0.011272877 265:0.010037476 267:0.024319042 268:0.020316968 284:0.0047225514 321:0.031160634 370:0.038002223 381:0.014107728 382:0.016314894 389:0.0084333606 397:0.016314894 403:0.010635861 502:0.010037476 508:0.00021227333 575:0.028668417 586:0.01195386 #
-20.598538982860183921275165630504 77:0.018795451 130:0.038002223 134:0.01329386 147:0.024319042 209:0.020316968 235:0.022545755 265:0.010037476 267:0.024319042 284:0.0047225514 310:0.038002223 321:0.031160634 381:0.014107728 382:0.016314894 389:0.0084333606 397:0.016314894 403:0.010635861 502:0.010037476 508:0.00021227333 575:0.028668417 586:0.01195386 #
-57.42947408340871362497637164779 45:0.012921873 62:0.026126528 99:0.0098547684 121:0.026126528 132:0.018671509 134:0.0030465093 148:0.0098547684 182:0.018671509 199:0.018671509 223:0.0045607286 234:0.010501529 235:0.0077501033 250:0.018671509 257:0.021422936 272:0.013967915 284:0.0048701311 292:0.012921873 304:0.026126528 366:0.012921873 384:0.026126528 389:0.01159587 426:0.018671509 450:0.0073121544 464:0.0051511745 489:0.01121649 508:0.00014593791 514:0.0077501033 539:0.018671509 571:0.012921873 577:0.01121649 597:0.018671509 #
82.416516641034661461162613704801 24:0.015085257 33:0.014459971 40:0.022595918 54:0.032296665 81:0.011175673 95:0.016148333 134:0.0052696378 141:0.022595918 145:0.016148333 150:0.011175673 160:0.022595918 187:0.022595918 192:0.018527944 223:0.0039444137 237:0.018527944 265:0.0059682289 277:0.010391998 284:0.0028080037 288:0.022595918 303:0.018527944 318:0.022595918 338:0.03945113 381:0.0083883787 382:0.0097007481 388:0.01126555 390:0.018527944 391:0.016024774 397:0.0097007481 427:0.022595918 464:0.00445507 493:0.022595918 502:0.011936458 508:0.00012621658 509:0.014459971 516:0.018527944 536:0.014459971 549:0.0067027919 559:0.014459971 562:0.0075426283 569:0.0050144307 586:0.0071077002 602:0.011175673 #
-31.087744524972663384687621146441 7:0.020643184 13:0.014752798 24:0.0068907966 34:0.020643184 44:0.0073199579 57:0.014752798 70:0.020643184 76:0.0088624116 99:0.0077864835 100:0.016926764 102:0.012013924 122:0.020643184 131:0.016926764 134:0.0048142369 145:0.014752798 167:0.020643184 192:0.016926764 194:0.020643184 204:0.016926764 214:0.020643184 223:0.0036035385 235:0.012247076 237:0.016926764 245:0.020643184 248:0.020643184 265:0.010904912 268:0.011036378 284:0.0012826683 296:0.026420688 327:0.020643184 332:0.020643184 339:0.016926764 358:0.016926764 371:0.020643184 374:0.020643184 388:0.0051459922 396:0.020643184 412:0.020643184 447:0.016926764 464:0.0040700641 504:0.029505596 508:0.00011530897 509:0.013210344 514:0.012247076 549:0.0061235381 566:0.0048561022 567:0.024027849 586:0.0064934548 590:0.016926764 596:0.020643184 #
-42.431601589310055544501665281132 18:0.012366768 68:0.020981135 72:0.023430914 81:0.016215682 103:0.017528364 115:0.026883684 134:0.0038230706 156:0.032786231 223:0.0057232669 235:0.00972562 242:0.023430914 255:0.016215682 268:0.035056729 277:0.015078586 284:0.0061115371 307:0.010313134 381:0.012171374 388:0.0081730457 403:0.0091760363 448:0.032786231 499:0.026883684 502:0.0086597828 508:0.00018313777 518:0.017319566 532:0.020981135 544:0.026883684 #
-48.053584621093165196725749410689 26:0.047799066 77:0.033079993 134:0.0077990643 223:0.011675465 225:0.035757866 229:0.042801514 235:0.019840265 236:0.047799066 388:0.016673014 464:0.013187007 508:0.00037360104 569:0.014842714 602:0.033079993 #
-17.021526335983814703922689659521 11:0.019905927 32:0.028451825 45:0.0098452363 48:0.019905927 53:0.019905927 72:0.014225912 76:0.008545897 80:0.023169711 99:0.01501679 100:0.032644473 126:0.019905927 132:0.014225912 134:0.0023211502 148:0.0075083948 176:0.028451825 207:0.019905927 213:0.019905927 223:0.0034748407 234:0.0080011645 235:0.0059048403 243:0.039811853 250:0.014225912 279:0.039811853 284:0.0012368588 289:0.016322237 292:0.0098452363 300:0.019905927 324:0.019905927 330:0.019905927 340:0.019905927 342:0.019905927 354:0.019905927 366:0.0098452363 386:0.019905927 389:0.0044174744 393:0.019905927 405:0.011584856 426:0.014225912 434:0.019905927 441:0.016322237 464:0.0039247046 476:0.016322237 508:0.00011119079 513:0.019905927 514:0.0059048403 539:0.014225912 566:0.0046826699 591:0.019905927 597:0.014225912 #
-14.625401044362165592360724986065 18:0.017279593 24:0.007645952 26:0.016369542 44:0.0081221452 45:0.011328764 47:0.016369542 76:0.0098336348 77:0.011328764 90:0.02290545 99:0.017279593 132:0.016369542 134:0.0026709123 138:0.02290545 184:0.018781751 193:0.014658053 223:0.0039984467 234:0.0092068203 235:0.006794611 236:0.016369542 250:0.016369542 257:0.018781751 265:0.0060499855 283:0.018781751 284:0.0042697042 314:0.02290545 334:0.02290545 335:0.0092068203 349:0.018781751 388:0.0057099364 389:0.010166243 405:0.013330518 426:0.016369542 447:0.018781751 455:0.018781751 464:0.0045160982 484:0.02290545 496:0.02290545 508:0.00012794556 514:0.006794611 539:0.016369542 550:0.02290545 559:0.014658053 566:0.0053882776 597:0.016369542 #
-22.460676352349359774507320253178 76:0.016314894 118:0.027158558 149:0.031160634 172:0.015274951 193:0.024319042 218:0.031160634 265:0.010037476 273:0.038002223 284:0.0070838272 292:0.018795451 307:0.01195386 351:0.038002223 403:0.010635861 432:0.038002223 456:0.022116542 473:0.027158558 482:0.031160634 508:0.00021227333 514:0.011272877 518:0.010037476 546:0.031160634 548:0.031160634 554:0.027158558 603:0.038002223 #
-6.0846035128171829242660351155791 18:0.017519588 22:0.18578865 35:0.011578482 46:0.038085219 99:0.017519588 107:0.033193793 134:0.0054160166 275:0.046447162 326:0.046447162 403:0.012999386 405:0.027031329 429:0.046447162 456:0.027031329 508:0.00025944517 514:0.013777961 528:0.038085219 548:0.038085219 #
-36.588443250372890247490431647748 35:0.01126555 116:0.013150376 128:0.012080359 134:0.0052696378 148:0.0085230432 169:0.013150376 172:0.009082403 191:0.012080359 221:0.028919943 242:0.016148333 246:0.010391998 284:0.0056160074 307:0.0071077002 312:0.014459971 341:0.010391998 359:0.013150376 381:0.012582568 389:0.015043291 399:0.015085257 403:0.0063240253 450:0.0063240253 465:0.0067027919 469:0.0097007481 489:0.0097007481 502:0.0059682289 508:0.00012621658 518:0.0059682289 549:0.0067027919 556:0.014459971 562:0.0075426283 566:0.0053154631 569:0.0050144307 575:0.0085230432 577:0.0097007481 592:0.013150376 #
-19.653566365372121538257488282397 24:0.015085257 26:0.010765555 35:0.0037551834 44:0.0053415913 47:0.010765555 66:0.0096399812 80:0.0087669175 91:0.0074504488 97:0.030127889 110:0.015063944 128:0.0080535728 133:0.015063944 150:0.0074504488 162:0.0096399812 166:0.0096399812 178:0.015063944 198:0.012351963 209:0.0080535728 215:0.0087669175 223:0.0026296091 235:0.0089370562 240:0.0087669175 255:0.014900898 265:0.0039788191 269:0.0096399812 272:0.0080535728 277:0.0069279987 278:0.0080535728 284:0.0037440048 349:0.012351963 358:0.012351963 372:0.015063944 381:0.0027961263 382:0.0064671654 388:0.0075103668 389:0.0033429537 391:0.010683183 397:0.0064671654 399:0.0050284192 408:0.0096399812 414:0.030127889 424:0.0074504488 450:0.0042160167 459:0.010765555 464:0.0029700466 465:0.0044685281 471:0.0096399812 495:0.015063944 502:0.0039788191 507:0.015063944 508:8.4144383e-05 514:0.0044685281 518:0.0039788191 540:0.0096399812 559:0.0096399812 566:0.017718209 569:0.0033429537 571:0.0074504488 575:0.017046086 584:0.0087669175 586:0.0047384668 588:0.0096399812 #
-6.1068237351479028873768584162463 13:0.033193793 18:0.017519588 49:0.046447162 76:0.019940427 81:0.022972217 101:0.046447162 199:0.033193793 223:0.0081079612 226:0.033193793 284:0.0057720076 296:0.029723274 307:0.014610273 392:0.046447162 397:0.019940427 403:0.012999386 452:0.046447162 504:0.033193793 508:0.00025944517 567:0.027031329 570:0.046447162 590:0.038085219 #
-6.005790217388170759704735246487 4:0.02741144 9:0.02741144 12:0.02741144 80:0.047858749 81:0.013557374 84:0.022476522 148:0.020678857 164:0.02741144 172:0.011017998 185:0.017541604 202:0.02741144 226:0.03917956 265:0.0072401464 284:0.0051096459 296:0.017541604 305:0.022476522 329:0.017541604 389:0.012166159 399:0.0091500739 403:0.0076717683 423:0.044953045 437:0.054822881 456:0.047858749 473:0.01958978 508:0.00015311518 567:0.015952915 576:0.022476522 577:0.01176812 587:0.054822881 #
-20.242222441101606733582229935564 18:0.0075988574 35:0.010043984 44:0.0071435738 68:0.025784045 87:0.0086488593 91:0.019927707 129:0.0086488593 134:0.0023491157 148:0.0075988574 159:0.0080975648 169:0.011724432 170:0.016518889 172:0.0080975648 191:0.010770441 230:0.016518889 234:0.0080975648 247:0.016518889 265:0.0053210715 269:0.012892023 284:0.0037552819 302:0.016518889 307:0.0063369856 335:0.0080975648 341:0.0092651555 359:0.011724432 375:0.020145757 381:0.0074787955 387:0.016518889 389:0.0089413943 399:0.013449506 402:0.0086488593 403:0.0056382879 410:0.0086488593 413:0.0086488593 463:0.020145757 465:0.011951966 508:0.00011253043 518:0.015963215 549:0.0059759831 562:0.006724753 566:0.0047390875 569:0.0044706971 577:0.0086488593 592:0.011724432 #
-25.936796317466814798535779118538 18:0.010172664 35:0.0067229895 44:0.0095631713 76:0.011578312 87:0.011578312 116:0.015695611 129:0.011578312 159:0.010840288 169:0.015695611 172:0.010840288 185:0.017258676 193:0.017258676 284:0.0050272322 307:0.0084833838 335:0.010840288 338:0.015695611 341:0.012403353 359:0.015695611 389:0.011969931 399:0.0090024918 402:0.011578312 403:0.0075480305 410:0.011578312 413:0.011578312 465:0.016000213 469:0.011578312 508:0.00015064559 549:0.0080001066 562:0.0090024918 566:0.012688524 569:0.0059849657 575:0.010172664 592:0.015695611 #
-3.5078042190551790291408451594179 14:0.030964775 32:0.044258393 77:0.015314812 78:0.030964775 134:0.0072213556 159:0.012446256 176:0.044258393 197:0.030964775 220:0.030964775 223:0.0054053077 229:0.019815516 235:0.0091853077 265:0.0081786839 292:0.015314812 308:0.019815516 339:0.050780293 366:0.015314812 388:0.0077189882 391:0.010979937 430:0.06192955 441:0.025390146 455:0.025390146 457:0.025390146 464:0.0061050961 467:0.019815516 476:0.025390146 485:0.030964775 499:0.025390146 508:0.00017296345 544:0.025390146 559:0.019815516 #
-0.769972361047828179891894251341 13:0.023430914 35:0.0081730457 44:0.011625816 72:0.046861827 87:0.014075595 107:0.023430914 115:0.026883684 117:0.032786231 129:0.014075595 159:0.01317839 204:0.026883684 277:0.015078586 284:0.0020371792 296:0.020981135 307:0.010313134 335:0.01317839 341:0.015078586 381:0.0060856869 402:0.014075595 403:0.0091760363 410:0.014075595 413:0.014075595 465:0.01945124 469:0.014075595 504:0.023430914 508:0.00018313777 527:0.032786231 549:0.00972562 562:0.010944206 566:0.0077126324 567:0.019080939 569:0.0072758403 576:0.026883684 #
