SVM-light Version V6.02
0 # kernel type
3 # kernel parameter -d 
1 # kernel parameter -g 
1 # kernel parameter -s 
1 # kernel parameter -r 
empty# kernel parameter -u 
444 # highest feature index 
41 # number of training documents 
40 # number of support vectors plus 1 
-0.54785133 # threshold b, each following line is a SV (starting with alpha*y)
-22.881511421715735821180714992806 17:0.035631463 18:0.027309638 48:0.003184438 93:0.11519885 176:0.012958578 202:0.11519885 283:0.11519885 374:0.11519885 438:0.11519885 #
-20.098928131832582977267520618625 34:0.10079899 42:0.20159799 48:0.0027863833 132:0.10079899 176:0.011338755 228:0.020876892 295:0.015691001 #
-20.104463497641223312939473544247 48:0.0027863833 154:0.20159799 176:0.011338755 228:0.020876892 295:0.015691001 357:0.10079899 377:0.10079899 #
-20.098928131832582977267520618625 48:0.0027863833 53:0.10079899 92:0.10079899 176:0.011338755 228:0.020876892 295:0.015691001 388:0.20159799 #
-20.104463497641219760225794743747 48:0.0027863833 172:0.20159799 176:0.011338755 228:0.020876892 245:0.10079899 259:0.10079899 295:0.015691001 #
33.184854447761495066515635699034 14:0.012799872 26:0.029009964 46:0.0034658143 48:0.00035382644 58:0.012799872 81:0.012799872 94:0.0048633642 98:0.012799872 123:0.012799872 126:0.012799872 133:0.0090131955 150:0.012799872 153:0.012799872 161:0.012799872 163:0.025599744 168:0.012799872 169:0.025599744 170:0.012799872 176:0.001439842 182:0.025599744 187:0.012799872 190:0.012799872 193:0.019872205 213:0.025599744 220:0.0056747831 223:0.012799872 240:0.020821489 264:0.025599744 266:0.012799872 277:0.012799872 281:0.012799872 284:0.012799872 287:0.012799872 289:0.012799872 291:0.014504982 295:0.0039850161 307:0.0080216182 319:0.025599744 331:0.012799872 333:0.025599744 344:0.012799872 365:0.016043236 371:0.0080216182 379:0.010410745 381:0.0080216182 440:0.0080216182 444:0.012799872 #
17.400818369063451029887801269069 28:0.028829755 41:0.0072367182 46:0.019195279 77:0.0091717867 108:0.035445798 122:0.017722899 140:0.012558048 184:0.017722899 188:0.017722899 217:0.017722899 220:0.023572177 242:0.053168699 258:0.017722899 299:0.017722899 316:0.035445798 352:0.070891596 378:0.053168699 391:0.017722899 417:0.0072367182 433:0.011106855 #
14.394236528415150999649085861165 7:0.010207493 18:0.0024198415 41:0.0041679833 46:0.0027638772 48:0.00028216539 55:0.016671933 73:0.0044917334 86:0.0083022397 94:0.0077567575 102:0.01056497 140:0.0036163998 143:0.016671933 149:0.0071877381 156:0.030622479 174:0.0083359666 180:0.017350895 208:0.0063969865 216:0.0072327997 220:0.01357638 252:0.010207493 278:0.0044917334 288:0.015513515 310:0.012628874 313:0.010207493 321:0.0044917334 351:0.0071877381 361:0.033208959 369:0.010207493 385:0.020414986 387:0.0083022397 402:0.0089834668 416:0.016604479 417:0.0083359666 419:0.0044917334 434:0.010207493 #
12.507230247063006345342728309333 12:0.02733532 17:0.0084549235 26:0.01548837 28:0.022233116 43:0.030976741 72:0.01202871 95:0.054670639 139:0.013853013 142:0.054670639 155:0.054670639 244:0.02733532 274:0.066699348 291:0.01548837 298:0.02733532 301:0.01548837 305:0.02733532 395:0.019248519 401:0.082005955 436:0.02733532 #
4.6220558533484004115621246455703 46:0.011197246 48:0.0011431316 79:0.11647821 107:0.041353431 139:0.010478561 176:0.0046517975 220:0.0091669578 248:0.1240603 267:0.029119553 295:0.0064373338 414:0.041353431 433:0.077747993 #
-20.109938464668950075520115206018 23:0.20159799 48:0.0027863833 60:0.10079899 176:0.011338755 228:0.020876892 235:0.10079899 295:0.015691001 #
-20.090922687798340007248043548316 48:0.0027863833 176:0.011338755 228:0.020876892 295:0.015691001 325:0.10079899 327:0.20159799 426:0.10079899 #
-20.109938464668950075520115206018 48:0.0027863833 164:0.10079899 176:0.011338755 192:0.10079899 228:0.020876892 265:0.20159799 295:0.015691001 #
-20.109938464668953628233794006519 48:0.0027863833 176:0.011338755 228:0.020876892 262:0.10079899 276:0.20159799 295:0.015691001 367:0.10079899 #
-20.090922687798347112675401149318 22:0.20159799 48:0.0027863833 176:0.011338755 228:0.020876892 295:0.015691001 373:0.10079899 432:0.10079899 #
33.184854447761495066515635699034 9:0.0041502565 17:0.020420371 18:0.011179384 21:0.0044893906 41:0.003851119 46:0.002553758 48:0.0015642854 55:0.011553357 64:0.0041502565 73:0.0041502565 94:0.010750594 102:0.014642677 139:0.0023898473 140:0.0033414687 143:0.015404476 144:0.028294453 160:0.0094314842 162:0.0076710754 174:0.0077022379 180:0.010687881 196:0.0094314842 220:0.0062721288 227:0.008300513 269:0.0041502565 275:0.0041502565 278:0.0041502565 297:0.008300513 310:0.0058343918 321:0.0041502565 364:0.0053439406 396:0.0044893906 402:0.008300513 417:0.0077022379 419:0.0041502565 435:0.0053439406 #
33.184854447761495066515635699034 4:0.0071999282 9:0.0031682763 17:0.015588766 18:0.008534262 21:0.0034271688 41:0.0029399167 46:0.0038990411 47:0.0071999282 48:0.0011941643 55:0.011759667 64:0.0031682763 73:0.0031682763 82:0.0071999282 88:0.0071999282 94:0.0082069263 102:0.011178115 139:0.0018243922 140:0.0025508534 143:0.017639501 145:0.021599784 174:0.0058798334 175:0.021599784 180:0.012238578 220:0.0079801641 227:0.0063365526 269:0.0031682763 275:0.0031682763 278:0.0031682763 288:0.0054712845 296:0.043199569 297:0.0063365526 310:0.0089078657 321:0.0031682763 370:0.0071999282 396:0.0034271688 402:0.0063365526 417:0.0058798334 419:0.0031682763 435:0.0040795263 #
27.352608875096901641654767445289 48:0.0023464281 52:0.084883362 139:0.021508625 290:0.06903968 364:0.048095465 #
33.184854447761495066515635699034 9:0.001928516 15:0.0087651294 17:0.0094888136 18:0.0051947683 21:0.0020861027 24:0.0043825647 26:0.0024831898 27:0.0043825647 41:0.0017895146 43:0.0024831898 46:0.0047466587 48:0.0007268826 55:0.012526602 64:0.001928516 66:0.0043825647 69:0.0035645484 73:0.001928516 94:0.0049955207 102:0.00680407 104:0.017822742 119:0.0027465322 129:0.0030860396 136:0.0043825647 139:0.0011104996 140:0.0015526934 143:0.017895145 149:0.0030860396 151:0.0082395971 152:0.0030860396 174:0.0035790291 177:0.0043825647 180:0.017382329 193:0.0045360466 220:0.003885993 227:0.0038570319 237:0.0027465322 268:0.0071290969 269:0.001928516 275:0.001928516 278:0.001928516 280:0.0043825647 288:0.0083258674 291:0.0024831898 297:0.0038570319 304:0.0030860396 306:0.0043825647 307:0.0027465322 308:0.0035645484 309:0.0035645484 310:0.0094888136 321:0.001928516 334:0.0087651294 342:0.0030860396 351:0.0030860396 368:0.0035645484 371:0.0027465322 372:0.017822742 381:0.0027465322 396:0.0020861027 402:0.0038570319 413:0.010986129 417:0.0035790291 419:0.001928516 435:0.0024831898 440:0.0054930644 441:0.0043825647 443:0.0030860396 #
8.4327615632230070730201987316832 18:0.012744498 38:0.087450258 48:0.001486071 119:0.033690795 148:0.087450258 216:0.019046372 220:0.011917045 257:0.067381591 310:0.016628018 #
-23.260537231373294986269684159197 18:0.023895934 48:0.0027863833 176:0.011338755 228:0.020876892 295:0.015691001 397:0.20159799 439:0.10079899 #
-23.260537231373294986269684159197 18:0.023895934 48:0.0027863833 176:0.011338755 198:0.10079899 228:0.020876892 295:0.015691001 427:0.20159799 #
-23.250807008203903336607254459523 18:0.023895934 48:0.0027863833 147:0.10079899 176:0.011338755 228:0.020876892 295:0.015691001 328:0.20159799 #
-23.250807008203921100175648462027 18:0.023895934 48:0.0027863833 70:0.10079899 176:0.011338755 228:0.020876892 295:0.015691001 415:0.20159799 #
-23.260537232871048018978399340995 18:0.023895934 48:0.0027863833 176:0.011338755 212:0.10079899 228:0.020876892 295:0.015691001 359:0.20159799 #
12.787657518440491699607264308725 5:0.011199888 11:0.011199888 17:0.0034641703 32:0.022399776 78:0.011199888 103:0.011199888 105:0.011199888 121:0.0091094021 133:0.015773091 139:0.0028379436 166:0.022399776 185:0.022399776 208:0.014037832 211:0.10079899 216:0.0079359887 218:0.022399776 220:0.0099308705 222:0.0091094021 239:0.027328206 246:0.022399776 247:0.014037832 255:0.011199888 288:0.012766331 290:0.0091094021 301:0.0063459296 310:0.013856681 318:0.033599664 336:0.011199888 338:0.011199888 386:0.011199888 390:0.067199327 395:0.0078865457 399:0.011199888 408:0.011199888 422:0.011199888 #
33.184854447761495066515635699034 17:0.0091530364 18:0.00350766 48:0.0012270312 50:0.012034439 72:0.013021906 85:0.012034439 100:0.024068879 139:0.0074984198 140:0.0052421209 157:0.012034439 193:0.0076571801 216:0.015726363 220:0.0065598413 224:0.0083836131 232:0.0092726965 254:0.024068879 257:0.04636348 285:0.014796183 288:0.00562187 310:0.0091530364 311:0.012034439 324:0.012034439 343:0.0083836131 345:0.0083836131 404:0.024068879 418:0.012034439 #
33.184854447761495066515635699034 2:0.0028006476 6:0.0019886361 9:0.00087508489 10:0.0019886361 17:0.0036905587 18:0.0018857457 20:0.0019886361 21:0.0075727329 30:0.0019886361 33:0.0019886361 41:0.00081201154 43:0.0011267741 44:0.027840905 45:0.0019886361 46:0.0032307713 48:0.00032983083 49:0.0019886361 54:0.0019886361 55:0.014616207 64:0.00087508489 67:0.0039772722 71:0.0019886361 72:0.0043754247 73:0.00087508489 75:0.0019886361 76:0.0019886361 77:0.0020582802 87:0.0019886361 90:0.0019886361 91:0.0019886361 94:0.00075559044 97:0.0059659081 106:0.0019886361 112:0.0019886361 115:0.0039772722 117:0.0028006476 127:0.0056012953 128:0.0019886361 131:0.0019886361 133:0.0028006476 137:0.0019886361 139:0.00050390122 140:0.0014091028 141:0.0039772722 143:0.01624023 146:0.0032349047 165:0.0019886361 174:0.0016240231 176:0.00022369924 178:0.0019886361 181:0.0019886361 183:0.0028006476 186:0.0019886361 191:0.0039772722 194:0.0019886361 204:0.0019886361 216:0.0084546162 220:0.0074940729 221:0.0019886361 224:0.0011267741 227:0.0017501698 229:0.0039772722 231:0.0019886361 232:0.014955224 253:0.0039772722 256:0.0019886361 260:0.0019886361 269:0.00087508489 270:0.0028006476 272:0.0019886361 273:0.0019886361 275:0.00087508489 278:0.00087508489 282:0.0019886361 288:0.013600628 293:0.0019886361 297:0.0017501698 301:0.015774839 302:0.0019886361 303:0.0014003238 310:0.015377328 314:0.0019886361 320:0.0019886361 321:0.00087508489 330:0.0032349047 339:0.0019886361 341:0.0019886361 342:0.0028006476 343:0.0011267741 345:0.0011267741 347:0.0019886361 349:0.0019886361 354:0.0019886361 355:0.0019886361 356:0.0019886361 360:0.0039772722 365:0.0012462686 375:0.0039772722 382:0.0019886361 383:0.0019886361 392:0.0059659081 394:0.0059659081 395:0.0014003238 396:0.00094659161 398:0.0019886361 402:0.0017501698 405:0.0019886361 407:0.0019886361 409:0.0012462686 410:0.0019886361 412:0.0019886361 417:0.0016240231 419:0.00087508489 425:0.0019886361 #
27.207914131565260618117463309318 9:0.0073926444 17:0.01039251 18:0.0059739836 37:0.0083999159 46:0.0090977624 48:0.00092879444 55:0.020579416 64:0.0036963222 80:0.033599664 86:0.0068320516 113:0.0083999159 118:0.0083999159 129:0.0059149093 139:0.0021284577 143:0.013719612 151:0.021056747 216:0.0059519913 220:0.011172229 227:0.0036963222 238:0.0083999159 269:0.0036963222 271:0.0083999159 275:0.0036963222 288:0.012766331 297:0.0036963222 310:0.015588766 315:0.0083999159 361:0.013664103 379:0.0068320516 387:0.0068320516 409:0.0052641868 416:0.040992308 429:0.0083999159 431:0.0083999159 435:0.0047594472 #
33.184854447761495066515635699034 2:0.0011448212 3:0.0016257901 9:0.0014308344 17:0.017097356 18:0.0053958558 21:0.0015477537 26:0.00092118332 35:0.0016257901 38:0.0066116625 41:0.0013277043 43:0.00092118332 46:0.0017608573 48:0.0012583666 55:0.0066385218 56:0.0013223325 62:0.0032515803 64:0.0014308344 69:0.0013223325 72:0.0085850069 73:0.0014308344 77:0.00084136351 85:0.0013223325 94:0.0067949821 96:0.0048773703 100:0.0066116625 102:0.0067309081 116:0.0016257901 119:0.0061132493 120:0.0032515803 134:0.0048773703 135:0.0016257901 139:0.0049435147 140:0.0023039966 143:0.0092939306 146:0.0013223325 148:0.0013223325 152:0.0011448212 158:0.0052893301 174:0.0033192609 180:0.010133017 183:0.0011448212 193:0.001682727 200:0.0048773703 201:0.0016257901 203:0.0016257901 207:0.0016257901 208:0.0020377496 209:0.0032515803 216:0.0051839924 219:0.0013223325 220:0.010091046 222:0.0013223325 224:0.00092118332 227:0.0028616688 237:0.0020377496 241:0.0039669974 243:0.0016257901 247:0.0010188748 251:0.0013223325 254:0.0013223325 269:0.0014308344 275:0.0014308344 278:0.0014308344 279:0.0016257901 286:0.0039669974 288:0.0043240795 291:0.00092118332 294:0.0013223325 297:0.0028616688 300:0.0016257901 301:0.00092118332 304:0.0011448212 307:0.0010188748 310:0.0055314973 311:0.0013223325 321:0.0014308344 324:0.0013223325 330:0.0066116625 337:0.0016257901 343:0.00092118332 345:0.00092118332 348:0.0048773703 363:0.0066116625 364:0.0018423666 368:0.0013223325 371:0.0030566247 380:0.0013223325 381:0.0010188748 396:0.0015477537 400:0.0016257901 402:0.0028616688 404:0.0013223325 409:0.0010188748 411:0.0016257901 417:0.0026554086 418:0.0013223325 419:0.0014308344 420:0.0016257901 421:0.0016257901 424:0.0065031606 430:0.0081289513 435:0.0018423666 440:0.0020377496 443:0.0011448212 #
-20.109938458958563245460027246736 48:0.0027863833 114:0.10079899 176:0.011338755 228:0.020876892 233:0.10079899 234:0.20159799 295:0.015691001 #
-20.098928130913687795100486255251 48:0.0027863833 138:0.20159799 171:0.10079899 176:0.011338755 228:0.020876892 295:0.015691001 346:0.10079899 #
-20.090922687798336454534364747815 13:0.10079899 48:0.0027863833 176:0.011338755 210:0.10079899 228:0.020876892 295:0.015691001 353:0.20159799 #
-20.090922687798336454534364747815 48:0.0027863833 51:0.20159799 176:0.011338755 215:0.10079899 228:0.020876892 295:0.015691001 393:0.10079899 #
-20.104463497641223312939473544247 31:0.10079899 48:0.0027863833 176:0.011338755 228:0.020876892 295:0.015691001 329:0.20159799 376:0.10079899 #
8.1173033465096704475172373349778 46:0.011197246 48:0.0011431316 59:0.1240603 79:0.087358661 110:0.041353431 139:0.010478561 176:0.0046517975 220:0.0091669578 267:0.029119553 295:0.0064373338 433:0.077747993 #
9.0047155526591033947170217288658 46:0.0079398658 48:0.00081058423 61:0.029323343 79:0.061945233 125:0.058646686 139:0.0074302522 162:0.02385007 176:0.0032985471 179:0.058646686 193:0.060700554 220:0.0065002064 267:0.020648411 295:0.004564655 364:0.016614797 389:0.029323343 433:0.055130392 #
16.033267313496772032976878108457 39:0.041890491 46:0.011342665 48:0.0011579775 72:0.036867213 94:0.0079582315 102:0.021678768 104:0.017035764 124:0.020945245 140:0.014841329 151:0.013126284 189:0.020945245 216:0.029682659 220:0.027858028 224:0.011867712 268:0.034071527 343:0.011867712 345:0.011867712 372:0.017035764 380:0.017035764 413:0.013126284 #
30.423806192190983921364022535272 2:0.0035269025 9:0.0011020091 17:0.0077459705 18:0.0029684389 21:0.0095364694 41:0.0010225797 46:0.0020342823 48:0.00048458841 50:0.0020368849 55:0.020451594 56:0.010184424 64:0.0011020091 72:0.0044080364 73:0.0011020091 77:0.0012960134 94:0.00095152773 117:0.0017634513 121:0.0081475396 127:0.007053805 139:0.0012691425 140:0.00088725338 143:0.022496754 157:0.0081475396 158:0.0040737698 159:0.0025043227 167:0.015025937 174:0.0020451595 176:0.00028170823 183:0.0035269025 193:0.006480067 197:0.0025043227 216:0.0017745068 219:0.0040737698 220:0.0044411346 227:0.0022040182 232:0.017263917 237:0.001569447 240:0.0081475396 241:0.0061106547 249:0.0025043227 250:0.0025043227 251:0.010184424 257:0.014125023 261:0.0025043227 263:0.0025043227 269:0.0011020091 270:0.0035269025 275:0.0011020091 278:0.0011020091 286:0.0040737698 288:0.016175972 294:0.0020368849 297:0.0022040182 301:0.0070948279 303:0.0017634513 310:0.017041136 317:0.0075129685 321:0.0011020091 322:0.0025043227 332:0.0025043227 362:0.0050086454 363:0.0040737698 365:0.001569447 396:0.0011920587 402:0.0022040182 403:0.0020368849 413:0.003138894 417:0.0020451595 419:0.0011020091 428:0.010017291 #
