SVM-light Version V6.02
0 # kernel type
3 # kernel parameter -d 
1 # kernel parameter -g 
1 # kernel parameter -s 
1 # kernel parameter -r 
empty# kernel parameter -u 
214 # highest feature index 
20 # number of training documents 
19 # number of support vectors plus 1 
-0.62097419 # threshold b, each following line is a SV (starting with alpha*y)
-96.521876264638777342952380422503 4:0.025510391 22:0.019607844 68:0.019607844 87:0.025510391 101:0.019607844 103:0.019607844 107:0.019607844 108:0.019607844 121:0.025510391 128:0.010252524 129:0.019607844 137:0.019607844 147:0.019607844 180:0.019607844 184:0.019607844 204:0.019607844 208:0.019607844 210:0.019607844 #
-48.015767605920352423254371387884 10:0.054209583 90:0.02912375 98:0.02912375 126:0.02912375 128:0.021786615 168:0.054209583 175:0.025085833 178:0.0019065621 202:0.054209583 205:0.0092436979 214:0.02912375 #
-65.029656506944675697923230472952 90:0.033284284 98:0.033284284 120:0.061953809 126:0.033284284 128:0.024898987 175:0.028669523 178:0.0021789281 214:0.033284284 #
-48.015767605920380844963801791891 7:0.054209583 30:0.054209583 90:0.02912375 98:0.02912375 126:0.02912375 128:0.021786615 175:0.025085833 178:0.0019065621 197:0.054209583 205:0.0092436979 214:0.02912375 #
-65.02965650694470411963266087696 8:0.061953809 90:0.033284284 98:0.033284284 126:0.033284284 128:0.024898987 175:0.028669523 178:0.0021789281 214:0.033284284 #
47.935467056945356034702854231 11:0.010213745 14:0.0049757026 16:0.0012439257 19:0.0062196278 23:0.0012439257 25:0.0012439257 28:0.0024878513 31:0.0012439257 33:0.0053761569 34:0.0012439257 35:0.0012439257 36:0.0053761569 38:0.0024878513 39:0.0012439257 41:0.0012439257 42:0.0012439257 45:0.0012439257 47:0.010823194 49:0.010752314 55:0.0012439257 58:0.0053761569 59:0.0012439257 60:0.0012439257 61:0.0012439257 62:0.0018334608 63:0.0012439257 69:0.0012439257 70:0.0010728814 71:0.0010728814 74:0.0023192558 80:0.0024878513 82:0.0012439257 83:0.0037680326 86:0.0012439257 88:0.0012439257 89:0.0010728814 91:0.0032186443 96:0.0037317767 100:0.0053761569 105:0.0012439257 106:0.0012439257 110:0.0034045817 111:0.0053761569 114:0.0053761569 118:0.0034045817 119:0.0064372886 124:0.00091673038 125:0.0053761569 131:0.0053761569 132:0.010752314 135:0.0012439257 136:0.0012439257 138:0.0012439257 139:0.0041322312 141:0.0010728814 142:0.0012439257 145:0.0010728814 146:0.0041322312 150:0.0012439257 151:0.0028883058 155:0.0018334608 157:0.0010728814 159:0.00091673038 163:0.0012439257 165:0.0012439257 171:0.0012439257 176:0.0012439257 178:0.00018908054 179:0.0012439257 181:0.0034045817 182:0.0010728814 183:0.0024878513 188:0.0024878513 194:0.0012439257 198:0.0012439257 199:0.0012439257 200:0.0032186443 205:0.00091673038 206:0.0024878513 207:0.0012439257 211:0.0012439257 #
262.10578290364895792663446627557 14:0.0014266825 16:0.0014266825 17:0.0028533649 19:0.0028533649 23:0.0014266825 25:0.0014266825 28:0.0028533649 31:0.0014266825 34:0.0014266825 35:0.0014266825 39:0.0014266825 41:0.0014266825 42:0.0014266825 45:0.0014266825 47:0.0097533325 54:0.0033126541 55:0.0014266825 59:0.0014266825 60:0.0014266825 61:0.0014266825 62:0.0031542475 63:0.0014266825 69:0.0014266825 70:0.0012305086 71:0.0012305086 74:0.0026599998 78:0.0047393367 80:0.0028533649 82:0.0014266825 86:0.0014266825 88:0.0014266825 89:0.0012305086 91:0.0024610171 96:0.0042800475 105:0.0014266825 106:0.0014266825 110:0.0039047808 112:0.0024780983 118:0.0078095617 119:0.0049220342 124:0.0010514159 135:0.0014266825 136:0.0014266825 138:0.0014266825 141:0.0012305086 142:0.0014266825 145:0.0012305086 150:0.0014266825 151:0.0033126541 155:0.0021028318 157:0.0012305086 159:0.0010514159 160:0.0094786733 163:0.0014266825 165:0.0014266825 171:0.0014266825 176:0.0014266825 178:0.00021686015 179:0.0014266825 181:0.0039047808 182:0.0012305086 183:0.0028533649 188:0.0028533649 193:0.0047393367 194:0.0014266825 198:0.0014266825 199:0.0014266825 200:0.0036915257 205:0.0010514159 206:0.0028533649 207:0.0014266825 211:0.0014266825 #
128.99542343752909800969064235687 6:0.0022805303 11:0.0031208664 14:0.0011402651 15:0.0022805303 16:0.0011402651 19:0.0034207953 23:0.0011402651 24:0.0022805303 25:0.0011402651 27:0.0022805303 28:0.0022805303 31:0.0011402651 34:0.0011402651 35:0.0011402651 38:0.0022805303 39:0.0011402651 41:0.0011402651 42:0.0011402651 45:0.0011402651 47:0.011338584 48:0.0022805303 55:0.0022805303 57:0.0022805303 59:0.0011402651 60:0.0011402651 61:0.0011402651 62:0.0033613448 63:0.0011402651 69:0.0011402651 70:0.00098347466 71:0.00098347466 74:0.0021259845 77:0.0022805303 80:0.0022805303 82:0.0011402651 83:0.00345403 84:0.0022805303 86:0.0011402651 88:0.0011402651 89:0.00098347466 91:0.0029504241 96:0.0034207953 105:0.0011402651 106:0.0011402651 112:0.0019806013 113:0.001727015 119:0.0049173734 124:0.0008403362 127:0.0037878789 133:0.0022805303 134:0.0019806013 135:0.0011402651 136:0.0011402651 138:0.0022805303 141:0.00098347466 142:0.0011402651 145:0.00098347466 150:0.0011402651 152:0.0037878789 154:0.0022805303 155:0.0016806724 157:0.00098347466 159:0.0008403362 161:0.0022805303 163:0.0034207953 164:0.0075757578 165:0.0022805303 169:0.0022805303 171:0.0011402651 174:0.0045610606 176:0.0011402651 178:0.00017332383 179:0.0011402651 182:0.00098347466 183:0.0022805303 188:0.0022805303 189:0.0022805303 191:0.0037878789 194:0.0011402651 198:0.0011402651 199:0.0011402651 200:0.0029504241 205:0.0008403362 206:0.0034207953 207:0.0011402651 209:0.0022805303 211:0.0011402651 #
-134.04171769685171966557390987873 12:0.014084507 47:0.0079050697 50:0.018324366 51:0.028169014 62:0.0062492606 70:0.0036568635 71:0.0036568635 72:0.018324366 74:0.0052700462 93:0.018324366 94:0.028169014 95:0.018324366 99:0.036648732 102:0.014084507 113:0.0064215767 115:0.018324366 119:0.0073137269 122:0.018324366 130:0.014084507 134:0.0073644891 139:0.014084507 148:0.011604348 153:0.014084507 155:0.012498521 156:0.014084507 159:0.0062492606 162:0.018324366 167:0.018324366 172:0.018324366 178:0.00064447167 187:0.014084507 196:0.014084507 200:0.0036568635 #
-87.030590304548923086258582770824 47:0.0047970936 51:0.051282052 74:0.0095941871 94:0.051282052 102:0.025641026 124:0.0056884293 130:0.025641026 148:0.021125864 153:0.025641026 155:0.011376859 156:0.025641026 159:0.011376859 178:0.001173269 196:0.025641026 #
-269.02355197424083144142059609294 21:0.056566522 47:0.0081342021 124:0.009645598 148:0.03582212 178:0.0019894561 #
-90.95622135161447374684939859435 12:0.0625 26:0.081314377 62:0.013865547 113:0.028495748 178:0.0028598432 187:0.0625 #
-269.02355197424083144142059609294 2:0.0097091794 3:0.0097091794 5:0.0097091794 18:0.0097091794 22:0.0074626864 29:0.0097091794 40:0.0097091794 52:0.0097091794 64:0.0097091794 65:0.0097091794 68:0.0074626864 73:0.0097091794 74:0.001396169 85:0.0097091794 89:0.0019375918 91:0.0019375918 101:0.014925373 103:0.0074626864 104:0.0097091794 107:0.014925373 108:0.014925373 116:0.0097091794 123:0.0097091794 128:0.0078041605 129:0.014925373 137:0.0074626864 141:0.0019375918 145:0.0038751836 147:0.0074626864 149:0.0097091794 157:0.0038751836 170:0.0097091794 173:0.0097091794 175:0.0044929851 177:0.0097091794 180:0.014925373 182:0.0019375918 184:0.014925373 190:0.0097091794 204:0.0074626864 208:0.0074626864 210:0.014925373 #
150.57388918778451625257730484009 13:0.0046511628 14:0.0014001395 16:0.0014001395 17:0.008400837 19:0.0042004185 23:0.0014001395 25:0.0014001395 28:0.0028002791 31:0.0014001395 34:0.0014001395 35:0.0014001395 39:0.0014001395 41:0.0014001395 42:0.0014001395 44:0.0093023255 45:0.0014001395 47:0.0078315344 55:0.0014001395 56:0.0046511628 59:0.0014001395 60:0.0014001395 61:0.0014001395 62:0.0020637093 63:0.0014001395 66:0.0046511628 67:0.0038321337 69:0.0014001395 70:0.0012076154 71:0.0012076154 74:0.0026105114 75:0.0046511628 76:0.0046511628 80:0.0028002791 82:0.0014001395 86:0.0014001395 88:0.0014001395 89:0.0012076154 91:0.0036228462 92:0.0046511628 96:0.0042004185 97:0.0038321337 105:0.0014001395 106:0.0014001395 117:0.0038321337 119:0.0060380772 124:0.0010318547 135:0.0014001395 136:0.0014001395 138:0.0014001395 141:0.0012076154 142:0.0014001395 145:0.0012076154 150:0.0014001395 155:0.0020637093 157:0.0012076154 159:0.0010318547 163:0.0014001395 165:0.0014001395 171:0.0014001395 176:0.0014001395 178:0.00021282554 179:0.0014001395 182:0.0012076154 183:0.0028002791 185:0.0093023255 194:0.0014001395 198:0.0014001395 199:0.0014001395 200:0.0036228462 205:0.0010318547 206:0.0028002791 207:0.0014001395 211:0.0014001395 213:0.0046511628 #
175.2165132544216135102033149451 9:0.0089285718 14:0.0013438839 16:0.0013438839 19:0.0026877678 20:0.0044642859 23:0.0013438839 25:0.0013438839 28:0.0026877678 31:0.0013438839 32:0.0044642859 34:0.0013438839 35:0.0013438839 38:0.0053755357 39:0.0013438839 41:0.0013438839 42:0.0013438839 43:0.0044642859 45:0.0013438839 47:0.010022499 53:0.0044642859 54:0.0062408037 55:0.0013438839 59:0.0013438839 60:0.0013438839 61:0.0013438839 62:0.0019807925 63:0.0013438839 69:0.0013438839 70:0.0011590951 71:0.0011590951 74:0.0033408329 80:0.0026877678 82:0.0013438839 83:0.0040708212 86:0.0013438839 88:0.0013438839 89:0.0011590951 91:0.0023181902 96:0.0040316517 105:0.0013438839 106:0.0013438839 112:0.0023342802 119:0.0069545708 124:0.00099039625 135:0.0013438839 136:0.0013438839 138:0.0013438839 140:0.0044642859 141:0.0011590951 142:0.0013438839 145:0.0011590951 150:0.0013438839 155:0.0029711886 157:0.0011590951 159:0.00099039625 163:0.0013438839 165:0.0013438839 166:0.0044642859 171:0.0013438839 176:0.0013438839 178:0.00020427452 179:0.0013438839 182:0.0011590951 183:0.0026877678 192:0.0044642859 194:0.0013438839 198:0.0013438839 199:0.0013438839 200:0.0034772854 201:0.0089285718 205:0.00099039625 206:0.0026877678 207:0.0013438839 211:0.0013438839 #
91.300642205513554472418036311865 6:0.0021579212 14:0.0032368817 15:0.0021579212 16:0.0010789606 17:0.0043158424 19:0.0032368817 23:0.0010789606 24:0.0021579212 25:0.0010789606 27:0.0021579212 28:0.0021579212 31:0.0010789606 34:0.0010789606 35:0.0010789606 37:0.0046631899 39:0.0010789606 41:0.0010789606 42:0.0010789606 45:0.0010789606 46:0.0046631899 47:0.012740668 48:0.0021579212 55:0.0021579212 57:0.0021579212 59:0.0010789606 60:0.0010789606 61:0.0010789606 62:0.0023854703 63:0.0010789606 67:0.0029530779 69:0.0010789606 70:0.00093059969 71:0.00093059969 74:0.0020116842 77:0.0021579212 79:0.0046631899 80:0.0032368817 81:0.0046631899 82:0.0010789606 83:0.0032683294 84:0.0021579212 86:0.0010789606 88:0.0010789606 89:0.00093059969 91:0.0037223988 96:0.0032368817 97:0.0029530779 105:0.0010789606 106:0.0010789606 113:0.0016341647 117:0.0029530779 119:0.0037223988 124:0.00079515681 133:0.0021579212 134:0.0018741174 135:0.0010789606 136:0.0010789606 138:0.0021579212 141:0.00093059969 142:0.0010789606 143:0.0046631899 144:0.0046631899 145:0.00093059969 146:0.0035842294 150:0.0010789606 151:0.0025052689 154:0.0021579212 155:0.0015903136 157:0.00093059969 158:0.0093263797 159:0.00079515681 161:0.0021579212 163:0.0043158424 165:0.0021579212 169:0.0021579212 171:0.0010789606 174:0.0043158424 176:0.0010789606 178:0.00016400534 179:0.0010789606 182:0.00093059969 183:0.0021579212 186:0.0046631899 189:0.0021579212 194:0.0010789606 198:0.0010789606 199:0.0010789606 200:0.0027917991 203:0.0093263797 205:0.00079515681 206:0.0043158424 207:0.0010789606 209:0.0021579212 211:0.0010789606 212:0.0046631899 #
269.02355197424083144142059609294 11:0.0039802357 14:0.0014542512 16:0.0014542512 19:0.0029085025 23:0.0014542512 25:0.0014542512 28:0.0029085025 31:0.0014542512 34:0.0014542512 35:0.0014542512 38:0.0029085025 39:0.0014542512 41:0.0014542512 42:0.0014542512 45:0.0014542512 47:0.0090380022 55:0.0014542512 59:0.0014542512 60:0.0014542512 61:0.0014542512 62:0.0032151993 63:0.0014542512 69:0.0014542512 70:0.0012542865 71:0.0012542865 74:0.0027114006 80:0.0029085025 82:0.0014542512 86:0.0014542512 88:0.0014542512 89:0.0012542865 91:0.002508573 96:0.0043627536 105:0.0014542512 106:0.0014542512 112:0.0025259843 119:0.0062714326 124:0.0010717331 127:0.0048309178 135:0.0014542512 136:0.0014542512 138:0.0014542512 141:0.0012542865 142:0.0014542512 145:0.0012542865 150:0.0014542512 152:0.0048309178 155:0.0021434661 157:0.0012542865 159:0.0010717331 163:0.0014542512 164:0.0096618356 165:0.0014542512 171:0.0014542512 176:0.0014542512 178:0.00022105068 179:0.0014542512 182:0.0012542865 183:0.0029085025 188:0.0029085025 191:0.0048309178 194:0.0014542512 198:0.0014542512 199:0.0014542512 200:0.0037628596 205:0.0010717331 206:0.0029085025 207:0.0014542512 211:0.0014542512 #
47.537087771782353229355067014694 6:0.0022134557 13:0.0036764706 14:0.0011067279 15:0.0022134557 16:0.0011067279 17:0.0066403677 19:0.0044269115 23:0.0011067279 24:0.0022134557 25:0.0011067279 27:0.0022134557 28:0.0022134557 31:0.0011067279 34:0.0011067279 35:0.0011067279 39:0.0011067279 41:0.0011067279 42:0.0011067279 44:0.0073529412 45:0.0011067279 47:0.010317278 48:0.0022134557 55:0.0022134557 56:0.0036764706 57:0.0022134557 59:0.0011067279 60:0.0011067279 61:0.0011067279 62:0.0024468612 63:0.0011067279 66:0.0036764706 67:0.0030290761 69:0.0011067279 70:0.00095454894 71:0.00095454894 74:0.0020634555 75:0.0036764706 76:0.0036764706 77:0.0022134557 80:0.0022134557 82:0.0011067279 83:0.0033524409 84:0.0022134557 86:0.0011067279 88:0.0011067279 89:0.00095454894 91:0.0038181958 92:0.0036764706 96:0.0033201838 97:0.0030290761 105:0.0011067279 106:0.0011067279 113:0.0016762204 117:0.0030290761 119:0.0047727446 124:0.00081562041 133:0.0022134557 134:0.0019223483 135:0.0011067279 136:0.0011067279 138:0.0022134557 141:0.00095454894 142:0.0011067279 145:0.00095454894 150:0.0011067279 154:0.0022134557 155:0.0016312408 157:0.00095454894 159:0.00081562041 161:0.0022134557 163:0.0033201838 165:0.0022134557 169:0.0022134557 171:0.0011067279 174:0.0044269115 176:0.0011067279 178:0.00016822606 179:0.0011067279 182:0.00095454894 183:0.0022134557 185:0.0073529412 189:0.0022134557 194:0.0011067279 198:0.0011067279 199:0.0011067279 200:0.0028636467 205:0.00081562041 206:0.0033201838 207:0.0011067279 209:0.0022134557 211:0.0011067279 213:0.0036764706 #
