SVM-light Version V6.02
0 # kernel type
3 # kernel parameter -d 
1 # kernel parameter -g 
1 # kernel parameter -s 
1 # kernel parameter -r 
empty# kernel parameter -u 
214 # highest feature index 
20 # number of training documents 
14 # number of support vectors plus 1 
0.9998511 # threshold b, each following line is a SV (starting with alpha*y)
0.010638179230936805480522977518376 11:1 14:1 16:1 19:1 23:1 25:1 28:1 31:1 34:1 35:1 38:1 39:1 41:1 42:1 45:1 47:1 55:1 59:1 60:1 61:1 62:1 63:1 69:1 70:1 71:1 74:1 80:1 82:1 86:1 88:1 89:1 91:1 96:1 105:1 106:1 112:1 119:1 124:1 127:1 135:1 136:1 138:1 141:1 142:1 145:1 150:1 152:1 155:1 157:1 159:1 163:1 164:1 165:1 171:1 176:1 178:1 179:1 182:1 183:1 188:1 191:1 194:1 198:1 199:1 200:1 205:1 206:1 207:1 211:1 #
-0.0024061331414781273602132571909351 12:1 26:1 62:1 113:1 178:1 187:1 #
-0.01193853925510281362154518802754 21:1 47:1 124:1 148:1 178:1 #
-0.001692533444952552422121949682321 7:1 30:1 90:1 98:1 126:1 128:1 175:1 178:1 197:1 205:1 214:1 #
-0.0035273829973093630447966706498164 47:1 51:1 74:1 94:1 102:1 124:1 130:1 148:1 153:1 155:1 156:1 159:1 178:1 196:1 #
0.0022356990796674990062964383241706 11:1 14:1 16:1 19:1 23:1 25:1 28:1 31:1 33:1 34:1 35:1 36:1 38:1 39:1 41:1 42:1 45:1 47:1 49:1 55:1 58:1 59:1 60:1 61:1 62:1 63:1 69:1 70:1 71:1 74:1 80:1 82:1 83:1 86:1 88:1 89:1 91:1 96:1 100:1 105:1 106:1 110:1 111:1 114:1 118:1 119:1 124:1 125:1 131:1 132:1 135:1 136:1 138:1 139:1 141:1 142:1 145:1 146:1 150:1 151:1 155:1 157:1 159:1 163:1 165:1 171:1 176:1 178:1 179:1 181:1 182:1 183:1 188:1 194:1 198:1 199:1 200:1 205:1 206:1 207:1 211:1 #
0.0052384738369157463414027553483265 14:1 16:1 17:1 19:1 23:1 25:1 28:1 31:1 34:1 35:1 39:1 41:1 42:1 45:1 47:1 54:1 55:1 59:1 60:1 61:1 62:1 63:1 69:1 70:1 71:1 74:1 78:1 80:1 82:1 86:1 88:1 89:1 91:1 96:1 105:1 106:1 110:1 112:1 118:1 119:1 124:1 135:1 136:1 138:1 141:1 142:1 145:1 150:1 151:1 155:1 157:1 159:1 160:1 163:1 165:1 171:1 176:1 178:1 179:1 181:1 182:1 183:1 188:1 193:1 194:1 198:1 199:1 200:1 205:1 206:1 207:1 211:1 #
0.0022769913198406686177799329584559 6:1 14:1 15:1 16:1 17:1 19:1 23:1 24:1 25:1 27:1 28:1 31:1 34:1 35:1 37:1 39:1 41:1 42:1 45:1 46:1 47:1 48:1 55:1 57:1 59:1 60:1 61:1 62:1 63:1 67:1 69:1 70:1 71:1 74:1 77:1 79:1 80:1 81:1 82:1 83:1 84:1 86:1 88:1 89:1 91:1 96:1 97:1 105:1 106:1 113:1 117:1 119:1 124:1 133:1 134:1 135:1 136:1 138:1 141:1 142:1 143:1 144:1 145:1 146:1 150:1 151:1 154:1 155:1 157:1 158:1 159:1 161:1 163:1 165:1 169:1 171:1 174:1 176:1 178:1 179:1 182:1 183:1 186:1 189:1 194:1 198:1 199:1 200:1 203:1 205:1 206:1 207:1 209:1 211:1 212:1 #
-0.0073670412858631807370701771731092 12:1 47:1 50:1 51:1 62:1 70:1 71:1 72:1 74:1 93:1 94:1 95:1 99:1 102:1 113:1 115:1 119:1 122:1 130:1 134:1 139:1 148:1 153:1 155:1 156:1 159:1 162:1 167:1 172:1 178:1 187:1 196:1 200:1 #
0.00765743005436359848447924747461 13:1 14:1 16:1 17:1 19:1 23:1 25:1 28:1 31:1 34:1 35:1 39:1 41:1 42:1 44:1 45:1 47:1 55:1 56:1 59:1 60:1 61:1 62:1 63:1 66:1 67:1 69:1 70:1 71:1 74:1 75:1 76:1 80:1 82:1 86:1 88:1 89:1 91:1 92:1 96:1 97:1 105:1 106:1 117:1 119:1 124:1 135:1 136:1 138:1 141:1 142:1 145:1 150:1 155:1 157:1 159:1 163:1 165:1 171:1 176:1 178:1 179:1 182:1 183:1 185:1 194:1 198:1 199:1 200:1 205:1 206:1 207:1 211:1 213:1 #
0.0058017755313388543261798879768776 9:1 14:1 16:1 19:1 20:1 23:1 25:1 28:1 31:1 32:1 34:1 35:1 38:1 39:1 41:1 42:1 43:1 45:1 47:1 53:1 54:1 55:1 59:1 60:1 61:1 62:1 63:1 69:1 70:1 71:1 74:1 80:1 82:1 83:1 86:1 88:1 89:1 91:1 96:1 105:1 106:1 112:1 119:1 124:1 135:1 136:1 138:1 140:1 141:1 142:1 145:1 150:1 155:1 157:1 159:1 163:1 165:1 166:1 171:1 176:1 178:1 179:1 182:1 183:1 192:1 194:1 198:1 199:1 200:1 201:1 205:1 206:1 207:1 211:1 #
-0.0052243854834046260168789466149519 2:1 3:1 5:1 18:1 22:1 29:1 40:1 52:1 64:1 65:1 68:1 73:1 74:1 85:1 89:1 91:1 101:1 103:1 104:1 107:1 108:1 116:1 123:1 128:1 129:1 137:1 141:1 145:1 147:1 149:1 157:1 170:1 173:1 175:1 177:1 180:1 182:1 184:1 190:1 204:1 208:1 210:1 #
-0.0016925334449525535063241221678254 10:1 90:1 98:1 126:1 128:1 168:1 175:1 178:1 202:1 205:1 214:1 #
