SVM-light Version V6.02
0 # kernel type
3 # kernel parameter -d 
1 # kernel parameter -g 
1 # kernel parameter -s 
1 # kernel parameter -r 
empty# kernel parameter -u 
123 # highest feature index 
20 # number of training documents 
7 # number of support vectors plus 1 
1.045087 # threshold b, each following line is a SV (starting with alpha*y)
-34.80963535652864493386005051434 5:0.01385827 14:0.031181106 20:0.015257569 23:0.018518519 26:0.0064219907 27:0.015257569 32:0.0017946298 35:0.012943889 37:0.033772737 53:0.031181106 59:0.051775556 60:0.0096829394 63:0.0073692594 65:0.029477037 66:0.0034645675 67:0.012943889 83:0.001307057 86:0.018518519 95:0.011149259 98:0.012943889 102:0.0084431842 107:0.061030276 112:0.0096829394 119:0.038731758 121:0.011149259 123:0.0052282279 #
-2.7952751450976900393641244590981 5:0.022010194 6:0.03826559 14:0.0055025485 26:0.010199632 28:0.024232609 32:0.0028502946 37:0.013409764 41:0.03826559 53:0.022010194 56:0.0088538229 64:0.03826559 65:0.011704118 78:0.024232609 83:0.0020759141 90:0.020557942 110:0.03826559 113:0.03826559 119:0.015378786 #
-6.1994289325573141979930369416252 30:0.030515138 42:0.019365879 45:0.030515138 48:0.022298519 56:0.011149259 74:0.037037037 83:0.002614114 84:0.030515138 97:0.037037037 114:0.058954075 118:0.014738519 123:0.002614114 #
-1.458604680751075299838248611195 5:0.0098466659 9:0.017118815 14:0.0024616665 17:0.017118815 26:0.0045629931 32:0.0012751317 36:0.017118815 38:0.0079218419 40:0.052631579 46:0.017118815 47:0.068475261 52:0.017118815 53:0.039386664 54:0.017118815 62:0.017118815 65:0.0052360529 66:0.0098466659 68:0.017118815 70:0.017118815 72:0.017118815 77:0.017118815 78:0.010840905 80:0.061919853 82:0.0091969734 83:0.0037147934 87:0.068475261 92:0.017118815 95:0.0079218419 98:0.0091969734 99:0.010840905 102:0.0059991046 111:0.023996418 115:0.0068799835 119:0.0068799835 122:0.013157895 123:0.023217458 #
57.416311599372136242891428992152 2:0.016262876 5:0.0093543325 7:0.016262876 14:0.021047248 15:0.016262876 20:0.010298859 24:0.065051503 25:0.016262876 27:0.010298859 29:0.016262876 32:0.0012113751 33:0.016262876 35:0.0087371254 37:0.022796597 50:0.065051503 51:0.0125 53:0.03741733 57:0.0125 59:0.034948502 60:0.0065359841 65:0.019897001 66:0.0093543325 67:0.0087371254 71:0.016262876 74:0.050000001 82:0.0087371254 83:0.00088226341 89:0.016262876 95:0.030103 98:0.0087371254 100:0.016262876 105:0.016262876 106:0.050000001 108:0.016262876 112:0.0065359841 119:0.10457575 121:0.00752575 123:0.022056585 #
-12.153368265719505458832827571314 4:0.024547735 11:0.024547735 12:0.024547735 18:0.024547735 19:0.024547735 21:0.024547735 22:0.024547735 31:0.024547735 34:0.024547735 43:0.018867925 51:0.018867925 58:0.024547735 61:0.018867925 66:0.0035299368 73:0.018867925 81:0.024547735 82:0.013188113 83:0.0013317184 85:0.013188113 88:0.098190941 90:0.013188113 91:0.024547735 94:0.024547735 95:0.045438491 99:0.13990903 106:0.075471699 119:0.08879073 123:0.0053268736 #
