SVM-light Version V6.02
0 # kernel type
3 # kernel parameter -d 
1 # kernel parameter -g 
1 # kernel parameter -s 
1 # kernel parameter -r 
empty# kernel parameter -u 
123 # highest feature index 
20 # number of training documents 
11 # number of support vectors plus 1 
1.0762749 # threshold b, each following line is a SV (starting with alpha*y)
-0.00087732102666242695737652823595454 1:1 2:1 5:1 7:1 14:1 15:1 20:1 24:1 25:1 27:1 29:1 32:1 33:1 35:1 37:1 49:1 50:1 51:1 53:1 55:1 57:1 59:1 60:1 65:1 66:1 67:1 69:1 71:1 74:1 82:1 83:1 89:1 95:1 98:1 100:1 105:1 106:1 108:1 112:1 119:1 121:1 123:1 #
-0.0051135241560319819736912805296924 1:1 5:1 6:1 14:1 26:1 28:1 32:1 37:1 41:1 49:1 53:1 55:1 56:1 64:1 65:1 69:1 78:1 83:1 90:1 110:1 113:1 119:1 #
-0.0088344226630890053397759942299672 1:1 5:1 14:1 20:1 23:1 26:1 27:1 32:1 35:1 37:1 49:1 53:1 55:1 59:1 60:1 63:1 65:1 66:1 67:1 69:1 83:1 86:1 95:1 98:1 102:1 107:1 112:1 119:1 121:1 123:1 #
-0.0027022724212181561953549646659667 1:1 5:1 14:1 32:1 49:1 53:1 55:1 56:1 66:1 69:1 78:1 80:1 83:1 90:1 96:1 104:1 107:1 111:1 115:1 123:1 #
0.044444467350771121871844115958083 1:1 5:1 9:1 14:1 17:1 26:1 32:1 36:1 38:1 40:1 46:1 47:1 49:1 52:1 53:1 54:1 55:1 62:1 65:1 66:1 68:1 69:1 70:1 72:1 77:1 78:1 80:1 82:1 83:1 87:1 92:1 95:1 98:1 99:1 102:1 111:1 115:1 119:1 122:1 123:1 #
-0.014059333292416084648657204070332 1:1 3:1 5:1 14:1 16:1 32:1 38:1 49:1 53:1 55:1 56:1 66:1 69:1 79:1 80:1 82:1 83:1 102:1 104:1 111:1 115:1 117:1 123:1 #
-0.0057028240036707325555376257852913 1:1 32:1 40:1 42:1 43:1 49:1 55:1 57:1 61:1 69:1 73:1 99:1 103:1 109:1 111:1 121:1 122:1 123:1 #
-0.0018385604593568862299979294050445 1:1 4:1 11:1 12:1 18:1 19:1 21:1 22:1 31:1 34:1 43:1 49:1 51:1 55:1 58:1 61:1 66:1 69:1 73:1 81:1 82:1 83:1 85:1 88:1 90:1 91:1 94:1 95:1 99:1 106:1 119:1 123:1 #
-0.0039364856872971774881531104028909 1:1 5:1 10:1 14:1 32:1 38:1 49:1 53:1 55:1 63:1 66:1 69:1 76:1 80:1 83:1 85:1 93:1 101:1 102:1 104:1 111:1 114:1 115:1 118:1 123:1 #
-0.0013797236092810694074728417035658 1:1 5:1 14:1 28:1 32:1 38:1 49:1 53:1 55:1 63:1 66:1 69:1 75:1 80:1 83:1 85:1 93:1 101:1 102:1 104:1 111:1 114:1 115:1 118:1 123:1 #
