SVM-light Version V6.02
0 # kernel type
3 # kernel parameter -d 
1 # kernel parameter -g 
1 # kernel parameter -s 
1 # kernel parameter -r 
empty# kernel parameter -u 
183 # highest feature index 
22 # number of training documents 
19 # number of support vectors plus 1 
0.11022891 # threshold b, each following line is a SV (starting with alpha*y)
-146.85365902290320150314073543996 2:0.0067601674 8:0.0067601674 11:0.0067601674 12:0.0067601674 15:0.013520335 23:0.0067601674 24:0.013520335 25:0.0067601674 27:0.0067601674 28:0.0067601674 29:0.0067601674 32:0.0067601674 36:0.0067601674 44:0.0067601674 45:0.0067601674 49:0.0020565738 53:0.0067601674 54:0.0067601674 58:0.0067601674 60:0.0067601674 67:0.0067601674 68:0.0067601674 69:0.0067601674 71:0.0067601674 73:0.0067601674 74:0.0068645733 75:0.0067601674 78:0.0067601674 79:0.015541395 88:0.0067601674 91:0.013520335 96:0.0067601674 98:0.0067601674 104:0.0038853488 105:0.0067601674 110:0.0067601674 112:0.0067601674 116:0.0067601674 117:0.047321171 118:0.0067601674 119:0.01029686 128:0.0026751773 131:0.0067601674 132:0.02704067 133:0.01029686 137:0.0057840836 138:0.0034322867 140:0.0067601674 142:0.011568167 144:0.0050269742 152:0.0067601674 153:0.0067601674 157:0.0067601674 158:0.0067601674 161:0.0067601674 171:0.00068086077 172:0.0057840836 178:0.0067601674 181:0.0067601674 183:0.01645259 #
-53.017961297626747807498759357259 3:0.029831614 16:0.01922892 33:0.01922892 37:0.029831614 42:0.029831614 59:0.01922892 65:0.01922892 66:0.029831614 72:0.029831614 74:0.019525897 79:0.011051659 84:0.029831614 92:0.029831614 103:0.029831614 106:0.029831614 113:0.0019366706 119:0.019525897 128:0.007609393 130:0.029831614 133:0.019525897 136:0.029831614 142:0.016452504 168:0.029831614 170:0.029831614 171:0.0019366706 183:0.0058498099 #
-44.671234024134754747592523926869 14:0.0078717861 19:0.011970031 30:0.023940062 33:0.0099459933 40:0.0030257637 41:0.023940062 48:0.010099602 49:0.0060515273 57:0.023940062 59:0.019891987 61:0.019891987 65:0.0099459933 94:0.0039358931 113:0.0010017261 119:0.010099602 121:0.0034601148 127:0.017019833 148:0.017019833 156:0.023940062 162:0.019891987 166:0.010099602 171:0.0060103568 173:0.023940062 176:0.0089236824 177:0.023940062 #
-134.70751264915602973815111909062 48:0.024407372 49:0.014624524 85:0.041131262 113:0.0048416764 166:0.024407372 171:0.0096833529 176:0.021565566 #
-17.285689156750262185369138023816 50:0.11186856 97:0.11186856 113:0.0072625144 151:0.11186856 176:0.032348346 #
70.943347035407768430559372063726 6:0.020975355 10:0.020975355 14:0.0053503546 22:0.011568167 40:0.0020565738 46:0.0081358803 47:0.0077706976 70:0.010487678 74:0.0068645733 93:0.0057840836 94:0.0026751773 99:0.0057840836 101:0.023136334 102:0.010487678 104:0.0038853488 107:0.0057840836 109:0.010487678 113:0.00068086077 121:0.0047035939 124:0.016271761 125:0.0057840836 128:0.0026751773 138:0.0034322867 144:0.0050269742 145:0.0038853488 146:0.011568167 154:0.0067601674 159:0.0077706976 163:0.0081358803 169:0.020975355 171:0.0013617215 175:0.030161845 183:0.018509163 #
99.380900369092131541037815622985 14:0.0062258667 21:0.040383421 34:0.037868824 40:0.0047862078 47:0.018084532 76:0.024407685 79:0.018084532 94:0.0062258667 100:0.037868824 113:0.0015845486 121:0.0054732729 133:0.015975734 143:0.02692228 145:0.018084532 155:0.015732754 183:0.014358624 #
38.575751899131098809903051005676 14:0.0053503546 20:0.0081358803 21:0.0057840836 22:0.011568167 40:0.0020565738 46:0.0081358803 47:0.011656046 56:0.010487678 74:0.0034322867 79:0.0038853488 93:0.0057840836 94:0.0026751773 99:0.0057840836 101:0.011568167 104:0.0077706976 107:0.0057840836 113:0.00068086077 121:0.0047035939 124:0.016271761 125:0.0057840836 128:0.0026751773 135:0.010487678 138:0.0034322867 143:0.0057840836 144:0.010053948 145:0.0077706976 146:0.017352251 154:0.0067601674 159:0.011656046 163:0.0081358803 171:0.00068086077 175:0.030161845 183:0.020565737 #
47.299980348383968475900474004447 14:0.0061146906 31:0.095887333 40:0.0047007399 47:0.017761594 74:0.015690453 94:0.0061146906 113:0.0015562532 121:0.0053755357 134:0.023971833 150:0.047943667 159:0.026642391 183:0.0235037 #
34.534849655959014569361897883937 7:0.042616595 14:0.0054352805 18:0.042616595 34:0.033060085 40:0.0041784355 47:0.015788084 79:0.015788084 94:0.0054352805 113:0.0013833361 121:0.0047782538 133:0.01394707 143:0.023503577 145:0.015788084 147:0.042616595 155:0.013734943 159:0.031576168 183:0.012535307 #
-146.85365902290320150314073543996 2:0.0067601674 8:0.0067601674 11:0.0067601674 12:0.0067601674 15:0.013520335 23:0.0067601674 24:0.013520335 25:0.0067601674 27:0.0067601674 28:0.0067601674 29:0.0067601674 32:0.0067601674 36:0.0067601674 44:0.0067601674 45:0.0067601674 49:0.0020565738 53:0.0067601674 54:0.0067601674 58:0.0067601674 60:0.0067601674 67:0.0067601674 68:0.0067601674 69:0.0067601674 71:0.0067601674 73:0.0067601674 74:0.0068645733 75:0.0067601674 78:0.0067601674 79:0.015541395 88:0.0067601674 91:0.013520335 96:0.0067601674 98:0.0067601674 104:0.0038853488 105:0.0067601674 110:0.0067601674 112:0.0067601674 116:0.0067601674 117:0.047321171 118:0.0067601674 119:0.01029686 128:0.0026751773 131:0.0067601674 132:0.02704067 133:0.01029686 137:0.0057840836 138:0.0034322867 140:0.0067601674 142:0.011568167 144:0.0050269742 152:0.0067601674 153:0.0067601674 157:0.0067601674 158:0.0067601674 161:0.0067601674 171:0.00068086077 172:0.0057840836 178:0.0067601674 181:0.0067601674 183:0.01645259 #
-96.938499846837942186539294198155 21:0.027420841 40:0.0048748413 43:0.02485968 49:0.0048748413 74:0.016271582 81:0.02485968 82:0.02485968 94:0.0063411607 108:0.02485968 113:0.0016138921 119:0.016271582 128:0.0063411607 129:0.02485968 162:0.032048199 171:0.0032277843 174:0.02485968 180:0.02485968 182:0.04971936 #
-134.71768581162100986148288939148 48:0.024407372 49:0.014624524 113:0.0048416764 127:0.041131262 166:0.024407372 171:0.0096833529 176:0.021565566 #
146.85365902290320150314073543996 2:0.0067601674 8:0.0067601674 11:0.0067601674 12:0.0067601674 15:0.013520335 23:0.0067601674 24:0.013520335 25:0.0067601674 27:0.0067601674 28:0.0067601674 29:0.0067601674 32:0.0067601674 36:0.0067601674 44:0.0067601674 45:0.0067601674 49:0.0020565738 53:0.0067601674 54:0.0067601674 58:0.0067601674 60:0.0067601674 67:0.0067601674 68:0.0067601674 69:0.0067601674 71:0.0067601674 73:0.0067601674 74:0.0068645733 75:0.0067601674 78:0.0067601674 79:0.015541395 88:0.0067601674 91:0.013520335 96:0.0067601674 98:0.0067601674 104:0.0038853488 105:0.0067601674 110:0.0067601674 112:0.0067601674 116:0.0067601674 117:0.047321171 118:0.0067601674 119:0.01029686 128:0.0026751773 131:0.0067601674 132:0.02704067 133:0.01029686 137:0.0057840836 138:0.0034322867 140:0.0067601674 142:0.011568167 144:0.0050269742 152:0.0067601674 153:0.0067601674 157:0.0067601674 158:0.0067601674 161:0.0067601674 171:0.00068086077 172:0.0057840836 178:0.0067601674 181:0.0067601674 183:0.01645259 #
116.49935918664718315085337962955 4:0.011094403 5:0.011094403 9:0.011094403 13:0.022188805 14:0.0056598792 17:0.011094403 20:0.0086065512 21:0.0061186999 26:0.022188805 38:0.011094403 39:0.011094403 51:0.011094403 55:0.011094403 61:0.014302503 62:0.022188805 80:0.011094403 86:0.011094403 87:0.011094403 89:0.011094403 90:0.011094403 100:0.017213102 111:0.011094403 114:0.022188805 119:0.0036308486 122:0.011094403 128:0.0028299396 133:0.0072616972 138:0.0072616972 141:0.011094403 143:0.0122374 145:0.0082202423 148:0.0061186999 149:0.011094403 154:0.014302503 155:0.0071512517 159:0.016440485 165:0.011094403 171:0.0021607482 172:0.0061186999 175:0.010635582 183:0.0087021962 #
118.80021345748829730837314855307 14:0.0051492131 22:0.0055666366 35:0.010093404 40:0.0019792588 47:0.011217849 52:0.010093404 63:0.00783002 64:0.00783002 77:0.010093404 93:0.0055666366 94:0.0025746066 95:0.010093404 99:0.0055666366 101:0.01669991 104:0.003739283 107:0.0055666366 113:0.00065526448 115:0.010093404 120:0.00783002 121:0.0045267669 123:0.010093404 125:0.0055666366 126:0.00783002 128:0.0025746066 133:0.0033032533 137:0.0055666366 138:0.0099097602 139:0.010093404 145:0.003739283 146:0.011133273 148:0.0055666366 159:0.0074785659 167:0.03028021 171:0.001310529 175:0.024189951 179:0.010093404 183:0.015834071 #
146.85365902290320150314073543996 14:0.0060605784 22:0.0065518823 40:0.0023295702 47:0.0088022063 63:0.0092158644 64:0.0092158644 93:0.0065518823 94:0.0030302892 99:0.0065518823 101:0.019655647 104:0.0044011031 107:0.0065518823 113:0.00077124051 120:0.0092158644 121:0.0053279647 125:0.0065518823 126:0.0092158644 128:0.0030302892 138:0.0038878999 145:0.0044011031 146:0.013103765 159:0.017604413 160:0.011879846 171:0.001542481 175:0.022777086 183:0.016306991 #
-44.695819165982733522923808777705 14:0.0078717861 16:0.0099459933 19:0.011970031 30:0.023940062 33:0.0099459933 40:0.0030257637 41:0.023940062 48:0.010099602 49:0.0060515273 57:0.023940062 59:0.019891987 61:0.019891987 85:0.017019833 94:0.0039358931 113:0.0010017261 119:0.010099602 121:0.0034601148 148:0.017019833 156:0.023940062 162:0.019891987 166:0.010099602 171:0.0060103568 173:0.023940062 176:0.0089236824 177:0.023940062 #
