SVM-light Version V6.02
0 # kernel type
3 # kernel parameter -d 
1 # kernel parameter -g 
1 # kernel parameter -s 
1 # kernel parameter -r 
empty# kernel parameter -u 
102 # highest feature index 
10 # number of training documents 
8 # number of support vectors plus 1 
1.0195613 # threshold b, each following line is a SV (starting with alpha*y)
-0.0087498047010987449467744880848841 1:1 4:1 5:1 11:1 12:1 21:1 23:1 26:1 31:1 40:1 44:1 46:1 54:1 55:1 59:1 66:1 70:1 76:1 92:1 95:1 97:1 98:1 #
-0.0042529537562501773528822468506405 1:1 4:1 11:1 21:1 26:1 31:1 40:1 44:1 46:1 50:1 53:1 55:1 56:1 59:1 70:1 94:1 97:1 99:1 102:1 #
-0.0033635790347962763249811679600043 1:1 8:1 9:1 14:1 15:1 17:1 25:1 28:1 36:1 40:1 42:1 48:1 56:1 59:1 60:1 62:1 63:1 67:1 69:1 70:1 71:1 74:1 76:1 77:1 79:1 80:1 83:1 89:1 91:1 97:1 98:1 102:1 #
-0.0011456112571035397852681203545444 1:1 2:1 3:1 4:1 6:1 11:1 16:1 20:1 22:1 24:1 26:1 27:1 29:1 31:1 37:1 40:1 41:1 42:1 44:1 47:1 49:1 50:1 55:1 56:1 57:1 59:1 61:1 64:1 69:1 70:1 75:1 80:1 82:1 84:1 87:1 88:1 89:1 94:1 97:1 98:1 100:1 102:1 #
0.037177477477472326006235903150809 1:1 4:1 7:1 10:1 11:1 13:1 21:1 26:1 30:1 32:1 34:1 38:1 39:1 40:1 43:1 44:1 45:1 51:1 52:1 55:1 56:1 58:1 59:1 65:1 66:1 68:1 69:1 70:1 73:1 78:1 80:1 82:1 83:1 85:1 93:1 96:1 97:1 98:1 101:1 102:1 #
-0.0096228096372724253315666942398821 1:1 18:1 26:1 34:1 35:1 36:1 40:1 47:1 59:1 60:1 63:1 83:1 86:1 93:1 97:1 100:1 101:1 102:1 #
-0.010042719112873963946408473191241 1:1 4:1 11:1 16:1 19:1 21:1 22:1 26:1 29:1 31:1 40:1 44:1 49:1 50:1 53:1 55:1 56:1 57:1 59:1 70:1 72:1 80:1 82:1 85:1 90:1 94:1 97:1 98:1 100:1 102:1 #
