SVM-light Version V6.02
0 # kernel type
3 # kernel parameter -d 
1 # kernel parameter -g 
1 # kernel parameter -s 
1 # kernel parameter -r 
empty# kernel parameter -u 
9930 # highest feature index 
610 # number of training documents 
370 # number of support vectors plus 1 
-0.04656979 # threshold b, each following line is a SV (starting with alpha*y)
-0.6823112746660882077520682287286 6:0.019937159 27:0.019350741 31:0.025329925 37:0.031444062 42:0.11928168 83:0.03443896 127:0.066094264 142:0.0086166598 162:0.035993244 190:0.056980081 202:0.16503957 286:0.074475288 323:0.056850906 386:0.052928429 408:0.039132856 411:0.049789339 480:0.048880257 500:0.068775021 506:0.037179198 555:0.076585822 594:0.063632675 663:0.062197074 673:0.067195281 782:0.075720288 834:0.066969693 923:0.44677126 1146:0.076086208 1191:0.5542227 1225:0.059279677 1302:0.094811738 1305:0.060443446 1379:0.070145406 1544:0.087077379 1936:0.089480147 2451:0.31556693 2796:0.1145037 2833:0.20080972 6242:0.1545693 6574:0.28386003 7639:0.29435158 #
-0.10871732980371513754835888221351 6:0.019222531 12:0.25916648 27:0.027985701 29:0.10471873 31:0.036633 39:0.19306317 42:0.2300123 57:0.071755476 86:0.074664138 137:0.07868278 140:0.13583556 142:0.012461706 165:0.18663782 243:0.090625599 286:0.053854346 317:0.057285227 409:0.049085073 414:0.071014881 439:0.20717941 527:0.091670156 537:0.10749261 674:0.12726983 720:0.095690988 782:0.10950926 884:0.099227197 922:0.13662702 1088:0.24690083 1315:0.58638889 1335:0.1033121 1595:0.12037724 1948:0.14454125 2241:0.13429174 2305:0.15394732 2359:0.1722267 2629:0.15913488 2884:0.16030714 5990:0.18698464 #
-0.64201879612718448786523595117615 6:0.041840289 29:0.06078231 73:0.090931199 97:0.052215409 142:0.0065098777 200:0.080840364 204:0.050235029 254:0.24227899 272:0.26339483 306:0.065664813 321:0.22221547 339:0.065087676 348:0.08313407 398:0.065087676 462:0.10282788 485:0.11581893 519:0.20010684 724:0.097916022 837:0.090806074 838:0.11021884 844:0.09169662 846:0.12118537 849:0.20915619 1193:0.10200039 1280:0.11021884 1334:0.12957649 1536:0.2751475 1653:0.12891091 1743:0.12418447 2014:0.14549144 2402:0.11541508 2403:0.50337994 2575:0.11653533 2857:0.14293765 2860:0.13026191 2915:0.13403438 3274:0.15165089 3799:0.16279836 3804:0.16940366 5045:0.18531862 #
-0.14856128392799969328841314109013 1:0.25735265 2:0.16399623 3:0.10239751 4:0.086883768 7:0.12472565 15:0.068817705 20:0.33991829 26:0.086939327 30:0.36220789 83:0.052045044 142:0.052086871 144:0.11941765 518:0.17517033 641:0.15893762 1045:0.10434465 1332:0.24682409 1463:0.29558206 1932:0.51849765 3425:0.33257237 #
-0.71306704476872995179803638166049 6:0.028159948 12:0.03796646 25:0.1268063 27:0.016399004 37:0.053295247 41:0.10373303 63:0.012173535 73:0.12239963 83:0.014592841 84:0.033053882 101:0.054738309 111:0.035221163 113:0.060297783 138:0.047227133 142:0.0043813707 159:0.067763604 176:0.029193072 178:0.045452666 189:0.042145241 208:0.042194534 214:0.048251834 215:0.035879526 218:0.031946789 248:0.20554081 263:0.64514899 301:0.051047374 337:0.043057494 341:0.047057129 366:0.071009092 423:0.042670824 433:0.045544378 454:0.056194488 502:0.077750325 550:0.045885384 576:0.0551324 638:0.068787113 789:0.057870217 796:0.099014044 803:0.070384637 829:0.041780476 904:0.068649754 964:0.067465529 974:0.072339214 981:0.066844836 1045:0.058514122 1115:0.079224914 1198:0.067090131 1199:0.081561908 1213:0.071659848 1227:0.061541334 1344:0.089143582 1366:0.18309553 1454:0.10774875 1482:0.066723637 1491:0.064690366 1567:0.082538217 1587:0.090771727 1598:0.058926653 1708:0.20184208 2001:0.073794708 2084:0.085490629 2106:0.076498106 2184:0.18270987 2308:0.083944023 2756:0.09324953 2808:0.39941955 4078:0.12472578 #
0.40181337756742180333802139102772 6:0.019840326 15:0.033987373 29:0.036028098 31:0.037810348 41:0.045678727 63:0.021442413 74:0.08132381 75:0.020104894 81:0.060399663 142:0.010289771 172:0.077794857 174:0.072717197 179:0.054076742 180:0.076445669 186:0.11258671 187:0.092501171 205:0.15699077 229:0.051950566 255:0.09233211 308:0.073297232 318:0.11974088 408:0.058414184 409:0.050662618 465:0.084354579 480:0.072964273 519:0.1186113 664:0.11214209 679:0.37438783 720:0.098766401 768:0.1239752 922:0.14101808 977:0.13639358 1018:0.10764876 1305:0.18044963 1581:0.14152686 1677:0.15612461 1817:0.14101808 2162:0.17092134 2314:0.16424933 2358:0.50834906 2419:0.15058282 3266:0.33889937 3374:0.1667255 8311:0.21969146 #
0.29820314276175491352560698032903 6:0.029241806 11:0.043800984 15:0.050092533 26:0.021094432 27:0.014190854 31:0.037151366 63:0.031603053 67:0.027568288 75:0.019754495 81:0.059346981 92:0.032173187 94:0.029257344 97:0.030410737 142:0.0063190218 153:0.04227028 173:0.036427803 174:0.14289969 176:0.10104873 185:0.028380351 198:0.042435575 199:0.022781203 205:0.077127323 208:0.036512978 209:0.030615317 215:0.031048298 219:0.040750112 226:0.037789639 229:0.025522571 284:0.029596858 292:0.048058696 308:0.036009885 327:0.040986799 346:0.12181286 355:0.058664102 408:0.028698055 412:0.049671777 427:0.051771287 432:0.045781996 436:0.043048158 440:0.055008356 483:0.047319703 505:0.035057146 508:0.037813161 515:0.035211299 571:0.038464423 696:0.1075763 732:0.053329621 764:0.045074739 840:0.06158619 852:0.096732236 863:0.051506482 881:0.055529423 947:0.17786445 998:0.05394455 1235:0.057126619 1526:0.078549184 1552:0.069530129 1717:0.49145913 1936:0.065620206 1960:0.094815269 1984:0.083971217 2055:0.075078912 2387:0.066197522 2393:0.076277234 2657:0.078549184 2771:0.070309319 3253:0.64281917 4326:0.081287771 4687:0.098662257 6813:0.098662257 7903:0.1133533 7909:0.22670661 8317:0.1133533 #
0.4834143643549697610950488524395 6:0.030089615 15:0.10308974 29:0.072853081 42:0.12001509 68:0.061573092 81:0.061067633 142:0.0026008917 144:0.059629686 159:0.060339268 179:0.16402437 186:0.17074774 200:0.096894465 204:0.060211208 229:0.052525099 255:0.093353227 256:0.068256319 319:0.090987079 365:0.10627076 582:0.084597081 856:0.075275406 1627:0.13390656 2252:0.66426319 2419:0.45674446 3084:0.17782912 3374:0.16856934 3545:0.18636462 3778:0.16728911 7615:0.21420401 #
0.3981339216387665969065778881486 6:0.01616648 17:0.017618595 26:0.069972984 27:0.018829167 31:0.012323594 41:0.014888148 48:0.019780139 63:0.0069887638 75:0.0065528238 88:0.074067496 94:0.019410087 96:0.020032758 97:0.020175276 102:0.24646921 134:0.023156725 140:0.02284801 142:0.0083844084 153:0.056086414 172:0.050711628 180:0.024916071 198:0.05630574 215:0.020598251 226:0.025070632 239:0.02741226 252:0.023334416 275:0.10871307 289:0.056261655 299:0.16059849 308:0.023889897 312:0.029306032 351:0.022945635 373:0.023081647 405:0.03074931 406:0.060632929 409:0.016512558 423:0.024497099 437:0.02908268 475:0.026199756 480:0.023781376 485:0.022375377 505:0.023257827 506:0.01808854 507:0.034576535 631:0.021699859 641:0.025584141 671:0.019745853 681:0.035380263 742:0.033183996 755:0.033746187 761:0.032878049 790:0.048849285 799:0.032618739 800:0.028513186 882:0.024280533 895:0.067245364 903:0.035999462 1017:0.076200329 1045:0.016796328 1083:0.034662493 1159:0.065756097 1324:0.038587354 1359:0.035893213 1418:0.041044664 1424:0.030066544 2577:0.046469361 3929:0.11243156 4871:0.054773983 5003:0.057938252 7708:0.061858002 9253:0.89485931 #
0.57147515026393258530390539817745 6:0.026612293 12:0.044849806 15:0.022794031 26:0.028796336 27:0.038744308 29:0.024162665 31:0.025357954 63:0.014380606 64:0.057703812 80:0.043318819 134:0.047649018 139:0.054427966 142:0.01552715 150:0.11604101 172:0.052174032 174:0.048768643 176:0.068971589 186:0.037753798 229:0.034841254 277:0.060250655 320:0.063150801 345:0.048823711 414:0.049157649 478:0.052174032 510:0.060147811 557:0.062614731 565:0.070765287 683:0.080460988 715:0.32836786 794:0.077713981 827:0.056828111 997:0.063272089 1159:0.067652352 1341:0.076418772 1426:0.078963853 1509:0.084072262 1665:0.071706466 1846:0.087400511 1980:0.082611099 3070:0.10412723 3945:0.12203209 6213:0.11567382 8233:0.13468537 9239:0.83696812 #
0.11831899118765035194833501464018 6:0.017661082 15:0.030254232 26:0.15288407 27:0.025712417 31:0.067314588 60:0.067024723 67:0.049950998 68:0.054210436 142:0.022898879 153:0.15317909 154:0.063834511 174:0.064730011 232:0.078380562 465:0.075089149 549:0.09429393 574:0.066119216 764:0.081670947 801:0.10679486 808:0.18433021 858:0.08859241 1174:0.62626016 1424:0.082115538 1557:0.12994632 2010:0.12941378 3366:0.42432648 4459:0.16894203 4474:0.16638921 5440:0.17876621 8419:0.37718076 #
0.23539377648734186032619675188471 6:0.019768605 15:0.033864513 29:0.035897858 31:0.037673667 37:0.093534671 67:0.055911724 75:0.020032216 111:0.061814141 141:0.090290017 142:0.0076894304 144:0.058764245 176:0.05123467 215:0.062969588 232:0.17546764 284:0.060025901 303:0.17662793 317:0.058912583 325:0.088757366 437:0.088906795 493:0.17648153 506:0.055297311 609:0.069995992 780:0.10028051 953:0.54003394 1009:0.088094957 1056:0.097060837 1430:0.14864737 1614:0.12490402 1822:0.14050831 2831:0.16250134 2937:0.18624467 4213:0.35825834 4259:0.17185365 4419:0.18365979 4705:0.15832065 5452:0.18624467 6732:0.21889728 7782:0.21889728 8046:0.22989379 #
-0.51237213209225185295281335129403 1:0.17530455 2:0.083783731 3:0.069751561 4:0.11836769 5:0.19204383 7:0.084961139 12:0.046118394 20:0.46309391 21:0.082771458 26:0.17766508 27:0.0199201 29:0.024846112 30:0.041121714 31:0.026075209 32:0.051284302 42:0.040930435 47:0.064760417 63:0.14787364 66:0.19261679 75:0.18024459 103:0.06512443 107:0.065440983 108:0.12665929 142:0.090475917 165:0.066423997 176:0.035461236 189:0.051194418 205:0.054132894 213:0.070629485 227:0.14588457 229:0.03582675 231:0.073341571 256:0.23278415 259:0.083224438 267:0.21973369 269:0.36526018 346:0.056997374 355:0.041174222 363:0.063909046 408:0.12085279 719:0.073635645 829:0.050751332 997:0.065061755 1363:0.077457435 2305:0.10957903 3592:0.11589501 4114:0.10957903 5923:0.12259021 7334:0.14191736 7425:0.29221207 7428:0.14610603 #
0.47337590324879436076699334989826 4:0.014101588 6:0.045641381 11:0.27834618 15:0.011169393 26:0.18343787 27:0.018985251 31:0.024851501 37:0.046275232 41:0.10508095 60:0.074233465 63:0.049326882 67:0.18441133 79:0.022108417 80:0.04245365 85:0.019978812 88:0.099575303 94:0.019570986 102:0.031064041 111:0.020387905 142:0.013526257 144:0.019381968 151:0.025746386 153:0.028275672 159:0.039225221 162:0.017656708 168:0.024212655 174:0.023897314 176:0.084492601 180:0.025122615 186:0.036999773 190:0.027951928 199:0.13715038 228:0.024656069 232:0.057873771 255:0.030343432 274:0.035232328 283:0.024438767 286:0.018267155 294:0.031154549 296:0.20578741 327:0.054834239 337:0.024923995 345:0.047848597 363:0.0304549 364:0.030206025 398:0.050714813 422:0.02972813 423:0.024700169 430:0.025373282 436:0.25916412 459:0.029779986 480:0.023978511 485:0.022560859 493:0.029104089 506:0.018238485 538:0.028566051 543:0.03608489 557:0.030682089 594:0.0312154 597:0.029152442 607:0.063959718 609:0.02308649 633:0.033901397 656:0.032181639 662:0.067968443 712:0.11974952 717:0.066075206 726:0.030043872 730:0.03133836 747:0.035928413 776:0.040654287 789:0.033498395 796:0.028657328 800:0.028749546 1009:0.20339198 1179:0.040654287 1239:0.043646548 1242:0.041384906 1265:0.083747663 1267:0.04376993 1509:0.082393162 1561:0.086809546 1627:0.043524843 1720:0.042391032 1815:0.1271731 1863:0.039275389 1912:0.049486574 2090:0.052543562 2227:0.086338721 2643:0.047396861 2651:0.057224076 2659:0.050748538 2866:0.044684824 2951:0.053231988 2989:0.050222203 3118:0.04817519 3472:0.10380871 3887:0.68018138 5239:0.057224076 5376:0.060575753 8232:0.065997712 #
-0.60873246318129348164660541442572 111:0.18095595 142:0.0075033973 277:0.26204175 290:0.30089703 401:0.44134292 1929:0.40035856 4060:0.67299569 #
-0.69260262834505892381997682605288 6:0.0087412503 12:0.029463328 52:0.035633042 67:0.024722956 69:0.13302563 85:0.026784433 98:0.14175428 118:0.02861945 132:0.026507942 142:0.0011333667 179:0.095300518 189:0.032706212 216:0.038025994 218:0.0495837 219:0.036544282 233:0.051686596 244:0.064316176 286:0.024489714 291:0.03517865 318:0.31653261 337:0.033414152 341:0.073036022 355:0.052609362 365:0.046308633 380:0.053706855 382:0.076777011 398:0.10198561 422:0.039854776 443:0.068035617 493:0.039018162 502:0.030168513 542:0.12425949 641:0.069166988 650:0.074041016 651:0.22619605 673:0.044191658 676:0.043704104 712:0.040135309 722:0.056137811 729:0.047043078 796:0.038419217 812:0.048954967 830:0.075989977 846:0.12658989 858:0.043848298 859:0.34202319 876:0.042180657 882:0.06564267 912:0.041565541 936:0.051141404 953:0.09551654 966:0.04365642 1011:0.05245436 1179:0.054502837 1211:0.075989977 1236:0.048167136 1242:0.055482339 1327:0.056831196 1365:0.052857496 1379:0.046131838 1464:0.16761392 1473:0.061909694 1498:0.071854576 1504:0.061067794 1517:0.081210397 1518:0.05600382 1543:0.061272793 1574:0.066992164 1584:0.0586798 1599:0.052960433 1679:0.063052677 1682:0.061272793 1704:0.066343777 1729:0.079207048 1759:0.066343777 1815:0.056831196 1836:0.046609204 1838:0.066992164 1914:0.081210397 1956:0.065143555 1985:0.061481357 2023:0.064052604 2024:0.042565469 2076:0.054502837 2109:0.072898038 2174:0.088479295 2187:0.12213559 2238:0.067329988 2296:0.063794695 2358:0.074656136 2379:0.065728657 2385:0.068785377 2398:0.063542217 2404:0.068404637 2525:0.072898038 2577:0.062815197 2721:0.077490956 2728:0.080166936 2729:0.080166936 2968:0.066663586 3003:0.085029356 3063:0.077490956 3102:0.083616875 3365:0.071365036 3496:0.074041016 3552:0.076716997 3632:0.17326137 3722:0.074041016 4182:0.090665735 4438:0.081210397 4470:0.088479295 4526:0.18668343 4774:0.10165408 5543:0.093341716 6848:0.21993285 7350:0.29037496 8148:0.10165408 8980:0.096791655 #
-0.28167104796032094160551650929847 1:0.28351191 3:0.26321393 4:0.063810192 5:0.12423342 11:0.033145435 15:0.02527095 20:0.41607794 21:0.044620812 29:0.026788309 31:0.028113483 40:0.046086863 44:0.19162501 47:0.034911342 63:0.1594328 66:0.27689794 67:0.041723397 75:0.17938536 95:0.36483014 97:0.092050634 142:0.11858817 170:0.21983579 176:0.076466411 180:0.056840364 189:0.16558871 192:0.05956782 204:0.044279706 205:0.05836441 229:0.038627293 238:0.072734728 269:0.078762449 276:0.057299949 304:0.055851262 328:0.14966604 345:0.054129153 346:0.061452806 387:0.10413451 434:0.063825585 441:0.052012108 510:0.066683792 667:0.071044147 723:0.075701758 757:0.070080228 766:0.098204076 1409:0.096897915 1590:0.11362863 1665:0.07949847 2163:0.093208 2449:0.092585228 2548:0.10272016 4088:0.12599251 4740:0.242529 #
0.18900124901853257441963762630621 6:0.017761951 29:0.032253969 75:0.053996414 142:0.011514831 179:0.048411932 180:0.1368752 204:0.10662834 205:0.070272595 229:0.09301696 303:0.23804842 317:0.052932538 387:0.062690623 405:0.084459901 437:0.31952849 507:0.047486115 560:0.10579313 582:0.074906699 717:0.089999154 1037:0.099325031 1324:0.10598885 1424:0.08258453 1776:0.10285812 2833:0.26835108 4871:0.15044907 5954:0.67962772 8903:0.39335534 #
0.43007528313349285831179713568417 111:0.21599457 186:0.19599244 229:0.18087247 426:0.31092542 586:0.25389045 800:0.30457991 3046:0.52939695 3266:0.58996052 #
-0.71935068055965345479307870846242 6:0.051623214 10:0.025612745 11:0.095520176 18:0.081275776 34:0.024200659 37:0.014367882 40:0.056920901 46:0.07628151 47:0.01437275 48:0.018577188 50:0.057647787 51:0.020624042 53:0.070159189 56:0.028034784 57:0.045341991 58:0.0407403 74:0.049788043 78:0.16330391 83:0.023604533 85:0.018609514 86:0.02358998 91:0.048528526 92:0.020046441 94:0.072918564 96:0.037628889 98:0.019697847 100:0.018764799 106:0.021255802 109:0.033417948 111:0.018990569 112:0.033810113 114:0.021322817 118:0.019884463 128:0.032641247 132:0.018417412 136:0.038460318 138:0.025463955 139:0.074527606 142:0.0070870509 158:0.021795765 160:0.082571261 161:0.029634593 166:0.022657823 176:0.015740339 177:0.063387752 185:0.035366409 186:0.017231951 190:0.026036175 194:0.048118606 199:0.014194492 203:0.09208408 204:0.036459282 215:0.038691092 218:0.01722509 219:0.025390545 227:0.021584816 240:0.027337033 242:0.02127808 246:0.031388078 249:0.034654588 252:0.021915307 258:0.08638905 275:0.040840626 280:0.031811506 286:0.051045511 288:0.063079149 290:0.094733641 292:0.02994437 295:0.025783375 303:0.027131857 306:0.023828909 331:0.023738505 341:0.076116882 353:0.068129875 355:0.073104754 357:0.028110415 359:0.067620225 367:0.051837087 376:0.038727678 384:0.032907188 389:0.0258797 390:0.05547788 394:0.028289607 396:0.030843304 404:0.025500905 414:0.022437006 423:0.023007281 424:0.031276237 432:0.028525805 454:0.030298978 459:0.02773894 478:0.071441323 484:0.033562854 500:0.031425692 506:0.050965395 507:0.032473724 510:0.054906484 526:0.072889365 540:0.034327798 556:0.037547439 574:0.04547435 591:0.031930819 597:0.027154407 599:0.028472735 609:0.021504201 613:0.028085129 614:0.036724776 615:0.080639116 616:0.041882638 656:0.05995198 661:0.040541761 681:0.033228572 706:0.030913915 716:0.029075975 719:0.032684986 758:0.063623011 761:0.030878536 763:0.035170134 768:0.037950031 780:0.030808223 800:0.026779125 803:0.037950031 839:0.096693918 858:0.030465292 863:0.064185224 867:0.026693227 885:0.04257163 906:0.035532456 909:0.026736066 928:0.048942357 930:0.026587086 944:0.033228572 973:0.082990065 984:0.034822918 1000:0.036868438 1015:0.037950031 1020:0.077637479 1021:0.032511394 1027:0.031732902 1028:0.073882416 1042:0.034599226 1044:0.044323817 1059:0.027836392 1095:0.04286401 1104:0.49360722 1106:0.038910806 1116:0.035409924 1145:0.079784364 1162:0.035229441 1164:0.096648157 1167:0.038818739 1169:0.10266497 1184:0.11999096 1225:0.02708694 1236:0.03346597 1239:0.040655121 1249:0.045878459 1268:0.041124657 1269:0.062041935 1283:0.037626419 1318:0.040210642 1360:0.044873383 1366:0.032907188 1377:0.028962996 1393:0.034766428 1439:0.035783064 1468:0.04257163 1474:0.046780102 1482:0.03597609 1500:0.034654588 1502:0.04348148 1510:0.046545379 1578:0.084858395 1591:0.036041442 1593:0.046094891 1652:0.036376107 1682:0.04257163 1728:0.049256813 1739:0.048942357 1748:0.048346959 1771:0.043322772 1792:0.035846911 1918:0.043976601 1956:0.045260988 1985:0.042716537 2050:0.078196108 2093:0.051442843 2200:0.04380827 2207:0.043976601 2253:0.045064934 2285:0.04100477 2307:0.085143261 2308:0.045260988 2335:0.089746766 2479:0.10288569 2520:0.056424044 2605:0.0441484 2710:0.17723224 2803:0.31392425 2845:0.049923733 2932:0.051870219 3083:0.057218172 3536:0.057218172 3543:0.056424044 3728:0.052320711 3875:0.067249723 3934:0.05809604 4060:0.28251231 4193:0.059077416 4212:0.049923733 4386:0.064852744 4393:0.056424044 4418:0.055699062 4499:0.067249723 4821:0.059077416 4867:0.051870219 6078:0.12970549 6328:0.060190003 6553:0.070628077 7748:0.064852744 #
-0.9109433583413355517421905460651 94:0.055154968 99:0.52241868 137:0.075214535 140:0.064924046 142:0.016677372 176:0.095246851 199:0.042946365 218:0.052115638 381:0.088317789 409:0.046921462 436:0.081152953 442:0.07818374 457:0.063353188 558:0.2039856 742:0.094294399 935:0.71497035 1986:0.28453401 2680:0.17577337 #
-0.95266203123568271582399802355212 6:0.011131585 18:0.039724708 27:0.17286669 33:0.020532856 51:0.050401486 52:0.090754122 59:0.023040406 77:0.027979547 82:0.13915819 120:0.061827924 123:0.26351437 142:0.073126741 162:0.020096237 168:0.11023192 179:0.24272177 189:0.027766582 216:0.1936975 218:0.021047529 286:0.062373076 298:0.22070417 363:0.41595218 386:0.029551717 442:0.031575449 456:0.040209658 457:0.025585948 465:0.34707099 489:0.084554352 655:0.028096093 723:0.11424579 804:0.034954049 856:0.027847966 881:0.042277176 967:0.14263664 1057:0.25275069 1086:0.28069785 1324:0.088565633 1352:0.10789084 1376:0.053130504 1471:0.42974779 1659:0.05219581 #
0.32052818623638756889704382047057 6:0.054006886 10:0.082822137 27:0.014295918 28:0.036255777 29:0.089155667 31:0.037426423 37:0.069690615 38:0.040000826 42:0.088122778 53:0.075622946 63:0.031837031 75:0.029851124 80:0.095902957 81:0.029893182 83:0.012721387 96:0.030419474 132:0.059555095 142:0.0050926441 172:0.038502462 185:0.085771404 190:0.042095676 199:0.022949867 229:0.025711531 242:0.10320815 243:0.092588432 299:0.081288882 314:0.039179306 327:0.082580499 337:0.0375356 369:0.087807298 387:0.034657586 411:0.036783308 414:0.18138243 422:0.17908254 432:0.046120949 462:0.060331292 473:0.08645454 478:0.077004924 493:0.087661661 495:0.054108277 509:0.045572743 574:0.036761805 586:0.072182484 609:0.069536626 641:0.038849171 644:0.046782523 658:0.045408454 667:0.047289196 719:0.2113823 727:0.10512982 730:0.047195647 731:0.056579981 733:0.22166248 796:0.12947403 799:0.049531113 856:0.03684802 882:0.036869664 890:0.20624647 908:0.052222107 965:0.19616477 966:0.049041193 1018:0.053277846 1031:0.12066258 1055:0.10714786 1068:0.057854589 1098:0.11015339 1149:0.047102742 1156:0.13766089 1169:0.055330086 1184:0.064667724 1227:0.053648982 1296:0.049982078 1308:0.11469997 1377:0.046827804 1395:0.052426741 1412:0.061627615 1437:0.067089789 1558:0.059148833 1583:0.14572331 1614:0.062042151 1654:0.06930317 1781:0.062325768 1862:0.069064736 1949:0.061094027 1951:0.061225455 2056:0.064002335 2102:0.13720031 2108:0.073835917 2154:0.067089789 2248:0.12899655 2537:0.22150774 2741:0.076841965 2771:0.070829861 2868:0.078168087 2924:0.15205052 2985:0.087978452 3353:0.10873035 3388:0.085362904 3999:0.085362904 4803:0.082516283 4822:0.17795357 5376:0.18245447 5677:0.091227233 5678:0.18245447 6109:0.27753359 6640:0.09551724 8876:0.10485488 9644:0.11419252 #
0.6257458447906470988542082523054 6:0.0057568159 15:0.039446741 29:0.020907633 42:0.10332706 80:0.0374832 96:0.035667907 138:0.048273865 159:0.034632754 174:0.042198859 179:0.094144583 245:0.066562943 346:0.047962442 351:0.040854219 471:0.060010735 535:0.054591328 586:0.042318251 998:0.063720182 1080:0.058207519 1916:0.070311695 2007:0.31094286 2823:0.083050512 4355:0.10847264 4784:0.093999222 5114:0.10696715 6483:0.092783578 6831:0.4405475 7217:0.12749018 7388:0.11410655 8315:0.53557903 8316:0.53557903 #
-0.03273352674740830081656639549692 1:0.38604879 2:0.18450524 3:0.23040622 4:0.19549851 5:0.1268734 7:0.14032356 15:0.077423885 21:0.13670704 26:0.097811766 32:0.16940442 44:0.19569708 47:0.10695964 75:0.091598675 142:0.10548133 154:0.16335951 179:0.12318786 187:0.21071945 631:0.15166578 886:0.19464484 986:0.20207861 997:0.21491466 1990:0.30087277 8762:0.48262343 #
0.40582501241328916563588791177608 6:0.013508985 28:0.049878515 29:0.024530999 31:0.051489018 54:0.050574675 60:0.0512673 83:0.017501317 94:0.040548488 97:0.042147007 111:0.042241037 226:0.05237361 333:0.068141922 405:0.064236611 448:0.061169114 478:0.05296937 861:0.090177707 882:0.050723061 1010:0.075204395 1027:0.14116803 1038:0.17936692 1080:0.068295084 1337:0.08696644 1535:0.10023867 2024:0.065781929 2186:0.10630294 2240:0.27523443 2398:0.098200016 2913:0.19879223 3734:0.10956274 9162:0.8497268 #
-0.35658698646515341046381308842683 6:0.0092380093 11:0.20756271 27:0.080696605 37:0.087418832 38:0.075264625 75:0.14977916 76:0.076855987 100:0.057085551 128:0.099299952 142:0.038328804 146:0.3318156 173:0.069049172 184:0.10885786 219:0.15448427 257:0.11194028 265:0.26181215 303:0.66031593 317:0.11012107 352:0.3925679 385:0.09665589 483:0.089694843 500:0.095602036 530:0.075941987 611:0.11952531 862:0.088890098 987:0.075419344 #
-0.55399579135921350747651104029501 1:0.17159228 5:0.2255725 11:0.18054798 15:0.13765454 63:0.17369071 142:0.041675288 187:0.3746452 1754:0.56912392 2531:0.60988557 #
0.59573659148020530196276922652032 6:0.027138161 26:0.088096082 33:0.075086877 37:0.16050445 41:0.031240331 67:0.038377553 72:0.042221792 78:0.052122213 81:0.041308187 97:0.042334501 110:0.065477222 111:0.084857896 135:0.061813023 142:0.0017593302 144:0.040335514 162:0.036745101 176:0.10550174 178:0.054754265 215:0.043222044 262:0.063496292 303:0.060618307 342:0.063379213 423:0.051403135 437:0.061025221 499:0.050534353 504:0.072070323 616:0.093574673 661:0.090578869 671:0.041433424 712:0.18690665 721:0.089839078 780:0.068832085 789:0.069712989 908:0.072163634 912:0.064522371 974:0.087142974 984:0.077801764 986:0.060668688 991:0.072070323 1019:0.097508311 1042:0.23190597 1044:0.099028789 1068:0.079946935 1104:0.60153979 1117:0.080969222 1128:0.30609265 1129:0.07911326 1241:0.16920999 1249:0.10250219 1769:0.20798445 1820:0.086525828 1893:0.11689553 1910:0.083030917 2154:0.092708677 2238:0.10451664 2471:0.10505626 3451:0.12444349 3561:0.11154018 3728:0.11689553 4277:0.1344772 7052:0.14489475 7369:0.12979884 #
1.0065897684281319701682377854013 6:0.024861185 18:0.066540614 94:0.07462319 132:0.075391836 148:0.32780686 157:0.37791213 185:0.072386347 204:0.07462319 275:0.083590731 291:0.10005239 353:0.13944511 382:0.10918161 430:0.096747048 534:0.094747081 591:0.13070908 616:0.17144693 720:0.24752113 780:0.25222746 1044:0.18143994 1104:0.36737916 1249:0.18780386 1382:0.16287528 2366:0.37737966 2426:0.18959941 2459:0.17932953 4611:0.21058172 #
-0.67755410737832577616757134819636 11:0.21053696 59:0.29092553 142:0.048597544 303:0.41861117 343:0.49641606 409:0.23927441 506:0.2621111 614:0.56661814 #
-0.050875193640595568755902178281758 6:0.030060865 17:0.081902519 18:0.080457486 27:0.087530032 37:0.14223225 38:0.12245711 68:0.092271395 72:0.093537927 86:0.35028714 97:0.093787618 100:0.092879377 112:0.16734856 122:0.32355914 136:0.19036549 142:0.019488052 197:0.33519551 208:0.11260711 239:0.12742975 276:0.23352475 291:0.1209782 377:0.23136732 390:0.13729832 431:0.16759776 448:0.2722331 485:0.1040151 507:0.16073389 560:0.1790475 746:0.22118118 1364:0.21851957 2972:0.25673994 #
-0.32115131209263464429071177619335 6:0.030580414 13:0.10162173 17:0.36104494 37:0.024115082 42:0.030493172 47:0.024123253 58:0.1025679 63:0.011016585 72:0.063436374 78:0.039155658 79:0.034563605 83:0.026411928 91:0.040725186 96:0.063156404 98:0.033060905 118:0.13349649 135:0.046435665 142:0.0039649736 148:0.044801965 158:0.036582056 164:0.11906908 179:0.027783303 186:0.057844281 188:0.056331962 199:0.047648128 204:0.030596664 215:0.032469604 219:0.04261554 220:0.081773721 271:0.11250084 280:0.053392492 283:0.038206801 286:0.028558295 308:0.037658319 317:0.030377649 323:0.043600101 342:0.047612231 372:0.050311763 376:0.065000616 384:0.055231489 387:0.071955502 388:0.31800228 389:0.043436538 396:0.051767465 399:0.096115276 411:0.076368883 423:0.1158464 454:0.050853867 461:0.055770904 473:0.089747734 478:0.039969083 509:0.094617359 513:0.038139835 515:0.036823172 523:0.059741721 597:0.04557601 603:0.16370158 643:0.041467905 647:0.23019175 671:0.031125944 680:0.1405918 688:0.056579482 725:0.074098766 740:0.072979406 756:0.067672424 771:0.054071486 774:0.057174657 784:0.20019357 789:0.05237034 808:0.053195063 867:0.044801965 900:0.074393183 906:0.059637744 917:0.062002193 963:0.043242756 1006:0.071452305 1020:0.06515345 1028:0.062002193 1034:0.06426052 1292:0.061168827 1308:0.059534539 1372:0.071213253 1423:0.074393183 1486:0.069645345 1598:0.053326372 1620:0.06163894 1697:0.069645345 1776:0.059029628 1818:0.08267273 1858:0.065622248 1873:0.067489624 1884:0.15329689 1972:0.074098766 2024:0.049637053 2042:0.065464228 2045:0.17131892 2219:0.14650191 2321:0.087059081 2339:0.079768993 2399:0.074098766 2470:0.075966135 2577:0.21975288 2666:0.068822488 2826:0.087059081 3094:0.08379209 3779:0.088614516 3810:0.091329694 4085:0.10102302 4894:0.10572843 6124:0.11854231 7392:0.10317875 9433:0.25647125 #
0.060517675001463433481774245592533 6:0.027577022 15:0.018896274 26:0.071616575 27:0.032119069 28:0.040728476 29:0.10015437 60:0.041862492 63:0.011921536 64:0.095673032 68:0.033858906 75:0.011177904 80:0.071822688 81:0.033580955 86:0.042845856 94:0.033110011 96:0.034172174 97:0.034415286 111:0.034492064 132:0.033451058 142:0.012872022 176:0.028588759 178:0.044511773 198:0.048023582 204:0.19866006 220:0.088490978 226:0.042765856 265:0.052103575 284:0.033494234 317:0.032873005 355:0.033194553 373:0.039373014 377:0.042450018 448:0.099895708 455:0.040270552 475:0.044691931 483:0.053550858 506:0.092567094 513:0.041272812 546:0.047651738 586:0.040543638 631:0.037015941 641:0.13092542 713:0.055151336 757:0.052402265 800:0.097276427 834:0.055579375 856:0.041393779 867:0.048482198 876:0.053228863 1038:0.073231339 1064:0.051102269 1184:0.072645463 1229:0.06225197 1283:0.068339862 1306:0.078974262 1313:0.14416285 1379:0.058214959 1432:0.065580741 2185:0.068927638 2578:0.08332783 3090:0.10116473 6404:0.11441343 6842:0.12214389 7658:0.34324029 7934:0.76967937 #
1.0065897684281319701682377854013 6:0.034624059 12:0.23340829 27:0.10081696 28:0.25568119 142:0.0089785233 205:0.27397022 252:0.24987882 423:0.26232952 784:0.33999774 4430:0.73945242 #
0.57699732343989540428452755804756 6:0.03309473 29:0.040064536 31:0.042046465 60:0.083730817 80:0.071827695 142:0.011442594 199:0.1031315 265:0.10421441 325:0.09905947 351:0.07828746 436:0.097440444 496:0.092505455 499:0.32867289 560:0.26282361 1135:0.29967907 1448:0.13847026 1783:0.15975818 2134:0.15028797 2404:0.17265518 2448:0.16301602 6710:0.73291439 #
0.27090541498477838100455983294523 6:0.030662507 15:0.052526258 26:0.13271578 29:0.055680122 63:0.033138476 75:0.062142774 88:0.1170681 142:0.019878086 150:0.13370168 176:0.15893722 180:0.11814401 218:0.086964704 238:0.30236164 275:0.1030965 312:0.1389598 314:0.24468535 355:0.18454282 404:0.128747 406:0.14375095 457:0.10571666 505:0.11028115 513:0.11472666 655:0.11608814 867:0.1347667 895:0.31885594 997:0.14580336 1230:0.21421325 1731:0.19036791 2557:0.51944131 5991:0.31036717 #
1.0065897684281319701682377854013 6:0.025384141 31:0.032250252 48:0.051763672 58:0.0567596 63:0.018289259 75:0.017148424 83:0.021923972 118:0.2216251 142:0.0065824776 171:0.073160663 174:0.12404794 254:0.081660315 256:0.057582263 355:0.050924961 414:0.062518708 582:0.071367621 586:0.062199458 842:0.49014744 884:0.17471144 1725:0.12206782 1943:0.10154985 2254:0.54549402 4226:0.50314218 4604:0.14112811 4692:0.17129289 #
0.51889181769091319296194342314266 6:0.026760995 15:0.091685586 29:0.06479381 37:0.042206336 63:0.038562562 75:0.036157135 80:0.11616233 83:0.023113145 96:0.055268321 142:0.0069395159 154:0.1289672 158:0.064026095 179:0.14587942 243:0.084110714 256:0.060705565 325:0.16020255 327:0.075019144 331:0.069732986 345:0.06546203 351:0.063304648 414:0.065909773 478:0.06995409 480:0.13122074 496:0.074801579 507:0.047696553 782:0.10163686 837:0.096799083 987:0.072825812 1007:0.10296921 1124:0.09917181 1175:0.094514713 1308:0.20839527 1312:0.115991 1471:0.10331395 2206:0.11513211 2223:0.11323801 3219:0.13672926 4512:0.29330665 6782:0.76203203 #
0.47406271771158231542742100828036 63:0.055462394 75:0.052002799 80:0.16706984 142:0.0066538136 583:0.40382788 784:0.25196588 8379:0.56824821 9778:0.64559525 #
-0.93507680863538022997261123236967 6:0.011337794 17:0.12356184 29:0.041176658 78:0.08710257 79:0.23066236 96:0.070246361 139:0.092753083 146:0.30542755 216:0.098642848 271:0.12513022 274:0.24505816 278:0.19576067 387:0.08003325 403:0.13131262 411:0.08494208 473:0.099822842 479:0.14359698 489:0.25836208 508:0.087966762 626:0.10700604 639:0.1304424 712:0.1041146 767:0.10845323 828:0.17210172 900:0.16548918 914:0.14527895 951:0.14779779 1048:0.15399882 1052:0.17378369 1255:0.17843544 1347:0.17129365 1627:0.15136833 1738:0.15309705 2497:0.22952326 2751:0.19366473 2866:0.15540247 3622:0.21363206 3702:0.21363206 5516:0.19366473 #
0.29881644698595694054077398504887 6:0.0092931241 11:0.08352042 15:0.03183908 28:0.068625025 60:0.14107156 63:0.020087071 75:0.018834094 97:0.057987679 142:0.0048196847 159:0.055907026 179:0.050658632 199:0.043439563 204:0.055788372 304:0.14073494 312:0.08423125 328:0.094282746 365:0.098464601 496:0.15585525 505:0.13369505 685:0.19642676 867:0.081689581 1033:0.1113222 1725:0.13406694 1754:0.13163666 1808:0.37375897 1892:0.1233904 1986:0.14390081 2215:0.31486222 2382:0.64630049 7705:0.18079527 9373:0.21614389 #
-0.66533341048619432100963422271889 2:0.090870239 6:0.011129845 31:0.042421009 41:0.10249775 142:0.020202916 156:0.46347535 166:0.083044559 205:0.088067256 283:0.083432965 351:0.078984834 406:0.10435715 452:0.15710348 592:0.10963546 598:0.23524915 720:0.11081016 930:0.097445935 1016:0.204146 1482:0.13185816 2634:0.20971379 5276:0.71308714 #
0.43207368530977463549902495287824 6:0.020287529 11:0.18233082 18:0.036199525 26:0.087810017 27:0.019690806 32:0.15208197 63:0.05846861 72:0.04208469 75:0.013705375 83:0.017522091 88:0.25818965 129:0.20920043 134:0.14529839 142:0.017536173 162:0.036625784 176:0.070106104 180:0.052112509 215:0.043081693 229:0.03541436 280:0.070842847 312:0.061294209 317:0.040306024 346:0.056341298 377:0.052048527 405:0.064312853 434:0.058516715 437:0.060827062 455:0.049376253 469:0.078191236 506:0.037832577 580:0.061189376 599:0.063407548 647:0.12217027 673:0.068376154 730:0.065005995 784:0.13281158 799:0.068222806 856:0.050753459 952:0.12599945 964:0.081008017 966:0.067547999 997:0.12862571 1059:0.37194264 1111:0.083969966 1140:0.34343353 1149:0.064878032 1190:0.073182851 1424:0.062884837 1603:0.19586797 1731:0.083969966 1931:0.088155076 2401:0.45791417 2642:0.093869425 2949:0.10079426 2975:0.096131101 8188:0.28056762 #
-1.0065897684281319701682377854013 28:0.069643281 31:0.035945982 100:0.058278218 132:0.057199329 144:0.16820808 185:0.10983817 218:0.10699262 274:0.10192227 299:0.078073412 360:0.34838444 389:0.080375105 398:0.073355481 683:0.11405689 781:0.10220052 998:0.10438861 1025:0.22991408 1430:0.1418305 1560:0.43154377 1838:0.14455692 2531:0.28631565 2664:0.19092226 3190:0.57276678 4650:0.15730073 #
-0.1504372758345825511483440095617 1:0.20854835 3:0.24893662 5:0.27415439 31:0.18611982 63:0.21109873 142:0.050650958 187:0.45533308 199:0.22825719 436:0.43132278 998:0.54049963 #
-1.0065897684281319701682377854013 6:0.030289004 15:0.034590956 31:0.038481824 42:0.060405184 63:0.021823209 75:0.020461937 142:0.0026181266 180:0.077803262 186:0.057293065 199:0.09438815 245:0.11673845 283:0.075685434 289:0.087841704 347:0.082940288 355:0.12152992 383:0.12094386 430:0.078579567 502:0.069690585 508:0.07833463 599:0.094666608 610:0.5199753 781:0.10941035 884:0.10423508 1027:0.10550606 1061:0.13095471 1182:0.15115203 1190:0.10926101 1407:0.12306679 2017:0.15183607 2380:0.15633826 2589:0.16376984 2708:0.47149578 2936:0.19642153 2979:0.31267652 3103:0.14565444 3751:0.16272433 4556:0.1790075 #
0.27038197586882095624360999863711 6:0.03231775 28:0.1789877 29:0.029342944 31:0.03079449 83:0.020934334 98:0.10481749 112:0.089956313 142:0.0041902317 158:0.11598107 226:0.062647097 408:0.047575206 411:0.06053067 489:0.09205585 513:0.060459957 576:0.079090841 628:0.087794922 643:0.065735668 709:0.070459627 795:0.095719181 1305:0.073483251 2074:0.13800763 2265:0.14047334 2547:0.38364595 2992:0.12384018 3366:0.12941144 5041:0.14819477 6412:0.1879154 7667:0.17892686 7907:0.7516616 #
0.14676156912700741297150841546681 6:0.014289473 26:0.061848778 28:0.052760273 29:0.02594829 31:0.027231911 63:0.015443335 96:0.088534288 102:0.068079039 134:0.05117029 142:0.0037054685 144:0.084953912 199:0.033397194 216:0.062161751 255:0.066499777 275:0.048045475 345:0.052431792 355:0.04300072 382:0.062754355 408:0.042071283 426:0.064319327 457:0.049266532 465:0.12150835 513:0.053465411 561:0.063313782 574:0.053496651 755:0.074570216 799:0.072078854 952:0.066560566 1017:0.084191374 1159:0.072651871 1359:0.07931459 2163:0.090285219 2306:0.20100929 3719:0.23833537 3905:0.70808351 3929:0.24844426 4176:0.23833537 7592:0.15258732 7907:0.33235136 8259:0.15258732 #
0.84831697062486555172000635138829 6:0.018522143 15:0.021152847 29:0.02242294 31:0.04706433 37:0.029212359 80:0.040199839 142:0.0048030615 171:0.053383425 174:0.04525727 245:0.071387172 265:0.058325727 337:0.047201622 347:0.15215738 404:0.10369539 555:0.21345071 561:0.054711927 842:0.35764775 847:0.065841265 986:0.055209547 1057:0.084111735 1388:0.079882473 1707:0.070572011 2034:0.083129406 2099:0.17952248 2217:0.10946555 2561:0.09202332 2709:0.092431545 2771:0.089069694 3691:0.094634712 3699:0.093718782 3921:0.095602997 3963:0.36712968 4703:0.11324571 5029:0.11324571 7000:0.12807655 7386:0.24475312 8644:0.12807655 9055:0.62136471 #
-1.0065897684281319701682377854013 6:0.019399973 28:0.071629502 29:0.035228461 41:0.044664897 63:0.062899508 75:0.058976009 80:0.063157573 122:0.20881097 142:0.012576739 265:0.091634981 317:0.057814021 472:0.17675051 719:0.10440549 995:0.15181446 1245:0.094856612 1534:0.16432361 1910:0.11871088 1955:0.291751 2369:0.50579035 4234:0.61773777 7374:0.18871067 7861:0.2256069 #
0.51260184473835868068647414474981 6:0.017671285 15:0.060543418 28:0.13049351 29:0.03208933 67:0.099959709 142:0.0022912107 185:0.051452082 278:0.076279007 325:0.079340793 423:0.066943333 499:0.065811895 502:0.060988579 506:0.049430631 1227:0.096547976 2340:0.12264628 3136:0.14427134 4811:0.15092462 6079:0.16012473 9682:0.41100714 9871:0.82201427 #
-0.31874103777704149154104129593179 6:0.005277494 18:0.14125139 27:0.16903476 48:0.19371483 51:0.071686171 53:0.081287712 56:0.09744484 59:0.032770433 68:0.032398384 72:0.065686181 75:0.053478692 82:0.11875504 83:0.095720246 114:0.037057504 120:0.043969009 123:0.10708491 125:0.05657728 142:0.057478305 168:0.039195787 186:0.059895758 234:0.037858844 236:0.65510082 294:0.050433427 298:0.10463604 317:0.094365023 336:0.096500836 409:0.10780939 434:0.045666713 456:0.057190303 457:0.07278192 465:0.044876363 502:0.036428235 506:0.20667303 518:0.046024278 535:0.050045967 607:0.051769454 609:0.14949095 659:0.077342995 671:0.064459682 723:0.05416403 778:0.050433427 851:0.059940405 944:0.057748847 1051:0.25517479 1306:0.075567655 1380:0.054355826 1581:0.075291827 1606:0.083532594 1988:0.083057784 2513:0.19360185 3456:0.10267226 3726:0.21895626 4285:0.21895626 4423:0.11687513 #
0.34747204248320390229665122205915 6:0.025884934 15:0.04434206 29:0.094009034 31:0.049329754 42:0.077433258 96:0.080188543 159:0.077861317 204:0.077696063 206:0.12344242 346:0.2156582 365:0.13713095 404:0.10868673 414:0.19125634 507:0.069202699 561:0.11469093 587:0.4917621 903:0.14410119 963:0.10980909 1418:0.16429649 2117:0.48096684 2887:0.44214937 2941:0.18601084 5679:0.2271774 #
-0.18568315871881277412391852976725 6:0.035680711 18:0.02387473 21:0.026981011 27:0.012986709 34:0.071089357 37:0.042205606 41:0.02053708 50:0.084670089 53:0.10304619 56:0.04117604 59:0.02769478 63:0.0096404739 78:0.10279386 81:0.027155587 83:0.034669116 85:0.054665383 91:0.035638094 96:0.082901053 98:0.05786236 118:0.02920527 135:0.081270523 142:0.0046262639 145:0.037427247 148:0.039205633 160:0.16170187 162:0.048311722 179:0.024312815 183:0.039237052 190:0.038240585 199:0.041696273 203:0.033812083 214:0.076423243 215:0.028413737 218:0.025299322 220:0.035779573 224:0.04241636 227:0.06340532 229:0.046713777 242:0.062504284 246:0.092202365 276:0.034647744 280:0.046723094 284:0.027085459 288:0.046323694 295:0.037869286 341:0.037265513 342:0.041664861 359:0.14897564 363:0.041664861 367:0.038067818 377:0.034327649 382:0.11752288 384:0.048332375 402:0.067990385 409:0.022777831 430:0.069425561 448:0.040390849 455:0.032565199 466:0.082425915 473:0.03926855 475:0.036140591 507:0.023847865 538:0.039080758 571:0.035200577 572:0.048332375 574:0.03339519 615:0.23687713 633:0.046379957 641:0.035291396 662:0.04649327 680:0.061515052 702:0.053130057 713:0.044598699 716:0.04270529 726:0.04110254 758:0.093446188 771:0.04731727 796:0.039205633 819:0.089590579 839:0.071009517 841:0.068708196 847:0.047563262 869:0.059712142 873:0.051569592 876:0.043044068 912:0.04241636 928:0.071884006 938:0.19856712 962:0.12080354 991:0.047378309 1001:0.052279219 1007:0.15445113 1027:0.046607643 1034:0.056233566 1059:0.040884655 1094:0.045936916 1160:0.11297705 1162:0.05174318 1169:0.100526 1188:0.10983798 1194:0.13672689 1232:0.050497595 1236:0.049153086 1260:0.05954564 1312:0.057994496 1448:0.11196762 1468:0.062527008 1507:0.061132595 1535:0.066189043 1607:0.1731196 1624:0.056488525 1645:0.050980724 1652:0.053427342 1682:0.062527008 1736:0.063863352 1744:0.061322331 1791:0.062527008 1995:0.057706535 2010:0.06536372 2024:0.043436754 2094:0.079077147 2181:0.55945021 2207:0.064590558 2240:0.060580425 2268:0.071884006 2275:0.070193365 2363:0.076184295 2415:0.065100536 2459:0.064343318 2604:0.066477001 2640:0.061710861 2710:0.086769849 2803:0.076845951 2915:0.071438953 3808:0.086769849 4001:0.077545442 4768:0.088403963 5030:0.0925216 5325:0.088403963 #
0.16775450666780858388626995747472 27:0.10518458 31:0.13768555 64:0.31331319 142:0.018734988 322:0.31306994 337:0.2761744 389:0.30786449 506:0.2020945 5190:0.74936968 #
-1.0065897684281319701682377854013 6:0.0097970106 12:0.066043772 15:0.016782722 26:0.042404164 27:0.014263273 29:0.035580833 39:0.049198568 41:0.022555828 63:0.01058811 75:0.019855307 80:0.031894654 86:0.038053539 102:0.046675697 108:0.045345556 110:0.094550408 142:0.007621523 199:0.045794923 205:0.038760461 259:0.17877212 262:0.045844954 284:0.029747898 316:0.06673447 322:0.04245301 350:0.071499772 351:0.034763075 437:0.044060815 587:0.12408244 647:0.13274327 717:0.049641095 784:0.048101831 965:0.048929207 1069:0.077989593 1149:0.046995182 1274:0.068217613 1754:0.069387101 4909:0.091018923 5898:0.099165753 8768:0.79752237 9857:0.45572707 #
-0.27862879957562641797252922515327 1:0.49596992 3:0.037001334 4:0.031395443 24:0.058420457 29:0.026360391 30:0.17451173 32:0.054409895 51:0.049295463 75:0.39716968 83:0.018806472 92:0.047914885 142:0.11669384 213:0.074934095 227:0.051591903 256:0.049394298 299:0.060086101 303:0.12970081 375:0.051454078 386:0.057806451 387:0.051235531 408:0.085478887 437:0.065285727 440:0.1638457 472:0.06612853 579:0.17045344 640:0.067741737 710:0.083644174 930:0.063548297 997:0.069027036 998:0.080338545 1001:0.085077539 1064:0.067249976 1159:0.073805697 1164:0.077002622 1241:0.54307044 1377:0.069227189 1690:0.094858304 2263:0.12198672 2476:0.13313158 2723:0.094616905 6806:0.1607399 #
0.60321673659996255523196850845125 60:0.18883076 355:0.14973195 795:0.29474255 1431:0.58120841 4679:0.46226722 9007:0.55095911 #
0.69217123784024514598911537177628 6:0.010125631 15:0.13876531 57:0.07559561 96:0.062736079 138:0.084908634 144:0.060198996 179:0.11039358 367:0.08642444 388:0.21059059 444:0.13301903 478:0.079406157 557:0.095296353 671:0.12367517 1036:0.1144648 1485:0.12626928 1626:0.1455269 1679:0.14607708 1731:0.12572978 1734:0.14010067 1792:0.11953022 2468:0.15026738 2635:0.47101349 2771:0.14607708 3735:0.16424504 4041:0.19699149 4604:0.33777258 5357:0.17153428 7462:0.4484835 8971:0.22424175 #
-1.0065897684281319701682377854013 4:0.19116937 63:0.095529146 75:0.089570299 97:0.27577507 142:0.022921231 166:0.32976386 297:0.43174773 304:0.33465031 448:0.40023997 507:0.23631266 1046:0.4965395 #
-0.57320286758207950050802992336685 6:0.024131373 17:0.065747283 53:0.061948095 58:0.026979189 59:0.14984299 63:0.0086933197 67:0.022750327 72:0.12514602 79:0.054549113 83:0.010420986 85:0.02464732 91:0.032136735 118:0.052671842 135:0.036642943 137:0.032925311 142:0.0041717445 145:0.067500211 157:0.040757596 160:0.036453761 162:0.021782603 166:0.060018178 174:0.058962941 186:0.02282281 190:0.068967074 208:0.030131804 214:0.068914838 215:0.025622154 220:0.032264315 227:0.057175897 242:0.028181694 252:0.029025668 253:0.043947671 256:0.02737022 257:0.048734754 258:0.038139246 271:0.044387884 280:0.042132661 286:0.04507139 287:0.037331849 306:0.03156013 319:0.036485065 355:0.19364677 367:0.068655483 369:0.035964578 384:0.043583833 409:0.020539962 411:0.030131804 414:0.059433263 466:0.11149164 506:0.022500325 507:0.021504868 538:0.035241164 539:0.074731506 570:0.046659533 571:0.031742204 594:0.038509596 615:0.10680225 628:0.043703783 643:0.032722823 644:0.076645732 678:0.043524344 722:0.10331722 730:0.038661286 771:0.042668462 787:0.046196442 819:0.040394258 839:0.064032994 848:0.044452231 860:0.055297554 928:0.064821571 1003:0.04250497 1007:0.046425559 1035:0.049121998 1039:0.058704559 1149:0.038585179 1169:0.04532478 1280:0.0529739 1335:0.04323161 1446:0.041976865 1489:0.047142912 1645:0.045971986 1652:0.048178233 1682:0.056383874 1792:0.094954677 1859:0.063297033 1942:0.052166075 2135:0.1685857 2624:0.051055439 2672:0.063297033 2695:0.067081548 2734:0.066591009 3215:0.081419587 3235:0.068133332 3320:0.059945792 3810:0.072069362 3944:0.069926783 4941:0.089068711 5377:0.8016184 #
-0.70063092509662894258326559793204 17:0.15080103 34:0.2205513 372:0.27318445 451:0.31431887 670:0.39481956 718:0.45497701 1320:0.38929465 1336:0.49066606 #
0.67483898694429034215147567010717 6:0.01128907 15:0.038677376 26:0.048862211 63:0.024401305 67:0.12771593 102:0.10756857 142:0.0058548409 153:0.19582601 337:0.086306818 345:0.082845069 829:0.16749418 844:0.12370488 867:0.19846921 886:0.097235516 975:0.13987978 1001:0.13232557 1074:0.29507622 1557:0.16612495 1689:0.18082136 1709:0.14397381 1751:0.15379591 1959:0.17973441 2163:0.14265552 3719:0.1882914 5563:0.23418432 5564:0.23418432 7077:0.62928522 #
-0.8052795635901122128785800668993 6:0.017055916 9:0.13047442 13:0.11335697 17:0.0929396 80:0.11105275 105:0.18118033 142:0.017691389 151:0.13469782 160:0.30918369 217:0.28239682 265:0.16112584 506:0.095418595 586:0.12537773 672:0.23831078 709:0.29748443 765:0.62568647 784:0.33496776 867:0.14992703 #
0.44673306570955023664382110837323 31:0.12157836 174:0.23382059 232:0.28312972 389:0.27184886 506:0.1784524 719:0.34333381 1228:0.39277464 2344:0.52814019 2402:0.43994895 #
-0.57083433100646086000296008933219 6:0.0088755786 11:0.0398839 27:0.051687114 33:0.098229133 41:0.0408688 51:0.060280148 67:0.10041152 75:0.017987868 82:0.06657324 85:0.16317621 97:0.055382263 100:0.05484594 140:0.1881572 142:0.048332904 157:0.089944467 225:0.16914295 264:0.14612855 283:0.066534244 289:0.077220693 292:0.17504339 317:0.052900374 328:0.27013972 336:0.081146546 518:0.077402659 573:0.1126699 588:0.12165389 729:0.095532 1215:0.10403568 1605:0.14492343 3683:0.13968484 4052:0.32169697 6815:0.71871185 #
0.63153329101274280343858436026494 6:0.015453848 15:0.02647314 26:0.033444259 28:0.057059433 29:0.028062683 63:0.033403464 75:0.046979774 80:0.050310768 83:0.020020949 94:0.046386182 96:0.047874242 134:0.055339891 142:0.01001852 162:0.041849054 227:0.10984717 228:0.058438588 337:0.059073616 339:0.060100868 363:0.072182693 404:0.064888254 472:0.070398949 561:0.068472892 731:0.089045711 903:0.086031429 1081:0.085904099 3028:0.43072093 4181:0.45097581 6690:0.17112009 6691:0.68448037 7591:0.16502087 #
0.42753784906729480619347327774449 144:0.27779448 178:0.37709779 204:0.2805036 220:0.3748419 274:0.50497174 795:0.5535723 #
0.3381146929593454308893285542581 6:0.055934787 15:0.12775841 26:0.32280156 41:0.085853085 63:0.08060196 68:0.11446068 75:0.075574227 83:0.04831019 94:0.22385804 96:0.11551969 140:0.13175394 142:0.033844311 176:0.096644841 289:0.16221751 298:0.18483503 317:0.11112782 325:0.16742454 351:0.1323169 413:0.16121192 423:0.14126348 427:0.19805999 467:0.23403437 475:0.30216384 480:0.13713622 1245:0.18232961 2466:0.59022683 #
-0.84768476609376453012600904912688 21:0.067136846 48:0.033946898 61:0.065157242 98:0.10798418 142:0.0014389416 243:0.052322265 299:0.045936823 331:0.043378394 451:0.06302432 491:0.79468864 529:0.18956938 576:0.05432019 927:0.071273513 2551:0.29830283 2552:0.099434279 2617:0.099434279 2839:0.10998779 3513:0.09060625 4653:0.1079547 4664:0.12288832 4665:0.12288832 4667:0.12288832 4668:0.12288832 4670:0.12288832 4675:0.12288832 4676:0.12288832 5731:0.11850822 7095:0.12288832 7764:0.12906173 #
0.44701400206153429905953089473769 6:0.034259692 11:0.20526889 28:0.084330179 29:0.041474842 80:0.22306825 118:0.074779049 158:0.08196684 229:0.059804477 245:0.1320421 294:0.10913221 341:0.095417008 409:0.058321819 413:0.098741256 427:0.12131046 467:0.14334454 486:0.34042397 952:0.10638808 1225:0.10186525 1725:0.16474877 2709:0.17096706 5419:0.41391626 6703:0.2529045 7272:0.21517909 8727:0.2529045 8730:0.50580901 #
0.62959243918090823655120402690955 27:0.14027752 111:0.30128279 322:0.41752011 325:0.43260437 389:0.41057792 506:0.26951969 1124:0.53559893 #
-0.3373547050409290704031661789486 6:0.016043995 51:0.10896578 63:0.069358133 75:0.03251588 86:0.12463614 106:0.11230365 120:0.13366924 122:0.17268901 123:0.16277325 137:0.13134442 142:0.016641766 161:0.46971735 276:0.12463614 298:0.15905088 373:0.11453384 375:0.34121197 409:0.16387449 485:0.11102925 501:0.16683969 657:0.16663729 671:0.097981237 867:0.14103194 1045:0.083345346 1067:0.51195496 3217:0.27894929 #
-1.0065897684281319701682377854013 #
0.11135158027296607197165201341704 6:0.025937641 15:0.04443235 28:0.19153638 29:0.047100227 31:0.049430199 176:0.06722308 317:0.23189093 322:0.11239458 455:0.28407431 477:0.13866515 571:0.10235446 2657:0.20902067 2786:0.22152483 6831:0.24811378 7260:0.78762561 #
-1.0065897684281319701682377854013 #
-0.46954932261413728777910137068829 6:0.014978101 11:0.067306608 12:0.20194124 13:0.033182472 18:0.10690314 25:0.11241248 29:0.018132515 34:0.039789326 36:0.11444071 40:0.031195352 63:0.010791713 72:0.093212254 74:0.12278794 76:0.041536972 78:0.038356408 79:0.067716174 83:0.025872804 91:0.039893899 94:0.14986061 98:0.032386061 110:0.048184276 111:0.031223195 117:0.051544894 132:0.030280845 142:0.019420199 145:0.041896705 173:0.03731776 174:0.073195413 186:0.11332711 190:0.042807173 199:0.070013292 208:0.037405018 215:0.031806827 218:0.028320499 228:0.15103881 229:0.026146105 258:0.094690591 265:0.047165632 275:0.033573899 283:0.037426919 312:0.045252964 313:0.056616548 345:0.036639031 346:0.041596275 355:0.030048652 367:0.042613771 381:0.047993343 385:0.052237868 387:0.03524337 406:0.046813227 415:0.043438271 455:0.036454044 457:0.068854332 465:0.042454664 466:0.046134494 505:0.035913616 509:0.04634301 513:0.03736132 530:0.041042998 580:0.045175571 582:0.042110998 660:0.06428276 661:0.066656418 671:0.030490596 739:0.051002882 796:0.043887462 845:0.33807394 852:0.049547736 952:0.046512134 1020:0.063823529 1054:0.065250151 1240:0.083910972 1245:0.048823845 1251:0.065588415 1383:0.14517249 1386:0.071489736 1424:0.04642731 1600:0.074415505 1649:0.056705792 2132:0.45788589 3974:0.57310891 4029:0.09048067 #
0.55206415432302735624148226634134 6:0.019481912 15:0.033373397 26:0.042161543 27:0.042544995 29:0.035377253 63:0.042110119 67:0.19285305 84:0.028584607 88:0.037190542 107:0.046589229 117:0.15084919 134:0.034882151 142:0.015155831 178:0.039306927 211:0.048438799 215:0.031028191 256:0.033145081 286:0.027290517 345:0.0357421 373:0.034769058 394:0.090747021 402:0.037123218 423:0.036901224 456:0.052779619 457:0.033584382 475:0.039466023 477:0.052076101 485:0.033705167 502:0.033618782 507:0.026042195 535:0.046186272 561:0.043160215 571:0.076879025 594:0.04663476 658:0.090091094 714:0.050403457 800:0.085901715 856:0.036553532 997:0.046319246 1011:0.058453381 1018:0.1057041 1080:0.049245704 1190:0.052707575 1309:0.057494618 1389:0.062115062 1880:0.068051904 1931:0.06349083 2202:0.068280347 2227:0.064493574 2322:0.077090316 2433:0.066352643 2526:0.2187475 2786:0.1663886 3277:0.27953956 3851:0.094753869 7838:0.79295927 9103:0.12254291 #
0.7936715507671128211342193026212 6:0.018568447 27:0.054066867 29:0.033718489 31:0.035386488 37:0.087856159 53:0.071501106 56:0.085712992 63:0.020067833 64:0.1610489 75:0.018816056 80:0.060450502 83:0.04811202 132:0.056309033 142:0.012037672 160:0.084150583 299:0.076858215 325:0.083368883 330:0.092335209 337:0.070979431 351:0.065887064 369:0.08302135 398:0.072213717 434:0.16067474 501:0.096545592 506:0.051940199 507:0.049642265 539:0.086255848 733:0.10479036 890:0.097502485 1007:0.10716968 1014:0.22770642 1149:0.089070797 1194:0.14230692 1411:0.11758782 1433:0.089512303 1455:0.12327223 1485:0.1157767 1486:0.12686609 1527:0.12072267 2340:0.12887298 2692:0.60638368 2771:0.13393854 4111:0.15728033 5357:0.15728033 5978:0.16296473 8373:0.41121596 #
-0.65535323975651971206701773553505 32:0.25804704 142:0.017852839 238:0.33944499 2674:0.50867808 3118:0.50867808 4234:0.54805404 #
-0.90920745421748305759024333383422 2:0.075098857 4:0.039786715 6:0.036792625 26:0.11943647 29:0.033405911 31:0.035058446 42:0.05503149 63:0.079527192 75:0.074566506 84:0.053983551 142:0.035778239 162:0.049817257 169:0.26818985 173:0.13750258 199:0.085991301 214:0.31521925 215:0.058598384 218:0.052175447 228:0.20869648 229:0.19267806 286:0.051539589 347:0.075561844 411:0.068912044 433:0.14876601 502:0.063490853 507:0.1475462 644:0.087645173 778:0.17580107 829:0.068235807 915:0.11397184 1007:0.31852856 1009:0.24593882 1045:0.09556517 1059:0.084317476 1155:0.10707444 1218:0.11189631 1296:0.093639411 1312:0.23920709 1382:0.1205214 1467:0.11302824 1649:0.10447027 2733:0.23920709 2782:0.35195017 3378:0.15019059 4657:0.20370194 #
-0.65925075301156621510045852119219 6:0.031844474 15:0.021820409 17:0.10411448 18:0.068185031 38:0.20755662 41:0.029326435 50:0.24181353 72:0.079270266 111:0.039829597 135:0.058026131 138:0.16021939 142:0.0016515472 171:0.05506815 185:0.074175231 242:0.044627275 246:0.13166267 271:0.070290677 276:0.049476109 296:0.057432022 306:0.049977221 309:0.046870749 331:0.049787614 367:0.054359887 375:0.045149669 382:0.055939909 402:0.048544284 411:0.047715385 485:0.044074658 495:0.14037874 504:0.067655034 532:0.073640086 575:0.19941808 591:0.33484825 613:0.058903944 643:0.051818404 670:0.090862393 712:0.11697072 714:0.065910228 738:0.077174187 741:0.077174187 747:0.070189372 757:0.060511343 906:0.074523486 953:0.069593571 1068:0.075049095 1093:0.16169824 1183:0.27258718 1215:0.074653417 1296:0.06483686 1448:0.079943471 1473:0.090215094 1480:0.09259402 1639:0.08600077 1651:0.087295808 1707:0.072799191 1820:0.081224941 1851:0.086252213 1956:0.09492749 2154:0.08702901 2206:0.082201459 2347:0.11834016 2406:0.10330807 2575:0.088694565 2640:0.088121556 2643:0.27778205 2651:0.11179236 3119:0.20661615 3391:0.12390517 3795:0.1097341 4814:0.27203596 5281:0.12893245 5376:0.11834016 5559:0.13601798 7746:0.13601798 #
0.70587144854430838858405650171335 6:0.020136211 15:0.045992319 17:0.036574829 28:0.049565252 68:0.041205209 80:0.043702956 83:0.017391399 94:0.080587648 96:0.041586444 186:0.038088586 245:0.077608034 427:0.071300499 478:0.21054678 518:0.058535013 571:0.052974004 644:0.063956358 781:0.29094517 814:0.074511513 884:0.069295757 1109:0.092869818 1411:0.085010633 2237:0.096831463 3559:0.12311424 3781:0.12311424 4977:0.13587971 6115:0.41771242 6989:0.13587971 7552:0.74322599 #
-0.37951424457545684942871844214096 6:0.031563591 42:0.062947087 57:0.15709762 63:0.022741549 67:0.059514396 73:0.22865641 83:0.054522172 100:0.065014906 117:0.21724275 131:0.27939251 142:0.016369797 162:0.056982849 169:0.076691404 179:0.057353098 199:0.049180042 209:0.066092312 259:0.1279912 367:0.089800678 379:0.38550645 381:0.20227428 441:0.074190252 449:0.12026178 519:0.37739286 541:0.10849221 546:0.090900555 662:0.10967603 755:0.10981062 895:0.10940874 927:0.13513789 990:0.14166084 1138:0.10374907 1175:0.11147656 1226:0.33306068 1268:0.14248571 1366:0.11401442 1395:0.11234702 1433:0.10143837 1469:0.1191221 1598:0.11008169 2335:0.15547402 4605:0.22469705 #
0.51794045353494333472355037883972 6:0.01702844 28:0.062873214 29:0.030921986 31:0.032451648 60:0.12924764 63:0.018403471 142:0.013247168 159:0.051221173 180:0.065611348 365:0.090211786 408:0.10027078 850:0.078047983 1305:0.077437632 1340:0.11431151 1627:0.11367143 2026:0.51286685 2933:0.18183483 3952:0.14200942 6619:0.52986562 7661:0.52986562 8681:0.18855551 #
-0.64343613353340256555412679517758 6:0.043203581 8:0.17395309 13:0.11485581 14:0.0876638 17:0.047084238 37:0.08176668 41:0.079574689 67:0.048877236 71:0.12372514 85:0.10590553 91:0.13808635 96:0.05353589 109:0.38035873 112:0.096205585 119:0.18081301 142:0.0044813273 147:0.11125223 151:0.068239413 153:0.29977259 158:0.06201914 175:0.33456784 183:0.076015577 220:0.069317266 232:0.23008698 254:0.083391078 323:0.073917136 325:0.077590428 376:0.11019835 423:0.065466471 429:0.098608501 459:0.078930251 468:0.11568283 473:0.076076604 485:0.059796344 550:0.070398316 572:0.093636334 631:0.05799108 747:0.095226325 861:0.23072052 914:0.11071943 950:0.094154574 966:0.1726173 1083:0.092632644 1093:0.10968847 1134:0.105115 1159:0.08786387 1169:0.097376615 1291:0.26232302 1373:0.10024422 1556:0.15659218 1948:0.12994541 2596:0.11955503 2695:0.14411926 #
0.19405018862907319476818202019786 4:0.024732443 6:0.01143562 18:0.030607278 26:0.17323782 27:0.033297785 29:0.10382986 33:0.063281 40:0.035725977 67:0.03234347 74:0.046873637 75:0.069528677 80:0.11168768 81:0.034813318 142:0.028171517 150:0.24932104 154:0.041333098 158:0.041039843 172:0.044839609 180:0.044061959 204:0.068650186 221:0.05442993 252:0.082529873 262:0.1070256 286:0.032038331 303:0.2554366 322:0.049553532 337:0.087427214 345:0.041960262 377:0.04400786 386:0.045538291 418:0.059030961 432:0.053712025 437:0.10286051 441:0.040319156 455:0.041748408 480:0.042055346 491:0.068238467 561:0.050668932 657:0.05938673 683:0.069150098 698:0.064239554 757:0.054325338 781:0.1239237 930:0.050061554 944:0.062566996 1013:0.070847817 1057:0.077896215 1126:0.06097585 1241:0.28521037 1433:0.055127315 1450:0.081573635 1591:0.06786342 1858:0.073618799 2248:0.075114086 2975:0.08128038 2976:0.15441802 3251:0.081573635 3355:0.55619246 4292:0.097667865 4573:0.10773767 4729:0.10939063 5445:0.096863143 5476:0.20491776 7015:0.33371547 9806:0.14386207 #
-0.18200001321604380999374939165136 6:0.033590343 11:0.075471915 18:0.089904085 53:0.19401838 78:0.064514428 79:0.056948379 94:0.10082458 96:0.052029509 106:0.058780845 118:0.054988541 135:0.07650926 148:0.073817514 203:0.06366238 290:0.26197663 295:0.071301401 306:0.065896519 351:0.059594892 353:0.18840651 424:0.086491376 442:0.071460858 499:0.062549055 502:0.057964865 515:0.060671337 564:0.10405219 678:0.090877399 791:0.11180499 798:0.39429179 863:0.088748984 876:0.081044637 882:0.063061923 890:0.088191055 1011:0.10078421 1142:0.13903984 1206:0.1293658 1215:0.098432854 1360:0.12409296 1465:0.13291766 1595:0.10517638 1682:0.23545536 3178:0.15403032 4060:0.58594513 5368:0.17000143 #
-0.11780578926747581336442749488924 6:0.03386268 9:0.12952144 11:0.030433524 17:0.018452154 26:0.014656701 27:0.0098599996 31:0.02581328 33:0.018738504 35:0.25722286 41:0.031185053 42:0.020259643 48:0.04143193 57:0.025281088 62:0.31015247 63:0.036597058 70:0.116878 75:0.0068628471 83:0.0087740337 85:0.020752013 98:0.021965643 127:0.033677749 141:0.092797503 142:0.028977582 151:0.026742799 154:0.2203089 162:0.055020124 173:0.025310539 180:0.026094886 186:0.038431704 196:0.031489033 214:0.08703512 215:0.021572782 223:0.32196462 243:0.063858926 250:0.23657018 275:0.022771288 281:0.078176759 289:0.058923472 304:0.051281594 306:0.026572311 308:0.025020162 319:0.0307189 320:0.032142367 322:0.029347168 330:0.033677749 331:0.026471501 341:0.028293384 342:0.031633537 345:0.024850193 357:0.062693492 386:0.05393843 414:0.025020162 418:0.034960002 426:0.030484324 432:0.063619919 457:0.023350012 458:0.035651766 461:0.037054151 465:0.028794611 494:0.17209624 506:0.037888665 507:0.0181062 515:0.048930585 520:0.05025322 538:0.029671587 543:0.074962825 546:0.029256521 556:0.041870248 564:0.083916634 571:0.026725609 576:0.033148691 610:0.17439751 628:0.03679676 671:0.020680057 726:0.062413204 755:0.035342764 761:0.06886711 764:0.031318545 800:0.029862184 808:0.035342764 824:0.075744189 848:0.11228076 858:0.067945473 866:0.037872095 867:0.11906558 882:0.025429279 906:0.039623279 908:0.036017973 913:0.035342764 930:0.059296068 957:0.47100341 987:0.055291153 1042:0.038582604 1058:0.037986804 1083:0.036302425 1086:0.042694647 1198:0.040338345 1225:0.060410876 1322:0.11413409 1359:0.037591372 1373:0.039285377 1424:0.031489033 1433:0.097944416 1709:0.043186363 1873:0.04484006 2200:0.048851881 2237:0.048851881 2404:0.052998468 2561:0.05047185 2709:0.050695747 2843:0.063805655 3070:0.052998468 3116:0.061367948 3546:0.098079182 3924:0.058344349 4107:0.058344349 4152:0.06587895 4787:0.24271755 5816:0.063805655 #
0.013303684221335971768485073596366 6:0.020452093 15:0.035035361 29:0.037139006 67:0.05784484 88:0.15617038 96:0.063358232 142:0.0026517627 176:0.053006083 199:0.047800396 255:0.19035825 275:0.27506417 289:0.088970244 514:0.1086285 586:0.075171486 631:0.068630822 737:0.12050058 761:0.10398443 799:0.10316429 1018:0.11096806 1036:0.11559994 1373:0.11863624 1709:0.13041666 1948:0.15378676 2650:0.35559079 7838:0.71352673 9103:0.25729087 #
0.84289754204890121602744557094411 27:0.08139918 111:0.1748261 308:0.20655382 4297:0.50662279 5228:0.55410576 7414:0.5970307 #
-0.53265931173739289317126122114132 6:0.009664434 25:0.072532758 56:0.26766944 85:0.059226401 91:0.07722313 92:0.063799545 96:0.11975722 111:0.12087828 132:0.058615021 158:0.13873383 160:0.087596744 177:0.40347406 204:0.058017418 215:0.061568886 275:0.064989425 284:0.058690675 331:0.075549863 394:0.27010241 401:0.44222453 432:0.090785861 497:0.15125804 576:0.094606608 599:0.27185088 819:0.09706559 1003:0.10213754 1245:0.094508938 1337:0.24886592 2050:0.12443296 2076:0.12051803 2154:0.13206156 2648:0.17134993 3472:0.15386841 4060:0.22478001 6820:0.20639952 #
-0.079843168246392412501499791233073 1:0.49158862 4:0.033192642 26:0.033213869 29:0.027869364 30:0.23062685 32:0.057524532 42:0.091821633 74:0.062907651 75:0.32659298 83:0.019883029 142:0.057707127 161:0.14977433 162:0.041560765 172:0.060177844 181:0.064771354 185:0.044685781 186:0.043545458 190:0.13158779 227:0.054545227 229:0.040186115 303:0.2056881 339:0.059686847 375:0.054399516 408:0.090372033 433:0.062055096 437:0.069022946 472:0.069913991 491:0.18316144 521:0.15133995 582:0.064723879 586:0.056409195 608:0.16746792 709:0.066921204 852:0.15230805 930:0.067186058 944:0.083969221 1045:0.039863311 1055:0.16746792 1064:0.071099631 1081:0.085312322 1241:0.38277197 1314:0.089481533 1317:0.099531814 2263:0.12896973 3546:0.11112968 4591:0.28516921 #
0.41919546522660744436450386274373 274:0.25738195 640:0.22227697 1010:0.2651661 1038:0.31621838 1260:0.31796107 2240:0.3234866 3734:0.38631153 9162:0.59921694 #
0.29540934969384086139498890588584 26:0.14968634 63:0.074751876 111:0.21627636 142:0.0089679696 322:0.29971752 2581:0.5383442 7170:0.73858327 #
0.52160187916738443014708082046127 15:0.10545079 37:0.14562893 111:0.19248322 1347:0.46501154 1815:0.40021586 3170:0.47659835 5086:0.5718987 #
0.22806228005911360900981321719883 6:0.028889833 15:0.03299306 29:0.017487042 37:0.068345778 63:0.010407554 75:0.0097583588 80:0.062701523 142:0.0012485924 145:0.040405285 158:0.034559686 179:0.052494708 205:0.038099486 228:0.036415551 229:0.050430734 256:0.032767348 299:0.039860111 341:0.04023068 351:0.034170266 423:0.036480684 437:0.043309458 507:0.051490817 521:0.047480233 546:0.041600175 560:0.057357546 583:0.075778559 586:0.035394777 647:0.086986415 676:0.048147358 784:0.04728156 903:0.053609814 1251:0.063253626 1379:0.050821915 1598:0.050378323 1947:0.06683594 2001:0.063089512 2095:0.07145562 2137:0.067965806 2682:0.070854999 3836:0.081568524 4164:0.27217793 4400:0.2132643 4900:0.08451657 7804:0.10663215 8320:0.22397783 8379:0.4265286 9778:0.72687817 #
-0.06345859589927618782390084106737 6:0.0088345679 46:0.22192614 47:0.041814707 76:0.073499538 91:0.070592128 92:0.058321197 106:0.061839599 158:0.063410513 168:0.065614067 199:0.041296098 224:0.084018551 275:0.11881781 284:0.05365102 290:0.18373933 295:0.075011685 307:0.16968068 309:0.13003285 353:0.099105269 382:0.07759665 424:0.090992093 430:0.068759263 439:0.095218495 481:0.10181029 493:0.1577388 502:0.060981158 625:0.098218329 631:0.059292085 668:0.3823548 819:0.088730752 882:0.066343449 913:0.092207126 1054:0.11545994 1067:0.093968712 1215:0.20710991 1449:0.11320338 2479:0.14966288 2565:0.14238822 3458:0.15221688 4060:0.41095716 5181:0.49246415 #
0.32766968995484690996278231978067 6:0.02787539 15:0.03820144 26:0.072391421 27:0.01623329 29:0.020247597 37:0.079135038 41:0.025671199 63:0.036151562 68:0.034225244 75:0.011298843 94:0.033468243 97:0.03478764 134:0.079856925 142:0.017348386 174:0.040866677 176:0.086694218 192:0.045023564 198:0.04854317 204:0.033468243 226:0.043228559 232:0.049484819 252:0.040234853 255:0.15567045 265:0.10533461 278:0.096260436 317:0.066457346 322:0.048316542 323:0.095384181 363:0.052080769 389:0.047513176 394:0.10387516 404:0.046817735 414:0.041192651 502:0.038482327 506:0.062379077 527:0.053173874 549:0.059531577 561:0.049404096 586:0.040982299 599:0.052273791 806:0.05984699 808:0.058187559 856:0.041841637 987:0.045515079 1059:0.051105514 1126:0.05945373 1297:0.082384147 1709:0.071101092 1792:0.065812223 2376:0.46432114 9640:0.77800691 #
-0.60161265425571863740827893707319 6:0.014948003 29:0.027144115 31:0.056973785 63:0.01615504 68:0.04588268 75:0.015147333 80:0.048663963 142:0.0038762349 172:0.058611829 174:0.054786246 200:0.21660976 229:0.039140347 255:0.069564417 306:0.058649078 383:0.44765481 404:0.062764294 411:0.055994775 515:0.053998571 610:0.096230373 625:0.083092228 952:0.069628008 1064:0.069249399 1322:0.083970353 1330:0.098704129 1576:0.082848094 1829:0.12287515 1955:0.1123995 2642:0.10374554 2796:0.38632423 2852:0.12877473 2879:0.14082865 3089:0.12123369 3335:0.10953336 4050:0.11634453 4535:0.13708973 6319:0.62017292 #
0.60015437696904494480065750394715 179:0.18338016 199:0.15724771 408:0.1980889 587:0.42606643 1990:0.44788584 2134:0.45829719 3005:0.5569874 #
-0.60421600336535952191496789964731 6:0.014948003 29:0.027144115 31:0.056973785 63:0.01615504 68:0.04588268 75:0.015147333 80:0.048663963 142:0.0038762349 172:0.058611829 174:0.054786246 200:0.21660976 229:0.039140347 255:0.069564417 306:0.058649078 383:0.44765481 404:0.062764294 411:0.055994775 515:0.053998571 610:0.096230373 625:0.083092228 952:0.069628008 1064:0.069249399 1322:0.083970353 1330:0.098704129 1576:0.082848094 1829:0.12287515 1955:0.1123995 2642:0.10374554 2796:0.38632423 2852:0.12877473 2879:0.14082865 3089:0.12123369 3335:0.10953336 4050:0.11634453 4535:0.13708973 6319:0.62017292 #
0.75637597712565085572578027495183 6:0.014329466 12:0.032199342 27:0.013907989 29:0.017347276 31:0.036410835 60:0.036254048 63:0.010324372 65:0.034171928 67:0.054037545 110:0.092195258 132:0.028969517 142:0.0037158392 172:0.037457678 174:0.035012823 179:0.026037572 215:0.030429415 218:0.027094062 232:0.084792957 274:0.051620163 275:0.032119963 285:0.050937414 394:0.0444979 422:0.043555759 426:0.085999124 442:0.040646441 448:0.043256186 478:0.037457678 591:0.050225317 643:0.038862318 647:0.086291172 655:0.03616754 663:0.089406006 674:0.063248992 719:0.051411577 856:0.03584813 890:0.050162461 966:0.04771043 1064:0.044255942 1113:0.057991903 1319:0.050415721 1377:0.045557104 1446:0.049852617 1468:0.066962689 1476:0.061498959 1816:0.052489374 2082:0.083046533 2220:0.2662552 2815:0.072164141 4720:0.57112181 4911:0.48549956 5658:0.096695639 6365:0.40803835 6483:0.076983474 6598:0.088751733 8737:0.10577989 8745:0.21155979 #
-0.36084333119522499222497913251573 6:0.032467511 17:0.12384339 26:0.014052834 34:0.10349993 37:0.015361925 41:0.014950103 57:0.12119745 58:0.065338381 59:0.020160599 61:0.49560857 69:0.032939691 72:0.020205297 80:0.063419752 81:0.019768091 84:0.019055029 87:0.030246824 96:0.060348365 118:0.042520341 142:0.0016838597 146:0.029154621 149:0.18074635 151:0.076922923 159:0.019532314 175:0.031428486 176:0.050488003 186:0.018424144 190:0.027837487 214:0.027816402 215:0.020683968 218:0.018416809 240:0.11691339 242:0.022750204 314:0.10363568 322:0.028138043 324:0.068801418 369:0.029033085 377:0.024989037 389:0.027670188 390:0.029658061 398:0.025253588 403:0.037603382 405:0.03087727 414:0.023989312 463:0.039896537 485:0.044936981 486:0.14517711 490:0.13439952 496:0.027225681 499:0.12091642 500:0.03359988 506:0.018163813 521:0.032016072 528:0.033970263 534:0.049494054 544:0.052664645 546:0.02805113 558:0.072085157 560:0.038676377 572:0.070367746 576:0.03178294 580:0.029377656 591:0.068279907 594:0.031087598 628:0.070561409 631:0.02179016 681:0.035527494 685:0.034312941 689:0.040575609 726:0.029920867 803:0.040575609 814:0.036042579 836:0.036817718 856:0.024367262 862:0.031240931 872:0.037052166 886:0.027965058 900:0.047390364 912:0.092631809 925:0.23988974 951:0.042324167 969:0.036311738 971:0.040487837 996:0.036149267 1003:0.034312941 1009:0.11574814 1020:0.041504417 1088:0.04170239 1102:0.077785574 1149:0.031148614 1164:0.034444921 1168:0.042217474 1215:0.038057003 1216:0.034760699 1284:0.045516949 1288:0.042652123 1309:0.038326979 1454:0.062115416 1624:0.082242392 1635:0.050814893 1678:0.055001918 1739:0.052328438 1766:0.056989789 1781:0.041215464 1853:0.191111 1863:0.039114587 1924:0.089560576 1995:0.042007856 2076:0.040487837 2101:0.059552602 2118:0.048392374 2248:0.042652123 2275:0.25548863 2314:0.053756848 2577:0.093325473 2604:0.048392374 2675:0.053756848 2694:0.14274585 2722:0.044780288 2730:0.052004457 2810:0.131455 2848:0.059552602 2869:0.069339581 2957:0.051389832 3112:0.2797026 3275:0.052664645 3318:0.052328438 3582:0.058179352 3742:0.058179352 3744:0.061176814 3778:0.054152846 4248:0.060327742 4677:0.065727502 4785:0.050016582 5052:0.060327742 5252:0.060327742 5308:0.14380479 5397:0.063164689 5735:0.12235363 6199:0.063164689 6901:0.071902394 7124:0.069339581 7410:0.069339581 9905:0.07551448 #
0.25491626526606520064532901415078 6:0.045663372 15:0.026074471 26:0.032940608 27:0.044320259 28:0.056200154 29:0.055280153 31:0.058014773 63:0.065800861 67:0.043050043 68:0.046721019 75:0.046272285 80:0.049553122 83:0.019719446 96:0.047153287 102:0.072517678 142:0.021708824 153:0.19802506 158:0.054625154 176:0.03944888 192:0.061461851 219:0.063634492 228:0.05755854 229:0.11956649 237:0.13080314 317:0.045360595 325:0.068340018 330:0.075689994 339:0.059195787 351:0.054009642 355:0.045804296 390:0.069520108 408:0.089628525 409:0.038867407 414:0.056232255 490:0.078759953 499:0.22674774 507:0.040693279 508:0.059048213 531:0.085635528 587:0.096390322 716:0.072871022 801:0.092040665 851:0.086438783 867:0.066899315 993:0.083633326 1001:0.17841539 1159:0.077388652 1294:0.086438783 1581:0.10857674 1679:0.32938054 1751:0.10368199 2022:0.65627998 2042:0.097752675 2282:0.11021539 2291:0.12892748 2629:0.12600899 4295:0.14560193 4960:0.13792309 7544:0.15787609 #
-1.0065897684281319701682377854013 5:0.045925956 6:0.032720789 15:0.056052189 20:0.092288099 23:0.058842 29:0.059417766 40:0.051111445 50:0.077646218 60:0.062088549 67:0.046272252 86:0.06354703 114:0.057439707 142:0.0021212443 169:0.059627324 218:0.046401195 256:0.055668727 264:0.067339852 286:0.045835707 339:0.063626476 367:0.069819741 402:0.062350191 415:0.071170628 426:0.07364089 455:0.059727453 480:0.12033314 496:0.13719034 504:0.08689601 507:0.043739092 530:0.067246139 539:0.075998798 636:0.083661675 644:0.077945486 720:0.081443086 758:0.085694283 764:0.075656123 795:0.096912906 853:0.086561836 865:0.12139656 965:0.081708714 987:0.13356668 1020:0.10457048 1031:0.10051942 1080:0.082710482 1314:0.19077551 1380:0.084252372 1472:0.083181038 1916:0.099910013 2340:0.22709629 2369:0.10663584 2422:0.13023773 2807:0.11110986 2825:0.11045923 7929:0.76103568 #
-0.38365507961515549206765740564151 27:0.14346237 33:0.27264407 59:0.30594042 63:0.10649698 75:0.099853992 142:0.038329273 146:0.4424262 225:0.46947193 239:0.41771665 647:0.44505128 #
-0.49911597654606637552987535855209 6:0.027888529 17:0.037991934 27:0.060903531 34:0.055564407 37:0.065976948 41:0.064208247 42:0.041713446 53:0.10738973 63:0.030140502 65:0.049879987 67:0.039438691 75:0.028260421 81:0.042450354 83:0.036130469 100:0.043083742 119:0.29179344 142:0.012655828 160:0.31597096 164:0.081440881 183:0.12267285 203:0.052855968 226:0.16218349 290:0.072502412 294:0.066627935 324:0.073872708 325:0.062607162 337:0.15990932 341:0.058254462 347:0.057275303 359:0.077627592 364:0.064599395 384:0.075554483 409:0.035606924 444:0.091591939 496:0.11692984 535:0.066116057 555:0.080347426 644:0.066434368 670:0.099468537 676:0.069717899 694:0.30779642 714:0.072152995 717:0.070655078 732:0.15258476 823:0.079439379 827:0.059553396 841:0.10740652 862:0.067087345 869:0.093343645 912:0.066306405 1014:0.085499838 1047:0.078572489 1056:0.068464212 1129:0.081300735 1156:0.097743921 1194:0.3206028 1340:0.093607515 1438:0.096468098 1599:0.084483832 1636:0.10176693 1734:0.096468098 1842:0.1068676 1994:0.09983293 2034:0.093875073 2057:0.11035546 2141:0.11543843 2200:0.10058323 2339:0.10912082 2402:0.19232401 2410:0.0974169 2425:0.11035546 2470:0.10391866 3542:0.12122114 3870:0.13338777 4522:0.13819548 4976:0.12788434 5985:0.14114442 6108:0.13338777 #
0.43837885332293546891690994016244 6:0.016157929 15:0.027679261 26:0.06993597 27:0.023524007 28:0.059659071 37:0.038225424 63:0.034925334 84:0.094830126 86:0.062760606 103:0.076906621 107:0.077280447 142:0.0083799725 159:0.097205393 203:0.061246898 232:0.071709506 252:0.17491554 289:0.070289865 296:0.072852708 345:0.059287637 442:0.068749487 571:0.063762009 613:0.074719846 639:0.092949249 643:0.065731816 714:0.083607346 757:0.076758839 1118:0.10401948 1238:0.64312994 1433:0.077891991 1972:0.11745582 2123:0.13191605 2196:0.12509997 2902:0.11568149 3136:0.13191605 3209:0.59274435 #
-0.63869250479244010776369577797595 12:0.14477865 69:0.21788974 151:0.16961014 318:0.25923279 859:0.3361308 916:0.26024014 2145:0.39905646 2509:0.39905646 3815:0.42569104 5844:0.39392906 #
0.34550821582426632927464993372269 6:0.037219234 15:0.063758232 29:0.067586504 34:0.14830935 60:0.070624463 63:0.020112326 75:0.018857775 80:0.12116906 83:0.024109347 134:0.06664063 142:0.0024128724 158:0.066785693 176:0.048230901 204:0.11171704 229:0.048728038 240:0.083765022 327:0.078252554 345:0.068283521 458:0.097964153 478:0.072969191 527:0.088747233 1064:0.086212508 1098:0.41752154 1140:0.094508797 1294:0.1056816 2136:0.17289226 2569:0.13993253 2889:0.1405789 6483:0.14996718 7011:0.73772699 8700:0.20606385 #
-0.43415765526981198174638620912447 6:0.032045234 17:0.034923617 18:0.17153724 21:0.038771104 65:0.045851566 119:0.067056879 125:0.06870807 135:0.17517585 139:0.10486323 145:0.053782105 162:0.10413428 166:0.0956413 181:0.05409684 183:0.056382753 185:0.18660714 199:0.0299583 215:0.081659794 241:0.084639981 256:0.043615509 283:0.096088625 288:0.1331322 294:0.061246905 295:0.054417308 325:0.057550862 358:0.084866896 382:0.11258515 409:0.032731228 411:0.048016198 414:0.047354605 424:0.066010311 433:0.051828228 459:0.058544643 483:0.062227525 502:0.088477693 507:0.034268841 569:0.089849897 576:0.062739134 634:0.072005592 651:0.082922988 676:0.12817463 699:0.09552595 706:0.065245613 800:0.056518897 803:0.080095746 809:0.096829154 906:0.074993312 912:0.060951348 915:0.079412743 991:0.068081558 1034:0.08080636 1067:0.068169706 1080:0.064802267 1093:0.08135882 1098:0.071896024 1099:0.090783842 1160:0.081172734 1190:0.06935773 1237:0.078594677 1406:0.10857311 1911:0.086795978 1923:0.09511216 1944:0.11484533 1992:0.083760537 2039:0.11908622 2083:0.62343156 2146:0.19746424 2193:0.2137941 2213:0.088963054 2398:0.093177766 2444:0.090783842 2616:0.085096769 3717:0.12468632 4049:0.13295145 #
-0.24741149480505203461788710228575 6:0.01171957 18:0.25093812 21:0.07089676 27:0.27299663 37:0.055450864 47:0.1109393 126:0.222697 140:0.66252846 142:0.097249769 159:0.14100884 199:0.05478169 298:0.11618104 301:0.21244828 304:0.088740505 324:0.24834767 331:0.091615498 496:0.098274633 1544:0.15355891 3338:0.21496285 4454:0.22082566 5528:0.23725195 #
-1.0065897684281319701682377854013 2:0.066599026 6:0.016314184 26:0.070612289 29:0.059249938 31:0.062180936 32:0.24459293 33:0.090277389 63:0.03526308 94:0.097937122 129:0.16822818 142:0.021152528 150:0.14227368 165:0.15839973 176:0.084563568 193:0.15823957 221:0.15530069 373:0.11646266 506:0.091269016 531:0.36714077 641:0.25817886 713:0.16313383 997:0.31030247 1433:0.1572905 1471:0.18894842 1931:0.21266928 4515:0.56729388 #
0.35830993363530705408948051626794 6:0.013089692 15:0.089692935 26:0.056655798 28:0.19332153 31:0.049890898 33:0.072434098 108:0.24234305 142:0.0067886957 158:0.18790373 231:0.14032781 284:0.079491764 408:0.077077739 499:0.097498 592:0.3868233 667:0.12607673 674:0.17333023 731:0.1508467 977:0.35994369 1056:0.12853679 1595:0.32788625 2152:0.21096878 2619:0.22553135 2862:0.22174726 5003:0.23455749 5167:0.25042623 6259:0.27153704 #
-0.43177808326923611259573476672813 6:0.0096656326 52:0.039401222 57:0.036080685 79:0.03277383 83:0.025044266 84:0.028363572 85:0.059233747 94:0.029012308 96:0.029943017 100:0.059728015 112:0.053808492 125:0.051810123 136:0.061209247 140:0.03415098 142:0.010025757 144:0.057464212 161:0.047163185 166:0.036059719 176:0.025050607 183:0.042516075 193:0.093751892 233:0.17145729 240:0.043506641 248:0.058791596 253:0.36966079 262:0.045230173 275:0.064997487 300:0.0689478 325:0.043396901 327:0.040643524 331:0.075559236 333:0.048755314 339:0.03759018 347:0.039701056 367:0.041249126 377:0.037196394 381:0.046456426 386:0.038489945 402:0.036836158 408:0.056915402 416:0.047018789 419:0.17637479 442:0.041125774 448:0.087532587 457:0.033324689 502:0.06671764 507:0.051681638 514:0.10267539 557:0.045483563 589:0.23083124 594:0.092548303 643:0.078641221 688:0.053649683 712:0.044379599 723:0.04960021 742:0.04960021 744:0.059631899 761:0.098285817 774:0.054214038 808:0.10088103 857:0.07789132 867:0.04248203 880:0.22739032 932:0.065643102 960:0.055693775 1019:0.069457874 1027:0.050502624 1042:0.055064354 1168:0.062841065 1225:0.04310862 1227:0.052808683 1232:0.054717656 1272:0.061070394 1308:0.11290344 1322:0.10859331 1330:0.063823767 1338:0.061070394 1393:0.055330455 1439:0.05694842 1576:0.10714197 1599:0.058560975 1724:0.074450105 1970:0.066447012 2021:0.070540957 2023:0.070826136 2067:0.12053297 2078:0.067083627 2113:0.47010586 2139:0.072352 2204:0.1440649 2366:0.073359601 2387:0.1312862 2411:0.081223838 2575:0.067302816 2694:0.14165227 2752:0.08660046 3139:0.079453163 3623:0.08660046 3767:0.077409074 3865:0.092459321 4244:0.076059394 4394:0.092459321 4862:0.10321256 5369:0.08660046 5524:0.10702732 6483:0.07789132 8470:0.095791847 #
0.6775058153697401941428779537091 6:0.018167155 27:0.017632799 29:0.06597957 31:0.046162311 64:0.052522797 80:0.078858763 142:0.0015703359 158:0.043465197 159:0.036430936 208:0.045369085 229:0.031712987 245:0.070018992 286:0.033931717 308:0.044743966 322:0.052482024 355:0.036446445 367:0.051686857 381:0.058211822 478:0.047489516 502:0.041799977 513:0.045316085 530:0.099563286 538:0.053062186 643:0.049270347 658:0.056007471 671:0.036982484 684:0.056675274 733:0.068350457 890:0.063596874 1046:0.13607191 1378:0.074261777 1380:0.062371191 1811:0.39040416 2213:0.33623421 2393:0.094778031 2736:0.079142854 2804:0.079142854 2866:0.08300323 3284:0.47389016 4053:0.12003113 4602:0.11107528 6234:0.34231409 6781:0.12932959 7099:0.46342137 #
0.12379591264699260633186383984139 6:0.030775106 27:0.022402432 33:0.042574853 64:0.20019029 67:0.087041512 81:0.04684414 142:0.0039902166 204:0.046187188 215:0.049014483 229:0.04029128 308:0.056847103 387:0.054310206 426:0.069261968 437:0.13840714 440:0.34735638 478:0.060335323 749:0.089562163 764:0.071157359 882:0.057776641 1003:0.081310846 1146:0.088085316 1213:0.097893439 1665:0.082923107 1791:0.10786081 2166:0.57987905 3292:0.13376802 3837:0.14496976 5697:0.54564101 5724:0.170386 6098:0.15960231 #
0.80931152230535774450004282698501 4:0.020412503 6:0.033033684 15:0.016168054 29:0.06855537 30:0.028365748 31:0.035973344 48:0.05773947 54:0.035334531 63:0.061201923 68:0.028970402 75:0.047820263 83:0.012227479 84:0.027696162 142:0.022027152 144:0.028056022 169:0.034398578 179:0.077174164 199:0.022058841 205:0.11202257 218:0.053537037 227:0.10063114 228:0.035690449 264:0.038847879 309:0.034729358 319:0.042809807 322:0.081796333 339:0.036705662 351:0.066979751 386:0.037584253 398:0.073411323 408:0.055576153 411:0.070710398 457:0.032540537 478:0.037007608 493:0.084258206 502:0.065147735 506:0.026400791 508:0.073228307 531:0.053100206 539:0.043843165 571:0.074489526 574:0.035334531 595:0.067083381 631:0.063343257 640:0.044043917 720:0.046983935 811:0.053598281 829:0.10502477 850:0.043258928 876:0.045543749 886:0.040646736 950:0.051422194 951:0.12303491 988:0.55788106 993:0.051858697 1017:0.055608388 1027:0.049314268 1064:0.04372419 1067:0.050194591 1080:0.047715083 1155:0.054934345 1236:0.05200753 1269:0.048207894 1324:0.056319457 1472:0.047986548 1482:0.055908363 1548:0.051932897 1795:0.060325962 2042:0.060613714 2402:0.13017477 2703:0.073073588 2707:0.074694246 2753:0.067083381 2907:0.070337489 2951:0.53938508 3051:0.070969239 3095:0.14938849 3955:0.15626933 4424:0.093537807 4871:0.23983304 5632:0.10450891 7989:0.095533803 8349:0.10450891 #
-0.3650647526213713911502622977423 6:0.013843793 11:0.062209405 27:0.080619611 33:0.1532141 37:0.13100316 38:0.22557846 41:0.063745618 72:0.086153187 75:0.056113597 118:0.09065105 142:0.032309078 154:0.10007448 162:0.14995609 199:0.12942222 225:0.1319114 239:0.11736929 276:0.10754409 289:0.12044594 317:0.082512006 349:0.2744787 400:0.24396954 409:0.14140148 441:0.097619548 480:0.10182317 558:0.15368164 655:0.10482511 705:0.47472146 732:0.30297074 827:0.11824861 966:0.41484031 1045:0.071915738 1475:0.20725515 #
-0.46118003957424980043811046925839 6:0.011625171 11:0.20895861 27:0.10154913 37:0.11000843 38:0.18942699 74:0.095301174 75:0.14136229 100:0.071836822 128:0.1249597 142:0.042204063 146:0.10438972 173:0.086891919 184:0.13698743 219:0.097202003 234:0.083394788 257:0.14086637 265:0.10982203 303:0.62320936 352:0.49400997 419:0.14142112 431:0.12962717 499:0.086589575 530:0.095565885 669:0.1756354 698:0.13060871 714:0.12030622 862:0.11185987 #
-0.52617424542537061249447560840053 6:0.0072296727 12:0.048736788 17:0.039395303 29:0.026256762 41:0.16645001 59:0.044892423 65:0.15516745 100:0.044675194 110:0.13954635 142:0.026246632 186:0.041025791 199:0.033794217 211:0.21570571 283:0.054195996 293:0.13685556 311:0.27791628 331:0.056516584 341:0.060406301 457:0.099704422 580:0.065416418 582:0.06097877 598:0.22921807 671:0.044151865 867:0.06355118 1266:0.29547891 1305:0.065754555 1474:0.11137396 1642:0.33584696 1664:0.085807383 1886:0.49826014 2544:0.29271621 2587:0.11804853 3401:0.10922734 4139:0.24698502 4140:0.13102041 6402:0.160108 #
0.11116868760734341381457568331825 6:0.042584319 102:0.40576717 252:0.3073273 505:0.30631858 764:0.39384922 1713:0.70010084 #
-0.45192177304157105099946534210176 8:0.34730196 9:0.26394001 142:0.035788357 212:0.39064482 218:0.19571325 281:0.39827332 582:0.29101467 3143:0.61173362 #
0.14585351321084139009087721206015 6:0.0093095647 15:0.03189541 28:0.13749288 29:0.067621052 31:0.035483077 57:0.13900609 159:0.056005936 172:0.073006488 186:0.052828431 237:0.160004 255:0.086648963 365:0.098638803 404:0.078178771 423:0.070534013 499:0.20802566 535:0.088281706 608:0.30475283 645:0.11845228 884:0.096112423 993:0.10230386 1316:0.38767421 2935:0.44465551 5108:0.19312079 5793:0.18846361 5796:0.18846361 7247:0.18452603 7451:0.18452603 9664:0.43305257 #
-1.0065897684281319701682377854013 11:0.049696662 17:0.16572376 23:0.019887945 29:0.030123821 30:0.016618874 33:0.030599188 37:0.078489967 38:0.022525726 41:0.038192909 48:0.033828296 51:0.018777765 59:0.034336079 63:0.011952291 67:0.01563951 72:0.034412205 74:0.022665495 75:0.01120674 79:0.018749651 83:0.05731051 85:0.01694358 87:0.025757104 94:0.06639085 97:0.1552683 111:0.017290523 118:0.03620879 137:0.022634212 142:0.0071695712 144:0.016437411 148:0.024303636 158:0.019844595 159:0.033266027 162:0.014974257 175:0.026763367 176:0.05732502 178:0.066939898 182:0.028114272 186:0.031378675 199:0.077542759 203:0.020960165 208:0.02071384 209:0.017368091 216:0.024054887 218:0.01568309 226:0.04287618 240:0.024889808 244:0.04068581 246:0.057156399 256:0.018815413 269:0.029523151 271:0.061028112 274:0.11951898 276:0.021478193 284:0.033580638 330:0.027497172 333:0.055785064 336:0.32861167 337:0.084549919 341:0.023100952 365:0.029294405 369:0.04944706 372:0.054585047 375:0.019600032 380:0.033974454 387:0.13661747 403:0.032021686 411:0.1035692 430:0.021518508 433:0.022358321 439:0.02979904 442:0.023527732 459:0.025255736 467:0.034704454 478:0.021681951 479:0.03501733 485:0.038266711 500:0.028612448 501:0.028751012 504:0.029369891 505:0.059663836 506:0.015467648 507:0.014783329 509:0.025663448 526:0.033182133 527:0.026370212 532:0.031968072 576:0.054130413 593:0.026630038 609:0.039158266 613:0.051141866 633:0.028751012 639:0.031809472 640:0.077413112 643:0.13497007 655:0.02093517 658:0.10228373 667:0.026630038 695:0.027292524 715:0.034114942 742:0.02837589 749:0.032184836 763:0.032021686 772:0.025617048 774:0.093046278 824:0.030921768 829:0.020510575 848:0.03055829 868:0.039444491 880:0.032522053 883:0.032240007 886:0.071442105 936:0.097054712 963:0.046915624 976:0.040519074 982:0.030968452 996:0.030783415 1003:0.029219665 1007:0.031914838 1011:0.033182133 1033:0.066239394 1034:0.034859277 1036:0.031254757 1038:0.33039117 1039:0.040355925 1064:0.051234096 1105:0.034704454 1114:0.033836517 1146:0.031654119 1213:0.035178743 1227:0.060422868 1236:0.030470077 1242:0.035097606 1247:0.042812224 1260:0.036912438 1263:0.037553903 1294:0.031402063 1305:0.025146265 1318:0.036610961 1319:0.029182568 1322:0.031062691 1337:0.035597973 1359:0.030692561 1365:0.033437155 1370:0.045454532 1374:0.036912438 1411:0.03501733 1426:0.032814991 1436:0.03712029 1446:0.028856622 1457:0.036610961 1462:0.067948908 1489:0.097223923 1507:0.037896194 1533:0.047226768 1544:0.036226772 1545:0.035343666 1559:0.04019621 1576:0.030647539 1627:0.073824875 1639:0.112002 1651:0.11368858 1664:0.098444976 1677:0.043512981 1680:0.045777395 1687:0.084757224 1758:0.04646752 1760:0.042170759 1788:0.03404437 1800:0.04376173 1802:0.041209202 1838:0.042378612 1853:0.04068581 1854:0.046114612 1866:0.088037826 1922:0.040519074 1943:0.033182133 1951:0.034477983 2001:0.072453544 2042:0.035512254 2045:0.04646752 2058:0.04139201 2088:0.044847317 2120:0.040856294 2140:0.044018913 2142:0.03595088 2171:0.038254663 2185:0.034552727 2206:0.035684671 2218:0.041030694 2246:0.03501733 2256:0.04196845 2311:0.041030694 2339:0.04327213 2402:0.11439984 2446:0.04456101 2515:0.048530452 2541:0.054801762 2564:0.042170759 2571:0.03681061 2575:0.038503412 2596:0.038254663 2616:0.036710128 2646:0.041209202 2656:0.052095972 2659:0.043038692 2666:0.074667998 2723:0.036041733 2740:0.080079578 2779:0.041579332 2783:0.04646752 2787:0.052095972 2838:0.041579332 2933:0.059047092 3004:0.055971172 3030:0.04763693 3055:0.048070543 3214:0.054801762 3271:0.04954344 3274:0.050105635 3307:0.05378877 3471:0.048070543 3492:0.05071285 3574:0.051372934 3734:0.044847317 3845:0.054801762 3852:0.05378877 3981:0.04954344 4008:0.052895252 4080:0.1014257 4202:0.05735429 4238:0.050105635 4305:0.18890707 4394:0.052895252 4398:0.099086881 4704:0.048530452 4893:0.1014257 4923:0.04683765 5369:0.04954344 5411:0.055971172 5493:0.10021127 5504:0.051372934 5618:0.05071285 5709:0.059047092 5919:0.05735429 6089:0.06122949 6099:0.05735429 6108:0.1057905 6189:0.059047092 6383:0.05735429 6737:0.06122949 6988:0.054801762 7001:0.051372934 7694:0.05735429 7696:0.05735429 7880:0.25722164 8200:0.059047092 8340:0.06122949 8666:0.06430541 #
-0.11907704283428074965023313325219 2:0.10654905 12:0.35189679 55:0.26214159 142:0.020304637 441:0.184047 487:0.39810002 784:0.25629792 853:0.27619112 1339:0.31504366 1774:0.44582972 3477:0.40415558 #
-1.0065897684281319701682377854013 6:0.021737279 15:0.024824627 29:0.026315186 63:0.031323392 75:0.029369526 80:0.094355717 83:0.018774221 96:0.04489306 142:0.0037578621 172:0.056821935 243:0.27328402 306:0.056858048 355:0.043608729 473:0.063794799 496:0.060759425 1273:0.097281225 1298:0.12597857 1527:0.1884331 1700:0.10413701 1949:0.09016256 2033:0.14668377 2161:0.19241263 2542:0.10947038 3087:0.1248422 3185:0.11403456 4660:0.84578609 #
0.79382842229670180778100530005759 6:0.0091116214 11:0.081889197 31:0.034728624 60:0.069158159 63:0.019694753 80:0.059326671 96:0.11290702 142:0.0047255526 179:0.049669228 208:0.13652746 276:0.070782699 304:0.27597255 413:0.078782924 427:0.096790276 467:0.11437065 473:0.16044532 496:0.22921692 505:0.13108389 513:0.068183981 574:0.068223827 609:0.064524233 687:0.10252575 737:0.10736854 916:0.1104088 1374:0.12164721 1645:0.10414974 1808:0.27484438 2352:0.33025238 5508:0.6972782 #
-0.28982322966730700297688372302218 6:0.0066190385 12:0.089240737 58:0.044401027 69:0.067152999 118:0.043342367 132:0.040144622 199:0.030939881 318:0.15978962 335:0.26294264 384:0.071728133 408:0.038975745 542:0.18818322 629:0.080842577 641:0.052374542 650:0.11213049 796:0.058183502 819:0.066478886 846:0.1917125 859:0.2071891 913:0.06908346 977:0.091006003 1215:0.077585489 1225:0.059041683 1441:0.086284801 1563:0.11404399 1766:0.34854931 2145:0.49195227 2314:0.10959221 2556:0.11213049 2747:0.14136019 2949:0.19731168 3979:0.23236619 4307:0.12471904 4521:0.12663254 5299:0.13730758 5730:0.11124439 6427:0.13119677 8173:0.33307457 #
0.33677799713244943591305968766392 6:0.027930215 26:0.080593109 27:0.054217391 28:0.068750173 29:0.067624733 64:0.16149728 75:0.037736882 88:0.071090885 142:0.014485423 159:0.056008983 162:0.050423387 185:0.054214798 232:0.082636908 341:0.077788718 430:0.0724601 437:0.083741732 500:0.096347786 550:0.075851738 882:0.069914259 930:0.081513137 960:0.10729004 1017:0.10970701 1055:0.1015898 1243:0.12395377 1377:0.088797428 1625:0.12571621 1740:0.13330954 1838:0.14270312 2444:0.13187672 2976:0.25143242 3071:0.15647186 3523:0.43956879 4857:0.16872261 6732:0.20618041 9643:0.43307614 9721:0.46848923 #
-0.72450217725689780579045873309951 6:0.026461013 10:0.074395254 14:0.08948613 17:0.048063014 22:0.094061814 52:0.14382176 63:0.11439086 75:0.10725547 98:0.057214729 116:0.094433203 142:0.027446905 229:0.1385728 279:0.099864796 286:0.098845154 310:0.36209992 375:0.12505634 402:0.067229398 448:0.07987754 457:0.060820643 522:0.24566774 563:0.27039313 619:0.38779277 658:0.081576578 824:0.098646857 954:0.12052723 1115:0.12407524 1223:0.10838556 1305:0.24066542 1319:0.093098447 1726:0.23820642 1840:0.15638414 1845:0.13960901 1896:0.31969476 3091:0.32356903 #
0.52509829216996095624381268862635 6:0.028113009 26:0.060840428 29:0.051050484 63:0.03038311 73:0.1527445 80:0.091523297 117:0.29024014 142:0.014580226 174:0.1030376 185:0.081854425 259:0.1709985 263:0.20127301 268:0.13525468 317:0.33511925 345:0.10315394 565:0.44853523 592:0.13846476 1229:0.15865475 1401:0.26485929 1482:0.33306208 1495:0.211392 1720:0.1827766 1776:0.16280033 3087:0.24218924 4720:0.24010395 #
-1.0065897684281319701682377854013 33:0.063653558 41:0.15890059 63:0.024863595 100:0.071081541 131:0.15273152 142:0.035794575 204:0.1381087 331:0.089922071 351:0.081632599 457:0.079318561 899:0.63296843 1434:0.24566387 1861:0.22378677 3284:0.36006513 6688:0.50948739 #
-0.22732739236746685174139770424517 6:0.024305815 13:0.10769416 17:0.13244513 26:0.035067424 37:0.038334124 98:0.052554701 119:0.42384675 142:0.0021009506 151:0.063984454 166:0.12090408 179:0.04416525 183:0.071275748 199:0.037871514 203:0.061421067 220:0.12999019 226:0.06282156 286:0.045397203 325:0.072752401 371:0.11320291 372:0.079977229 376:0.30998132 377:0.062357612 384:0.087797791 398:0.063017771 523:0.18993479 530:0.066602804 580:0.07330896 598:0.085624464 646:0.10534943 651:0.10482635 687:0.091164596 896:0.10261378 968:0.22492369 969:0.090612262 1083:0.086856686 1438:0.11210036 1609:0.11320291 1625:0.10940249 1799:0.1395939 1822:0.11517148 1853:0.11922453 1945:0.12357599 3099:0.15054177 4104:0.53827542 5231:0.15054177 #
0.38443601198745463998207583244948 6:0.0084140776 27:0.024499778 34:0.067055993 37:0.039811008 57:0.062817551 60:0.063863724 63:0.018187014 75:0.017052557 80:0.054784894 142:0.004363786 148:0.07396248 172:0.065983996 205:0.066578172 229:0.0440634 237:0.072306611 312:0.076263733 336:0.076927193 405:0.080019608 411:0.063037775 437:0.075682499 505:0.060524356 583:0.13242169 586:0.061851736 644:0.080174036 647:0.076003596 695:0.083058476 704:0.11604981 784:0.082623683 1155:0.097947091 1296:0.085657306 1379:0.088810384 2240:0.22857322 2682:0.12381784 2688:0.4349159 2866:0.11532829 2912:0.13738789 3184:0.1331787 4164:0.15854202 4909:0.15634163 6249:0.16369367 7015:0.32738733 8923:0.18633777 8977:0.37267554 9778:0.42340219 #
0.1448582839878269357125617489146 27:0.09059564 111:0.1945779 134:0.22283496 142:0.016136473 176:0.16127595 204:0.18678142 515:0.22479196 693:0.36995649 1731:0.38633829 3350:0.49836007 4784:0.508035 #
0.1002223045683174468267750967243 6:0.01877738 15:0.064332999 26:0.16254736 27:0.054675229 31:0.035784662 63:0.020293636 64:0.16286103 94:0.056362074 97:0.058584001 134:0.13448277 137:0.076860659 142:0.038953986 174:0.068821378 176:0.048665699 179:0.10235917 192:0.075821772 198:0.081748948 226:0.0727989 265:0.088694185 286:0.052607197 317:0.055958629 457:0.064739719 808:0.09799055 862:0.090339981 991:0.099733494 1607:0.12147488 2161:0.12465929 4887:0.30660337 5829:0.36530897 5869:0.60153168 6556:0.1796203 8291:0.41584298 #
-0.060342334482789777849731649439491 1:0.39866206 2:0.19053353 3:0.23793423 4:0.20188598 5:0.065509357 7:0.14490831 21:0.070586815 26:0.30302262 44:0.20209104 47:0.055227149 63:0.12610543 66:0.109508 75:0.047295723 142:0.14221115 162:0.1263915 169:0.17010631 189:0.087316349 199:0.10908439 228:0.088247411 256:0.15881312 269:0.12459635 314:0.093112759 472:0.10630861 537:0.26099783 640:0.21780401 1394:0.30268872 3700:0.18926881 3707:0.21986026 8276:0.2584064 #
-0.032519018285705761361903398665163 6:0.027701041 17:0.25157681 21:0.055858534 37:0.043688934 111:0.057745304 139:0.075539589 146:0.24874507 164:0.10785784 203:0.070000842 216:0.16067262 258:0.087562099 271:0.2038161 275:0.062092781 335:0.12226994 341:0.077150442 347:0.075853676 376:0.11776064 380:0.11346477 411:0.069178186 449:0.10554492 463:0.11346477 473:0.081297316 479:0.11694767 594:0.26523709 714:0.095557235 740:0.13221571 810:0.13587874 882:0.069340594 886:0.079531938 914:0.11831749 951:0.12036888 1058:0.10358248 1149:0.26575768 1563:0.15909347 1854:0.15400936 1989:0.14977695 2274:0.46927229 2558:0.15400936 3673:0.15772364 3961:0.15642409 3994:0.16936614 4520:0.17963882 #
0.13230519207055640995562839634658 6:0.028261933 15:0.032275978 26:0.040775146 29:0.034213945 31:0.035906453 67:0.10657798 68:0.057833064 85:0.057732388 142:0.0048858207 153:0.081707664 174:0.13811122 256:0.064110346 275:0.12670007 373:0.26900598 389:0.16057344 505:0.067764811 506:0.1054068 507:0.050371699 713:0.094201818 719:0.1013988 800:0.083077013 808:0.19664812 1058:0.10567982 1228:0.11600044 1500:0.2150182 1604:0.12648113 1643:0.12612459 1786:0.12612459 2055:0.14512613 2303:0.13076662 2344:0.62391496 2402:0.12993272 4839:0.38142464 5880:0.20119299 #
0.15592090050583698457309367313428 6:0.028908746 17:0.019690877 26:0.15640628 27:0.021043833 28:0.10673825 29:0.091867067 32:0.027088678 37:0.034195259 41:0.049917832 48:0.022106659 60:0.027427549 63:0.0078107752 67:0.020440718 88:0.02759308 97:0.022548273 134:0.10352159 140:0.051070739 142:0.0046852869 153:0.03134162 174:0.052977033 232:0.03207453 255:0.03363359 274:0.039052594 284:0.043889631 331:0.056497145 355:0.086993888 373:0.051592976 420:0.036745135 469:0.041782022 475:0.058562692 527:0.034465663 530:0.029705908 558:0.080229871 561:0.032022208 586:0.02656346 598:0.038189873 757:0.58366132 799:0.10936596 903:0.040233683 936:0.042283248 965:0.036094733 987:0.029501466 1015:0.090320282 1059:0.033125017 1080:0.10961179 1122:0.22067571 1140:0.073406421 1294:0.041042253 1312:0.046987519 1359:0.040114935 1497:0.043873053 1579:0.090716898 1744:0.049683753 1808:0.072667323 1969:0.049378652 1979:0.053398855 2054:0.11250247 2062:0.57880306 2190:0.055667829 2398:0.21014453 2864:0.053398855 2975:0.15410493 4238:0.065487675 4787:0.064752892 #
-1.0065897684281319701682377854013 6:0.013937709 11:0.12526286 63:0.12050533 77:0.10509846 85:0.085414246 86:0.10827367 118:0.18253204 120:0.23224176 142:0.057828017 186:0.079091482 192:0.11255903 199:0.19545032 237:0.23954816 242:0.097662471 276:0.10827367 296:0.12568441 304:0.42214495 339:0.10840904 349:0.13817038 409:0.071180373 436:0.36932975 586:0.20491171 657:0.14476083 761:0.14172679 847:0.14863446 856:0.10460421 1067:0.14824818 1271:0.17775291 1710:0.38819891 1746:0.1628052 #
0.35176270127170244927938824730518 6:0.011520098 15:0.039468896 31:0.043908447 42:0.13784678 57:0.086006373 80:0.15001701 158:0.082686037 159:0.069304407 199:0.053849284 205:0.091155216 252:0.083139546 255:0.10722354 337:0.08807306 346:0.095978759 351:0.081754334 365:0.12206034 608:0.50282085 641:0.091155216 665:0.14244276 1169:0.12982583 1174:0.20425075 1703:0.35315603 2040:0.15694331 3366:0.36904365 8419:0.49206039 #
0.048490318963204881441697580157779 6:0.034259867 26:0.14828615 27:0.057003725 31:0.037308648 33:0.02708328 63:0.031736847 67:0.13842499 75:0.029757189 96:0.030323749 142:0.024113938 144:0.058194879 185:0.028500499 199:0.022877647 208:0.036667556 274:0.052893005 308:0.036162332 337:0.037417483 351:0.034732994 387:0.069097057 408:0.028819548 423:0.074162915 480:0.071996123 565:0.052057777 580:0.04428491 593:0.3299827 598:0.051724531 613:0.045265563 641:0.038726922 643:0.039820582 644:0.046635307 657:0.050833184 717:0.049598143 727:0.10479899 764:0.045265563 827:0.041805033 1027:0.051144775 1281:0.063324116 1340:0.065710194 1395:0.052261762 1433:0.047187261 1502:0.84096336 1506:0.06861385 1558:0.058962703 1598:0.051207971 1726:0.066088498 1836:0.052193422 1943:0.058738884 2433:0.066676721 2646:0.072948366 2731:0.071437895 2771:0.070606977 3553:0.078393348 3589:0.077466838 #
-0.28959243427019415451084682899818 6:0.013719414 9:0.052475419 12:0.13872831 17:0.037379317 34:0.054668438 41:0.063172892 57:0.051212981 83:0.035547871 100:0.04238902 109:0.15097992 115:0.092361346 119:0.21531624 142:0.0035576441 144:0.040782396 145:0.057563867 162:0.037152205 183:0.060347382 220:0.055029713 227:0.19503735 252:0.14851773 258:0.13009988 275:0.046128768 277:0.062121946 284:0.041657984 288:0.07124678 295:0.058243733 296:0.18557389 306:0.053828664 325:0.12319525 345:0.050340097 349:0.06800317 391:0.070989534 393:0.32208377 394:0.12781045 405:0.065237224 411:0.15417756 438:0.076489583 460:0.093452774 623:0.095218606 688:0.076150447 715:0.084641613 719:0.073834233 744:0.084641613 799:0.069203369 811:0.077910773 834:0.06912607 848:0.15163462 867:0.060299058 868:0.097864613 873:0.079315081 913:0.071595341 1080:0.069358923 1145:0.090115033 1169:0.077305518 1301:0.090115033 1371:0.20539308 1381:0.10514437 1421:0.09616781 1438:0.18982512 1440:0.084996752 1449:0.087898143 1553:0.09552972 1561:0.091329761 1682:0.09616781 1705:0.10269654 1749:0.10736126 1754:0.097167432 1776:0.079448096 1952:0.09616781 2005:0.12040753 2218:0.10180009 2257:0.098961338 2307:0.09616781 2435:0.10094441 2694:0.20106146 2786:0.117173 2803:0.23638128 2904:0.12292083 3495:0.11926647 4189:0.10678208 5299:0.1423001 5369:0.12292083 #
0.4733139351347567802541504988767 6:0.012360145 29:0.04488964 31:0.047110256 63:0.026716432 75:0.025049934 80:0.080478132 108:0.22883619 142:0.016025828 158:0.088715509 165:0.12000868 174:0.090602867 179:0.067377567 325:0.11098953 345:0.090705171 490:0.1279123 498:0.12700383 531:0.27815753 641:0.19560453 731:0.14243934 1018:0.26825252 1080:0.12497419 1140:0.12554181 1627:0.16501752 2223:0.15690428 4656:0.22966333 6239:0.70940661 #
0.93209823053653495517067995024263 147:0.36548778 204:0.17041031 387:0.20038065 742:0.29133797 916:0.34397104 995:0.4442791 1046:0.31892362 5477:0.54308057 #
