SVM-light Version V6.02
0 # kernel type
3 # kernel parameter -d 
1 # kernel parameter -g 
1 # kernel parameter -s 
1 # kernel parameter -r 
empty# kernel parameter -u 
9253 # highest feature index 
10 # number of training documents 
11 # number of support vectors plus 1 
0.02183042 # threshold b, each following line is a SV (starting with alpha*y)
-0.97032103064094066269262839341536 6:0.019937159 27:0.019350741 31:0.025329925 37:0.031444062 42:0.11928168 83:0.03443896 127:0.066094264 142:0.0086166598 162:0.035993244 190:0.056980081 202:0.16503957 286:0.074475288 323:0.056850906 386:0.052928429 408:0.039132856 411:0.049789339 480:0.048880257 500:0.068775021 506:0.037179198 555:0.076585822 594:0.063632675 663:0.062197074 673:0.067195281 782:0.075720288 834:0.066969693 923:0.44677126 1146:0.076086208 1191:0.5542227 1225:0.059279677 1302:0.094811738 1305:0.060443446 1379:0.070145406 1544:0.087077379 1936:0.089480147 2451:0.31556693 2796:0.1145037 2833:0.20080972 6242:0.1545693 6574:0.28386003 7639:0.29435158 #
-0.99196521664488257474801002899767 6:0.019222531 12:0.25916648 27:0.027985701 29:0.10471873 31:0.036633 39:0.19306317 42:0.2300123 57:0.071755476 86:0.074664138 137:0.07868278 140:0.13583556 142:0.012461706 165:0.18663782 243:0.090625599 286:0.053854346 317:0.057285227 409:0.049085073 414:0.071014881 439:0.20717941 527:0.091670156 537:0.10749261 674:0.12726983 720:0.095690988 782:0.10950926 884:0.099227197 922:0.13662702 1088:0.24690083 1315:0.58638889 1335:0.1033121 1595:0.12037724 1948:0.14454125 2241:0.13429174 2305:0.15394732 2359:0.1722267 2629:0.15913488 2884:0.16030714 5990:0.18698464 #
-0.99880593424229680010739684803411 6:0.041840289 29:0.06078231 73:0.090931199 97:0.052215409 142:0.0065098777 200:0.080840364 204:0.050235029 254:0.24227899 272:0.26339483 306:0.065664813 321:0.22221547 339:0.065087676 348:0.08313407 398:0.065087676 462:0.10282788 485:0.11581893 519:0.20010684 724:0.097916022 837:0.090806074 838:0.11021884 844:0.09169662 846:0.12118537 849:0.20915619 1193:0.10200039 1280:0.11021884 1334:0.12957649 1536:0.2751475 1653:0.12891091 1743:0.12418447 2014:0.14549144 2402:0.11541508 2403:0.50337994 2575:0.11653533 2857:0.14293765 2860:0.13026191 2915:0.13403438 3274:0.15165089 3799:0.16279836 3804:0.16940366 5045:0.18531862 #
-1.0000000015970726963132619857788 1:0.25735265 2:0.16399623 3:0.10239751 4:0.086883768 7:0.12472565 15:0.068817705 20:0.33991829 26:0.086939327 30:0.36220789 83:0.052045044 142:0.052086871 144:0.11941765 518:0.17517033 641:0.15893762 1045:0.10434465 1332:0.24682409 1463:0.29558206 1932:0.51849765 3425:0.33257237 #
-0.96906400773020662242629441607278 6:0.028159948 12:0.03796646 25:0.1268063 27:0.016399004 37:0.053295247 41:0.10373303 63:0.012173535 73:0.12239963 83:0.014592841 84:0.033053882 101:0.054738309 111:0.035221163 113:0.060297783 138:0.047227133 142:0.0043813707 159:0.067763604 176:0.029193072 178:0.045452666 189:0.042145241 208:0.042194534 214:0.048251834 215:0.035879526 218:0.031946789 248:0.20554081 263:0.64514899 301:0.051047374 337:0.043057494 341:0.047057129 366:0.071009092 423:0.042670824 433:0.045544378 454:0.056194488 502:0.077750325 550:0.045885384 576:0.0551324 638:0.068787113 789:0.057870217 796:0.099014044 803:0.070384637 829:0.041780476 904:0.068649754 964:0.067465529 974:0.072339214 981:0.066844836 1045:0.058514122 1115:0.079224914 1198:0.067090131 1199:0.081561908 1213:0.071659848 1227:0.061541334 1344:0.089143582 1366:0.18309553 1454:0.10774875 1482:0.066723637 1491:0.064690366 1567:0.082538217 1587:0.090771727 1598:0.058926653 1708:0.20184208 2001:0.073794708 2084:0.085490629 2106:0.076498106 2184:0.18270987 2308:0.083944023 2756:0.09324953 2808:0.39941955 4078:0.12472578 #
1.0000000015970726963132619857788 6:0.019840326 15:0.033987373 29:0.036028098 31:0.037810348 41:0.045678727 63:0.021442413 74:0.08132381 75:0.020104894 81:0.060399663 142:0.010289771 172:0.077794857 174:0.072717197 179:0.054076742 180:0.076445669 186:0.11258671 187:0.092501171 205:0.15699077 229:0.051950566 255:0.09233211 308:0.073297232 318:0.11974088 408:0.058414184 409:0.050662618 465:0.084354579 480:0.072964273 519:0.1186113 664:0.11214209 679:0.37438783 720:0.098766401 768:0.1239752 922:0.14101808 977:0.13639358 1018:0.10764876 1305:0.18044963 1581:0.14152686 1677:0.15612461 1817:0.14101808 2162:0.17092134 2314:0.16424933 2358:0.50834906 2419:0.15058282 3266:0.33889937 3374:0.1667255 8311:0.21969146 #
0.96120180614647154904162107413867 6:0.029241806 11:0.043800984 15:0.050092533 26:0.021094432 27:0.014190854 31:0.037151366 63:0.031603053 67:0.027568288 75:0.019754495 81:0.059346981 92:0.032173187 94:0.029257344 97:0.030410737 142:0.0063190218 153:0.04227028 173:0.036427803 174:0.14289969 176:0.10104873 185:0.028380351 198:0.042435575 199:0.022781203 205:0.077127323 208:0.036512978 209:0.030615317 215:0.031048298 219:0.040750112 226:0.037789639 229:0.025522571 284:0.029596858 292:0.048058696 308:0.036009885 327:0.040986799 346:0.12181286 355:0.058664102 408:0.028698055 412:0.049671777 427:0.051771287 432:0.045781996 436:0.043048158 440:0.055008356 483:0.047319703 505:0.035057146 508:0.037813161 515:0.035211299 571:0.038464423 696:0.1075763 732:0.053329621 764:0.045074739 840:0.06158619 852:0.096732236 863:0.051506482 881:0.055529423 947:0.17786445 998:0.05394455 1235:0.057126619 1526:0.078549184 1552:0.069530129 1717:0.49145913 1936:0.065620206 1960:0.094815269 1984:0.083971217 2055:0.075078912 2387:0.066197522 2393:0.076277234 2657:0.078549184 2771:0.070309319 3253:0.64281917 4326:0.081287771 4687:0.098662257 6813:0.098662257 7903:0.1133533 7909:0.22670661 8317:0.1133533 #
0.98132216624163348672738038658281 6:0.028662087 26:0.12405741 29:0.052047554 31:0.054622263 63:0.030976525 67:0.24319573 88:0.10943058 142:0.018581241 192:0.11573554 255:0.13338646 345:0.10516864 375:0.20318811 377:0.11030072 386:0.11413656 404:0.12034755 586:0.21069449 643:0.11659979 644:0.13655418 726:0.13206963 764:0.1325434 772:0.13278243 827:0.12241051 833:0.18634643 1155:0.16682565 1242:0.1819236 1296:0.14589342 1744:0.19703934 1880:0.20023799 2383:0.22816595 3568:0.48171595 3997:0.25408867 8877:0.30606243 #
0.99810570866717895910369406919926 6:0.01616648 17:0.017618595 26:0.069972984 27:0.018829167 31:0.012323594 41:0.014888148 48:0.019780139 63:0.0069887638 75:0.0065528238 88:0.074067496 94:0.019410087 96:0.020032758 97:0.020175276 102:0.24646921 134:0.023156725 140:0.02284801 142:0.0083844084 153:0.056086414 172:0.050711628 180:0.024916071 198:0.05630574 215:0.020598251 226:0.025070632 239:0.02741226 252:0.023334416 275:0.10871307 289:0.056261655 299:0.16059849 308:0.023889897 312:0.029306032 351:0.022945635 373:0.023081647 405:0.03074931 406:0.060632929 409:0.016512558 423:0.024497099 437:0.02908268 475:0.026199756 480:0.023781376 485:0.022375377 505:0.023257827 506:0.01808854 507:0.034576535 631:0.021699859 641:0.025584141 671:0.019745853 681:0.035380263 742:0.033183996 755:0.033746187 761:0.032878049 790:0.048849285 799:0.032618739 800:0.028513186 882:0.024280533 895:0.067245364 903:0.035999462 1017:0.076200329 1045:0.016796328 1083:0.034662493 1159:0.065756097 1324:0.038587354 1359:0.035893213 1418:0.041044664 1424:0.030066544 2577:0.046469361 3929:0.11243156 4871:0.054773983 5003:0.057938252 7708:0.061858002 9253:0.89485931 #
0.98952584978069335619466073694639 6:0.026612293 12:0.044849806 15:0.022794031 26:0.028796336 27:0.038744308 29:0.024162665 31:0.025357954 63:0.014380606 64:0.057703812 80:0.043318819 134:0.047649018 139:0.054427966 142:0.01552715 150:0.11604101 172:0.052174032 174:0.048768643 176:0.068971589 186:0.037753798 229:0.034841254 277:0.060250655 320:0.063150801 345:0.048823711 414:0.049157649 478:0.052174032 510:0.060147811 557:0.062614731 565:0.070765287 683:0.080460988 715:0.32836786 794:0.077713981 827:0.056828111 997:0.063272089 1159:0.067652352 1341:0.076418772 1426:0.078963853 1509:0.084072262 1665:0.071706466 1846:0.087400511 1980:0.082611099 3070:0.10412723 3945:0.12203209 6213:0.11567382 8233:0.13468537 9239:0.83696812 #
