SVM-light Version V6.02
0 # kernel type
3 # kernel parameter -d 
1 # kernel parameter -g 
1 # kernel parameter -s 
1 # kernel parameter -r 
empty# kernel parameter -u 
2041 # highest feature index 
10 # number of training documents 
11 # number of support vectors plus 1 
-0.39592763 # threshold b, each following line is a SV (starting with alpha*y)
-41.530345357093175095997139578685 85:0.0030452611 620:0.12299311 1923:0.08932434 2041:0.00016879597 #
-27.779402076276799249399118707515 85:0.0030452611 620:0.12299311 672:0.11182532 2041:0.00016879597 #
-41.530345357093175095997139578685 85:0.0027914895 1131:0.12409534 1642:0.071395002 1823:0.099488862 2041:0.00015472964 #
-41.530345357093175095997139578685 85:0.0023927053 366:0.013031206 717:0.097854115 1411:0.078938559 1588:0.057268277 1642:0.061195716 2041:0.0001326254 #
-41.530345357093175095997139578685 85:0.0023927053 366:0.013031206 1411:0.078938559 1574:0.10719471 1588:0.057268277 1642:0.061195716 2041:0.0001326254 #
38.886309627892970297580177430063 85:0.0025767596 1012:0.12029058 1156:0.032653 2041:0.00014282735 #
30.423442398207150461075798375532 85:0.0027914895 1588:0.066812992 1642:0.071395002 1887:0.10147244 2041:0.00015472964 #
41.530345357093175095997139578685 85:0.0023927053 366:0.013031206 717:0.097854115 1411:0.078938559 1588:0.057268277 1642:0.061195716 2041:0.0001326254 #
41.530345357093175095997139578685 85:0.0027914895 1131:0.12409534 1642:0.071395002 1823:0.099488862 2041:0.00015472964 #
41.530345357093175095997139578685 85:0.0023927053 366:0.013031206 1411:0.078938559 1574:0.10719471 1588:0.057268277 1642:0.061195716 2041:0.0001326254 #
