SVM-light Version V6.02
0 # kernel type
3 # kernel parameter -d 
1 # kernel parameter -g 
1 # kernel parameter -s 
1 # kernel parameter -r 
empty# kernel parameter -u 
1112 # highest feature index 
106 # number of training documents 
95 # number of support vectors plus 1 
0.85249433 # threshold b, each following line is a SV (starting with alpha*y)
-17.353965058537141885608434677124 35:0.013554723 87:0.011877663 118:0.05786588 161:0.019288627 183:0.0058126906 219:0.019288627 249:0.019288627 251:0.019288627 255:0.0030260542 309:0.0012686787 318:0.0063197906 342:0.019288627 447:0.00482659 505:0.011240074 512:0.00059955689 523:0.012766087 529:0.016421676 546:0.014744615 555:0.018021422 596:0.008087758 604:0.014744615 636:0.01068777 648:0.019288627 717:0.032843351 748:0.011240074 765:0.019288627 774:0.0065036495 779:0.019288627 788:0.0091664344 805:0.019288627 815:0.04685301 833:0.0027522338 841:0.0090107108 921:0.0032768061 930:0.018021422 948:0.0083731217 964:0.0073336512 992:0.01068777 1048:0.0053610271 1049:0.019288627 1064:0.0071100215 1066:0.01068777 1079:0.0083731217 #
-6.2366655409843883006715259398334 18:0.021826277 31:0.021826277 41:0.016789062 116:0.019597273 136:0.019597273 183:0.0077257282 239:0.016789062 272:0.019597273 309:0.0016862185 345:0.019597273 387:0.019597273 421:0.015786767 462:0.021826277 512:0.00053125294 518:0.019597273 579:0.019597273 612:0.008644091 616:0.021826277 679:0.012978556 773:0.01801577 833:0.0018290161 904:0.019597273 955:0.0056395223 964:0.0097472575 977:0.025636783 1005:0.011976261 1015:0.0097472575 1037:0.01801577 1048:0.0071254158 1063:0.01801577 1082:0.021826277 1084:0.021826277 1090:0.015786767 1098:0.019597273 #
-6.4735771109947348733726357750129 8:0.018752832 68:0.018752832 78:0.015965518 152:0.015965518 153:0.018752832 156:0.018752832 166:0.018752832 180:0.0084385416 181:0.037505664 199:0.018752832 210:0.018752832 241:0.018752832 262:0.018752832 280:0.018752832 293:0.018752832 318:0.006144241 416:0.018752832 424:0.018752832 445:0.018752832 448:0.015965518 493:0.018752832 499:0.018752832 512:0.00058290252 523:0.012411473 605:0.018752832 620:0.018752832 673:0.018752832 684:0.029751759 715:0.015965518 738:0.018752832 756:0.018752832 788:0.0044559059 811:0.018752832 865:0.018752832 883:0.028670086 886:0.018752832 916:0.031931035 964:0.0071299383 1097:0.018752832 #
-11.072817121724749966915624099784 6:0.0077024112 21:0.0077024112 30:0.010076148 86:0.0077024112 93:0.0062047495 102:0.010076148 107:0.0058716806 132:0.0085784867 151:0.0093334001 178:0.0048950906 180:0.0045341416 191:0.0085784867 225:0.010076148 247:0.010076148 255:0.0047423239 260:0.02573546 261:0.010076148 307:0.010076148 309:0.00066274259 318:0.0033013832 325:0.0198083 330:0.0039545121 346:0.010076148 350:0.020152297 362:0.018136567 390:0.010076148 436:0.040304594 487:0.0085784867 488:0.0038310117 489:0.030228445 512:0.00041760181 523:0.0083360644 530:0.0039545121 532:0.0043740189 550:0.0077024112 565:0.0077024112 569:0.0077024112 607:0.010076148 628:0.0085784867 643:0.010076148 683:0.010076148 684:0.0053286734 720:0.010076148 724:0.0085784867 754:0.0055831634 771:0.043433245 780:0.010076148 783:0.0028763574 788:0.007182654 807:0.007080825 833:0.0043132021 848:0.017156973 872:0.010076148 895:0.0085784867 900:0.0065986859 917:0.0077024112 920:0.010076148 922:0.0053286734 950:0.010076148 957:0.007080825 966:0.010076148 1012:0.010076148 1015:0.011493036 1031:0.0085784867 1041:0.0085784867 1064:0.0074283807 1077:0.010076148 1086:0.010076148 1101:0.010076148 1106:0.049565777 1111:0.0085784867 #
-8.1977992399094929965031042229384 82:0.038948189 95:0.027370114 151:0.0090192957 163:0.033159152 180:0.017526202 239:0.025506459 255:0.0061103017 273:0.038948189 285:0.038948189 286:0.038948189 309:0.002561755 362:0.052578606 512:0.00080709584 515:0.038948189 565:0.029772781 575:0.025506459 631:0.038948189 711:0.033159152 776:0.017526202 809:0.038948189 914:0.038948189 1085:0.033159152 #
52.158625282258789468414761358872 19:0.014891955 29:0.019017749 41:0.0048762346 85:0.0074459775 97:0.0052325218 107:0.0086779986 137:0.01340239 165:0.0039377329 175:0.0037695069 176:0.0063392497 178:0.0072346558 183:0.0022438695 190:0.0045851273 226:0.0043389993 318:0.0048792502 330:0.0029222681 335:0.0056918552 379:0.0074459775 388:0.010465044 389:0.0052325218 400:0.0063392497 421:0.0045851273 428:0.0074459775 429:0.0074459775 432:0.0041257935 460:0.014891955 461:0.0074459775 463:0.014891955 465:0.0074459775 472:0.0074459775 474:0.0074459775 487:0.0063392497 505:0.0043389993 512:0.00030859545 523:0.0061601065 544:0.0058445362 546:0.0056918552 549:0.011308521 551:0.0056918552 554:0.010465044 555:0.0069567985 580:0.0045851273 612:0.0025106 702:0.014891955 718:0.0067011951 750:0.0074459775 754:0.0082515869 758:0.01138371 762:0.014891955 774:0.0050212 777:0.0063392497 783:0.0063766306 788:0.0035385133 796:0.010465044 802:0.039842986 815:0.0036173279 820:0.0056918552 833:0.0047809943 839:0.0074459775 841:0.0034783992 857:0.014891955 862:0.0045851273 866:0.0056918552 921:0.005059774 930:0.0034783992 945:0.014891955 948:0.0064645428 955:0.0049138484 964:0.002831005 968:0.01138371 990:0.0048762346 997:0.0063392497 1015:0.01132402 1030:0.0052325218 1039:0.014891955 1042:0.0056918552 1045:0.0074459775 1048:0.0020695142 1051:0.0079883365 1053:0.0032322714 1064:0.005489355 1066:0.0041257935 1067:0.018847534 1073:0.0033505976 1087:0.0048762346 1090:0.0045851273 #
52.158625282258789468414761358872 22:0.018411871 77:0.010729162 95:0.012938599 99:0.018411871 151:0.0085273338 158:0.011337769 165:0.0097369393 176:0.015675236 194:0.018411871 206:0.018411871 213:0.012938599 229:0.012938599 255:0.0028885063 309:0.0012110114 320:0.025877198 325:0.012065055 357:0.018411871 389:0.012938599 512:0.0003815362 544:0.014451944 549:0.0093209622 580:0.011337769 597:0.0097369393 604:0.014074406 612:0.0062080291 613:0.020403925 718:0.016570227 743:0.025877198 754:0.010201963 788:0.0043748892 833:0.0013135661 862:0.011337769 921:0.0031278601 947:0.010201963 979:0.018411871 1025:0.0097369393 1035:0.018411871 1043:0.018411871 1053:0.0079925256 1067:0.018641924 1079:0.0079925256 1100:0.014074406 #
52.158625282258789468414761358872 137:0.015713146 165:0.01846661 209:0.069838136 432:0.019348549 512:0.0010854048 523:0.01155551 544:0.027408861 555:0.032624986 569:0.026692837 612:0.011773848 841:0.016312493 906:0.029728895 921:0.0059321485 926:0.034919068 930:0.016312493 1023:0.026692837 1030:0.024538722 1064:0.01287159 #
52.158625282258789468414761358872 21:0.010460706 50:0.013684499 96:0.011650513 107:0.0079743769 137:0.02463142 165:0.0072369147 223:0.011650513 234:0.011650513 255:0.0021468627 284:0.013684499 301:0.013684499 309:0.00090007612 316:0.011650513 320:0.019233052 325:0.0089672711 383:0.011650513 413:0.013684499 435:0.011650513 438:0.011650513 488:0.0052029281 512:0.0004253613 523:0.0090570208 532:0.011880782 544:0.01074131 583:0.011650513 596:0.0057379366 612:0.0046140756 613:0.015165079 704:0.027368998 718:0.006157855 728:0.013684499 736:0.010460706 743:0.019233052 754:0.015165079 771:0.025280161 776:0.01231571 788:0.0097548207 795:0.011650513 820:0.010460706 824:0.013684499 830:0.0084267203 833:0.0019525983 871:0.011650513 900:0.0089617288 907:0.013684499 921:0.0046495218 928:0.011650513 941:0.013684499 947:0.0075825397 955:0.0030102856 968:0.010460706 988:0.013684499 1015:0.0052029281 1023:0.010460706 1051:0.004893756 1054:0.011650513 1060:0.013684499 1073:0.006157855 #
52.158625282258789468414761358872 70:0.023457343 87:0.018896282 137:0.013808523 177:0.023457343 255:0.0096283546 276:0.023457343 309:0.0020183525 362:0.013808523 388:0.021564331 432:0.017003272 447:0.0076786657 467:0.030686453 512:0.0009538405 519:0.021564331 523:0.010154842 555:0.028670443 587:0.023457343 774:0.010346715 796:0.021564331 841:0.014335222 873:0.018896282 915:0.023457343 930:0.028670443 955:0.0067503373 1051:0.010973877 1064:0.011311398 1067:0.031069875 1073:0.013808523 #
-12.479554016529883497810260450933 53:0.028266817 98:0.02174321 134:0.028266817 201:0.028266817 303:0.033201735 306:0.028266817 320:0.046663798 325:0.010878328 512:0.0017200403 523:0.010987206 543:0.029880738 622:0.028266817 625:0.01934767 664:0.033201735 688:0.056533635 712:0.05076015 743:0.046663798 782:0.033201735 884:0.033201735 889:0.028266817 947:0.018396981 1010:0.023331899 1017:0.033201735 #
-8.6808657426717275029659504070878 3:0.0098722223 7:0.02596546 36:0.022106102 51:0.010528024 253:0.088424407 255:0.0040735346 304:0.022106102 309:0.0017078368 318:0.008507411 384:0.02596546 447:0.0064973324 456:0.02596546 475:0.03969704 512:0.00053806388 523:0.008592559 524:0.022106102 543:0.011684135 549:0.013144947 596:0.010887367 621:0.02596546 632:0.02596546 684:0.013731581 712:0.01984852 713:0.022106102 718:0.011684135 736:0.01984852 775:0.022106102 788:0.0061697154 802:0.07939408 848:0.022106102 874:0.022106102 955:0.0057118242 975:0.02596546 1064:0.0095711825 #
-0.67089643287376699021251624799334 201:0.027369458 306:0.027369458 318:0.010532985 320:0.045182407 329:0.027369458 391:0.027369458 512:0.0013323487 523:0.015957609 543:0.014466072 568:0.032147713 612:0.032518245 679:0.11392287 688:0.054738916 712:0.024574358 743:0.045182407 788:0.0076386956 853:0.021052951 947:0.017812951 1005:0.030035703 1019:0.064295426 #
-2.3174486893123287245543906465173 73:0.051606152 165:0.035702113 203:0.057475861 512:0.0013989661 523:0.011170326 543:0.03037875 544:0.026495231 837:0.067510195 889:0.057475861 924:0.067510195 987:0.078680523 #
-9.7330590482229624171850446145982 151:0.010907055 265:0.036004294 309:0.0030979363 398:0.040099438 511:0.094200276 512:0.00097602286 526:0.047100138 544:0.03697009 550:0.036004294 555:0.022002898 561:0.047100138 783:0.013445298 827:0.047100138 833:0.0033602854 880:0.047100138 921:0.0080015026 1000:0.047100138 #
52.158625282258789468414761358872 3:0.0071965735 20:0.018928092 23:0.018928092 51:0.0076746345 79:0.018928092 103:0.016114729 127:0.018928092 138:0.037856184 140:0.018928092 141:0.018928092 142:0.018928092 158:0.011655651 160:0.018928092 172:0.018928092 212:0.018928092 222:0.018928092 289:0.018928092 309:0.0012449651 324:0.018928092 330:0.0074285697 386:0.018928092 421:0.011655651 447:0.0047363732 488:0.0071965735 496:0.018928092 512:0.00039223349 548:0.0088422857 556:0.018928092 586:0.018928092 651:0.018928092 657:0.012395662 666:0.018928092 697:0.018928092 709:0.018928092 754:0.010487999 773:0.013301363 783:0.016209753 784:0.018928092 786:0.018928092 794:0.016114729 833:0.0040511852 878:0.018928092 890:0.018928092 901:0.018928092 915:0.014469015 919:0.018928092 955:0.0083275186 984:0.018928092 1063:0.013301363 #
52.158625282258789468414761358872 81:0.01539532 86:0.013823077 93:0.011135309 124:0.018083088 131:0.018083088 139:0.013823077 155:0.018083088 185:0.018083088 191:0.046185959 255:0.0056738518 309:0.0011893862 325:0.017774412 327:0.013823077 330:0.0070969369 341:0.013823077 343:0.01539532 362:0.0081371656 370:0.01539532 403:0.012707553 439:0.011842284 441:0.013823077 488:0.006875298 490:0.013823077 512:0.00037472305 530:0.014193874 537:0.018083088 548:0.0084475409 563:0.018083088 613:0.02003957 629:0.013823077 708:0.018083088 753:0.01539532 768:0.013823077 776:0.0081371656 783:0.015486103 833:0.0090307668 835:0.018083088 882:0.01539532 897:0.023684569 955:0.0039778776 964:0.013750596 983:0.018083088 1015:0.013750596 1048:0.0050259633 1051:0.0064667487 1067:0.02746355 1079:0.0078498023 1110:0.018083088 #
52.158625282258789468414761358872 130:0.037081201 151:0.005043047 208:0.021777483 213:0.015303719 234:0.0185406 245:0.06533245 328:0.021777483 407:0.055621803 512:0.0015794778 523:0.010809993 548:0.010173383 612:0.0073428298 613:0.012066837 665:0.055621803 692:0.0185406 710:0.021777483 739:0.021777483 749:0.021777483 833:0.0015536804 836:0.021777483 915:0.033294294 928:0.0185406 1002:0.021777483 1023:0.016647147 #
52.158625282258789468414761358872 51:0.020028925 252:0.049397703 255:0.0077496511 292:0.08411102 309:0.0032490552 388:0.034713313 447:0.012360779 512:0.00051181688 833:0.0035242017 861:0.049397703 955:0.021732794 1048:0.013729461 1067:0.02500746 1087:0.032349654 1096:0.04205551 #
43.978534625768361365771852433681 29:0.10142799 110:0.039711881 255:0.0062301117 292:0.067618661 309:0.0026119854 394:0.030356562 410:0.039711881 480:0.039711881 512:0.00041146061 770:0.024454013 796:0.027906781 833:0.008499545 948:0.017238781 955:0.0087357303 1022:0.039711881 1048:0.011037409 1053:0.017238781 1067:0.020104036 1096:0.03380933 #
-40.379298171156385421909362776205 151:0.0088491198 165:0.010104371 196:0.019106658 213:0.026853696 248:0.019106658 254:0.019106658 331:0.019106658 347:0.014605516 407:0.04880026 423:0.013426848 426:0.019106658 488:0.0072644656 497:0.014605516 509:0.019106658 512:0.0013857683 516:0.016266754 523:0.0094842389 548:0.0089257043 559:0.013426848 612:0.006442294 613:0.010586943 633:0.019106658 665:0.04880026 692:0.016266754 833:0.0027262692 937:0.019106658 944:0.016266754 994:0.019106658 1011:0.0092821997 1107:0.019106658 #
-39.259498906373003990211145719513 4:0.0058648838 38:0.0068887956 74:0.0040143123 77:0.012042937 88:0.0052659339 113:0.013777591 114:0.0058648838 148:0.0045113466 151:0.0047857487 158:0.008484045 163:0.0058648838 173:0.0048409724 178:0.0066932868 216:0.0068887956 255:0.0021614672 288:0.010531868 294:0.0058648838 309:0.00045309952 319:0.0058648838 322:0.0058648838 325:0.0022570682 330:0.002703595 371:0.0058648838 389:0.0096819447 422:0.0058648838 459:0.0058648838 470:0.0068887956 483:0.010531868 497:0.0052659339 507:0.0068887956 512:0.00014275164 523:0.0034194875 532:0.0059808018 545:0.0068887956 546:0.0052659339 549:0.01394974 554:0.0048409724 559:0.019363889 580:0.0042420225 597:0.0036430727 604:0.0052659339 613:0.019085305 657:0.0045113466 660:0.0068887956 718:0.015499363 723:0.0058648838 747:0.011729768 754:0.0038170607 755:0.0058648838 764:0.0058648838 770:0.0042420225 774:0.002322732 783:0.0039329785 788:0.0049105901 821:0.0068887956 833:0.002948822 862:0.008484045 903:0.0058648838 908:0.0058648838 918:0.013777591 921:0.0011702878 947:0.0038170607 952:0.0052659339 961:0.0058648838 964:0.002619161 986:0.0068887956 997:0.0058648838 1011:0.016733218 1015:0.002619161 1025:0.0036430727 1028:0.011729768 1051:0.0049270466 1053:0.0059808018 1062:0.0058648838 1063:0.0048409724 1071:0.0068887956 1073:0.0030998725 1079:0.0029904009 1083:0.0068887956 1088:0.0068887956 1100:0.015797801 #
-13.223838712879373957775896997191 295:0.056258496 309:0.0037003129 315:0.056258496 430:0.047896553 441:0.043005127 481:0.043005127 512:0.001165805 527:0.039534606 555:0.052562479 572:0.056258496 608:0.056258496 619:0.056258496 882:0.047896553 1050:0.056258496 #
-49.352552159203476378479535924271 3:0.0053848485 9:0.0082532018 74:0.0082532018 91:0.0099527687 97:0.0099527687 135:0.012057873 137:0.0063731642 145:0.014162978 151:0.0032797437 178:0.0068805115 180:0.0063731642 184:0.010826466 259:0.012057873 308:0.009275076 373:0.014162978 406:0.012057873 432:0.0078476639 457:0.014162978 479:0.012057873 490:0.010826466 505:0.0082532018 512:0.0005869788 523:0.0093737002 555:0.013232512 595:0.014162978 623:0.0099527687 652:0.012057873 668:0.012057873 671:0.0099527687 677:0.012057873 690:0.021652931 700:0.012057873 748:0.0082532018 783:0.0040429919 788:0.0033652994 790:0.014162978 806:0.014162978 808:0.014162978 833:0.002020871 841:0.0066162562 852:0.0087213609 885:0.014162978 887:0.014162978 902:0.028325956 930:0.0066162562 955:0.0062310807 956:0.014162978 992:0.0078476639 1005:0.013232512 1006:0.014162978 1015:0.0053848485 1030:0.0099527687 1033:0.014162978 1040:0.0087213609 1042:0.010826466 1048:0.0039364188 1051:0.005064866 1053:0.0061480966 1064:0.0052206451 1067:0.0071699712 1079:0.0061480966 1095:0.012057873 #
-8.9453290713110682474962231935933 3:0.020264035 51:0.043220311 139:0.040741701 183:0.016061382 255:0.0083614653 309:0.0035055596 375:0.053297523 447:0.01333663 477:0.053297523 512:0.0011044469 535:0.053297523 785:0.053297523 833:0.0038024283 859:0.020264035 921:0.009054332 955:0.02344854 989:0.053297523 999:0.045375682 1087:0.034903575 #
52.158625282258789468414761358872 70:0.026240418 87:0.021138214 130:0.029225014 137:0.015446822 177:0.026240418 255:0.010770701 297:0.034327216 309:0.0022578181 362:0.015446822 432:0.019020608 447:0.0085896933 512:0.001067008 523:0.011359653 555:0.032072023 587:0.026240418 841:0.016036011 873:0.021138214 930:0.032072023 955:0.0075512249 1064:0.012653428 1073:0.015446822 1081:0.034327216 #
52.158625282258789468414761358872 151:0.015633445 226:0.039340261 255:0.021182379 327:0.051606152 450:0.051606152 508:0.067510195 530:0.026495231 686:0.094883062 781:0.057475861 833:0.0048164092 951:0.047441531 982:0.067510195 1053:0.029305927 1067:0.068353727 #
52.158625282258789468414761358872 70:0.024190385 87:0.019486791 137:0.01424004 177:0.024190385 187:0.031645402 255:0.0099292407 276:0.024190385 309:0.0020814261 362:0.01424004 388:0.022238217 432:0.017534623 447:0.0079186242 512:0.000983648 523:0.010472181 555:0.029566394 587:0.024190385 663:0.031645402 796:0.022238217 841:0.014783197 873:0.019486791 930:0.029566394 955:0.0069612856 1051:0.011316811 1064:0.01166488 1067:0.016020404 1073:0.01424004 #
-4.6255711313593153022338810842484 686:0.31627685 898:0.22503398 951:0.15813842 #
-4.6255711313593153022338810842484 401:0.22503398 686:0.31627685 951:0.15813842 #
-19.636531696863794849150508525781 151:0.015129141 226:0.038071219 255:0.020499077 450:0.049941439 530:0.025640547 559:0.091822311 637:0.055621803 661:0.06533245 686:0.091822311 781:0.055621803 833:0.0046610408 951:0.045911156 1053:0.028360575 #
-30.742833307084868721403836389072 57:0.015534017 87:0.011235627 137:0.016420946 144:0.010632503 165:0.009649219 167:0.010110053 183:0.0054984912 309:0.0012001015 318:0.0059781806 330:0.0071608732 418:0.041842826 419:0.027895218 423:0.012822035 432:0.010110053 503:0.015534017 512:0.0007561979 523:0.0090570208 543:0.0082104728 544:0.014321746 555:0.01704729 558:0.015534017 596:0.0076505821 602:0.036491998 612:0.012304202 624:0.018245999 636:0.010110053 669:0.018245999 748:0.010632503 767:0.018245999 783:0.0052085388 791:0.018245999 825:0.010110053 833:0.0026034643 841:0.0085236449 859:0.020811712 921:0.0030996813 930:0.01704729 943:0.018245999 969:0.015534017 992:0.010110053 1026:0.018245999 1064:0.0067256959 1089:0.011948972 #
-22.500607606052241749239328783005 13:0.012274581 26:0.012274581 93:0.015117026 97:0.0086257327 122:0.012274581 137:0.011046818 151:0.0028424447 178:0.0059631104 226:0.0071527748 255:0.011554025 309:0.00080734101 325:0.01608674 372:0.012274581 418:0.037531748 432:0.0068013081 433:0.020900313 488:0.0046668691 494:0.0093829371 512:0.00063589367 523:0.0081238737 528:0.012274581 530:0.0048173149 555:0.011468178 596:0.0051467554 601:0.012274581 707:0.0086257327 748:0.0071527748 751:0.010450156 768:0.0093829371 783:0.0035039263 825:0.0068013081 826:0.0093829371 833:0.0026271322 841:0.0057340888 852:0.022675538 859:0.023334345 869:0.020900313 897:0.0080383988 921:0.0041704802 930:0.011468178 964:0.0046668691 976:0.012274581 992:0.0068013081 1011:0.023852441 1042:0.0093829371 1053:0.010656701 1064:0.0045245592 1079:0.0053283507 1102:0.012274581 #
-10.963480018729574894109646265861 3:0.0058335862 51:0.018663315 77:0.0089409687 87:0.0094481409 133:0.013062696 151:0.0035530557 255:0.0048141773 258:0.015343226 269:0.010782165 274:0.026125392 298:0.013062696 300:0.013062696 304:0.013062696 309:0.0010091763 318:0.010054213 394:0.035186015 400:0.013062696 430:0.013062696 447:0.0038393328 512:0.00047692025 523:0.0050774212 524:0.013062696 527:0.010782165 549:0.015534937 596:0.012866888 634:0.015343226 636:0.0085016359 713:0.013062696 716:0.015343226 718:0.013808523 775:0.013062696 783:0.0087598152 788:0.0036457411 814:0.015343226 815:0.0074538877 833:0.002189277 841:0.021502832 897:0.010047999 921:0.0052131005 923:0.015343226 930:0.014335222 955:0.0067503373 963:0.092059359 964:0.0058335862 971:0.011728671 995:0.013062696 1003:0.015343226 1044:0.015343226 1079:0.0066604381 #
-14.725860418992198219712008722126 9:0.010537569 24:0.018083088 41:0.011842284 81:0.01539532 173:0.012707553 237:0.027646154 309:0.0011893862 325:0.011849607 334:0.018083088 394:0.09676154 415:0.018083088 441:0.013823077 466:0.036166176 478:0.036166176 512:0.00056208461 523:0.014960258 527:0.012707553 539:0.036166176 543:0.016274331 551:0.027646154 588:0.013823077 672:0.018083088 748:0.010537569 773:0.012707553 788:0.0085935323 841:0.0084475409 930:0.016895082 992:0.010019785 1030:0.012707553 1051:0.0064667487 1064:0.0066656452 1099:0.018083088 #
-12.504757026436227107524246093817 42:0.056784276 77:0.011029979 95:0.013301363 101:0.018928092 115:0.056784276 190:0.011655651 255:0.0029694925 269:0.013301363 309:0.0024899303 327:0.014469015 374:0.037856184 376:0.037856184 447:0.0047363732 488:0.0071965735 512:0.00058835023 514:0.016114729 523:0.0031318672 534:0.018928092 585:0.018928092 596:0.0079365848 597:0.020019876 636:0.010487999 674:0.018928092 718:0.0085174069 735:0.018928092 758:0.014469015 788:0.0044975495 823:0.018928092 833:0.001350395 866:0.014469015 879:0.018928092 897:0.012395662 921:0.0032155572 958:0.016114729 964:0.021589721 990:0.012395662 1007:0.016114729 1053:0.0082166148 1056:0.018928092 1064:0.0069771241 #
-18.941058669240593559379703947343 45:0.016266754 183:0.0057578539 232:0.038213316 255:0.0059950128 309:0.00125671 325:0.03130085 330:0.0074986503 335:0.014605516 353:0.019106658 438:0.016266754 447:0.0047810557 488:0.0072644656 512:0.00039593381 530:0.0074986503 549:0.0096726967 580:0.011765609 592:0.016266754 597:0.010104371 600:0.038213316 655:0.019106658 693:0.016266754 718:0.0085977595 754:0.010586943 774:0.012884588 783:0.01090845 788:0.0090799592 825:0.021173885 833:0.0040894039 859:0.0072644656 862:0.011765609 921:0.0032458927 927:0.019106658 948:0.0082941307 968:0.014605516 990:0.012512603 1047:0.019106658 1048:0.0053104516 1057:0.013426848 1064:0.0070429458 1066:0.021173885 #
-5.0895967082331772246561740757897 149:0.05786588 226:0.10116067 309:0.003806036 348:0.05786588 447:0.014479769 488:0.022000954 530:0.022710199 696:0.05786588 746:0.049265023 788:0.013749652 819:0.05786588 833:0.0041283509 853:0.037895311 964:0.022000954 987:0.1348809 1051:0.041387193 #
-2.8655910187249595821867842460051 47:0.07740923 233:0.062357731 309:0.0066605629 451:0.071162291 512:0.002098449 830:0.062357731 #
-9.1187200582004699356275523314252 56:0.018002147 74:0.013723346 80:0.047100138 94:0.033098742 162:0.020049719 180:0.010597238 183:0.01419378 237:0.018002147 255:0.0073892022 282:0.020049719 341:0.036004294 512:0.00048801143 523:0.007793251 544:0.03697009 599:0.047100138 757:0.023550069 766:0.016549371 833:0.0016801427 873:0.029003596 899:0.023550069 921:0.0040007513 965:0.040099438 987:0.027446693 998:0.023550069 1011:0.022881702 #
-10.54662384562198162996082828613 3:0.0037380261 16:0.0075154593 46:0.008370271 49:0.0098315822 60:0.019663164 63:0.0098315822 77:0.005729164 125:0.0098315822 144:0.005729164 150:0.0098315822 157:0.0098315822 183:0.0029627793 220:0.0098315822 236:0.0098315822 243:0.008370271 255:0.0015424063 269:0.0069089606 278:0.029494746 309:0.00064665661 318:0.0064425049 321:0.0098315822 330:0.0038585288 352:0.0098315822 359:0.029494746 403:0.0069089606 439:0.019315571 443:0.008370271 451:0.0069089606 488:0.0074760523 510:0.019663164 512:0.00061119878 516:0.008370271 523:0.011387226 530:0.0038585288 532:0.0085357074 544:0.0077170576 550:0.0075154593 553:0.019663164 579:0.0075154593 597:0.010398673 642:0.0098315822 681:0.019315571 715:0.016740542 731:0.0098315822 737:0.0098315822 755:0.008370271 772:0.0098315822 778:0.0098315822 788:0.002336106 798:0.0098315822 820:0.052608214 822:0.0098315822 830:0.04237904 833:0.0014028376 851:0.0098315822 859:0.0037380261 883:0.0075154593 921:0.0033404334 932:0.0098315822 955:0.0021627294 1051:0.0035159022 1080:0.0098315822 1111:0.016740542 #
-23.600376825153944082558155059814 34:0.011007098 35:0.0077350321 74:0.0064141732 90:0.011007098 96:0.0093710646 107:0.0064141732 151:0.010195726 158:0.0067780144 170:0.011007098 180:0.004953057 229:0.0077350321 230:0.023205096 255:0.005180473 309:0.00072397426 311:0.011007098 318:0.0072128046 325:0.0036064023 362:0.0346714 380:0.011007098 414:0.0077350321 417:0.0093710646 447:0.0027543039 502:0.011007098 512:0.00068427692 523:0.012748742 533:0.0093710646 549:0.0055723144 582:0.011007098 596:0.023076484 598:0.0093710646 615:0.011007098 618:0.0077350321 629:0.025242141 641:0.011007098 684:0.0058209966 718:0.004953057 725:0.0084140468 771:0.033890072 788:0.013077115 799:0.011007098 807:0.0077350321 810:0.011007098 817:0.011007098 833:0.0023558522 867:0.011007098 870:0.0072083469 876:0.011007098 900:0.014416694 922:0.0058209966 948:0.0047781402 955:0.0024213167 1015:0.0041849641 1025:0.0058209966 1048:0.0061185639 1051:0.0039362819 1066:0.0060989992 1073:0.004953057 1079:0.0047781402 1094:0.011007098 #
-15.223352339240793895669412449934 9:0.0045046099 10:0.046381049 27:0.0065812054 41:0.0050623505 43:0.0077301753 46:0.0065812054 91:0.005432236 103:0.0065812054 107:0.0045046099 148:0.0050623505 151:0.0017900892 158:0.0047601322 169:0.0047601322 178:0.0037553939 190:0.0047601322 200:0.0065812054 202:0.0077301753 217:0.0077301753 221:0.0077301753 230:0.016296709 255:0.0024254632 256:0.0077301753 279:0.0077301753 281:0.023190524 283:0.0077301753 296:0.0077301753 308:0.0050623505 325:0.0025327406 330:0.0060676103 337:0.0077301753 338:0.0077301753 344:0.0077301753 349:0.0077301753 362:0.013913931 377:0.011818203 383:0.0065812054 395:0.0077301753 396:0.0077301753 414:0.005432236 427:0.0065812054 446:0.0065812054 450:0.011818203 481:0.0059091016 485:0.0077301753 488:0.0088171763 505:0.0045046099 512:0.00048056088 513:0.015460351 519:0.005432236 523:0.0076742698 532:0.0033556407 581:0.0059091016 584:0.0077301753 588:0.0059091016 603:0.0077301753 625:0.040541489 627:0.0077301753 640:0.0077301753 662:0.0077301753 678:0.0077301753 682:0.0077301753 684:0.0040880279 689:0.0077301753 695:0.0065812054 774:0.015638547 776:0.0034784828 777:0.0065812054 783:0.0022066711 788:0.0091839274 797:0.0077301753 804:0.0077301753 833:0.0044119777 847:0.0077301753 855:0.0059091016 888:0.0077301753 906:0.0065812054 912:0.0077301753 913:0.0077301753 917:0.0059091016 921:0.0026264475 922:0.0040880279 940:0.0059091016 948:0.0033556407 955:0.0017004667 957:0.005432236 958:0.0065812054 972:0.0077301753 992:0.0042832666 1015:0.0029390587 1025:0.0040880279 1034:0.0077301753 1048:0.0021485032 1051:0.0055288235 1053:0.0033556407 1079:0.0033556407 1090:0.0047601322 #
-4.3504950573978655725682074262295 14:0.054737996 32:0.10947599 126:0.046602052 309:0.0036003045 312:0.041842826 447:0.013697079 512:0.0011342969 543:0.02463142 617:0.046602052 833:0.0078103933 921:0.0092990436 938:0.054737996 955:0.012041142 960:0.054737996 1048:0.015213726 1052:0.046602052 #
-5.4986471033892598825332242995501 3:0.019250834 51:0.020529646 98:0.033158395 183:0.015258313 255:0.0079433918 309:0.0033302815 313:0.026776584 447:0.012669798 512:0.0015738369 612:0.01707208 670:0.029505195 803:0.1012653 921:0.0086016161 955:0.011138056 1046:0.050632648 #
-5.4323936652583055817444801505189 88:0.03969704 309:0.0034156735 313:0.027463162 447:0.012994665 512:0.0010761278 548:0.024259606 670:0.030261738 833:0.0074098604 842:0.10386184 955:0.011423648 1005:0.048519213 1014:0.051930919 1048:0.014433535 #
-3.6962281747085548033737723017111 15:0.055621803 72:0.06533245 226:0.038071219 255:0.010249538 309:0.0042971377 447:0.016348127 512:0.0013538381 530:0.025640547 596:0.027394019 687:0.1306649 852:0.040230796 894:0.06533245 948:0.028360575 #
-4.8539494691625373334886717202608 309:0.0095150899 512:0.0029977844 578:0.12316256 1072:0.12316256 #
-5.1986820849596764304578755400144 54:0.033201735 146:0.066403471 151:0.015377159 174:0.033201735 218:0.028266817 239:0.02174321 246:0.033201735 309:0.0043675825 318:0.010878328 439:0.02174321 512:0.00068801612 567:0.033201735 626:0.033201735 681:0.02174321 725:0.025380075 758:0.05076015 783:0.018955667 833:0.0094749033 870:0.02174321 935:0.033201735 974:0.028266817 1025:0.017558416 1038:0.033201735 1048:0.0092279976 #
-6.4384923153791628891440268489532 3:0.024839785 39:0.055621803 51:0.052979734 231:0.049941439 255:0.010249538 309:0.0042971377 347:0.049941439 447:0.016348127 512:0.0013538381 944:0.055621803 955:0.014371686 #
-7.6923584636174151540899401879869 2:0.017019376 3:0.0064708684 27:0.014489713 44:0.017019376 51:0.013801443 59:0.034038752 114:0.014489713 151:0.0078824097 183:0.0051288446 205:0.017019376 211:0.017019376 229:0.011960049 291:0.034038752 308:0.011145679 318:0.005576286 332:0.017019376 362:0.0076585086 398:0.014489713 446:0.014489713 454:0.017019376 488:0.0064708684 512:0.0008817013 520:0.034038752 523:0.011264195 532:0.014776098 541:0.017019376 583:0.014489713 628:0.028979426 629:0.013009955 636:0.0094303852 659:0.017019376 685:0.014489713 693:0.014489713 719:0.017019376 745:0.034038752 753:0.014489713 771:0.031440873 774:0.005738514 776:0.0076585086 783:0.014575155 831:0.017019376 833:0.0048568831 860:0.017019376 875:0.017019376 908:0.014489713 921:0.0028912993 949:0.013009955 1004:0.017019376 1048:0.0047303182 1055:0.017019376 1059:0.017019376 1073:0.0076585086 #
-4.1047600745708274772027834842447 89:0.086798824 151:0.0067000482 242:0.024632512 257:0.02893294 312:0.022116924 362:0.013019465 393:0.02893294 483:0.022116924 512:0.00059955689 523:0.0047872826 530:0.011355099 771:0.03563299 783:0.0082592545 792:0.02893294 832:0.02893294 833:0.0061925258 858:0.02893294 922:0.015300905 940:0.022116924 955:0.006364604 957:0.020332083 1015:0.011000477 1032:0.05786588 1048:0.016083082 1091:0.02893294 1106:0.040664166 #
-6.2599064600752667431038389622699 98:0.034903575 183:0.016061382 309:0.0035055596 313:0.028185878 378:0.090751365 408:0.045375682 512:0.0016566704 576:0.045375682 612:0.01797061 670:0.031058101 833:0.0038024283 921:0.009054332 955:0.01172427 #
-3.1545957541051223849137841170887 151:0.01617253 233:0.043005332 263:0.069838136 309:0.004593492 412:0.13967627 512:0.0021708095 630:0.069838136 701:0.069838136 #
-5.6771878647883280422092866501771 37:0.033755098 143:0.033755098 214:0.033755098 255:0.0052955947 309:0.0022201878 312:0.025803076 447:0.0084465323 458:0.033755098 488:0.01283389 512:0.00069948303 523:0.0055851629 533:0.028737931 543:0.03037875 617:0.028737931 684:0.017851057 736:0.025803076 783:0.0096357968 800:0.033755098 807:0.023720765 818:0.033755098 833:0.0048164092 921:0.0057344106 922:0.017851057 955:0.0074253711 993:0.067510195 #
-3.4123712346528605188211713539204 74:0.035763875 123:0.061372906 183:0.018494925 264:0.046914686 325:0.040216852 435:0.052250784 501:0.061372906 512:0.001907681 544:0.024086574 612:0.020693431 833:0.0043785539 1040:0.075585127 1051:0.021947755 #
-3.9160370575036993479045577259967 5:0.034919068 86:0.026692837 109:0.034919068 175:0.017677687 180:0.015713146 183:0.010522975 226:0.020348411 255:0.0054782014 318:0.011441001 447:0.017475585 504:0.034919068 512:0.00036180159 529:0.029728895 530:0.01370443 566:0.034919068 618:0.024538722 654:0.069838136 718:0.015713146 774:0.023547696 788:0.008297204 815:0.01696402 833:0.004982492 909:0.034919068 921:0.011864297 948:0.015158239 991:0.02286786 1057:0.024538722 1066:0.019348549 #
-6.7939244508595146854190716112498 33:0.032147713 183:0.019375635 240:0.024574358 309:0.0021144645 325:0.010532985 330:0.012616777 420:0.032147713 512:0.00099926151 523:0.0053192028 544:0.025233554 570:0.032147713 644:0.064295426 679:0.016274696 759:0.032147713 774:0.010839416 833:0.0022935281 921:0.0054613431 949:0.024574358 1024:0.032147713 1040:0.019796105 #
-11.926459300962036991222703363746 3:0.005347454 40:0.019767303 51:0.011405359 117:0.010751282 180:0.037973437 183:0.0042384202 200:0.011974138 207:0.014064624 218:0.011974138 224:0.014064624 227:0.028129248 255:0.0022064978 309:0.00092507823 369:0.014064624 411:0.014064624 431:0.014064624 439:0.018421331 447:0.0035193884 488:0.005347454 494:0.010751282 512:0.00029145126 514:0.035922416 519:0.0098836515 523:0.016290059 530:0.0055198399 544:0.0055198399 551:0.021502564 653:0.014064624 681:0.018421331 699:0.014064624 830:0.0086607961 833:0.0020068372 844:0.014064624 859:0.005347454 921:0.0023893376 955:0.0061878092 974:0.011974138 1007:0.023948276 1016:0.014064624 1051:0.0050296937 1053:0.012210803 1073:0.0063289064 #
-18.505381580859463497290562372655 3:0.0087503791 51:0.027994974 94:0.016173249 137:0.010356392 144:0.013411453 164:0.02301484 169:0.014172211 171:0.019594043 183:0.0069355969 255:0.010831898 309:0.0045412933 419:0.017593008 503:0.019594043 512:0.00071538042 544:0.018064931 548:0.010751416 707:0.016173249 774:0.0077600363 783:0.0065698619 788:0.0054686116 833:0.0016419577 838:0.019594043 849:0.02301484 859:0.035001516 873:0.014172211 921:0.0039098253 947:0.012752453 948:0.0099906567 955:0.0050627529 964:0.0087503791 1025:0.012171174 1065:0.019594043 #
-9.019137673007048050521916593425 15:0.0147374 21:0.013232348 45:0.0147374 56:0.013232348 69:0.017310306 77:0.010087246 94:0.012164495 137:0.0077894232 144:0.010087246 167:0.019183178 178:0.0084095141 183:0.005216517 255:0.010862758 276:0.013232348 318:0.0056716069 330:0.0067936489 423:0.012164495 425:0.034620613 512:0.0007174185 523:0.011456745 530:0.0067936489 532:0.0075143403 544:0.013587298 557:0.017310306 560:0.017310306 581:0.026464695 589:0.0095915888 594:0.017310306 612:0.0058366084 707:0.012164495 766:0.012164495 774:0.0058366084 776:0.0077894232 788:0.0041131438 825:0.0095915888 852:0.053297207 853:0.011336204 859:0.0065814815 873:0.010659441 921:0.0029407232 946:0.034620613 1015:0.0065814815 1051:0.0061903922 1089:0.011336204 #
-13.491623275255012259776776772924 133:0.012772414 148:0.00982471 151:0.0069481982 264:0.011468034 269:0.010542562 270:0.015002266 274:0.025544828 275:0.015002266 298:0.012772414 300:0.012772414 318:0.0098307859 366:0.015002266 443:0.012772414 512:0.00031088135 523:0.0074468842 527:0.010542562 549:0.015189717 555:0.014016661 588:0.011468034 597:0.0079338029 606:0.012772414 623:0.010542562 636:0.0083127106 657:0.00982471 717:0.025544828 718:0.013501666 748:0.0087422803 761:0.015002266 774:0.010116788 783:0.0042825765 788:0.0035647247 815:0.05101772 833:0.0042812526 841:0.021024991 845:0.012772414 911:0.015002266 929:0.015002266 930:0.0070083304 980:0.015002266 990:0.00982471 991:0.00982471 992:0.0083127106 995:0.012772414 1008:0.015002266 1015:0.0057039508 1040:0.018476365 1048:0.0041696881 1054:0.012772414 1064:0.011060034 1066:0.0083127106 1073:0.0067508332 1079:0.019537285 1087:0.00982471 #
-3.1355951960777224130083595809992 233:0.077947162 309:0.0083257044 512:0.0013115307 936:0.12658161 1109:0.12658161 #
-3.3900971189410844530698341259267 151:0.021318335 309:0.0030275288 361:0.039188087 449:0.039188087 455:0.039188087 512:0.0014307608 575:0.030143997 612:0.015520073 647:0.039188087 680:0.078376174 722:0.078376174 783:0.013139724 813:0.039188087 815:0.022361664 833:0.0065678307 1089:0.030143997 #
-7.4119463072599396369355417846236 6:0.011640485 67:0.030455727 84:0.012964481 93:0.018754205 132:0.012964481 151:0.0070526823 169:0.0093771024 178:0.0073978435 243:0.012964481 255:0.0047779805 309:0.0010015884 325:0.029935852 362:0.027409399 468:0.030455727 512:0.00078889064 523:0.012598112 530:0.0059763682 569:0.011640485 577:0.015227864 645:0.015227864 684:0.0080531081 724:0.012964481 740:0.015227864 768:0.011640485 771:0.028131306 774:0.0051344601 776:0.0068523497 788:0.0072366591 794:0.012964481 807:0.010701097 833:0.0032592241 843:0.015227864 895:0.012964481 900:0.019944901 917:0.011640485 922:0.0080531081 957:0.010701097 1018:0.045683593 1031:0.012964481 1041:0.012964481 1064:0.0056131748 1079:0.013220719 1106:0.053505484 #
-4.1973404104649851831254636636004 255:0.0083614653 309:0.0035055596 313:0.028185878 377:0.040741701 409:0.045375682 447:0.01333663 512:0.0011044469 548:0.024898017 646:0.10659505 671:0.037453838 783:0.015214417 833:0.0038024283 1005:0.049796034 #
-6.0949518387658292439823526365217 3:0.018781301 51:0.020028925 250:0.049397703 255:0.0077496511 309:0.0032490552 440:0.098795407 447:0.012360779 512:0.0015354506 612:0.016655687 679:0.075022377 833:0.0035242017 921:0.0083918199 955:0.010866397 1048:0.013729461 #
-3.562292780553861781811519904295 151:0.006090953 195:0.026302673 204:0.026302673 229:0.018483713 255:0.0082528749 317:0.044786386 498:0.026302673 512:0.0013626294 522:0.052605346 523:0.004352075 530:0.020645635 532:0.011417894 574:0.026302673 589:0.029148465 591:0.026302673 596:0.033086285 707:0.018483713 763:0.026302673 793:0.022393193 833:0.0075060921 905:0.026302673 947:0.014574233 948:0.011417894 955:0.011572007 970:0.052605346 1011:0.03833428 1025:0.013909914 1051:0.0094061801 #
-2.7346250181411035917733443056932 11:0.01150742 58:0.01150742 76:0.080551937 77:0.0067057265 100:0.01150742 108:0.01150742 111:0.02301484 152:0.0097970217 159:0.01150742 169:0.0070861056 180:0.0051781959 188:0.01150742 192:0.01150742 193:0.057537097 223:0.0097970217 255:0.0018053164 314:0.01150742 318:0.0075406595 323:0.02301484 340:0.01150742 354:0.01150742 356:0.01150742 367:0.01150742 448:0.0097970217 453:0.01150742 473:0.01150742 482:0.01150742 488:0.0043751895 505:0.0067057265 512:0.00059615035 521:0.01150742 523:0.024752427 532:0.0049953284 547:0.01150742 552:0.02301484 597:0.0060855872 636:0.0063762264 694:0.01150742 730:0.01150742 732:0.01150742 746:0.019594043 774:0.0038800181 788:0.016405834 828:0.02301484 829:0.02301484 864:0.02301484 866:0.0087965038 916:0.039188087 925:0.01150742 942:0.029391065 978:0.01150742 1009:0.01150742 1057:0.024259873 1058:0.057537097 1075:0.01150742 1093:0.01150742 #
-5.516236612580028619845506909769 94:0.0065587368 121:0.0093332063 162:0.0079459716 169:0.034483537 259:0.0079459716 309:0.00061387679 318:0.015289816 325:0.0030579632 333:0.018666413 381:0.0079459716 391:0.0079459716 397:0.046666034 404:0.0093332063 406:0.0079459716 452:0.0093332063 475:0.0071344911 479:0.0079459716 490:0.0071344911 492:0.0093332063 512:0.00019340545 523:0.012354278 542:0.027999621 543:0.020999135 544:0.0036629352 571:0.027999621 593:0.027999621 625:0.016316237 652:0.0079459716 668:0.0079459716 677:0.015891943 700:0.015891943 714:0.018666413 744:0.027999621 748:0.005438746 774:0.018881563 788:0.013306115 826:0.0071344911 852:0.011494513 893:0.0079459716 971:0.0071344911 992:0.0051715015 1064:0.0034403331 1067:0.0094498238 1068:0.018666413 1095:0.0079459716 #
-6.7351031235056186829979196772911 137:0.011536234 144:0.01493934 151:0.011873503 158:0.015786767 165:0.013557764 167:0.014205264 173:0.01801577 255:0.0040219706 265:0.019597273 309:0.0016862185 322:0.021826277 325:0.016799444 341:0.019597273 343:0.021826277 422:0.021826277 497:0.019597273 512:0.00053125294 544:0.02012296 612:0.008644091 618:0.01801577 675:0.025636783 833:0.0018290161 921:0.0043552485 952:0.019597273 961:0.065478832 965:0.021826277 1011:0.03736379 1015:0.0097472575 1021:0.025636783 #
-6.6396647782587852049118737340905 16:0.0063450187 35:0.0058329748 40:0.0058329748 47:0.0063450187 48:0.0083004339 62:0.0083004339 65:0.0070667043 66:0.0070667043 74:0.0048369174 93:0.0051112892 95:0.01166595 107:0.0048369174 117:0.012690037 120:0.0083004339 151:0.0076885796 175:0.0042020734 178:0.0040324312 180:0.0037350922 190:0.0051112892 255:0.0039065862 268:0.0083004339 288:0.0063450187 294:0.0070667043 302:0.024901303 309:0.00054594781 318:0.0054391641 330:0.0032576104 351:0.0070667043 358:0.021200113 364:0.0083004339 399:0.016600868 417:0.0070667043 437:0.016600868 439:0.038050618 447:0.002077016 451:0.0058329748 464:0.0083004339 469:0.0083004339 471:0.0070667043 488:0.0063117486 500:0.0083004339 512:0.00034400806 517:0.0083004339 523:0.0082404045 530:0.0032576104 540:0.016600868 549:0.0084041469 596:0.010441164 598:0.0070667043 613:0.0045992453 623:0.0058329748 657:0.0054358025 681:0.032614816 706:0.0083004339 718:0.0074701845 725:0.0063450187 727:0.0083004339 733:0.0083004339 774:0.0055974033 783:0.0023694583 788:0.011833717 830:0.020445157 833:0.0035530888 870:0.0054358025 881:0.0083004339 891:0.0083004339 892:0.0083004339 921:0.0042303028 948:0.0072063757 964:0.0031558743 990:0.010871605 991:0.0054358025 1015:0.0063117486 1025:0.0087792082 1048:0.0023069994 1064:0.0030596405 1066:0.0045992453 1073:0.0037350922 1078:0.0083004339 1079:0.0072063757 1104:0.016600868 #
-3.4645212574933070825977665663231 57:0.029728895 144:0.020348411 165:0.01846661 183:0.010522975 309:0.002296746 330:0.027408861 405:0.069838136 423:0.024538722 444:0.034919068 506:0.034919068 512:0.00072360318 536:0.034919068 544:0.027408861 596:0.014641631 614:0.034919068 650:0.034919068 685:0.029728895 825:0.019348549 921:0.0059321485 969:0.029728895 #
-2.3387339554074699776720080990344 3:0.016042361 51:0.01710804 83:0.084387742 139:0.032253847 182:0.042193871 255:0.0066194935 309:0.0027752346 447:0.010558165 512:0.00087435381 519:0.029650956 575:0.027631996 815:0.061494574 825:0.023379497 833:0.0030102558 870:0.027631996 921:0.0071680131 955:0.0092817135 999:0.035922416 1048:0.011727247 #
-2.5813053128829466231763944961131 309:0.0029602502 313:0.023801409 512:0.00093264406 531:0.045006797 548:0.021024991 562:0.045006797 670:0.026226841 679:0.045569148 833:0.0064218789 921:0.0076458808 967:0.038317241 1005:0.021024991 1048:0.012509064 1061:0.090013593 #
-5.2494314656481684266964293783531 16:0.038704615 40:0.035581145 47:0.038704615 93:0.031178866 105:0.050632648 183:0.015258313 255:0.0079433918 271:0.050632648 309:0.0033302815 447:0.012669798 451:0.035581145 512:0.0010492245 830:0.031178866 833:0.0036123069 859:0.019250834 921:0.0086016161 955:0.011138056 #
-1.9212759659317293348124167096103 98:0.022480268 151:0.0079492098 203:0.058450028 233:0.021138214 244:0.034327216 265:0.026240418 277:0.034327216 309:0.0022578181 316:0.029225014 360:0.034327216 385:0.034327216 484:0.034327216 512:0.00071133871 532:0.044703957 575:0.022480268 589:0.019020608 611:0.034327216 667:0.034327216 690:0.052480835 766:0.024122812 783:0.0097991163 788:0.0081565734 833:0.0097960867 934:0.034327216 955:0.0075512249 1010:0.024122812 1027:0.034327216 1053:0.01490132 #
-2.8014616720756411183401723974384 183:0.016495474 184:0.041842826 309:0.0036003045 313:0.028947659 447:0.013697079 512:0.0017014452 612:0.018456303 670:0.031897508 671:0.038466103 833:0.0039051967 921:0.0092990436 962:0.10947599 #
-6.9951869072903853918887762119994 3:0.0039898101 12:0.010493813 25:0.020987626 55:0.010493813 61:0.010493813 71:0.010493813 88:0.0080216816 107:0.012230133 151:0.0072902078 154:0.010493813 175:0.0053124656 178:0.005097996 183:0.0031623447 228:0.010493813 235:0.010493813 242:0.0089340722 255:0.0065851957 288:0.0080216816 305:0.010493813 308:0.0068722065 318:0.003438228 326:0.010493813 330:0.00411843 371:0.0089340722 389:0.0073743309 421:0.0064619412 427:0.0089340722 459:0.0089340722 475:0.0080216816 483:0.0080216816 494:0.0080216816 495:0.010493813 512:0.0005436397 525:0.010493813 532:0.018221302 549:0.010624931 554:0.0073743309 559:0.022122992 564:0.010493813 573:0.010493813 580:0.0064619412 636:0.00581459 637:0.017868144 657:0.0068722065 658:0.010493813 698:0.010493813 718:0.0047220858 723:0.0089340722 754:0.00581459 764:0.017868144 770:0.0064619412 774:0.0035382549 776:0.0047220858 783:0.0089867543 788:0.0074803806 793:0.0089340722 795:0.0089340722 802:0.024065046 833:0.00074866461 840:0.010493813 862:0.0064619412 903:0.0089340722 921:0.0017827182 940:0.0080216816 947:0.01162918 948:0.0045553255 954:0.010493813 959:0.010493813 964:0.0039898101 991:0.0068722065 1011:0.005097996 1013:0.010493813 1015:0.0079796202 1037:0.0073743309 1040:0.025847765 1051:0.0037527247 1053:0.0045553255 1062:0.0089340722 1064:0.0038681463 1069:0.010493813 1073:0.0047220858 1100:0.0080216816 1108:0.010493813 1112:0.010493813 #
-1.9555004628988099657505017603398 84:0.033159152 91:0.027370114 112:0.038948189 173:0.027370114 183:0.011737164 237:0.029772781 255:0.0061103017 309:0.002561755 325:0.038283348 330:0.015285711 403:0.027370114 418:0.029772781 512:0.0012106438 612:0.013132369 734:0.077896379 776:0.017526202 833:0.0027786975 859:0.014808333 952:0.029772781 955:0.0085677356 1048:0.010825152 1051:0.013928382 #
-2.1218089088995908397805578715634 6:0.013700749 92:0.017923061 119:0.017923061 147:0.017923061 179:0.017923061 230:0.025190193 255:0.0028118202 260:0.015259079 267:0.035846122 287:0.017923061 299:0.017923061 309:0.0011788608 362:0.032260619 368:0.017923061 370:0.030518157 414:0.025190193 442:0.017923061 447:0.0044848844 512:0.0011142208 523:0.017793439 530:0.0070341323 538:0.017923061 543:0.032260619 610:0.017923061 639:0.035846122 684:0.0094784368 769:0.017923061 783:0.0051163523 812:0.035846122 833:0.0025573852 846:0.017923061 859:0.0068144547 900:0.011737485 921:0.0030448197 922:0.0094784368 1106:0.050380386 #
-1.9861325591943574941922179277753 36:0.016579576 51:0.0078960182 66:0.016579576 129:0.019474095 151:0.0090192957 230:0.013685057 253:0.066318303 255:0.0091654528 309:0.0012808775 317:0.016579576 362:0.026289303 377:0.01488639 392:0.019474095 414:0.013685057 447:0.0048729992 481:0.044659171 512:0.0006053219 523:0.0096666282 532:0.016907265 554:0.013685057 565:0.01488639 589:0.021581074 625:0.011348153 638:0.016579576 649:0.019474095 684:0.010298686 774:0.0065661846 776:0.008763101 789:0.019474095 833:0.0055573951 863:0.019474095 874:0.033159152 921:0.0066166273 922:0.010298686 955:0.0085677356 981:0.019474095 1001:0.019474095 1085:0.016579576 #
-1.7602922012774351312458520624205 3:0.0086037247 28:0.011314558 35:0.0079510938 40:0.015902188 51:0.0091752615 64:0.033943675 117:0.017298153 128:0.011314558 151:0.0052402611 175:0.0057279659 180:0.010182821 190:0.013934689 213:0.0079510938 238:0.011314558 255:0.0017750597 309:0.00074419699 335:0.017298153 355:0.011314558 358:0.038531303 402:0.022629116 447:0.0028312397 488:0.0043018623 512:0.0003516954 523:0.0074884868 532:0.0049116081 580:0.013934689 592:0.019265652 597:0.011967189 618:0.0079510938 635:0.011314558 681:0.059277579 774:0.019074949 776:0.010182821 783:0.0064597526 788:0.013442397 833:0.0032288777 862:0.013934689 871:0.0096328259 910:0.011314558 921:0.007688595 953:0.011314558 964:0.0043018623 991:0.0074096974 1020:0.045258231 1029:0.011314558 1051:0.0040462338 1057:0.015902188 1066:0.012538725 1073:0.0050914106 #
-10.548755810594403925506412633695 18:0.021553447 31:0.021553447 41:0.016579198 116:0.019352308 136:0.019352308 239:0.016579198 272:0.019352308 309:0.0016651407 345:0.019352308 387:0.019352308 421:0.015589433 462:0.021553447 512:0.00052461226 518:0.019352308 579:0.019352308 612:0.0085360399 616:0.043106895 679:0.025632646 773:0.017790573 833:0.0036123069 904:0.019352308 955:0.0055690282 964:0.0096254172 967:0.021553447 1015:0.0096254172 1037:0.017790573 1048:0.014072697 1063:0.017790573 1082:0.021553447 1084:0.021553447 1098:0.019352308 #
-0.87799227158739512333340826444328 3:0.014808333 39:0.066318303 51:0.015792036 183:0.011737164 255:0.0061103017 309:0.002561755 347:0.029772781 447:0.0097459983 512:0.0012106438 597:0.020597372 612:0.013132369 747:0.066318303 752:0.038948189 783:0.011118228 788:0.0092545738 816:0.038948189 921:0.0066166273 939:0.038948189 955:0.017135471 1011:0.018921407 #
-0.82081172915877576024001882615266 168:0.098795407 240:0.1132818 309:0.0032490552 512:0.0010236338 548:0.02307621 679:0.050014921 801:0.04205551 833:0.0070484034 921:0.0083918199 1005:0.04615242 1048:0.013729461 1070:0.049397703 #
-0.76328000404624485319970972341252 167:0.022004234 175:0.020104036 255:0.0062301117 309:0.0026119854 325:0.039034002 330:0.01558543 339:0.039711881 403:0.027906781 512:0.00041146061 676:0.039711881 703:0.079423763 760:0.039711881 825:0.022004234 833:0.0056663635 859:0.04529608 985:0.039711881 1048:0.011037409 1074:0.026006585 #
-2.7119744606715099344285135885002 97:0.016549371 137:0.0052986192 144:0.0068616732 151:0.0054535274 169:0.029003596 255:0.0018473006 266:0.011775034 290:0.023550069 309:0.00077448407 325:0.011574036 336:0.011775034 351:0.01002486 433:0.01002486 476:0.011775034 512:0.00024400571 523:0.011689876 589:0.0065245111 613:0.013049022 751:0.01002486 774:0.015881004 788:0.011191578 825:0.0065245111 826:0.0090010734 833:0.00084007136 852:0.021752696 859:0.0089538759 868:0.011775034 869:0.020049719 971:0.018002147 1011:0.022881702 1087:0.03084502 1089:0.03084502 1103:0.011775034 1105:0.011775034 #
-0.0055653753896487689889482908256468 9:0.021075139 151:0.0083750598 175:0.018309033 240:0.082938462 309:0.0023787725 491:0.072332352 512:0.0011241692 589:0.02003957 612:0.012194343 625:0.084300555 679:0.036618065 770:0.022270618 833:0.0077406573 921:0.0061440114 1048:0.010051927 #
-0.52877345843790612978096987717436 3:0.016383689 51:0.03494408 171:0.036686722 189:0.043091614 255:0.013520667 309:0.0028342821 419:0.032940097 447:0.010782807 512:0.00089295709 558:0.036686722 787:0.043091614 838:0.036686722 859:0.016383689 921:0.0073205242 948:0.018705912 955:0.0094791967 964:0.016383689 1025:0.022788582 1065:0.036686722 #
-0.52859067289637451381167920771986 183:0.014531727 309:0.0031716968 329:0.041054189 363:0.04822157 512:0.001998523 523:0.0079788044 596:0.04043879 612:0.016259123 679:0.024412045 801:0.041054189 833:0.0034402923 921:0.0081920149 1005:0.022526776 1076:0.04822157 #
-0.32455391421460522138886517495848 4:0.024632512 65:0.024632512 75:0.02893294 98:0.018947655 106:0.02893294 167:0.016031655 183:0.0087190364 264:0.022116924 309:0.001903018 310:0.02893294 313:0.015300905 318:0.0094796857 378:0.049265023 408:0.024632512 512:0.00059955689 532:0.025119366 548:0.013516066 576:0.024632512 590:0.02893294 638:0.024632512 670:0.016860113 774:0.019510949 776:0.013019465 833:0.0082567018 845:0.024632512 854:0.02893294 856:0.02893294 897:0.018947655 921:0.004915209 955:0.006364604 964:0.011000477 1005:0.027032131 1015:0.011000477 1048:0.0080415411 #
-0.18565255841132294323259088741906 52:0.045006797 126:0.038317241 309:0.0029602502 318:0.014746179 447:0.022524085 512:0.00093264406 543:0.0202525 581:0.034404103 656:0.045006797 695:0.038317241 711:0.038317241 788:0.010694174 815:0.021864736 833:0.0032109395 834:0.045006797 870:0.02947413 896:0.045006797 922:0.023801409 1052:0.038317241 #
-0.48225601942695861534815549021005 151:0.0075645703 167:0.018100256 190:0.040230796 231:0.02497072 239:0.021392513 309:0.0021485689 421:0.020115398 434:0.032666225 471:0.027810901 512:0.00067691907 548:0.015260074 721:0.032666225 833:0.0046610408 850:0.032666225 964:0.012419892 1011:0.047608703 1036:0.032666225 1037:0.022955578 1048:0.018158318 1079:0.014180288 1090:0.080461591 #
