SVM-light Version V6.02
0 # kernel type
3 # kernel parameter -d 
1 # kernel parameter -g 
1 # kernel parameter -s 
1 # kernel parameter -r 
empty# kernel parameter -u 
11595 # highest feature index 
23 # number of training documents 
23 # number of support vectors plus 1 
0.97016688 # threshold b, each following line is a SV (starting with alpha*y)
-0.020684637575701211170686732998547 1720:0.0008709869 3133:0.27585325 5369:0.13472958 6067:0.17555536 10100:0.18336403 10318:0.012926618 11199:0.16454966 #
-0.29675577277131842679480655533553 1720:0.0005574316 3133:0.17654607 4065:0.11235543 5141:0.11235543 10318:0.0082730353 10578:0.13643783 11199:0.10531178 #
-1.00296546681118448063330106379 833:0.14291766 1720:0.0013064803 2165:0.087777682 2223:0.087777682 3723:0.021821754 4662:0.038320452 6083:0.087777682 6146:0.0098136198 8031:0.082274832 10318:0.0064633088 11240:0.0062696044 #
-0.21242173540784037299999909009784 1720:0.00060590392 1892:0.14830199 3011:0.13521373 3213:0.13521373 3861:0.059037715 5391:0.12212547 10191:0.17504399 10318:0.0089924298 10587:0.065558948 11199:0.11446933 11240:0.0087229274 #
-0.83933145466751102325986266805558 1720:0.00063344499 5274:0.13910294 6380:0.045654804 6439:0.05412899 9495:0.11662944 9617:0.051777467 10015:0.032882586 10318:0.0094011761 #
28.007608279040031362683293991722 488:0.024539178 768:0.026027136 833:0.032901909 1251:0.012509698 1426:0.0094916075 1720:0.0002506437 1900:0.028900659 2414:0.024539178 2829:0.032587308 3015:0.013710761 3076:0.010621924 3341:0.015966084 3345:0.024539178 3672:0.018940968 4087:0.012576892 4173:0.025153235 4396:0.0046637934 4525:0.015876446 4718:0.012018584 5367:0.014600669 5580:0.015876446 5837:0.020207811 5899:0.062748112 5988:0.097761922 6141:0.0044651846 6145:0.012955408 6222:0.018459337 6373:0.0091218064 6618:0.012787607 7777:0.0052237445 8371:0.013809958 9071:0.046525326 9206:0.014482057 9467:0.0096335532 9617:0.0081949942 10015:0.010408876 10118:0.009453495 10155:0.0061834236 10318:0.0014879559 10324:0.0093550803 10532:0.017403578 10649:0.018042129 10985:0.015489095 11240:0.0057734484 11595:0.024539178 #
-1.3080048824727754652741396057536 1426:0.016491668 1513:0.067799397 1720:0.0005225921 1806:0.026517445 2058:0.04549703 3806:0.13559879 4144:0.034847815 4583:0.070222147 4662:0.03065636 4871:0.046986673 5491:0.036911186 6145:0.022510022 6618:0.044436935 7777:0.018152513 8782:0.042166751 9660:0.038992189 10649:0.12539279 10717:0.12905623 10801:0.055871364 10985:0.026912302 11065:0.077747896 11346:0.077747896 #
-1.5522887448231155183009377651615 833:0.091012247 1720:0.00062399061 1884:0.046416655 2164:0.020867294 2173:0.026682038 3737:0.023188259 4173:0.052183576 4628:0.046416655 5613:0.043788426 7777:0.010837321 8031:0.039295442 9524:0.15292671 9535:0.0065070726 9705:0.046416655 9931:0.035984267 9938:0.020930532 10318:0.0030869534 10671:0.022753062 11240:0.014972189 #
-2.0959186052352811735488558042562 833:0.030489102 1720:0.0004180737 2785:0.044697091 3065:0.029231116 3341:0.022192856 3458:0.020122243 4173:0.023308665 5367:0.040589862 6146:0.006280717 8226:0.11434776 8269:0.024755191 9535:0.0087194769 9617:0.022782085 10012:0.023508348 10318:0.0082730353 11459:0.051746983 11569:0.038676493 11586:0.024028616 #
-1.3506830998049978997954667647718 566:0.009401626 833:0.022753062 1075:0.02405381 1149:0.098359272 1365:0.018474024 1574:0.037430685 1720:0.00020799687 1822:0.053059027 2008:0.019259283 2070:0.029790634 2541:0.026380496 2807:0.060618944 3076:0.044073056 3341:0.016561834 4396:0.0096756313 6141:0.0092635928 6380:0.01499113 9003:0.050909638 9090:0.024589818 9617:0.017001556 10015:0.010797267 10188:0.02355876 10318:0.0030869534 11240:0.0029944379 11262:0.050909638 #
-1.5842724245760064771815223139129 98:0.01015653 150:0.018047333 199:0.018047333 624:0.014349079 643:0.0087569896 833:0.032263599 1098:0.010650825 1426:0.0034903004 1537:0.013269079 1624:0.018047333 1662:0.016454581 1720:0.00044240605 1836:0.019933594 2173:0.0094587123 2340:0.0062058186 2657:0.018047333 3127:0.032909162 3246:0.016454581 3322:0.01486183 3723:0.0036946887 3843:0.011405679 4343:0.01486183 4470:0.018047333 4534:0.012337379 4655:0.016454581 4662:0.0064881188 4704:0.0037762779 5369:0.011405679 5802:0.017513979 6146:0.0033231305 6167:0.011983163 6239:0.036094666 6940:0.018047333 7564:0.0055117989 8541:0.018047333 9524:0.021684846 9582:0.018047333 9591:0.022327151 9754:0.016454581 9931:0.012756327 10012:0.0062191398 10318:0.0010943168 10536:0.0073314286 10566:0.08227291 10985:0.0056957253 11125:0.01299843 11240:0.0053076018 #
-1.0710489807498602132795895158779 286:0.0192912 566:0.0048454534 854:0.021774011 863:0.012850639 1108:0.013169045 1117:0.0192912 1209:0.020861352 1251:0.026751507 1278:0.067703642 1426:0.010148719 1478:0.016067127 1615:0.052476089 1720:0.00021439677 1987:0.026238045 2140:0.016401479 2245:0.0062221992 2435:0.020861352 2922:0.016975584 2963:0.015621035 3076:0.011357288 3341:0.021339284 3799:0.012241554 4396:0.0049866717 4418:0.012504739 4641:0.013999087 5201:0.018897718 5666:0.021606814 5753:0.01330542 5885:0.020252267 5922:0.067703642 6138:0.011143224 6139:0.010081349 6146:0.0024156603 6358:0.020252267 6373:0.0097533157 6424:0.020861352 6638:0.0134476 6913:0.018130003 7031:0.010754682 7032:0.020861352 7223:0.020861352 7385:0.072287187 7564:0.008013308 7780:0.020252267 9830:0.012344353 9909:0.017421676 9925:0.020861352 10012:0.0090416726 10015:0.022258982 10084:0.011242737 10118:0.010107968 10155:0.0066115065 10197:0.033164207 10324:0.01000274 10994:0.0192912 11006:0.022567881 11329:0.036454663 11388:0.078714132 #
-4.1988899548539277972736272204202 10:0.0023484475 149:0.0024642283 216:0.0023484475 318:0.0017173458 387:0.002835846 526:0.0025077888 566:0.001926327 605:0.003226171 626:0.0020199399 833:0.016316798 863:0.0025544085 959:0.0085898647 972:0.0022811433 1028:0.003026884 1040:0.0060537681 1075:0.0024642283 1252:0.01000228 1254:0.0039233146 1344:0.0067487028 1352:0.0015985594 1363:0.0014736817 1365:0.0018925988 1368:0.0025191405 1426:0.0050433236 1504:0.003026884 1518:0.0029140611 1631:0.0039233146 1636:0.0033744643 1720:8.5234191e-05 1794:0.003476416 1802:0.0023484475 1806:0.0032437243 1836:0.0032917862 1900:0.0020474982 1918:0.0031628795 1997:0.0056501986 2008:0.0019730458 2058:0.0027826931 2120:0.0024135122 2140:0.0032602327 2206:0.0095104463 2245:0.0037104855 2251:0.0035653894 2283:0.0035122363 2401:0.0042949324 2465:0.0031050988 2495:0.0011556689 2505:0.005635303 2766:0.0037564272 2857:0.02658789 2970:0.0023848433 2993:0.0030519457 3065:0.0022347949 3278:0.010692282 3286:0.0031937715 3341:0.017815366 3417:0.0036231701 3458:0.0015383977 3545:0.0025916551 3582:0.0044859704 3590:0.0052155135 3603:0.0044859704 3649:0.0072463402 3657:0.00402568 3723:0.0010677312 3767:0.0033743514 3816:0.0061224019 3828:0.00402568 3893:0.0021313648 3922:0.0028545533 4047:0.0032602327 4058:0.0042949324 4144:0.0021313648 4149:0.0025306896 4173:0.001782008 4194:0.017561181 4201:0.01206959 4396:0.0019824689 4462:0.003834642 4482:0.0022653318 4518:0.0027826931 4662:0.0056250202 4704:0.0010913097 4718:0.0025544085 5008:0.0028936267 5208:0.0044859704 5286:0.0073729232 5367:0.012412801 5438:0.01467572 5445:0.003133361 5619:0.0031937715 5675:0.0052155135 5712:0.0039973767 5715:0.019162629 5756:0.0069962004 6021:0.0035653894 6122:0.012440256 6138:0.0022150141 6141:0.0066431575 6146:0.0043215943 6380:0.0015357885 6573:0.012832968 6618:0.0081535662 6701:0.0027178554 6739:0.0041882358 6913:0.007207646 6931:0.0056716921 7112:0.0031937715 7200:0.00090933417 7248:0.0086211367 7395:0.01350472 7515:0.0042949324 7554:0.0042949324 7564:0.0015928593 7759:0.0041467519 7767:0.0018452995 7804:0.0047552232 7870:0.0089391796 7924:0.0044859704 7970:0.0050848862 8122:0.0069260485 8371:0.0029351439 8399:0.0030519457 8658:0.003133361 8681:0.0021776364 8716:0.0047552232 8800:0.0044859704 8955:0.007669284 9048:0.0027178554 9297:0.0065744142 9428:0.0029569184 9535:0.0013332535 9556:0.0052155135 9636:0.0030779906 9660:0.0023848433 9906:0.0039233146 9966:0.00805136 9981:0.0047552232 9983:0.0042949324 9989:0.014422907 10012:0.0035945487 10014:0.011769944 10015:0.0033184262 10024:0.006153591 10084:0.0044695898 10155:0.0052568554 10197:0.0032961366 10237:0.0041467519 10304:0.0052155135 10318:0.00031624752 10417:0.0032602327 10491:0.0052155135 10574:0.0035653894 10874:0.003834642 10977:0.0052155135 10983:0.0021984985 10985:0.0032920248 11078:0.0033743514 11173:0.0031937715 11194:0.012077039 11240:0.0039880052 11248:0.0057476051 11315:0.02536219 11335:0.0024333363 11393:0.0086384751 11459:0.0019780956 11524:0.0044859704 11586:0.0018370502 #
-1.1803165182176960090743023101822 318:0.011578806 626:0.013618977 833:0.031432066 1008:0.019509608 1075:0.033228975 1344:0.022750782 1363:0.0099359574 1426:0.0068006883 1475:0.014968087 1720:0.00035916985 1822:0.018324509 1997:0.0095237885 2140:0.021981364 2245:0.0083390297 2483:0.013071454 2857:0.035852537 3278:0.018022558 3341:0.017159425 4013:0.03516439 4173:0.012014776 5438:0.019789528 5682:0.019936336 6145:0.0092824828 7031:0.014413491 8122:0.023348637 8146:0.015067586 8269:0.012760408 8339:0.028957587 8969:0.03516439 9048:0.018324509 9178:0.023039738 9297:0.014775488 9617:0.011743343 10015:0.0074579064 10084:0.015067586 10118:0.013546761 10318:0.0021322255 11240:0.0020683231 11315:0.048856765 #
-1.1829802609712130045949152190587 6:0.010739811 76:0.016050776 310:0.019491119 594:0.011604198 1180:0.014038305 1363:0.0055073588 1426:0.015078098 1678:0.019491119 1720:7.9633086e-05 1822:0.010157013 1997:0.0105578 2483:0.0072453204 2742:0.019491119 2805:0.016764712 2845:0.0095917266 3065:0.0083517479 3066:0.0096381139 3147:0.11735298 3290:0.019491119 3341:0.01585204 3458:0.0057492121 3604:0.017770948 4144:0.023895644 4173:0.026638472 4396:0.0074087689 4733:0.011935581 5756:0.0130729 5894:0.012770598 6146:0.003588981 6380:0.011478922 6821:0.024919964 6913:0.013468001 7492:0.033529423 7513:0.033529423 7878:0.010463784 8191:0.019491119 8269:0.0070729121 9008:0.016050776 9530:0.012770598 9535:0.0024912793 9706:0.012318133 9844:0.016050776 9882:0.013776833 10012:0.013433342 10013:0.014330605 10015:0.0082676215 10024:0.011498424 10161:0.013823414 10318:0.0023637244 10532:0.0069117071 10536:0.0079179425 10801:0.025541196 10860:0.014661987 11237:0.024040211 11240:0.0022928838 11393:0.0064566429 11459:0.007392426 11586:0.0068653193 #
-1.7836186538929081901727613512776 566:0.0043441993 833:0.03154045 990:0.0077151018 1114:0.0052183405 1326:0.0080405679 1426:0.004549426 1444:0.0070025329 1569:0.015412791 1720:9.6108895e-05 1794:0.0039199586 1997:0.003185543 2025:0.0059033651 2483:0.0087443525 2857:0.0059960275 3094:0.023523765 3341:0.015305419 3456:0.0088477507 3458:0.0034693521 3579:0.004835675 3668:0.035285648 3723:0.0024079178 3816:0.0034517681 3906:0.0090786023 3978:0.011761882 4025:0.017893497 4081:0.016081136 4173:0.0040187351 4418:0.0056055724 4662:0.0084569268 4758:0.011761882 5114:0.010116637 5117:0.0048955856 5140:0.0050065671 5250:0.0099804001 5346:0.010116637 5490:0.0060611493 5756:0.013148032 5802:0.0057071415 6141:0.0021402093 6145:0.0031048306 6146:0.0021657643 6380:0.013853871 6409:0.0050065671 6573:0.0057881107 6913:0.013545403 6935:0.007518955 7031:0.0048210644 7074:0.011761882 7200:0.0020507055 7343:0.0079206983 8092:0.038743254 8371:0.0066192555 8512:0.058809411 8533:0.0093516409 8554:0.0074333563 8857:0.011761882 8923:0.047047529 9055:0.023523765 9530:0.0077063954 9535:0.0015033581 9560:0.0073523871 9899:0.011761882 9931:0.0083136065 9989:0.0054210234 10015:0.002494541 10084:0.0050398479 10086:0.011761882 10106:0.011761882 10155:0.0029637788 10318:0.00071319268 10463:0.0093516409 10473:0.0096858134 10483:0.011761882 10523:0.024244597 10848:0.010116637 10886:0.0072025056 11237:0.004835675 11240:0.0041509103 11335:0.010975186 11459:0.0044609467 #
-0.29765863033439166063232050873921 387:0.088316351 833:0.0725931 1720:0.00033180453 1806:0.050509419 4154:0.14809123 6141:0.02955527 7031:0.0665766 9070:0.14809123 9226:0.061921723 9430:0.10153297 10318:0.0098488508 10417:0.10153297 #
-0.59498803161709035158821734512458 833:0.14291766 1537:0.078370497 1720:0.0013064803 2223:0.087777682 3723:0.021821754 4662:0.038320452 6146:0.0098136198 8031:0.082274832 9931:0.075342059 10318:0.0064633088 11240:0.0062696044 #
-1.8953189042496361160772266885033 71:0.0051936945 203:0.0065622707 566:0.0032220406 833:0.0038988623 839:0.011367214 951:0.0059635923 1049:0.0075033875 1108:0.0043784548 1281:0.0069359997 1352:0.0080214161 1368:0.012640802 1426:0.015184145 1466:0.0065177763 1477:0.0061661019 1570:0.0062831286 1650:0.0051483526 1703:0.0053420118 1720:3.5641406e-05 1785:0.019496633 1802:0.0039280937 1818:0.0046544275 1900:0.010274148 1997:0.009450716 2008:0.0033001839 2025:0.0087569095 2058:0.0046544275 2090:0.0060602385 2140:0.0054531773 2245:0.0041375235 2483:0.0032427905 2732:0.0059635923 2771:0.0059739528 2857:0.013341545 2929:0.007953749 2970:0.0039889705 3065:0.0037379945 3222:0.0038988623 3341:0.032636553 3428:0.005240967 3441:0.010296705 3458:0.0025731768 3463:0.0081401635 3723:0.0017859237 3736:0.025882404 3756:0.007953749 3799:0.0081401635 3846:0.022576224 4047:0.0054531773 4076:0.005104789 4139:0.0043784548 4149:0.0042329184 4171:0.0034728067 4173:0.0029806476 4201:0.0057680034 4228:0.0067334902 4396:0.011605809 4485:0.0047129006 4598:0.0058746869 4614:0.0044954815 4684:0.0062831286 4871:0.0048068208 5008:0.0048399791 5155:0.0065622707 5227:0.0065622707 5367:0.0025952596 5438:0.0049094222 5554:0.0064139538 5619:0.010684024 5682:0.009891686 5756:0.011702085 5946:0.013871999 6138:0.0074098166 6139:0.0033518551 6141:0.003174735 6144:0.0075033875 6146:0.0032126429 6380:0.0051376252 6447:0.0057157408 6524:0.005104789 6559:0.024240954 6638:0.0044710692 6739:0.0035026935 6788:0.0062831286 6871:0.0055132313 6879:0.0057157408 6913:0.012055756 7031:0.042908706 7150:0.0064139538 7395:0.0096807675 7548:0.022052925 7767:0.0061730226 7810:0.004572114 8173:0.0030590845 8181:0.0075033875 8332:0.0071838512 8492:0.0061661019 8681:0.0036423891 8782:0.0043137339 9074:0.0069359997 9156:0.007953749 9297:0.0073310602 9383:0.016147692 9388:0.0065622707 9566:0.0075033875 9670:0.0057157408 10012:0.0030061826 10015:0.0074006845 10118:0.0033607055 10193:0.0067334902 10197:0.011026463 10324:0.0066514383 10532:0.003093475 10666:0.0055767186 10710:0.0044710692 10732:0.0075033875 10983:0.0036772839 10985:0.0082595302 11081:0.0055767186 11237:0.0035865619 11393:0.0086694052 11544:0.0051936945 11574:0.0069359997 11586:0.0030727133 #
-1.1768207595499606821221050267923 47:0.0070910309 71:0.003340024 98:0.0094716325 156:0.0043302542 249:0.020222547 318:0.0073891063 531:0.028050542 566:0.0020720689 626:0.0021727644 763:0.012660434 814:0.0024283675 833:0.020058621 839:0.0048734439 863:0.0027476696 919:0.0035863437 1008:0.0062251049 1254:0.0042201444 1352:0.0034390062 1363:0.0031703548 1365:0.010178944 1368:0.0054194666 1426:0.01193476 1436:0.0024283675 1466:0.0020957652 1475:0.0047760014 1494:0.004124763 1550:0.0035863437 1650:0.0033108648 1703:0.0034354054 1720:2.2920707e-05 1785:0.0031345326 1794:0.0018697171 1795:0.0035863437 1802:0.0025261259 1838:0.0042201444 1899:0.0037779647 1918:0.0034021763 1952:0.0031125525 1997:0.013674782 2008:0.0063669668 2245:0.0053216177 2282:0.0056032096 2283:0.0037779647 2483:0.0020854129 2735:0.0065656989 2766:0.0040406305 2771:0.001920901 2786:0.0030504002 2857:0.0057198945 3124:0.0067408485 3172:0.0031806326 3286:0.0034354054 3341:0.038326479 3417:0.0077945828 3428:0.0033704243 3441:0.0066217296 3458:0.0049643693 3463:0.0026174374 3545:0.0027877344 3568:0.0042201444 3657:0.0086605083 3672:0.0043302542 3736:0.0083223851 3767:0.0036296479 3799:0.0026174374 3816:0.0049392078 3846:0.01814824 4076:0.016414247 4087:0.0028753092 4194:0.011333894 4201:0.0018546786 4396:0.0042649163 4423:0.0040406305 4482:0.0024367219 4597:0.0053710351 4614:0.0028910087 4641:0.0029932258 4684:0.0040406305 4718:0.0027476696 4742:0.0024283675 5240:0.002844909 5264:0.0026394175 5286:0.0079307426 5315:0.0039653713 5334:0.0039653713 5367:0.0066759638 5682:0.0063612652 5712:0.0064497143 5756:0.010034025 5945:0.0043302542 6070:0.0042201444 6138:0.0023825974 6139:0.0043111029 6141:0.0051041176 6146:0.0041320506 6334:0.0071726874 6380:0.001651983 6466:0.0029234826 6573:0.011043106 6638:0.0057506184 6739:0.0022525545 6809:0.0035863437 6875:0.0029402904 6913:0.011629442 7031:0.0091980835 7039:0.0038351391 7112:0.0034354054 7179:0.0033704243 7395:0.0083008334 7587:0.0044604866 7759:0.0044604866 7767:0.001984911 7970:0.0054695983 8023:0.0046198783 8146:0.0048077493 8173:0.001967273 8226:0.0031345326 8245:0.0033704243 8280:0.0031125525 8295:0.0033108648 8314:0.0042201444 8371:0.0031572108 8444:0.0026975228 8743:0.0044604866 8835:0.0030308291 8904:0.0029932258 8961:0.0035863437 8972:0.004124763 9048:0.0029234826 9090:0.0027097333 9178:0.0036757477 9383:0.0025961134 9535:0.00071706227 9636:0.0033108648 9643:0.0070910309 9660:0.0025652754 9865:0.0039653713 9906:0.0042201444 9966:0.0043302542 9988:0.0033108648 10012:0.0038665046 10014:0.016880577 10015:0.015467796 10155:0.0056545781 10188:0.0051922267 10318:0.00034017413 10324:0.0042774873 10417:0.0035068952 10536:0.0022790132 10666:0.0035863437 10671:0.0050146552 10710:0.0028753092 11081:0.0035863437 11103:0.0074500586 11194:0.0086605083 11240:0.00098993757 11248:0.0030912284 11393:0.014867269 11459:0.0063832626 11544:0.003340024 11586:0.0019760376 #
-0.32648184377327954530656484166684 47:0.0067470213 71:0.0031779883 98:0.009012132 149:0.0025220742 156:0.0041201795 249:0.019241484 318:0.0070306361 566:0.0019715459 626:0.0020673564 763:0.012046234 814:0.0023105594 833:0.021471199 839:0.0046370169 863:0.0026143712 919:0.0034123582 977:0.0028308074 1008:0.0059231045 1254:0.0040154113 1352:0.004908253 1363:0.0030165503 1365:0.0096851299 1368:0.0051565506 1426:0.013420451 1436:0.0023105594 1466:0.0019940927 1475:0.0045443019 1494:0.0039246571 1550:0.0034123582 1593:0.0043957527 1650:0.003150244 1703:0.0032687427 1720:2.1808748e-05 1785:0.0059649325 1794:0.001779011 1802:0.0024035752 1899:0.003594683 1918:0.0032371255 1952:0.0029615522 1997:0.013011373 2008:0.0080774454 2245:0.0050634481 2282:0.0053313794 2283:0.003594683 2483:0.0019842426 2735:0.0062471754 2766:0.0038446062 2771:0.0036554234 2786:0.0029024153 2848:0.004591275 2857:0.0054424037 3124:0.0064138281 3172:0.0030263297 3286:0.0032687427 3341:0.039940197 3417:0.007416442 3428:0.0032069141 3441:0.006300488 3458:0.0047235312 3463:0.0024904569 3545:0.0026524921 3568:0.0040154113 3657:0.0082403589 3736:0.0052790921 3767:0.0034535616 3799:0.0024904569 3816:0.0062661204 3846:0.017267808 4076:0.015617939 4087:0.0027358185 4194:0.01078405 4201:0.0035294041 4396:0.0040580113 4423:0.0038446062 4482:0.0023185085 4485:0.0028837936 4597:0.0051104682 4614:0.0027507565 4684:0.0038446062 4718:0.0026143712 4742:0.0023105594 5240:0.002706893 5264:0.0025113707 5286:0.0075459965 5315:0.0037729982 5334:0.0037729982 5367:0.0079401135 5682:0.0060526594 5712:0.0061368174 5756:0.010740646 5945:0.0041201795 6055:0.013347057 6070:0.0040154113 6138:0.0022670096 6139:0.0041019572 6141:0.0048564998 6146:0.0034401424 6380:0.0015718399 6573:0.010507368 6638:0.005471637 6739:0.0021432757 6809:0.0034123582 6875:0.0027976471 6913:0.012294733 7031:0.013127781 7112:0.0032687427 7179:0.0032069141 7395:0.0078981332 7587:0.0042440938 7759:0.0042440938 7767:0.0018886164 7906:0.0039246571 7970:0.0052042496 8023:0.0043957527 8146:0.0045745098 8173:0.0018718342 8226:0.0029824662 8245:0.0032069141 8269:0.0019370259 8280:0.0029615522 8295:0.003150244 8314:0.0040154113 8371:0.0030040441 8444:0.002566657 8743:0.0042440938 8832:0.0042440938 8835:0.0028837936 8904:0.0028480145 8961:0.0034123582 8972:0.0039246571 9048:0.0027816547 9090:0.0025782753 9178:0.003497425 9227:0.0041201795 9383:0.0024701674 9535:0.0013645504 9636:0.003150244 9660:0.0024408256 9706:0.0033735107 9865:0.0037729982 9906:0.0040154113 9966:0.0041201795 9988:0.003150244 10012:0.0036789277 10014:0.016061645 10015:0.018113725 10155:0.0053802556 10188:0.0049403347 10318:0.00064734236 10324:0.0061049582 10417:0.0033367642 10666:0.0034123582 10671:0.0047713774 10710:0.0027358185 11081:0.0034123582 11103:0.0070886319 11194:0.0082403589 11248:0.0029412629 11393:0.014146009 11459:0.0060735894 11544:0.0031779883 11586:0.0018801735 #
-4.0361589166843057085998225375079 47:0.0045574489 71:0.0042933077 318:0.018996095 526:0.003467429 566:0.0026634627 833:0.0096688485 839:0.0093965763 923:0.0039210217 1008:0.0080018267 1352:0.0044205408 1363:0.0020376064 1365:0.010467311 1426:0.0083678653 1475:0.0030695654 1504:0.004185163 1550:0.0046099303 1627:0.0050971373 1650:0.0042558261 1703:0.0044159126 1714:0.0050971373 1720:2.9462559e-05 1785:0.0040291669 1794:0.0024033573 1802:0.0064942264 1997:0.0078123254 2000:0.010019252 2008:0.002728059 2017:0.005009626 2034:0.0050971373 2069:0.005938448 2245:0.0034202363 2417:0.015291411 2483:0.0026806153 2735:0.0084396303 2771:0.0024691497 2786:0.0078420434 2857:0.0036762115 2976:0.0039468873 3124:0.012997154 3341:0.036362503 3428:0.004332385 3441:0.0085116522 3458:0.002127087 3463:0.0033644862 3545:0.0035833879 3635:0.0026740334 3645:0.0077427579 3690:0.005938448 3723:0.0014763132 3736:0.010697695 3799:0.0033644862 3816:0.0084652239 3846:0.023327969 4076:0.021099076 4087:0.0036959578 4173:0.0024639179 4201:0.0023840268 4223:0.005733564 4284:0.0013995413 4396:0.01370544 4540:0.0024797034 4597:0.0069039939 4614:0.0037161382 4742:0.0031214533 5329:0.005938448 5367:0.0085813655 5445:0.004332385 5682:0.0081768483 5756:0.0096733933 6138:0.0030626198 6141:0.0039365371 6145:0.0019035959 6146:0.0019917707 6334:0.0092198607 6380:0.0084939171 6581:0.0045574489 6638:0.0036959578 6739:0.0057909223 6913:0.0099657513 7031:0.0088674966 7122:0.0049297349 7179:0.004332385 7195:0.0050971373 7200:0.0012573035 7248:0.0023840268 7395:0.013337492 7664:0.0053020208 7767:0.002551429 8146:0.00308997 8173:0.0025287569 8245:0.004332385 8269:0.0026168278 8364:0.0051938761 8371:0.0040583173 8444:0.003467429 8465:0.0075157606 8482:0.0037161382 8540:0.011132324 8617:0.0044607101 8961:0.0046099303 9048:0.0037578803 9090:0.0034831245 9178:0.0047248513 9284:0.0055661621 9297:0.0030300682 9383:0.0033370759 9419:0.0054246252 9535:0.00092172064 9617:0.0048165084 9660:0.006594873 10012:0.0024850261 10015:0.015294226 10155:0.0018171159 10186:0.0051938761 10188:0.0066741519 10318:0.00087452802 10324:0.0054983348 10666:0.0046099303 10710:0.0036959578 10790:0.011876896 10832:0.003211102 10943:0.0054246252 10985:0.0045517636 10993:0.0046099303 11081:0.0046099303 11103:0.009576397 11137:0.0035833879 11240:0.00042415928 11393:0.0095552858 11459:0.0027350413 11544:0.0042933077 11586:0.0025400228 #
