SVM-light Version V6.02
0 # kernel type
3 # kernel parameter -d 
1 # kernel parameter -g 
1 # kernel parameter -s 
1 # kernel parameter -r 
empty# kernel parameter -u 
28 # highest feature index 
10 # number of training documents 
10 # number of support vectors plus 1 
-0.22402001 # threshold b, each following line is a SV (starting with alpha*y)
-0.046404804711745739620454287432949 1:1 3:5 27:1 28:1 #
0.060563941783847129174400691908886 3:2 #
-0.060563941783847129174400691908886 18:1 #
0.060563941783847129174400691908886 3:3 5:1 11:1 12:1 19:1 21:1 22:1 23:1 26:1 #
-0.020922462079665575529485721517631 3:3 8:1 15:1 27:4 #
0.060563941783847129174400691908886 3:1 13:1 16:1 #
-0.060563941783847129174400691908886 3:2 15:1 18:2 #
0.060563941783847129174400691908886 3:2 12:1 25:2 #
-0.053800616776282929321073567052736 3:5 4:1 12:1 18:1 #
