SVM-light Version V6.02
0 # kernel type
3 # kernel parameter -d 
1 # kernel parameter -g 
1 # kernel parameter -s 
1 # kernel parameter -r 
empty# kernel parameter -u 
472 # highest feature index 
47 # number of training documents 
38 # number of support vectors plus 1 
0.55347623 # threshold b, each following line is a SV (starting with alpha*y)
-41.099216053057276099025330040604 2:0.0068528601 3:0.004385401 10:0.0068528601 13:0.0068528601 33:0.0068528601 38:0.0068528601 44:0.0068528601 45:0.0068528601 57:0.01370572 58:0.0033893436 59:0.011471428 70:0.0068528601 71:0.0068528601 72:0.0068528601 75:0.0068528601 76:0.002867857 79:0.0068528601 83:0.0068528601 105:0.00066420698 107:0.0068528601 110:0.004385401 113:0.0068528601 114:0.0068528601 116:0.0068528601 118:0.011238261 126:0.0068528601 130:0.0068528601 137:0.0034166013 145:0.0068528601 155:0.0068528601 156:0.0036637157 158:0.0068528601 162:0.0068528601 165:0.0068528601 188:0.0068528601 189:0.01370572 192:0.0068528601 197:0.0076717683 202:0.0068528601 206:0.014692335 208:0.0068528601 219:0.020558581 225:0.0068528601 242:0.020558581 243:0.0018100366 247:0.004897445 248:0.01370572 249:0.0068528601 255:0.0068528601 256:0.0068528601 265:0.0068528601 270:0.01370572 274:0.004897445 277:0.0068528601 280:0.0068528601 282:0.0068528601 287:0.0022875185 289:0.01370572 292:0.0068528601 293:0.0033893436 309:0.0034377025 315:0.016526997 323:0.0068528601 326:0.0068528601 329:0.0056191306 332:0.0068528601 333:0.0068528601 335:0.0068528601 338:0.0068528601 342:0.0068528601 343:0.020558581 344:0.0056750569 345:0.0068528601 349:0.0068528601 358:0.01370572 376:0.0068528601 383:0.0068528601 384:0.0068528601 386:0.0068625552 393:0.0068528601 395:0.003161367 397:0.0068528601 400:0.0068528601 402:0.013666405 406:0.0084303115 407:0.0685286 408:0.0068528601 411:0.0056191306 426:0.0068528601 430:0.0056191306 433:0.0068528601 439:0.0068528601 446:0.0013511278 448:0.0031516715 449:0.0068528601 453:0.0020328138 464:0.0068528601 465:0.0068528601 469:0.0068528601 470:0.0068528601 #
120.5951152459933837235439568758 35:0.019232554 59:0.016273422 73:0.00021720992 76:0.016273422 90:0.024884602 135:0.038885996 173:0.006788061 175:0.0318853 177:0.017883904 184:0.006788061 223:0.038885996 240:0.0318853 307:0.038885996 317:0.0048767407 375:0.0029774376 395:0.0059796399 440:0.027790153 446:0.0076668644 467:0.038885996 #
-26.474237583760366732121838140301 11:0.034124445 59:0.0071403789 62:0.016877547 67:0.034124445 73:0.00019061279 76:0.0071403789 78:0.018243808 105:0.0033074797 106:0.034124445 110:0.021837508 121:0.024387278 138:0.019859752 144:0.034124445 150:0.034124445 174:0.015694039 186:0.012100339 266:0.034124445 311:0.034124445 344:0.0018839645 355:0.018243808 378:0.034124445 386:0.011390909 391:0.027980978 402:0.0085066399 406:0.010494878 409:0.034124445 436:0.024387278 457:0.034124445 458:0.024387278 #
-23.222483499199451983940889476798 12:0.011809681 60:0.032644473 62:0.019690473 73:0.00022238158 78:0.021284442 90:0.025477093 119:0.039811853 137:0.0099244127 186:0.014117062 284:0.032644473 317:0.0099857077 336:0.028451825 344:0.0065938756 352:0.039811853 356:0.065288946 375:0.0030483289 402:0.0099244127 413:0.039811853 432:0.028451825 450:0.023169711 #
-15.047286256370915324964698811527 59:0.0062478315 62:0.014767854 73:0.00016678618 105:0.0014470223 133:0.029858891 137:0.0074433098 173:0.0052122609 184:0.0052122609 186:0.010587797 195:0.0032274316 197:0.0083567481 274:0.021338867 284:0.024483355 310:0.014767854 317:0.0037446404 344:0.0065938756 355:0.079816662 361:0.059717782 375:0.0022862467 381:0.024483355 390:0.029858891 452:0.029858891 #
120.5951152459933837235439568758 3:0.0039926786 5:0.0062391711 8:0.0062391711 12:0.0018507709 19:0.0062391711 22:0.0062391711 28:0.0062391711 31:0.0062391711 34:0.0051159249 35:0.0092574609 39:0.012478342 46:0.0051159249 51:0.0051159249 59:0.0052220682 69:0.0051159249 73:3.4850844e-05 74:0.0022123754 76:0.001305517 77:0.014524296 78:0.010006865 81:0.0044588679 96:0.0051159249 103:0.0051159249 105:0.0021165402 109:0.0062391711 110:0.0039926786 117:0.0039926786 121:0.0044588679 123:0.0062391711 124:0.0062391711 127:0.0062391711 129:0.0062391711 131:0.0051159249 138:0.003631074 148:0.0044588679 157:0.0044588679 171:0.0051159249 175:0.0051159249 177:0.0028694323 186:0.0022123754 190:0.003631074 196:0.012478342 197:0.013969488 209:0.0062391711 212:0.018717512 214:0.0051159249 215:0.0079853572 218:0.0033356217 222:0.0050156559 230:0.0062391711 234:0.0051159249 235:0.0092574609 237:0.0039926786 240:0.01023185 244:0.0062391711 254:0.0062391711 259:0.0051159249 263:0.010006865 271:0.012478342 272:0.0028694323 275:0.012478342 278:0.0062391711 283:0.0062391711 285:0.0062391711 293:0.015429101 299:0.0044588679 301:0.00095941982 308:0.030695548 309:0.00078246219 315:0.0025078279 316:0.0062391711 321:0.007262148 330:0.0051159249 334:0.0062391711 344:0.001722281 351:0.0062391711 353:0.01023185 363:0.0051159249 370:0.0051159249 386:0.012495996 387:0.013376604 391:0.01023185 392:0.0062391711 395:0.0028782594 401:0.012478342 402:0.0046659554 406:0.0028782594 412:0.012478342 415:0.020463699 417:0.0051159249 418:0.0041653323 423:0.0062391711 424:0.0051159249 428:0.0030858202 429:0.0062391711 436:0.0044588679 440:0.0044588679 445:0.0051159249 453:0.0037015418 454:0.0062391711 458:0.0044588679 461:0.0062391711 468:0.012478342 #
97.930156994056204666776466183364 32:0.037157729 73:0.00020755614 82:0.037157729 85:0.037157729 125:0.037157729 176:0.037157729 177:0.017089063 185:0.037157729 222:0.014935508 252:0.037157729 272:0.017089063 276:0.037157729 344:0.002051428 389:0.037157729 394:0.037157729 #
60.571101311370895814434334170073 9:0.025228206 27:0.016673014 73:0.00037360104 86:0.066883914 105:0.0032413302 179:0.066883914 186:0.023716664 294:0.054842714 301:0.010284981 309:0.008387994 337:0.13376783 344:0.0073851408 402:0.016673014 #
67.859519336482819085176743101329 59:0.014578274 73:0.00038916775 78:0.037247777 105:0.0033763854 138:0.040546995 214:0.057127826 235:0.034458324 293:0.034458324 308:0.057127826 310:0.034458324 321:0.040546995 329:0.057127826 395:0.010713521 471:0.069670744 #
120.5951152459933837235439568758 3:0.010918754 14:0.017062223 15:0.013990489 16:0.013990489 34:0.013990489 35:0.0084387735 59:0.0071403789 65:0.013990489 68:0.017062223 69:0.013990489 73:9.5306394e-05 74:0.0060501695 76:0.0071403789 77:0.0099298758 81:0.012193639 90:0.021837508 96:0.027980978 100:0.017062223 102:0.013990489 105:0.0016537398 173:0.0029784348 177:0.023541057 182:0.017062223 184:0.0029784348 217:0.013990489 222:0.013716283 232:0.013990489 245:0.017062223 272:0.0078470195 290:0.017062223 302:0.0064357673 309:0.0042795888 315:0.0068581416 317:0.0042795888 344:0.0075358581 364:0.017062223 375:0.0013064267 386:0.0056954543 395:0.0052474388 402:0.0042533199 406:0.0078711584 440:0.012193639 445:0.013990489 448:0.0078470195 #
-91.227003717242823199740087147802 3:0.002210822 6:0.0034547476 7:0.0034547476 12:0.001024807 20:0.0034547476 23:0.0034547476 24:0.014813759 27:0.00086120941 29:0.0034547476 30:0.0034547476 35:0.005126032 40:0.0034547476 41:0.0034547476 46:0.0028327848 48:0.0034547476 49:0.0034547476 51:0.0056655696 53:0.0034547476 55:0.0034547476 56:0.01381899 59:0.0021686687 64:0.010364243 66:0.0028327848 73:1.9297575e-05 77:0.012063568 78:0.0092349853 80:0.0034547476 84:0.0034547476 87:0.0034547476 91:0.0034547476 95:0.0034547476 98:0.0034547476 99:0.0034547476 105:0.0013393926 110:0.002210822 112:0.0034547476 115:0.0069094952 117:0.002210822 120:0.0034547476 121:0.0024689599 131:0.0028327848 136:0.020728486 137:0.0051672566 138:0.0040211896 139:0.0034547476 140:0.0034547476 141:0.014813759 142:0.0028327848 146:0.0034547476 149:0.0040211896 152:0.0034547476 154:0.0034547476 159:0.010364243 161:0.0069094952 163:0.0034547476 167:0.0034547476 170:0.0034547476 178:0.0034547476 181:0.0056655696 183:0.0034547476 186:0.0012250344 187:0.001024807 197:0.010635861 199:0.0034547476 201:0.0069094952 203:0.0034547476 204:0.0034547476 205:0.001388632 206:0.0049379198 211:0.010364243 213:0.0034547476 215:0.002210822 216:0.0034547476 217:0.0028327848 221:0.010364243 222:0.0041658957 227:0.0028327848 228:0.0069094952 229:0.0034547476 231:0.0024689599 233:0.0034547476 234:0.0028327848 235:0.005126032 236:0.0034547476 237:0.002210822 238:0.0028327848 241:0.0069094952 243:0.0027374935 247:0.014813759 250:0.0020105948 251:0.0034547476 257:0.010364243 259:0.0028327848 260:0.0034547476 262:0.0028327848 263:0.0055409912 267:0.0034547476 273:0.0015888592 288:0.0034547476 291:0.0034547476 293:0.005126032 295:0.0034547476 297:0.0069094952 298:0.0034547476 299:0.0049379198 300:0.0069094952 301:0.0015937469 302:0.0026062196 303:0.0034547476 309:0.0021663208 314:0.0034547476 315:0.002777264 317:0.0030328492 318:0.020728486 320:0.0034547476 324:0.0034547476 327:0.0034547476 331:0.0034547476 339:0.0034547476 341:0.0034547476 344:0.0028609792 347:0.0034547476 348:0.0034547476 350:0.010364243 353:0.0028327848 354:0.0034547476 359:0.0069094952 363:0.0028327848 369:0.0034547476 372:0.0034547476 377:0.0034547476 379:0.0034547476 385:0.0034547476 386:0.0057660588 387:0.0098758396 388:0.0034547476 395:0.0037187429 396:0.0034547476 398:0.017273739 399:0.0088432878 402:0.0034448376 405:0.0034547476 406:0.0031874939 410:0.0028327848 411:0.0028327848 414:0.0034547476 415:0.014163924 416:0.0028327848 417:0.0028327848 418:0.0023064236 419:0.0034547476 421:0.0034547476 422:0.0034547476 424:0.0028327848 427:0.0069094952 434:0.0034547476 435:0.0018469971 441:0.0034547476 442:0.0034547476 443:0.0034547476 446:0.0040868823 448:0.0031777185 450:0.0020105948 451:0.0034547476 456:0.0034547476 458:0.0049379198 463:0.0034547476 #
-26.935560147365627869930904125795 21:0.017979547 54:0.07191819 73:0.00010043039 76:0.0075242701 77:0.031391222 103:0.014742665 105:0.0043566264 153:0.017979547 173:0.0031385657 184:0.0031385657 187:0.021333616 195:0.0019433997 205:0.014453718 206:0.012849211 243:0.0094978269 263:0.019224659 272:0.0082689021 299:0.012849211 302:0.006781776 317:0.0067645116 319:0.017979547 344:0.0029778795 360:0.014742665 375:0.0013766646 395:0.0027647796 399:0.011505784 402:0.017927973 406:0.0055295592 418:0.0060016615 428:0.017784942 437:0.017979547 453:0.010666808 472:0.017979547 #
-62.379428189984146513324958505109 35:0.011985505 47:0.048466604 59:0.005070704 73:0.0001353627 76:0.005070704 88:0.017318502 104:0.017318502 105:0.001174395 122:0.024233302 157:0.017318502 173:0.0042302408 184:0.0042302408 186:0.008592994 187:0.0071885013 200:0.017318502 207:0.019870549 218:0.012955748 235:0.011985505 293:0.011985505 305:0.024233302 309:0.0060782568 344:0.0053515513 375:0.0018555046 386:0.0080891959 387:0.017318502 402:0.006040947 425:0.017318502 448:0.011145041 453:0.0071885013 466:0.017318502 #
-106.069555261621047748121782206 58:0.030629624 73:0.00034592691 105:0.0030012315 137:0.015437976 173:0.010810615 177:0.056963544 180:0.039631031 184:0.010810615 187:0.018370615 317:0.0077666617 446:0.024420384 #
-31.492362996859775137181713944301 9:0.010172664 27:0.026891958 73:0.00015064559 74:0.0095631713 92:0.0084833838 94:0.011578312 168:0.0084833838 186:0.0095631713 195:0.0029150995 197:0.0075480305 205:0.010840288 210:0.011578312 222:0.032520864 243:0.0071233697 268:0.010840288 273:0.012403353 287:0.0090024918 301:0.0082943393 309:0.0033822558 317:0.0033822558 344:0.0029778795 375:0.0020649971 395:0.0041471696 406:0.0041471696 418:0.0090024918 446:0.010634683 450:0.015695611 453:0.0080001066 #
120.5951152459933837235439568758 26:0.024319042 52:0.020316968 73:0.00021227333 76:0.0079517858 105:0.0018416648 142:0.031160634 173:0.006633787 184:0.006633787 193:0.031160634 195:0.0041076401 262:0.031160634 301:0.011687478 344:0.0041961027 371:0.038002223 375:0.0029097686 406:0.005843739 #
120.5951152459933837235439568758 73:0.00023948785 76:0.008971245 105:0.0041555515 173:0.0074842721 184:0.0074842721 193:0.035155587 195:0.0046342607 239:0.085748605 301:0.0065929363 375:0.0032828157 459:0.042874303 #
120.5951152459933837235439568758 26:0.030572511 73:0.00026685788 76:0.0099965306 105:0.0046304716 143:0.047774225 173:0.0083396174 184:0.0083396174 195:0.0051638903 301:0.0073464145 375:0.0036579946 420:0.055607308 #
120.5951152459933837235439568758 12:0.0059048403 26:0.012738546 62:0.0098452363 73:0.00011119079 74:0.007058531 76:0.004165221 81:0.014225912 105:0.0028940446 111:0.019905927 137:0.0049622064 151:0.019905927 156:0.010642221 173:0.0034748407 184:0.0034748407 195:0.002151621 205:0.0080011645 222:0.0080011645 232:0.016322237 243:0.0052577252 247:0.014225912 272:0.054929134 279:0.019905927 287:0.0066446965 301:0.0061220122 302:0.0075083948 309:0.0049928539 315:0.016002329 317:0.0049928539 322:0.019905927 330:0.016322237 344:0.0043959171 370:0.016322237 375:0.0015241645 386:0.0066446965 395:0.0061220122 399:0.012738546 402:0.0049622064 406:0.0030610061 446:0.0039247046 #
85.414397669368952392687788233161 15:0.037055887 59:0.0094561772 63:0.090383671 73:0.00025243315 102:0.037055887 173:0.0078888275 177:0.020783996 184:0.0078888275 195:0.0048847613 222:0.018164806 264:0.045191836 274:0.032296665 286:0.045191836 309:0.005667564 317:0.005667564 344:0.0024949801 406:0.0069493111 446:0.00891014 #
-75.210357496986659953108755871654 16:0.033440679 26:0.026098484 73:0.00022780552 76:0.017067246 138:0.023734827 168:0.012828533 195:0.0044081993 301:0.018813988 344:0.0022515673 365:0.040782876 375:0.0031226785 399:0.026098484 444:0.058291543 446:0.016081717 #
-120.5951152459933837235439568758 27:0.015249708 50:0.013049242 59:0.0042668115 61:0.013049242 73:0.00011390276 76:0.0042668115 105:0.0019764209 128:0.013049242 132:0.013049242 156:0.010901788 164:0.010901788 168:0.0064142663 173:0.0035595929 184:0.0035595929 187:0.006048861 190:0.011867413 195:0.0044081993 205:0.0081963157 218:0.010901788 269:0.010901788 301:0.0094069941 302:0.0076915263 309:0.0051146308 310:0.010085364 317:0.0051146308 325:0.013049242 344:0.0056289183 368:0.013049242 375:0.0015613392 380:0.011867413 395:0.0031356649 402:0.0050832359 406:0.0031356649 420:0.023734827 448:0.0093781445 #
-106.32827527584554161421692697331 12:0.0087018702 52:0.015683275 62:0.014508769 73:0.00016386011 78:0.015683275 92:0.0092275403 105:0.001421636 173:0.005120818 184:0.005120818 187:0.0087018702 194:0.018772595 205:0.01179119 222:0.02358238 237:0.018772595 301:0.0090219127 306:0.024053821 317:0.0036789449 344:0.0048586451 366:0.024053821 375:0.002246137 395:0.0045109564 406:0.0090219127 420:0.017072419 428:0.029017538 446:0.0057837749 #
-25.779503831457283524741797009483 58:0.016539996 73:0.00018680052 76:0.0069975713 97:0.066883914 105:0.0064826603 117:0.021400757 164:0.017878933 187:0.0099201323 195:0.0036147232 215:0.021400757 258:0.027421357 301:0.020569962 302:0.012614103 309:0.004193997 315:0.013441958 344:0.0036925704 375:0.0025605962 395:0.0051424904 428:0.016539996 #
-90.722739168949388499640917871147 9:0.0087597938 12:0.013777961 27:0.017367722 73:0.00012972258 74:0.0082349526 89:0.013515664 92:0.0073051364 94:0.0099702133 105:0.0011254618 134:0.027031329 137:0.0057892408 149:0.013515664 168:0.0073051364 195:0.0050204489 197:0.0064996928 210:0.0099702133 243:0.0061340132 268:0.0093346927 272:0.010680665 273:0.010680665 287:0.0077521461 301:0.0071423473 309:0.0058249962 317:0.0029124981 344:0.0064107124 375:0.0017781919 395:0.0035711736 435:0.012415925 446:0.0045788218 #
-74.16826745911916418663167860359 9:0.0073337811 27:0.014540419 59:0.0081367111 73:0.00010860496 74:0.0068943794 92:0.0061159283 94:0.0083471555 105:0.0018844942 137:0.0048468066 149:0.01131544 168:0.0061159283 173:0.0033940305 174:0.017883904 184:0.0033940305 195:0.0021015834 197:0.0054416033 210:0.0083471555 243:0.0051354528 250:0.02263088 268:0.0078150909 272:0.0089419521 287:0.0064901686 301:0.01195928 309:0.0024383704 317:0.0073151113 344:0.0064405301 375:0.0014887188 395:0.0089694597 406:0.00298982 438:0.02263088 444:0.013895077 446:0.0038334322 #
-54.67151045317697111158850020729 9:0.0071671042 12:0.0056364387 27:0.018946607 52:0.030475453 59:0.0079517858 73:0.00010613666 74:0.0067376886 77:0.011058271 92:0.0059769298 94:0.008157447 137:0.0047366517 147:0.015580317 168:0.0059769298 173:0.0033168935 184:0.0033168935 195:0.0020538201 197:0.010635861 198:0.015580317 210:0.008157447 243:0.0050187381 263:0.010158484 268:0.0076374756 287:0.0063426648 301:0.0087656081 304:0.019001111 309:0.0047659059 317:0.0047659059 344:0.0062941541 375:0.0014548843 386:0.0063426648 395:0.0029218695 406:0.0029218695 418:0.0063426648 432:0.013579279 438:0.011058271 446:0.0037463089 453:0.0056364387 #
-25.555014543194346288146334700286 58:0.016539996 73:0.00018680052 76:0.0069975713 101:0.066883914 105:0.0064826603 117:0.021400757 164:0.017878933 187:0.019840265 195:0.0036147232 215:0.021400757 258:0.027421357 301:0.020569962 302:0.012614103 309:0.004193997 315:0.013441958 344:0.0036925704 375:0.0025605962 395:0.0051424904 #
-48.603464161422650136046286206692 17:0.016720979 18:0.016720979 24:0.023899533 35:0.0082699982 43:0.016720979 59:0.0069975713 73:9.340026e-05 76:0.0069975713 88:0.011949766 93:0.016720979 104:0.011949766 105:0.0016206651 141:0.023899533 148:0.011949766 166:0.016720979 173:0.0029188662 174:0.0076900786 184:0.0029188662 186:0.005929166 187:0.0049600662 195:0.0018073616 197:0.0046797786 200:0.011949766 220:0.013710679 222:0.0067209788 226:0.016720979 231:0.023899533 235:0.0082699982 238:0.013710679 243:0.008832979 253:0.016720979 293:0.0082699982 309:0.0020969985 321:0.0097312788 344:0.0027694278 346:0.013710679 357:0.016720979 373:0.016720979 374:0.013710679 375:0.0012802981 402:0.016673014 403:0.013710679 404:0.013710679 425:0.011949766 462:0.016720979 466:0.011949766 #
-29.425441654226887067125062458217 12:0.010122583 42:0.034124445 73:0.00019061279 90:0.021837508 92:0.010734078 105:0.0033074797 118:0.027980978 137:0.0085066399 171:0.027980978 195:0.003688493 235:0.016877547 281:0.034124445 340:0.034124445 344:0.0056518936 355:0.036487617 367:0.034124445 375:0.0026128534 381:0.027980978 402:0.0085066399 406:0.0052474388 430:0.027980978 431:0.027980978 436:0.024387278 #
-12.028247009515288468151084089186 12:0.01458843 27:0.012259569 36:0.040325526 37:0.049179349 73:0.00027470666 76:0.010290546 105:0.0023833308 220:0.040325526 227:0.040325526 321:0.028621407 355:0.026292548 375:0.0037655828 402:0.012259569 431:0.080651052 450:0.028621407 #
-26.024961607485149528429246856831 9:0.015383053 12:0.012097722 62:0.020170728 66:0.033440679 73:0.00022780552 92:0.012828533 105:0.0019764209 157:0.029145772 173:0.0071191858 184:0.0071191858 263:0.021803576 312:0.040782876 315:0.016392631 317:0.0051146308 336:0.029145772 344:0.0045031346 355:0.021803576 375:0.0031226785 406:0.0062713297 418:0.013613525 447:0.040782876 453:0.012097722 #
-4.0050710758372556341555537073873 36:0.045702264 58:0.02756666 73:0.00031133421 105:0.008103325 160:0.16720979 180:0.03566793 195:0.006024539 #
-10.509801616454760520014133362565 73:0.00062266842 180:0.07133586 187:0.033067107 294:0.091404527 446:0.021978345 #
-21.074059475061190482847450766712 12:0.024494153 35:0.010209874 58:0.010209874 60:0.016926764 73:0.00011530897 76:0.0086389771 88:0.014752798 104:0.014752798 105:0.0030012315 108:0.020643184 148:0.014752798 169:0.020643184 173:0.0036035385 174:0.0094939247 177:0.0094939247 184:0.0036035385 186:0.014639916 187:0.0061235381 195:0.0022313106 200:0.014752798 207:0.016926764 268:0.01659501 302:0.0077864835 309:0.0051777745 317:0.0025888872 321:0.012013924 344:0.0056984113 375:0.0015806149 380:0.012013924 382:0.020643184 395:0.0031743767 402:0.0051459922 416:0.033853527 425:0.014752798 446:0.0040700641 455:0.016926764 466:0.014752798 #
-2.4111584436984010437754477607086 27:0.020841267 73:0.0001556671 92:0.0087661641 105:0.0027011083 137:0.006947089 173:0.004864777 184:0.004864777 195:0.0030122695 243:0.0073608155 269:0.01489911 287:0.0093025751 301:0.012856225 309:0.0069899955 317:0.0069899955 344:0.0046157129 375:0.0021338302 386:0.0093025751 406:0.0042854086 418:0.0093025751 428:0.041349992 446:0.0054945862 453:0.0082667768 #
-4.880859809347192879158683354035 27:0.013445979 50:0.011505784 59:0.003762135 61:0.011505784 73:0.00010043039 76:0.003762135 105:0.0017426505 128:0.011505784 132:0.011505784 137:0.0044819931 156:0.0096123293 164:0.0096123293 168:0.0056555895 173:0.0031385657 184:0.0031385657 187:0.0053334041 190:0.010463741 194:0.023011567 195:0.0038867993 205:0.0072268588 218:0.0096123293 269:0.0096123293 301:0.011059118 302:0.006781776 309:0.0067645116 310:0.008892471 317:0.0067645116 325:0.011505784 328:0.017979547 344:0.005955759 368:0.011505784 375:0.0013766646 380:0.010463741 395:0.0027647796 402:0.0044819931 406:0.0055295592 448:0.0082689021 #
