SVM-light Version V6.02
0 # kernel type
3 # kernel parameter -d 
1 # kernel parameter -g 
1 # kernel parameter -s 
1 # kernel parameter -r 
empty# kernel parameter -u 
472 # highest feature index 
47 # number of training documents 
36 # number of support vectors plus 1 
0.67592327 # threshold b, each following line is a SV (starting with alpha*y)
-0.003327674227038743791362573887227 2:1 3:1 10:1 13:1 33:1 38:1 44:1 45:1 57:1 58:1 59:1 70:1 71:1 72:1 75:1 76:1 79:1 83:1 105:1 107:1 110:1 113:1 114:1 116:1 118:1 126:1 130:1 137:1 145:1 155:1 156:1 158:1 162:1 165:1 188:1 189:1 192:1 197:1 202:1 206:1 208:1 219:1 225:1 242:1 243:1 247:1 248:1 249:1 255:1 256:1 265:1 270:1 274:1 277:1 280:1 282:1 287:1 289:1 292:1 293:1 309:1 315:1 323:1 326:1 329:1 332:1 333:1 335:1 338:1 342:1 343:1 344:1 345:1 349:1 358:1 376:1 383:1 384:1 386:1 393:1 395:1 397:1 400:1 402:1 406:1 407:1 408:1 411:1 426:1 430:1 433:1 439:1 446:1 448:1 449:1 453:1 464:1 465:1 469:1 470:1 #
-0.030849548637850922327974245717996 36:1 58:1 73:1 105:1 160:1 180:1 195:1 #
-0.017941693490555809392672514945843 11:1 59:1 62:1 67:1 73:1 76:1 78:1 105:1 106:1 110:1 121:1 138:1 144:1 150:1 174:1 186:1 266:1 311:1 344:1 355:1 378:1 386:1 391:1 402:1 406:1 409:1 436:1 457:1 458:1 #
-0.0079422270522692996197466897001505 12:1 60:1 62:1 73:1 78:1 90:1 119:1 137:1 186:1 284:1 317:1 336:1 344:1 352:1 356:1 375:1 402:1 413:1 432:1 450:1 #
-0.016541921478965226216528705549536 59:1 62:1 73:1 105:1 133:1 137:1 173:1 184:1 186:1 195:1 197:1 274:1 284:1 310:1 317:1 344:1 355:1 361:1 375:1 381:1 390:1 452:1 #
0.01408334883256581043786681561869 3:1 5:1 8:1 12:1 19:1 22:1 28:1 31:1 34:1 35:1 39:1 46:1 51:1 59:1 69:1 73:1 74:1 76:1 77:1 78:1 81:1 96:1 103:1 105:1 109:1 110:1 117:1 121:1 123:1 124:1 127:1 129:1 131:1 138:1 148:1 157:1 171:1 175:1 177:1 186:1 190:1 196:1 197:1 209:1 212:1 214:1 215:1 218:1 222:1 230:1 234:1 235:1 237:1 240:1 244:1 254:1 259:1 263:1 271:1 272:1 275:1 278:1 283:1 285:1 293:1 299:1 301:1 308:1 309:1 315:1 316:1 321:1 330:1 334:1 344:1 351:1 353:1 363:1 370:1 386:1 387:1 391:1 392:1 395:1 401:1 402:1 406:1 412:1 415:1 417:1 418:1 423:1 424:1 428:1 429:1 436:1 440:1 445:1 453:1 454:1 458:1 461:1 468:1 #
0.035270536072037957098235239072892 32:1 73:1 82:1 85:1 125:1 176:1 177:1 185:1 222:1 252:1 272:1 276:1 344:1 389:1 394:1 #
0.035270536072037957098235239072892 9:1 27:1 73:1 86:1 105:1 179:1 186:1 294:1 301:1 309:1 337:1 344:1 402:1 #
0.035270536072037957098235239072892 59:1 73:1 78:1 105:1 138:1 214:1 235:1 293:1 308:1 310:1 321:1 329:1 395:1 471:1 #
0.034911066065843134043067408356364 3:1 14:1 15:1 16:1 34:1 35:1 59:1 65:1 68:1 69:1 73:1 74:1 76:1 77:1 81:1 90:1 96:1 100:1 102:1 105:1 173:1 177:1 182:1 184:1 217:1 222:1 232:1 245:1 272:1 290:1 302:1 309:1 315:1 317:1 344:1 364:1 375:1 386:1 395:1 402:1 406:1 440:1 445:1 448:1 #
-0.0016213841229483310062836620701887 3:1 6:1 7:1 12:1 20:1 23:1 24:1 27:1 29:1 30:1 35:1 40:1 41:1 46:1 48:1 49:1 51:1 53:1 55:1 56:1 59:1 64:1 66:1 73:1 77:1 78:1 80:1 84:1 87:1 91:1 95:1 98:1 99:1 105:1 110:1 112:1 115:1 117:1 120:1 121:1 131:1 136:1 137:1 138:1 139:1 140:1 141:1 142:1 146:1 149:1 152:1 154:1 159:1 161:1 163:1 167:1 170:1 178:1 181:1 183:1 186:1 187:1 197:1 199:1 201:1 203:1 204:1 205:1 206:1 211:1 213:1 215:1 216:1 217:1 221:1 222:1 227:1 228:1 229:1 231:1 233:1 234:1 235:1 236:1 237:1 238:1 241:1 243:1 247:1 250:1 251:1 257:1 259:1 260:1 262:1 263:1 267:1 273:1 288:1 291:1 293:1 295:1 297:1 298:1 299:1 300:1 301:1 302:1 303:1 309:1 314:1 315:1 317:1 318:1 320:1 324:1 327:1 331:1 339:1 341:1 344:1 347:1 348:1 350:1 353:1 354:1 359:1 363:1 369:1 372:1 377:1 379:1 385:1 386:1 387:1 388:1 395:1 396:1 398:1 399:1 402:1 405:1 406:1 410:1 411:1 414:1 415:1 416:1 417:1 418:1 419:1 421:1 422:1 424:1 427:1 434:1 435:1 441:1 442:1 443:1 446:1 448:1 450:1 451:1 456:1 458:1 463:1 #
-0.0027453215182269459504471598165765 12:1 27:1 50:1 52:1 59:1 61:1 73:1 76:1 105:1 128:1 132:1 156:1 164:1 168:1 173:1 174:1 177:1 184:1 187:1 190:1 194:1 195:1 205:1 218:1 222:1 246:1 269:1 301:1 302:1 309:1 310:1 315:1 317:1 325:1 344:1 366:1 368:1 375:1 380:1 395:1 402:1 406:1 410:1 420:1 428:1 446:1 448:1 455:1 #
-0.015604696641810439361464091234666 27:1 50:1 52:1 59:1 61:1 73:1 76:1 105:1 128:1 132:1 156:1 164:1 168:1 173:1 184:1 187:1 190:1 195:1 205:1 218:1 269:1 301:1 302:1 309:1 310:1 315:1 317:1 325:1 344:1 368:1 375:1 380:1 395:1 402:1 406:1 448:1 #
-0.019315046659771177572917366660477 9:1 27:1 59:1 73:1 74:1 92:1 94:1 105:1 137:1 149:1 168:1 173:1 174:1 184:1 195:1 197:1 210:1 243:1 250:1 268:1 272:1 287:1 301:1 309:1 317:1 344:1 375:1 395:1 406:1 438:1 444:1 446:1 #
-0.022632478259197043313211139548002 35:1 47:1 59:1 73:1 76:1 88:1 104:1 105:1 122:1 157:1 173:1 184:1 186:1 187:1 200:1 207:1 218:1 235:1 293:1 305:1 309:1 344:1 375:1 386:1 387:1 402:1 425:1 448:1 453:1 466:1 #
0.035270536072037957098235239072892 26:1 52:1 73:1 76:1 105:1 142:1 173:1 184:1 193:1 195:1 262:1 301:1 344:1 371:1 375:1 406:1 #
0.035270536072037957098235239072892 26:1 73:1 76:1 105:1 143:1 173:1 184:1 195:1 301:1 375:1 420:1 #
0.035270536072037957098235239072892 73:1 76:1 105:1 173:1 184:1 193:1 195:1 239:1 301:1 375:1 459:1 #
0.035270536072037957098235239072892 12:1 26:1 62:1 73:1 74:1 76:1 81:1 105:1 111:1 137:1 151:1 156:1 173:1 184:1 195:1 205:1 222:1 232:1 243:1 247:1 272:1 279:1 287:1 301:1 302:1 309:1 315:1 317:1 322:1 330:1 344:1 370:1 375:1 386:1 395:1 399:1 402:1 406:1 446:1 #
0.035270536072037957098235239072892 15:1 59:1 63:1 73:1 102:1 173:1 177:1 184:1 195:1 222:1 264:1 274:1 286:1 309:1 317:1 344:1 406:1 446:1 #
-0.035270536072037957098235239072892 16:1 26:1 73:1 76:1 138:1 168:1 195:1 301:1 344:1 365:1 375:1 399:1 444:1 446:1 #
-0.027047843633931704238060333977955 73:1 180:1 187:1 294:1 446:1 #
-0.035270536072037957098235239072892 58:1 73:1 105:1 137:1 173:1 177:1 180:1 184:1 187:1 317:1 446:1 #
-0.0031637430433245784106022213677534 9:1 12:1 27:1 73:1 74:1 92:1 94:1 105:1 168:1 173:1 184:1 195:1 197:1 210:1 243:1 268:1 287:1 301:1 309:1 317:1 344:1 375:1 386:1 395:1 418:1 446:1 453:1 #
0.035270536072037957098235239072892 35:1 59:1 73:1 76:1 90:1 135:1 173:1 175:1 177:1 184:1 223:1 240:1 307:1 317:1 375:1 395:1 440:1 446:1 467:1 #
-0.016141109019157204307326480829943 21:1 54:1 73:1 76:1 77:1 103:1 105:1 153:1 173:1 184:1 187:1 195:1 205:1 206:1 243:1 263:1 272:1 299:1 302:1 317:1 319:1 344:1 360:1 375:1 395:1 399:1 402:1 406:1 418:1 428:1 437:1 453:1 472:1 #
-0.027776065556617737101197107563166 58:1 73:1 76:1 101:1 105:1 117:1 164:1 187:1 195:1 215:1 258:1 301:1 302:1 309:1 315:1 344:1 375:1 395:1 #
-0.025008033334203483288860070388182 12:1 52:1 62:1 73:1 78:1 92:1 105:1 173:1 184:1 187:1 194:1 205:1 222:1 237:1 301:1 306:1 317:1 344:1 366:1 375:1 395:1 406:1 420:1 428:1 446:1 #
-0.02183368542264767578342521403556 12:1 27:1 36:1 37:1 73:1 76:1 105:1 220:1 227:1 321:1 355:1 375:1 402:1 431:1 450:1 #
-0.0086025272963262330860878535077063 17:1 18:1 24:1 35:1 43:1 59:1 73:1 76:1 88:1 93:1 104:1 105:1 141:1 148:1 166:1 173:1 174:1 184:1 186:1 187:1 195:1 197:1 200:1 220:1 222:1 226:1 231:1 235:1 238:1 243:1 253:1 293:1 309:1 321:1 344:1 346:1 357:1 373:1 374:1 375:1 402:1 403:1 404:1 425:1 462:1 466:1 #
-0.0034438254673304141348366691488536 4:1 25:1 59:1 62:1 65:1 73:1 105:1 137:1 149:1 195:1 263:1 309:1 313:1 317:1 336:1 344:1 355:1 375:1 406:1 453:1 460:1 #
-0.0032132840928171166848537065874325 12:1 42:1 73:1 90:1 92:1 105:1 118:1 137:1 171:1 195:1 235:1 281:1 340:1 344:1 355:1 367:1 375:1 381:1 402:1 406:1 430:1 431:1 436:1 #
-0.0080853950752725785300345506811937 9:1 12:1 62:1 66:1 73:1 92:1 105:1 157:1 173:1 184:1 263:1 312:1 315:1 317:1 336:1 344:1 355:1 375:1 406:1 418:1 447:1 453:1 #
-0.011439554092454843475801240515466 27:1 73:1 92:1 105:1 137:1 173:1 184:1 195:1 243:1 269:1 287:1 301:1 309:1 317:1 344:1 375:1 386:1 406:1 418:1 428:1 446:1 453:1 #
-0.0016111092799571454653451141325604 9:1 12:1 27:1 52:1 59:1 73:1 74:1 77:1 92:1 94:1 137:1 147:1 168:1 173:1 184:1 195:1 197:1 198:1 210:1 243:1 263:1 268:1 287:1 301:1 304:1 309:1 317:1 344:1 375:1 386:1 395:1 406:1 418:1 432:1 438:1 446:1 453:1 #
