SVM-light Version V6.02
0 # kernel type
3 # kernel parameter -d 
1 # kernel parameter -g 
1 # kernel parameter -s 
1 # kernel parameter -r 
empty# kernel parameter -u 
454 # highest feature index 
61 # number of training documents 
51 # number of support vectors plus 1 
0.64725455 # threshold b, each following line is a SV (starting with alpha*y)
-4.5751883939316577709632838377729 14:0.014462949 41:0.029267702 49:0.024332784 56:0.0063506528 75:0.019397866 81:0.016511124 104:0.0048191501 120:0.019397866 157:0.0010771398 189:0.029267702 200:0.019397866 203:0.029267702 204:0.01287426 220:0.014521546 256:0.029267702 260:0.019397866 286:0.019397866 317:0.015878683 322:0.024332784 324:0.0095280306 331:0.0037125237 346:0.016511124 350:0.024332784 365:0.029267702 375:0.013624382 387:0.015413636 #
-3.2529939541201295938321891298983 11:0.018435918 65:0.035006467 70:0.023201369 88:0.035006467 98:0.023201369 117:0.023201369 146:0.023201369 155:0.023201369 157:0.0025766871 158:0.023201369 176:0.018435918 216:0.035006467 241:0.025651149 285:0.023201369 324:0.011396271 326:0.023201369 361:0.025651149 394:0.023201369 436:0.023201369 #
-48.697593580872165830442099831998 71:0.0024021331 157:0.0023892918 161:0.021513997 169:0.010088744 175:0.0056037921 185:0.0073657925 190:0.02378561 223:0.019751998 242:0.04757122 287:0.018312339 294:0.017095124 301:0.02215413 302:0.02378561 310:0.017610904 331:0.0020587633 374:0.018312339 386:0.04757122 426:0.016840383 445:0.02378561 #
-26.69657408183074664975720224902 2:0.0083859526 11:0.012054253 12:0.016771905 19:0.0083859526 21:0.022888845 27:0.0083859526 31:0.0083859526 40:0.0083859526 44:0.0083859526 52:0.022888845 54:0.0083859526 58:0.0083859526 73:0.0083859526 74:0.014306484 80:0.0083859526 95:0.0083859526 96:0.011444422 99:0.0083859526 104:0.0018844112 115:0.0083859526 125:0.0069638449 126:0.0083859526 129:0.011444422 144:0.0083859526 149:0.0083859526 157:0.0021059462 166:0.0083859526 177:0.0083859526 182:0.0083859526 188:0.0067956066 195:0.0056553837 222:0.016771905 225:0.0083859526 232:0.0083859526 235:0.016771905 236:0.011444422 243:0.011444422 245:0.016771905 251:0.0095147425 257:0.0083859526 261:0.011444422 264:0.0083859526 271:0.075473569 275:0.0064562731 279:0.0083859526 282:0.0083859526 301:0.011716126 307:0.0095376559 324:0.0037257043 327:0.0083859526 331:0.0058067678 341:0.0083859526 358:0.0083859526 359:0.0083859526 366:0.011716126 368:0.0083859526 369:0.0083859526 378:0.0043037594 380:0.0081948945 385:0.022621535 399:0.011444422 410:0.0050341655 411:0.011444422 425:0.003104486 426:0.0029686573 427:0.0069638449 428:0.03354381 431:0.0083859526 438:0.0083859526 451:0.0083859526 454:0.0095147425 #
-89.974878072085317626260803081095 10:0.0037107496 11:0.0023505795 17:0.0044633248 18:0.013389974 24:0.0044633248 34:0.0037107496 36:0.0044633248 38:0.013389974 47:0.013389974 55:0.0074214991 61:0.0044633248 64:0.0044633248 68:0.0037107496 70:0.0029581746 72:0.0044633248 76:0.0044633248 87:0.0044633248 98:0.0029581746 108:0.0044633248 116:0.0089266496 117:0.0059163491 118:0.0044633248 119:0.0037107496 121:0.014842998 124:0.0089266496 130:0.0044633248 146:0.0029581746 155:0.0029581746 156:0.0044633248 157:0.0030662578 158:0.0029581746 160:0.0037107496 171:0.0037107496 172:0.0044633248 176:0.0023505795 183:0.0074214991 191:0.0037107496 193:0.0044633248 201:0.0037107496 215:0.0044633248 228:0.0074214991 248:0.0089266496 250:0.0037107496 267:0.0037107496 268:0.0037107496 269:0.0044633248 285:0.0029581746 288:0.0044633248 290:0.0037107496 309:0.0044633248 315:0.013389974 324:0.0014530247 326:0.0029581746 335:0.011132249 342:0.0074214991 347:0.0037107496 348:0.0037107496 353:0.0037107496 379:0.0037107496 382:0.011132249 384:0.0044633248 391:0.0044633248 394:0.0029581746 406:0.0037107496 415:0.0044633248 421:0.0089266496 423:0.0089266496 429:0.011132249 434:0.0044633248 436:0.0029581746 447:0.013389974 #
37.186198179850187273132178233936 8:0.027895778 56:0.0060529662 71:0.0010321665 102:0.015737165 104:0.0045932522 109:0.034872055 157:0.0022244058 165:0.0052452069 169:0.0043350072 175:0.0024078796 185:0.0063299779 187:0.01022038 188:0.0041410727 195:0.0068924986 199:0.01022038 206:0.0061353892 219:0.027895778 246:0.012270778 298:0.023192186 300:0.0061353892 310:0.0037835925 316:0.012270778 331:0.0079616234 364:0.0079152538 375:0.0064928699 378:0.0052452069 380:0.0099875284 395:0.0058120089 402:0.023248035 403:0.013947889 409:0.013947889 426:0.0036180511 440:0.011033571 442:0.01022038 #
92.593791172535190980852348729968 14:0.048122175 56:0.0070434515 71:0.0024021331 157:0.0019910764 165:0.012207027 175:0.0056037921 185:0.0073657925 194:0.043027993 223:0.039503995 272:0.021513997 284:0.04757122 301:0.02215413 310:0.017610904 331:0.0061762896 364:0.018420953 385:0.032081448 437:0.02698727 #
7.2980346239873199465364450588822 14:0.0068924986 56:0.0060529662 71:0.0010321665 84:0.013947889 104:0.0022966261 109:0.034872055 123:0.0084871864 142:0.013947889 157:0.0022244058 165:0.0052452069 169:0.0043350072 175:0.0024078796 185:0.0063299779 187:0.01022038 188:0.0041410727 194:0.0092442958 195:0.013784997 199:0.01022038 206:0.0061353892 246:0.018406168 298:0.023192186 300:0.0061353892 310:0.007567185 316:0.012270778 331:0.0088462485 364:0.01187288 378:0.010490414 380:0.0049937642 385:0.0068924986 395:0.0058120089 402:0.011624018 426:0.0036180511 440:0.016550358 442:0.01022038 #
75.713871796868389196788484696299 20:0.093443468 56:0.0069176755 71:0.002359238 138:0.031880889 152:0.063761778 157:0.0023466258 165:0.011989044 175:0.0055037248 185:0.0072342604 331:0.010109998 364:0.018092008 380:0.022828635 440:0.037829388 #
92.566482532064270571936503984034 4:0.013135397 56:0.0068564573 71:0.0011691798 104:0.0052029761 109:0.032917574 148:0.0078074322 157:0.0025196809 165:0.0059414734 169:0.0049104504 175:0.0027275095 184:0.031598758 185:0.0071702404 188:0.0046907729 206:0.0069498215 246:0.0069498215 300:0.0069498215 310:0.0042858394 316:0.0069498215 331:0.0070143701 364:0.0089659514 371:0.0078074322 373:0.0078074322 378:0.0059414734 395:0.0065835146 400:0.007354755 402:0.019750543 426:0.0040983232 440:0.012498206 #
-72.236997084971008575848827604204 14:0.03298093 23:0.033370651 28:0.022117194 56:0.0036204658 71:0.0012347413 86:0.013871961 104:0.0027473657 123:0.010152896 143:0.016685326 157:0.001842211 165:0.0062746401 175:0.0028804541 185:0.003786155 186:0.016685326 188:0.014861421 195:0.0082452325 272:0.011058597 277:0.013871961 297:0.013871961 299:0.013871961 301:0.011387637 304:0.012226248 310:0.0090523334 325:0.016685326 331:0.0074076992 337:0.069359809 340:0.016685326 364:0.0094687147 380:0.0059738485 389:0.027743923 395:0.0069526834 422:0.0094128838 425:0.018104667 426:0.012984408 442:0.012226248 446:0.016685326 #
-34.602638094728831674729008227587 4:0.020905631 15:0.02514549 20:0.018425472 46:0.02514549 51:0.020905631 56:0.010912389 57:0.020905631 82:0.02514549 91:0.012425913 104:0.0082807923 107:0.015300843 110:0.02514549 137:0.02514549 157:0.0012339066 209:0.02514549 220:0.006238129 221:0.02514549 230:0.018425472 310:0.013642249 324:0.0081860544 328:0.02514549 331:0.0047844499 345:0.02514549 357:0.02514549 360:0.02514549 362:0.018425472 364:0.0071348767 366:0.0085808253 380:0.009002842 388:0.02514549 398:0.02514549 408:0.020905631 443:0.02514549 #
-10.213573395250216790941522049252 14:0.036759995 71:0.0055048885 91:0.036759995 157:0.00091257674 176:0.039176326 207:0.05450869 208:0.05450869 275:0.041965775 281:0.074388742 289:0.05450869 338:0.074388742 448:0.074388742 #
-27.65366691572519997066592623014 60:0.044633247 71:0.0033029329 91:0.022055997 104:0.0073492033 120:0.029581746 133:0.044633247 141:0.037107497 157:0.001095092 175:0.0077052144 188:0.013251433 223:0.027158996 230:0.032705214 259:0.023505796 273:0.032705214 310:0.012107496 317:0.012107496 331:0.0056615989 362:0.032705214 380:0.015980044 400:0.020777183 #
-28.478679372116324941544007742777 13:0.017166633 32:0.012578929 56:0.014899609 71:0.0012703588 74:0.0071532419 79:0.034333266 83:0.028544229 93:0.034333266 94:0.028544229 97:0.017166633 104:0.0028266166 105:0.042816341 107:0.020891536 151:0.014272114 154:0.014272114 157:0.0018953517 179:0.014272114 185:0.007790742 220:0.012776168 224:0.020891536 296:0.025157858 307:0.014306484 308:0.014272114 314:0.028544229 317:0.0093134586 331:0.0087101525 364:0.0097418502 380:0.0061461711 410:0.0075512482 425:0.0093134586 #
92.593791172535190980852348729968 2:0.01022038 11:0.014691122 12:0.020440759 19:0.01022038 27:0.01022038 31:0.01022038 40:0.01022038 44:0.01022038 54:0.01022038 58:0.01022038 73:0.01022038 74:0.017436028 80:0.01022038 95:0.01022038 99:0.01022038 104:0.0022966261 115:0.01022038 125:0.0084871864 126:0.01022038 144:0.01022038 149:0.01022038 157:0.0020532976 166:0.01022038 177:0.01022038 182:0.01022038 188:0.0041410727 195:0.0068924986 222:0.01022038 225:0.01022038 232:0.01022038 235:0.020440759 245:0.01022038 257:0.01022038 264:0.01022038 271:0.071542658 275:0.0078685824 279:0.01022038 282:0.01022038 301:0.014279029 307:0.011624018 324:0.0045407019 327:0.01022038 331:0.0070769987 341:0.01022038 358:0.01022038 359:0.01022038 366:0.0047596763 368:0.01022038 369:0.01022038 378:0.0052452069 380:0.0099875284 385:0.027569994 410:0.0061353892 425:0.0037835925 426:0.0036180511 427:0.0084871864 428:0.040881518 431:0.01022038 438:0.01022038 451:0.01022038 454:0.011596093 #
43.734611883078329697127628605813 7:0.081151359 71:0.0060053328 102:0.045780845 157:0.0019910764 196:0.040101811 220:0.020132143 234:0.081151359 274:0.081151359 354:0.067468174 366:0.027692663 375:0.037776697 392:0.067468174 402:0.033815324 #
92.593791172535190980852348729968 3:0.014754792 14:0.0072912383 39:0.029509583 53:0.014754792 56:0.0064031375 69:0.014754792 74:0.006148241 85:0.014754792 104:0.0072884662 109:0.012296482 112:0.014754792 123:0.0089781806 132:0.01226694 140:0.010811641 157:0.0014480556 162:0.014754792 163:0.014754792 173:0.0083237896 188:0.0043806392 194:0.01955818 199:0.021623282 227:0.024533881 239:0.014754792 240:0.014754792 254:0.014754792 260:0.01955818 266:0.014754792 284:0.021623282 291:0.029509583 295:0.014754792 301:0.010070059 310:0.0080049559 324:0.004803387 331:0.0037432059 333:0.01226694 339:0.014754792 370:0.017956361 408:0.01226694 426:0.0076547195 433:0.014754792 437:0.01226694 440:0.023343755 #
92.593791172535190980852348729968 26:0.013423532 56:0.0058254111 71:0.00099336333 101:0.033480447 104:0.0044205734 109:0.027967563 131:0.013423532 148:0.0066333823 153:0.013423532 157:0.0023054569 165:0.0050480189 169:0.0041720369 173:0.0075727715 175:0.0023173578 180:0.013423532 185:0.0060920091 188:0.0039853933 206:0.0059047355 217:0.009836155 246:0.011809471 252:0.013423532 300:0.0059047355 301:0.0045807413 310:0.0036413523 316:0.0059047355 331:0.0068109459 364:0.011426532 371:0.0066333823 373:0.0066333823 377:0.011160149 378:0.0050480189 395:0.0055935122 400:0.0062487768 401:0.013423532 402:0.016780537 425:0.0036413523 426:0.010446102 440:0.010618776 #
92.593791172535190980852348729968 56:0.0068564573 71:0.0011691798 104:0.002601488 109:0.032917574 148:0.0078074322 157:0.0025196809 165:0.0059414734 169:0.0049104504 175:0.0027275095 185:0.0071702404 188:0.0046907729 206:0.0069498215 246:0.013899643 300:0.0069498215 310:0.0042858394 316:0.0069498215 331:0.0070143701 337:0.026270794 364:0.0089659514 371:0.0078074322 373:0.0078074322 378:0.0059414734 395:0.0065835146 400:0.007354755 402:0.019750543 425:0.0042858394 426:0.0040983232 440:0.012498206 #
-92.593791172535190980852348729968 2:0.01022038 11:0.014691122 12:0.020440759 19:0.01022038 27:0.01022038 31:0.01022038 40:0.01022038 44:0.01022038 54:0.01022038 58:0.01022038 73:0.01022038 74:0.017436028 80:0.01022038 95:0.01022038 99:0.01022038 104:0.0022966261 115:0.01022038 125:0.0084871864 126:0.01022038 144:0.01022038 149:0.01022038 157:0.0020532976 166:0.01022038 177:0.01022038 182:0.01022038 188:0.0041410727 195:0.0068924986 222:0.01022038 225:0.01022038 232:0.01022038 235:0.020440759 245:0.01022038 247:0.013947889 257:0.01022038 264:0.01022038 271:0.071542658 275:0.0078685824 279:0.01022038 282:0.01022038 301:0.014279029 307:0.011624018 324:0.0045407019 327:0.01022038 331:0.0070769987 341:0.01022038 358:0.01022038 359:0.01022038 366:0.0047596763 368:0.01022038 369:0.01022038 378:0.0052452069 380:0.0099875284 385:0.027569994 410:0.0061353892 425:0.0037835925 426:0.0036180511 427:0.0084871864 428:0.040881518 431:0.01022038 438:0.01022038 451:0.01022038 #
-69.446824319159020433289697393775 29:0.018553749 30:0.016352607 33:0.010388591 56:0.014527119 71:0.0016514665 74:0.009299214 75:0.014790873 101:0.055661242 157:0.0021901841 173:0.012589732 175:0.0038526072 185:0.0050639822 197:0.018553749 200:0.014790873 217:0.016352607 220:0.011072678 224:0.013579498 317:0.012107496 330:0.016352607 331:0.0070769987 343:0.018553749 364:0.0063322028 370:0.013579498 380:0.0079900222 393:0.016352607 412:0.016352607 426:0.0057888818 449:0.014790873 450:0.016352607 #
-35.134982971111455185564409475774 28:0.025723258 35:0.032267388 37:0.03881152 56:0.0084215179 140:0.028439317 157:0.00095225399 164:0.032267388 231:0.03881152 260:0.025723258 276:0.032267388 280:0.032267388 284:0.028439317 324:0.012634996 352:0.03881152 366:0.013244317 390:0.03881152 425:0.010528257 #
-24.242480414744647987390635535121 25:0.025504712 49:0.021204283 56:0.011068281 106:0.025504712 123:0.015519426 157:0.0012515337 188:0.0075722476 192:0.018688694 195:0.012603426 212:0.025504712 213:0.025504712 220:0.01265449 226:0.025504712 229:0.025504712 253:0.025504712 286:0.016903855 304:0.018688694 322:0.042408567 324:0.0083029978 331:0.0032351993 333:0.021204283 356:0.025504712 375:0.011872676 410:0.011218998 414:0.025504712 426:0.006615865 439:0.025504712 #
47.322700636590454337238043081015 56:0.0068564573 71:0.0011691798 104:0.0052029761 109:0.032917574 148:0.0078074322 157:0.0025196809 165:0.0059414734 169:0.0049104504 175:0.0027275095 185:0.0071702404 188:0.0046907729 206:0.0069498215 246:0.013899643 300:0.0069498215 310:0.0042858394 316:0.0069498215 331:0.0070143701 364:0.0089659514 371:0.0078074322 373:0.0078074322 378:0.0059414734 395:0.0065835146 396:0.031598758 400:0.007354755 402:0.019750543 426:0.0040983232 440:0.012498206 #
-52.584725004793732239249948179349 71:0.0057442314 157:0.001904508 175:0.013400373 331:0.0049231295 344:0.064534776 374:0.043790374 #
61.604582199343440152006223797798 56:0.0068564573 71:0.0011691798 104:0.0052029761 109:0.026334058 148:0.0078074322 157:0.0025196809 165:0.0059414734 169:0.0049104504 175:0.0027275095 185:0.0071702404 188:0.0046907729 206:0.0069498215 246:0.013899643 300:0.0069498215 310:0.0042858394 316:0.0069498215 320:0.015799379 331:0.0070143701 364:0.0089659514 371:0.0078074322 373:0.0078074322 378:0.0059414734 395:0.0065835146 400:0.007354755 402:0.019750543 426:0.0040983232 440:0.024996411 #
-2.6738472489502242979142465628684 32:0.021446042 56:0.019051958 71:0.0021658577 74:0.012195691 83:0.024332784 94:0.048665568 104:0.0048191501 105:0.024332784 125:0.017809177 151:0.024332784 154:0.024332784 157:0.0017952329 179:0.024332784 185:0.0066412883 220:0.014521546 224:0.035618354 296:0.042892084 308:0.024332784 314:0.048665568 317:0.015878683 331:0.0055687856 364:0.0083045289 425:0.015878683 #
-24.302083079910840268667016061954 56:0.0038355428 59:0.023326628 71:0.0013080923 77:0.017676532 81:0.01994413 104:0.0029105756 157:0.0021684992 168:0.017676532 169:0.0054938705 185:0.00802215 187:0.012952561 195:0.0087350477 220:0.013155658 287:0.0099720648 294:0.0093092257 304:0.012952561 306:0.017676532 307:0.0073657143 311:0.017676532 317:0.019180192 323:0.017676532 331:0.003363326 346:0.01994413 354:0.014696038 366:0.006032065 375:0.008228587 385:0.0087350477 389:0.014696038 422:0.0099720648 425:0.019180192 435:0.017676532 #
-55.14888263288581526921916520223 59:0.0096954303 71:0.0016310781 81:0.037302911 102:0.024868608 103:0.010260337 104:0.0072584725 134:0.01460827 157:0.002433538 169:0.0068503818 175:0.0038050441 185:0.0050014639 204:0.0096954303 220:0.021871958 287:0.012434304 294:0.0116078 317:0.0059790104 331:0.0027958513 346:0.024868608 349:0.016150724 366:0.007521464 375:0.020520674 410:0.0096954303 413:0.01341185 422:0.012434304 425:0.0059790104 430:0.010260337 #
-42.364048002473147391810925910249 20:0.013214228 33:0.0083948215 51:0.044978783 56:0.0039130286 57:0.029985856 71:0.0013345184 74:0.0075145168 120:0.03585666 123:0.010973332 125:0.010973332 132:0.014992928 157:0.0015486151 173:0.010173521 175:0.0031132179 194:0.01195222 204:0.0079326248 227:0.014992928 249:0.018033635 259:0.018994581 265:0.018033635 270:0.018033635 277:0.014992928 283:0.014992928 296:0.013214228 301:0.01230785 307:0.0075145168 310:0.01956767 319:0.018033635 331:0.0080063017 336:0.018033635 362:0.026428455 370:0.010973332 385:0.0089115137 405:0.018033635 413:0.010973332 449:0.01195222 #
-7.9742857146417964742113326792605 71:0.006291301 157:0.0010429448 167:0.085015707 175:0.014676599 263:0.070680946 307:0.035425577 317:0.023061898 331:0.010783997 #
-26.267749345697719576264717034064 71:0.0066058659 157:0.001095092 161:0.059163492 175:0.015410429 263:0.074214995 331:0.011323198 380:0.031960089 #
-6.7729556611366952267871965887025 71:0.0066058659 104:0.014698407 107:0.054317992 127:0.089266494 157:0.001095092 159:0.089266494 196:0.044111993 220:0.022145357 262:0.17853299 366:0.030461928 392:0.074214995 427:0.054317992 453:0.089266494 #
-38.38464446268589824740047333762 324:0.083029978 #
68.467371953203809198384988121688 50:0.026270794 56:0.0068564573 71:0.0011691798 104:0.0052029761 109:0.032917574 148:0.0078074322 157:0.0025196809 165:0.0059414734 169:0.0049104504 175:0.0027275095 185:0.0071702404 188:0.0046907729 206:0.0069498215 246:0.013899643 300:0.0069498215 310:0.0042858394 316:0.0069498215 331:0.0070143701 364:0.0089659514 371:0.0078074322 373:0.0078074322 378:0.0059414734 395:0.0065835146 400:0.007354755 402:0.019750543 426:0.0040983232 440:0.012498206 #
47.322700636590184330998454242945 56:0.0068564573 71:0.0011691798 104:0.0052029761 109:0.032917574 147:0.031598758 148:0.0078074322 157:0.0025196809 165:0.0059414734 169:0.0049104504 175:0.0027275095 185:0.0071702404 188:0.0046907729 206:0.0069498215 246:0.013899643 300:0.0069498215 310:0.0042858394 316:0.0069498215 331:0.0070143701 364:0.0089659514 371:0.0078074322 373:0.0078074322 378:0.0059414734 395:0.0065835146 400:0.007354755 402:0.019750543 426:0.0040983232 440:0.012498206 #
-20.019965333022636144733041874133 66:0.068666533 71:0.0050814352 157:0.0025271357 169:0.021341573 192:0.050315715 220:0.01703489 286:0.045510378 294:0.03616276 331:0.0043550762 #
-60.587854620767693347715976415202 6:0.0064685862 10:0.005377898 11:0.0034066369 34:0.005377898 42:0.0064685862 55:0.005377898 68:0.005377898 70:0.0042872094 78:0.0064685862 89:0.0064685862 90:0.0064685862 98:0.0042872094 117:0.0085744187 119:0.010755796 121:0.016133694 135:0.012937172 136:0.0064685862 139:0.0064685862 146:0.0042872094 155:0.0042872094 157:0.0030948254 158:0.0042872094 160:0.005377898 170:0.012937172 171:0.005377898 176:0.0034066369 183:0.005377898 191:0.005377898 201:0.005377898 218:0.0064685862 228:0.010755796 241:0.0047398861 250:0.005377898 258:0.0064685862 267:0.005377898 268:0.005377898 278:0.0064685862 285:0.0042872094 290:0.005377898 292:0.012937172 321:0.012937172 324:0.0021058328 326:0.0042872094 335:0.005377898 342:0.005377898 347:0.005377898 348:0.005377898 351:0.010755796 353:0.005377898 361:0.0047398861 363:0.0064685862 379:0.005377898 382:0.005377898 394:0.0042872094 406:0.005377898 407:0.0064685862 416:0.012937172 417:0.012937172 418:0.010755796 419:0.0064685862 424:0.0064685862 429:0.005377898 436:0.0042872094 441:0.012937172 452:0.0064685862 #
-14.636951817585984514380470500328 71:0.006291301 157:0.0010429448 175:0.014676599 178:0.062295645 204:0.037396658 317:0.023061898 331:0.0053919987 383:0.085015707 425:0.023061898 #
-10.565034196333208171836304245517 33:0.023745352 48:0.02877653 59:0.022437995 71:0.0037747805 103:0.023745352 111:0.051009424 157:0.0012515337 196:0.025206853 202:0.051009424 220:0.01265449 259:0.026863765 272:0.03380771 301:0.017406816 305:0.062077705 313:0.042408567 317:0.013837138 331:0.0064703985 366:0.017406816 387:0.026863765 430:0.023745352 #
-3.5423269299900006501502502942458 48:0.033572618 56:0.012912994 71:0.0044039106 86:0.049476661 91:0.029407995 114:0.059510995 157:0.0014601228 192:0.043606952 196:0.05881599 220:0.029527145 273:0.043606952 286:0.039442327 293:0.059510995 331:0.0037743992 332:0.059510995 334:0.059510995 350:0.049476661 377:0.049476661 387:0.031341061 #
-20.438917036075750388590677175671 5:0.013323357 9:0.013323357 11:0.01403331 16:0.013323357 22:0.013323357 63:0.013323357 67:0.013323357 70:0.017660744 91:0.0065838792 92:0.013323357 98:0.017660744 117:0.017660744 145:0.013323357 146:0.017660744 155:0.0088303722 157:0.0027785918 158:0.0088303722 176:0.01403331 198:0.013323357 214:0.013323357 241:0.0097627509 244:0.013323357 251:0.011076865 285:0.0088303722 297:0.011076865 299:0.02215373 303:0.013323357 310:0.0036141779 312:0.013323357 318:0.013323357 324:0.0043373872 326:0.0088303722 351:0.011076865 361:0.0097627509 367:0.013323357 376:0.013323357 381:0.013323357 385:0.0065838792 394:0.017660744 418:0.011076865 425:0.0072283559 432:0.013323357 436:0.017660744 #
-2.8987458274244084499571272317553 33:0.020777183 48:0.025179464 59:0.019633247 71:0.0033029329 103:0.020777183 157:0.0016426381 196:0.022055997 204:0.019633247 211:0.044633247 220:0.011072678 259:0.023505796 301:0.015230964 305:0.054317992 317:0.012107496 331:0.0056615989 366:0.015230964 387:0.023505796 420:0.089266494 425:0.012107496 430:0.020777183 #
-18.812714243622377097153730574064 28:0.01460827 29:0.01832469 30:0.016150724 33:0.010260337 56:0.014347771 71:0.0016310781 74:0.0091844089 75:0.01460827 157:0.0021631448 173:0.012434304 175:0.0038050441 185:0.0050014639 200:0.01460827 217:0.032301448 220:0.010935979 224:0.01341185 255:0.022041108 272:0.01460827 307:0.0091844089 317:0.011958021 330:0.016150724 331:0.0069896281 343:0.01832469 364:0.0062540276 370:0.01341185 380:0.0078913802 393:0.016150724 412:0.016150724 426:0.005717414 449:0.01460827 450:0.016150724 #
-2.272159386822750093415379524231 71:0.006291301 91:0.042011421 113:0.085015707 157:0.0010429448 176:0.044772942 207:0.062295645 208:0.062295645 275:0.047960885 289:0.062295645 #
-2.272159386822750093415379524231 71:0.006291301 91:0.042011421 157:0.0010429448 176:0.044772942 207:0.062295645 208:0.062295645 275:0.047960885 289:0.062295645 404:0.085015707 #
-5.1803817244268479669244698015973 35:0.026505355 45:0.031880889 104:0.0052494309 107:0.019399283 122:0.031880889 140:0.023360867 157:0.0011733129 164:0.026505355 188:0.0094653098 210:0.031880889 230:0.023360867 237:0.031880889 238:0.031880889 260:0.021129819 276:0.026505355 280:0.026505355 283:0.026505355 307:0.013284592 324:0.010378747 355:0.031880889 366:0.01087926 425:0.017296422 444:0.031880889 #
42.801388036424555139092262834311 14:0.015614864 56:0.0068564573 71:0.0011691798 104:0.0052029761 109:0.032917574 148:0.0078074322 157:0.0025196809 165:0.0059414734 169:0.0049104504 175:0.0027275095 185:0.0071702404 188:0.0046907729 206:0.0069498215 246:0.013899643 300:0.0069498215 310:0.0042858394 316:0.0069498215 331:0.0070143701 364:0.0089659514 371:0.0078074322 373:0.0078074322 378:0.0059414734 395:0.0065835146 400:0.007354755 402:0.019750543 426:0.0040983232 440:0.012498206 #
-1.4856048614250623174370957713109 30:0.016352607 32:0.032705214 33:0.010388591 71:0.0016514665 74:0.009299214 75:0.014790873 104:0.0036746017 107:0.040738493 128:0.044633247 150:0.022316623 157:0.0021901841 173:0.012589732 175:0.0038526072 185:0.0050639822 197:0.018553749 200:0.014790873 220:0.0055363392 224:0.013579498 307:0.009299214 317:0.0060537481 330:0.016352607 331:0.0070769987 364:0.0063322028 370:0.013579498 380:0.0079900222 393:0.016352607 410:0.0098166233 412:0.016352607 427:0.013579498 449:0.014790873 450:0.016352607 #
