SVM-light Version V6.02
0 # kernel type
3 # kernel parameter -d 
1 # kernel parameter -g 
1 # kernel parameter -s 
1 # kernel parameter -r 
empty# kernel parameter -u 
12284 # highest feature index 
36360 # number of training documents 
160 # number of support vectors plus 1 
1.1593648 # threshold b, each following line is a SV (starting with alpha*y)
-1.9891000559708020833937780480483 447:0.03804281 509:0.052250486 924:0.011442229 1416:0.0069026183 1488:0.0042963345 2840:0.045698516 3167:0.065151766 3360:0.065594457 3478:0.0021530529 3758:0.038121846 4961:0.068212502 5100:0.03253318 5706:0.065151766 5796:0.013263863 6576:0.033071525 6582:0.006385447 6587:0.0093562277 6815:0.11033297 7143:0.056550913 7148:0.017533975 7233:0.065151766 8992:0.039446905 9048:0.026508799 9345:0.030895485 9394:0.031148752 9517:0.048350465 9852:0.035606258 10208:0.0070848758 11282:0.065151766 12010:0.032006823 12017:0.017557058 12199:3.4128898e-06 #
-1.4186224262694744346902098186547 424:0.10885346 6152:0.0049666604 10690:0.09084399 11268:0.22624926 12199:5.4295974e-06 #
-3.2145467819559776501137093873695 17:0.094251521 260:0.1014189 1416:0.023008728 1435:0.014341589 2097:0.013370961 2605:0.032606009 2945:0.057268757 3478:0.0017942108 3644:0.15739769 4025:0.026829157 4253:0.035640839 5237:0.061389349 6152:0.001300792 6337:0.07413014 6575:0.010571023 7479:0.04319023 7587:0.058659855 9160:0.0053044143 9303:0.050029319 10539:0.0047847405 11484:0.1014189 11852:0.054775059 12010:0.053344704 12199:5.6881495e-06 #
-13.047180672941340873194349114783 67:0.0075297416 73:0.0074735465 610:0.002191592 1014:0.0074735465 1053:0.0074157752 1416:0.0037748695 1434:0.0040679253 1435:0.0047058342 1437:0.006892872 1471:0.0078321528 1510:0.0075297416 1564:0.0074735465 1686:0.0070636123 1900:0.0065959888 2114:0.0072198124 2278:0.0074735465 2365:0.0061993916 2920:0.0074735465 3389:0.006833618 3478:0.004709803 3753:0.0074676406 3917:0.0042795832 4482:0.0052945395 4898:0.0074651125 4935:0.0074149454 5339:0.0074000387 5382:0.0074870843 5796:0.0072536748 5887:0.0073679634 6158:0.0075185993 6232:0.0074693267 6535:0.0074558593 6575:0.01040585 6582:0.0069840825 6828:0.014472615 6955:0.007066607 7048:0.0074625867 7366:0.0050026872 7468:0.028986238 7949:0.0074566999 7964:0.0074651125 8319:0.0074684834 8479:0.0071715745 9130:0.014669135 9160:0.0017405109 9716:0.007044211 10197:0.0074166055 10208:0.0038745415 10219:0.0046764547 10446:0.0072982879 10471:0.0074016917 10503:0.0046812715 10539:0.0031399862 10548:0.015528603 10650:0.0060553164 10722:0.0069655161 11134:0.051598676 11500:0.0074693267 11578:0.0054295859 11944:0.010912081 12199:5.5992723e-06 #
-0.85109073201100482464198648813181 1069:0.15124629 1214:0.14511055 2365:0.015114708 3493:0.093095198 6152:0.0015609504 6404:0.18887722 7164:0.085497774 9160:0.012730594 9526:0.01014943 10101:0.053107604 12199:5.1193347e-06 #
-4.3872962600258365029048945871182 512:0.064041823 913:0.017087039 1214:0.048835281 1636:0.054235794 2664:0.028222164 2895:0.046255536 3029:0.038924336 3478:0.0057966807 4336:0.02555576 4450:0.02492843 6152:0.0010506397 6847:0.040408295 7378:0.017411334 7380:0.04332938 7540:0.055372745 8056:0.018757477 9001:0.051534813 10181:0.010976419 10208:0.0095373327 10219:0.011511273 10446:0.017965017 10491:0.081915267 10539:0.0077291965 10880:0.078528896 11198:0.060820844 11852:0.044241395 12199:4.5942747e-06 #
39.271877164254071601590112550184 1212:0.043568563 1488:0.0054680621 3478:0.0041103736 3611:0.075144336 3644:0.060097296 4836:0.07469523 4976:0.069255479 6152:0.00099333213 6575:0.016144834 6587:0.023815852 6835:0.061299566 7378:0.032923251 9526:0.0064587276 10181:0.010377705 10548:0.018069647 11308:0.0063463547 12199:5.4295974e-06 #
39.271877164254071601590112550184 424:0.028063783 1214:0.119036 1435:0.0047058342 1488:0.0046991161 1974:0.063804731 2140:0.054397542 3478:0.0058872537 3825:0.029550567 4836:0.016047804 5074:0.047532968 6152:0.00042682237 6346:0.0073402463 6587:0.010233373 6835:0.0087798852 7148:0.0095888916 7378:0.021220064 7807:0.029027546 8690:0.027493993 9160:0.0017405109 9526:0.0055504693 9849:0.049570773 10181:0.0044591702 10208:0.0038745415 10219:0.0093529094 10503:0.009362543 10539:0.0015699931 10548:0.0038821509 10877:0.011747804 11106:0.0058217105 11198:0.024708468 11308:0.0027269493 11438:0.016090348 11712:0.013417118 12199:6.0658781e-06 #
39.271877164254071601590112550184 1488:0.0053704185 2503:0.085475236 3478:0.0067282901 6152:0.00097559404 7378:0.032335334 9526:0.0063433931 9849:0.11330462 10181:0.010192389 10212:0.072919689 10539:0.0071771112 10690:0.071377426 11308:0.0062330272 12199:6.3991683e-06 #
25.672733852940123000507810502313 424:0.010596354 1214:0.11236436 1435:0.0053305021 1488:0.0053228927 2140:0.092427678 2225:0.012700377 2904:0.0085880626 3478:0.0046681236 3596:0.012937877 5074:0.026921326 5123:0.018476702 5126:0.019718455 6152:0.00048348022 6346:0.0083146151 6587:0.0057958928 7378:0.016024591 8690:0.031143639 9160:0.0039431043 9526:0.0062872572 9849:0.037433978 10181:0.005051095 10208:0.0043888614 10503:0.0053026793 10996:0.050962526 11198:0.027988352 11308:0.0030889336 11712:0.015198152 12199:6.8710833e-06 #
-0.16472203242113048204942060692701 1488:0.014670411 2365:0.012902799 2706:0.13917334 3478:0.0036759439 4078:0.11646037 4297:0.13246468 4517:0.080618329 5123:0.10184719 6152:0.0013325186 8479:0.044778612 9526:0.008664147 9849:0.10317169 11880:0.081555262 12199:4.3701639e-06 #
39.271877164254071601590112550184 67:0.0075297416 73:0.0074735465 610:0.002191592 1014:0.0074735465 1053:0.0074157752 1416:0.0037748695 1434:0.0040679253 1435:0.0047058342 1437:0.006892872 1471:0.0078321528 1510:0.0075297416 1564:0.0074735465 1686:0.0070636123 1900:0.0065959888 2114:0.0072198124 2278:0.0074735465 2365:0.0061993916 2920:0.0074735465 3389:0.006833618 3478:0.004709803 3753:0.0074676406 3917:0.0042795832 4482:0.0052945395 4898:0.0074651125 4935:0.0074149454 5339:0.0074000387 5382:0.0074870843 5796:0.0072536748 5887:0.0073679634 6158:0.0075185993 6232:0.0074693267 6535:0.0074558593 6575:0.01040585 6582:0.0069840825 6828:0.014472615 6955:0.007066607 7048:0.0074625867 7366:0.0050026872 7468:0.028986238 7949:0.0074566999 7964:0.0074651125 8319:0.0074684834 8479:0.0071715745 9130:0.014669135 9160:0.0017405109 9716:0.007044211 10197:0.0074166055 10208:0.0038745415 10219:0.0046764547 10446:0.0072982879 10471:0.0074016917 10503:0.0046812715 10539:0.0031399862 10548:0.015528603 10650:0.0060553164 10722:0.0069655161 11134:0.051598676 11500:0.0074693267 11578:0.0054295859 11944:0.010912081 12199:5.5992723e-06 #
-15.833065559383294740314340742771 1214:0.23085769 6152:0.0049666604 8332:0.20094326 9160:0.020253217 12199:5.4295974e-06 #
-11.232978000640263971376953122672 797:0.053003523 959:0.034975071 1214:0.15871467 1299:0.028404668 1488:0.0046991161 2105:0.061852559 2181:0.048409779 2550:0.03734941 3478:0.0070647048 3611:0.032288581 3644:0.051646113 4269:0.065997422 4854:0.091473609 6152:0.00085364474 6520:0.040429626 6582:0.0069840825 6587:0.010233373 7378:0.014146709 8810:0.031705391 8830:0.031826209 8941:0.053854384 9526:0.0055504693 11308:0.0054538986 12199:6.5324843e-06 #
-1.2000425427839822578590656121378 1139:0.13705765 1214:0.19534113 6152:0.0042025587 6761:0.12721157 8701:0.057031468 9397:0.22439778 12199:4.5942747e-06 #
-0.39632202527339022157804038215545 418:0.056537092 572:0.050085921 2794:0.060781039 3478:0.002511895 4252:0.084786348 5449:0.0121326 6152:0.0018211089 6575:0.014799431 6585:0.03941359 7378:0.030179646 9584:0.063516185 9837:0.049809933 10208:0.016531376 10588:0.085354127 11359:0.027371021 12199:5.9725571e-06 #
-1.167339795602063245993917917076 1139:0.13705765 1214:0.19534113 6152:0.0042025587 8701:0.057031468 8839:0.23503645 9397:0.22439778 12199:4.5942747e-06 #
39.271877164254071601590112550184 140:0.013430716 1159:0.018034926 1174:0.015569672 1214:0.041974124 1299:0.015023957 1435:0.0099561447 1488:0.0049709659 1587:0.022708351 2097:0.0092823198 2365:0.0021860115 2605:0.022635577 3360:0.037947208 3478:0.0024911356 3644:0.027316954 4013:0.026763674 4025:0.0046562999 4500:0.021384265 4733:0.020537825 4836:0.033952378 4944:0.037691105 4976:0.031479765 5796:0.0076733092 6575:0.0073385607 6587:0.010825387 6815:0.031914495 6835:0.0092878127 7148:0.020287242 8762:0.01965934 9041:0.015293443 9160:0.0055236048 9187:0.045991283 9394:0.018019939 9840:0.0096581057 9849:0.069918007 10007:0.025861654 10208:0.0040986887 10468:0.033747956 10877:0.01242743 11191:0.025861654 11781:0.02116218 12010:0.037032686 12199:3.9487982e-06 #
33.480939854081690043585695093498 572:0.047700878 1488:0.0047737053 3478:0.0035884215 3611:0.065602198 3644:0.052465893 4836:0.065210119 6152:0.00086719467 6575:0.014094696 6587:0.020791616 7378:0.02874252 7526:0.14478171 9526:0.0056385719 9837:0.047438029 9849:0.13428697 10181:0.0090599013 10548:0.01577509 11308:0.0055404683 12199:5.6881495e-06 #
4.57541920562704351738148034201 610:0.01275108 913:0.040387545 1147:0.11346208 2072:0.05363046 2140:0.1582474 2559:0.12892491 4336:0.06040452 5918:0.14917593 6152:0.0024833302 6373:0.20730108 7525:0.13656007 11580:0.038942315 12199:5.4295974e-06 #
-28.039479263397826258596978732385 924:0.0097677568 1212:0.029222818 1488:0.0036676028 3478:0.0055139158 3596:0.017829027 4836:0.10020092 4976:0.046451844 6152:0.00066625932 6426:0.032150544 6575:0.0054144259 6582:0.0054509914 6587:0.023961069 6835:0.06852594 7378:0.022082668 8031:0.030486902 8810:0.049491342 9526:0.0043320735 9832:0.024607299 10181:0.020881968 10208:0.0060480647 10548:0.012119886 10967:0.029079666 11308:0.0042567016 11401:0.025888698 12199:5.0985241e-06 #
-13.320106214234286312603217083961 343:0.036995113 610:0.0045245769 898:0.020742005 1434:0.0083982982 1488:0.014552101 3478:0.0036462992 3600:0.046155706 3611:0.03333015 3644:0.053312119 4836:0.13252379 6152:0.00088118168 6575:0.01432203 6587:0.010563483 8079:0.049281836 8800:0.03722211 9160:0.0035933128 9526:0.0057295165 9986:0.07355845 10208:0.0079990532 10548:0.0080147628 11043:0.014929727 11308:0.005629831 12199:3.8532626e-06 #
-7.8888320510735852053585404064506 1159:0.041174076 1437:0.016646937 2097:0.010595856 2284:0.13464794 2503:0.045156728 3478:0.0056873094 3611:0.038989987 4836:0.077513918 6152:0.0010308163 6575:0.02513111 6587:0.037071843 6828:0.017476365 9233:0.023059761 9452:0.017286515 9526:0.0067024534 9837:0.028194301 10040:0.035952557 10208:0.0093573835 10548:0.0093757603 10560:0.048908319 11043:0.052394889 11308:0.0065858397 11712:0.032403607 12199:3.3806925e-06 #
39.271877164254071601590112550184 424:0.018005835 911:0.041855998 1214:0.095467463 1434:0.0039149961 1435:0.013586769 1488:0.0045224577 2104:0.0059204716 2140:0.078528784 2904:0.0072966246 3478:0.0045327428 3596:0.010992332 3722:0.022008687 4025:0.0042361827 4435:0.023528272 4890:0.034290407 5074:0.022873007 5123:0.015698252 5126:0.016753273 6152:0.00041077644 6267:0.034290407 6316:0.021451531 6346:0.0070642969 6575:0.0033382175 6587:0.0049243299 7378:0.020422317 8690:0.026460385 8716:0.017637445 9160:0.0033501564 9526:0.0053418051 9849:0.031804807 10181:0.0042915321 10208:0.0037288819 10503:0.0045052841 11115:0.024675716 11198:0.023779579 11308:0.0026244323 11712:0.012912715 12199:6.2869021e-06 #
3.4578128604309390503601662203437 424:0.021192709 1214:0.11236436 1434:0.0046079154 1435:0.0053305021 1488:0.0053228927 2140:0.092427678 2904:0.0085880626 3478:0.0046681236 3596:0.012937877 5074:0.026921326 5123:0.018476702 5126:0.019718455 6152:0.00048348022 6346:0.0083146151 6587:0.0057958928 6636:0.039992813 7378:0.016024591 8690:0.031143639 9160:0.0019715521 9526:0.0062872572 9849:0.037433978 10181:0.005051095 10208:0.0043888614 10503:0.0053026793 11198:0.027988352 11308:0.0030889336 11712:0.015198152 12199:6.8710833e-06 #
6.8051472177603908875198612804525 424:0.021192709 1214:0.11236436 1435:0.0053305021 1488:0.0053228927 2140:0.092427678 2904:0.0085880626 3478:0.0046681236 3596:0.012937877 5074:0.026921326 5123:0.018476702 5126:0.019718455 6152:0.00048348022 6346:0.0083146151 6587:0.0057958928 7378:0.016024591 8690:0.031143639 9160:0.0039431043 9526:0.0062872572 9849:0.037433978 10181:0.005051095 10208:0.0043888614 10503:0.0053026793 11198:0.027988352 11308:0.0030889336 11370:0.044048529 11712:0.015198152 12199:6.8710833e-06 #
5.1232399836762603229090018430725 424:0.021192709 1214:0.11236436 1435:0.0053305021 1488:0.0053228927 2140:0.092427678 2904:0.0085880626 3478:0.0046681236 3596:0.012937877 5074:0.026921326 5123:0.018476702 5126:0.019718455 5323:0.04516856 6152:0.00048348022 6346:0.0083146151 6587:0.0057958928 7378:0.016024591 8690:0.031143639 9160:0.0039431043 9526:0.0062872572 9849:0.037433978 10181:0.005051095 10208:0.0043888614 10503:0.0053026793 11198:0.027988352 11308:0.0030889336 11712:0.015198152 12199:6.8710833e-06 #
1.4919351744013857885562401861534 424:0.021192709 1214:0.11236436 1435:0.0053305021 1488:0.0053228927 2140:0.092427678 2904:0.0085880626 3478:0.0046681236 3579:0.063829757 3596:0.012937877 5074:0.026921326 5123:0.018476702 5126:0.019718455 6152:0.00048348022 6346:0.0083146151 6587:0.0057958928 7378:0.016024591 8690:0.031143639 9160:0.0039431043 9526:0.0062872572 9849:0.037433978 10181:0.005051095 10208:0.0043888614 10503:0.0053026793 11198:0.027988352 11308:0.0030889336 11712:0.015198152 12199:6.8710833e-06 #
-0.01647343864755046460857101919828 85:0.092800863 610:0.010200864 1488:0.010936124 1890:0.045850862 2365:0.00961845 3611:0.075144336 4337:0.058643647 6152:0.00099333213 6575:0.016144834 6587:0.023815852 8603:0.053609602 9160:0.0081012873 9526:0.0064587276 10597:0.063986018 10628:0.078580007 12199:5.4295974e-06 #
-8.8918599179888460071197187062353 1214:0.13365445 3478:0.0039661499 3937:0.083286494 4025:0.029653279 6152:0.0014377175 8437:0.09423729 8939:0.099689782 9160:0.011725547 10539:0.010576795 10690:0.052593891 11308:0.0091855135 12199:4.7151766e-06 #
-0.56756637048824043478845169374836 1214:0.13022742 3478:0.0038644539 3937:0.081150942 4025:0.028892938 6152:0.0014008529 8437:0.091820955 8939:0.097133636 9160:0.011424892 9526:0.0091084624 10113:0.09698648 10539:0.010305596 10690:0.051245332 12199:4.5942747e-06 #
-4.3530525477294474967493442818522 1488:0.013075802 3644:0.14371093 4116:0.13536808 5918:0.14269002 6152:0.0023753594 6835:0.048861973 7378:0.039364755 7533:0.13010532 7975:0.10222212 9160:0.009686322 10208:0.021562666 11580:0.03724917 11852:0.10002402 12199:2.5967638e-06 #
-2.605786004125330457270592887653 2365:0.015114708 2986:0.10688159 3611:0.11808396 5126:0.12732488 6152:0.0015609504 6575:0.025370453 6587:0.037424911 9160:0.012730594 10181:0.016307821 11136:0.26060706 11308:0.0099728433 11922:0.11972806 12199:3.4128898e-06 #
-5.8701469323044230819164113199804 911:0.13021865 1069:0.046435263 1434:0.0091349902 1435:0.010567487 1488:0.0052762004 2049:0.039491117 3478:0.0052882 3722:0.10270721 6152:0.00095847831 6316:0.10010715 6835:0.03943247 7378:0.031768046 8391:0.062467087 9526:0.0062321057 11308:0.0061236755 12199:6.2869021e-06 #
-7.3536005108786737238801833882462 870:0.078827344 1488:0.015037172 3478:0.0037678424 5074:0.1521055 6152:0.0013658316 9160:0.01113927 10208:0.024797065 10539:0.010047955 10690:0.049964197 10751:0.089934804 11308:0.0087262373 11536:0.13738553 12199:4.4794178e-06 #
-0.87682672364290459299240865220781 870:0.076904722 1488:0.014670411 3478:0.0036759439 5074:0.14839561 6152:0.0013325186 9080:0.077138633 9160:0.01086758 9526:0.008664147 10208:0.024192259 10539:0.0098028835 10690:0.048745558 10751:0.087741271 11536:0.13403466 12199:4.3701639e-06 #
-0.011602199374175659746244448911057 1416:0.017256547 1785:0.12309574 2365:0.0094466927 2605:0.048909016 3478:0.0053826319 3611:0.073802471 6133:0.054876745 6152:0.0019511881 6587:0.023390569 6986:0.04667148 10349:0.075370528 11415:0.046941843 11981:0.13791621 12199:4.2661122e-06 #
-6.8244642181793615520746243419126 1435:0.021512384 2104:0.028122241 3003:0.081252374 3478:0.0080739483 6073:0.13791621 6152:0.0019511881 6631:0.081252374 8650:0.073026784 9849:0.075536415 9899:0.060575455 10013:0.087866187 10539:0.0071771112 12199:4.2661122e-06 #
-0.42048164642419272318818457279122 1435:0.021134974 1937:0.074729718 2104:0.027628867 3003:0.079826899 3478:0.0079322997 6073:0.13549663 6152:0.00095847831 6631:0.079826899 8650:0.071745612 9526:0.0062321057 9849:0.074211217 9899:0.059512731 10013:0.086324677 10539:0.0070511969 12199:5.2390851e-06 #
-1.5917725621527960555567915434949 1488:0.011138645 1995:0.16891199 2778:0.095833182 3221:0.13187496 3241:0.099681191 3478:0.0027909945 3661:0.20557734 5034:0.044764239 6152:0.0020234543 7972:0.16891199 10212:0.15124084 10744:0.086021401 12199:4.4241165e-06 #
-10.916468928229868140533653786406 103:0.076557919 285:0.092407249 2967:0.01693077 3152:0.048490275 3478:0.005197024 4242:0.025763758 4459:0.014290931 4959:0.030559577 5113:0.023262694 5449:0.0062754825 6152:0.00094195287 9452:0.015796298 9849:0.072931714 10101:0.032047693 10539:0.0069296244 11308:0.0060180952 12199:7.2082585e-06 #
-0.028186332244613001435373789149708 890:0.029456498 924:0.014562837 1434:0.0094671724 1488:0.0054680621 1705:0.048723824 1975:0.016309403 2239:0.042460267 2313:0.046323393 2982:0.067555018 3273:0.047656447 3360:0.16696772 3817:0.011297351 4123:0.077486239 5796:0.01688128 6624:0.042554833 7178:0.028494321 7720:0.015806645 8177:0.038231671 8400:0.082246214 8665:0.02827299 8701:0.013480165 9160:0.0081012873 9794:0.061536957 9840:0.021247832 10877:0.027340345 11580:0.015576926 12199:3.2577584e-06 #
-7.3175590230684015580209234030917 610:0.0096732331 1214:0.087566711 3478:0.002598512 4025:0.019428009 4636:0.11885105 4997:0.032093272 5126:0.076833978 6152:0.0018839057 6575:0.015309757 7603:0.071548358 8701:0.025565831 9160:0.007682255 10548:0.017135011 11191:0.10790552 12141:0.11030676 12199:4.1190046e-06 #
-3.4705183033510089707363022171194 3611:0.1333206 6152:0.0017623634 6308:0.1869591 6364:0.13432628 6575:0.028644061 6587:0.04225393 10181:0.018412057 11308:0.011259662 12199:5.7798939e-06 #
-0.49487036446556792457229789761186 904:0.030992597 1488:0.0081282007 2182:0.047046524 3478:0.0020366716 3784:0.090004727 4459:0.011201 5034:0.032665797 5449:0.0049186214 5465:0.038492445 6137:0.034155119 6152:0.00073828734 7286:0.054876328 7505:0.020325677 7839:0.039382763 8041:0.042536546 8056:0.01318093 8798:0.019195003 9160:0.0060212268 9849:0.057162695 10539:0.0054313275 11308:0.0047168853 11944:0.018874951 11986:0.047557179 12199:6.4568185e-06 #
-5.7136130263651931926460747490637 1435:0.010385289 1488:0.0051852316 2062:0.047147397 3478:0.00649628 6152:0.00094195287 6835:0.058128897 7378:0.031220322 7512:0.054235354 9160:0.0038411275 9526:0.0061246557 10062:0.047544148 10181:0.0098409271 10539:0.0069296244 10996:0.14893359 11308:0.0060180952 12199:6.1785072e-06 #
-3.4220845382231268594352968648309 736:0.07318569 911:0.092780799 3196:0.077473827 3478:0.0075356849 3596:0.07309901 6152:0.0013658316 9849:0.10575099 10208:0.024797065 10520:0.085621737 11308:0.0087262373 11880:0.083594143 12199:4.4794178e-06 #
-1.7141066867124270522992901533144 424:0.10885346 6152:0.0049666604 10690:0.09084399 11805:0.20561552 12199:5.4295974e-06 #
-1.2323334557157055169085424495279 1069:0.15569471 1214:0.14937851 2365:0.015559258 3493:0.095833294 6152:0.0016068608 6404:0.19443244 9160:0.013105024 10101:0.054669593 11308:0.010266162 12199:5.2699033e-06 #
-4.4233514056556995086566530517302 572:0.020305103 610:0.0037908617 1472:0.031771742 1883:0.028752089 1890:0.017039172 2097:0.0075889239 2503:0.097025938 2570:0.049426135 3289:0.044048566 3478:0.0061100149 4009:0.024949921 4025:0.0076136794 4536:0.047046524 5034:0.016332898 5620:0.079388499 6152:0.00073828734 6291:0.029563675 6582:0.0060402877 6587:0.0088504851 6639:0.034151353 7256:0.037041619 7468:0.037603769 8659:0.061630052 9584:0.025749803 9837:0.020193215 10175:0.028135911 10208:0.0067019095 10539:0.0054313275 10548:0.0067150719 11308:0.0047168853 12017:0.01660803 12199:4.8426136e-06 #
-2.4112007088304072688345058850246 113:0.034203451 418:0.025698679 1488:0.013670156 1503:0.080696873 1571:0.065145232 2097:0.008508794 3478:0.0034253113 3611:0.031310141 4261:0.05731019 4482:0.010268198 4771:0.069100365 5074:0.046092574 5116:0.054642141 5123:0.031634353 6152:0.00082777673 6192:0.044051688 6582:0.0067724437 6587:0.0099232709 7148:0.01859664 7317:0.028502969 7807:0.056295846 8041:0.023846244 9160:0.010126608 9293:0.17343357 9309:0.050457194 9480:0.031123012 9526:0.010764546 9840:0.017706526 10228:0.014208915 10386:0.034784939 10457:0.029108142 10474:0.05541718 10513:0.027095487 10539:0.0030448351 11308:0.0052886289 12117:0.015006535 12199:3.6197316e-06 #
-2.5752443017387234291959430265706 646:0.022460921 868:0.02942338 913:0.005732426 924:0.0051674582 1437:0.011384357 1488:0.0058208406 1883:0.027453607 1978:0.016278693 2045:0.042378504 2097:0.0036230993 2118:0.013191936 2260:0.02942338 2365:0.006825997 2503:0.046322063 2605:0.0088351769 3478:0.0043755588 3611:0.01333206 4025:0.003634918 4034:0.058846761 4326:0.014310976 4426:0.035064407 4976:0.012287263 4993:0.023596993 5534:0.021173356 5894:0.063520066 6152:0.00035247268 6575:0.002864406 6582:0.011535001 6587:0.0042253928 7034:0.009721145 7148:0.0079185693 7216:0.041785866 7378:0.023364887 7648:0.0098399622 7739:0.012090242 7804:0.02942338 8704:0.010235955 9094:0.018246645 9160:0.0014373251 9526:0.009167226 9840:0.015079107 10026:0.11525268 10208:0.0031996213 10228:0.0060502477 10539:0.0012965103 10877:0.0097014131 11580:0.0055272961 11939:0.035039041 12017:0.0079289945 12199:5.7798939e-06 #
-0.62818973702262392855288908322109 610:0.017532736 1055:0.1143651 1889:0.28503898 2104:0.04921392 3478:0.004709803 5084:0.1713175 5638:0.18853474 6152:0.003414579 9187:0.17390454 12199:3.7328482e-06 #
-1.3138817477637285691116630914621 424:0.10885346 6152:0.0049666604 7105:0.23522691 10690:0.09084399 12199:5.4295974e-06 #
-1.1647735569494832574832798854914 424:0.10885346 6152:0.0049666604 6702:0.24979186 10690:0.09084399 12199:5.4295974e-06 #
-5.9255641830772596279075514758006 2967:0.01693077 3478:0.002598512 4243:0.02085519 4459:0.014290931 4959:0.030559577 5113:0.023262694 5449:0.0062754825 5465:0.04911105 5583:0.040152568 6137:0.04357722 6152:0.00094195287 9452:0.015796298 9849:0.072931714 10794:0.032356497 11308:0.0060180952 11944:0.024081834 12059:0.11885105 12199:7.2082585e-06 #
-0.35723569379314085159293767901545 343:0.011326899 1434:0.012856653 1546:0.007021402 1699:0.043447297 2365:0.0097965701 3478:0.0018606629 3882:0.047674738 4253:0.018480437 4976:0.047025327 5449:0.0044935555 6033:0.068703026 6152:0.00067448476 6582:0.011036575 6587:0.008085628 6955:0.022333967 7616:0.11260799 8407:0.07839182 9837:0.018448124 10539:0.0049619535 10690:0.049347356 10877:0.037128866 11106:0.0091997404 11308:0.0043092533 11359:0.010137415 12010:0.027660217 12055:0.02618878 12199:5.8988217e-06 #
-1.9089549574846116364312820223859 3478:0.0030142739 3596:0.11695841 4025:0.022536492 4337:0.064508013 4836:0.082164757 4903:0.080124669 6152:0.0021853305 6555:0.11429477 6587:0.026197437 9837:0.059771918 10548:0.019876612 10936:0.11923361 11308:0.01396198 11712:0.068695642 12199:2.3890227e-06 #
-2.13139152798890529894038081693 285:0.060446847 343:0.0068983366 1071:0.01236218 1416:0.0036329571 1435:0.004528923 1488:0.0022612289 1758:0.010319846 2072:0.0088712042 2605:0.010296634 3478:0.0056659286 3800:0.029034991 4035:0.012450439 4521:0.018524164 4946:0.014825505 5465:0.032125272 5583:0.035020288 5920:0.012257025 6137:0.0190036 6152:0.00041077644 6256:0.010754061 6575:0.010014652 6582:0.0033607616 6587:0.0098486599 6968:0.012402002 7286:0.015266347 7300:0.013462471 7361:0.026771609 7648:0.011467625 7813:0.014701645 7839:0.010956107 8409:0.025236871 8551:0.016033752 8704:0.01192912 8724:0.024740212 9024:0.023528272 9160:0.0016750782 9526:0.0080127073 9849:0.063609615 10040:0.028653916 10208:0.0074577639 10219:0.004500648 10228:0.0070510404 10539:0.0015109708 10548:0.0037362054 10650:0.0058276728 11043:0.013919445 11106:0.0056028492 11578:0.0052254661 11944:0.015752779 12059:0.07774467 12119:0.029034991 12199:4.4906442e-06 12242:0.032027021 #
-1.2888466725801124290740062861005 1434:0.034712963 2028:0.20110372 4976:0.12696838 6152:0.0036422177 11020:0.19797061 12199:3.9817046e-06 #
-9.9879697240328759733074548421428 610:0.0020626748 797:0.024942836 959:0.016458858 1069:0.019461839 1147:0.036708321 1174:0.013852429 1214:0.11203388 1299:0.013366902 1437:0.0064874091 1488:0.0066340463 1546:0.0041818647 2013:0.028475614 2105:0.029107088 2181:0.022781072 2365:0.0019449072 2880:0.020106979 3125:0.015384386 3478:0.0072032283 3611:0.030389255 3644:0.024304055 4269:0.031057611 4426:0.013321036 4854:0.043046404 5235:0.081960127 6152:0.0004017152 6520:0.019025706 6582:0.013146508 6587:0.0048157051 7378:0.0266291 7380:0.033134233 7510:0.018064855 8941:0.025343239 9233:0.0089865252 9526:0.0052239709 9887:0.033533998 10208:0.0036466273 10877:0.011056758 11308:0.0025665406 11580:0.006299492 12199:5.2699033e-06 #
-2.4269750373007799026936481823213 11:0.12894233 610:0.020779539 997:0.034508307 1214:0.094053134 2365:0.0097965701 2929:0.073322184 3478:0.0027909945 4497:0.060605355 6092:0.074965388 6152:0.0020234543 6575:0.016443811 8029:0.086979121 9160:0.0082513113 10539:0.0074429298 11138:0.10387959 12199:4.4241165e-06 #
-0.52031474022893842157344579391065 1214:0.083260149 2097:0.018412471 2365:0.0086723734 2664:0.048116479 3135:0.12978898 3478:0.0024707164 3786:0.06489449 4025:0.018472534 4838:0.063828923 6152:0.00089562731 6404:0.10837217 6587:0.021473309 6835:0.036846735 7378:0.029684898 9160:0.0073044393 9233:0.040071063 9526:0.0058234432 11043:0.030348953 12199:4.8955385e-06 #
-0.084269834714945021647558576205483 610:0.014764409 3478:0.0079322997 6137:0.0665126 6152:0.0014377175 8479:0.048313767 9849:0.22263364 11308:0.0091855135 11880:0.17598768 12199:4.7151766e-06 #
-2.8130054129216053304674005630659 1923:0.061513972 3478:0.0023549015 3756:0.061375838 3825:0.11820227 4500:0.080859251 4836:0.064191215 4877:0.081754416 6152:0.0017072895 6576:0.03617198 6587:0.020466747 8195:0.059727781 8603:0.046070751 10228:0.029305886 10268:0.053864598 10548:0.015528603 11308:0.010907797 12199:3.7328482e-06 #
-1.7920660874687683872252819128335 1488:0.0084716454 1494:0.048968378 1529:0.097089589 1600:0.0337664 1890:0.035518274 2097:0.015819166 2225:0.080853105 2342:0.053250086 3478:0.0042454563 4976:0.05364861 5107:0.033190195 6152:0.00076948258 6587:0.018448899 6777:0.099133275 6835:0.031657051 9526:0.00500324 9837:0.042092901 10539:0.0056608198 11106:0.020990957 11712:0.048377212 12199:4.206026e-06 #
-26.684701565977221093817206565291 610:0.014764409 3478:0.0079322997 6137:0.0665126 6152:0.0014377175 8479:0.048313767 9849:0.22263364 11308:0.0091855135 11880:0.17598768 12199:4.7151766e-06 #
-0.67004954389942994463780223668437 1488:0.0085926689 1494:0.049667928 1529:0.098476589 1600:0.03424878 1890:0.036025677 2097:0.016045153 2225:0.082008146 2342:0.054010801 3478:0.0043061059 4976:0.054415017 6152:0.0015609504 6587:0.018712455 6777:0.10054946 6835:0.032109298 9837:0.042694226 10539:0.0057416889 11106:0.021290828 11712:0.049068317 12199:3.4128898e-06 #
-0.58795647620468582950081781746121 140:0.075586818 610:0.013047617 1212:0.11145446 1488:0.013988066 1571:0.06666024 2418:0.10756514 2598:0.15062347 3113:0.092059627 3478:0.0070099393 4482:0.031520981 6152:0.001270541 7378:0.042111132 9526:0.0082611637 12199:4.1669005e-06 #
-5.6972810581761548220924851193558 610:0.0022806809 797:0.027579069 959:0.018198412 1069:0.02151878 1174:0.015316506 1214:0.12387486 1299:0.014779665 1437:0.0071730702 1488:0.0073352056 1546:0.0046238503 2013:0.031485233 2105:0.032183446 2181:0.025188828 2365:0.0021504664 2880:0.022232106 3001:0.037078243 3125:0.017010378 3478:0.0079645449 3611:0.033601128 3644:0.026872775 4269:0.034340125 4426:0.014728951 4854:0.047596022 5235:0.090622582 6152:0.00044417288 6520:0.021036552 6582:0.014535977 6587:0.0053246822 7378:0.029443556 7380:0.036636226 7510:0.019974148 8830:0.033119958 8941:0.028021792 9233:0.0099363206 9526:0.005776098 10208:0.0040320433 10877:0.012225358 11308:0.0028378009 11580:0.0069652922 12199:5.8268847e-06 #
-0.47304226528340320712118227675091 736:0.07140068 911:0.090517849 3196:0.075584218 3478:0.0073518879 3596:0.071316108 6152:0.0013325186 9526:0.008664147 9849:0.10317169 10208:0.024192259 10520:0.083533406 11311:0.10389253 11880:0.081555262 12199:4.3701639e-06 #
-2.180640067422490169235516077606 2097:0.023399182 2605:0.057060517 3360:0.095658585 3478:0.0031398688 4836:0.085588284 5599:0.047247916 6133:0.064022869 6152:0.0022763861 6575:0.018499289 6955:0.037688568 7034:0.062782392 7841:0.12327349 10835:0.060858257 12199:4.9771306e-06 #
-1.3237661018642197241490521264495 610:0.013358274 1488:0.014321116 2313:0.12132318 3388:0.080795549 3611:0.098403297 6152:0.002601584 10199:0.064686097 11370:0.11851152 11501:0.15521875 11578:0.033094618 12199:5.6881495e-06 #
-0.58995563348270019243813067078008 1975:0.048487414 2104:0.04256339 2221:0.11457918 2365:0.014297697 3478:0.0040733432 5595:0.065362923 6152:0.0014765747 6555:0.077226192 9187:0.15040393 10181:0.015426318 11308:0.0094337706 12199:4.8426136e-06 #
-0.011008087368605735945070733805551 1488:0.015037172 2365:0.013225369 2706:0.14265269 3478:0.0037678424 4078:0.11937188 4297:0.1357763 5123:0.10439337 6152:0.0013658316 8479:0.045898076 9849:0.10575099 11308:0.0087262373 11880:0.083594143 12199:4.4794178e-06 #
-0.52603443735798516289747794871801 791:0.099597625 870:0.076904722 1636:0.13757372 2225:0.070006959 3478:0.0073518879 4125:0.062023465 6152:0.0013325186 9526:0.008664147 10181:0.027842622 10208:0.024192259 11198:0.15427727 11536:0.13403466 12199:4.3701639e-06 #
-1.1659415540648307985094334071619 870:0.078827344 1636:0.14101306 2225:0.07175713 3478:0.0075356849 4125:0.063574053 6152:0.0013658316 10181:0.028538689 10208:0.024797065 11198:0.15813419 11308:0.0087262373 11536:0.13738553 12199:4.4794178e-06 #
-1.0504293307600558460279671635362 1416:0.018583972 3478:0.0028983403 5449:0.013999153 6152:0.0021012793 6585:0.045477219 7378:0.034822669 8762:0.09149155 9837:0.057472996 10161:0.16140199 11359:0.031581949 12199:6.8914119e-06 #
-4.9004983444529122138533239194658 424:0.085527718 1214:0.18138818 4497:0.11688176 5990:0.12670517 6152:0.0039023762 6761:0.11812502 9397:0.20836937 12199:4.2661122e-06 #
-0.63390761567894593486727217168664 1488:0.014670411 2365:0.012902799 2706:0.13917334 3478:0.0036759439 4078:0.11646037 4297:0.13246468 4517:0.080618329 5123:0.10184719 6152:0.0013325186 8479:0.044778612 9526:0.008664147 9849:0.10317169 11880:0.081555262 12199:4.3701639e-06 #
-1.2329098982232578052276039670687 1488:0.015037172 2365:0.013225369 2706:0.14265269 3478:0.0037678424 4078:0.11937188 4297:0.1357763 5123:0.10439337 6152:0.0013658316 8479:0.045898076 9849:0.10575099 11308:0.0087262373 11880:0.083594143 12199:4.4794178e-06 #
-0.4961013266886737937966245226562 572:0.08970613 1238:0.063576028 1388:0.070023283 2114:0.055172298 2365:0.0078957425 2550:0.071354091 3611:0.061685652 3873:0.070023283 4125:0.037954658 4625:0.12039139 6152:0.00081542187 6576:0.034552339 6587:0.039100651 7587:0.073543698 8412:0.096065708 9526:0.0053019407 10208:0.014804218 12199:4.457132e-06 #
-0.69057219938031266792677342891693 572:0.09106531 1388:0.071084246 2114:0.056008242 2365:0.0080153756 2550:0.072435215 3611:0.062620282 3873:0.071084246 4125:0.038529728 4625:0.1222155 6152:0.0016555535 6576:0.035075858 6587:0.039693084 7587:0.074657999 8412:0.097521245 10208:0.015028524 12199:3.6197316e-06 #
-0.54726682500745116310980620255577 1055:0.10165787 2097:0.015599455 2605:0.038040344 3478:0.0041864915 3917:0.030432591 4025:0.015650341 4450:0.036007732 4976:0.052903492 5362:0.18500972 6152:0.0015175907 6555:0.039685681 6575:0.012332859 7378:0.025149705 7461:0.094847105 9048:0.051544886 10539:0.0055821976 10690:0.027757887 11106:0.020699415 12199:3.3180872e-06 #
-0.42406588110626047827267370848858 898:0.046763793 1488:0.010936124 2365:0.00961845 2947:0.056813255 2985:0.077447161 3419:0.075093798 3478:0.002740249 6152:0.00099333213 6986:0.047520053 7378:0.032923251 9526:0.0064587276 9849:0.076909803 10539:0.007307604 10700:0.14394778 11880:0.060795743 12199:5.4295974e-06 #
-1.5975892079359677033778552868171 898:0.047629789 1488:0.011138645 2365:0.0097965701 2947:0.057865351 3419:0.076484427 3478:0.0027909945 6152:0.0020234543 6986:0.048400052 7378:0.03353294 9849:0.078334063 10539:0.0074429298 10700:0.14661348 11880:0.061921589 12199:4.4241165e-06 #
-4.335997838009013172211325581884 1912:0.029728845 3478:0.002511895 3683:0.0630126 3917:0.018259555 5449:0.0121326 6137:0.042124648 6152:0.0018211089 6575:0.014799431 6582:0.014899377 7378:0.060359292 9493:0.069693394 9849:0.070500657 11359:0.027371021 11880:0.05572943 12199:5.9725571e-06 #
-0.99177667130778879300834205423598 155:0.064476117 294:0.1520208 1434:0.017356481 2097:0.018719345 2605:0.045648415 3196:0.051649217 3478:0.0050237901 4976:0.063484192 5092:0.068470627 5123:0.069595583 5792:0.13611676 6152:0.0018211089 8603:0.049142133 10228:0.031259615 10539:0.0066986368 12199:3.9817046e-06 #
-4.1933483553066750459947797935456 1712:0.092703432 3478:0.0030142739 3917:0.021911466 5449:0.01455912 6152:0.0021853305 7378:0.036215574 8479:0.036718462 9849:0.084600784 11359:0.032845225 11880:0.066875316 12199:7.1670684e-06 #
-0.72616777059900960988869655921008 343:0.011468485 1400:0.043990389 1434:0.013017361 1546:0.0071091698 2365:0.0099190269 3478:0.0018839212 4253:0.018711442 4976:0.04761314 5449:0.004549725 6033:0.069561817 6152:0.00068291579 6582:0.011174533 6587:0.0081866989 6955:0.022613142 8407:0.079371713 9760:0.096541345 9837:0.018678725 10539:0.0050239777 10690:0.049964197 10877:0.037592977 11106:0.0093147373 11308:0.0043631187 11359:0.010264133 12010:0.028005971 12055:0.02651614 12199:5.9725571e-06 #
-0.5774098885786490553684302540205 890:0.016201073 1069:0.0264681 1147:0.074884973 1434:0.010413889 1435:0.0060234675 1488:0.018044606 2097:0.0056158039 2365:0.0026450739 3150:0.035606239 3478:0.0037678424 3817:0.006213543 4025:0.005634123 4549:0.09778782 5305:0.03259594 5621:0.022404775 6152:0.00054633262 7148:0.012273782 7378:0.018107787 7857:0.020103956 8008:0.038616538 8701:0.0074140909 8727:0.06962885 9526:0.0071046003 9622:0.011143975 9849:0.021150196 10062:0.013787803 10175:0.020820573 10181:0.0057077375 10418:0.12453863 10539:0.0020095911 11308:0.003490495 11944:0.0069837319 12199:5.3753015e-06 #
-1.3590859912723938229817122191889 572:0.028085563 890:0.030282382 1435:0.011258817 1488:0.0056213723 1494:0.016246518 1546:0.005315267 2097:0.0052484148 2104:0.014718181 2365:0.0024720316 3419:0.038599618 3478:0.0035213481 4048:0.042622652 4836:0.038394745 6152:0.00051059126 6439:0.033077296 6587:0.012241793 6996:0.086369865 7378:0.016923165 8056:0.0091157835 8716:0.087692708 8830:0.038072474 9445:0.056619532 9584:0.035616551 9837:0.027930804 10181:0.0053343344 11308:0.003262145 11944:0.013053705 12017:0.011485927 12055:0.019825151 12199:5.0236463e-06 #
-0.39311292207894366068643421385786 303:0.028818725 610:0.0028335734 1975:0.054364678 2221:0.06423378 3478:0.0053282622 5373:0.038206793 5595:0.036642853 6033:0.028105784 6152:0.00055185118 6346:0.0094904192 6411:0.043026201 6555:0.014431157 6582:0.0090299249 6587:0.0066155144 7100:0.020831447 7378:0.018290695 7720:0.026344409 8078:0.0094673857 9526:0.0035881822 9622:0.01125654 9849:0.021363836 10181:0.0057653915 10219:0.006046325 11308:0.0035257526 11438:0.020803683 11721:0.023435097 12199:6.0328857e-06 #
-0.6792529511966722832738696524757 424:0.05442673 1890:0.05731358 3360:0.10435482 3478:0.0068506226 6152:0.0024833302 8626:0.15520436 8665:0.070682473 9265:0.091381617 10181:0.025944263 10539:0.0091345049 12199:2.7147987e-06 12226:0.075342447 #
-0.69937453494900081452101403556298 285:0.085073344 2967:0.015587058 3152:0.044641837 3478:0.0047845617 4242:0.023719015 4459:0.01315673 4959:0.028134214 5113:0.02141645 5449:0.0057774284 5465:0.045213345 5583:0.036965858 6152:0.00086719467 8574:0.059378661 9452:0.014542623 9526:0.0056385719 9849:0.067143485 10539:0.0063796542 11810:0.067612603 11944:0.022170577 12199:6.6361745e-06 #
-3.2924420641053586678026476874948 285:0.086445495 2967:0.015838463 3152:0.045361869 3478:0.0048617325 4242:0.02410158 4459:0.013368935 4959:0.028587991 5113:0.021761876 5449:0.0058706128 5465:0.045942593 5583:0.03756208 6152:0.00088118168 8574:0.060336381 9452:0.014777182 9849:0.068226442 10539:0.0064825518 11308:0.005629831 11944:0.022528168 12199:6.7432097e-06 #
-0.49285402073659623223278458681307 3782:0.092440829 6152:0.0027316632 6576:0.057875168 6587:0.032746796 6863:0.1129797 7456:0.18287669 9160:0.01113927 9394:0.10902063 9455:0.044347901 12010:0.11202388 12199:2.9862786e-06 #
-0.1790303204499799905047296988414 85:0.06715852 1435:0.015851229 1712:0.0609891 2850:0.06897644 3478:0.0019830749 3596:0.038473163 3611:0.054380771 4741:0.0413584 6152:0.0014377175 6582:0.011762666 6587:0.017235156 9394:0.057379279 10086:0.094904773 10228:0.024678642 10658:0.078443162 10690:0.026296945 11308:0.018371027 12199:4.7151766e-06 #
-0.55015111217267498311400686361594 610:0.015163447 1240:0.10222899 1645:0.055914264 3478:0.0040733432 6152:0.0014765747 7378:0.048939966 9160:0.012042454 9526:0.0096008116 9660:0.14168133 10539:0.010862655 10690:0.05401535 12199:4.8426136e-06 #
-0.23794221411509841601628068019636 610:0.015584653 1645:0.057467438 3478:0.0041864915 6152:0.0015175907 7378:0.05029941 9160:0.012376966 9660:0.14561692 10539:0.011164395 10690:0.055515774 11308:0.0096958196 12199:4.9771306e-06 #
-0.21637143740018177640038743447803 1645:0.062691748 3478:0.004567082 3575:0.095602959 6152:0.0016555535 7378:0.054872084 9000:0.076378532 9100:0.12374251 9526:0.010764546 10023:0.23403963 12199:5.4295974e-06 #
-0.82592872122061233852718942216597 912:0.06878981 1488:0.010024781 2359:0.10378219 3478:0.0050237901 4836:0.068470627 6152:0.0018211089 6587:0.021831198 8724:0.10968161 8762:0.079292677 9837:0.049809933 10175:0.069401912 10181:0.019025791 10548:0.016563844 10612:0.065914169 12199:3.9817046e-06 #
-1.2081713764992463300274039283977 140:0.077386506 610:0.013358274 1212:0.11410815 1488:0.014321116 1571:0.068247385 2418:0.11012622 2598:0.15420975 3478:0.007176843 4482:0.032271482 6152:0.001300792 7378:0.043113779 11308:0.0083107026 12199:4.2661122e-06 #
-2.8851979667206810731272526027169 303:0.028818725 610:0.0028335734 1975:0.054364678 2221:0.06423378 3478:0.0053282622 5373:0.038206793 5595:0.036642853 6033:0.028105784 6152:0.00055185118 6346:0.0094904192 6411:0.043026201 6555:0.014431157 6582:0.0090299249 6587:0.0066155144 7100:0.020831447 7378:0.018290695 7720:0.026344409 8078:0.0094673857 9526:0.0035881822 9622:0.01125654 9849:0.021363836 10181:0.0057653915 10219:0.006046325 11308:0.0035257526 11438:0.020803683 11721:0.023435097 12199:6.0328857e-06 #
-0.58961333906305180008189381624106 890:0.016201073 1069:0.0264681 1147:0.074884973 1434:0.010413889 1435:0.0060234675 1488:0.018044606 2097:0.0056158039 2365:0.0026450739 3150:0.035606239 3478:0.0037678424 3817:0.006213543 4025:0.005634123 5305:0.03259594 5621:0.022404775 6152:0.00054633262 6986:0.039204042 7148:0.012273782 7378:0.018107787 7857:0.020103956 8008:0.038616538 8701:0.0074140909 8727:0.06962885 9526:0.0071046003 9622:0.011143975 9849:0.021150196 10062:0.013787803 10175:0.020820573 10181:0.0057077375 10418:0.12453863 10539:0.0020095911 11308:0.003490495 11944:0.0069837319 12199:5.3753015e-06 #
-0.429794599237562691129710401583 1416:0.0169538 1785:0.12093616 2365:0.009280961 2605:0.048050962 3478:0.0052882 3611:0.072507694 6133:0.053913996 6152:0.00095847831 6587:0.022980208 6986:0.045852683 7500:0.074729718 9526:0.0062321057 10349:0.074048236 11415:0.0461183 11981:0.13549663 12199:5.2390851e-06 #
-0.72188881967897444713599952592631 694:0.035024054 924:0.012713588 1114:0.055860814 1416:0.007669576 1435:0.0095610591 1465:0.072390854 1975:0.014238368 2904:0.03080797 3360:0.14576547 3478:0.0035884215 4025:0.017886104 4123:0.03382336 4313:0.072390854 4386:0.053722739 4575:0.064817503 5034:0.019184673 5247:0.025819534 5254:0.030200198 5796:0.014737626 6439:0.028089451 6587:0.010395808 7353:0.054343466 8665:0.02468277 9160:0.0035362761 9837:0.023719015 10208:0.0078720842 10548:0.007887545 12199:2.8440747e-06 #
-0.61194668823691733550163007748779 1214:0.097670563 2794:0.070131972 3478:0.0028983403 3917:0.021068716 5449:0.013999153 6152:0.0021012793 6429:0.125369 6575:0.017076267 7378:0.034822669 8332:0.085014455 11359:0.031581949 12199:6.8914119e-06 #
-0.28113002171244766413948923400312 110:0.062474299 572:0.020583255 1326:0.042866576 1488:0.0082395459 1768:0.040678892 1850:0.18642293 1923:0.02696503 2097:0.015385764 3478:0.0010322856 3611:0.056615598 4826:0.13793851 5346:0.086854763 6152:0.00074840087 6575:0.012163916 6587:0.026915174 6639:0.034619179 7000:0.024827888 7401:0.027692435 7694:0.079922497 9160:0.009155564 9584:0.026102541 9837:0.020469835 9840:0.016008642 10181:0.007818819 10228:0.038539249 10539:0.0027528645 10548:0.006807059 11308:0.0047815 12199:4.0907926e-06 #
-0.50264637406041901002140548371244 343:0.020388417 632:0.18148901 1434:0.023141976 1488:0.0066831871 1758:0.061001755 2765:0.087968089 3478:0.0033491934 3644:0.073452249 4386:0.075211838 5210:0.090744503 6152:0.0012140726 6346:0.020878922 6555:0.031748544 6575:0.019732574 6587:0.029108262 7836:0.059177708 8517:0.084054947 9160:0.0049507865 9526:0.007894 10548:0.011042562 12199:3.9817046e-06 #
-1.2990355860643660879105709682335 912:0.029908612 1416:0.0070026563 1434:0.0075462963 2460:0.054818444 2550:0.034642931 3478:0.0032763847 3611:0.059897661 3917:0.0079389373 5323:0.073971704 5708:0.085075513 6152:0.00079178647 6575:0.01286907 6576:0.016775411 6587:0.018983649 6835:0.03257465 7178:0.022712864 8791:0.023603735 9160:0.0064575477 9526:0.0051482613 9837:0.021656493 10181:0.0082720835 10548:0.014403342 11043:0.013415117 11308:0.0050586886 11415:0.019048864 11712:0.024889726 12199:5.1935276e-06 #
-0.51024389000499226209939251930336 745:0.061952986 2362:0.070258066 2365:0.0076668807 3478:0.0021842564 3493:0.047222205 4025:0.016330792 5595:0.035049684 5708:0.042537756 6152:0.00079178647 6575:0.01286907 6656:0.061733246 7369:0.042206861 8466:0.039108299 8573:0.067690276 8574:0.054215297 9160:0.012915095 9526:0.0051482613 9849:0.12260984 11880:0.096920751 12199:4.3279397e-06 #
-0.61868168670653422847038882537163 343:0.0049862978 912:0.022431459 1416:0.0052519925 1434:0.016979167 1435:0.0065472471 1488:0.0032689504 1686:0.0098276343 1758:0.029837815 2097:0.0061041345 3478:0.0024572886 3917:0.0059542027 5074:0.033066411 5210:0.044385899 5708:0.063806631 6152:0.00059383985 6207:0.029128373 6575:0.024129506 6576:0.012581558 6587:0.021356605 6835:0.024430986 7148:0.026682135 7178:0.017034648 8791:0.017702801 9160:0.012107902 9526:0.0038611959 9837:0.016242368 10548:0.010802506 10996:0.031297639 11043:0.030184014 11308:0.0037940163 11415:0.014286648 11712:0.018667294 12017:0.013358632 12199:4.5443367e-06 12225:0.019969219 #
-0.81453620936052428813667347640148 837:0.063320905 1434:0.0074384925 1435:0.025814861 2503:0.068380184 2641:0.058727827 2728:0.035767414 3003:0.065001905 3478:0.0021530529 3617:0.022547895 4025:0.0080487467 4478:0.055622343 4976:0.027207509 5138:0.027444819 6152:0.00078047521 6575:0.012685226 6585:0.016891539 6587:0.0093562277 6835:0.016054649 7283:0.024221713 7378:0.012934133 7685:0.032311011 8164:0.038793225 8210:0.044050038 9160:0.0031826484 9342:0.022825446 9837:0.021347113 10013:0.10543943 10040:0.027221221 10171:0.066005826 10208:0.0070848758 10539:0.0086125331 11106:0.021290828 11307:0.046565626 12199:3.4128898e-06 #
-0.55701598253494366552729388786247 424:0.085527718 1214:0.18138818 4497:0.11688176 5990:0.12670517 6152:0.0039023762 8839:0.21824813 9397:0.20836937 12199:4.2661122e-06 #
-0.61719054504913417602551817253698 343:0.01911414 610:0.01168849 736:0.060988076 2365:0.011021141 3478:0.0031398688 4836:0.085588284 5291:0.12196481 6152:0.0022763861 6576:0.048229307 6587:0.027288996 8993:0.12788592 10181:0.02378224 10548:0.020704804 11781:0.10669266 12199:2.4885653e-06 #
-0.43484224594395826102299906779081 2395:0.1166715 6152:0.0015609504 6527:0.14441143 8479:0.052454945 9160:0.012730594 9526:0.01014943 9849:0.12085827 10539:0.011483378 10690:0.057101939 11880:0.095536165 12199:5.1193347e-06 #
-0.10776901760540293084833507464282 745:0.062864058 2362:0.071291275 2365:0.007779629 3478:0.002216378 3493:0.047916647 4025:0.01657095 5595:0.035565123 5708:0.043163311 6152:0.0016068608 6575:0.013058322 7369:0.04282755 8466:0.03968342 8573:0.068685725 8574:0.055012584 9160:0.013105024 9849:0.12441292 11880:0.098346055 12199:3.5132689e-06 #
-3.5892614656083838831079901865451 1214:0.084647819 2097:0.018719345 2365:0.0088169128 2664:0.048918419 3135:0.13195214 3478:0.002511895 4025:0.01878041 4838:0.064892732 6152:0.0018211089 6404:0.11017838 6587:0.021831198 6835:0.037460845 7378:0.030179646 9160:0.0074261799 9233:0.040738914 11043:0.030854769 12199:3.9817046e-06 #
-0.10908032495897979075039074814413 610:0.017001441 1262:0.30274317 3478:0.0091341641 4250:0.12963757 6152:0.0016555535 7378:0.054872084 9526:0.010764546 12199:5.4295974e-06 #
-0.064985674074628768659422917153279 1488:0.032512803 3478:0.0081466865 6152:0.0014765747 6439:0.09565597 6996:0.083257437 7378:0.048939966 8183:0.1310218 10181:0.015426318 11308:0.0094337706 12199:4.8426136e-06 #
-0.37480527626452114775545965130732 830:0.087526783 1168:0.046338793 1435:0.018533746 3478:0.0069560171 4373:0.067034058 4450:0.039885487 6152:0.00084051176 6575:0.013661013 6582:0.013753271 6869:0.063455798 6976:0.053560656 7378:0.027858134 9526:0.0054650772 9837:0.045978397 10101:0.028596403 10539:0.006183357 11043:0.028481325 11712:0.052842803 12199:4.5942747e-06 #
-3.6491900314042853281648604024667 904:0.030992597 1488:0.0081282007 2182:0.047046524 3478:0.0020366716 3784:0.090004727 4459:0.011201 5034:0.032665797 5449:0.0049186214 5465:0.038492445 6137:0.034155119 6152:0.00073828734 7286:0.054876328 7505:0.020325677 7839:0.039382763 8041:0.042536546 8056:0.01318093 8798:0.019195003 9160:0.0060212268 9849:0.057162695 10539:0.0054313275 11308:0.0047168853 11944:0.018874951 11986:0.047557179 12199:6.4568185e-06 #
-0.043117682369697152289234054478584 610:0.0091975005 1488:0.0098604402 1754:0.099316224 2225:0.047053855 3478:0.0049414327 4125:0.041687902 5477:0.059577513 6152:0.00089562731 6587:0.021473309 6953:0.05597534 7378:0.059369795 7741:0.069447346 9526:0.0058234432 10722:0.029232331 10751:0.05897364 11549:0.067662105 12199:4.8955385e-06 #
-0.033966620765480765031796295261302 2605:0.07207644 3360:0.1208319 6152:0.0028754349 6760:0.24003284 10548:0.026153438 11370:0.13098641 11501:0.17155758 11578:0.036578264 12199:6.2869021e-06 #
-0.068840945077244836136642902602034 572:0.025906511 694:0.038043369 1435:0.010385289 1488:0.010370463 1861:0.02423434 2104:0.013576254 2114:0.01593338 3478:0.00649628 3756:0.033862531 3842:0.045634657 3917:0.0094445972 4025:0.0097140046 5254:0.032803662 5284:0.14688255 5449:0.0062754825 5708:0.02530263 6152:0.00094195287 6439:0.12204382 6585:0.02038634 7378:0.046830483 7479:0.031275686 8041:0.027135381 8466:0.023262694 9160:0.0038411275 9441:0.070405215 10136:0.078631446 10548:0.017135011 11359:0.014157425 12199:4.1190046e-06 #
-0.99055873871299815469626537378645 278:0.012456164 657:0.036443606 1488:0.0042358227 1975:0.025268089 2550:0.033667073 3302:0.11998856 3478:0.0031840922 3611:0.058210403 3644:0.046554245 4006:0.023246948 4764:0.05999428 6152:0.00076948258 6555:0.060366955 6575:0.0062532807 6587:0.018448899 7378:0.012751963 8810:0.028579507 9160:0.0094134677 9526:0.00500324 10181:0.0080390675 11308:0.0049161902 11580:0.024133265 12199:5.8884366e-06 #
-0.6142438366496594248644669278292 10:0.03801458 235:0.10344075 410:0.087354958 610:0.010200864 1488:0.010936124 2503:0.08702933 4248:0.05689564 4459:0.015070437 5041:0.05191724 5449:0.0066177817 6097:0.070211887 6152:0.00099333213 7685:0.082246214 9452:0.016657915 9526:0.0064587276 10174:0.067508124 10827:0.036486197 12199:6.5155168e-06 #
-0.80468690322144564852635539864423 890:0.033752237 924:0.016686585 1494:0.018108098 1975:0.018687857 2097:0.023399182 2365:0.011021141 3478:0.0015699344 3611:0.043051444 4125:0.026489189 4253:0.031185735 4976:0.03967762 6152:0.0011381931 6575:0.0092496444 6587:0.013644498 8011:0.056573454 8407:0.044095397 8701:0.015446022 9723:0.047586709 9748:0.040940158 10181:0.01189112 10539:0.0041866479 10690:0.041636832 11580:0.035697121 11833:0.088741541 12017:0.05120809 12199:3.7328482e-06 #
-0.8265441165886047159006011497695 81:0.053078942 610:0.0040074824 1434:0.0074384925 1488:0.0085926689 1920:0.020084225 1975:0.012814531 2079:0.055166483 2365:0.003778677 2615:0.032006823 3478:0.0032295792 3867:0.089407429 4253:0.042769007 4450:0.018518262 4976:0.054415017 5034:0.017266206 5595:0.017274488 6152:0.00078047521 6161:0.046262924 6575:0.01902784 6587:0.0093562277 6835:0.032109298 7148:0.017533975 7170:0.060851343 7283:0.024221713 7378:0.012934133 7954:0.036045678 9048:0.026508799 9480:0.029344555 10503:0.00856004 10539:0.0028708444 10675:0.03683361 10722:0.025473887 10881:0.049734894 11578:0.0099283857 12199:4.2661122e-06 #
-0.2455405023007871390117173859835 424:0.11973881 6152:0.0054633263 10495:0.30421099 12199:5.9725571e-06 #
-0.30172518397321074212769076439145 424:0.11973881 4748:0.27477106 6152:0.0054633263 12199:5.9725571e-06 #
-0.33837276267614158076213470849325 343:0.024144178 1434:0.027404971 1686:0.047586441 2565:0.18323383 4025:0.029653279 4733:0.13079353 4836:0.10811152 6152:0.0028754349 6291:0.11514273 12199:3.1434511e-06 #
-0.37640212314292109674340736091835 610:0.015163447 1618:0.18633834 2929:0.10701075 3478:0.0040733432 6152:0.0014765747 7369:0.078710094 9160:0.012042454 9526:0.0096008116 9849:0.11432539 11880:0.090372048 12199:4.8426136e-06 #
-0.43271682154844715029184953891672 610:0.014385834 1628:0.10322303 3478:0.0077289077 6152:0.0014008529 7378:0.046430223 9160:0.011424892 9526:0.0091084624 10539:0.010305596 10690:0.051245332 10732:0.16140199 12199:4.5942747e-06 #
-0.80023440005190737966955794036039 17:0.084224761 1416:0.020560991 1435:0.012815888 2097:0.011948518 2605:0.029137285 2945:0.051176336 3070:0.060523842 3478:0.0016033372 3644:0.14065325 4025:0.02397499 4253:0.031849261 5237:0.054858565 5652:0.060523842 6152:0.0011624099 6250:0.09062966 6337:0.066243954 6575:0.0094464449 7479:0.038595524 7587:0.052419443 9160:0.0047401148 9303:0.044707052 10539:0.0042757257 11484:0.09062966 11852:0.048947927 12010:0.047669735 12199:6.3537841e-06 #
-0.62589716643384973870922749483725 343:0.0052129477 1434:0.0059169824 1488:0.0068350779 2245:0.028582964 2550:0.027163206 2986:0.042509723 3039:0.032930296 3478:0.0025689835 3596:0.04984023 3611:0.046965212 3644:0.037560809 4025:0.0064024124 6152:0.00062083255 6576:0.013153447 6582:0.0050793327 6587:0.02232736 7378:0.02057703 7857:0.022845404 8290:0.023809558 8810:0.023058465 9160:0.0075949566 9526:0.004036705 10181:0.0064860657 10919:0.11295804 11308:0.0039664716 11580:0.019471157 11922:0.047619116 12199:5.4295974e-06 #
-0.52163970487882305171467578475131 1600:0.038667977 2503:0.077203438 3478:0.0072925985 3663:0.026355991 4035:0.053416397 4765:0.080765128 5449:0.011741226 5954:0.066886626 6152:0.0017623634 6313:0.075500511 6575:0.01432203 10539:0.0064825518 10650:0.025002597 11359:0.026488086 12199:5.7798939e-06 #
-0.10399620901127984429201944749366 610:0.021578752 5126:0.17139888 6152:0.0042025587 7468:0.071350738 10339:0.26512927 10675:0.19833481 12199:4.5942747e-06 #
-0.078692054379476600312059986208624 424:0.10885346 808:0.1854078 6152:0.0049666604 9371:0.20581442 12199:5.4295974e-06 #
-0.6640010912271425702613214525627 103:0.075260334 285:0.090841025 2967:0.016643807 3152:0.047668405 3478:0.005108939 4242:0.025327085 4459:0.014048711 4959:0.030041618 5113:0.022868412 5188:0.072196506 5449:0.0061691185 6152:0.00092598755 9452:0.015528564 9526:0.0060208477 9849:0.071695581 10101:0.031504512 10539:0.0068121734 12199:7.0860847e-06 #
-0.61122238986837207352920131597784 610:0.014385834 3478:0.0077289077 5149:0.086782888 6137:0.064807147 6152:0.0014008529 8479:0.047074951 9526:0.0091084624 9849:0.2169251 11880:0.17147517 12199:4.5942747e-06 #
-1.3995210770108386100218922365457 343:0.0066483971 1416:0.014005313 3478:0.0054606413 3600:0.041473243 3611:0.029948831 4836:0.059539676 5708:0.085075513 6152:0.00079178647 6575:0.025738141 6587:0.037967298 6835:0.016287325 9160:0.0032287738 9526:0.0051482613 9837:0.043312985 10548:0.014403342 10560:0.037567262 11043:0.053660467 11308:0.0050586886 11415:0.038097728 11712:0.049779452 12199:4.3279397e-06 #
-8.0641330994954483202263872954063 1214:0.13365445 1587:0.14461634 3029:0.10652976 3478:0.0039661499 4025:0.029653279 6152:0.0014377175 8939:0.099689782 9160:0.011725547 10539:0.010576795 10690:0.052593891 11308:0.0091855135 12199:4.7151766e-06 #
-0.49139128461554304472258536407026 6152:0.0016068608 6527:0.14865883 8479:0.053997736 9160:0.013105024 9849:0.12441292 10539:0.011821124 10690:0.058781408 11308:0.010266162 11880:0.098346055 12199:5.2699033e-06 #
2.3389470773889495802677629399113 424:0.021192709 1019:0.050057169 1214:0.11236436 1435:0.0053305021 1488:0.0053228927 2140:0.092427678 2904:0.0085880626 3478:0.0046681236 3596:0.012937877 5074:0.026921326 5123:0.018476702 5126:0.019718455 6152:0.00048348022 6346:0.0083146151 6587:0.0057958928 7378:0.016024591 8690:0.031143639 9160:0.0039431043 9526:0.0062872572 9849:0.037433978 10181:0.005051095 10208:0.0043888614 10503:0.0053026793 11198:0.027988352 11308:0.0030889336 11712:0.015198152 12199:6.8710833e-06 #
12.301729404099720710519250133075 424:0.021192709 1214:0.11236436 1435:0.0053305021 1488:0.0053228927 2140:0.092427678 2904:0.0085880626 3478:0.0046681236 3596:0.012937877 5074:0.026921326 5123:0.018476702 5126:0.019718455 6152:0.00048348022 6346:0.0083146151 6587:0.0057958928 6835:0.019890714 7378:0.016024591 8690:0.031143639 9160:0.0039431043 9526:0.0062872572 9849:0.037433978 10181:0.005051095 10208:0.0043888614 10503:0.0053026793 11198:0.027988352 11308:0.0030889336 11712:0.015198152 12199:6.8710833e-06 #
-0.38738247747259801911923204897903 911:0.07625819 1434:0.021398403 1435:0.0082513252 1488:0.0082395459 2049:0.03083553 3196:0.021225706 3478:0.0030968569 3722:0.12029406 6152:0.00074840087 6316:0.11724878 6576:0.01585621 6835:0.046184603 7378:0.024805188 7761:0.11796279 9526:0.0048661646 10181:0.007818819 10208:0.0067937165 10409:0.042650215 11043:0.012680043 11308:0.0047815 11580:0.01173604 12199:5.7271095e-06 #
-0.0082214701259748362849322234069405 343:0.01911414 610:0.01168849 736:0.060988076 2365:0.011021141 3478:0.0031398688 4836:0.085588284 5291:0.12196481 6152:0.0022763861 6576:0.048229307 6587:0.027288996 8993:0.12788592 10181:0.02378224 10548:0.020704804 11781:0.10669266 12199:2.4885653e-06 #
-0.099079263325062172373947078085621 610:0.014385834 3478:0.0077289077 5149:0.086782888 6137:0.064807147 6152:0.0014008529 8479:0.047074951 9526:0.0091084624 9849:0.2169251 11880:0.17147517 12199:4.5942747e-06 #
-0.065157695282990368834674654863193 424:0.10885346 4463:0.17510423 6152:0.0049666604 7601:0.17565772 12199:5.4295974e-06 #
-0.045616416263216615079034710333872 424:0.10885346 2243:0.22902101 6152:0.0049666604 7385:0.28447819 12199:5.4295974e-06 #
-0.066845907803930515456158900633454 424:0.10885346 4170:0.25936851 6152:0.0049666604 12199:5.4295974e-06 12215:0.15397692 #
-0.065089491913451147375724303856259 424:0.10885346 3652:0.17519595 6152:0.0049666604 7601:0.17565772 12199:5.4295974e-06 #
-0.086594522363569667589011658037634 572:0.069887333 3478:0.0070099393 3695:0.068554416 6152:0.001270541 6582:0.020789828 7148:0.057087358 8108:0.15958379 9526:0.0082611637 9584:0.088627227 10480:0.10479664 10690:0.046478324 11094:0.083486296 12199:4.1669005e-06 #
-0.023441022193512406346371790277772 983:0.10870437 1472:0.13830052 1488:0.017690789 3478:0.0066491337 4836:0.06041526 6152:0.0016068608 6587:0.01926282 6614:0.26842147 6644:0.10757452 7378:0.0266291 9280:0.051054336 10181:0.016787464 10612:0.05815956 12199:3.5132689e-06 #
-0.040370355408929026186370947471005 343:0.01310684 572:0.042930789 911:0.053017598 1488:0.0085926689 2097:0.016045153 2365:0.0075573539 3478:0.0043061059 4025:0.016097493 4125:0.036328029 4500:0.07392846 6152:0.0015609504 6587:0.018712455 7378:0.025868267 7479:0.051828276 8223:0.10807065 8701:0.021183116 8791:0.046533078 9303:0.060035184 9584:0.054442443 11672:0.060698893 12199:3.4128898e-06 #
-0.72236339108555369659114830938051 797:0.047114246 959:0.031088952 1147:0.034668971 1214:0.14107969 1299:0.025248595 1488:0.004176992 2105:0.054980054 2181:0.043030914 2550:0.033199474 3478:0.0062797377 3611:0.028700963 3644:0.045907658 4269:0.058664378 4854:0.08130987 6152:0.00075879536 6520:0.035937443 6582:0.0062080733 6587:0.0090963319 7378:0.012574852 8810:0.028182568 8941:0.047870561 9526:0.0049337503 11308:0.0048479098 12199:5.8066526e-06 #
-0.023236060219794206493926225221003 429:0.066996366 610:0.00318777 808:0.046351951 959:0.025436416 1299:0.02065794 1434:0.0059169824 1488:0.0034175389 1600:0.013621673 1645:0.011754703 1900:0.0095941657 1974:0.046403438 2011:0.016420607 2537:0.05182527 3478:0.0017126556 3611:0.023482606 3769:0.044983681 4455:0.017982312 5240:0.066996366 5449:0.0041361134 6152:0.00062083255 6520:0.029403364 6574:0.11854589 6575:0.0050452608 6582:0.0050793327 6587:0.0074424534 6738:0.022039177 7378:0.010288515 7595:0.029403364 9000:0.014320975 9160:0.0025316521 9429:0.044983681 9868:0.044983681 10261:0.085616112 11347:0.047518224 12199:4.7508975e-06 #
