SVM-light Version V6.02
0 # kernel type
3 # kernel parameter -d 
1 # kernel parameter -g 
1 # kernel parameter -s 
1 # kernel parameter -r 
empty# kernel parameter -u 
214 # highest feature index 
45 # number of training documents 
43 # number of support vectors plus 1 
0.72720542 # threshold b, each following line is a SV (starting with alpha*y)
-0.9500755505368174702596206770977 35:0.055107083 40:0.22042833 59:0.055107083 70:0.03920304 89:0.055107083 93:0.045072749 94:0.03920304 98:0.055107083 117:0.22042833 125:0.055107083 169:0.22042833 203:0.055107083 #
-19.404005546885052524430648190901 14:0.022646748 21:0.016110839 23:0.013892725 70:0.096665032 71:0.0037397435 72:0.0005538172 73:0.010275651 74:0.018523049 91:0.022646748 93:0.018523049 129:0.010275651 139:0.018523049 141:0.018523049 148:0.024478186 149:0.018523049 161:0.019149862 180:0.023974281 185:0.027950585 188:0.0054512331 #
-27.606133822662005883330493816175 4:0.011711804 5:0.023959601 11:0.023959601 21:0.017044801 23:0.0073490506 34:0.019596849 41:0.015234094 49:0.023959601 52:0.039193697 60:0.027659204 71:0.00395654 72:0.00058592256 85:0.0094668483 103:0.0064303987 122:0.023959601 140:0.012682048 141:0.019596849 148:0.014798407 149:0.039193697 161:0.01013 165:0.017044801 166:0.019596849 173:0.006914801 180:0.025364095 185:0.0084488308 188:0.011534493 205:0.0032151993 #
-55.86787602080564596462863846682 29:0.0062650498 60:0.022191687 72:0.00094020134 103:0.0051592733 109:0.020350263 124:0.022191687 140:0.020350263 157:0.038446803 161:0.016255116 173:0.011095843 175:0.031446107 205:0.0051592733 #
-1.7030702337191587769638090321678 26:0.02543404 29:0.0020722859 67:0.064686306 68:0.064686306 72:0.00062197936 85:0.010049423 87:0.040387444 103:0.0034130577 124:0.029361308 127:0.02543404 152:0.10173616 159:0.02543404 160:0.02543404 173:0.0073403269 174:0.037297592 176:0.02543404 185:0.0089687593 205:0.0034130577 #
18.315055700984679276643873890862 17:0.11021417 61:0.11021417 72:0.0026952438 107:0.078406081 130:0.11021417 162:0.05000817 164:0.019432312 185:0.019432312 190:0.090145499 208:0.11021417 #
14.039044451157366211191401816905 50:0.13632035 155:0.23617321 174:0.11544493 #
12.154668475124841720003132650163 7:0.16801304 107:0.16801304 164:0.041640669 #
55.86787602080564596462863846682 7:0.024501901 10:0.024501901 20:0.056340937 23:0.01056426 25:0.034441926 50:0.019880053 69:0.028170468 71:0.0056875264 72:0.00084226369 95:0.068883851 148:0.026590886 161:0.014561875 162:0.015627552 185:0.030362988 197:0.034441926 #
55.86787602080564596462863846682 4:0.022140123 8:0.016110839 10:0.016110839 19:0.018523049 29:0.001845186 32:0.033210184 50:0.039215446 64:0.01439935 69:0.018523049 71:0.0037397435 72:0.0005538172 84:0.022646748 85:0.0089481166 101:0.018523049 103:0.0060780481 113:0.037046097 148:0.024478186 161:0.0095749311 162:0.010275651 171:0.010275651 173:0.0065359077 185:0.0039929408 205:0.0030390241 210:0.022646748 #
-22.43998934250586785310588311404 3:0.0094479453 22:0.016368441 23:0.0050206385 30:0.0064674504 31:0.0074269557 43:0.016368441 71:0.0027029829 72:0.00040028372 75:0.016368441 76:0.0069204951 83:0.0069204951 85:0.0064674504 99:0.032736883 100:0.011644468 103:0.0043930444 112:0.016368441 113:0.093715623 121:0.016368441 128:0.017327946 133:0.010678597 134:0.0069204951 136:0.011644468 148:0.0050549009 151:0.0060576219 164:0.0057719736 173:0.0047239726 180:0.0086639728 183:0.016368441 185:0.0057719736 192:0.013387945 194:0.016368441 199:0.011644468 202:0.046577871 205:0.0021965222 213:0.0094479453 #
-4.7269921036542879022590568638407 12:0.1377677 72:0.0033690548 133:0.044939097 135:0.1377677 163:0.1377677 190:0.11268187 #
-6.0478561148725580309815086366143 3:0.011095843 4:0.018793359 18:0.015723053 23:0.017688993 27:0.012222704 29:0.0031325249 32:0.028190039 71:0.0031744335 72:0.00047010067 81:0.057670206 83:0.008127558 97:0.019223401 100:0.01367548 103:0.0025796366 110:0.096117005 128:0.030525394 133:0.0062705716 134:0.024382675 148:0.002968285 164:0.0033893567 171:0.017444709 173:0.0055479216 180:0.010175131 185:0.0067787133 202:0.068377398 205:0.0025796366 213:0.011095843 #
-18.276750579808101804246689425781 71:0.015166737 72:0.0022460364 90:0.09184514 133:0.029959397 148:0.014181806 185:0.016193593 195:0.058397364 #
-7.3153082151926334120162209728733 29:0.0051807142 42:0.05200702 71:0.010500049 72:0.0015549484 83:0.053766925 133:0.020741122 148:0.009818173 151:0.047063064 164:0.011210949 #
55.86787602080564596462863846682 29:0.0051807142 64:0.040428944 72:0.0015549484 73:0.028850866 103:0.0085326442 109:0.033656202 129:0.028850866 140:0.033656202 145:0.10401404 148:0.009818173 151:0.023531532 161:0.026883462 162:0.028850866 205:0.0085326442 #
55.86787602080564596462863846682 8:0.058804564 29:0.0067349286 72:0.0020214329 103:0.011092437 148:0.012763625 162:0.037506126 172:0.082660623 175:0.067609124 179:0.082660623 205:0.011092437 #
33.268898122681804352396284230053 23:0.0092197182 29:0.002449065 31:0.013638591 46:0.12023364 54:0.024585137 56:0.03005841 66:0.03005841 71:0.0049636597 72:0.00073506648 79:0.03005841 103:0.0040336135 114:0.024585137 128:0.015910204 143:0.03005841 145:0.098340549 147:0.03005841 148:0.0046413182 150:0.03005841 151:0.022247994 162:0.013638591 185:0.0052997214 196:0.019111864 205:0.0040336135 #
55.86787602080564596462863846682 29:0.0056124404 47:0.1377677 71:0.011375053 72:0.0016845274 103:0.0092436979 123:0.098007604 148:0.010636355 151:0.050984986 162:0.031255104 205:0.0092436979 #
55.86787602080564596462863846682 10:0.01367548 15:0.028835103 19:0.0078615267 20:0.023584578 29:0.00078313123 30:0.0037977472 32:0.0093966797 33:0.0096117007 48:0.0050875656 50:0.011095843 65:0.0096117007 67:0.012222704 71:0.0047616502 72:0.00023505033 82:0.028835103 85:0.011393242 94:0.0068377401 101:0.0078615267 103:0.0051592733 105:0.0078615267 109:0.0050875656 131:0.0078615267 134:0.004063779 137:0.0050875656 140:0.0050875656 148:0.01187314 161:0.004063779 162:0.0043611773 171:0.0087223547 173:0.0083218822 177:0.0078615267 178:0.031446107 185:0.0033893567 189:0.0096117007 200:0.011095843 205:0.0012898183 214:0.0096117007 #
-24.023241338161131608330833842047 29:0.0061226622 48:0.019887757 72:0.00091883313 120:0.037573013 123:0.053458694 137:0.019887757 144:0.02388983 164:0.0066246516 186:0.043374661 188:0.018088182 200:0.021687331 209:0.037573013 #
-0.65855439142838179122918518260121 16:0.030048501 29:0.0059866034 48:0.019445807 72:0.00089841458 109:0.038891613 137:0.019445807 144:0.023358945 164:0.0064774374 186:0.04241078 188:0.017686222 191:0.036738057 200:0.02120539 #
-49.376078770568170739352353848517 29:0.0043451153 71:0.0088064922 72:0.0013041502 83:0.04509484 103:0.0071564112 123:0.075876854 133:0.017395779 148:0.0082345968 151:0.039472248 164:0.0094027314 188:0.02567355 205:0.0071564112 #
-5.3343499789973467528625405975617 6:0.030048501 24:0.036738057 29:0.0029933017 31:0.016669389 72:0.00089841458 73:0.016669389 76:0.015532667 92:0.063616164 103:0.0049299723 106:0.073476113 129:0.016669389 138:0.023358945 153:0.030048501 164:0.019432312 185:0.0064774374 188:0.026529334 205:0.0049299723 #
-4.918363963511798608863045956241 18:0.058790546 29:0.00585646 30:0.028400544 31:0.032614022 38:0.041488804 72:0.0017577677 103:0.009645598 164:0.012673247 188:0.03460348 205:0.009645598 #
55.86787602080564596462863846682 7:0.054957535 8:0.021983014 23:0.0094782142 32:0.022657415 34:0.012637219 39:0.030901169 50:0.0089181541 52:0.012637219 71:0.0051028277 73:0.021031473 85:0.012209579 87:0.016356286 103:0.0062200585 105:0.025274439 107:0.010991507 108:0.015450585 126:0.030901169 129:0.021031473 131:0.025274439 148:0.014314346 156:0.030901169 166:0.012637219 170:0.015450585 171:0.014020982 173:0.0089181541 174:0.015104944 177:0.025274439 180:0.0081781428 185:0.0081724674 204:0.030901169 205:0.0020733527 #
-19.818607390968367099048919044435 3:0.0091754086 4:0.023310995 23:0.0097516244 29:0.0012951785 30:0.0062808897 32:0.031081326 38:0.0091754086 44:0.031792548 58:0.02600351 60:0.0091754086 64:0.010107236 71:0.0026250123 72:0.0003887371 87:0.058898356 96:0.015896274 102:0.015896274 103:0.0021331611 119:0.015896274 124:0.0091754086 173:0.0091754086 174:0.015540663 182:0.015896274 185:0.0084082121 205:0.0021331611 211:0.039005265 #
-22.273608083160766568653343711048 3:0.017040044 4:0.014430616 23:0.0090550799 29:0.0024053317 32:0.014430616 62:0.024146117 67:0.037541162 72:0.00072194031 87:0.062504373 103:0.003961585 124:0.017040044 132:0.024146117 173:0.008520022 174:0.028861232 185:0.0052050836 205:0.003961585 #
-7.1345164117005754889078161795624 23:0.022047151 29:0.00585646 30:0.028400544 38:0.082977608 45:0.14375761 72:0.0017577677 103:0.009645598 164:0.012673247 205:0.009645598 #
-12.212221412887611649011887493543 13:0.016050607 29:0.0039232592 30:0.006341869 37:0.016050607 60:0.018528981 62:0.013127985 67:0.030616093 71:0.0053009954 72:0.00039251123 76:0.0067861164 87:0.025487222 88:0.016050607 103:0.0021538713 133:0.0052356231 134:0.0067861164 142:0.080253035 148:0.0049567479 167:0.048151821 174:0.0078457715 178:0.013127985 185:0.0028299484 193:0.016050607 205:0.0021538713 207:0.016050607 #
-7.9449997321531959926232957514003 30:0.029691478 71:0.012409149 72:0.0018376663 74:0.061462842 103:0.010084034 133:0.024512235 148:0.011603296 198:0.15029205 205:0.010084034 #
-22.487067407733238866285319090821 29:0.0038485306 72:0.0011551045 73:0.021432072 83:0.039941143 103:0.0063385358 109:0.075005248 129:0.021432072 133:0.015407691 140:0.025001751 148:0.0072935 151:0.034961134 161:0.019970572 164:0.0083281333 188:0.022739429 205:0.0063385358 #
-11.471229851517376729930219880771 4:0.022447625 23:0.01408568 27:0.029198682 29:0.0037416271 31:0.020836737 72:0.0011230182 73:0.020836737 76:0.019415833 128:0.024307257 129:0.020836737 148:0.0070909029 164:0.0080967965 171:0.020836737 181:0.04592257 188:0.044215556 195:0.029198682 213:0.026506737 #
-22.300619582166255838728829985484 23:0.0046521514 29:0.0012357667 36:0.010789828 41:0.0096436013 53:0.015167087 55:0.015167087 68:0.019287203 71:0.0025045988 72:0.00037090512 76:0.006412569 83:0.019237706 85:0.0059927753 103:0.0040706191 111:0.015167087 128:0.016056171 133:0.0049474235 134:0.012825138 136:0.010789828 148:0.0046838992 151:0.022452103 154:0.012405344 164:0.0026741715 171:0.0068818582 173:0.0087545188 185:0.0026741715 188:0.021904955 195:0.0096436013 196:0.0096436013 205:0.0020353096 213:0.017509038 #
-5.2179510197670255777779857453424 27:0.030916251 29:0.0039617228 72:0.0011890782 73:0.022062426 76:0.020557942 92:0.084197871 129:0.022062426 134:0.061673824 138:0.030916251 164:0.0085730786 171:0.022062426 185:0.0085730786 188:0.023408236 206:0.048623897 #
-46.743786814191061296241969102994 9:0.0095561417 21:0.01359643 23:0.0029311241 28:0.0095561417 29:0.0015572089 32:0.004671182 42:0.0078160837 48:0.0050581577 54:0.0078160837 60:0.0055158525 70:0.01359643 71:0.0015780421 72:0.00023369167 85:0.003775795 87:0.030348945 94:0.0067982152 103:0.0025647255 114:0.0078160837 116:0.019112283 118:0.019112283 124:0.0055158525 137:0.0050581577 139:0.015632167 148:0.0088533815 154:0.0078160837 158:0.019112283 164:0.0050546476 168:0.0095561417 173:0.0027579262 174:0.014013546 185:0.01347906 188:0.0046004625 201:0.019112283 205:0.0012823627 212:0.019112283 #
-13.741477923811380890128930332139 4:0.013696856 16:0.011459174 29:0.0022830267 30:0.022142798 31:0.0063569704 36:0.0099668754 41:0.0089080725 68:0.017816145 71:0.0023135701 72:0.00034261573 76:0.0059234747 77:0.028020551 80:0.028020551 85:0.0055356994 92:0.056607608 103:0.0037601483 104:0.028020551 109:0.029663093 136:0.0099668754 138:0.017816145 140:0.02224732 161:0.017770424 164:0.002470209 165:0.0099668754 173:0.0080868006 185:0.002470209 188:0.010117119 196:0.0089080725 199:0.0099668754 205:0.0018800742 #
-0.15775886772874933572374800405669 2:0.026241468 29:0.0021380726 31:0.011906707 36:0.018668115 41:0.016684961 68:0.033369921 71:0.0043333536 72:0.00064172474 76:0.011094762 85:0.010368452 92:0.045440119 103:0.0070428173 134:0.044379048 138:0.016684961 164:0.0046267407 165:0.018668115 173:0.0075733531 185:0.0046267407 188:0.018949524 196:0.016684961 199:0.018668115 205:0.0035214087 #
-6.2761542523986797448287688894197 29:0.0051807142 71:0.010500049 72:0.0015549484 83:0.053766925 133:0.020741122 134:0.026883462 148:0.009818173 151:0.047063064 187:0.063585095 #
-6.5795498096686770850283210165799 3:0.010486182 23:0.011144713 29:0.0014802041 30:0.014356319 31:0.0082431044 38:0.010486182 58:0.029718297 64:0.023102254 71:0.003000014 72:0.00044427096 78:0.03633434 86:0.01816717 100:0.01292408 103:0.0024378984 128:0.0096160574 132:0.014859148 134:0.0076809889 146:0.01816717 148:0.0028051923 164:0.0064062565 173:0.0052430909 180:0.0096160574 184:0.03633434 185:0.0096093854 195:0.011551127 202:0.064620398 205:0.0024378984 211:0.059436593 213:0.010486182 #
-6.244738895397581757151783676818 6:0.030731421 29:0.0061226622 48:0.019887757 51:0.061462842 72:0.00091883313 115:0.037573013 137:0.019887757 144:0.02388983 164:0.0066246516 186:0.043374661 188:0.018088182 200:0.021687331 #
-9.5998654670288647849929475341924 29:0.0061226622 48:0.019887757 63:0.037573013 72:0.00091883313 137:0.019887757 144:0.02388983 153:0.030731421 164:0.019873956 186:0.043374661 188:0.018088182 200:0.021687331 #
