SVM-light Version V6.02
0 # kernel type
3 # kernel parameter -d 
1 # kernel parameter -g 
1 # kernel parameter -s 
1 # kernel parameter -r 
empty# kernel parameter -u 
61 # highest feature index 
12 # number of training documents 
13 # number of support vectors plus 1 
0.73957281 # threshold b, each following line is a SV (starting with alpha*y)
-19.024808269462283760731224901974 5:0.027671315 6:0.0060021337 13:0.0060021337 16:0.027671315 23:0.027671315 24:0.027671315 25:0.0045151603 31:0.0060021337 32:0.0097490065 49:0.0060021337 51:0.012004267 53:0.0060021337 56:0.027671315 58:0.083013944 #
-16.520808922442387967066679266281 2:0.089931771 4:0.029977256 6:0.0065023112 10:0.021615313 13:0.0065023112 25:0.004891424 31:0.0065023112 35:0.021615313 44:0.029977256 49:0.0065023112 51:0.013004622 53:0.0065023112 61:0.029977256 #
-19.02480826946226599716283089947 3:0.083013944 6:0.0060021337 13:0.0060021337 20:0.027671315 25:0.0045151603 26:0.027671315 27:0.027671315 31:0.0060021337 32:0.0097490065 36:0.027671315 43:0.027671315 49:0.0060021337 51:0.012004267 53:0.0060021337 #
-19.024808269462280208017546101473 6:0.0060021337 7:0.027671315 8:0.027671315 9:0.027671315 13:0.0060021337 14:0.027671315 25:0.0045151603 31:0.0060021337 32:0.0097490065 40:0.083013944 49:0.0060021337 51:0.012004267 53:0.0060021337 57:0.027671315 #
-16.520808922442405730635073268786 6:0.0065023112 10:0.021615313 13:0.0065023112 17:0.089931771 25:0.004891424 28:0.029977256 31:0.0065023112 35:0.021615313 45:0.029977256 49:0.0065023112 51:0.013004622 53:0.0065023112 59:0.029977256 #
90.718084406640770112062455154955 12:0.031687368 29:0.056799013 47:0.020011118 48:0.020011118 #
90.718084406640770112062455154955 12:0.031687368 47:0.020011118 48:0.020011118 60:0.095062107 #
90.718084406640770112062455154955 12:0.031687368 21:0.12286599 47:0.020011118 48:0.020011118 #
-53.270510670283435672445193631575 47:0.020011118 48:0.020011118 52:0.040955327 60:0.095062107 #
-90.718084406640770112062455154955 18:0.034812298 21:0.025101652 25:0.0056803632 33:0.034812298 42:0.034812298 47:0.036794636 48:0.012264878 52:0.025101652 60:0.058263872 #
-19.024809183514857835461953072809 6:0.0060021337 11:0.027671315 13:0.0060021337 15:0.027671315 25:0.0045151603 31:0.0060021337 32:0.0097490065 34:0.027671315 39:0.027671315 49:0.0060021337 50:0.083013944 51:0.012004267 53:0.0060021337 55:0.027671315 #
-19.024809183514854282748274272308 6:0.0060021337 13:0.0060021337 19:0.027671315 25:0.0045151603 30:0.027671315 31:0.0060021337 32:0.0097490065 37:0.027671315 38:0.027671315 41:0.027671315 46:0.083013944 49:0.0060021337 51:0.012004267 53:0.0060021337 #
