SVM-light Version V6.02
0 # kernel type
3 # kernel parameter -d 
1 # kernel parameter -g 
1 # kernel parameter -s 
1 # kernel parameter -r 
empty# kernel parameter -u 
16 # highest feature index 
12 # number of training documents 
13 # number of support vectors plus 1 
-0.074853777 # threshold b, each following line is a SV (starting with alpha*y)
-0.11942819745180678625562364914003 3:1 9:1 15:1 #
-0.11942819745180725810040911483156 2:1 6:1 9:1 #
-0.11942819745180686952235049602677 5:1 9:1 12:1 #
-0.11942819745180677237783584132558 9:1 13:1 14:1 #
-0.11942819745180699442244076635689 9:1 10:1 16:1 #
0.83600044904959425196011579828337 #
-0.83600044904959425196011579828337 4:1 #
-0.11942819745180699442244076635689 1:1 7:1 9:1 #
-0.11942819745180688340013830384123 8:1 9:1 11:1 #
0.83600044904959425196011579828337 #
-0.83600044904959425196011579828337 #
0.83600044904959425196011579828337 #
