SVM-light Version V6.02
0 # kernel type
3 # kernel parameter -d 
1 # kernel parameter -g 
1 # kernel parameter -s 
1 # kernel parameter -r 
empty# kernel parameter -u 
61 # highest feature index 
12 # number of training documents 
13 # number of support vectors plus 1 
0.0049277732 # threshold b, each following line is a SV (starting with alpha*y)
-0.013631051747688858674645295820937 5:1 6:1 13:1 16:1 23:1 24:1 25:1 31:1 32:1 49:1 51:1 53:1 56:1 58:1 #
-0.013631051747688863878815723751359 6:1 13:1 19:1 25:1 30:1 31:1 32:1 37:1 38:1 41:1 46:1 49:1 51:1 53:1 #
-0.013631051747688886430220911449851 3:1 6:1 13:1 20:1 25:1 26:1 27:1 31:1 32:1 36:1 43:1 49:1 51:1 53:1 #
-0.01363105174768886908298615168178 6:1 7:1 8:1 9:1 13:1 14:1 25:1 31:1 32:1 40:1 49:1 51:1 53:1 57:1 #
-0.018742696153072169185094253407442 6:1 10:1 13:1 17:1 25:1 28:1 31:1 35:1 45:1 49:1 51:1 53:1 59:1 #
0.10564610030118176675628660632356 12:1 29:1 47:1 48:1 #
0.10564610030118176675628660632356 12:1 47:1 48:1 60:1 #
0.10564610030118176675628660632356 12:1 21:1 47:1 48:1 #
-0.10564610030118176675628660632356 47:1 48:1 52:1 60:1 #
-0.10564610030118176675628660632356 18:1 21:1 25:1 33:1 42:1 47:1 48:1 52:1 60:1 #
-0.0136310517476889228594139069628 6:1 11:1 13:1 15:1 25:1 31:1 32:1 34:1 39:1 49:1 50:1 51:1 53:1 55:1 #
-0.018742696153072290615737571783939 2:1 4:1 6:1 10:1 13:1 25:1 31:1 35:1 44:1 49:1 51:1 53:1 61:1 #
