SVM-light Version V6.02
0 # kernel type
3 # kernel parameter -d 
1 # kernel parameter -g 
1 # kernel parameter -s 
1 # kernel parameter -r 
empty# kernel parameter -u 
12284 # highest feature index 
36360 # number of training documents 
15 # number of support vectors plus 1 
1.1286126 # threshold b, each following line is a SV (starting with alpha*y)
-0.18431862474395269146931752857199 1019:0.13796245 1488:0.014670411 3478:0.0073518879 5894:0.16009124 6152:0.0013325186 6450:0.13503572 6563:0.18124516 7189:0.095328905 8086:0.16009124 8791:0.079446718 10181:0.013921311 11308:0.0085134031 12199:4.3701639e-06 #
-0.046669473852050558093651488889009 1214:0.23085769 6152:0.0049666604 8332:0.20094326 9160:0.020253217 12199:5.4295974e-06 #
-0.34757747853415610350680253759492 675:0.25521892 1019:0.17676438 1147:0.15601037 2118:0.12779687 2664:0.091722034 6152:0.003414579 6439:0.11060221 8407:0.13228619 10409:0.19459161 12199:3.7328482e-06 #
-3.2615209078919109586536251299549 610:0.018701585 870:0.10510312 1019:0.18854867 4497:0.10908964 6152:0.0036422177 12199:3.9817046e-06 #
-1.2213559042161832302042512310436 1019:0.14628777 1435:0.010385289 1488:0.0051852316 3478:0.00649628 6152:0.00094195287 6835:0.058128897 7378:0.031220322 7512:0.054235354 9160:0.0038411275 9526:0.0061246557 10062:0.047544148 10181:0.0098409271 10539:0.0069296244 11083:0.04400041 11308:0.0060180952 12199:6.1785072e-06 #
39.271877164254071601590112550184 424:0.021192709 1019:0.050057169 1214:0.11236436 1435:0.0053305021 1488:0.0053228927 2140:0.092427678 2904:0.0085880626 3478:0.0046681236 3596:0.012937877 5074:0.026921326 5123:0.018476702 5126:0.019718455 6152:0.00048348022 6346:0.0083146151 6587:0.0057958928 7378:0.016024591 8690:0.031143639 9160:0.0039431043 9526:0.0062872572 9849:0.037433978 10181:0.005051095 10208:0.0043888614 10503:0.0053026793 11198:0.027988352 11308:0.0030889336 11712:0.015198152 12199:6.8710833e-06 #
-0.99930000484996028831119474489242 424:0.018709188 913:0.013883219 1142:0.059101135 1214:0.119036 1435:0.0047058342 1488:0.0046991161 1974:0.063804731 2140:0.10879508 3478:0.0052985284 3599:0.03092628 3608:0.026222687 5074:0.047532968 6152:0.00042682237 6346:0.0073402463 6587:0.0051166867 7148:0.0095888916 7378:0.014146709 8690:0.027493993 9160:0.0034810218 9526:0.0055504693 9849:0.033047181 10181:0.0044591702 10208:0.0038745415 10219:0.0046764547 10503:0.0046812715 10539:0.0031399862 11106:0.0058217105 11198:0.024708468 11308:0.0027269493 11438:0.016090348 11478:0.047957223 11580:0.0066932105 11712:0.013417118 12199:6.0658781e-06 #
-4.1255132587052019133011526719201 424:0.021192709 1214:0.11236436 1435:0.0053305021 1488:0.0053228927 2140:0.092427678 2904:0.0085880626 3478:0.0046681236 3596:0.012937877 5074:0.026921326 5123:0.018476702 5126:0.019718455 6152:0.00048348022 6346:0.0083146151 6587:0.0057958928 7378:0.016024591 8690:0.031143639 9160:0.0039431043 9526:0.0062872572 9849:0.037433978 10181:0.005051095 10208:0.0043888614 10503:0.0053026793 11198:0.027988352 11308:0.0030889336 11370:0.044048529 11712:0.015198152 12199:6.8710833e-06 #
-3.4564902475897412159611121751368 424:0.021192709 1214:0.11236436 1435:0.0053305021 1488:0.0053228927 2140:0.092427678 2904:0.0085880626 3478:0.0046681236 3596:0.012937877 5074:0.026921326 5123:0.018476702 5126:0.019718455 5323:0.04516856 6152:0.00048348022 6346:0.0083146151 6587:0.0057958928 7378:0.016024591 8690:0.031143639 9160:0.0039431043 9526:0.0062872572 9849:0.037433978 10181:0.005051095 10208:0.0043888614 10503:0.0053026793 11198:0.027988352 11308:0.0030889336 11712:0.015198152 12199:6.8710833e-06 #
-16.747125802599530430825325311162 424:0.021192709 1214:0.11236436 1435:0.0053305021 1488:0.0053228927 2140:0.092427678 2904:0.0085880626 3478:0.0046681236 3596:0.012937877 5074:0.026921326 5123:0.018476702 5126:0.019718455 6152:0.00048348022 6346:0.0083146151 6587:0.0057958928 6835:0.019890714 7378:0.016024591 8690:0.031143639 9160:0.0039431043 9526:0.0062872572 9849:0.037433978 10181:0.005051095 10208:0.0043888614 10503:0.0053026793 11198:0.027988352 11308:0.0030889336 11712:0.015198152 12199:6.8710833e-06 #
-1.9646917619581873992729015299119 424:0.021192709 1214:0.11236436 1435:0.0053305021 1488:0.0053228927 2140:0.092427678 2904:0.0085880626 3478:0.0046681236 3579:0.063829757 3596:0.012937877 5074:0.026921326 5123:0.018476702 5126:0.019718455 6152:0.00048348022 6346:0.0083146151 6587:0.0057958928 7378:0.016024591 8690:0.031143639 9160:0.0039431043 9526:0.0062872572 9849:0.037433978 10181:0.005051095 10208:0.0043888614 10503:0.0053026793 11198:0.027988352 11308:0.0030889336 11712:0.015198152 12199:6.8710833e-06 #
-4.3229223919417734123271657153964 424:0.021192709 1214:0.11236436 1434:0.0046079154 1435:0.0053305021 1488:0.0053228927 2140:0.092427678 2904:0.0085880626 3478:0.0046681236 3596:0.012937877 5074:0.026921326 5123:0.018476702 5126:0.019718455 6152:0.00048348022 6346:0.0083146151 6587:0.0057958928 6636:0.039992813 7378:0.016024591 8690:0.031143639 9160:0.0019715521 9526:0.0062872572 9849:0.037433978 10181:0.005051095 10208:0.0043888614 10503:0.0053026793 11198:0.027988352 11308:0.0030889336 11712:0.015198152 12199:6.8710833e-06 #
-2.051373682903040673863870324567 424:0.010596354 1214:0.11236436 1435:0.0053305021 1488:0.0053228927 2140:0.092427678 2225:0.012700377 2904:0.0085880626 3478:0.0046681236 3596:0.012937877 5074:0.026921326 5123:0.018476702 5126:0.019718455 6152:0.00048348022 6346:0.0083146151 6587:0.0057958928 7378:0.016024591 8690:0.031143639 9160:0.0039431043 9526:0.0062872572 9849:0.037433978 10181:0.005051095 10208:0.0043888614 10503:0.0053026793 10996:0.050962526 11198:0.027988352 11308:0.0030889336 11712:0.015198152 12199:6.8710833e-06 #
-0.54301762446849011212179902940989 424:0.021192709 1214:0.089891486 1435:0.0053305021 1488:0.0053228927 2140:0.092427678 2904:0.0085880626 3478:0.0046681236 3596:0.012937877 5074:0.026921326 5123:0.018476702 5126:0.019718455 6152:0.00048348022 6346:0.0083146151 6587:0.0057958928 7315:0.040359505 7378:0.016024591 8690:0.031143639 9160:0.0039431043 9526:0.0062872572 9849:0.074867956 10181:0.005051095 10208:0.0043888614 10503:0.0053026793 11198:0.027988352 11308:0.0030889336 11712:0.015198152 12199:6.8710833e-06 #
