SVM-light Version V6.02
0 # kernel type
3 # kernel parameter -d 
1 # kernel parameter -g 
1 # kernel parameter -s 
1 # kernel parameter -r 
empty# kernel parameter -u 
115 # highest feature index 
6 # number of training documents 
7 # number of support vectors plus 1 
0.91537945 # threshold b, each following line is a SV (starting with alpha*y)
-14.718677446728229085692873923108 3:0.0060793068 7:0.0060793068 8:0.0060793068 9:0.0037275099 10:0.0060793068 11:0.0060793068 12:0.012158614 13:0.012158614 17:0.0060793068 18:0.012158614 19:0.0060793068 21:0.0060793068 22:0.0060793068 23:0.0060793068 24:0.0037275099 26:0.0060793068 29:0.0060793068 30:0.0060793068 33:0.0013757129 35:0.0060793068 37:0.0060793068 39:0.0060793068 40:0.0060793068 42:0.0060793068 43:0.0060793068 44:0.0060793068 46:0.0060793068 47:0.0037275099 49:0.042555146 50:0.001237207 51:0.0060793068 56:0.0060793068 57:0.024317227 62:0.0060793068 66:0.0060793068 68:0.0060793068 70:0.0060793068 72:0.0060793068 73:0.0060793068 75:0.0041271388 83:0.0037275099 84:0.0060793068 85:0.0060793068 86:0.01823792 88:0.0060793068 89:0.0060793068 90:0.0060793068 91:0.024317227 92:0.0074550197 93:0.0060793068 94:0.0060793068 95:0.0060793068 98:0.0060793068 99:0.0060793068 104:0.002351797 106:0.0060793068 111:0.0060793068 112:0.0060793068 115:0.0060793068 #
-21.178615084423022096871136454865 9:0.012555823 14:0.020477664 16:0.020477664 20:0.012555823 24:0.012555823 25:0.020477664 34:0.012555823 45:0.020477664 47:0.012555823 55:0.020477664 60:0.025111645 63:0.020477664 71:0.0020837169 92:0.012555823 102:0.020477664 103:0.020477664 104:0.015843684 108:0.012555823 109:0.020477664 #
-20.46408203959702021279554173816 2:0.022886802 4:0.011443401 5:0.011443401 6:0.011443401 20:0.0070164888 31:0.011443401 32:0.011443401 48:0.011443401 50:0.0034932902 52:0.011443401 53:0.011443401 54:0.011443401 58:0.022886802 59:0.011443401 60:0.0070164888 61:0.011443401 71:0.0011644301 76:0.011443401 79:0.011443401 83:0.014032978 87:0.011443401 96:0.011443401 97:0.011443401 105:0.011443401 108:0.0070164888 #
-128.94730026222995888929290231317 27:0.012233878 33:0.0090303207 50:0.0040605767 67:0.012233878 71:0.0020302883 75:0.0090303207 78:0.015437435 81:0.015437435 82:0.015437435 100:0.015437435 #
-109.08284212031701088108093244955 33:0.012884726 36:0.011637104 50:0.0019312499 71:0.0019312499 75:0.0085898172 77:0.011637104 78:0.01468439 81:0.022026585 82:0.01468439 100:0.01468439 114:0.011637104 #
294.39150719317984794543008320034 15:0.0083672181 27:0.0051303362 28:0.016734436 33:0.0056803632 34:0.0051303362 36:0.0051303362 38:0.016734436 41:0.016734436 50:0.00085141126 64:0.016734436 67:0.0051303362 69:0.016734436 71:0.00085141126 74:0.016734436 75:0.0075738174 77:0.0051303362 78:0.0064737634 80:0.016734436 81:0.0097106453 82:0.0064737634 100:0.012947527 104:0.0064737634 107:0.016734436 110:0.016734436 113:0.016734436 114:0.0051303362 #
