SVM-light Version V6.02
0 # kernel type
3 # kernel parameter -d 
1 # kernel parameter -g 
1 # kernel parameter -s 
1 # kernel parameter -r 
empty# kernel parameter -u 
551 # highest feature index 
94 # number of training documents 
68 # number of support vectors plus 1 
0.49685813 # threshold b, each following line is a SV (starting with alpha*y)
-1.5475374617354789030798656312982 9:0.00062951149 38:0.042471927 65:0.026567886 125:0.010980499 186:0.19731279 213:0.037600994 231:0.005340483 #
-22.765100486321816930512795806862 9:0.00038541519 12:0.034124445 67:0.0069318246 70:0.019015003 75:0.040267915 86:0.0075728134 125:0.0044818367 126:0.040267915 130:0.024387278 143:0.027980978 168:0.040267915 175:0.040267915 205:0.013283848 206:0.019015003 220:0.014650109 266:0.0014293442 308:0.026003221 312:0.040267915 334:0.021837508 367:0.034124445 414:0.019015003 443:0.040267915 451:0.012477552 456:0.034124445 468:0.0092778346 473:0.010839089 476:0.040267915 531:0.040267915 532:0.030530747 #
-19.654406945691434316358936484903 9:0.00044965104 13:0.013289393 68:0.035619203 70:0.022184171 108:0.023169711 141:0.046979234 160:0.0096410979 220:0.017091794 266:0.0050027049 284:0.028451825 332:0.039811853 334:0.025477093 373:0.0099857077 393:0.025477093 411:0.046979234 415:0.056903649 468:0.010824141 480:0.039811853 483:0.0030483289 523:0.025477093 #
-18.997470694933653589941968675703 9:0.00033723828 67:0.0060653463 70:0.016638128 125:0.0019608035 156:0.035234425 160:0.0072308239 204:0.0057127741 218:0.0058870567 220:0.012818846 231:0.0028609731 233:0.0083567481 266:0.0050027049 321:0.019107819 332:0.029858891 366:0.014767854 373:0.0037446404 414:0.083190642 421:0.07046885 446:0.026714403 455:0.029858891 483:0.0022862467 525:0.035234425 #
101.24351383017923922125191893429 2:0.0061311745 3:0.0046230732 11:0.0061311745 14:0.0061311745 35:0.0061311745 41:0.0061311745 50:0.0061311745 51:0.0061311745 64:0.012262349 65:0.0032665434 67:0.011136374 78:0.0061311745 79:0.0061311745 81:0.0061311745 85:0.0061311745 86:0.0030415398 90:0.0061311745 95:0.0061311745 97:0.017074777 110:0.012262349 125:0.0009000409 130:0.004897445 135:0.0061311745 136:0.0061311745 138:0.0061311745 140:0.010443917 149:0.0061311745 153:0.0061311745 160:0.0033190667 169:0.0061311745 173:0.0061311745 180:0.0061311745 181:0.0038185867 184:0.0061311745 188:0.0061311745 189:0.0061311745 193:0.0061311745 223:0.0061311745 224:0.012262349 227:0.0061311745 233:0.0076717683 234:0.0061311745 239:0.0061311745 243:0.015665876 245:0.0061311745 257:0.018393524 264:0.0061311745 266:0.0043056067 282:0.018393524 288:0.0052219583 291:0.0061311745 311:0.0061311745 317:0.012262349 321:0.004385401 325:0.0061311745 327:0.0061311745 328:0.0061311745 330:0.0061311745 340:0.012262349 343:0.0061311745 344:0.003521248 353:0.0033893436 365:0.0035615244 383:0.0061311745 386:0.0052219583 389:0.0061311745 390:0.0061311745 392:0.0061311745 396:0.0056191306 401:0.0061311745 402:0.018393524 404:0.0061311745 408:0.0061311745 441:0.0061311745 448:0.0061311745 449:0.0061311745 451:0.0075172135 458:0.0061311745 460:0.0034786693 467:0.0061311745 468:0.014905374 473:0.008706809 474:0.061311744 475:0.0061311745 478:0.0056191306 496:0.0061311745 500:0.004897445 503:0.0019744516 504:0.0061311745 506:0.0061311745 510:0.0061311745 513:0.0022875185 518:0.0012720083 521:0.0061311745 526:0.0021556141 530:0.012262349 540:0.0061311745 541:0.0056191306 547:0.0061311745 548:0.0061311745 #
101.24351383017923922125191893429 3:0.0042090663 5:0.0073624174 9:7.04677e-05 13:0.0020826661 18:0.0044588679 20:0.0073624174 23:0.0073624174 30:0.0073624174 33:0.0073624174 36:0.0055821142 37:0.010006865 42:0.014724835 53:0.0055821142 58:0.0062391711 67:0.0050695431 77:0.0055821142 83:0.0073624174 84:0.0022813433 86:0.0013845816 88:0.016836265 92:0.0051159249 97:0.0025909487 114:0.0062391711 121:0.0055821142 125:0.0028680409 129:0.0073624174 130:0.0044588679 139:0.0044588679 143:0.0051159249 145:0.0073624174 146:0.0073624174 150:0.0073624174 152:0.0062391711 154:0.0055821142 161:0.0055821142 183:0.0051159249 202:0.0055821142 203:0.0044247508 206:0.0034766237 208:0.0033356217 220:0.0026785647 225:0.0044588679 232:0.014724835 233:0.013969488 246:0.0073624174 247:0.0073624174 252:0.0062391711 253:0.0089177359 256:0.0039926786 260:0.0055423803 266:0.0013066767 268:0.0073624174 273:0.0062391711 274:0.010429871 279:0.012478342 285:0.0073624174 297:0.0062391711 299:0.0062391711 303:0.0062391711 308:0.0047543203 309:0.011978036 318:0.012478342 319:0.0034766237 322:0.014724835 326:0.0073624174 331:0.0073624174 333:0.0073624174 334:0.011978036 344:0.016029561 351:0.0055821142 354:0.00099088682 364:0.037435025 365:0.00081064552 372:0.0073624174 377:0.0079853572 380:0.0062391711 387:0.0055821142 391:0.0073624174 412:0.012478342 413:0.022087252 429:0.014724835 440:0.024956685 445:0.0073624174 451:0.01368806 456:0.012478342 457:0.0073624174 460:0.0031671468 463:0.0051159249 468:0.0050889617 473:0.0029726606 479:0.014724835 481:0.015347774 485:0.0062391711 491:0.0073624174 493:0.0062391711 498:0.0034766237 499:0.0073624174 511:0.0047543203 517:0.0051159249 526:0.0039251479 532:0.0055821142 544:0.0073624174 546:0.014724835 #
47.772710405263147492860298370942 9:0.00065121875 70:0.0321288 80:0.068038888 125:0.003786379 143:0.047278203 229:0.068038888 266:0.0048301979 287:0.051586434 301:0.11531709 354:0.0091571612 373:0.0072310297 460:0.009756268 464:0.057658546 #
64.722748090199587522874935530126 9:0.00041967432 34:0.043847285 147:0.043847285 171:0.037157729 207:0.037157729 208:0.019865479 219:0.043847285 260:0.016503977 266:0.0015563971 294:0.037157729 319:0.020705227 324:0.043847285 371:0.043847285 454:0.043847285 522:0.043847285 #
21.690388345166976336031439132057 9:0.0013489531 266:0.0050027049 352:0.1409377 394:0.11943556 #
-101.24351383017923922125191893429 2:0.0061311745 3:0.0046230732 11:0.0061311745 14:0.0061311745 35:0.0061311745 41:0.0061311745 50:0.0061311745 51:0.0061311745 64:0.012262349 65:0.0032665434 67:0.011136374 78:0.0061311745 79:0.0061311745 81:0.0061311745 85:0.0061311745 86:0.0030415398 90:0.0061311745 95:0.0061311745 97:0.017074777 110:0.012262349 125:0.0009000409 130:0.004897445 135:0.0061311745 136:0.0061311745 138:0.0061311745 140:0.010443917 149:0.0061311745 153:0.0061311745 160:0.0033190667 169:0.0061311745 173:0.0061311745 180:0.0061311745 181:0.0038185867 184:0.0061311745 188:0.0061311745 189:0.0061311745 193:0.0061311745 223:0.0061311745 224:0.012262349 227:0.0061311745 233:0.0076717683 234:0.0061311745 239:0.0061311745 243:0.015665876 245:0.0061311745 257:0.018393524 264:0.0061311745 266:0.0043056067 282:0.018393524 288:0.0052219583 291:0.0061311745 311:0.0061311745 317:0.012262349 321:0.004385401 325:0.0061311745 327:0.0061311745 328:0.0061311745 330:0.0061311745 340:0.012262349 343:0.0061311745 344:0.003521248 353:0.0033893436 365:0.0035615244 383:0.0061311745 386:0.0052219583 389:0.0061311745 390:0.0061311745 392:0.0061311745 396:0.0056191306 401:0.0061311745 402:0.018393524 404:0.0061311745 408:0.0061311745 441:0.0061311745 448:0.0061311745 449:0.0061311745 451:0.0075172135 458:0.0061311745 460:0.0034786693 467:0.0061311745 468:0.014905374 473:0.008706809 474:0.061311744 475:0.0061311745 478:0.0056191306 496:0.0061311745 500:0.004897445 503:0.0019744516 504:0.0061311745 506:0.0061311745 510:0.0061311745 513:0.0022875185 518:0.0012720083 521:0.0061311745 526:0.0021556141 530:0.012262349 540:0.0061311745 541:0.0056191306 547:0.0061311745 548:0.0061311745 #
-86.223771463793013936083298176527 3:0.0023306401 6:0.0040767104 7:0.0040767104 9:3.9019305e-05 13:0.0011532118 18:0.0024689599 24:0.0040767104 25:0.01699671 29:0.00093928492 31:0.0040767104 32:0.0040767104 37:0.0055409912 43:0.0040767104 45:0.0040767104 53:0.0030909227 55:0.0040767104 56:0.0040767104 58:0.0069094952 60:0.0040767104 62:0.0040767104 63:0.016306842 67:0.0021053269 72:0.012230132 74:0.0034547476 88:0.013983841 91:0.0034547476 96:0.0040767104 97:0.002869315 102:0.0040767104 109:0.0040767104 113:0.0034547476 116:0.012230132 117:0.0040767104 125:0.0018149585 130:0.0024689599 134:0.0040767104 137:0.0081534209 139:0.0024689599 142:0.0040767104 143:0.0028327848 154:0.0030909227 159:0.024460264 160:0.0050197453 162:0.0040767104 163:0.0040767104 164:0.01699671 165:0.0034547476 174:0.0046612802 177:0.0040767104 179:0.0040767104 182:0.00842054 185:0.0040767104 190:0.0040767104 195:0.0040767104 200:0.0040767104 203:0.0024500687 206:0.0038501453 211:0.0040767104 214:0.0056655696 217:0.0040767104 220:0.0014831722 221:0.0010867146 233:0.010635861 236:0.0034547476 238:0.0069094952 240:0.0040767104 241:0.0040767104 242:0.0014346575 243:0.0052651153 249:0.012230132 250:0.0034547476 251:0.0040767104 253:0.0024689599 254:0.0040767104 255:0.0030909227 259:0.010364243 260:0.0046033817 265:0.0034547476 266:0.0021705951 267:0.0040767104 270:0.0030909227 272:0.0040767104 273:0.0034547476 274:0.0057752179 275:0.0040767104 277:0.0030909227 281:0.0040767104 288:0.015795344 292:0.0020105948 293:0.0040767104 300:0.0081534209 301:0.010364243 303:0.0034547476 305:0.0034547476 307:0.0034547476 309:0.0066324663 320:0.0017086773 334:0.01105411 337:0.0040767104 338:0.0040767104 342:0.0040767104 344:0.0053255237 346:0.0040767104 349:0.0081534209 350:0.0040767104 351:0.0061818454 353:0.0034173545 354:0.0016460187 356:0.0030689212 357:0.0040767104 365:0.0022443491 370:0.0040767104 373:0.0030328492 374:0.024460264 376:0.0040767104 380:0.0034547476 384:0.0040767104 388:0.0040767104 398:0.0040767104 400:0.0040767104 403:0.0081534209 406:0.0081534209 407:0.0040767104 409:0.012230132 412:0.0034547476 417:0.0040767104 418:0.0081534209 425:0.0040767104 432:0.0040767104 436:0.0034547476 440:0.017273739 442:0.0030909227 444:0.0040767104 450:0.0040767104 451:0.0063161161 453:0.0040767104 459:0.0040767104 460:0.0040919883 461:0.0040767104 468:0.0037571397 469:0.0040767104 472:0.0040767104 473:0.0032920374 477:0.0034547476 478:0.0028327848 481:0.011331139 482:0.0040767104 484:0.0034547476 485:0.0034547476 487:0.0034547476 489:0.0040767104 490:0.0040767104 493:0.0034547476 497:0.0081534209 503:0.0029861538 505:0.0040767104 512:0.0040767104 514:0.0040767104 515:0.017273739 518:0.0038475622 520:0.0069094952 523:0.002210822 524:0.0040767104 529:0.0024689599 532:0.0061818454 539:0.0040767104 551:0.0040767104 #
-24.056490747694581955329340416938 9:0.00020306822 21:0.021216428 61:0.084865712 86:0.0079799537 88:0.036388058 121:0.016086092 125:0.0059034941 178:0.021216428 182:0.010955757 203:0.0063754474 204:0.0034399498 218:0.0035448943 221:0.022622358 231:0.0017227365 242:0.01493278 243:0.013700622 266:0.0022592861 309:0.023011567 319:0.010018658 339:0.016086092 351:0.016086092 356:0.0079857949 373:0.0067645116 375:0.021216428 419:0.016086092 460:0.0030422772 468:0.019553287 473:0.005710918 483:0.0013766646 498:0.020037316 503:0.010360562 508:0.021216428 526:0.011311179 #
-80.756270148800908259545394685119 9:0.00027370063 37:0.012955748 54:0.048466604 67:0.0049226 86:0.0053777951 104:0.018466055 112:0.028596057 124:0.018466055 125:0.0015913767 183:0.019870549 204:0.0046364544 218:0.0047779013 220:0.010403701 221:0.0076227509 237:0.018466055 244:0.024233302 256:0.015507795 266:0.004060166 274:0.013503408 344:0.01245195 353:0.011985505 360:0.024233302 365:0.0062971883 451:0.0088608703 468:0.0065886076 481:0.019870549 483:0.0018555046 495:0.018466055 526:0.0076227509 543:0.018466055 #
101.24351383017923922125191893429 9:0.00044965104 86:0.0088349488 91:0.039811853 93:0.046979234 108:0.023169711 171:0.039811853 204:0.0076170317 218:0.0078494092 231:0.0076292618 269:0.046979234 321:0.025477093 373:0.0049928539 414:0.022184171 483:0.0030483289 534:0.046979234 #
101.24351383017923922125191893429 9:0.00046061815 28:0.021803576 86:0.0090504354 125:0.0053563411 160:0.0098762475 204:0.0078028133 205:0.015875818 218:0.0080408584 230:0.047469653 231:0.0039076707 266:0.0017082406 354:0.0064770165 365:0.0052988534 373:0.0051146308 385:0.033440679 430:0.040782876 483:0.0031226785 #
101.24351383017923922125191893429 9:0.00044965104 13:0.013289393 28:0.021284442 86:0.0088349488 125:0.0052288091 181:0.022184171 204:0.0076170317 218:0.0078494092 231:0.0038146309 266:0.0016675682 354:0.018968405 365:0.0051726904 373:0.0049928539 379:0.035619203 442:0.035619203 468:0.010824141 483:0.0030483289 #
101.24351383017923922125191893429 9:0.00053958123 28:0.025541332 86:0.010601939 125:0.0062745712 167:0.056375083 204:0.0091404384 218:0.0094192903 231:0.0045775571 354:0.0075873621 483:0.0036579946 488:0.058222018 #
86.341581710446376973777660168707 9:0.0004842396 86:0.0095145609 125:0.0056310254 204:0.008202957 218:0.0084532099 228:0.042874303 231:0.0041080639 278:0.10118604 354:0.0068091713 483:0.0032828157 533:0.042874303 #
-101.24351383017923922125191893429 9:0.00035632725 17:0.022546729 28:0.016866917 86:0.014002561 125:0.0041435845 160:0.0076401155 182:0.019224253 198:0.0093586147 204:0.0060361386 206:0.017579909 218:0.0062202862 230:0.036721807 231:0.003022915 266:0.0026429384 354:0.02004209 365:0.0040991134 373:0.003956601 385:0.025869206 399:0.024040714 483:0.0024156568 #
-35.962866152494335381106793647632 9:0.00046061815 17:0.029145772 28:0.021803576 86:0.018100871 125:0.0026781706 182:0.024850862 198:0.012097722 206:0.022725249 231:0.0039076707 266:0.0017082406 354:0.019431049 399:0.03107702 483:0.0031226785 488:0.049701724 518:0.0075700004 #
-34.94728477989674786385876359418 9:0.00029976736 13:0.0088595953 17:0.018967882 28:0.014189629 59:0.015446474 86:0.011779932 125:0.0017429364 182:0.016172783 198:0.0078731207 206:0.014789447 221:0.0083487276 230:0.015446474 231:0.0025430874 242:0.011021813 260:0.035365663 266:0.0033351365 287:0.023746137 354:0.016860805 399:0.020224728 410:0.023746137 460:0.0044909804 473:0.0084304027 483:0.0020322192 488:0.016172783 498:0.029578894 518:0.0098530166 #
-68.213723015777617320054559968412 9:0.00046061815 17:0.029145772 28:0.021803576 59:0.047469653 86:0.018100871 125:0.0053563411 182:0.024850862 198:0.012097722 206:0.022725249 231:0.0039076707 266:0.0017082406 354:0.019431049 399:0.03107702 483:0.0031226785 #
27.44760270611701713505681254901 9:0.00049698271 16:0.036080733 67:0.0089384057 71:0.088005148 204:0.0084188245 208:0.02352491 209:0.051924419 216:0.039368596 218:0.0086756628 231:0.0042161709 260:0.019544182 266:0.0018431018 321:0.028158892 365:0.0057171839 373:0.0055184173 473:0.0069883601 517:0.036080733 518:0.0081676319 549:0.051924419 #
51.889517600248233009097020840272 9:0.0010491858 46:0.10961822 54:0.092894323 220:0.039880853 266:0.0077819852 356:0.041259941 464:0.092894323 #
60.740137591028400265713571570814 9:0.00078688934 67:0.014152475 125:0.0045752078 206:0.038822297 252:0.069670744 274:0.038822297 334:0.044584911 344:0.035799354 364:0.069670744 366:0.034458324 377:0.044584911 386:0.053089909 460:0.011788824 550:0.082213663 #
72.421118141758327624302182812244 3:0.011280298 9:0.00018885345 15:0.016720979 16:0.013710679 36:0.014960066 37:0.0089394664 67:0.0067931879 73:0.013710679 76:0.016720979 77:0.014960066 84:0.006114 86:0.0074213571 88:0.011280298 92:0.013710679 97:0.0069437427 108:0.019462558 118:0.016720979 120:0.014960066 125:0.0021960998 133:0.019731279 204:0.0031991533 208:0.0089394664 216:0.014960066 218:0.0032967518 233:0.0046797786 255:0.014960066 260:0.029707158 266:0.0056030294 271:0.014960066 286:0.016720979 297:0.033441957 319:0.0093173515 341:0.016720979 353:0.0082699982 356:0.0074267895 365:0.0043450599 373:0.004193997 387:0.014960066 426:0.016720979 451:0.006114 460:0.0056586354 468:0.0045461389 473:0.0079667307 483:0.0012802981 511:0.012741579 517:0.013710679 #
101.24351383017923922125191893429 3:0.011510508 9:0.00019270759 15:0.017062223 16:0.013990489 17:0.012193639 36:0.015265374 37:0.0091219041 67:0.0069318246 73:0.013990489 76:0.017062223 77:0.015265374 84:0.0062387758 86:0.0075728134 88:0.011510508 92:0.013990489 97:0.0070854514 108:0.019859752 114:0.034124445 118:0.017062223 120:0.015265374 125:0.0022409183 204:0.0032644423 208:0.027365712 216:0.015265374 218:0.0033640324 255:0.015265374 260:0.015156713 266:0.0057173767 271:0.015265374 286:0.017062223 319:0.0095075015 341:0.017062223 353:0.0084387735 356:0.0075783567 365:0.0044337348 373:0.0042795888 426:0.017062223 451:0.0062387758 460:0.005774118 468:0.0046389173 473:0.0081293164 483:0.0013064267 511:0.013001611 517:0.013990489 #
-88.862926691079920260563085321337 9:0.00069945719 65:0.029519875 125:0.0040668515 160:0.014997264 204:0.011848716 208:0.066218264 213:0.041778881 218:0.012210192 221:0.019480364 373:0.0077666617 518:0.022990372 #
-25.439975235111404572307947091758 9:0.00043919406 18:0.027790153 52:0.045886695 67:0.0078990562 125:0.0076608136 204:0.014879784 231:0.0037259185 260:0.017271603 266:0.0016287876 305:0.038885996 361:0.059263155 377:0.024884602 433:0.091773391 437:0.045886695 451:0.014218605 483:0.0029774376 #
-101.24351383017923922125191893429 9:0.00025870334 10:0.0083753429 29:0.018682763 67:0.0046528685 84:0.0083753429 125:0.001504178 144:0.0095119765 160:0.0055469335 174:0.015452463 198:0.006794611 204:0.0043824017 205:0.0089165559 218:0.0045160982 231:0.0021947192 233:0.006410656 248:0.0095119765 266:0.0047971141 290:0.0069962996 292:0.013330518 315:0.0089165559 319:0.012763496 354:0.010913329 365:0.0029760685 373:0.0057452018 460:0.0077515556 473:0.0036377765 483:0.001753833 488:0.013957334 503:0.0065995366 509:0.013330518 513:0.007645952 518:0.004251644 #
-64.402173703764489687273453455418 9:0.00021959703 10:0.0071093026 29:0.015858624 67:0.0078990562 84:0.0071093026 125:0.0025536045 144:0.0080741188 160:0.0047084433 174:0.013116626 198:0.0057675187 204:0.0037199459 205:0.015137408 218:0.0038334322 231:0.0018629592 233:0.0054416033 248:0.0080741188 266:0.0048863627 290:0.005938719 292:0.02263088 315:0.007568704 319:0.01083413 354:0.012351519 365:0.0025261976 373:0.0073151113 460:0.0098697133 473:0.0030878799 483:0.0014887188 503:0.0056019323 509:0.02263088 513:0.0064901686 516:0.013895077 518:0.0036089537 #
-52.913754564205021324596600607038 2:0.0061311745 3:0.0046230732 11:0.0061311745 14:0.0061311745 35:0.0061311745 41:0.0061311745 50:0.0061311745 51:0.0061311745 64:0.012262349 65:0.0032665434 67:0.011136374 78:0.0061311745 79:0.0061311745 81:0.0061311745 85:0.0061311745 86:0.0030415398 90:0.0061311745 95:0.0061311745 97:0.017074777 110:0.012262349 125:0.0009000409 130:0.004897445 135:0.0061311745 136:0.0061311745 138:0.0061311745 140:0.010443917 149:0.0061311745 153:0.0061311745 160:0.0033190667 169:0.0061311745 173:0.0061311745 180:0.0061311745 181:0.0038185867 184:0.0061311745 188:0.0061311745 189:0.0061311745 193:0.0061311745 223:0.0061311745 224:0.012262349 227:0.0061311745 233:0.0076717683 234:0.0061311745 239:0.0061311745 243:0.015665876 245:0.0061311745 257:0.018393524 264:0.0061311745 266:0.0043056067 282:0.018393524 288:0.0052219583 291:0.0061311745 311:0.0061311745 317:0.012262349 321:0.004385401 325:0.0061311745 327:0.0061311745 328:0.0061311745 330:0.0061311745 340:0.012262349 343:0.0061311745 344:0.003521248 353:0.0033893436 365:0.0035615244 383:0.0061311745 386:0.0052219583 389:0.0061311745 390:0.0061311745 392:0.0061311745 396:0.0056191306 401:0.0061311745 402:0.018393524 404:0.0061311745 408:0.0061311745 441:0.0061311745 448:0.0061311745 449:0.0061311745 451:0.0075172135 458:0.0061311745 460:0.0034786693 467:0.0061311745 468:0.014905374 473:0.008706809 474:0.061311744 475:0.0061311745 478:0.0056191306 496:0.0061311745 500:0.004897445 503:0.0019744516 504:0.0061311745 506:0.0061311745 510:0.0061311745 513:0.0022875185 518:0.0012720083 521:0.0061311745 526:0.0021556141 530:0.012262349 540:0.0061311745 541:0.0056191306 547:0.0061311745 548:0.0061311745 #
101.24351383017923922125191893429 8:0.027790533 9:0.00026599076 13:0.0078613311 28:0.025181595 37:0.012590798 59:0.013706026 67:0.0047839354 86:0.005226308 125:0.0030930985 181:0.013123031 204:0.0045058499 205:0.0091677262 218:0.0046433122 221:0.0074080257 231:0.0022565422 242:0.0097799189 260:0.031380799 266:0.0019728977 280:0.027790533 334:0.015070956 354:0.0074804979 365:0.0030599013 366:0.011647885 373:0.0029535191 442:0.021070516 460:0.0039849547 468:0.0064030127 473:0.011220747 483:0.0018032368 498:0.013123031 503:0.0067854389 518:0.0087428177 #
101.24351383017923922125191893429 9:0.00042921238 28:0.020316968 59:0.022116542 86:0.0084333606 125:0.002495568 165:0.038002223 204:0.0072708032 218:0.0074926177 228:0.038002223 231:0.0036412387 266:0.0031835395 307:0.038002223 354:0.012070804 435:0.038002223 473:0.006035402 483:0.0029097686 #
47.694838441592388278422731673345 9:0.00042921238 28:0.020316968 67:0.0077195317 86:0.0084333606 122:0.13453144 125:0.002495568 204:0.0072708032 218:0.0074926177 231:0.0036412387 266:0.0015917697 353:0.018795451 354:0.006035402 381:0.044843815 462:0.044843815 483:0.0029097686 533:0.038002223 #
47.809909585699074341391678899527 9:0.00075541378 10:0.024456 29:0.018184556 101:0.078925118 125:0.0043921997 212:0.066883914 220:0.028714214 266:0.0056030294 345:0.059840266 354:0.010622307 365:0.0086901197 394:0.13376783 468:0.018184556 #
-1.4714598602072253008543611940695 9:0.00018885345 19:0.016720979 25:0.027421357 37:0.0089394664 49:0.016720979 67:0.0067931879 86:0.0074213571 104:0.012741579 111:0.014960066 124:0.012741579 125:0.0021960998 132:0.014960066 164:0.027421357 194:0.019731279 204:0.0031991533 205:0.0065090857 218:0.0032967518 220:0.0071785534 221:0.0052596983 231:0.0016021449 233:0.0046797786 237:0.012741579 258:0.013710679 260:0.0074267895 266:0.0021011359 270:0.029920133 274:0.0093173515 276:0.019731279 277:0.014960066 296:0.016720979 344:0.0085918447 365:0.0021725299 377:0.010700379 405:0.016720979 416:0.016720979 438:0.014960066 439:0.016720979 463:0.013710679 468:0.018184556 470:0.016720979 471:0.016720979 483:0.0012802981 495:0.012741579 503:0.0096353237 538:0.016720979 543:0.012741579 #
-65.283400755681284977072209585458 9:0.00023030907 29:0.016632216 57:0.01553851 67:0.004142188 69:0.013756461 86:0.0045252177 125:0.0026781706 151:0.013756461 155:0.01553851 181:0.011362624 192:0.012425431 198:0.006048861 204:0.0039014067 218:0.0040204292 221:0.0064142663 225:0.014572886 231:0.0039076707 242:0.0084679788 256:0.013049242 266:0.0042706016 316:0.011867413 353:0.010085364 354:0.0097155245 356:0.0090570599 365:0.0052988534 366:0.010085364 373:0.0051146308 382:0.01553851 431:0.01553851 460:0.0034503874 468:0.005544072 473:0.0032385082 483:0.0015613392 488:0.024850862 536:0.013756461 #
-61.387245230002868368046620162204 9:0.00021219488 19:0.037575234 37:0.010044344 49:0.018787617 67:0.0076327953 86:0.0083386032 104:0.01431638 107:0.022169976 111:0.016809063 124:0.01431638 125:0.002467528 132:0.016809063 196:0.022169976 204:0.0035945545 205:0.0073135793 208:0.010044344 212:0.018787617 218:0.0037042154 220:0.0080657909 221:0.0059097731 231:0.0036003257 237:0.01431638 258:0.015405257 266:0.0039347117 274:0.010468935 277:0.016809063 296:0.018787617 344:0.0096537583 365:0.0024410449 377:0.012022898 416:0.018787617 438:0.016809063 463:0.015405257 468:0.025540108 483:0.0014385373 495:0.01431638 538:0.018787617 543:0.01431638 #
-40.397767817765078746106155449525 9:0.00020306822 29:0.014664965 57:0.013700622 67:0.0036522516 69:0.012129352 86:0.0039899768 125:0.0023613977 151:0.012129352 155:0.013700622 160:0.0043540443 181:0.010018658 192:0.010955757 198:0.0053334041 204:0.0034399498 218:0.0035448943 221:0.0056555895 225:0.012849211 230:0.020927481 231:0.003445473 242:0.0074663898 256:0.011505784 266:0.0045185722 316:0.010463741 353:0.008892471 354:0.011421836 356:0.0079857949 365:0.0070081614 366:0.008892471 373:0.0067645116 382:0.013700622 385:0.014742665 431:0.013700622 460:0.0030422772 468:0.0048883217 473:0.005710918 483:0.0013766646 536:0.012129352 #
-50.313443722409608938050951110199 9:0.0002360668 29:0.011365348 65:0.0099629574 69:0.014100373 86:0.0046383482 97:0.0086796777 119:0.037400164 125:0.0054902495 139:0.014937207 160:0.0050615766 192:0.012736067 204:0.0039989417 218:0.0041209399 221:0.013149246 231:0.0040053623 253:0.014937207 266:0.0043773665 302:0.015926974 316:0.012164098 354:0.016597355 356:0.0092834868 365:0.0081469873 373:0.0052424967 385:0.017138349 460:0.0035366472 473:0.0033194709 483:0.0016003727 #
101.24351383017923922125191893429 9:0.00022482552 13:0.0066446965 28:0.010642221 44:0.023489617 70:0.011092085 84:0.0072785718 86:0.0044174744 92:0.016322237 97:0.016532721 125:0.003921607 160:0.0048205489 176:0.023489617 181:0.011092085 182:0.012129587 204:0.0038085158 218:0.0039247046 231:0.0019073155 242:0.0082663605 260:0.0088414159 266:0.0033351365 271:0.017809602 288:0.015168546 299:0.019905927 319:0.066552512 354:0.006322802 356:0.0088414159 365:0.0051726904 373:0.0049928539 378:0.023489617 379:0.017809602 387:0.017809602 451:0.0072785718 460:0.0067364709 468:0.0054120705 473:0.003161401 483:0.0015241645 503:0.0057353117 513:0.0066446965 518:0.0036948812 #
70.562765493497636271058581769466 9:0.00043919406 37:0.020789456 67:0.015798112 86:0.01725897 108:0.02263088 158:0.038885996 161:0.034790851 204:0.0074398918 208:0.020789456 218:0.0076668644 262:0.038885996 279:0.038885996 347:0.038885996 362:0.038885996 373:0.0048767407 460:0.0065798089 483:0.0029774376 511:0.029631577 518:0.0072179073 #
52.147161886280400722171179950237 9:0.00051041471 16:0.037055887 67:0.0091799833 71:0.090383671 120:0.04043261 204:0.0086463606 208:0.024160719 218:0.00891014 231:0.0043301214 260:0.020072404 266:0.0018929153 310:0.04043261 321:0.028919943 335:0.05332778 365:0.0058717025 373:0.005667564 473:0.0071772346 518:0.0083883787 #
40.340439677178743238528113579378 9:0.00043919406 37:0.020789456 67:0.015798112 86:0.01725897 108:0.02263088 158:0.038885996 161:0.034790851 204:0.0074398918 218:0.0076668644 260:0.017271603 262:0.038885996 318:0.038885996 347:0.038885996 362:0.038885996 373:0.0048767407 460:0.0065798089 483:0.0029774376 511:0.029631577 518:0.0072179073 #
-46.169611483251898675916891079396 9:0.00038541519 13:0.011390909 48:0.034124445 108:0.019859752 125:0.0044818367 140:0.026003221 160:0.0082637984 202:0.030530747 231:0.0032696836 266:0.0042880327 274:0.019015003 290:0.010423059 308:0.026003221 329:0.034124445 414:0.038030006 428:0.034124445 430:0.034124445 446:0.030530747 468:0.0092778346 473:0.0054195444 483:0.0026128534 500:0.024387278 501:0.030530747 #
-54.275800168763637998381454963237 67:0.0040435642 73:0.016322237 86:0.0088349488 88:0.013428926 99:0.019905927 103:0.019905927 108:0.011584856 123:0.023489617 125:0.0026144045 148:0.023489617 197:0.019905927 205:0.0077489116 206:0.011092085 235:0.016322237 242:0.0082663605 250:0.019905927 261:0.023489617 266:0.0025013525 274:0.022184171 283:0.019905927 284:0.014225912 289:0.023489617 334:0.012738546 353:0.0098452363 359:0.023489617 365:0.0025863452 366:0.0098452363 393:0.012738546 396:0.016322237 397:0.023489617 414:0.011092085 460:0.0067364709 466:0.023489617 468:0.0054120705 473:0.0094842026 492:0.023489617 518:0.0036948812 545:0.023489617 #
-47.316283127281792530993698164821 9:0.00060920464 13:0.036009967 38:0.041101865 65:0.025710858 125:0.01062629 213:0.036388058 231:0.0051682098 379:0.048258279 415:0.038547631 #
-7.2148125486453213994764155359007 9:0.00099396543 266:0.0073724072 302:0.06706094 309:0.056317784 336:0.10384884 363:0.10384884 395:0.10384884 465:0.10384884 #
-82.445798958276597545591357629746 9:0.00030959581 10:0.010022951 29:0.029810749 84:0.010022951 144:0.011383184 198:0.0081312554 203:0.0097199446 204:0.005244514 218:0.005404511 231:0.0026264673 233:0.0076717683 248:0.011383184 260:0.024350129 266:0.0034444851 290:0.0083726207 315:0.010670632 354:0.013060214 365:0.0035615244 373:0.0034377025 451:0.010022951 460:0.0046382258 483:0.0020988495 503:0.0078978064 513:0.0091500739 518:0.010176066 526:0.0086224563 #
-97.469361388752062680396193172783 9:0.00033132182 13:0.0097921845 18:0.020964501 59:0.017072419 70:0.016346231 125:0.0019264034 204:0.0056125498 218:0.0057837749 221:0.0092275403 230:0.017072419 242:0.012182005 260:0.02605891 266:0.0036862036 290:0.0089601725 334:0.018772595 354:0.0093178134 361:0.022353647 373:0.0036789449 410:0.02624573 460:0.0049637151 473:0.0093178134 483:0.002246137 488:0.017875182 498:0.032692462 518:0.0054450883 #
-15.324627915527601729195339430589 9:0.00055545132 47:0.058033172 97:0.020422772 198:0.01458843 205:0.019144369 210:0.058033172 221:0.015469701 266:0.0061798119 290:0.015021467 468:0.013370997 473:0.00781052 483:0.0037655828 536:0.033177346 541:0.040325526 #
-16.835902844205076434036527643912 9:0.00046061815 10:0.014912196 13:0.013613525 70:0.022725249 74:0.040782876 97:0.016935958 125:0.0026781706 183:0.033440679 203:0.01446138 204:0.0078028133 218:0.0080408584 266:0.0034164812 290:0.012456826 309:0.026098484 368:0.04812507 373:0.0051146308 393:0.026098484 414:0.022725249 473:0.0064770165 483:0.0031226785 519:0.04812507 526:0.012828533 #
-5.9380583658317096507062160526402 9:0.001259023 213:0.075201988 221:0.035064656 345:0.09973377 518:0.020691335 #
-15.820177867439012331374215136748 9:0.00029054374 10:0.009406154 12:0.025724582 22:0.030355813 94:0.030355813 125:0.0050679226 127:0.030355813 160:0.0062296325 166:0.030355813 231:0.0024648383 233:0.028798638 266:0.0010775056 290:0.0078573823 294:0.051449165 295:0.030355813 313:0.060711626 315:0.040055912 321:0.032924242 354:0.0040855026 373:0.0032261517 414:0.028668774 468:0.0069940602 473:0.012256508 483:0.0019696895 487:0.051449165 494:0.025724582 516:0.018384255 518:0.0047749234 #
-16.501048662039689673974862671457 9:0.00018158984 13:0.01073374 25:0.02636669 39:0.018972384 67:0.0065319114 70:0.0089589916 87:0.018972384 97:0.0066766753 98:0.018972384 99:0.016077865 103:0.016077865 125:0.0010558172 131:0.018972384 152:0.016077865 154:0.014384679 160:0.0038935205 164:0.02636669 201:0.018972384 204:0.0030761091 207:0.016077865 215:0.018972384 218:0.0031699536 230:0.0093569988 231:0.001540524 238:0.016077865 259:0.06431146 266:0.0026937642 283:0.016077865 308:0.012251518 310:0.014384679 339:0.014384679 344:0.0082613891 365:0.0041779424 393:0.010288825 414:0.017917983 424:0.018972384 435:0.016077865 436:0.016077865 455:0.016077865 473:0.0025534392 483:0.0012310559 500:0.01149016 515:0.016077865 518:0.002984327 520:0.03215573 542:0.018972384 #
-7.3791932297832198983655871415976 9:0.00026229644 13:0.015504292 67:0.0047174916 70:0.012940766 97:0.0096440865 100:0.027404554 125:0.0015250694 160:0.0056239739 203:0.0082349526 204:0.0044432688 205:0.0090403967 218:0.0045788218 231:0.0022252013 266:0.0029182443 290:0.0070934701 309:0.014861637 355:0.10961822 361:0.017696638 373:0.0029124981 393:0.059446547 415:0.016596897 420:0.027404554 422:0.027404554 468:0.012628164 483:0.0017781919 507:0.027404554 #
-10.471314530544580279070032702293 9:0.00046061815 10:0.014912196 13:0.02722705 26:0.04812507 70:0.045450497 97:0.016935958 108:0.023734827 266:0.0085412031 290:0.012456826 373:0.0051146308 414:0.045450497 415:0.058291543 468:0.011088144 473:0.0064770165 483:0.0031226785 #
-30.024409845067644653227034723386 9:0.00017986042 37:0.0085137775 67:0.0032348514 68:0.014247682 86:0.010601939 89:0.018791694 104:0.012134837 105:0.018791694 106:0.0097036697 111:0.014247682 113:0.015924741 121:0.014247682 124:0.012134837 125:0.0031372856 132:0.014247682 151:0.010743141 160:0.0038564394 183:0.013057789 187:0.018791694 197:0.015924741 205:0.0061991289 208:0.017027555 220:0.0068367175 221:0.0050092363 237:0.012134837 242:0.0066130883 256:0.010190837 258:0.013057789 266:0.0020010818 274:0.017747337 344:0.016365418 356:0.0070731328 360:0.015924741 365:0.0062072286 366:0.0078761885 373:0.0039942833 377:0.010190837 427:0.018791694 434:0.018791694 438:0.014247682 451:0.0058228574 460:0.0026945884 468:0.0086593125 481:0.013057789 483:0.0012193315 495:0.012134837 518:0.0029559049 526:0.0050092363 528:0.013057789 543:0.012134837 #
-8.0351959221671229727235186146572 9:0.00033723828 29:0.032472424 67:0.0060653463 82:0.035234425 128:0.029858891 203:0.010587797 220:0.012818846 231:0.0028609731 233:0.0083567481 242:0.01239954 266:0.0062533808 298:0.035234425 310:0.026714403 354:0.0094842026 373:0.0037446404 460:0.0050523533 468:0.0081181061 473:0.0047421013 483:0.0022862467 494:0.059717782 502:0.035234425 503:0.0086029675 513:0.0099670449 518:0.0055423216 526:0.0093923183 #
-11.987526593334123958811687771231 9:0.00037770689 65:0.015940731 86:0.0074213571 97:0.013887485 115:0.066883914 125:0.0087843994 139:0.023899533 192:0.020377707 221:0.010519397 231:0.0032042898 253:0.023899533 266:0.0028015147 302:0.025483157 354:0.021244613 356:0.014853579 365:0.0043450599 460:0.0056586354 483:0.0025605962 498:0.018634703 #
-25.932589091674465464620880084112 9:0.00026229644 10:0.008491667 13:0.015504292 29:0.018942246 84:0.008491667 106:0.014151186 125:0.0015250694 144:0.0096440865 157:0.035393275 160:0.0056239739 174:0.015667081 198:0.0068889805 231:0.0044504027 233:0.0064996928 248:0.0096440865 266:0.0048637409 290:0.0070934701 315:0.0090403967 319:0.012940766 320:0.011486108 354:0.0073766024 365:0.0060348054 373:0.0029124981 460:0.003929608 483:0.0017781919 503:0.0066911965 513:0.0077521461 518:0.0043106945 529:0.016596897 #
-10.029910705746296173401788109913 9:0.0002331524 13:0.027563186 37:0.011036378 65:0.0098399576 68:0.018469218 86:0.0091621699 104:0.015730344 124:0.015730344 125:0.0040668515 128:0.020643184 199:0.024359602 204:0.0039495719 205:0.0080359085 208:0.011036378 218:0.0040700641 220:0.017724823 221:0.0064934548 231:0.0019779569 237:0.015730344 244:0.020643184 266:0.0043233251 315:0.016071817 356:0.0091688754 365:0.0053642713 373:0.0025888872 377:0.013210344 447:0.024359602 460:0.0034929849 463:0.016926764 468:0.0056125172 483:0.0015806149 484:0.041286368 495:0.015730344 518:0.0038317286 528:0.016926764 536:0.013926294 543:0.015730344 #
-22.404039978940893718117877142504 9:0.00023030907 29:0.011088144 65:0.0097199585 69:0.013756461 86:0.0045252177 97:0.0084679788 115:0.040782876 125:0.0040172557 139:0.014572886 192:0.012425431 204:0.0039014067 205:0.0079379091 218:0.0040204292 221:0.0064142663 231:0.0039076707 253:0.014572886 266:0.0059788423 302:0.01553851 316:0.011867413 354:0.016192541 356:0.0090570599 365:0.0079482803 373:0.0051146308 460:0.0034503874 473:0.0032385082 483:0.0015613392 498:0.011362624 518:0.0037850002 528:0.01672034 #
-23.60652826238111856582690961659 9:0.00030460232 10:0.0098612905 29:0.02932993 84:0.0098612905 144:0.011199585 198:0.0080001066 203:0.0095631713 220:0.011578312 231:0.0025841049 233:0.0075480305 242:0.011199585 248:0.011199585 260:0.035936076 266:0.0022592861 290:0.008237578 315:0.010498526 320:0.013338706 354:0.0085663768 365:0.0035040807 373:0.0033822558 460:0.0045634159 473:0.0042831884 483:0.0020649971 503:0.0077704219 513:0.0090024918 518:0.010011937 523:0.017258676 526:0.0084833838 #
-0.51816990281363195514074959646678 9:0.00055545132 13:0.016416309 29:0.013370997 38:0.037475232 40:0.058033172 86:0.01091376 125:0.0032295587 258:0.040325526 265:0.049179349 377:0.031471703 414:0.027403975 468:0.013370997 483:0.0037655828 501:0.088000387 523:0.031471703 #
-0.98808561589692045501465145207476 9:0.00037770689 65:0.015940731 86:0.0074213571 97:0.013887485 119:0.059840266 125:0.0087843994 139:0.023899533 192:0.020377707 221:0.021038793 231:0.0032042898 253:0.023899533 266:0.0028015147 302:0.025483157 354:0.021244613 356:0.014853579 365:0.0043450599 460:0.0056586354 483:0.0025605962 #
