SVM-light Version V6.02
0 # kernel type
3 # kernel parameter -d 
1 # kernel parameter -g 
1 # kernel parameter -s 
1 # kernel parameter -r 
empty# kernel parameter -u 
264 # highest feature index 
20 # number of training documents 
19 # number of support vectors plus 1 
0.87527552 # threshold b, each following line is a SV (starting with alpha*y)
-852.08518417309016967919887974858 3:0.0021167023 4:0.0053191488 5:0.010638298 8:0.0053191488 10:0.00011849146 11:0.0083438102 16:0.0021167023 21:0.0053191488 27:0.0053191488 31:0.0027812698 34:0.0043824934 36:0.0053191488 40:0.0027812698 46:0.0043824934 56:0.0053191488 61:0.0027812698 64:0.0053191488 68:0.0053191488 70:0.0053191488 75:0.00051547878 77:0.0053191488 81:0.0053191488 86:0.0037179256 87:0.0048503401 92:0.0043824934 102:0.0043824934 106:0.0043824934 109:0.0053191488 118:0.0043824934 124:0.0043824934 125:0.0043824934 139:0.0043824934 141:0.0027812698 142:0.0053191488 150:0.0043824934 152:0.0053191488 155:0.0027812698 160:0.0027812698 164:0.0053191488 167:0.0027812698 170:0.0053191488 171:0.0043824934 172:0.0053191488 176:0.0027812698 180:0.0027812698 181:0.0027812698 182:0.0055338428 189:0.0055625397 195:0.0043824934 198:0.0063501066 207:0.00051547878 208:0.0027812698 213:0.015957447 221:0.0043824934 222:0.0043824934 226:0.0053191488 228:0.0053191488 230:0.0053191488 231:0.0027812698 235:0.0027812698 236:0.0055625397 239:0.0053191488 243:0.015957447 248:0.0043824934 #
-104.36043180033213673141290200874 3:0.0016110932 7:0.0012542668 10:9.018783e-05 13:0.0040485831 15:0.00062713341 16:0.0032221864 18:0.000185253 26:0.0028298381 28:0.00062713341 29:0.00062713341 30:0.0012542668 33:0.0042119939 42:0.0080971662 44:0.00062713341 45:0.00062713341 50:0.00062713341 52:0.00062713341 58:0.00062713341 60:0.0010511632 65:0.0040485831 73:0.00062713341 74:0.00062713341 75:0.0011770447 76:0.00062713341 89:0.00062713341 90:0.0012542668 93:0.00062713341 95:0.0080971662 104:0.0052673281 107:0.0012542668 116:0.0021169181 119:0.00062713341 130:0.0040485831 135:0.0018458783 144:0.00089817308 161:0.0040485831 168:0.0040485831 174:0.0012542668 183:0.00062713341 184:0.00062713341 191:0.00062713341 193:0.00062713341 194:0.00062713341 196:0.00062713341 201:0.0012542668 202:0.00062713341 207:0.00039234824 211:0.0010511632 212:0.0018814004 217:0.00062713341 220:0.00062713341 223:0.0040485831 224:0.0025085337 238:0.00062713341 240:0.00062713341 241:0.0040485831 244:0.00062713341 245:0.0018814004 251:0.0040485831 252:0.0012542668 253:0.0040485831 254:0.00062713341 255:0.0012542668 261:0.010534656 #
-51.565113061228927904267038684338 7:0.0013769063 10:9.9006196e-05 14:0.0036618167 15:0.00068845315 18:0.00061009987 28:0.00068845315 29:0.00068845315 30:0.00068845315 33:0.0030825555 37:0.011564711 44:0.00068845315 45:0.00068845315 50:0.00068845315 52:0.00068845315 58:0.00068845315 59:0.0057823556 61:0.0069717164 67:0.0030825555 73:0.00068845315 74:0.00068845315 75:0.00086142233 76:0.00068845315 89:0.00068845315 90:0.00068845315 93:0.00068845315 96:0.0044444446 97:0.0044444446 98:0.0057823556 107:0.00068845315 108:0.0036618167 112:0.0044444446 119:0.00068845315 135:0.0040527284 157:0.0088888891 159:0.011564711 174:0.00068845315 183:0.00068845315 184:0.00068845315 191:0.00068845315 193:0.00068845315 194:0.00068845315 196:0.00068845315 197:0.0057823556 201:0.0013769063 202:0.00068845315 207:0.00043071117 212:0.0020653594 216:0.0057823556 217:0.00068845315 220:0.0020653594 224:0.0027538126 227:0.0036618167 238:0.00068845315 240:0.00068845315 244:0.00068845315 245:0.0013769063 252:0.0013769063 254:0.00068845315 255:0.0013769063 #
-103.97396875823139339445333462209 7:0.00073413254 10:0.00010557533 15:0.00073413254 16:0.0037719433 18:0.00021686015 28:0.00073413254 29:0.00073413254 30:0.0014682651 32:0.0047393367 33:0.0032870851 44:0.00073413254 45:0.00073413254 50:0.00073413254 52:0.00073413254 58:0.00073413254 60:0.0012305086 73:0.00073413254 74:0.00073413254 75:0.0009185783 76:0.00073413254 89:0.00073413254 90:0.0014682651 91:0.012332038 93:0.00073413254 107:0.0014682651 116:0.0024780983 119:0.00073413254 144:0.0010514159 173:0.0039047808 174:0.00073413254 183:0.00073413254 184:0.00073413254 185:0.006166019 188:0.006166019 191:0.00073413254 192:0.0047393367 193:0.00073413254 194:0.00073413254 196:0.00073413254 200:0.006166019 201:0.0014682651 202:0.00073413254 207:0.00045928915 211:0.0012305086 212:0.0022023974 217:0.00073413254 220:0.00073413254 224:0.0029365302 238:0.00073413254 240:0.00073413254 244:0.00073413254 245:0.0022023974 252:0.0014682651 254:0.00073413254 255:0.0014682651 #
444.34712831419852818726212717593 3:0.0026180265 10:0.00029311047 11:0.0068799835 18:0.00030103611 31:0.0034399917 34:0.0054204524 40:0.0068799835 46:0.0054204524 57:0.0065789474 67:0.0022814965 82:0.0065789474 87:0.0059991046 102:0.0054204524 106:0.010840905 118:0.0054204524 124:0.010840905 125:0.0054204524 128:0.013157895 139:0.0054204524 141:0.0034399917 143:0.0065789474 154:0.0065789474 155:0.0034399917 160:0.0034399917 167:0.0034399917 171:0.0054204524 176:0.0034399917 180:0.0034399917 181:0.0034399917 182:0.0045629931 189:0.0034399917 195:0.0054204524 198:0.0078540789 208:0.0034399917 210:0.0065789474 219:0.0065789474 221:0.0054204524 231:0.0034399917 235:0.0034399917 236:0.010319975 242:0.003960921 248:0.0054204524 258:0.0045984867 263:0.0065789474 #
1199.1850186582257720147026702762 3:0.002584026 10:0.00028930383 11:0.01018595 18:0.00029712656 31:0.0033953164 34:0.0053500566 40:0.0067906328 46:0.0053500566 67:0.0022518667 72:0.0064935065 85:0.0064935065 86:0.0090775322 87:0.0059211943 102:0.0053500566 106:0.010700113 118:0.0053500566 122:0.0064935065 124:0.010700113 125:0.0053500566 139:0.0053500566 141:0.0033953164 155:0.0033953164 160:0.0033953164 167:0.0033953164 171:0.0053500566 176:0.0033953164 180:0.0033953164 181:0.0033953164 182:0.0045037335 189:0.0067906328 195:0.0053500566 198:0.0051680519 208:0.0033953164 215:0.0064935065 221:0.0053500566 225:0.0064935065 231:0.0033953164 235:0.0033953164 236:0.01018595 242:0.0039094803 248:0.0053500566 258:0.0045387661 #
313.58075707160151068819686770439 3:0.0038634953 10:0.00021627567 11:0.010152985 18:0.00044424747 31:0.0050764927 40:0.010152985 57:0.009708738 67:0.0033668687 82:0.009708738 87:0.0088530481 128:0.019417476 141:0.0050764927 143:0.009708738 154:0.009708738 155:0.0050764927 160:0.0050764927 167:0.0050764927 176:0.0050764927 180:0.0050764927 181:0.0050764927 182:0.0033668687 189:0.0050764927 198:0.0077269906 208:0.0050764927 210:0.009708738 219:0.009708738 231:0.0050764927 235:0.0050764927 236:0.015229478 242:0.0058452426 258:0.0067861164 263:0.009708738 #
-162.29725153235935408702061977237 7:0.00072384096 10:0.0001040953 15:0.00072384096 16:0.0018595328 18:0.00021382005 28:0.00072384096 29:0.00072384096 30:0.0014476819 33:0.0032410047 44:0.00072384096 45:0.00072384096 50:0.00072384096 52:0.00072384096 58:0.00072384096 60:0.0012132585 67:0.0016205023 73:0.00072384096 74:0.00072384096 75:0.0013585516 76:0.00072384096 89:0.00072384096 90:0.0014476819 93:0.00072384096 107:0.0014476819 110:0.0077000819 119:0.00072384096 135:0.0021305231 137:0.012159158 144:0.0010366763 148:0.0060795792 158:0.0032662149 174:0.00072384096 182:0.0016205023 183:0.00072384096 184:0.00072384096 191:0.00072384096 193:0.00072384096 194:0.00072384096 196:0.00072384096 199:0.0093457941 201:0.0014476819 202:0.00072384096 207:0.00045285054 211:0.0012132585 212:0.0021715227 217:0.00072384096 220:0.00072384096 224:0.0021715227 232:0.0032662149 234:0.0060795792 238:0.00072384096 240:0.00072384096 242:0.0028133644 244:0.00072384096 245:0.0021715227 252:0.0014476819 254:0.00072384096 255:0.0021715227 #
-120.14988587984183254775416571647 7:0.00075561932 10:0.00010866534 15:0.00075561932 18:0.00022320727 28:0.00075561932 29:0.00075561932 30:0.0015112386 44:0.00075561932 45:0.00075561932 50:0.00075561932 52:0.00075561932 58:0.00075561932 60:0.0012665235 67:0.0016916463 73:0.00075561932 74:0.00075561932 75:0.0014181953 76:0.00075561932 89:0.00075561932 90:0.0015112386 93:0.00075561932 105:0.0063464879 107:0.0015112386 119:0.00075561932 144:0.001082189 150:0.0040190672 158:0.0034096097 162:0.012692976 174:0.00075561932 183:0.00075561932 184:0.00075561932 191:0.00075561932 193:0.00075561932 194:0.00075561932 196:0.00075561932 198:0.0019411708 201:0.0015112386 202:0.00075561932 203:0.0063464879 204:0.012692976 207:0.00047273177 211:0.0012665235 212:0.002266858 217:0.00075561932 220:0.00075561932 224:0.0015112386 227:0.0040190672 232:0.0034096097 238:0.00075561932 240:0.00075561932 244:0.00075561932 245:0.002266858 249:0.0063464879 252:0.0015112386 254:0.00075561932 255:0.0015112386 #
-111.41681055364482233471790095791 7:0.0007668414 10:0.00011027918 15:0.0007668414 18:0.00022652223 24:0.0064407424 26:0.0034602475 28:0.0007668414 29:0.0007668414 30:0.0015336828 44:0.0007668414 45:0.0007668414 48:0.004950495 50:0.0007668414 52:0.0007668414 58:0.0007668414 60:0.0012853332 73:0.0007668414 74:0.0007668414 75:0.00095950509 76:0.0007668414 89:0.0007668414 90:0.0015336828 93:0.0007668414 107:0.0015336828 110:0.0040787561 119:0.0007668414 132:0.0064407424 136:0.004950495 144:0.0010982611 156:0.012881485 158:0.0034602475 174:0.0007668414 179:0.004950495 182:0.0017167698 183:0.0007668414 184:0.0007668414 191:0.0007668414 193:0.0007668414 194:0.0007668414 196:0.0007668414 201:0.0015336828 202:0.0007668414 207:0.00047975255 211:0.0012853332 212:0.0023005242 217:0.0007668414 220:0.0007668414 224:0.0023005242 232:0.0034602475 238:0.0007668414 240:0.0007668414 244:0.0007668414 245:0.0023005242 252:0.0015336828 254:0.0007668414 255:0.0015336828 #
-81.368840034330389698880026116967 7:0.0006374566 10:9.1672409e-05 14:0.0033905709 15:0.0006374566 18:0.00018830242 28:0.0006374566 29:0.0006374566 30:0.0012749132 33:0.002854218 35:0.0053540329 44:0.0006374566 45:0.0006374566 50:0.0006374566 52:0.0006374566 53:0.0053540329 58:0.0006374566 60:0.0010684663 63:0.0053540329 71:0.016062099 73:0.0006374566 74:0.0006374566 75:0.00079761329 76:0.0006374566 84:0.0053540329 87:0.0018762632 89:0.0006374566 90:0.0012749132 93:0.0006374566 94:0.010708066 99:0.0053540329 101:0.0053540329 103:0.0041152262 107:0.0012749132 115:0.0053540329 117:0.0033905709 119:0.0006374566 133:0.0053540329 144:0.00091295782 151:0.0053540329 166:0.0053540329 169:0.0053540329 174:0.0006374566 177:0.002477613 183:0.0006374566 184:0.0006374566 191:0.0006374566 193:0.0006374566 194:0.0006374566 196:0.0006374566 201:0.0012749132 202:0.0006374566 205:0.0053540329 207:0.0011964199 209:0.0053540329 211:0.0010684663 212:0.0019123699 217:0.0006374566 220:0.0006374566 224:0.0044621965 238:0.0006374566 240:0.0006374566 244:0.0006374566 245:0.0019123699 252:0.0012749132 254:0.0006374566 255:0.0012749132 #
-105.60625767283447373756644083187 7:0.00074472098 10:0.00010709805 15:0.00074472098 18:0.00021998794 28:0.00074472098 29:0.00074472098 30:0.001489442 44:0.00074472098 45:0.00074472098 48:0.0048076925 50:0.00074472098 52:0.00074472098 58:0.00074472098 60:0.0012482563 73:0.00074472098 74:0.00074472098 75:0.00093182706 76:0.00074472098 89:0.00074472098 90:0.001489442 93:0.00074472098 107:0.001489442 110:0.0039610998 112:0.0048076925 116:0.0025138401 119:0.00074472098 135:0.0021919806 136:0.0048076925 138:0.0062549519 144:0.0010665805 158:0.0033604328 174:0.00074472098 179:0.0048076925 182:0.0016672475 183:0.00074472098 184:0.00074472098 191:0.00074472098 193:0.00074472098 194:0.00074472098 196:0.00074472098 201:0.001489442 202:0.00074472098 207:0.00046591353 211:0.0012482563 212:0.002234163 217:0.00074472098 220:0.00074472098 224:0.002234163 232:0.0033604328 238:0.00074472098 240:0.00074472098 244:0.00074472098 245:0.002234163 247:0.0062549519 252:0.001489442 254:0.00074472098 255:0.001489442 262:0.012509904 #
165.78210313586316715372959151864 3:0.0037899048 10:0.00021215614 11:0.014939393 18:0.00043578562 31:0.0049797976 40:0.0099595953 67:0.0033027381 72:0.0095238099 85:0.0095238099 86:0.013313714 87:0.0086844182 122:0.0095238099 141:0.0049797976 155:0.0049797976 160:0.0049797976 167:0.0049797976 176:0.0049797976 180:0.0049797976 181:0.0049797976 182:0.0033027381 189:0.0099595953 198:0.0037899048 208:0.0049797976 215:0.0095238099 225:0.0095238099 231:0.0049797976 235:0.0049797976 236:0.014939393 242:0.0057339049 258:0.0066568572 #
-93.813391119623858571685559581965 7:0.00070091384 10:0.00010079816 15:0.00070091384 18:0.00020704747 28:0.00070091384 29:0.00070091384 30:0.0014018277 41:0.0058870134 44:0.00070091384 45:0.00070091384 50:0.00070091384 52:0.00070091384 58:0.00070091384 60:0.0011748294 61:0.0023659673 73:0.00070091384 74:0.00070091384 75:0.00087701372 76:0.00070091384 80:0.011774027 83:0.0045248871 89:0.00070091384 90:0.0014018277 93:0.0014018277 107:0.0014018277 116:0.0023659673 117:0.0037280938 119:0.00070091384 144:0.0010038405 146:0.0045248871 163:0.0058870134 173:0.0037280938 174:0.00070091384 177:0.0027242533 183:0.00070091384 184:0.00070091384 190:0.0058870134 191:0.00070091384 193:0.00070091384 194:0.00070091384 196:0.00070091384 201:0.0014018277 202:0.00070091384 207:0.00087701372 211:0.0011748294 212:0.0021027415 217:0.00070091384 220:0.00070091384 224:0.004205483 233:0.0058870134 238:0.00070091384 240:0.00070091384 244:0.00070091384 245:0.0021027415 250:0.0045248871 252:0.0014018277 254:0.00070091384 255:0.0014018277 #
-110.74860039379643694701371714473 7:0.0007745098 10:0.00011138197 15:0.0007745098 16:0.0019897001 18:0.00022878745 28:0.0007745098 29:0.0007745098 30:0.0015490196 33:0.0017339374 44:0.0007745098 45:0.0007745098 47:0.0065051499 50:0.0007745098 52:0.0007745098 58:0.0007745098 60:0.0012981866 62:0.0130103 73:0.0007745098 74:0.0007745098 75:0.0009691001 76:0.0007745098 89:0.0007745098 90:0.0015490196 93:0.0015490196 107:0.0015490196 119:0.0007745098 134:0.0065051499 144:0.0011092437 168:0.0049999999 174:0.0007745098 183:0.0007745098 184:0.0007745098 191:0.0007745098 193:0.0007745098 194:0.0007745098 196:0.0007745098 199:0.0049999999 201:0.0015490196 202:0.0007745098 207:0.00048455005 211:0.0012981866 212:0.0023235295 217:0.0007745098 220:0.0007745098 224:0.0023235295 238:0.0007745098 240:0.0007745098 244:0.0007745098 245:0.0023235295 252:0.0015490196 254:0.0007745098 255:0.0015490196 256:0.0065051499 #
-84.404691254819795176445040851831 7:0.0013708138 10:9.8568118e-05 15:0.00068540691 18:0.00020246678 26:0.0030927877 28:0.00068540691 29:0.00068540691 30:0.0013708138 44:0.00068540691 45:0.00068540691 50:0.00068540691 52:0.00068540691 58:0.00068540691 60:0.0011488376 61:0.0046272455 73:0.00068540691 74:0.00068540691 75:0.00085761072 76:0.00068540691 78:0.01151354 83:0.0044247787 89:0.00068540691 90:0.0013708138 93:0.0013708138 96:0.0044247787 107:0.0013708138 108:0.0036456138 119:0.00068540691 127:0.0044247787 131:0.0057567698 144:0.00098163169 174:0.00068540691 177:0.0026639823 183:0.00068540691 184:0.00068540691 191:0.00068540691 193:0.00068540691 194:0.00068540691 196:0.00068540691 201:0.0013708138 202:0.00068540691 207:0.00085761072 211:0.0011488376 212:0.0020562208 217:0.00068540691 220:0.00068540691 224:0.0027416276 229:0.0057567698 238:0.00068540691 240:0.00068540691 244:0.00068540691 245:0.0020562208 250:0.0088495575 252:0.0013708138 254:0.00068540691 255:0.0013708138 #
-33.289507093005184401590668130666 2:0.0035162973 3:0.0021510271 7:0.0012559618 9:0.0035162973 10:6.0206472e-05 12:0.0035162973 15:0.00041865394 16:0.0053775678 18:0.0002473378 19:0.0035162973 20:0.0035162973 23:0.0035162973 25:0.0035162973 28:0.00041865394 29:0.00041865394 30:0.00083730789 32:0.0054054055 33:0.0074981079 43:0.0035162973 44:0.00041865394 45:0.00041865394 49:0.0035162973 50:0.00041865394 52:0.00041865394 54:0.0035162973 55:0.0027027028 58:0.00041865394 60:0.00070172246 67:0.00093726348 69:0.0035162973 73:0.00041865394 74:0.00041865394 75:0.00052383792 76:0.00041865394 79:0.0035162973 88:0.0035162973 89:0.00041865394 90:0.00083730789 93:0.00041865394 97:0.0027027028 100:0.0035162973 103:0.0054054055 107:0.00083730789 113:0.0035162973 114:0.0035162973 116:0.0014131858 117:0.0022267804 119:0.00041865394 121:0.0035162973 123:0.0035162973 126:0.0035162973 129:0.0027027028 135:0.0012322485 140:0.0035162973 144:0.0011991825 146:0.0081081083 173:0.0022267804 174:0.00041865394 177:0.0016271892 178:0.0035162973 183:0.00041865394 184:0.00041865394 186:0.0035162973 187:0.0070325946 191:0.00041865394 192:0.0054054055 193:0.00041865394 194:0.00041865394 196:0.00041865394 198:0.0010755135 201:0.00083730789 202:0.00041865394 206:0.0035162973 207:0.00026191896 211:0.0028068898 212:0.0012559618 214:0.0035162973 217:0.00041865394 218:0.0035162973 220:0.00041865394 222:0.0022267804 224:0.0058611552 227:0.0022267804 237:0.0035162973 238:0.00041865394 240:0.00041865394 244:0.00041865394 245:0.0012559618 252:0.00083730789 254:0.00041865394 255:0.00083730789 264:0.0035162973 #
-107.81507385274952071085863281041 7:0.0014752568 10:0.00010607807 14:0.0078467503 15:0.00073762838 18:0.00043578562 28:0.00073762838 29:0.00073762838 30:0.00073762838 33:0.0049541071 44:0.00073762838 45:0.00073762838 50:0.00073762838 52:0.00073762838 55:0.0095238099 58:0.00073762838 61:0.0024898988 67:0.001651369 73:0.00073762838 74:0.00073762838 75:0.00092295249 76:0.00073762838 89:0.00073762838 90:0.00073762838 93:0.00073762838 107:0.00073762838 108:0.0039233752 111:0.0061953808 119:0.00073762838 127:0.0047619049 129:0.0047619049 135:0.0021711045 147:0.0061953808 153:0.0061953808 157:0.0047619049 174:0.00073762838 177:0.0028669524 183:0.00073762838 184:0.00073762838 191:0.00073762838 193:0.00073762838 194:0.00073762838 196:0.00073762838 201:0.0014752568 202:0.00073762838 207:0.00046147624 212:0.0022128851 217:0.00073762838 220:0.0014752568 224:0.0029505135 238:0.00073762838 240:0.00073762838 244:0.00073762838 245:0.0014752568 252:0.0014752568 254:0.00073762838 255:0.0014752568 #
