SVM-light Version V6.02
0 # kernel type
3 # kernel parameter -d 
1 # kernel parameter -g 
1 # kernel parameter -s 
1 # kernel parameter -r 
empty# kernel parameter -u 
264 # highest feature index 
20 # number of training documents 
19 # number of support vectors plus 1 
0.87509709 # threshold b, each following line is a SV (starting with alpha*y)
166.92436426217452094533655326813 3:0.0037899048 10:0.00021215614 11:0.014939393 18:0.00043578562 31:0.0049797976 40:0.0099595953 67:0.0033027381 85:0.0095238099 86:0.013313714 88:0.0086844182 123:0.0095238099 141:0.0049797976 155:0.0049797976 160:0.0049797976 167:0.0049797976 176:0.0049797976 180:0.0049797976 181:0.0049797976 182:0.0033027381 189:0.0099595953 199:0.0037899048 209:0.0049797976 216:0.0095238099 226:0.0095238099 232:0.0049797976 236:0.0049797976 237:0.014939393 239:0.0095238099 242:0.0057339049 258:0.0066568572 #
-105.00159270137670830536080757156 3:0.0016110932 7:0.0012542668 10:9.018783e-05 13:0.0040485831 15:0.00062713341 16:0.0032221864 18:0.000185253 23:0.00062713341 26:0.0028298381 28:0.00062713341 29:0.00062713341 30:0.0012542668 33:0.0042119939 42:0.0080971662 44:0.00062713341 45:0.00062713341 50:0.00062713341 52:0.00062713341 58:0.00062713341 60:0.0010511632 65:0.0040485831 72:0.00062713341 73:0.00062713341 74:0.00062713341 75:0.0011770447 76:0.00062713341 90:0.00062713341 91:0.0012542668 94:0.00062713341 96:0.0080971662 105:0.0052673281 108:0.0012542668 117:0.0021169181 120:0.00062713341 130:0.0040485831 135:0.0018458783 144:0.00089817308 161:0.0040485831 168:0.0040485831 174:0.0012542668 183:0.00062713341 184:0.00062713341 191:0.00062713341 193:0.00062713341 194:0.00062713341 197:0.00062713341 202:0.0012542668 203:0.00062713341 208:0.00039234824 212:0.0010511632 213:0.0018814004 218:0.00062713341 221:0.00062713341 224:0.0040485831 225:0.0025085337 241:0.0040485831 244:0.00062713341 245:0.0018814004 251:0.0040485831 252:0.0012542668 253:0.0040485831 254:0.00062713341 255:0.0012542668 261:0.010534656 #
-51.214088148339115491580741945654 7:0.0013769063 10:9.9006196e-05 14:0.0036618167 15:0.00068845315 18:0.00061009987 23:0.00068845315 28:0.00068845315 29:0.00068845315 30:0.00068845315 33:0.0030825555 37:0.011564711 44:0.00068845315 45:0.00068845315 50:0.00068845315 52:0.00068845315 58:0.00068845315 59:0.0057823556 61:0.0069717164 67:0.0030825555 72:0.00068845315 73:0.00068845315 74:0.00068845315 75:0.00086142233 76:0.00068845315 90:0.00068845315 91:0.00068845315 94:0.00068845315 97:0.0044444446 98:0.0044444446 99:0.0057823556 108:0.00068845315 109:0.0036618167 113:0.0044444446 120:0.00068845315 135:0.0040527284 157:0.0088888891 159:0.011564711 174:0.00068845315 183:0.00068845315 184:0.00068845315 191:0.00068845315 193:0.00068845315 194:0.00068845315 197:0.00068845315 198:0.0057823556 202:0.0013769063 203:0.00068845315 208:0.00043071117 213:0.0020653594 217:0.0057823556 218:0.00068845315 221:0.0020653594 225:0.0027538126 228:0.0036618167 244:0.00068845315 245:0.0013769063 252:0.0013769063 254:0.00068845315 255:0.0013769063 #
-104.95052884146348048943764297292 7:0.00073413254 10:0.00010557533 15:0.00073413254 16:0.0037719433 18:0.00021686015 23:0.00073413254 28:0.00073413254 29:0.00073413254 30:0.0014682651 32:0.0047393367 33:0.0032870851 44:0.00073413254 45:0.00073413254 50:0.00073413254 52:0.00073413254 58:0.00073413254 60:0.0012305086 72:0.00073413254 73:0.00073413254 74:0.00073413254 75:0.0009185783 76:0.00073413254 90:0.00073413254 91:0.0014682651 92:0.012332038 94:0.00073413254 108:0.0014682651 117:0.0024780983 120:0.00073413254 144:0.0010514159 173:0.0039047808 174:0.00073413254 183:0.00073413254 184:0.00073413254 185:0.006166019 188:0.006166019 191:0.00073413254 193:0.00073413254 194:0.00073413254 197:0.00073413254 201:0.006166019 202:0.0014682651 203:0.00073413254 205:0.0047393367 208:0.00045928915 212:0.0012305086 213:0.0022023974 218:0.00073413254 221:0.00073413254 225:0.0029365302 244:0.00073413254 245:0.0022023974 252:0.0014682651 254:0.00073413254 255:0.0014682651 #
-120.79261929557712562655069632456 7:0.00075561932 10:0.00010866534 15:0.00075561932 18:0.00022320727 23:0.00075561932 28:0.00075561932 29:0.00075561932 30:0.0015112386 44:0.00075561932 45:0.00075561932 50:0.00075561932 52:0.00075561932 58:0.00075561932 60:0.0012665235 67:0.0016916463 72:0.00075561932 73:0.00075561932 74:0.00075561932 75:0.0014181953 76:0.00075561932 90:0.00075561932 91:0.0015112386 94:0.00075561932 106:0.0063464879 108:0.0015112386 120:0.00075561932 144:0.001082189 150:0.0040190672 158:0.0034096097 162:0.012692976 174:0.00075561932 183:0.00075561932 184:0.00075561932 191:0.00075561932 192:0.012692976 193:0.00075561932 194:0.00075561932 197:0.00075561932 199:0.0019411708 202:0.0015112386 203:0.00075561932 204:0.0063464879 208:0.00047273177 212:0.0012665235 213:0.002266858 218:0.00075561932 221:0.00075561932 225:0.0015112386 228:0.0040190672 233:0.0034096097 244:0.00075561932 245:0.002266858 249:0.0063464879 252:0.0015112386 254:0.00075561932 255:0.0015112386 #
1197.3305775198673472914379090071 3:0.002584026 10:0.00028930383 11:0.01018595 18:0.00029712656 31:0.0033953164 34:0.0053500566 40:0.0067906328 46:0.0053500566 67:0.0022518667 85:0.0064935065 86:0.0090775322 87:0.0053500566 88:0.0059211943 103:0.0053500566 107:0.010700113 119:0.0053500566 123:0.0064935065 125:0.010700113 139:0.0053500566 141:0.0033953164 155:0.0033953164 160:0.0033953164 167:0.0033953164 171:0.0053500566 176:0.0033953164 180:0.0033953164 181:0.0033953164 182:0.0045037335 189:0.0067906328 196:0.0053500566 199:0.0051680519 209:0.0033953164 216:0.0064935065 222:0.0053500566 226:0.0064935065 232:0.0033953164 236:0.0033953164 237:0.01018595 239:0.0064935065 242:0.0039094803 248:0.0053500566 258:0.0045387661 #
312.80235041057113676288281567395 3:0.0038634953 10:0.00021627567 11:0.010152985 18:0.00044424747 31:0.0050764927 40:0.010152985 57:0.009708738 67:0.0033668687 82:0.009708738 88:0.0088530481 128:0.019417476 141:0.0050764927 143:0.009708738 154:0.009708738 155:0.0050764927 160:0.0050764927 167:0.0050764927 176:0.0050764927 180:0.0050764927 181:0.0050764927 182:0.0033668687 189:0.0050764927 199:0.0077269906 209:0.0050764927 211:0.009708738 220:0.009708738 232:0.0050764927 236:0.0050764927 237:0.015229478 242:0.0058452426 258:0.0067861164 263:0.009708738 #
-851.98221587490468209580285474658 3:0.0021167023 4:0.0053191488 5:0.010638298 8:0.0053191488 10:0.00011849146 11:0.0083438102 16:0.0021167023 21:0.0053191488 27:0.0053191488 31:0.0027812698 34:0.0043824934 36:0.0053191488 40:0.0027812698 46:0.0043824934 56:0.0053191488 61:0.0027812698 64:0.0053191488 68:0.0053191488 70:0.0053191488 75:0.00051547878 77:0.0053191488 81:0.0053191488 86:0.0037179256 87:0.0043824934 88:0.0048503401 93:0.0043824934 103:0.0043824934 107:0.0043824934 110:0.0053191488 119:0.0043824934 125:0.0043824934 139:0.0043824934 141:0.0027812698 142:0.0053191488 150:0.0043824934 152:0.0053191488 155:0.0027812698 160:0.0027812698 164:0.0053191488 167:0.0027812698 170:0.0053191488 171:0.0043824934 172:0.0053191488 176:0.0027812698 180:0.0027812698 181:0.0027812698 182:0.0055338428 189:0.0055625397 196:0.0043824934 199:0.0063501066 208:0.00051547878 209:0.0027812698 214:0.015957447 222:0.0043824934 223:0.0043824934 227:0.0053191488 229:0.0053191488 231:0.0053191488 232:0.0027812698 236:0.0027812698 237:0.0055625397 240:0.0053191488 243:0.015957447 248:0.0043824934 #
-160.71552624568954570349887944758 7:0.00072384096 10:0.0001040953 15:0.00072384096 16:0.0018595328 18:0.00021382005 23:0.00072384096 28:0.00072384096 29:0.00072384096 30:0.0014476819 33:0.0032410047 44:0.00072384096 45:0.00072384096 50:0.00072384096 52:0.00072384096 58:0.00072384096 60:0.0012132585 67:0.0016205023 72:0.00072384096 73:0.00072384096 74:0.00072384096 75:0.0013585516 76:0.00072384096 90:0.00072384096 91:0.0014476819 94:0.00072384096 108:0.0014476819 111:0.0077000819 120:0.00072384096 135:0.0021305231 137:0.012159158 144:0.0010366763 148:0.0060795792 158:0.0032662149 174:0.00072384096 182:0.0016205023 183:0.00072384096 184:0.00072384096 191:0.00072384096 193:0.00072384096 194:0.00072384096 197:0.00072384096 200:0.0093457941 202:0.0014476819 203:0.00072384096 208:0.00045285054 212:0.0012132585 213:0.0021715227 218:0.00072384096 221:0.00072384096 225:0.0021715227 233:0.0032662149 235:0.0060795792 242:0.0028133644 244:0.00072384096 245:0.0021715227 252:0.0014476819 254:0.00072384096 255:0.0021715227 #
-80.923971268183024108111567329615 7:0.0006374566 10:9.1672409e-05 14:0.0033905709 15:0.0006374566 18:0.00018830242 23:0.0006374566 28:0.0006374566 29:0.0006374566 30:0.0012749132 33:0.002854218 35:0.0053540329 44:0.0006374566 45:0.0006374566 50:0.0006374566 52:0.0006374566 53:0.0053540329 58:0.0006374566 60:0.0010684663 63:0.0053540329 71:0.016062099 72:0.0006374566 73:0.0006374566 74:0.0006374566 75:0.00079761329 76:0.0006374566 84:0.0053540329 88:0.0018762632 90:0.0006374566 91:0.0012749132 94:0.0006374566 95:0.010708066 100:0.0053540329 102:0.0053540329 104:0.0041152262 108:0.0012749132 116:0.0053540329 118:0.0033905709 120:0.0006374566 133:0.0053540329 144:0.00091295782 151:0.0053540329 166:0.0053540329 169:0.0053540329 174:0.0006374566 177:0.002477613 183:0.0006374566 184:0.0006374566 191:0.0006374566 193:0.0006374566 194:0.0006374566 197:0.0006374566 202:0.0012749132 203:0.0006374566 206:0.0053540329 208:0.0011964199 210:0.0053540329 212:0.0010684663 213:0.0019123699 218:0.0006374566 221:0.0006374566 225:0.0044621965 244:0.0006374566 245:0.0019123699 252:0.0012749132 254:0.0006374566 255:0.0012749132 #
-112.54027301891302670355798909441 7:0.0007668414 10:0.00011027918 15:0.0007668414 18:0.00022652223 23:0.0007668414 24:0.0064407424 26:0.0034602475 28:0.0007668414 29:0.0007668414 30:0.0015336828 44:0.0007668414 45:0.0007668414 48:0.004950495 50:0.0007668414 52:0.0007668414 58:0.0007668414 60:0.0012853332 72:0.0007668414 73:0.0007668414 74:0.0007668414 75:0.00095950509 76:0.0007668414 90:0.0007668414 91:0.0015336828 94:0.0007668414 108:0.0015336828 111:0.0040787561 120:0.0007668414 132:0.0064407424 136:0.004950495 144:0.0010982611 156:0.012881485 158:0.0034602475 174:0.0007668414 179:0.004950495 182:0.0017167698 183:0.0007668414 184:0.0007668414 191:0.0007668414 193:0.0007668414 194:0.0007668414 197:0.0007668414 202:0.0015336828 203:0.0007668414 208:0.00047975255 212:0.0012853332 213:0.0023005242 218:0.0007668414 221:0.0007668414 225:0.0023005242 233:0.0034602475 244:0.0007668414 245:0.0023005242 252:0.0015336828 254:0.0007668414 255:0.0015336828 #
-103.96076393463383169546432327479 7:0.00074472098 10:0.00010709805 15:0.00074472098 18:0.00021998794 23:0.00074472098 28:0.00074472098 29:0.00074472098 30:0.001489442 44:0.00074472098 45:0.00074472098 48:0.0048076925 50:0.00074472098 52:0.00074472098 58:0.00074472098 60:0.0012482563 72:0.00074472098 73:0.00074472098 74:0.00074472098 75:0.00093182706 76:0.00074472098 90:0.00074472098 91:0.001489442 94:0.00074472098 108:0.001489442 111:0.0039610998 113:0.0048076925 117:0.0025138401 120:0.00074472098 135:0.0021919806 136:0.0048076925 138:0.0062549519 144:0.0010665805 158:0.0033604328 174:0.00074472098 179:0.0048076925 182:0.0016672475 183:0.00074472098 184:0.00074472098 191:0.00074472098 193:0.00074472098 194:0.00074472098 197:0.00074472098 202:0.001489442 203:0.00074472098 208:0.00046591353 212:0.0012482563 213:0.002234163 218:0.00074472098 221:0.00074472098 225:0.002234163 233:0.0033604328 244:0.00074472098 245:0.002234163 247:0.0062549519 252:0.001489442 254:0.00074472098 255:0.001489442 262:0.012509904 #
-111.67891749911210297341312980279 7:0.0007745098 10:0.00011138197 15:0.0007745098 16:0.0019897001 18:0.00022878745 23:0.0007745098 28:0.0007745098 29:0.0007745098 30:0.0015490196 33:0.0017339374 44:0.0007745098 45:0.0007745098 47:0.0065051499 50:0.0007745098 52:0.0007745098 58:0.0007745098 60:0.0012981866 62:0.0130103 72:0.0007745098 73:0.0007745098 74:0.0007745098 75:0.0009691001 76:0.0007745098 90:0.0007745098 91:0.0015490196 94:0.0015490196 108:0.0015490196 120:0.0007745098 134:0.0065051499 144:0.0011092437 168:0.0049999999 174:0.0007745098 183:0.0007745098 184:0.0007745098 191:0.0007745098 193:0.0007745098 194:0.0007745098 197:0.0007745098 200:0.0049999999 202:0.0015490196 203:0.0007745098 208:0.00048455005 212:0.0012981866 213:0.0023235295 218:0.0007745098 221:0.0007745098 225:0.0023235295 244:0.0007745098 245:0.0023235295 252:0.0015490196 254:0.0007745098 255:0.0015490196 256:0.0065051499 #
-94.357078165258258195535745471716 7:0.00070091384 10:0.00010079816 15:0.00070091384 18:0.00020704747 23:0.00070091384 28:0.00070091384 29:0.00070091384 30:0.0014018277 41:0.0058870134 44:0.00070091384 45:0.00070091384 50:0.00070091384 52:0.00070091384 58:0.00070091384 60:0.0011748294 61:0.0023659673 72:0.00070091384 73:0.00070091384 74:0.00070091384 75:0.00087701372 76:0.00070091384 80:0.011774027 83:0.0045248871 90:0.00070091384 91:0.0014018277 94:0.0014018277 108:0.0014018277 117:0.0023659673 118:0.0037280938 120:0.00070091384 144:0.0010038405 146:0.0045248871 163:0.0058870134 173:0.0037280938 174:0.00070091384 177:0.0027242533 183:0.00070091384 184:0.00070091384 190:0.0058870134 191:0.00070091384 193:0.00070091384 194:0.00070091384 197:0.00070091384 202:0.0014018277 203:0.00070091384 208:0.00087701372 212:0.0011748294 213:0.0021027415 218:0.00070091384 221:0.00070091384 225:0.004205483 234:0.0058870134 244:0.00070091384 245:0.0021027415 250:0.0045248871 252:0.0014018277 254:0.00070091384 255:0.0014018277 #
-84.911690007512788724852725863457 7:0.0013708138 10:9.8568118e-05 15:0.00068540691 18:0.00020246678 23:0.00068540691 26:0.0030927877 28:0.00068540691 29:0.00068540691 30:0.0013708138 44:0.00068540691 45:0.00068540691 50:0.00068540691 52:0.00068540691 58:0.00068540691 60:0.0011488376 61:0.0046272455 72:0.00068540691 73:0.00068540691 74:0.00068540691 75:0.00085761072 76:0.00068540691 78:0.01151354 83:0.0044247787 90:0.00068540691 91:0.0013708138 94:0.0013708138 97:0.0044247787 108:0.0013708138 109:0.0036456138 120:0.00068540691 127:0.0044247787 131:0.0057567698 144:0.00098163169 174:0.00068540691 177:0.0026639823 183:0.00068540691 184:0.00068540691 191:0.00068540691 193:0.00068540691 194:0.00068540691 197:0.00068540691 202:0.0013708138 203:0.00068540691 208:0.00085761072 212:0.0011488376 213:0.0020562208 218:0.00068540691 221:0.00068540691 225:0.0027416276 230:0.0057567698 244:0.00068540691 245:0.0020562208 250:0.0088495575 252:0.0013708138 254:0.00068540691 255:0.0013708138 #
445.39216106635603864560835063457 3:0.0026180265 10:0.00029311047 11:0.0068799835 18:0.00030103611 31:0.0034399917 34:0.0054204524 40:0.0068799835 46:0.0054204524 57:0.0065789474 67:0.0022814965 82:0.0065789474 87:0.0054204524 88:0.0059991046 103:0.0054204524 107:0.010840905 119:0.0054204524 125:0.010840905 128:0.013157895 139:0.0054204524 141:0.0034399917 143:0.0065789474 154:0.0065789474 155:0.0034399917 160:0.0034399917 167:0.0034399917 171:0.0054204524 176:0.0034399917 180:0.0034399917 181:0.0034399917 182:0.0045629931 189:0.0034399917 196:0.0054204524 199:0.0078540789 209:0.0034399917 211:0.0065789474 220:0.0065789474 222:0.0054204524 232:0.0034399917 236:0.0034399917 237:0.010319975 242:0.003960921 248:0.0054204524 258:0.0045984867 263:0.0065789474 #
-106.97312079943557705519197043031 7:0.0014752568 10:0.00010607807 14:0.0078467503 15:0.00073762838 18:0.00043578562 23:0.00073762838 28:0.00073762838 29:0.00073762838 30:0.00073762838 33:0.0049541071 44:0.00073762838 45:0.00073762838 50:0.00073762838 52:0.00073762838 55:0.0095238099 58:0.00073762838 61:0.0024898988 67:0.001651369 72:0.00073762838 73:0.00073762838 74:0.00073762838 75:0.00092295249 76:0.00073762838 90:0.00073762838 91:0.00073762838 94:0.00073762838 108:0.00073762838 109:0.0039233752 112:0.0061953808 120:0.00073762838 127:0.0047619049 129:0.0047619049 135:0.0021711045 147:0.0061953808 153:0.0061953808 157:0.0047619049 174:0.00073762838 177:0.0028669524 183:0.00073762838 184:0.00073762838 191:0.00073762838 193:0.00073762838 194:0.00073762838 197:0.00073762838 202:0.0014752568 203:0.00073762838 208:0.00046147624 213:0.0022128851 218:0.00073762838 221:0.0014752568 225:0.0029505135 244:0.00073762838 245:0.0014752568 252:0.0014752568 254:0.00073762838 255:0.0014752568 #
-32.447067458574210263577697332948 2:0.0035162973 3:0.0021510271 7:0.0012559618 9:0.0035162973 10:6.0206472e-05 12:0.0035162973 15:0.00041865394 16:0.0053775678 18:0.0002473378 19:0.0035162973 20:0.0035162973 23:0.00041865394 25:0.0035162973 28:0.00041865394 29:0.00041865394 30:0.00083730789 32:0.0054054055 33:0.0074981079 43:0.0035162973 44:0.00041865394 45:0.00041865394 49:0.0035162973 50:0.00041865394 52:0.00041865394 54:0.0035162973 55:0.0027027028 58:0.00041865394 60:0.00070172246 67:0.00093726348 69:0.0035162973 72:0.00041865394 73:0.00041865394 74:0.00041865394 75:0.00052383792 76:0.00041865394 79:0.0035162973 89:0.0035162973 90:0.00041865394 91:0.00083730789 94:0.00041865394 98:0.0027027028 101:0.0035162973 104:0.0054054055 108:0.00083730789 114:0.0035162973 115:0.0035162973 117:0.0014131858 118:0.0022267804 120:0.00041865394 122:0.0035162973 124:0.0035162973 126:0.0035162973 129:0.0027027028 135:0.0012322485 140:0.0035162973 144:0.0011991825 146:0.0081081083 173:0.0022267804 174:0.00041865394 177:0.0016271892 178:0.0035162973 183:0.00041865394 184:0.00041865394 186:0.0035162973 187:0.0070325946 191:0.00041865394 193:0.00041865394 194:0.00041865394 195:0.0035162973 197:0.00041865394 199:0.0010755135 202:0.00083730789 203:0.00041865394 205:0.0054054055 207:0.0035162973 208:0.00026191896 212:0.0028068898 213:0.0012559618 215:0.0035162973 218:0.00041865394 219:0.0035162973 221:0.00041865394 223:0.0022267804 225:0.0058611552 228:0.0022267804 238:0.0035162973 244:0.00041865394 245:0.0012559618 252:0.00083730789 254:0.00041865394 255:0.00083730789 264:0.0035162973 #
