SVM-light Version V6.02
0 # kernel type
3 # kernel parameter -d 
1 # kernel parameter -g 
1 # kernel parameter -s 
1 # kernel parameter -r 
empty# kernel parameter -u 
2067 # highest feature index 
10 # number of training documents 
10 # number of support vectors plus 1 
1.0409736 # threshold b, each following line is a SV (starting with alpha*y)
-1.8775706219067647140263943583705 85:0.00027684192 127:0.017098576 151:0.014109089 156:0.011394476 209:0.007402821 234:0.014430215 341:0.025692958 342:0.018504754 346:0.0061202315 350:0.02024997 366:0.012061943 408:0.019586427 457:0.044182938 462:0.019586427 522:0.014294341 573:0.013155424 732:0.0023261746 768:0.015194039 959:0.0076631829 1063:0.016156895 1156:0.0070163473 1229:0.014109089 1240:0.0097258929 1241:0.0099636754 1253:0.012034246 1261:0.014988885 1273:0.024099611 1466:0.016756486 1487:0.012274244 1514:0.014268636 1649:0.0076008965 1670:0.0043070489 1700:0.018932035 1703:0.011062047 1801:0.010672426 1813:0.0089066243 1887:0.040253531 1920:0.0050002863 1921:0.017899485 1923:0.032481581 1924:0.010063383 1972:0.014610725 2041:0.00016879597 #
-21.737030686985086447293724631891 85:0.0004926158 209:0.013172667 341:0.0091436701 346:0.010890412 366:0.0053657908 408:0.034852318 457:0.019654909 522:0.012717759 732:0.0041392227 768:0.027036451 809:0.025998494 1156:0.031212429 1229:0.025105879 1240:0.017306367 1253:0.021413879 1487:0.010920467 1649:0.013525125 1670:0.0076640132 1696:0.059633382 1710:0.029260976 1801:0.01899064 1813:0.015848553 1887:0.035813801 1923:0.043348577 1924:0.0179069 2041:0.00021844184 #
-7.6647634401591915320750558748841 85:0.00049996824 209:0.013369273 341:0.027840428 350:0.01828542 366:0.010891754 457:0.059844799 522:0.012907577 667:0.025815153 732:0.004201002 793:0.018550042 986:0.010992375 1156:0.025342628 1205:0.02783295 1240:0.017564671 1542:0.013961026 1703:0.009988864 1801:0.009637041 1813:0.016085098 1887:0.072696671 1923:0.043995574 2041:0.0001939894 #
-5.0445847625189514928933931514621 85:0.0004926158 146:0.045131288 209:0.013172667 341:0.01828734 346:0.010890412 350:0.0090082586 366:0.0080486862 457:0.019654909 522:0.012717759 732:0.0041392227 768:0.027036451 1156:0.018727457 1229:0.025105879 1240:0.017306367 1273:0.014294377 1514:0.025389777 1670:0.0076640132 1801:0.01899064 1813:0.015848553 1887:0.053720701 1923:0.028899053 2041:0.00024574707 #
-4.4631707756324558999949658755213 85:0.0004926158 209:0.013172667 341:0.01828734 346:0.010890412 350:0.0090082586 366:0.0080486862 457:0.019654909 522:0.012717759 732:0.0041392227 768:0.027036451 1156:0.012484971 1229:0.025105879 1240:0.017306367 1273:0.014294377 1528:0.045131288 1670:0.0076640132 1801:0.01899064 1813:0.015848553 1887:0.053720701 1920:0.0088975681 1923:0.028899053 2041:0.00024574707 2067:0.030425405 #
77.104501844521948328292637597769 85:0.0004926158 209:0.013172667 341:0.0091436701 346:0.010890412 366:0.0053657908 408:0.034852318 457:0.039309818 522:0.012717759 621:0.037964012 732:0.0041392227 768:0.027036451 809:0.025998494 1156:0.031212429 1229:0.025105879 1240:0.017306367 1487:0.010920467 1649:0.013525125 1670:0.0076640132 1710:0.029260976 1801:0.01899064 1813:0.015848553 1887:0.035813801 1923:0.043348577 1924:0.0179069 2041:0.00021844184 #
-28.456542318252250112209367216565 85:0.00068363006 341:0.012689175 346:0.015113224 366:0.0074464036 457:0.027276201 621:0.05268475 732:0.0057442272 809:0.036079545 1156:0.034652166 1229:0.034840811 1253:0.02971722 1487:0.015154934 1649:0.01876956 1670:0.010635774 1710:0.040607069 1801:0.013177178 1813:0.021993909 1923:0.080209613 1924:0.024850393 2041:0.00018946486 #
-2.9081041078061566906853840919212 85:0.00031601769 127:0.019518185 156:0.013006901 209:0.0084503898 234:0.016472226 341:0.011731502 342:0.010561676 346:0.0069863019 350:0.011557765 366:0.010326616 408:0.022358092 457:0.03782643 522:0.016317125 573:0.015017041 577:0.017592525 732:0.0026553504 746:0.006761746 768:0.01734414 959:0.0087475954 1063:0.018443247 1156:0.01201384 1229:0.016105657 1240:0.011102199 1241:0.01137363 1253:0.013737205 1261:0.017109955 1273:0.0091699772 1336:0.01260881 1466:0.019127687 1487:0.0070055826 1514:0.016287783 1670:0.0049165366 1700:0.021611098 1703:0.0063137161 1801:0.012182674 1813:0.010166995 1887:0.034462336 1918:0.021611098 1920:0.005707874 1923:0.03707803 1972:0.016678279 1994:0.023272336 2041:0.00017516562 2048:0.010515898 #
-4.9527362562970651538307720329612 85:0.0004926158 209:0.013172667 341:0.01828734 346:0.010890412 350:0.0090082586 366:0.0080486862 457:0.019654909 522:0.012717759 732:0.0041392227 768:0.027036451 1021:0.045131288 1156:0.018727457 1229:0.025105879 1240:0.017306367 1273:0.014294377 1670:0.0076640132 1801:0.01899064 1813:0.015848553 1887:0.053720701 1923:0.028899053 1972:0.025998494 2041:0.00024574707 #
