SVM-light Version V6.02
0 # kernel type
3 # kernel parameter -d 
1 # kernel parameter -g 
1 # kernel parameter -s 
1 # kernel parameter -r 
empty# kernel parameter -u 
681 # highest feature index 
42 # number of training documents 
39 # number of support vectors plus 1 
0.2473576 # threshold b, each following line is a SV (starting with alpha*y)
-67.298185665093697593874821905047 4:0.0075499965 9:0.0075499965 15:0.015099993 19:0.0075499965 20:0.0050610979 22:0.0075499965 24:0.0075499965 33:0.0075499965 35:0.0075499965 36:0.0075499965 40:0.0075499965 49:0.0075499965 51:0.0075499965 57:0.0075499965 60:0.0075499965 61:0.0075499965 64:0.0075499965 73:0.0061498573 74:0.0075499965 75:0.0075499965 91:0.0039306884 93:0.0028988339 117:0.00036828488 120:0.0075499965 122:0.015099993 125:0.015992485 126:0.0075499965 130:0.0075499965 132:0.0078613767 138:0.0075499965 148:0.0075499965 159:0.0075499965 169:0.0075499965 170:0.0075499965 171:0.0075499965 173:0.0075499965 176:0.0019494386 188:0.015099993 194:0.0075499965 209:0.0061498573 210:0.0047497177 216:0.0018269784 226:0.015099993 231:0.0075499965 233:0.0014986944 240:0.0075499965 259:0.0075499965 268:0.0075499965 271:0.02264999 286:0.024599429 287:0.021494867 291:0.0075499965 292:0.0075499965 295:0.0075499965 296:0.0014986944 299:0.0075499965 305:0.0075499965 316:0.0061498573 320:0.030199986 328:0.0075499965 332:0.0075499965 336:0.0075499965 342:0.015099993 350:0.0075499965 360:0.0075499965 365:0.02264999 366:0.0075499965 375:0.0014986944 390:0.0075499965 400:0.0075499965 401:0.0075499965 410:0.0075499965 413:0.0075499965 420:0.037749983 425:0.0075499965 438:0.0042989734 439:0.0075499965 459:0.0075499965 461:0.0014986944 462:0.0039306884 468:0.0036193081 471:0.0039306884 480:0.0033495782 487:0.02264999 492:0.0075499965 500:0.0075499965 503:0.0075499965 506:0.0080115274 508:0.02264999 509:0.0075499965 513:0.0075499965 529:0.0075499965 530:0.0011304095 538:0.0014986944 543:0.02264999 546:0.0061498573 553:0.0047497177 557:0.0023688648 568:0.0075499965 576:0.0075499965 580:0.0031116595 595:0.0075499965 598:0.0075499965 605:0.00068988418 612:0.0075499965 613:0.0075499965 616:0.0075499965 622:0.005330828 627:0.015099993 631:0.0075499965 636:0.012299715 638:0.0075499965 640:0.0039185109 666:0.0061498573 676:0.0075499965 #
-66.161833659550794095594028476626 14:0.0023120516 21:0.0023120516 37:0.0023120516 42:0.0028129483 46:0.0023120516 53:0.0023120516 55:0.01089429 65:0.0032021562 69:0.0023120516 76:0.0023120516 91:0.0056717987 96:0.0026362441 97:0.0020203355 117:0.00053141778 121:0.0088739553 129:0.0023120516 131:0.0023120516 134:0.0023120516 139:0.01089429 140:0.01089429 146:0.0017551775 149:0.0023120516 191:0.003510355 195:0.0046241032 196:0.01089429 208:0.0023120516 213:0.0069361548 216:0.0026362441 225:0.0076921345 227:0.0023120516 233:0.0021625457 243:0.0023120516 263:0.0052224915 280:0.0052224915 281:0.0023120516 294:0.01089429 296:0.0021625457 315:0.0032021562 331:0.0023120516 334:0.0028129483 361:0.0046241032 373:0.0023120516 375:0.0021625457 405:0.0023120516 411:0.0046241032 431:0.0023120516 432:0.0023120516 433:0.0062032165 442:0.0023120516 444:0.0023120516 446:0.0032021562 453:0.0023120516 457:0.0023120516 461:0.0064876368 463:0.0023120516 465:0.0046241032 469:0.0023120516 473:0.01089429 499:0.0023120516 506:0.0023120516 514:0.01089429 518:0.0023120516 530:0.0016311278 538:0.010812728 554:0.0023120516 557:0.0034181606 563:0.0023120516 584:0.0032021562 585:0.0023120516 593:0.0023120516 597:0.0076921345 605:0.00085326034 609:0.0023120516 622:0.0076921345 632:0.0032021562 640:0.0037694846 652:0.0023120516 656:0.0023120516 660:0.0023120516 661:0.0023120516 663:0.0032021562 671:0.0023120516 677:0.0028129483 678:0.0023120516 #
-57.508300141121971194024808937684 10:0.011762676 14:0.0024963457 21:0.0024963457 37:0.0024963457 42:0.0030371689 46:0.0024963457 48:0.011762676 53:0.0024963457 65:0.0034574005 69:0.0024963457 76:0.0024963457 93:0.0045162993 96:0.0028463795 97:0.0021813768 117:0.00057377713 129:0.0024963457 131:0.0024963457 134:0.0024963457 146:0.001895083 149:0.0024963457 176:0.0060743378 179:0.011762676 191:0.003790166 195:0.0049926913 208:0.0024963457 212:0.011762676 213:0.0074890368 216:0.0028463795 227:0.0024963457 233:0.0023349223 243:0.0024963457 251:0.006123899 281:0.0024963457 296:0.0023349223 315:0.0034574005 331:0.0024963457 334:0.0030371689 351:0.011762676 361:0.0049926913 373:0.0024963457 375:0.0023349223 405:0.0024963457 411:0.0049926913 431:0.0024963457 432:0.0024963457 442:0.0024963457 444:0.0024963457 446:0.0034574005 453:0.0024963457 457:0.0024963457 461:0.0070047672 463:0.0024963457 465:0.0049926913 469:0.0024963457 499:0.0024963457 517:0.0056387773 518:0.0024963457 530:0.0017611453 538:0.011674612 554:0.0024963457 563:0.0024963457 584:0.0034574005 585:0.0024963457 590:0.0095812995 593:0.0024963457 605:0.00076772826 609:0.0024963457 619:0.0066976761 632:0.0034574005 640:0.0040699509 652:0.0024963457 656:0.0024963457 660:0.0024963457 661:0.0024963457 663:0.0034574005 671:0.0024963457 677:0.0030371689 678:0.0024963457 #
-87.593518750447913134848931804299 14:0.002514567 21:0.002514567 37:0.002514567 42:0.0030593381 46:0.002514567 53:0.002514567 65:0.003482637 69:0.002514567 76:0.002514567 96:0.0028671559 97:0.0021972992 117:0.00057796529 127:0.011848535 129:0.002514567 131:0.002514567 134:0.002514567 146:0.0019089157 149:0.002514567 154:0.011848535 176:0.0030593381 189:0.011848535 191:0.0038178314 195:0.005029134 208:0.002514567 213:0.0075437012 216:0.0028671559 227:0.002514567 233:0.0023519658 243:0.002514567 251:0.0061685988 281:0.002514567 296:0.0023519658 315:0.003482637 331:0.002514567 334:0.0030593381 347:0.011848535 361:0.005029134 373:0.002514567 375:0.0023519658 405:0.002514567 411:0.005029134 431:0.002514567 432:0.002514567 442:0.002514567 444:0.002514567 446:0.003482637 453:0.002514567 457:0.002514567 461:0.0070558968 463:0.002514567 465:0.005029134 469:0.002514567 499:0.002514567 517:0.0056799361 518:0.002514567 530:0.0017740004 538:0.011759828 554:0.002514567 557:0.0037175615 563:0.002514567 584:0.003482637 585:0.002514567 588:0.011848535 593:0.002514567 605:0.00077333208 609:0.002514567 632:0.003482637 640:0.0040996587 652:0.002514567 656:0.002514567 660:0.002514567 661:0.002514567 663:0.003482637 671:0.002514567 677:0.0030593381 678:0.002514567 #
-53.480521805210059937962796539068 14:0.001775751 20:0.0028044744 21:0.001775751 37:0.001775751 42:0.0021604605 46:0.001775751 53:0.001775751 65:0.002459388 69:0.001775751 76:0.001775751 84:0.0083672646 91:0.013068526 93:0.0032126252 96:0.0020247442 97:0.001551701 106:0.0068155634 117:0.00040815075 129:0.001775751 131:0.001775751 132:0.0087123513 134:0.001775751 136:0.0068155634 146:0.0013480487 149:0.001775751 176:0.0021604605 184:0.013631127 187:0.0083672646 191:0.0026960974 195:0.003551502 199:0.0059078764 208:0.001775751 209:0.0068155634 213:0.0053272531 216:0.0020247442 218:0.013631127 227:0.001775751 233:0.0016609242 243:0.001775751 250:0.0083672646 251:0.0043561757 253:0.0068155634 255:0.0083672646 265:0.0083672646 280:0.012033267 281:0.001775751 288:0.0083672646 296:0.0016609242 297:0.0074243229 311:0.0083672646 315:0.002459388 331:0.001775751 334:0.0021604605 337:0.0083672646 355:0.0083672646 361:0.003551502 367:0.0087123513 373:0.001775751 375:0.0016609242 380:0.0083672646 385:0.0068155634 405:0.001775751 411:0.003551502 431:0.001775751 432:0.001775751 442:0.001775751 444:0.001775751 446:0.002459388 447:0.0083672646 453:0.001775751 457:0.001775751 461:0.0049827727 463:0.001775751 465:0.003551502 468:0.004011089 469:0.001775751 499:0.001775751 510:0.0083672646 517:0.012033267 518:0.001775751 528:0.0068155634 530:0.0012527735 538:0.0083046211 554:0.001775751 563:0.001775751 565:0.013631127 574:0.0047643264 580:0.0034484887 584:0.002459388 585:0.001775751 593:0.001775751 594:0.0068155634 605:0.00098300877 609:0.001775751 632:0.002459388 640:0.0028951196 643:0.0064252503 652:0.001775751 656:0.001775751 659:0.0083672646 660:0.001775751 661:0.001775751 663:0.002459388 671:0.001775751 674:0.0083672646 677:0.0021604605 678:0.001775751 #
73.845541718792489405132073443383 108:0.067635387 117:0.0032992186 146:0.010896727 261:0.055092469 304:0.067635387 356:0.03521242 506:0.014353987 530:0.010126585 605:0.0026486623 #
53.920321804736914828026783652604 20:0.0089191487 71:0.026610645 93:0.010217202 132:0.013854066 141:0.018788984 151:0.016740808 160:0.016740808 176:0.0068709725 203:0.026610645 261:0.021675726 298:0.026610645 318:0.021675726 325:0.026610645 327:0.026610645 330:0.012756578 356:0.027708132 399:0.021675726 481:0.033481617 490:0.026610645 497:0.012756578 506:0.01129494 524:0.018788984 532:0.026610645 555:0.021675726 591:0.021675726 605:0.0010420966 667:0.026610645 #
47.082567231687875164425349794328 97:0.0043627536 101:0.023525352 117:0.0011475543 151:0.029599689 191:0.011370498 220:0.023525352 222:0.038325198 238:0.047050703 272:0.029599689 282:0.019162599 297:0.010437092 300:0.023525352 307:0.047050703 318:0.019162599 354:0.023525352 397:0.023525352 422:0.019162599 424:0.023525352 437:0.023525352 462:0.012247798 471:0.024495596 486:0.023525352 495:0.019162599 506:0.0099853827 531:0.012247798 553:0.014799844 580:0.0096957507 581:0.019162599 605:0.0012283651 614:0.023525352 634:0.019162599 637:0.023525352 640:0.0040699509 641:0.013395352 662:0.019162599 #
72.998797241794179058160807471722 5:0.017454293 12:0.017454293 16:0.017454293 26:0.017454293 44:0.017454293 59:0.017454293 92:0.014217412 96:0.0042236601 97:0.0032368817 105:0.017454293 117:0.00085141126 143:0.017454293 151:0.01098053 176:0.0090135336 186:0.017454293 191:0.008436176 202:0.017454293 222:0.028434824 235:0.017454293 272:0.01098053 282:0.014217412 297:0.015487297 344:0.012323957 403:0.017454293 423:0.017454293 436:0.012323957 450:0.017454293 452:0.014217412 454:0.017454293 455:0.01098053 462:0.018174151 471:0.0090870755 480:0.0077436483 495:0.014217412 506:0.011112764 522:0.017454293 531:0.0090870755 536:0.017454293 546:0.014217412 553:0.01098053 567:0.034908585 579:0.017454293 581:0.014217412 605:0.0011392096 606:0.034908585 620:0.017454293 634:0.014217412 640:0.0030196409 641:0.0099384869 643:0.0067016054 644:0.014217412 670:0.017454293 #
21.997157153429245823872406617738 3:0.024485543 89:0.021224594 90:0.024485543 93:0.011541653 117:0.0014663193 141:0.021224594 146:0.0048429901 175:0.021224594 176:0.007761654 177:0.024485543 191:0.0096859802 221:0.030060172 236:0.030060172 237:0.024485543 324:0.030060172 329:0.024485543 343:0.021224594 356:0.015649963 374:0.024485543 436:0.021224594 481:0.018910913 524:0.021224594 530:0.0045007048 599:0.024485543 605:0.0011771832 624:0.024485543 643:0.011541653 677:0.007761654 681:0.048971087 #
-45.208963438324865080630843294784 14:0.0015658895 20:0.012365183 21:0.0015658895 37:0.0015658895 46:0.0015658895 53:0.0015658895 69:0.0015658895 70:0.0073784059 76:0.0015658895 88:0.03689203 91:0.0038413547 93:0.0056659025 97:0.0013683182 110:0.0046417695 111:0.026048364 117:0.00035991476 119:0.0060100877 125:0.0052096727 128:0.0073784059 129:0.0015658895 131:0.0015658895 132:0.0076827095 134:0.0015658895 135:0.014756812 146:0.0011887338 149:0.0015658895 160:0.0046417695 176:0.009525666 180:0.0073784059 182:0.0073784059 195:0.0031317789 208:0.0015658895 210:0.0046417695 213:0.0046976684 216:0.0035709124 219:0.0073784059 227:0.0015658895 229:0.0073784059 233:0.0014646332 243:0.0015658895 254:0.0073784059 266:0.0073784059 276:0.0060100877 281:0.0015658895 293:0.0073784059 296:0.0014646332 297:0.0032734515 308:0.0060100877 319:0.03689203 331:0.0015658895 334:0.0038102665 353:0.0073784059 361:0.0031317789 364:0.0073784059 373:0.0015658895 375:0.0014646332 384:0.0046417695 393:0.0060100877 405:0.0015658895 411:0.0031317789 419:0.0073784059 430:0.0073784059 431:0.0015658895 432:0.0015658895 442:0.0015658895 443:0.0073784059 444:0.0015658895 453:0.0015658895 457:0.0015658895 461:0.0043938993 463:0.0015658895 465:0.0031317789 469:0.0015658895 471:0.0038413547 472:0.0073784059 480:0.0032734515 496:0.0073784059 499:0.0015658895 506:0.0093953367 518:0.0015658895 526:0.0060100877 530:0.0011047184 538:0.0073231659 548:0.0073784059 554:0.0015658895 556:0.0073784059 557:0.0023150269 558:0.0073784059 563:0.0015658895 580:0.0030409398 585:0.0015658895 593:0.0015658895 602:0.0073784059 605:0.0011557799 609:0.0015658895 623:0.0073784059 640:0.0025529691 652:0.0015658895 656:0.0015658895 658:0.015365419 660:0.0015658895 661:0.0015658895 671:0.0015658895 675:0.0073784059 678:0.0015658895 #
19.1137236592359371911697962787 30:0.077297583 117:0.0037705356 155:0.048628062 172:0.077297583 178:0.062962823 246:0.062962823 287:0.044013299 335:0.062962823 352:0.077297583 504:0.062962823 570:0.062962823 605:0.0010090142 #
-96.077394907233127696599694900215 14:0.0016404557 21:0.0016404557 37:0.0016404557 42:0.0019958538 46:0.0016404557 53:0.0016404557 65:0.0022720059 69:0.0016404557 76:0.0016404557 79:0.0077297585 80:0.0077297585 96:0.0018704779 97:0.0014334762 110:0.0048628063 117:0.00037705354 129:0.0016404557 131:0.0016404557 133:0.0077297585 134:0.0016404557 146:0.0012453402 149:0.0016404557 156:0.0062962822 164:0.0077297585 167:0.0062962822 184:0.0062962822 191:0.0024906804 195:0.0032809114 208:0.0016404557 210:0.0048628063 213:0.0049213669 216:0.0037409558 227:0.0016404557 233:0.0015343776 243:0.0016404557 245:0.0077297585 251:0.0040242765 257:0.0077297585 263:0.0037054822 280:0.0037054822 281:0.0016404557 296:0.0015343776 315:0.0022720059 331:0.0016404557 333:0.0077297585 334:0.0039917077 338:0.015459517 348:0.015459517 361:0.0032809114 363:0.0054577524 373:0.0016404557 375:0.0015343776 378:0.0077297585 404:0.0077297585 405:0.0016404557 411:0.0032809114 431:0.0016404557 432:0.0016404557 442:0.0016404557 444:0.0016404557 446:0.0022720059 453:0.0016404557 457:0.0016404557 460:0.0077297585 461:0.0046031326 462:0.020121383 463:0.0016404557 465:0.0032809114 469:0.0016404557 499:0.0016404557 506:0.01148319 517:0.0037054822 518:0.0016404557 528:0.0062962822 530:0.0011573241 538:0.007671888 539:0.0077297585 540:0.030919034 554:0.0016404557 555:0.0062962822 557:0.0048505329 563:0.0016404557 566:0.0077297585 574:0.0044013299 580:0.0031857465 584:0.0022720059 585:0.0016404557 593:0.0016404557 605:0.0012108171 609:0.0016404557 632:0.0022720059 640:0.0026745391 643:0.0059357076 652:0.0016404557 656:0.0016404557 658:0.0040242765 660:0.0016404557 661:0.0016404557 663:0.0022720059 668:0.015459517 671:0.0016404557 677:0.0019958538 678:0.0016404557 680:0.0062962822 #
112.76158263010643167945090681314 18:0.0040581231 31:0.0040581231 34:0.01217437 58:0.0040581231 63:0.0040581231 66:0.01217437 72:0.0040581231 82:0.01217437 94:0.0033055483 104:0.0040581231 112:0.0040581231 116:0.0033055483 124:0.0040581231 152:0.0040581231 163:0.0033055483 183:0.0040581231 198:0.0081162462 199:0.0057306401 200:0.0040581231 201:0.0040581231 204:0.016232492 207:0.0081162462 217:0.0040581231 230:0.0040581231 244:0.0033055483 256:0.0040581231 260:0.0033055483 264:0.0040581231 278:0.0040581231 279:0.0040581231 287:0.0023106982 303:0.0040581231 306:0.0040581231 321:0.0040581231 330:0.0019453781 346:0.0040581231 362:0.0081162462 372:0.0081162462 387:0.0081162462 391:0.0040581231 396:0.0033055483 406:0.0040581231 408:0.0040581231 409:0.0040581231 434:0.0081162462 438:0.0023106982 441:0.0040581231 449:0.0040581231 451:0.0081162462 470:0.0040581231 479:0.01217437 497:0.0019453781 502:0.0033055483 511:0.01217437 519:0.0081162462 525:0.0040581231 527:0.0040581231 537:0.0040581231 577:0.0040581231 578:0.0040581231 583:0.01217437 586:0.0040581231 604:0.0033055483 605:0.002966502 610:0.01217437 615:0.0040581231 633:0.0040581231 642:0.0081162462 648:0.01217437 654:0.0040581231 657:0.0033055483 673:0.0040581231 #
-56.048621811011400950519600883126 2:0.006037531 7:0.0074120974 11:0.006037531 14:0.0015730397 20:0.0049686581 21:0.0015730397 37:0.0015730397 42:0.0019138325 46:0.0015730397 53:0.0015730397 56:0.0074120974 65:0.0021786359 69:0.0015730397 76:0.0015730397 81:0.02964839 87:0.014824195 91:0.0038588953 96:0.001793609 97:0.0013745662 103:0.012075062 117:0.0003615582 129:0.0015730397 131:0.0015730397 132:0.0077177905 134:0.0015730397 146:0.0011941619 147:0.014824195 149:0.0015730397 153:0.004662965 176:0.0019138325 191:0.0023883239 195:0.0031460794 205:0.0074120974 208:0.0015730397 213:0.0047191191 216:0.001793609 227:0.0015730397 233:0.001471321 234:0.022236291 239:0.0074120974 243:0.0015730397 247:0.0074120974 253:0.006037531 262:0.0074120974 263:0.0035532021 273:0.010466923 280:0.0071064043 281:0.0015730397 283:0.0074120974 289:0.006037531 296:0.001471321 297:0.0032883987 312:0.014824195 314:0.0074120974 315:0.0021786359 317:0.014824195 331:0.0015730397 334:0.0019138325 361:0.0031460794 370:0.0074120974 371:0.014824195 373:0.0015730397 375:0.001471321 377:0.014824195 383:0.0074120974 405:0.0015730397 411:0.0031460794 414:0.0074120974 426:0.006037531 431:0.0015730397 432:0.0015730397 438:0.0042204536 442:0.0015730397 444:0.0015730397 445:0.0074120974 446:0.0021786359 453:0.0015730397 457:0.0015730397 461:0.0044139628 463:0.0015730397 465:0.0031460794 468:0.0035532021 469:0.0015730397 491:0.006037531 493:0.0074120974 499:0.0015730397 501:0.006037531 506:0.0062921587 518:0.0015730397 520:0.0074120974 530:0.0011097628 538:0.007356605 554:0.0015730397 557:0.0023255979 563:0.0015730397 575:0.004662965 580:0.0030548256 584:0.0021786359 585:0.0015730397 593:0.0015730397 605:0.0010643027 609:0.0015730397 611:0.0074120974 622:0.0052334615 632:0.0021786359 640:0.0025646265 652:0.0015730397 656:0.0015730397 658:0.011576685 660:0.0015730397 661:0.0015730397 663:0.0021786359 671:0.0015730397 677:0.0019138325 678:0.0015730397 #
112.76158263010643167945090681314 117:0.0087979166 605:0.0023543665 #
-25.012869307216927694526020786725 14:0.0013724928 20:0.0021676018 21:0.0013724928 37:0.0013724928 38:0.0064671286 42:0.0016698379 46:0.0013724928 53:0.0013724928 65:0.0019008815 69:0.0013724928 76:0.0013724928 96:0.0015649417 97:0.0011993226 117:0.00031546314 118:0.0064671286 129:0.0013724928 131:0.0013724928 134:0.0013724928 137:0.0064671286 146:0.0010419182 149:0.0013724928 153:0.0040684831 168:0.036874641 191:0.0020838364 195:0.0027449855 208:0.0013724928 213:0.0041174782 216:0.004694825 227:0.0013724928 233:0.0012837423 243:0.0013724928 248:0.0064671286 263:0.0093006128 274:0.0052678059 280:0.0062004086 281:0.0013724928 289:0.0052678059 296:0.0012837423 297:0.0028691606 315:0.0019008815 326:0.025868515 331:0.0013724928 334:0.0050095138 357:0.012934257 358:0.0064671286 361:0.0027449855 367:0.013467697 373:0.0013724928 375:0.0012837423 384:0.0040684831 388:0.0064671286 395:0.0052678059 398:0.0052678059 405:0.0013724928 411:0.0027449855 417:0.0064671286 418:0.0064671286 431:0.0013724928 432:0.0013724928 433:0.0036823875 442:0.0013724928 444:0.0013724928 446:0.0019008815 453:0.0013724928 457:0.0013724928 458:0.0091324942 461:0.0038512265 463:0.0013724928 465:0.0027449855 466:0.0064671286 469:0.0013724928 489:0.0045662471 499:0.0013724928 505:0.0064671286 506:0.0068624639 517:0.0062004086 518:0.0013724928 530:0.00096827908 538:0.006418711 554:0.0013724928 557:0.0020291074 562:0.0091324942 563:0.0013724928 564:0.0052678059 572:0.0064671286 574:0.0073647751 575:0.0040684831 580:0.0026653656 584:0.0019008815 585:0.0013724928 593:0.0013724928 597:0.0045662471 601:0.010535612 605:0.0014351318 609:0.0013724928 625:0.0091324942 629:0.0064671286 632:0.0019008815 636:0.010535612 640:0.0022376622 645:0.0064671286 652:0.0013724928 653:0.0052678059 656:0.0013724928 658:0.0033669244 660:0.0013724928 661:0.0013724928 663:0.0019008815 671:0.0013724928 677:0.0016698379 678:0.0013724928 #
112.76158263010643167945090681314 117:0.0087979166 605:0.0023543665 #
-78.523615767692533040644775610417 2:0.0090562962 14:0.0023595595 21:0.0023595595 37:0.0023595595 45:0.011118146 46:0.0023595595 53:0.0023595595 69:0.0023595595 76:0.0023595595 93:0.0042688306 97:0.0020618492 110:0.0069944472 111:0.015700385 117:0.00054233731 119:0.0090562962 129:0.0023595595 131:0.0023595595 134:0.0023595595 146:0.0017912429 149:0.0023595595 160:0.0069944472 176:0.0057414975 190:0.011118146 195:0.0047191191 208:0.0023595595 213:0.0070786783 216:0.0026904135 227:0.0023595595 228:0.022236291 233:0.0022069814 243:0.0023595595 251:0.0057883426 263:0.0053298031 272:0.0069944472 281:0.0023595595 296:0.0022069814 301:0.011118146 331:0.0023595595 334:0.0028707488 349:0.011118146 361:0.0047191191 367:0.0057883426 373:0.0023595595 375:0.0022069814 405:0.0023595595 411:0.0047191191 422:0.0090562962 431:0.0023595595 432:0.0023595595 442:0.0023595595 444:0.0023595595 453:0.0023595595 455:0.0069944472 457:0.0023595595 461:0.0066209445 463:0.0023595595 465:0.0047191191 468:0.0053298031 469:0.0023595595 480:0.0049325977 499:0.0023595595 506:0.0023595595 518:0.0023595595 530:0.0016646442 538:0.011034908 554:0.0023595595 563:0.0023595595 573:0.0090562962 585:0.0023595595 593:0.0023595595 605:0.0010159253 609:0.0023595595 640:0.0038469399 643:0.0042688306 652:0.0023595595 656:0.0023595595 658:0.0057883426 660:0.0023595595 661:0.0023595595 671:0.0023595595 678:0.0023595595 #
-39.826360276675160321246949024498 11:0.0082638701 13:0.010145308 14:0.0021530981 20:0.0034004252 21:0.0021530981 37:0.0021530981 46:0.0021530981 53:0.0021530981 69:0.0021530981 76:0.0021530981 83:0.010145308 93:0.0038953081 97:0.0018814375 103:0.0082638701 111:0.0071633002 117:0.00049488281 129:0.0021530981 131:0.0021530981 134:0.0021530981 146:0.0016345091 149:0.0021530981 153:0.0063824332 166:0.010145308 176:0.007858675 195:0.0043061962 208:0.0021530981 211:0.010145308 213:0.0064592944 216:0.0024550024 224:0.010145308 227:0.0021530981 233:0.0020138705 243:0.0021530981 249:0.040581234 281:0.0021530981 296:0.0020138705 331:0.0021530981 334:0.0026195582 361:0.0043061962 367:0.0052818628 373:0.0021530981 375:0.0020138705 405:0.0021530981 411:0.0043061962 426:0.0082638701 431:0.0021530981 432:0.0021530981 438:0.0057767457 442:0.0021530981 444:0.0021530981 448:0.010145308 453:0.0021530981 457:0.0021530981 458:0.0071633002 461:0.0060416115 463:0.0021530981 465:0.0043061962 468:0.0097268904 469:0.0021530981 478:0.010145308 480:0.0045009959 489:0.0071633002 491:0.0082638701 499:0.0021530981 501:0.0082638701 506:0.0021530981 516:0.020290617 518:0.0021530981 530:0.0015189878 538:0.010069353 554:0.0021530981 557:0.0031831621 562:0.0071633002 563:0.0021530981 573:0.0082638701 575:0.0063824332 585:0.0021530981 593:0.0021530981 605:0.001059465 609:0.0021530981 640:0.0035103327 652:0.0021530981 656:0.0021530981 660:0.0021530981 661:0.0021530981 671:0.0021530981 678:0.0021530981 #
-71.958838256152247936370258685201 14:0.0011369495 20:0.0017956041 21:0.0011369495 25:0.0053572585 28:0.0053572585 37:0.0011369495 42:0.001383265 46:0.0011369495 52:0.0053572585 53:0.0011369495 65:0.0015746576 69:0.0011369495 76:0.0011369495 91:0.0027891025 93:0.0020569284 95:0.0053572585 96:0.0012963709 97:0.00099349837 106:0.0043637599 110:0.0067405235 115:0.0053572585 117:0.00026132425 125:0.0037826009 129:0.0011369495 131:0.0011369495 132:0.0083673075 134:0.0011369495 136:0.01745504 146:0.0008631071 149:0.0011369495 156:0.0043637599 160:0.0033702618 174:0.0087275198 176:0.001383265 191:0.0017262142 195:0.002273899 197:0.010714517 208:0.0011369495 210:0.0067405235 213:0.0034108483 216:0.0025927417 218:0.0087275198 225:0.0037826009 227:0.0011369495 233:0.00106343 243:0.0011369495 263:0.002568156 269:0.0053572585 272:0.0033702618 275:0.0053572585 280:0.007704468 281:0.0011369495 284:0.0053572585 285:0.0053572585 296:0.00106343 297:0.0071302899 302:0.0053572585 308:0.0043637599 315:0.0015746576 316:0.0043637599 322:0.0053572585 331:0.0011369495 334:0.00276653 339:0.0053572585 359:0.0053572585 361:0.002273899 367:0.01115641 369:0.0053572585 373:0.0011369495 375:0.00106343 376:0.0053572585 379:0.0053572585 384:0.010110785 385:0.01745504 393:0.0043637599 402:0.0053572585 405:0.0011369495 411:0.002273899 431:0.0011369495 432:0.0011369495 442:0.0011369495 444:0.0011369495 446:0.0015746576 453:0.0011369495 455:0.0033702618 456:0.010714517 457:0.0011369495 461:0.0031902899 462:0.005578205 463:0.0011369495 465:0.002273899 468:0.005136312 469:0.0011369495 475:0.0053572585 488:0.010714517 498:0.0053572585 499:0.0011369495 506:0.0011369495 507:0.0053572585 512:0.0053572585 517:0.020545248 518:0.0011369495 523:0.010714517 530:0.00080210576 538:0.0053171501 544:0.0053572585 554:0.0011369495 557:0.0033617553 560:0.0053572585 561:0.0053572585 563:0.0011369495 565:0.0087275198 574:0.0030504267 584:0.0015746576 585:0.0011369495 593:0.0011369495 594:0.0087275198 596:0.0053572585 597:0.011347802 600:0.0053572585 605:0.0011888385 609:0.0011369495 619:0.0091512799 625:0.0037826009 626:0.0053572585 632:0.0015746576 640:0.001853641 643:0.016455427 644:0.01309128 646:0.0053572585 652:0.0011369495 653:0.0043637599 656:0.0011369495 658:0.0083673075 660:0.0011369495 661:0.0011369495 663:0.0015746576 671:0.0011369495 677:0.001383265 678:0.0011369495 679:0.0053572585 680:0.0043637599 #
77.870121897648473918707168195397 77:0.028986594 176:0.0074844519 181:0.023611059 206:0.028986594 232:0.028986594 241:0.028986594 270:0.028986594 297:0.012859988 323:0.028986594 330:0.013895558 341:0.028986594 363:0.020466572 368:0.028986594 399:0.023611059 421:0.028986594 427:0.028986594 429:0.028986594 468:0.013895558 497:0.013895558 541:0.028986594 557:0.0090947486 605:0.001135141 643:0.022258904 669:0.028986594 #
48.882414471003144740279822144657 42:0.010222666 62:0.027954342 85:0.03224925 96:0.019160993 117:0.0019312499 123:0.064498499 146:0.006378572 191:0.006378572 267:0.064498499 309:0.027954342 343:0.027954342 480:0.017564861 494:0.03224925 530:0.0059277574 535:0.03224925 605:0.0005168122 641:0.045086794 647:0.03224925 650:0.064498499 #
112.76158263010643167945090681314 8:0.0121138 17:0.0121138 29:0.0121138 41:0.0121138 94:0.019734615 102:0.0121138 109:0.0121138 116:0.019734615 155:0.0076208157 157:0.0121138 163:0.019734615 199:0.017106388 242:0.0121138 244:0.019734615 260:0.0098673077 287:0.013795213 330:0.0058070989 345:0.0121138 382:0.0121138 392:0.0121138 396:0.0098673077 438:0.0068976064 452:0.0098673077 455:0.015241631 464:0.0121138 471:0.0063067018 474:0.0121138 483:0.0121138 497:0.0058070989 502:0.0098673077 533:0.0121138 550:0.0121138 559:0.0121138 571:0.0121138 580:0.004992588 582:0.0121138 604:0.019734615 605:0.0026881946 628:0.0121138 635:0.0121138 643:0.0093022278 649:0.0121138 651:0.0121138 657:0.019734615 #
74.772641287244084651320008561015 6:0.022862665 20:0.01532586 27:0.022862665 39:0.022862665 54:0.022862665 78:0.022862665 86:0.022862665 99:0.022862665 142:0.022862665 155:0.014382948 165:0.022862665 176:0.011806459 181:0.018622806 185:0.022862665 215:0.022862665 223:0.022862665 273:0.016142648 330:0.010959877 340:0.022862665 356:0.01190279 363:0.016142648 389:0.022862665 471:0.023805579 497:0.010959877 506:0.014556156 521:0.022862665 542:0.022862665 551:0.022862665 553:0.014382948 557:0.0071733231 592:0.022862665 605:0.0011937633 608:0.022862665 618:0.022862665 #
24.171911724672369814470584969968 89:0.063673779 117:0.0043989583 150:0.090180516 191:0.014528969 386:0.07345663 476:0.090180516 531:0.04694989 547:0.090180516 605:0.0011771832 #
41.052112073235456080055882921442 62:0.067419298 117:0.0046577202 191:0.03076723 344:0.067419298 531:0.049711648 587:0.095485255 605:0.0012464294 #
19.013256616822371114494671928696 32:0.05072654 43:0.05072654 50:0.05072654 92:0.041319352 107:0.05072654 117:0.002474414 144:0.05072654 191:0.016345091 309:0.035816502 344:0.035816502 386:0.041319352 407:0.05072654 435:0.05072654 485:0.05072654 531:0.026409313 569:0.05072654 605:0.00066216558 617:0.05072654 641:0.028883727 662:0.041319352 #
29.932520370976273937912992550991 47:0.046378553 73:0.037777696 100:0.046378553 117:0.0022623213 145:0.046378553 175:0.032746516 277:0.046378553 310:0.046378553 313:0.046378553 356:0.024145659 412:0.046378553 416:0.046378553 462:0.024145659 477:0.046378553 481:0.029176837 506:0.0098427339 534:0.046378553 557:0.014551599 591:0.037777696 605:0.0012108171 664:0.046378553 666:0.037777696 #
19.307211395151060884245453053154 330:0.11116447 497:0.11116447 #
-112.76158263010643167945090681314 14:0.002514567 21:0.002514567 37:0.002514567 42:0.0030593381 46:0.002514567 53:0.002514567 65:0.003482637 69:0.002514567 76:0.002514567 96:0.0028671559 97:0.0021972992 117:0.00057796529 129:0.002514567 131:0.002514567 134:0.002514567 146:0.0019089157 149:0.002514567 176:0.0030593381 191:0.0038178314 192:0.011848535 195:0.005029134 208:0.002514567 213:0.0075437012 216:0.0028671559 227:0.002514567 233:0.0023519658 243:0.002514567 273:0.0083658984 281:0.002514567 296:0.0023519658 315:0.003482637 331:0.002514567 334:0.0030593381 361:0.005029134 373:0.002514567 375:0.0023519658 405:0.002514567 411:0.005029134 431:0.002514567 432:0.002514567 433:0.0067465641 442:0.002514567 444:0.002514567 446:0.003482637 453:0.002514567 457:0.002514567 461:0.0070558968 463:0.002514567 465:0.005029134 469:0.002514567 484:0.011848535 499:0.002514567 506:0.002514567 518:0.002514567 530:0.0017740004 538:0.011759828 552:0.011848535 554:0.002514567 563:0.002514567 584:0.003482637 585:0.002514567 593:0.002514567 605:0.00077333208 609:0.002514567 619:0.0067465641 630:0.011848535 632:0.003482637 640:0.0040996587 652:0.002514567 656:0.002514567 660:0.002514567 661:0.002514567 663:0.003482637 671:0.002514567 677:0.0030593381 678:0.002514567 #
-77.882667404202521765910205431283 14:0.0023595595 20:0.0037264936 21:0.0023595595 37:0.0023595595 42:0.0028707488 46:0.0023595595 53:0.0023595595 65:0.0032679539 67:0.011118146 69:0.0023595595 76:0.0023595595 96:0.0026904135 97:0.0020618492 117:0.00054233731 121:0.0090562962 129:0.0023595595 131:0.0023595595 134:0.0023595595 146:0.0017912429 149:0.0023595595 158:0.011118146 191:0.0035824857 195:0.0047191191 208:0.0023595595 213:0.0070786783 214:0.011118146 216:0.0026904135 225:0.0078501925 227:0.0023595595 233:0.0022069814 243:0.0023595595 252:0.011118146 280:0.0053298031 281:0.0023595595 296:0.0022069814 315:0.0032679539 331:0.0023595595 334:0.0028707488 361:0.0047191191 373:0.0023595595 375:0.0022069814 381:0.011118146 384:0.0069944472 398:0.0090562962 405:0.0023595595 411:0.0047191191 431:0.0023595595 432:0.0023595595 433:0.0063306801 442:0.0023595595 444:0.0023595595 446:0.0032679539 453:0.0023595595 457:0.0023595595 461:0.0066209445 463:0.0023595595 465:0.0047191191 469:0.0023595595 499:0.0023595595 506:0.0047191191 518:0.0023595595 530:0.0016646442 538:0.011034908 554:0.0023595595 563:0.0023595595 584:0.0032679539 585:0.0023595595 593:0.0023595595 605:0.00087079313 609:0.0023595595 632:0.0032679539 639:0.011118146 640:0.0038469399 652:0.0023595595 656:0.0023595595 660:0.0023595595 661:0.0023595595 663:0.0032679539 665:0.011118146 671:0.0023595595 677:0.0028707488 678:0.0023595595 #
-53.299749265528951980286365142092 14:0.0027781911 21:0.0027781911 37:0.0027781911 46:0.0027781911 53:0.0027781911 69:0.0027781911 76:0.0027781911 97:0.0024276613 117:0.00063855841 129:0.0027781911 131:0.0027781911 134:0.0027781911 146:0.002109044 149:0.0027781911 167:0.010663059 195:0.0055563822 208:0.0027781911 213:0.0083345734 216:0.003167745 227:0.0027781911 233:0.0025985427 243:0.0027781911 281:0.0027781911 296:0.0025985427 331:0.0027781911 334:0.0033800751 361:0.0055563822 373:0.0027781911 375:0.0025985427 405:0.0027781911 411:0.0055563822 428:0.01309072 431:0.0027781911 432:0.0027781911 440:0.01309072 442:0.0027781911 444:0.0027781911 453:0.0027781911 457:0.0027781911 461:0.0077956282 463:0.0027781911 465:0.0055563822 467:0.01309072 469:0.0027781911 480:0.0058077364 499:0.0027781911 506:0.0027781911 518:0.0027781911 526:0.010663059 530:0.0019599842 538:0.012992714 554:0.0027781911 563:0.0027781911 574:0.0074538654 585:0.0027781911 589:0.01309072 593:0.0027781911 603:0.01309072 605:0.0008544072 609:0.0027781911 619:0.0074538654 640:0.0045294613 643:0.005026204 652:0.0027781911 655:0.01309072 656:0.0027781911 660:0.0027781911 661:0.0027781911 671:0.0027781911 678:0.0027781911 #
-53.101428971318306082594062900171 14:0.0024963457 20:0.0039425222 21:0.0024963457 37:0.0024963457 42:0.0030371689 46:0.0024963457 53:0.0024963457 65:0.0034574005 69:0.0024963457 76:0.0024963457 96:0.0028463795 97:0.0021813768 117:0.00057377713 129:0.0024963457 131:0.0024963457 134:0.0024963457 146:0.001895083 149:0.0024963457 162:0.011762676 176:0.0060743378 191:0.003790166 195:0.0049926913 208:0.0024963457 213:0.0074890368 216:0.0028463795 227:0.0024963457 233:0.0023349223 243:0.0024963457 251:0.006123899 276:0.0095812995 281:0.0024963457 296:0.0023349223 315:0.0034574005 331:0.0024963457 334:0.0030371689 361:0.0049926913 373:0.0024963457 375:0.0023349223 394:0.011762676 405:0.0024963457 411:0.0049926913 431:0.0024963457 432:0.0024963457 442:0.0024963457 444:0.0024963457 446:0.0034574005 453:0.0024963457 457:0.0024963457 461:0.0070047672 463:0.0024963457 465:0.0049926913 469:0.0024963457 499:0.0024963457 517:0.0056387773 518:0.0024963457 530:0.0017611453 538:0.011674612 545:0.011762676 554:0.0024963457 563:0.0024963457 584:0.0034574005 585:0.0024963457 590:0.0095812995 593:0.0024963457 605:0.00076772826 607:0.011762676 609:0.0024963457 619:0.0066976761 632:0.0034574005 640:0.0040699509 652:0.0024963457 656:0.0024963457 660:0.0024963457 661:0.0024963457 663:0.0034574005 671:0.0024963457 677:0.0030371689 678:0.0024963457 #
13.392024574187969321314994886052 117:0.0037705356 151:0.048628062 155:0.048628062 178:0.062962823 246:0.062962823 287:0.044013299 335:0.062962823 504:0.062962823 515:0.077297583 570:0.062962823 605:0.0010090142 672:0.077297583 #
67.340232093732666385221818927675 3:0.020987608 42:0.013305692 68:0.025765862 89:0.018192509 90:0.020987608 93:0.0098928455 117:0.0012568452 141:0.036385018 146:0.0041511343 175:0.018192509 177:0.020987608 191:0.0083022686 237:0.020987608 286:0.020987608 329:0.020987608 343:0.018192509 356:0.026828509 374:0.020987608 436:0.018192509 481:0.016209355 524:0.018192509 530:0.0038577467 599:0.020987608 605:0.0013453523 624:0.020987608 643:0.019785691 677:0.006652846 681:0.041975215 #
-94.118471073458778164422255940735 14:0.0018521274 20:0.002925097 21:0.0018521274 37:0.0018521274 42:0.0022533834 46:0.0018521274 53:0.0018521274 65:0.0025651681 69:0.0018521274 76:0.0018521274 96:0.0021118301 97:0.0016184408 114:0.0087271463 117:0.00042570563 129:0.0018521274 131:0.0018521274 134:0.0018521274 146:0.0014060293 149:0.0018521274 153:0.0054902649 161:0.0087271463 168:0.014217412 174:0.007108706 191:0.0028120587 193:0.0087271463 195:0.0037042547 208:0.0018521274 213:0.0055563822 216:0.0042236601 227:0.0018521274 233:0.0017323619 243:0.0018521274 258:0.0087271463 263:0.0083672181 274:0.007108706 281:0.0018521274 296:0.0017323619 315:0.0025651681 331:0.0018521274 334:0.0045067668 361:0.0037042547 367:0.0090870755 373:0.0018521274 375:0.0017323619 395:0.007108706 405:0.0018521274 411:0.0037042547 431:0.0018521274 432:0.0018521274 433:0.0049692434 442:0.0018521274 444:0.0018521274 446:0.0025651681 453:0.0018521274 457:0.0018521274 458:0.012323957 461:0.0051970854 463:0.0018521274 465:0.0037042547 469:0.0018521274 489:0.0061619785 499:0.0018521274 506:0.0037042547 518:0.0018521274 530:0.0013066562 538:0.0086618094 554:0.0018521274 557:0.0054764077 562:0.012323957 563:0.0018521274 564:0.007108706 575:0.0054902649 580:0.0035968106 584:0.0025651681 585:0.0018521274 593:0.0018521274 601:0.014217412 605:0.0012531306 609:0.0018521274 625:0.012323957 632:0.0025651681 640:0.0030196409 652:0.0018521274 656:0.0018521274 660:0.0018521274 661:0.0018521274 663:0.0025651681 671:0.0018521274 677:0.0022533834 678:0.0018521274 #
-19.875962704430737204575052601285 14:0.0029444075 21:0.0029444075 37:0.0029444075 42:0.0035823018 46:0.0029444075 53:0.0029444075 65:0.0040779593 69:0.0029444075 76:0.0029444075 96:0.0033572682 97:0.002572906 117:0.00067676278 129:0.0029444075 131:0.0029444075 134:0.0029444075 146:0.0022352261 149:0.0029444075 191:0.0044704522 195:0.005888815 208:0.0029444075 213:0.008833223 227:0.0029444075 233:0.002754011 243:0.0029444075 281:0.0029444075 290:0.013873925 296:0.002754011 315:0.0040779593 331:0.0029444075 361:0.005888815 373:0.0029444075 375:0.002754011 405:0.0029444075 411:0.005888815 415:0.013873925 431:0.0029444075 432:0.0029444075 442:0.0029444075 444:0.0029444075 446:0.0040779593 453:0.0029444075 457:0.0029444075 461:0.0082620336 463:0.0029444075 465:0.005888815 469:0.0029444075 482:0.013873925 499:0.0029444075 518:0.0029444075 530:0.0020772482 538:0.013770055 554:0.0029444075 563:0.0029444075 584:0.0040779593 585:0.0029444075 593:0.0029444075 605:0.00036221024 609:0.0029444075 632:0.0040779593 640:0.0048004547 652:0.0029444075 656:0.0029444075 660:0.0029444075 661:0.0029444075 663:0.0040779593 671:0.0029444075 677:0.0035823018 678:0.0029444075 #
