SVM-light Version V6.02
0 # kernel type
3 # kernel parameter -d 
1 # kernel parameter -g 
1 # kernel parameter -s 
1 # kernel parameter -r 
empty# kernel parameter -u 
162 # highest feature index 
20 # number of training documents 
20 # number of support vectors plus 1 
0.77787965 # threshold b, each following line is a SV (starting with alpha*y)
-37.974090432853117249578644987196 24:0.020833334 30:0.0046218489 33:0.027104791 57:0.010893308 61:0.001470439 71:0.020833334 81:0.014561875 87:0.0026028904 89:0.012542916 111:0.03432953 113:0.0026028904 115:0.010893308 125:0.0020189586 133:0.012542916 134:0.0096813729 138:0.00046409154 144:0.027104791 154:0.0058817561 159:0.0040379171 #
-22.258412408151244221699016634375 15:0.015873017 25:0.0029696294 30:0.0035214087 39:0.015873017 61:0.0011203345 62:0.0059494637 73:0.0039663091 77:0.0072370153 83:0.031746034 85:0.015873017 87:0.0019831546 99:0.0082996627 107:0.0029696294 113:0.0019831546 114:0.0082424544 123:0.0047782538 125:0.0015382542 134:0.0049175224 138:0.00035359355 154:0.0033610035 159:0.0061530168 #
-9.2401677885030295556134660728276 8:0.029850746 18:0.0078041605 25:0.0027923379 29:0.019418359 30:0.0033111754 57:0.0078041605 61:0.0021068978 62:0.0074590291 73:0.0018647573 77:0.0068049547 87:0.0018647573 91:0.012297145 99:0.0078041605 107:0.0027923379 113:0.0018647573 114:0.011625552 116:0.014925373 123:0.0044929851 124:0.014925373 125:0.0014464181 127:0.0033111754 134:0.0023119696 138:0.0003324835 154:0.0021068978 159:0.0057856725 #
-201.8357797864153724276548018679 25:0.0027512743 30:0.0065249633 61:0.0020759141 62:0.0073493375 73:0.0018373344 77:0.0067048818 87:0.0018373344 91:0.012116305 99:0.0076893931 104:0.013280735 107:0.0027512743 113:0.0018373344 114:0.011454587 123:0.0044269115 125:0.0042754416 134:0.0022779701 138:0.00032759405 143:0.0067048818 154:0.0041518281 159:0.0057005892 #
-9.1843095618464420937243630760349 25:0.004563089 61:0.0017214896 69:0.029368781 73:0.0030472863 84:0.073170729 86:0.06346488 87:0.0030472863 89:0.01468439 94:0.0073421951 104:0.0073421951 121:0.020095335 127:0.01082189 133:0.01468439 136:0.0084582316 138:0.00054332672 142:0.06346488 154:0.0017214896 #
201.8357797864153724276548018679 3:0.046597999 100:0.06666667 104:0.020068666 127:0.014789917 138:0.001485093 #
201.8357797864153724276548018679 3:0.012943889 6:0.018518519 12:0.018518519 41:0.024093147 56:0.048186295 61:0.001307057 62:0.0023136802 73:0.0023136802 77:0.0084431842 89:0.011149259 90:0.037037037 94:0.0055746296 99:0.0096829394 104:0.0055746296 113:0.0023136802 118:0.018518519 125:0.0017946298 131:0.018518519 134:0.0057371096 135:0.018518519 138:0.00041252584 149:0.0096829394 154:0.0065352847 159:0.0035892597 #
36.656919978832483764108474133536 14:0.044863105 52:0.17945242 58:0.044863105 66:0.034482758 68:0.044863105 101:0.044863105 112:0.044863105 115:0.018030301 121:0.028410647 157:0.044863105 #
201.8357797864153724276548018679 2:0.0057314099 3:0.0030791629 7:0.0057314099 9:0.0057314099 10:0.01146282 13:0.0057314099 16:0.01146282 17:0.0057314099 18:0.0046068612 20:0.01146282 21:0.0057314099 22:0.0088105723 24:0.0044052862 25:0.0016483405 27:0.01146282 28:0.01146282 30:0.00097730733 31:0.0057314099 36:0.0088105723 37:0.017194228 40:0.0057314099 42:0.0057314099 44:0.017194228 45:0.0057314099 47:0.0057314099 49:0.0057314099 50:0.0057314099 51:0.0057314099 53:0.0057314099 54:0.0057314099 55:0.0057314099 57:0.0023034306 59:0.045851279 60:0.0057314099 61:0.00093278952 62:0.0011007818 63:0.030837005 64:0.0057314099 66:0.0088105723 67:0.0057314099 69:0.010608987 73:0.0011007818 74:0.0057314099 75:0.0057314099 79:0.0057314099 89:0.0053044935 92:0.0057314099 98:0.0057314099 102:0.0088105723 104:0.0053044935 105:0.0057314099 106:0.01146282 107:0.0016483405 108:0.0088105723 113:0.00055039092 114:0.0011437767 115:0.0023034306 116:0.0044052862 117:0.0057314099 120:0.0057314099 121:0.0036295538 122:0.014518215 125:0.0029884146 126:0.0020085108 127:0.0039092293 132:0.0057314099 136:0.0015276981 137:0.0057314099 138:9.8133896e-05 140:0.01146282 147:0.0044052862 149:0.0092137223 152:0.0057314099 154:0.0015546492 155:0.0057314099 158:0.01146282 159:0.0055499128 160:0.0057314099 #
134.82863095943432085732638370246 3:0.0078535955 5:0.014618315 6:0.011235955 12:0.011235955 32:0.014618315 34:0.02923663 35:0.014618315 38:0.0092574013 43:0.014618315 46:0.02923663 61:0.00079304579 62:0.001403806 63:0.02247191 70:0.014618315 72:0.014618315 73:0.001403806 77:0.0051228311 88:0.014618315 89:0.0067647188 90:0.033707865 94:0.0033823594 95:0.014618315 104:0.0067647188 107:0.0042041941 113:0.001403806 118:0.011235955 122:0.0092574013 125:0.002177753 128:0.02923663 131:0.011235955 134:0.0052214144 138:0.00025029658 145:0.02923663 147:0.011235955 150:0.014618315 154:0.0039652288 159:0.002177753 162:0.014618315 #
-74.697137254932854943945130798966 38:0.016814465 48:0.026551632 61:0.0014404301 62:0.0025497701 69:0.024573877 71:0.020408163 73:0.0025497701 84:0.020408163 87:0.0025497701 100:0.020408163 103:0.053103264 104:0.012286939 125:0.0019777555 133:0.012286939 135:0.040816326 138:0.00045462031 154:0.0028808601 159:0.0079110218 161:0.026551632 #
-18.98560218288034207034797873348 4:0.03826559 25:0.0055025485 69:0.053122941 87:0.0036746687 104:0.0088538229 127:0.013049927 138:0.00065518811 139:0.03826559 148:0.076531179 159:0.0085508833 #
-97.640977864494175264553632587194 11:0.014492754 25:0.0027114006 30:0.0032151993 61:0.0020458282 62:0.0072428253 65:0.0075779529 73:0.0018107063 87:0.0018107063 94:0.0043627536 97:0.014492754 104:0.013088261 107:0.0027114006 113:0.0018107063 114:0.0075257192 123:0.0043627536 125:0.0042134789 126:0.0066077095 127:0.0032151993 133:0.0087255072 134:0.0022449559 136:0.0050259056 138:0.00032284629 143:0.0066077095 153:0.0075779529 154:0.0040916563 159:0.001404493 #
-29.825715771614142113321577198803 8:0.019607844 18:0.0051262621 19:0.012755196 22:0.0098039219 30:0.0021749877 36:0.0098039219 38:0.016155073 61:0.0027678853 62:0.0024497791 69:0.011805098 73:0.0024497791 76:0.012755196 77:0.0044699213 80:0.025510391 82:0.025510391 87:0.0012248895 93:0.012755196 94:0.0088538229 96:0.019607844 99:0.0051262621 102:0.0098039219 104:0.0029512744 107:0.0036683655 111:0.016155073 113:0.0012248895 114:0.0025454639 119:0.051020782 122:0.0080775367 125:0.0047504907 126:0.0089398427 127:0.0043499754 130:0.012755196 134:0.0015186467 136:0.0033998773 138:0.00021839603 141:0.012755196 153:0.010252524 154:0.0041518281 #
-20.992090519081017419011914171278 18:0.0052287877 25:0.0018708664 26:0.0082390876 30:0.0022184874 57:0.0052287877 61:0.0021174322 62:0.0049975496 65:0.0052287877 73:0.0024987748 81:0.013979401 87:0.0012493874 94:0.0030103 96:0.0099999998 107:0.0018708664 109:0.0082390876 110:0.013979401 113:0.0024987748 114:0.010385493 115:0.0052287877 123:0.0030103 125:0.0038764004 126:0.0045593195 127:0.0066554626 129:0.0082390876 134:0.0030980392 136:0.0034678748 138:0.00022276395 143:0.0045593195 146:0.0069897003 149:0.0052287877 153:0.0052287877 154:0.0035290536 156:0.0082390876 159:0.0048455005 #
-46.614170329797545377914502751082 25:0.0039805667 61:0.0015017249 62:0.0079748128 65:0.011125079 73:0.002658271 87:0.002658271 94:0.0064048935 107:0.0039805667 113:0.002658271 114:0.016572595 123:0.0064048935 125:0.0041238302 127:0.0094403727 133:0.012809787 134:0.0032957864 136:0.0073784571 138:0.00047396583 143:0.0097006802 149:0.011125079 154:0.0030034499 159:0.0020619151 #
-65.682594325254697764648881275207 18:0.0052287877 25:0.0018708664 26:0.0082390876 30:0.0022184874 57:0.0052287877 61:0.0021174322 62:0.0049975496 65:0.0052287877 73:0.0024987748 81:0.013979401 87:0.0012493874 94:0.0030103 107:0.0018708664 109:0.0082390876 110:0.013979401 113:0.0024987748 114:0.010385493 115:0.0052287877 123:0.0030103 124:0.0099999998 125:0.0038764004 126:0.0045593195 127:0.0066554626 129:0.0082390876 134:0.0030980392 136:0.0034678748 138:0.00022276395 143:0.0045593195 146:0.0069897003 149:0.0052287877 153:0.0052287877 154:0.0035290536 156:0.0082390876 159:0.0048455005 #
-101.13518977503674989293358521536 25:0.0034015754 30:0.0040336135 61:0.0012832923 62:0.0090864534 77:0.0082896715 87:0.0022716133 91:0.014980159 99:0.0095068859 107:0.0034015754 113:0.0022716133 114:0.0047206786 123:0.0054732729 125:0.0035240005 134:0.0084491977 138:0.00040502535 143:0.0082896715 154:0.0038498768 159:0.0052860007 #
-40.926652296650956941448384895921 15:0.011764706 23:0.015306235 25:0.0022010193 30:0.0026099852 39:0.011764706 61:0.0016607312 62:0.0058794701 65:0.0061515146 73:0.0044096024 83:0.023529412 85:0.011764706 87:0.0014698675 94:0.0035415294 97:0.011764706 107:0.0022010193 108:0.011764706 110:0.0082231769 113:0.0029397351 123:0.0035415294 125:0.0022802355 126:0.010727811 127:0.0026099852 134:0.0036447521 136:0.0040798527 138:0.00026207522 146:0.016446354 153:0.0061515146 154:0.0024910967 159:0.004560471 #
