SVM-light Version V6.02
0 # kernel type
3 # kernel parameter -d 
1 # kernel parameter -g 
1 # kernel parameter -s 
1 # kernel parameter -r 
empty# kernel parameter -u 
8851 # highest feature index 
18181 # number of training documents 
248 # number of support vectors plus 1 
1.0348005 # threshold b, each following line is a SV (starting with alpha*y)
-4.6092674365110264389500116521958 114:0.027113615 317:0.021783812 415:0.0090383533 448:0.0031968574 774:0.0089376234 785:0.0067465627 857:0.017479777 903:0.029175464 1059:0.0083909472 1097:0.0032791893 1101:0.0085690925 1174:0.0071869809 1271:0.020928066 1439:0.021871552 1485:0.027113615 1626:0.028702259 1705:0.017538683 1738:0.0054378305 1843:0.0077172467 1920:0.0045427438 2265:0.020747732 2432:0.021783812 2459:0.014984491 2543:0.0020131806 3369:0.010566986 3618:0.027113615 3997:0.014959389 4136:0.020119168 4224:0.031013459 4232:0.0065375441 4603:0.014984491 4800:0.0075770514 4801:0.015168896 4910:0.027113615 4925:0.015790241 5211:0.018774685 5572:0.012799196 5633:0.016824583 5756:0.0040900223 5964:0.013444881 6297:0.009757272 6320:0.0038460083 6503:0.038967732 6556:0.02416539 6640:0.0011947552 6839:0.014168609 7056:0.047691323 7125:0.015960267 7253:0.01242475 7305:0.027113615 7372:0.0063373614 7380:0.0062929038 7443:0.022326149 7500:0.031073859 7610:0.019600533 7612:0.0013756864 7877:0.027113615 8792:4.9087485e-06 8832:0.02416539 #
-7.6778476308984524578704622399528 787:0.04588341 2056:0.079502873 2272:0.034823123 3865:0.075938776 4232:0.023280036 4993:0.027426466 6333:0.048653658 6495:0.040915962 6640:0.0042544943 7688:0.017416177 8792:3.4959867e-06 8832:0.043026183 #
-3.2655469000528807299588152091019 252:0.01030267 1059:0.010208986 1141:0.0056097577 1407:0.079969235 1427:0.066438943 1738:0.0099240411 2543:0.0018370274 3116:0.018349089 3650:0.043626752 3979:0.0038196039 4504:0.00064037705 4807:0.0092691146 4812:0.0063350168 5076:0.022989262 5770:0.0074278051 6282:0.044508096 7052:0.094562411 7112:0.016976994 7612:0.0050212555 7717:0.047350865 7862:0.032694869 8025:0.006857127 8176:0.003904752 8661:0.031490687 8691:0.025659898 8792:7.1667728e-06 #
-1.8705380999889202886521388791152 448:0.0045314678 469:0.033150677 663:0.024724156 876:0.037740726 1097:0.0046481714 1355:0.024374688 1510:0.044858791 1738:0.0051386622 1777:0.041534834 2035:0.054610867 2309:0.03855262 2543:0.0028536348 2637:0.040234894 2763:0.035468902 2787:0.011737463 3230:0.023817405 3282:0.012557825 3329:0.020400763 3369:0.029956894 4504:0.00049738021 4800:0.014320382 4812:0.0098408023 4832:0.054610867 5107:0.053752545 6320:0.010903247 6576:0.048765626 6891:0.002973719 7257:0.060456112 7336:0.038115583 7372:0.0089830561 8370:0.013487318 8661:0.048917573 8792:4.8706224e-06 #
19.865098504131580625653441529721 814:0.16383146 857:0.098155677 1592:0.15225337 2543:0.0028261959 4504:0.0019703908 4643:0.025157586 4789:0.025395408 5580:0.055591159 8792:8.2693532e-06 #
24.631232569904589979614684125409 71:0.042571474 252:0.0067558493 686:0.014055023 828:0.039283521 857:0.083673693 1097:0.0039242757 1456:0.034906294 1492:0.036901928 1549:0.033307068 1592:0.064894885 2459:0.035864521 2543:0.0024092162 2748:0.041977834 2787:0.0099094976 2957:0.069829799 3128:0.073122427 4232:0.015647236 4560:0.027943006 4993:0.018434182 5107:0.045381248 5977:0.010258123 6640:0.002859578 6962:0.032740436 7242:0.045614697 7591:0.027084636 8792:3.5246424e-06 #
50.058864292575627530368365114555 686:0.010455566 901:0.027197976 1097:0.0029192783 2543:0.0053766654 2625:0.017979121 3545:0.10013619 3650:0.042562682 4504:0.00062475807 4800:0.0044969493 4807:0.0045215194 4812:0.018541513 4993:0.068566166 5279:0.030261787 5394:0.018642709 5854:0.027297908 6406:0.049306627 6891:0.0037352813 7107:0.022009425 7350:0.020894229 7372:0.0056417971 7620:0.0096918801 7924:0.031227412 8176:0.0038095142 8240:0.023677493 8792:6.1179767e-06 #
50.058864292575627530368365114555 901:0.020843308 1059:0.0038164433 1060:0.01344641 1097:0.002237204 1101:0.0058462033 1439:0.0059686853 1591:0.031911399 1850:0.015918834 2543:0.0048071747 3323:0.070700869 3329:0.019638117 3663:0.0061020004 4257:0.035350434 4504:0.00047878656 4800:0.00689252 4812:0.0094729224 4907:0.070700869 4993:0.042036828 5191:0.020179881 5394:0.014286935 6406:0.018893193 6640:0.0065209069 6891:0.0028625519 7134:0.03980951 7350:0.005337467 7372:0.012970861 7380:0.0042932895 7511:0.033277083 7612:0.0018771047 7719:0.025378969 7862:0.01222238 8176:0.0029194406 8221:0.11925456 8266:0.018555701 8630:0.031369418 8792:6.0281268e-06 #
-11.910489024753417197644012048841 448:0.013727682 1204:0.053663984 1738:0.015567123 2423:0.086975344 2449:0.06827224 4504:0.0015067694 7546:0.13241281 8052:0.05775173 8176:0.0091876518 8792:6.323623e-06 #
-4.5519363600198312624911523016635 1097:0.011399087 1372:0.09853743 1456:0.10139447 1492:0.10719132 2128:0.11922585 2543:0.0034990998 4034:0.18011889 4328:0.20283894 4504:0.0024395315 5853:0.11001085 5977:0.029797405 6640:0.0083063934 7242:0.26499966 8792:3.4127488e-06 #
-4.1876291098712528082614880986512 497:0.26622611 759:0.17131899 857:0.15950297 1407:0.13328207 1549:0.1269832 1955:0.082257703 3254:0.11167883 4504:0.0032018851 7514:0.18491174 8792:4.4792328e-06 #
-5.1934219366091838310239836573601 37:0.0029263434 102:0.0029037506 208:0.0026704152 252:0.0018315858 448:0.0020744053 498:0.0029817689 676:0.0028122859 741:0.0029326393 933:0.0084604081 1046:0.0016772352 1059:0.0036298614 1060:0.0021315052 1097:0.0031917442 1101:0.0055603888 1141:0.0019945805 1258:0.003144162 1323:0.0029718424 1355:0.01115819 1406:0.0029506718 1439:0.0028384414 1538:0.005079689 1641:0.0029792825 1920:0.0029477361 1941:0.010522326 2135:0.0029822665 2323:0.0029413907 2543:0.0039189919 2863:0.0018900473 2929:0.0080692135 2937:0.0024276054 3128:0.019824302 3482:0.0029842583 3663:0.00290184 3885:0.0028626157 3932:0.0079876436 3979:0.0013580815 4000:0.012366652 4128:0.030946368 4274:0.0031034569 4504:0.00022768961 4586:0.0029827643 4643:0.0058141979 4737:0.0037310973 4789:0.0029345807 4800:0.0049166642 4807:0.0016478427 4812:0.0067573511 4814:0.0029457815 5108:0.0070150066 5384:0.0029531217 5387:0.0021732741 5546:0.0084350668 5633:0.0081879636 5756:0.0026539702 5769:0.0059931562 5770:0.0026409973 5886:0.0029138126 5977:0.002781091 6320:0.0049912641 6377:0.0029802767 6640:0.0031010534 6861:0.0029399295 6891:0.0013613026 6951:0.0037369754 7292:0.0030892002 7372:0.0020561216 7380:0.0020416977 7436:0.0069752075 7608:0.0020328513 7612:0.00089266762 7620:0.0035321519 8025:0.0024380896 8063:0.015473184 8069:0.0031758142 8176:0.0013883562 8390:0.01357999 8457:0.028138649 8598:0.0027336921 8792:6.6889879e-06 #
-2.7809302430989459864463242411148 1059:0.019445686 1097:0.011399087 1492:0.10719132 2383:0.11922585 2543:0.0034990998 4504:0.0024395315 4993:0.053546909 6640:0.0083063934 7242:0.13249983 7514:0.14088513 7612:0.0095642954 8792:3.4127488e-06 #
-1.8149973891574806561521882031229 252:0.010175477 1059:0.010082949 1141:0.0055405013 1238:0.040807102 1407:0.078981958 1427:0.065618709 1738:0.0098015219 2543:0.001814348 3116:0.018122558 3650:0.043088149 3979:0.0037724483 4504:0.00063247117 4807:0.0091546811 4812:0.0062568067 5076:0.022705443 5770:0.0073361038 7112:0.016767401 7612:0.0049592643 7717:0.046766289 7862:0.032291226 8025:0.0067724711 8176:0.0038565451 8295:0.10517575 8575:0.043958616 8661:0.031101914 8691:0.025343109 8792:7.0782939e-06 #
50.058864292575627530368365114555 4232:0.15908024 #
47.878856744743174544964858796448 658:0.066575214 674:0.075454645 2479:0.036946073 3000:0.17748408 3531:0.062815391 4504:0.0021345902 5503:0.14506111 5769:0.056185842 5873:0.041322596 7546:0.093792401 8069:0.029773258 8792:2.9861553e-06 #
50.058864292575627530368365114555 1854:0.10332466 2543:0.0073481095 4168:0.13912483 4504:0.0025615082 7612:0.010042511 8176:0.015619008 8792:3.5833864e-06 #
49.258359222533336208016407908872 499:0.031788193 658:0.011923919 957:0.028227586 1059:0.0060949167 1088:0.031788193 1218:0.031788193 1323:0.0049900338 1439:0.00953208 1497:0.031788193 1637:0.031788193 1654:0.02122869 1731:0.017427899 2137:0.031788193 2694:0.059083398 2815:0.059083398 2997:0.031788193 3195:0.031788193 3258:0.0099884458 3386:0.031788193 3447:0.025048714 3531:0.022501035 3663:0.0048724925 3731:0.031788193 4007:0.059083398 4221:0.031788193 4232:0.0071229958 4526:0.031788193 4812:0.0037820996 4987:0.01430404 5145:0.031788193 5457:0.017389543 5464:0.044490509 5578:0.031788193 5829:0.019998763 5886:0.0048925956 6326:0.031788193 6369:0.031788193 7069:0.059083398 7253:0.027074829 7277:0.028227586 7615:0.031788193 7620:0.0029654261 8792:9.092174e-06 #
-28.346916232087927767224755370989 37:0.0202593 415:0.040603064 448:0.0071806335 1039:0.052225381 1097:0.014731128 1439:0.019650748 1937:0.056706991 2543:0.0045219134 3128:0.13724516 3545:0.063162826 4504:0.00078815635 4812:0.015593887 5764:0.089759849 6653:0.1095584 6655:0.063414171 6930:0.053331647 7112:0.041789521 7350:0.0087862918 7620:0.012226679 8176:0.0048058485 8792:5.5129021e-06 #
-1.9036919367160602956090542647871 887:0.22254048 901:0.27877924 3475:0.10784948 4235:0.16114853 4504:0.0032018851 6421:0.13719748 8051:0.20113906 8792:4.4792328e-06 8803:0.095552221 #
-2.1475235439252129410192537761759 448:0.0075280834 598:0.089298584 1059:0.013172884 2543:0.0071110739 2655:0.071055256 3329:0.033891588 3545:0.066219091 4504:0.00082629296 4800:0.023790311 4801:0.035720304 6406:0.065211989 6515:0.094103068 7612:0.0064790389 8176:0.0050383895 8620:0.059027918 8792:5.7796556e-06 #
-0.48606683572671000037601629628625 252:0.0050256927 852:0.020936493 862:0.028479738 901:0.081593923 1060:0.005848642 1097:0.0058385567 1284:0.016970262 1531:0.013524979 1541:0.04827546 1549:0.024777208 1562:0.031669024 1585:0.032967258 1738:0.006454661 2507:0.01842262 2543:0.0008961109 2787:0.014743398 2825:0.036638357 2937:0.0066611124 2946:0.019893035 3116:0.053704649 3158:0.035821933 3172:0.013858777 3336:0.051946558 3587:0.051946558 4356:0.040309455 4455:0.03429829 4504:0.00062475807 4800:0.0044969493 4807:0.0045215194 4993:0.027426466 5307:0.036941085 5338:0.020240666 5448:0.026248876 5873:0.024188837 5881:0.051946558 6640:0.0063817413 7114:0.013939147 7268:0.016970262 7372:0.011283594 7380:0.0056022191 7612:0.0024493928 8275:0.035821933 8504:0.015660804 8792:6.1179767e-06 8832:0.021513091 #
50.058864292575627530368365114555 658:0.066575214 1613:0.057378884 2479:0.036946073 3531:0.062815391 4504:0.0021345902 4993:0.046853546 5769:0.056185842 5873:0.041322596 5918:0.17748408 7546:0.093792401 8069:0.029773258 8792:2.9861553e-06 #
50.058864292575627530368365114555 1491:0.10131299 2543:0.0031948301 4504:0.0022273983 5385:0.12368019 8176:0.013581746 8792:6.2319764e-06 #
50.058864292575627530368365114555 18:0.010649044 271:0.010649044 509:0.021298088 568:0.031947132 812:0.010649044 907:0.010649044 957:0.0094562415 969:0.010649044 1020:0.010649044 1188:0.010649044 1459:0.031947132 1569:0.010649044 1695:0.010649044 1732:0.010649044 1797:0.042596176 1864:0.010649044 1914:0.021298088 2143:0.031947132 2517:0.010649044 2555:0.021298088 2618:0.010649044 2694:0.0098964693 2815:0.0098964693 3002:0.010649044 3214:0.031947132 3258:0.0033461293 3358:0.031947132 3400:0.010649044 3447:0.0083913198 3531:0.0037689232 4007:0.0098964693 4232:0.0023862037 4317:0.010649044 4547:0.010649044 4723:0.010649044 4841:0.031947132 4966:0.031947132 4987:0.0023959267 5097:0.021298088 5185:0.013234169 5211:0.0068527595 5271:0.010649044 5287:0.0089016194 5311:0.010649044 5320:0.010649044 5464:0.0074521606 5655:0.010649044 5656:0.010649044 5668:0.021298088 5730:0.010649044 6056:0.010649044 6100:0.010649044 6102:0.031947132 6261:0.010649044 6392:0.010649044 6496:0.0071541942 7069:0.0098964693 7224:0.010649044 7253:0.0090700677 7277:0.0094562415 7515:0.010649044 7610:0.0071541942 7649:0.010649044 7654:0.021298088 7779:0.010649044 7874:0.010649044 8153:0.010649044 8372:0.021298088 8553:0.021298088 8735:0.010649044 8792:1.0033482e-05 #
50.058864292575627530368365114555 448:0.0041673318 533:0.076064602 602:0.076064602 905:0.042685464 909:0.076064602 1059:0.014584265 1777:0.038197212 2302:0.033924684 2459:0.03906671 2570:0.076064602 3012:0.020768845 3476:0.043572746 3593:0.035706185 4095:0.049687438 4137:0.030974517 4232:0.017044311 4807:0.0066207964 5727:0.055062972 6640:0.0031148975 7125:0.041610695 7372:0.0082612028 8767:0.070689067 8792:3.8393428e-06 #
50.058864292575627530368365114555 80:0.071541943 437:0.067888744 658:0.039945126 1407:0.053312823 1427:0.066438943 1815:0.074521601 2543:0.0036740548 2625:0.036857199 2637:0.051802427 3012:0.029076383 3128:0.05575585 4504:0.0012807541 4812:0.012670034 5107:0.069206402 6640:0.0043608565 7372:0.011565684 7612:0.0050212555 8176:0.0078095039 8598:0.015377018 8792:3.5833864e-06 #
-30.933220575040351718598685692996 1854:0.13776621 2543:0.0036740548 2985:0.070993632 3960:0.07873302 4504:0.00085383607 4800:0.012291661 4801:0.01845549 4812:0.016893378 5385:0.14223222 5873:0.016529039 7350:0.0095184827 7620:0.0066227848 8176:0.0052063358 8510:0.09598022 8691:0.034213196 8792:8.3612349e-06 #
-0.65684362050282940614920335065108 625:0.10137427 658:0.14525501 2479:0.080609612 2775:0.14152226 3531:0.13705176 4232:0.043385521 4409:0.17193165 5769:0.12258729 5873:0.045079198 7546:0.10231898 8792:3.257624e-06 #
-0.7367937087361964287879345647525 625:0.092926413 658:0.13315043 2479:0.073892146 3176:0.15239824 3531:0.12563078 3536:0.16494116 4232:0.039770059 5769:0.11237168 5873:0.041322596 7546:0.093792401 8792:2.9861553e-06 #
-0.74563315598865509414849839231465 625:0.092926413 647:0.15760402 658:0.13315043 2479:0.073892146 3473:0.15760402 3531:0.12563078 4232:0.039770059 5769:0.11237168 5873:0.041322596 7546:0.093792401 8792:2.9861553e-06 #
-0.80778864286891749468821899426985 448:0.0043216776 741:0.01221933 1097:0.0044329781 1098:0.11219144 1258:0.013100674 1905:0.12242131 2267:0.048447501 2479:0.032840956 2543:0.004082283 3116:0.027183836 3531:0.055835899 3885:0.011927566 3979:0.0056586727 4504:0.0009487067 4800:0.0068287007 4812:0.0093852095 5279:0.045953084 5394:0.014154648 5720:0.15776362 5769:0.04994297 5770:0.011004156 5873:0.018365599 7445:0.063231848 8598:0.011390383 8792:7.9630809e-06 #
50.058864292575627530368365114555 252:0.019624133 797:0.12603971 1023:0.10417789 1059:0.019445686 2543:0.0034990998 3128:0.10620162 4504:0.0024395315 8176:0.014875245 8792:3.4127488e-06 #
24.488980579705152962333158939146 448:0.0059838612 857:0.065437116 901:0.057185486 1141:0.011507195 1158:0.07172358 1549:0.052095667 1596:0.091298662 2534:0.069952279 2543:0.0037682613 3116:0.075278312 3128:0.057185486 3254:0.045816958 4504:0.0013135939 4800:0.0094551239 5633:0.015746083 6383:0.10922097 7217:0.029627493 8518:0.10922097 8598:0.0157713 8792:5.5129021e-06 #
50.058864292575627530368365114555 1060:0.017439587 1854:0.037572604 1881:0.043355573 1937:0.067017354 2543:0.00133602 2612:0.14394864 2637:0.03767449 4504:0.0009314575 4643:0.011892677 4789:0.012005103 4800:0.013409085 4801:0.020133263 4812:0.01842914 5385:0.051720809 6595:0.05782612 6891:0.0055689649 7678:0.046879575 8176:0.0056796391 8792:7.8182975e-06 #
23.895489886169531956738865119405 252:0.015263215 797:0.098030888 1059:0.015124422 2543:0.002721522 3128:0.082601257 4504:0.0018974134 5385:0.1053572 6949:0.15776362 8176:0.011569636 8792:5.3087206e-06 #
-5.7080889795258435981395450653508 658:0.066575214 676:0.026365181 797:0.11028475 1591:0.14227165 2543:0.0030617123 3601:0.24840535 4504:0.0021345902 5977:0.026072729 6251:0.08622025 6639:0.16494116 6640:0.007268094 7350:0.023796206 7372:0.01927614 8792:2.9861553e-06 #
-0.14828794076978868421434754054644 404:0.043983098 663:0.029271126 712:0.042998888 1097:0.0055030072 1579:0.034781232 1738:0.0060837031 2543:0.0067568822 2763:0.1049798 3012:0.026736904 3470:0.054425821 4504:0.00058885245 4800:0.008477008 4807:0.0085233245 4812:0.011650605 5394:0.017571287 5633:0.014117179 6320:0.012908442 6891:0.00352061 7591:0.037980754 7676:0.03823036 8367:0.052352794 8792:5.7663688e-06 #
-3.9971320840711657140786883246619 306:0.076577589 4504:0.0039407816 5107:0.21294278 5302:0.18525842 5723:0.10681761 6151:0.07372082 8792:5.5129021e-06 #
50.058864292575627530368365114555 411:0.036709934 437:0.038247179 448:0.0032869095 469:0.048091829 658:0.022504296 857:0.035944331 1051:0.055754758 1097:0.0067431219 1242:0.036443941 1355:0.017680231 1629:0.020001968 1722:0.027086733 1777:0.030127378 2543:0.0031048351 2763:0.025727443 3012:0.016381061 3702:0.04030532 4232:0.013443401 4521:0.036315162 4812:0.014276094 5394:0.010765508 5500:0.039612111 5642:0.059994616 6320:0.0079086935 6503:0.040065415 6556:0.024846105 6640:0.0049136411 7204:0.049034741 7612:0.0028288763 7676:0.023422826 7717:0.013338272 8222:0.049034741 8792:4.0376185e-06 #
-4.5229815553565693164728145347908 290:0.043779619 857:0.12152608 1156:0.062933274 1424:0.15983465 3282:0.030796571 4043:0.10801865 4504:0.0024395315 5864:0.064726219 6640:0.0083063934 6723:0.13799475 7357:0.17416942 8225:0.11468378 8547:0.056453954 8792:3.4127488e-06 #
-3.6565814959311082610327048314502 852:0.13206095 1491:0.17924607 3278:0.13516851 4504:0.0039407816 5864:0.10455774 6320:0.043193631 8792:5.5129021e-06 #
-1.4281977836659429659249553878908 252:0.020605341 448:0.011668529 1491:0.11650994 1908:0.16782638 2543:0.0073481095 4504:0.0012807541 5436:0.098964691 6391:0.040831935 6424:0.12041797 6476:0.034202009 6781:0.11600493 6891:0.0076573268 8792:7.1667728e-06 #
-0.7883759217130127394668193119287 901:0.13119024 1277:0.17672619 2543:0.0086448351 2926:0.098546267 4504:0.0015067694 5461:0.1065242 7612:0.011814718 8176:0.0091876518 8792:6.323623e-06 #
-4.345265048750287739665054687066 448:0.011112885 876:0.092554636 1491:0.11096185 1738:0.012601957 2543:0.0069981995 3943:0.047484126 4504:0.0012197657 4800:0.017559515 5922:0.090107709 6594:0.11748695 7740:0.043704178 8176:0.0074376226 8792:5.1191232e-06 #
50.058864292575627530368365114555 252:0.0052834204 349:0.054610483 676:0.016224727 857:0.13087423 1046:0.0048381784 1059:0.010470754 1492:0.0577184 1591:0.043775894 1596:0.045649331 2543:0.0018841306 3128:0.028592743 4504:0.00065679697 4643:0.0083858622 4789:0.0084651364 5633:0.0078730416 5977:0.016044756 6595:0.040774826 6891:0.0039268341 7217:0.014813746 7242:0.1070191 7301:0.044634186 8176:0.0040048738 8792:8.2693532e-06 #
50.058864292575627530368365114555 4232:0.13635449 #
-4.9891213730227148559492889035027 2110:0.35496816 4232:0.079540119 8792:5.9723106e-06 #
-4.9899368821254741490633932698984 4232:0.079540119 7285:0.35496816 8792:5.9723106e-06 #
-19.183812574498894321095576742664 1397:0.086109549 4232:0.07342165 6119:0.14527307 8792:5.5129021e-06 #
-5.3803670658709252805351752613205 696:0.32766291 4232:0.07342165 8792:5.5129021e-06 #
-3.4083468712808580036721650685649 142:0.069829799 415:0.021632781 598:0.045381248 905:0.039186656 1059:0.0066944165 1456:0.069812588 2186:0.058371276 2459:0.035864521 2543:0.0036138243 2863:0.0069714859 3476:0.04000121 4040:0.11414644 4504:0.00083983876 4603:0.071729042 5214:0.046633516 5603:0.052138302 5824:0.04782287 5977:0.020516247 6297:0.02335347 6309:0.052138302 6406:0.033140518 6595:0.1042766 6930:0.028414402 7339:0.057073221 7562:0.064894885 7612:0.0065852529 7620:0.0065142144 7666:0.062008139 7688:0.023411911 8792:4.6995233e-06 8811:0.030990195 #
-17.924522183728598179186519701034 252:0.0092608267 674:0.12208392 1059:0.0045883083 1060:0.0053886366 1097:0.0026896722 1531:0.0062306086 1591:0.03836539 1596:0.080014557 1843:0.012659753 2543:0.0041281516 2863:0.0047782096 4418:0.044478513 4504:0.00057561981 4623:0.03037433 4643:0.0073494073 4812:0.0056943973 4993:0.037903994 5394:0.0085882135 5690:0.042499959 6891:0.0034414951 7350:0.0064169546 7372:0.0051980605 7511:0.040007278 7931:0.03037433 8176:0.0035098894 8792:8.0525533e-06 #
-12.484643320839412083955721755046 252:0.0092608267 674:0.12208392 1059:0.0045883083 1060:0.0053886366 1097:0.0026896722 1375:0.029395113 1531:0.0062306086 1591:0.03836539 1596:0.080014557 1843:0.012659753 2543:0.0041281516 2863:0.0047782096 4418:0.044478513 4504:0.00057561981 4643:0.0073494073 4812:0.0056943973 4993:0.037903994 5125:0.042499959 5394:0.0085882135 5690:0.042499959 6891:0.0034414951 7350:0.0064169546 7372:0.0051980605 7511:0.040007278 8176:0.0035098894 8792:8.0525533e-06 #
-5.2678939286164876421025837771595 89:0.23664543 2479:0.049261432 3531:0.083753854 3986:0.14589718 4504:0.0028461202 5503:0.19341481 5873:0.055096798 8069:0.039697677 8792:3.9815404e-06 #
-5.2676537655455586417474478366785 2479:0.049261432 3531:0.083753854 3986:0.14589718 4504:0.0028461202 4673:0.23664543 5503:0.19341481 5873:0.055096798 8069:0.039697677 8792:3.9815404e-06 #
-3.0406407084253297412601568794344 774:0.081555814 1023:0.13673349 1174:0.065581203 2323:0.041363306 3763:0.10881899 4504:0.0016009426 7620:0.024835443 8176:0.0097618802 8792:6.7188494e-06 #
-15.56201103492325188426548265852 252:0.01239419 558:0.020710284 560:0.029763818 589:0.01301279 658:0.036040716 1046:0.0028374279 1059:0.0030703715 1097:0.0071994234 1407:0.016033933 1538:0.0042967293 1738:0.0039795651 1844:0.019670414 1851:0.01656175 2128:0.018825134 2228:0.01650496 2251:0.017885746 2459:0.01644914 2478:0.011171664 2543:0.0027624471 2894:0.022412512 3012:0.0087447772 3254:0.013435047 3282:0.0048626163 3320:0.023651687 3442:0.015495945 3694:0.010290513 3893:0.017226577 4087:0.0080229351 4168:0.06276308 4232:0.0071765524 4461:0.022245022 4462:0.027814807 4683:0.029763818 4800:0.002772555 4807:0.0055754073 5062:0.020325679 5248:0.011495003 5315:0.015295552 5725:0.021146314 5756:0.0089795981 6020:0.015256909 6640:0.0026230717 6732:0.021031728 6761:0.011133408 7372:0.013913605 7542:0.0072123287 7688:0.010737794 7757:0.016476931 8370:0.0052225324 8614:0.0051080999 8712:0.017677689 8727:0.018603669 8792:5.388551e-06 #
-1.6748478747893642548660864122212 658:0.015978051 797:0.026468338 857:0.076561429 1059:0.0081671886 1060:0.0047958866 1097:0.014362849 1194:0.021804364 1531:0.0055452418 1738:0.0026464108 2305:0.033565279 2543:0.0036740548 2787:0.0060447934 2937:0.0054621124 3333:0.094370231 3883:0.031804364 4504:0.00051230163 5394:0.01528702 5734:0.019695831 5836:0.036575578 6320:0.0056151724 6341:0.073151156 6891:0.0061258613 6951:0.0084081944 7123:0.020777741 7268:0.013915614 7345:0.018997822 7350:0.0057110898 7520:0.11834351 7612:0.0020085021 8176:0.0031238017 8547:0.01185533 8614:0.0067937728 8792:6.4500955e-06 #
-11.399164322376721614205052901525 658:0.015978051 797:0.026468338 857:0.076561429 1059:0.0081671886 1060:0.0047958866 1097:0.014362849 1194:0.021804364 1531:0.0055452418 1738:0.0026464108 2305:0.033565279 2543:0.0036740548 2787:0.0060447934 2937:0.0054621124 3883:0.031804364 4504:0.00051230163 5099:0.036173139 5394:0.01528702 5734:0.019695831 5836:0.036575578 6320:0.0056151724 6341:0.073151156 6891:0.0061258613 6951:0.0084081944 7123:0.020777741 7268:0.013915614 7345:0.018997822 7350:0.0057110898 7520:0.11834351 7612:0.0020085021 8176:0.0031238017 8547:0.01185533 8614:0.0067937728 8792:6.4500955e-06 #
-3.5498061109787890643474383978173 1580:0.084531076 1638:0.06360554 1872:0.12170336 2459:0.062506735 2543:0.0041989195 2787:0.017270839 3012:0.033230152 3254:0.051053181 4156:0.048427191 4232:0.027270898 4359:0.10450165 4807:0.010593275 4812:0.014480039 6640:0.0049838359 7460:0.049158335 8222:0.099470474 8792:4.0952987e-06 #
-1.9113753800419444051073014634312 595:0.055840634 658:0.01551267 797:0.025697416 857:0.074331485 1059:0.0079293093 1060:0.0046562003 1097:0.013944514 1194:0.021169286 1531:0.0053837295 1738:0.0025693311 2305:0.032587647 2543:0.0035670435 2787:0.0058687315 2937:0.0053030215 3883:0.030878024 4504:0.00049738021 5394:0.014841767 5734:0.019122167 5836:0.035510268 6320:0.0054516234 6341:0.071020536 6804:0.061289757 6891:0.0059474381 6951:0.0081632957 7123:0.020172564 7268:0.013510305 7345:0.018444488 7350:0.0055447472 7520:0.11489661 7612:0.001950002 8176:0.003032817 8547:0.011510029 8614:0.0065958956 8792:6.2622285e-06 #
-9.8475557393744530543244763975963 663:0.037449822 1097:0.0070406124 1738:0.0077835615 2543:0.0064836261 3012:0.034207508 3329:0.030901155 4504:0.00075338472 4762:0.065476291 5232:0.063306108 5394:0.022480913 5396:0.060861357 6794:0.04822005 7364:0.038015824 7546:0.13241281 8052:0.05775173 8176:0.0045938259 8598:0.018090609 8792:5.269686e-06 #
-6.434700154950369288542333379155 252:0.029436201 797:0.094529785 1082:0.087867044 1323:0.011940438 1738:0.0094514675 2543:0.0026243248 3694:0.048879936 4504:0.00091482431 4800:0.013169637 5956:0.11987599 6320:0.040108372 7350:0.010198374 8176:0.0055782171 8547:0.042340469 8792:6.3989041e-06 #
-3.2879178703416842566298328165431 2479:0.05541911 2952:0.26622611 3531:0.094223082 4504:0.0032018851 4806:0.186304 5873:0.061983898 6595:0.19877729 8069:0.044659887 8792:4.4792328e-06 #
-0.43541734605608789498987221122661 676:0.014381008 1060:0.021799484 2543:0.0066800998 4504:0.0011643219 4632:0.14152226 4993:0.051112961 5977:0.014221488 6320:0.02552351 6640:0.0079288296 6799:0.1445653 6891:0.006961206 7350:0.012979749 8176:0.0070995493 8792:8.1440603e-06 #
-0.19826468601850658068919130982977 87:0.041846007 208:0.012016869 1060:0.0095917732 1250:0.03064153 1626:0.041905299 1913:0.026947914 2301:0.035534885 2459:0.13126415 2543:0.0014696219 4193:0.085192353 4232:0.01908963 4489:0.026136506 4812:0.010136027 5248:0.03057671 5949:0.041329864 7380:0.0091876397 7596:0.085192353 8734:0.066107504 8792:2.8667091e-06 #
-8.9859706597735495847700804006308 448:0.0093348231 1062:0.036460306 2302:0.075991288 2543:0.0029392438 3660:0.14630231 3832:0.12221991 4232:0.03817926 4427:0.075991288 5160:0.086647846 5727:0.12334106 5898:0.073454879 7372:0.018505095 8792:2.8667091e-06 #
-7.3661774909804087485554191516712 4232:0.07342165 6227:0.19697291 6391:0.12563673 8792:5.5129021e-06 #
-34.580842283025312156041763955727 8:0.038754065 366:0.037206098 1097:0.0081146043 2178:0.018804671 2543:0.0024908846 3106:0.022801265 3128:0.075601153 3262:0.01619225 3744:0.024903942 3979:0.005179124 4504:0.00086830783 4641:0.036481488 4936:0.046642587 5108:0.053504288 6839:0.017530652 7293:0.030145416 7612:0.0068084816 8176:0.0052945791 8792:8.5029505e-06 #
-11.482961219504973726657226507086 2600:0.12858751 4232:0.068177246 6320:0.040108372 6391:0.11666267 8792:5.1191232e-06 #
-2.3720447865236655715648339537438 448:0.0077790194 658:0.05326017 857:0.085068256 1060:0.015986288 1097:0.0079793604 1194:0.072681218 1407:0.071083769 1531:0.018484138 1980:0.09598022 2478:0.049527712 2787:0.020149311 2937:0.018207042 4156:0.05649839 4504:0.0017076721 4997:0.14198726 5734:0.065652773 5977:0.020858184 7312:0.13195293 7612:0.006695007 8614:0.022645909 8792:4.7778485e-06 #
-7.8703850651904794233360007638112 110:0.032166794 315:0.059617285 676:0.012655287 677:0.057957798 1059:0.0081671886 1060:0.019183546 1097:0.0047876164 1738:0.010585643 1881:0.095382258 2543:0.0029392438 2637:0.08288388 3282:0.01293456 3650:0.034901399 4504:0.00051230163 4703:0.057957798 4812:0.010136027 5461:0.072436459 5617:0.03054448 6406:0.040431432 7364:0.02585076 7608:0.0091478303 7693:0.041555483 7833:0.039755523 8176:0.0031238017 8580:0.045367833 8792:5.0167409e-06 8803:0.03057671 #
-7.3811337868245336935046907456126 1059:0.013611981 1439:0.021288311 1538:0.019048834 1738:0.0088213701 2459:0.072924525 2543:0.0024493698 3010:0.064306803 4232:0.031816047 4812:0.016893378 5448:0.071746923 5852:0.081118099 5898:0.061212398 6297:0.047485389 7125:0.077673294 8792:2.3889243e-06 #
-6.8851768157970596462291723582894 87:0.087179184 306:0.041479524 1059:0.017014977 2543:0.0030617123 2625:0.061428662 3012:0.04846064 3207:0.13409272 4232:0.039770059 4785:0.047666971 4812:0.021116722 6562:0.14836033 8792:2.9861553e-06 #
-2.1981887017126768846253526135115 625:0.11738074 658:0.084095001 2479:0.046668723 3531:0.079345755 4232:0.050235868 5769:0.070971586 5873:0.052196965 7546:0.11847461 8570:0.20834672 8792:3.7719856e-06 #
-28.591527893307024044133868301287 22:0.042487692 448:0.0029540581 658:0.040450763 729:0.022140162 1204:0.011547946 1323:0.0084641082 1514:0.012276025 1531:0.007019293 1538:0.0072337342 1738:0.0033498872 1854:0.078474425 1878:0.053919211 1913:0.017055642 2543:0.0027904212 2925:0.033242397 2937:0.0069140662 3012:0.029444439 3116:0.018581355 3687:0.014197861 4087:0.013506966 4504:0.00064848305 4807:0.0046932227 5385:0.072016314 5756:0.0075587756 5873:0.0125537 5977:0.0079208296 6476:0.017317472 6891:0.0038771275 8069:0.0090450402 8370:0.008792365 8614:0.017199425 8792:7.2574912e-06 #
-7.4206218504028624849411244213115 1059:0.014584265 1738:0.0094514675 1777:0.15278885 2260:0.065939926 2543:0.0026243248 2900:0.10159444 2937:0.019507544 3650:0.062323928 3979:0.010913154 4504:0.0018296486 5770:0.021222301 6284:0.063353442 6320:0.020054186 7022:0.07483089 8792:7.6786855e-06 #
-4.966553708498606667376407131087 50:0.038910899 398:0.10698886 448:0.0031536566 539:0.018773161 1059:0.0055183703 1060:0.0064809276 1097:0.0064697522 1439:0.017260794 1443:0.057562403 1603:0.057562403 1654:0.03844114 1722:0.025988622 2186:0.048116863 2543:0.0029789633 2743:0.092284314 2937:0.0073812329 3800:0.057562403 4144:0.057562403 4232:0.012898398 4800:0.0099662114 4961:0.027525693 5248:0.020659938 5275:0.046142157 5648:0.023727393 5769:0.018222434 5977:0.0084560206 6320:0.0075880704 6640:0.0023572198 6744:0.046142157 7372:0.012503442 8221:0.034487128 8472:0.03184497 8792:3.8739313e-06 #
-12.33193624578240665812245424604 448:0.0093348231 1738:0.010585643 2543:0.0029392438 2669:0.080663189 3329:0.04202557 4232:0.03817926 6406:0.080862865 8366:0.099847592 8376:0.072069436 8792:2.8667091e-06 #
-2.1944653633039656881464907201007 72:0.079124242 252:0.0093660634 448:0.0053038769 1097:0.010880946 1300:0.096809492 2094:0.05780942 2248:0.065441057 2278:0.096809492 2543:0.0016700249 3116:0.033361979 3172:0.025827721 4127:0.065441057 4489:0.029700575 4504:0.0011643219 4695:0.096809492 4907:0.085965827 5291:0.054194465 5394:0.017371614 5472:0.096809492 6085:0.15824848 6640:0.0039644148 6731:0.096809492 7288:0.096809492 7372:0.010514258 7380:0.0104405 7608:0.010395262 8792:6.5152481e-06 #
-9.8435189766047326287434771074913 306:0.060333855 1427:0.1610641 1538:0.034634244 1738:0.016038854 2543:0.0044533997 4504:0.0015524292 5633:0.037218016 7350:0.017306332 8176:0.0094660651 8792:6.5152481e-06 #
-4.3846238574466527282424976874609 2637:0.13368368 4504:0.0016525859 4617:0.19231382 4657:0.12900299 4800:0.023790311 4812:0.032696862 7350:0.01842287 8176:0.010076779 8792:6.9355865e-06 #
-3.0616910771014431702496949583292 448:0.014143672 1629:0.086069077 2763:0.16605896 4504:0.0015524292 6193:0.14487188 6640:0.010571773 6891:0.0092816083 7591:0.10013107 8792:6.5152481e-06 #
-3.778840987108827320639647950884 3280:0.12821053 4504:0.0034153443 4529:0.19447967 7688:0.047604218 7833:0.13251841 8225:0.1605573 8767:0.26390585 8792:4.7778485e-06 #
-12.412819000050834716830649995245 290:0.033431709 797:0.096248507 1491:0.042367253 2178:0.020172283 2322:0.083145089 2543:0.0053440798 2551:0.057297114 2696:0.063553981 3105:0.031825732 3262:0.017369868 3979:0.0055557876 4092:0.073330171 4504:0.0009314575 6303:0.045949526 6839:0.018805608 6891:0.0055689649 8792:7.8182975e-06 #
-10.436864599733793212976706854533 125:0.042133462 353:0.069903873 448:0.0025930065 658:0.017753391 676:0.0070307152 828:0.026625499 1097:0.0053195739 1492:0.025011307 1580:0.032873198 1690:0.03868296 1916:0.025058849 2383:0.027819365 2420:0.01970996 2459:0.072924525 2543:0.0024493698 2748:0.056903284 2787:0.0067164372 3238:0.020036131 3476:0.027111931 4224:0.025155362 4232:0.010605349 4493:0.063592836 4560:0.018939149 4801:0.012303661 4807:0.0041196067 4812:0.005631126 5756:0.006634925 6297:0.015828462 6640:0.0019381584 7242:0.061833255 7380:0.0051042442 7414:0.027039366 7563:0.010911206 7612:0.0022316689 7885:0.047329087 7981:0.034594331 8222:0.03868296 8240:0.021572826 8508:0.027413623 8614:0.0075486363 8792:3.9815404e-06 #
-13.285844964300887127706118917558 252:0.0098120663 429:0.045029722 437:0.032327972 658:0.019021489 835:0.028818674 1046:0.0044925944 1056:0.032632187 1059:0.0048614214 1097:0.0028497716 1141:0.0053426265 1531:0.006601478 2213:0.026598951 2272:0.016997 2283:0.024535246 2543:0.0026243248 2863:0.0050626267 3254:0.021272158 3849:0.020984381 4137:0.020649679 4232:0.011362874 4800:0.0043898788 4807:0.0088277282 4843:0.031263683 4857:0.032327972 5107:0.03295543 5525:0.030588353 5852:0.02897075 6627:0.028053902 6640:0.0020765983 6687:0.013197077 7372:0.0055074687 7702:0.047126044 7878:0.050709736 8792:4.2659362e-06 #
-27.165027235191942622805072460324 252:0.0095838793 658:0.037158258 857:0.089024916 1023:0.025438787 1059:0.0094967308 1097:0.016700987 1194:0.025353912 1355:0.01459647 1531:0.0064479555 1638:0.025885977 1980:0.066962942 2305:0.039029393 2543:0.002563294 2787:0.0070288293 2937:0.0063512935 3883:0.036981821 3932:0.020897904 4481:0.038434595 4504:0.00059569959 4807:0.0043112161 5394:0.0088878023 6320:0.0065292702 6640:0.0020283053 6891:0.0035615473 7268:0.016180947 7514:0.034402184 7612:0.0023354676 7717:0.01101183 8176:0.0036323275 8614:0.01579947 8792:6.6667653e-06 #
-4.3252334733931414589847008755896 901:0.16520251 1097:0.0088659562 1284:0.051539313 1531:0.020537931 2543:0.005443044 2751:0.1289432 4504:0.0009487067 5756:0.022116417 7089:0.084179483 7190:0.078625821 7612:0.0074388967 8176:0.005784818 8792:6.6359007e-06 #
-0.79431846338778377969447319628671 852:0.11445282 901:0.14868227 1507:0.17376035 4504:0.0034153443 6320:0.037434481 6870:0.13028443 6942:0.23737651 7107:0.1203182 8792:4.7778485e-06 #
-2.2938852495113390972392153344117 1400:0.06276615 1850:0.054945655 2543:0.002370358 3476:0.078712061 4489:0.042155657 4504:0.0016525859 4643:0.021099912 4812:0.016348431 5191:0.069653139 5382:0.12201602 6043:0.097715124 6504:0.090232894 6611:0.11798573 8792:6.9355865e-06 #
-3.3946471382369383107402427413035 589:0.061810751 797:0.094529785 2543:0.0078729745 2892:0.066928983 3046:0.075817756 4012:0.069045782 4504:0.00091482431 4810:0.039580282 5672:0.20088997 7372:0.016522406 8176:0.0055782171 8641:0.063816473 8792:6.3989041e-06 #
-3.0930935138754072077915679983562 58:0.10922097 448:0.0059838612 644:0.079944313 1004:0.10922097 1230:0.023467321 2276:0.091298662 2309:0.050909229 3169:0.091298662 3476:0.062565997 3545:0.052635688 4232:0.024473883 4466:0.070627376 6297:0.036527224 7757:0.056190562 7989:0.10922097 8025:0.014065902 8792:3.6752681e-06 #
-5.7535158221140116907577066740487 290:0.015322867 872:0.024800505 1046:0.0062896321 1097:0.0079793604 1326:0.032535363 1672:0.081118099 1738:0.004410685 2543:0.0036740548 3128:0.074341133 4504:0.00085383607 4800:0.012291661 5264:0.055942129 5394:0.025478367 5617:0.025453733 5764:0.048619919 6150:0.063041605 6265:0.054326963 6640:0.0058144755 6655:0.034349345 6891:0.0051048845 7114:0.019050168 7523:0.024034206 7674:0.035596102 7687:0.058024444 8180:0.060959294 8792:7.1667728e-06 #
-3.4718634266924413012134209566284 2543:0.008164566 2635:0.16828716 3727:0.14952311 4504:0.0014230601 5452:0.053754628 5464:0.16560356 6331:0.13483939 7612:0.011158345 8176:0.0086772265 8792:5.9723106e-06 #
-1.8825460769695734342121795634739 448:0.0080472613 1355:0.043286081 2543:0.0025338309 3900:0.060220696 4087:0.073589675 4504:0.0017665573 5108:0.054426778 5469:0.14688337 5503:0.12005057 5873:0.034198012 6176:0.090909258 6673:0.063154586 6786:0.11574234 8069:0.024639938 8598:0.02120968 8792:7.4139029e-06 #
-6.1057693524879628199641956598498 357:0.041418713 1097:0.0041272556 1308:0.054835111 2479:0.015288031 2543:0.0025338309 2863:0.00733208 3116:0.025309088 3495:0.058871031 3531:0.025992574 3545:0.035392962 4489:0.02253147 4504:0.00088327867 4800:0.0063577555 4812:0.0087379543 5448:0.037110478 5659:0.073441684 5769:0.023249313 7546:0.038810648 7608:0.0078860605 7762:0.028124636 7770:0.073441684 7924:0.044149101 8016:0.028962659 8176:0.005385865 8785:0.043300513 8792:7.4139029e-06 #
-1.6388890577164576534130446816562 152:0.13522597 448:0.003704295 741:0.010473711 933:0.030215744 1097:0.007599391 1204:0.014480758 1258:0.01122915 1355:0.019925339 2479:0.028149389 2489:0.053278219 2543:0.0046654665 2937:0.0086700199 3116:0.02330043 3128:0.03540054 3531:0.047859345 3885:0.010223628 3932:0.028527297 3979:0.0048502907 4000:0.04416661 4504:0.0008131772 4699:0.054198727 5546:0.030125236 5769:0.064212389 5770:0.0094321333 5873:0.015741942 6531:0.017748699 7247:0.09392342 7372:0.0073432918 8262:0.10839745 8691:0.032583997 8792:6.8254976e-06 #
-11.901613510383347360743755416479 1491:0.06297835 2337:0.07468491 2543:0.0079439022 2625:0.079691239 2937:0.029524932 3634:0.10610554 4095:0.15040521 4504:0.001384599 6891:0.0082781911 7612:0.010856768 8792:5.8108967e-06 #
-17.926755030745983532369791646488 1023:0.14584905 2323:0.044120863 2543:0.0048987395 4504:0.0017076721 4810:0.073883191 7612:0.013390014 8176:0.010412672 8792:7.1667728e-06 #
-4.7781478482690653564191052282695 797:0.10587335 960:0.12116675 1257:0.14630231 2178:0.022189513 2543:0.0058784876 3106:0.026905492 3262:0.019106854 3329:0.04202557 3978:0.039303031 3979:0.0061113662 4504:0.0010246033 6839:0.02068617 8176:0.0062476033 8792:8.6001273e-06 #
-3.8353032406670406473381262912881 448:0.0047145574 469:0.034490097 663:0.025723111 876:0.039265603 1097:0.0048359763 1510:0.046671268 1738:0.0053462847 1777:0.043213006 2035:0.056817368 2309:0.040110301 2543:0.0029689332 2637:0.041860547 2654:0.057811674 2763:0.036901988 2787:0.012211704 3230:0.024779724 3282:0.013065212 3329:0.021225035 3369:0.031167274 4504:0.00051747641 4800:0.014898983 4812:0.010238411 4832:0.056817368 5107:0.055924363 6320:0.011343782 6891:0.0030938694 7257:0.062898785 7372:0.0093460074 8370:0.01403226 8661:0.050894041 8792:5.0674153e-06 #
-1.2149162515887317326246375159826 1101:0.027197555 1629:0.061745204 1722:0.083615564 2543:0.0063896603 2937:0.023748314 3238:0.078402251 4504:0.0011136992 4989:0.11290696 4993:0.048890658 6640:0.0075840983 7612:0.017465236 8089:0.090091176 8176:0.0067908731 8792:4.6739824e-06 #
-5.615330374298705962132771674078 110:0.029242542 346:0.054624461 639:0.040927593 940:0.05782612 1097:0.0043523787 1531:0.020164514 1579:0.027508792 2106:0.043461565 2543:0.0026720399 3012:0.021146461 3046:0.038598131 3186:0.043900359 3282:0.011758691 4504:0.00046572875 5611:0.044485535 5669:0.044129252 5864:0.024713648 6122:0.031420708 6687:0.040311072 6962:0.036312122 7253:0.032982066 7293:0.016168905 7372:0.033645626 7612:0.007303644 7792:0.037422195 8176:0.0028398195 8221:0.046400864 8391:0.076083653 8792:4.5606735e-06 8810:0.029207367 #
-1.5475229793349212226161171201966 208:0.030042171 448:0.011668529 1187:0.10506276 2534:0.13640694 2543:0.0036740548 2879:0.071905211 4051:0.129843 4504:0.0012807541 4807:0.018538229 5546:0.094894499 6640:0.008721713 8176:0.0078095039 8792:5.3750796e-06 #
-5.7253476993956500251670149737038 103:0.036098454 658:0.013540721 668:0.036098454 735:0.036098454 759:0.046459388 857:0.043255042 926:0.036098454 957:0.032055054 988:0.036098454 1059:0.0034606731 1068:0.036098454 1097:0.0060859532 1549:0.017218059 1638:0.018866051 1955:0.022307174 2543:0.0018681635 2795:0.036098454 3039:0.036098454 3258:0.011342811 3397:0.036098454 3447:0.028445151 3514:0.036098454 3531:0.012776012 3596:0.036098454 3883:0.026952852 4504:0.00043415392 4778:0.026658257 5062:0.022909451 5394:0.0064775511 5877:0.036098454 6891:0.002595704 7268:0.011792894 7277:0.032055054 7342:0.038992818 7514:0.025072778 8176:0.0026472895 8792:9.717658e-06 #
-5.1291568367835065345161638106219 49:0.044454768 448:0.0040236306 540:0.061390478 636:0.073441684 1046:0.0065065157 1097:0.0041272556 1174:0.018091366 1549:0.035029847 1738:0.0045627775 1843:0.019426173 1850:0.029367505 2251:0.041013867 2459:0.037719581 2543:0.0025338309 2864:0.048490684 4232:0.016456576 4614:0.068251513 4807:0.0063924929 5633:0.010587884 5756:0.010295574 5949:0.035629194 6556:0.03041506 6640:0.0030074872 7125:0.04017584 7217:0.019921934 7544:0.065215454 8504:0.022141138 8792:3.7069515e-06 #
-9.7817631421825979032291797921062 341:0.028479049 448:0.0016789251 598:0.019915512 658:0.011495001 676:0.0091045229 828:0.017239532 1051:0.028479049 1059:0.0029378375 1085:0.022183644 1097:0.0051664924 1456:0.01531859 1531:0.0039893826 1738:0.0019038927 1843:0.0081058852 1850:0.012254067 2035:0.020233523 2135:0.00482741 2176:0.025046522 2209:0.027212204 2283:0.014827055 2295:0.030644732 2301:0.012782332 2302:0.013667499 2347:0.016516762 2383:0.018012539 2412:0.0083250655 2420:0.012761844 2459:0.015739106 2467:0.018124137 2543:0.0047577689 2550:0.022630751 2625:0.021212775 2937:0.0078591546 3674:0.021284804 3694:0.0098463176 4232:0.0068667731 4416:0.023779677 4737:0.0060395463 4807:0.0080021136 4812:0.0036460527 4885:0.030644732 5977:0.0045017661 6297:0.010248645 6427:0.030644732 6556:0.012691176 6595:0.022880839 6640:0.0012549227 6675:0.019915512 7107:0.012983978 7114:0.008223094 7242:0.020017961 7372:0.0066565089 7544:0.027212204 7612:0.0028899312 7620:0.0028587561 7915:0.023450488 7932:0.013864599 8264:0.030644732 8792:4.1247613e-06 #
-26.978246069947381613474135519937 37:0.0054415474 658:0.026410002 1000:0.0086953789 1046:0.0031188258 1097:0.00098917692 1148:0.02427602 1355:0.0051871752 1538:0.0023614257 1731:0.0096501587 1851:0.0091021191 2309:0.0082043801 2478:0.006139799 2543:0.0036436906 2710:0.012998655 2863:0.0017572754 2937:0.0067712138 3022:0.014346044 3280:0.0079469336 3555:0.015113875 3663:0.0053959838 3754:0.0086458698 3793:0.0081948591 3979:0.002525358 4087:0.0044092988 4168:0.057489596 4170:0.005845123 4205:0.011326876 4504:0.00021169489 4643:0.0054057622 4789:0.0027284324 4800:0.0015237596 4807:0.0030641702 4810:0.0045795366 4812:0.0041884407 4999:0.012998655 5057:0.0078819636 5107:0.011439075 5397:0.008973958 5633:0.0025375918 5756:0.002467534 5770:0.0049109454 5864:0.005616738 5873:0.004098109 5886:0.0027091233 6320:0.013921915 6640:0.0021624081 6687:0.0045808037 6861:0.0027334054 6891:0.0012656739 6951:0.0034744607 7350:0.0023599544 7372:0.0019116834 7380:0.0037965453 7572:0.0095463954 7612:0.0058097169 7620:0.0016420127 7688:0.0088520236 7717:0.015653178 7762:0.0067406152 8025:0.0022668189 8105:0.030227751 8176:0.0012908271 8466:0.0098776286 8614:0.011229376 8792:7.4036907e-06 #
-3.0804005843698623046122975210892 371:0.037083298 448:0.0022879469 676:0.012407145 1082:0.024120364 1083:0.032907136 1097:0.0023468707 1845:0.047343522 2543:0.0064836261 2712:0.083521917 3323:0.074166596 3465:0.044565607 4462:0.036268327 4504:0.0005022565 4603:0.042896781 4801:0.010856171 4807:0.0072698942 4812:0.0099372808 5450:0.038809683 6320:0.022020284 6640:0.0017101398 6891:0.0060057463 7350:0.0055991076 7612:0.0039382395 7620:0.0077915117 7790:0.058448318 8176:0.0030625507 8792:7.0262477e-06 #
-2.9839948954796380320431126165204 1141:0.010436758 1738:0.0061544441 2543:0.0017088627 2863:0.0098897824 3476:0.056745902 3489:0.072406739 3545:0.095478691 3849:0.040992748 3882:0.087965034 4504:0.0011913992 4829:0.063746601 5076:0.021385359 5447:0.080964334 5781:0.073155217 5801:0.059349943 6297:0.033129342 6640:0.0040566106 7350:0.013281603 8176:0.0072646551 8558:0.054190669 8792:6.6667653e-06 #
-8.8396582721880534450065169949085 252:0.005569011 658:0.043183923 686:0.011585897 857:0.068974257 1046:0.010199403 1059:0.0055183703 1097:0.009704628 1141:0.0060646031 1531:0.0074935695 1738:0.003576231 1955:0.017785449 2086:0.10222963 2131:0.012052557 2543:0.0029789633 2679:0.012012428 2787:0.0081686396 2937:0.0073812329 3253:0.016309781 4423:0.011893662 4504:0.00069229951 4529:0.039421555 4716:0.057562403 4726:0.0117199 4807:0.010020665 5452:0.052301802 6640:0.0023572198 6655:0.02785082 6891:0.0082781911 7357:0.049426455 7364:0.01746673 7612:0.002714192 7684:0.010900073 8176:0.0042213537 8792:4.842414e-06 #
-4.1702375256408732440149833564647 1059:0.0055183703 1230:0.024735823 1881:0.06444747 2543:0.0019859755 2637:0.056002624 3369:0.041696757 3803:0.083338551 4462:0.049991477 4504:0.00069229951 4807:0.010020665 4812:0.013697334 5213:0.14435059 5306:0.068303354 5394:0.020658135 6406:0.054637071 6891:0.0041390955 7350:0.0077176886 8176:0.0042213537 8285:0.057562403 8792:7.7478626e-06 #
-0.78837592171301318355602916199132 901:0.13119024 2543:0.0086448351 2926:0.098546267 4504:0.0015067694 5461:0.1065242 5986:0.17672619 7612:0.011814718 8176:0.0091876518 8792:6.323623e-06 #
-8.3809309025839358042730964371003 625:0.067582846 658:0.096836671 1613:0.083460197 2479:0.053739741 3531:0.091367841 4232:0.028923681 4806:0.090329215 4993:0.06815061 5496:0.1034703 5769:0.08172486 5873:0.030052798 6595:0.096376866 7546:0.068212651 8069:0.064959832 8152:0.11995721 8792:2.1717492e-06 #
-5.9371989209964768363647635851521 1372:0.10346431 1492:0.11255088 2543:0.0036740548 3012:0.058152765 3674:0.14792939 4504:0.0025615082 5977:0.031287275 6486:0.10403204 6640:0.008721713 7016:0.045074623 7242:0.13912483 7612:0.010042511 8204:0.10476325 8792:3.5833864e-06 #
-2.8486048329997970540716778486967 448:0.0080472613 1141:0.015475194 1538:0.01970569 2507:0.05209155 2543:0.0025338309 3031:0.13650303 3563:0.097525999 4232:0.032913152 5584:0.070693195 6363:0.1063285 6640:0.012029949 7430:0.10847154 7688:0.024622871 8370:0.023951614 8792:4.9426017e-06 #
-9.7000155861576580207383813103661 37:0.0038392257 84:0.0052010105 252:0.0024029552 306:0.0029023574 404:0.011156063 411:0.007598849 437:0.03166822 658:0.0093166474 729:0.02039735 774:0.0038043526 1059:0.0023811045 1097:0.0027916131 1101:0.0036474853 1129:0.0067353579 1141:0.0026167966 1174:0.0030591814 1209:0.010380898 1400:0.0056727421 1455:0.010380898 1510:0.020206073 1514:0.0028274225 1549:0.0059234141 1620:0.031990301 1629:0.020701746 1722:0.022427499 1731:0.0068085669 1738:0.0015430967 2257:0.0090772295 2260:0.0053828512 2272:0.0041625304 2283:0.0060086315 2543:0.0034276897 2624:0.0074654454 2863:0.001239827 2937:0.0015924525 2943:0.0062653879 2959:0.012418711 3116:0.0085593415 3172:0.003313177 3650:0.0050876676 3663:0.0038070788 3754:0.0061000013 3979:0.0017817395 4064:0.010663434 4268:0.0054688118 4286:0.019998454 4461:0.00862562 4489:0.0038099864 4504:0.00014935908 4643:0.0038139781 4789:0.0019250164 4800:0.0032252171 4801:0.0032283657 4807:0.0054047317 4812:0.0059102196 4915:0.0070576346 4978:0.077193804 4993:0.0098351464 5057:0.0055610356 5107:0.016141435 5394:0.0022284286 5633:0.001790371 5706:0.0093825804 5756:0.0017409425 5770:0.0034648655 5873:0.0086741317 5886:0.0019113931 5949:0.0060247616 5977:0.0018243309 6271:0.011027686 6320:0.003274153 6640:0.0010171094 6861:0.0019285252 6891:0.0008929827 7114:0.0033323907 7350:0.0016650407 7372:0.0026975358 7380:0.002678612 7542:0.0027966171 7572:0.0067353579 7597:0.0049278247 7612:0.0029278456 7620:0.0011585046 7924:0.0074654454 8025:0.0015993299 8029:0.011541072 8176:0.00091072934 8504:0.0037439824 8614:0.0039613834 8792:7.5219773e-06 8835:0.011541072 #
-2.7661282516312342139030988619197 64:0.067616358 290:0.024194 1060:0.012620754 1248:0.067852013 2094:0.066937223 2543:0.001933713 2625:0.038797051 2637:0.05452887 3471:0.044792384 4504:0.0013481622 4807:0.0097569628 4812:0.013336877 6798:0.05430837 7282:0.089855783 7694:0.07530731 7717:0.024921509 8176:0.01644106 8792:5.6579784e-06 #
-4.4527660497438716902252053841949 701:0.086930975 1097:0.0097706458 1187:0.085765518 1491:0.047555078 1580:0.060379341 1654:0.058053967 2069:0.086930975 2459:0.044647668 2543:0.0044988426 2946:0.033290386 4232:0.019479213 4812:0.010342885 5977:0.012770317 5983:0.056213629 6640:0.0071197655 6836:0.086930975 7364:0.026378328 7460:0.035113096 8222:0.071050338 8294:0.069684073 8792:4.3878199e-06 8832:0.0360015 #
-2.7141690619455407507132349564927 290:0.028730376 1400:0.060804706 2543:0.0022962843 2746:0.060224354 2794:0.12370587 3476:0.076252304 3545:0.064149745 3574:0.080020241 4504:0.0016009426 4801:0.034604043 4812:0.015837541 5961:0.062190775 6249:0.051596615 7412:0.055931117 7620:0.012417722 8176:0.0097618802 8792:4.4792328e-06 #
-3.4424082885329516656724990752991 448:0.0066677309 644:0.044540402 1816:0.10450165 1844:0.074747577 1921:0.06102189 2459:0.062506735 2543:0.0020994598 2669:0.057616562 2937:0.031212071 4067:0.057336137 4170:0.040414851 4232:0.027270898 4812:0.014480039 6403:0.053645734 6640:0.0049838359 8222:0.099470474 8792:4.0952987e-06 #
-2.4693023024676961085788207128644 252:0.013736893 448:0.0038895097 901:0.074341133 1275:0.041479431 1407:0.035541885 1531:0.009242069 2543:0.0024493698 2625:0.049142931 2787:0.010074656 3012:0.019384256 3254:0.029781021 3382:0.056908663 3979:0.0050928053 4202:0.063041605 4504:0.00085383607 4657:0.033325773 4807:0.00617941 4812:0.0084466888 4975:0.053007275 5394:0.012739183 5712:0.035122156 5770:0.0099037401 5873:0.016529039 6640:0.0029072377 7042:0.057562113 7114:0.019050168 7387:0.030079549 7597:0.028170731 7762:0.027187148 8283:0.032289974 8792:8.3612349e-06 #
-2.6388067127071495043821869330714 1097:0.0068394523 2098:0.12170336 2543:0.0041989195 3253:0.034483537 3694:0.039103948 4232:0.027270898 4492:0.038466681 4603:0.062506735 4812:0.014480039 5394:0.0218386 6640:0.0049838359 8241:0.10807133 8792:4.0952987e-06 #
-2.9864818055229997995070334582124 371:0.072740316 676:0.012168545 905:0.045968961 997:0.076126687 1097:0.0046034772 1174:0.020178832 1406:0.01276733 1579:0.029095838 1638:0.042811424 1916:0.043371085 2459:0.042071842 2543:0.0056523918 3640:0.048600461 3694:0.026319966 4224:0.043538127 4229:0.064548612 4232:0.018355412 4801:0.042589594 4812:0.0097461799 5384:0.01277793 5394:0.014699058 5475:0.061162241 5663:0.076126687 6406:0.038876377 7114:0.021980962 8792:4.1346766e-06 #
-0.62509651473409122424129691353301 738:0.063061342 785:0.033965454 1097:0.0041272556 1284:0.023992438 2088:0.063061342 2418:0.048227929 2543:0.0025338309 3030:0.048227929 4388:0.12798041 4504:0.00044163933 4656:0.033731408 4865:0.049339272 4951:0.063061342 4987:0.033047266 4993:0.038775347 5040:0.049339272 5489:0.098678544 6412:0.05787117 7014:0.041737393 7253:0.031276096 7612:0.0034629346 7740:0.015823927 7845:0.063061342 7846:0.063061342 7930:0.063061342 8176:0.0026929325 8351:0.032886814 8370:0.011975807 8792:5.5604273e-06 #
-1.8951482425692289801588685804745 252:0.006060394 290:0.013520177 676:0.018610716 1059:0.030026428 2543:0.0021612088 2831:0.081838131 2937:0.016065037 3012:0.034207508 3875:0.086394072 4504:0.00075338472 4800:0.0054227915 4812:0.029811842 4993:0.03307309 5093:0.076378234 5686:0.039081734 6667:0.1104471 7350:0.0083986614 7372:0.013606687 8176:0.0045938259 8403:0.073639497 8792:5.269686e-06 #
-1.8166374098387392255204986213357 448:0.013727682 1937:0.10841043 2543:0.0086448351 2879:0.084594369 4504:0.0015067694 5490:0.1654388 6801:0.16367626 8176:0.0091876518 8792:6.323623e-06 #
-5.1259553850297168153815619007219 1046:0.017970378 1059:0.019445686 1492:0.10719132 1891:0.15983465 2455:0.1468346 2543:0.0034990998 4105:0.13116513 4504:0.0024395315 7242:0.13249983 7345:0.090465821 7350:0.027195664 8792:3.4127488e-06 #
-12.986597973177431697422434808686 625:0.082601257 658:0.059177965 674:0.067070797 1613:0.1020069 1658:0.1289432 2479:0.032840956 3531:0.055835899 4232:0.035351165 4993:0.083295196 5503:0.1289432 5769:0.04994297 5873:0.036731198 8069:0.079395354 8792:2.6543603e-06 #
-0.071686966016121927980364603172347 625:0.074341133 658:0.05326017 674:0.060363714 900:0.12191859 1613:0.091806218 1658:0.11604889 2479:0.059113719 3531:0.10050462 4232:0.031816047 4993:0.074965671 5503:0.11604889 5769:0.044948671 5873:0.033058077 8069:0.071455821 8792:2.3889243e-06 #
-5.0042361684918148512224433943629 625:0.067582846 658:0.096836671 1219:0.097521976 1613:0.12519029 2479:0.053739741 3531:0.091367841 3976:0.10171296 4232:0.028923681 4993:0.10222592 5769:0.08172486 5873:0.030052798 7546:0.068212651 8069:0.064959832 8792:2.1717492e-06 #
-0.17357566477420904860196060326416 625:0.082601257 658:0.11835593 1219:0.11919352 1613:0.051003452 2479:0.065681912 3531:0.1116718 4232:0.035351165 4993:0.041647598 5769:0.099885941 5873:0.036731198 7546:0.083371021 8069:0.026465118 8625:0.13187584 8792:2.6543603e-06 #
-3.0442412917465575539210931310663 448:0.010146547 1407:0.092717953 2543:0.0031948301 3545:0.089251824 3551:0.18520077 4504:0.0022273983 7042:0.075081013 7350:0.024830824 7620:0.017276831 7740:0.039903812 8792:3.1159882e-06 #
-16.040369821904363334397203288972 3329:0.08755327 4504:0.0021345902 4993:0.093707092 8176:0.01301584 8792:8.9584655e-06 #
-2.7358819920266501668493219767697 1664:0.11650649 1881:0.091713712 2637:0.079696037 2863:0.016356179 3230:0.047176782 4087:0.041040398 4423:0.033851191 4504:0.00098519539 5388:0.060987528 7620:0.01528335 8176:0.0060073109 8620:0.070379443 8792:6.8911277e-06 8811:0.072707765 #
-1.0770094430900423176922231505159 625:0.082601257 658:0.11835593 1164:0.15776362 1613:0.051003452 2479:0.065681912 3531:0.1116718 3730:0.12242131 4232:0.035351165 4993:0.041647598 5769:0.099885941 5873:0.036731198 7546:0.083371021 8069:0.026465118 8792:2.6543603e-06 #
-1.4621589596301283187074204761302 625:0.082601257 658:0.11835593 1176:0.15776362 1613:0.051003452 2479:0.065681912 3531:0.1116718 4232:0.035351165 4993:0.041647598 5769:0.099885941 5873:0.036731198 6573:0.1354651 7546:0.083371021 8069:0.026465118 8792:2.6543603e-06 #
-1.36445978869688344659039103135 625:0.082601257 658:0.11835593 1283:0.14009246 1613:0.051003452 2479:0.065681912 3531:0.1116718 3730:0.12242131 4232:0.035351165 4993:0.041647598 5769:0.099885941 5873:0.036731198 7546:0.083371021 8069:0.026465118 8792:2.6543603e-06 #
-1.63588699942150794797157686844 625:0.082601257 658:0.11835593 1238:0.12242131 1613:0.051003452 2479:0.065681912 3531:0.1116718 4052:0.1354651 4232:0.035351165 4993:0.041647598 5769:0.099885941 5873:0.036731198 7546:0.083371021 8069:0.026465118 8792:2.6543603e-06 #
-1.7295871022682480777632463286864 208:0.010729347 448:0.0041673318 1881:0.042581365 2024:0.047456387 2412:0.020664001 2625:0.026326571 2637:0.037001733 3172:0.02029321 4018:0.052831925 4504:0.00091482431 4643:0.011680308 4732:0.070689067 4785:0.0204287 4812:0.018100047 5906:0.059953313 6640:0.0031148975 7292:0.012411965 7372:0.016522406 7479:0.10912492 7591:0.029502906 8016:0.02999704 8139:0.070689067 8176:0.0055782171 8398:0.037740886 8472:0.042080853 8699:0.070689067 8792:6.3989041e-06 #
-0.82743740078656147218794103537221 625:0.092926413 658:0.13315043 1618:0.13251819 2479:0.073892146 3531:0.12563078 4232:0.039770059 5769:0.11237168 5873:0.041322596 6181:0.16494116 7546:0.093792401 8792:2.9861553e-06 #
-0.64525390921721115233822274603881 625:0.092926413 658:0.13315043 2479:0.073892146 3531:0.12563078 4232:0.039770059 5769:0.11237168 5873:0.041322596 5996:0.12731241 7546:0.093792401 8470:0.16494116 8792:2.9861553e-06 #
-0.72508342999441399712168276892044 625:0.092926413 658:0.13315043 2479:0.073892146 3531:0.12563078 4232:0.039770059 5769:0.11237168 5873:0.041322596 6475:0.13985533 7546:0.093792401 7677:0.17748408 8792:2.9861553e-06 #
-0.72508342999441399712168276892044 625:0.092926413 658:0.13315043 899:0.17748408 2479:0.073892146 3531:0.12563078 4232:0.039770059 5769:0.11237168 5873:0.041322596 7064:0.13985533 7546:0.093792401 8792:2.9861553e-06 #
-0.76948426056479690693379325239221 625:0.092926413 658:0.13315043 2316:0.14506111 2479:0.073892146 2821:0.16494116 3531:0.12563078 4232:0.039770059 5769:0.11237168 5873:0.041322596 7546:0.093792401 8792:2.9861553e-06 #
-0.063110815867003969281689990111772 110:0.020887529 193:0.04434441 252:0.0053520366 828:0.031120714 1046:0.0049010119 1097:0.0062176837 1101:0.0081239445 2189:0.024623452 2301:0.023074599 2411:0.030464986 2459:0.056824304 2543:0.0057257996 2787:0.0078503806 3010:0.025054598 3135:0.039681789 3694:0.017774522 4232:0.012395863 4416:0.085853904 4603:0.028412152 4801:0.043142706 4807:0.0048151244 4812:0.0065818354 5053:0.051410232 5977:0.0081265653 7219:0.035430375 7242:0.036136318 7372:0.0060081477 7608:0.0059401495 7892:0.032133609 8241:0.049123332 8416:0.029694675 8504:0.016677739 8702:0.042332698 8792:3.7229988e-06 #
-0.77617464783978373787931559490971 625:0.092926413 658:0.13315043 2173:0.15760402 2479:0.073892146 3531:0.12563078 4081:0.15239824 4232:0.039770059 5769:0.11237168 5873:0.041322596 7546:0.093792401 8792:2.9861553e-06 #
-0.96830441380027076903047600353602 267:0.13772397 625:0.092926413 658:0.13315043 1279:0.13985533 2479:0.073892146 3531:0.12563078 4232:0.039770059 5769:0.11237168 5873:0.041322596 7546:0.093792401 8792:2.9861553e-06 #
-0.79926710372917963987049461138668 625:0.092926413 658:0.13315043 1761:0.15239824 2479:0.073892146 3531:0.12563078 4232:0.039770059 4859:0.15239824 5769:0.11237168 5873:0.041322596 7546:0.093792401 8792:2.9861553e-06 #
-0.87195241906003184695350682886783 495:0.13985533 625:0.092926413 658:0.13315043 2479:0.073892146 3531:0.12563078 4232:0.039770059 5769:0.11237168 5873:0.041322596 7546:0.093792401 8696:0.15239824 8792:2.9861553e-06 #
-1.01595541381496956567787037784 1613:0.13115174 1824:0.20283894 2479:0.042224083 3531:0.071789019 4504:0.0024395315 4993:0.10709382 5873:0.047225825 8069:0.068053164 8792:3.4127488e-06 #
-1.0075606221040542820333030249458 1613:0.13115174 2479:0.042224083 3531:0.071789019 3980:0.20283894 4504:0.0024395315 4993:0.10709382 5873:0.047225825 8069:0.068053164 8792:3.4127488e-06 #
-1.0159554138542155055091598114814 1613:0.13115174 2479:0.042224083 3531:0.071789019 4504:0.0024395315 4993:0.10709382 5873:0.047225825 6160:0.20283894 8069:0.068053164 8792:3.4127488e-06 #
-0.94437186508397041873053012750461 625:0.092926413 658:0.13315043 1299:0.13409272 2479:0.073892146 3531:0.12563078 4232:0.039770059 5356:0.12154979 5769:0.11237168 5873:0.041322596 7546:0.093792401 8792:2.9861553e-06 #
-0.58539820650023366432890270516509 625:0.092926413 658:0.13315043 2479:0.073892146 3531:0.12563078 4232:0.039770059 5429:0.16494116 5769:0.11237168 5873:0.041322596 6444:0.15760402 7546:0.093792401 8792:2.9861553e-06 #
-0.58511348961969289472762056902866 625:0.092926413 658:0.13315043 744:0.16494116 2479:0.073892146 3531:0.12563078 4201:0.15760402 4232:0.039770059 5769:0.11237168 5873:0.041322596 7546:0.093792401 8792:2.9861553e-06 #
-0.67840580140747785975463557406329 625:0.092926413 658:0.13315043 856:0.15239824 2479:0.073892146 3531:0.12563078 4232:0.039770059 5769:0.11237168 5873:0.041322596 7546:0.093792401 8000:0.17748408 8792:2.9861553e-06 #
-0.64037253335062693793133803410456 625:0.092926413 658:0.13315043 2479:0.073892146 3531:0.12563078 4232:0.039770059 5606:0.15760402 5769:0.11237168 5783:0.15239824 5873:0.041322596 7546:0.093792401 8792:2.9861553e-06 #
-0.68042715479890514274075030698441 625:0.092926413 658:0.13315043 1340:0.16494116 2479:0.073892146 3531:0.12563078 4232:0.039770059 5769:0.11237168 5873:0.041322596 5962:0.16494116 7546:0.093792401 8792:2.9861553e-06 #
-0.83429783704456883519640086888103 625:0.092926413 658:0.13315043 2167:0.15760402 2479:0.073892146 3531:0.12563078 4232:0.039770059 5769:0.11237168 5873:0.041322596 7495:0.13985533 7546:0.093792401 8792:2.9861553e-06 #
-1.9625182897707884599469707609387 625:0.082601257 658:0.11835593 1613:0.051003452 2479:0.065681912 3453:0.13187584 3531:0.1116718 4232:0.035351165 4993:0.041647598 5769:0.099885941 5873:0.036731198 7460:0.063723765 7546:0.083371021 8069:0.026465118 8792:2.6543603e-06 #
-5.5675978810206814273442432750016 759:0.099676505 857:0.092801727 1059:0.0074247168 1097:0.0043523787 1549:0.036940563 1955:0.047859028 2543:0.0040080599 3883:0.05782612 4504:0.0009314575 4892:0.039073236 5394:0.013897291 6891:0.0055689649 7268:0.025301116 7342:0.083657324 7514:0.053792506 7971:0.068772666 8176:0.0056796391 8792:7.8182975e-06 #
-3.5214153406084047759350141859613 759:0.099676505 857:0.092801727 1059:0.0074247168 1097:0.0043523787 1275:0.045250285 1549:0.036940563 1955:0.047859028 2543:0.0040080599 3883:0.05782612 4504:0.0009314575 5394:0.013897291 5406:0.077447593 6891:0.0055689649 7268:0.025301116 7342:0.083657324 7514:0.053792506 8176:0.0056796391 8792:7.8182975e-06 #
-2.1085176939831962172888779605273 686:0.041822262 1284:0.067881048 1372:0.10094079 1456:0.10386751 1738:0.012909322 2543:0.0035844436 4504:0.0012495161 5977:0.03052417 6042:0.17369014 7242:0.13573153 7350:0.013929487 7612:0.0097975712 8176:0.0076190284 8792:5.24398e-06 #
-4.802559645200950022569941211259 37:0.01995234 208:0.018207377 448:0.0070718359 1101:0.018955871 1531:0.016803762 1738:0.0080194268 1777:0.064819507 2543:0.0044533997 2637:0.062790819 3012:0.0352441 4504:0.0015524292 4807:0.011235291 5633:0.018609008 6320:0.017015673 7114:0.034636669 7350:0.017306332 7461:0.11083508 8665:0.033960115 8792:4.3434984e-06 #
-0.53834751667018898579897268064087 59:0.14137813 977:0.14137813 1060:0.017128166 1104:0.1521292 1141:0.016027879 2302:0.067849368 2543:0.0026243248 2931:0.11987599 3116:0.052425969 3395:0.1521292 4504:0.0018296486 4515:0.090258002 7372:0.016522406 8003:0.062371433 8792:5.1191232e-06 #
-0.55894487310529716861395854721195 625:0.092926413 658:0.13315043 2479:0.073892146 3531:0.12563078 4232:0.039770059 4761:0.17748408 5769:0.11237168 5873:0.041322596 5996:0.12731241 7546:0.093792401 8792:2.9861553e-06 #
-0.37533628511084637935368846228812 625:0.092926413 658:0.13315043 711:0.15760402 1455:0.14836033 2479:0.073892146 3531:0.12563078 4232:0.039770059 5769:0.11237168 5873:0.041322596 7546:0.093792401 8792:2.9861553e-06 #
-0.16233246591862648955384429427795 448:0.0040942207 619:0.074730136 819:0.041438434 1046:0.0066206651 1368:0.14946027 1424:0.058886454 1514:0.017014138 1531:0.0097284941 1738:0.0092856521 1821:0.047862086 2505:0.074730136 2543:0.0012891421 2937:0.0095826536 3979:0.0053608478 4504:0.00089877477 4907:0.066359587 4959:0.061078358 5289:0.057186276 5725:0.049341399 6640:0.0061205002 7177:0.091795266 7234:0.074730136 7372:0.0081162695 7608:0.016048826 7612:0.0070473757 8291:0.044337261 8370:0.01218591 8416:0.040113859 8467:0.074730136 8508:0.04328467 8558:0.04088068 8748:0.0371884 8792:6.2866429e-06 #
-4.6870516914422690746278021833859 8:0.0078844484 256:0.024556192 539:0.0095807854 857:0.017600328 1059:0.0028162717 1060:0.0033075078 1097:0.0033018044 1258:0.0048788721 1359:0.014662613 1372:0.014270938 1386:0.024010114 1531:0.011472913 1626:0.014450103 1633:0.021694306 2041:0.018042518 2178:0.0038257779 2322:0.015768897 2478:0.010247112 2543:0.0025338309 2551:0.032600082 2696:0.012053341 2787:0.0041688229 2937:0.015067896 2946:0.011249854 3106:0.0046388782 3128:0.015380924 3230:0.0084592849 3262:0.0032942852 3282:0.01338058 3329:0.0072457879 3510:0.021472342 3929:0.022194656 3979:0.0010536838 4026:0.013976702 4126:0.020404054 4442:0.01665186 4504:0.00017665574 4690:0.019091422 4807:0.0025569974 4987:0.0066094529 4993:0.03102028 5038:0.024556192 5464:0.020557685 5864:0.0093741426 6224:0.032140672 6320:0.0038725326 6621:0.024556192 6627:0.016251916 6640:0.0048119794 6687:0.015290407 6839:0.0035665811 6883:0.024010114 6962:0.013773563 7253:0.012510438 7372:0.0031905337 7380:0.006336303 7542:0.0066154464 7556:0.022480123 7612:0.0027703478 7689:0.014684717 7757:0.015113324 7839:0.049112383 7858:0.013208452 8025:0.0075664851 8176:0.0010771729 8370:0.0095806457 8505:0.019735709 8792:5.436862e-06 #
-4.9795796225230786191673360008281 28:0.0034301085 37:0.0014896544 110:0.0036387776 125:0.0042896057 290:0.0020800272 415:0.0089565581 448:0.0015839633 645:0.0038135441 658:0.039764378 693:0.0096371444 774:0.0029522465 857:0.0057738633 876:0.0087947845 921:0.0056819678 966:0.0047816508 1059:0.0046194503 1060:0.0043401686 1097:0.0048742699 1158:0.018985655 1174:0.0023739801 1187:0.014261913 1204:0.0020639994 1230:0.0041412916 1355:0.005680074 1439:0.013004172 1467:0.0028488319 1510:0.0052267597 1526:0.0078766206 1531:0.0012545795 1562:0.011750498 1630:0.0039185244 1672:0.011011506 1738:0.00059873553 1821:0.018516779 1913:0.0030484067 1937:0.0083392635 1955:0.0059553087 2189:0.0042896057 2262:0.0098135378 2474:0.0055355304 2534:0.0061722598 2538:0.0096371444 2543:0.0024937023 2719:0.0070440946 2757:0.0062630228 2787:0.004102801 2800:0.0053193048 2863:0.00096212816 2877:0.0069128908 2937:0.003707316 3016:0.0096371444 3066:0.0066456981 3128:0.050457783 3230:0.024975942 3254:0.040426727 3282:0.013168669 3369:0.0034904527 3636:0.0096371444 3979:0.0020739932 4043:0.010264216 4057:0.0096371444 4195:0.0051626563 4201:0.0085576847 4224:0.010244265 4353:0.019274289 4494:0.0096371444 4504:0.00011590534 4516:0.0051421854 4531:0.019274289 4603:0.019798514 4680:0.0059189256 4682:0.0052953386 4778:0.10675365 4800:0.0016685512 4801:0.0025052703 4807:0.0016776678 4812:0.0011466093 4814:0.0014995494 4919:0.0039541502 4993:0.0076322518 5290:0.0057177013 5329:0.0040459866 5338:0.0037550558 5783:0.0082750171 5790:0.015187909 5864:0.0030752276 5873:0.0067312829 6128:0.0069128908 6320:0.0012704009 6444:0.0085576847 6489:0.0074782246 6514:0.0074782246 6525:0.017045904 6535:0.0096371444 6540:0.0078766206 6640:0.0051304195 6653:0.0080557643 6687:0.0050160838 6839:0.0070201932 6930:0.011764334 7016:0.0020395757 7114:0.012929978 7293:0.0040239356 7350:0.0025842034 7372:0.0010466683 7380:0.0010393257 7523:0.0097876862 7608:0.0020696449 7612:0.0022720613 7620:0.0026970617 7686:0.015753241 7688:0.0016155278 7697:0.0071175634 7719:0.0061437776 7762:0.0036905629 7862:0.0059176232 8113:0.0034301085 8180:0.0082750171 8225:0.0054487768 8283:0.0043832543 8294:0.0077251578 8364:0.003210146 8416:0.0051730541 8471:0.019274289 8472:0.0053315107 8478:0.0046690456 8504:0.0029053981 8558:0.010543887 8598:0.0027831707 8614:0.016907578 8623:0.0096371444 8665:0.0076064514 8779:0.010264216 8792:6.1614787e-06 8811:0.0042769276 8832:0.0079822326 #
-1.884276290604205428280693013221 1023:0.10417789 1355:0.02988801 1407:0.10154824 1738:0.012601957 2543:0.0034990998 3116:0.069901295 3680:0.09935388 3932:0.042790946 4504:0.0012197657 4807:0.017655456 7612:0.0095642954 7717:0.022548031 8176:0.0074376226 8504:0.061151713 8691:0.048875999 8792:5.1191232e-06 #
-6.4222247607910407651843343046494 37:0.0036276982 84:0.0049144533 306:0.0054848958 404:0.010541404 411:0.0071801799 437:0.029923413 448:0.0012857884 658:0.0088033341 729:0.014455147 774:0.0035947466 1059:0.0022499142 1097:0.0019783538 1101:0.0034465219 1129:0.0063642636 1141:0.0024726205 1174:0.0057812631 1204:0.0025131893 1209:0.0098089473 1275:0.0068561039 1383:0.002256263 1400:0.0053601945 1510:0.012728527 1514:0.0026716418 1549:0.0055970554 1629:0.015648922 1722:0.015893867 1731:0.0064334394 1738:0.0014580777 1850:0.0046923286 2257:0.0085771065 2260:0.0050862753 2272:0.0039331899 2283:0.0056775776 2288:0.083360806 2461:0.011734484 2543:0.0030364089 2624:0.0070541259 2863:0.001171517 2937:0.0015047141 2943:0.0059201876 3071:0.0064334394 3116:0.01213163 3172:0.0031306327 3254:0.0049224831 3613:0.0089796633 3650:0.0048073553 3663:0.0035973224 3754:0.005763913 3979:0.002525358 4268:0.0051674997 4286:0.012597741 4461:0.0081503792 4504:0.00014112993 4643:0.0036038416 4789:0.0018189549 4800:0.004063359 4801:0.0030504942 4807:0.0051069502 4812:0.0055845878 4915:0.0066687842 4993:0.021684285 5057:0.0052546426 5111:0.010420101 5126:0.010075917 5356:0.0080363499 5364:0.0098089473 5394:0.0021056503 5633:0.001691728 5706:0.008865634 5756:0.0016450228 5770:0.0049109454 5873:0.0081962179 5886:0.0018060822 5949:0.0056928187 5977:0.0034476337 6320:0.0030937588 6531:0.0030803527 6640:0.0014416054 6861:0.0018222703 6891:0.00084378256 7114:0.0031487879 7350:0.0015733029 7372:0.0012744556 7380:0.0025310302 7542:0.0026425335 7572:0.0063642636 7597:0.004656319 7612:0.0022132255 7620:0.0010946752 7924:0.0070541259 8025:0.0015112126 8029:0.010905201 8162:0.007153884 8176:0.00086055143 8179:0.030227751 8504:0.0035377024 8614:0.0037431254 8712:0.0064769499 8792:7.5024068e-06 8835:0.010905201 #
-3.1560285408960631059471779735759 1738:0.010585643 2669:0.080663189 4232:0.03817926 4800:0.014749994 4801:0.044293176 4812:0.020272054 4896:0.15129986 5461:0.072436459 6640:0.0069773705 8792:2.8667091e-06 #
-9.5565824777002781331702863099054 37:0.002644286 102:0.0026238712 208:0.0048260516 448:0.0018744626 498:0.0026943695 676:0.0025412224 741:0.0026499752 933:0.0076449476 1046:0.0015155739 1059:0.0032799954 1060:0.0019260588 1097:0.0028841062 1101:0.0050244476 1141:0.0036046635 1323:0.0026853997 1355:0.010082702 1406:0.0026662697 1439:0.0025648568 1538:0.0045900806 1641:0.0026921227 1662:0.010587825 1717:0.0095534306 1920:0.002663617 1941:0.0095081255 2135:0.0026948191 2323:0.0026578833 2543:0.0035412577 2863:0.0017078741 2929:0.0072914576 2937:0.0021936195 3128:0.017913526 3482:0.0026966191 3663:0.0026221448 3885:0.002586701 3932:0.00721775 3979:0.001227182 4000:0.011174684 4049:0.010546785 4128:0.027963586 4274:0.0028043287 4287:0.012503975 4504:0.00020574362 4586:0.002695269 4643:0.018388275 4789:0.0026517294 4800:0.0044427691 4807:0.0014890145 4812:0.00610604 4814:0.0026618508 5108:0.0063388618 5384:0.0026684834 5387:0.0019638017 5546:0.0076220478 5633:0.0073987623 5756:0.0023981656 5769:0.0054155025 5770:0.0023864435 5886:0.0026329632 5977:0.0025130343 5984:0.0091459705 6320:0.0045101787 6377:0.002693021 6640:0.0021016176 6861:0.0026565627 6891:0.0012300926 7292:0.0027914459 7372:0.0018579413 7380:0.0018449075 7436:0.0063028983 7608:0.0018369138 7612:0.00080662733 7620:0.0031917035 8025:0.0022030929 8063:0.013981793 8176:0.0012545388 8390:0.012271076 8457:0.02542649 8598:0.0024702037 8792:7.483377e-06 #
-2.7265492310410359699801574606681 306:0.076577589 4504:0.0039407816 5107:0.21294278 5723:0.10681761 5864:0.10455774 6151:0.07372082 8792:5.5129021e-06 #
-0.91144459722281678804023385964683 252:0.034342233 1059:0.034029953 1549:0.084655464 3180:0.15239824 4492:0.056097243 4504:0.0021345902 4993:0.046853546 6640:0.007268094 7268:0.057981726 7612:0.016737517 7876:0.16494116 8792:2.9861553e-06 #
-1.5399390194357782668532763636904 252:0.017412964 448:0.0032869095 864:0.053274598 1041:0.031132391 1059:0.0057515409 1097:0.0033715609 1439:0.0089950608 1777:0.060254756 2420:0.024984455 2543:0.00206989 3010:0.027171887 3012:0.016381061 3253:0.033997856 3282:0.01821769 3505:0.045327112 3650:0.02457845 3991:0.043851968 4173:0.026051896 4504:0.0003607758 4516:0.06402383 4807:0.0052220365 4812:0.014276094 5253:0.048091829 5552:0.096183658 6640:0.0098272823 7350:0.0080437884 7946:0.051514897 8025:0.0077263406 8176:0.0021998603 8299:0.048325345 8792:5.5517253e-06 #
-0.6948244025408214508132687114994 28:0.016939754 56:0.028708622 261:0.057417244 1566:0.10995653 1881:0.02664309 1903:0.028708622 2260:0.020629251 2267:0.14615448 2543:0.0041050892 2637:0.023151923 2863:0.0095030311 2943:0.072034463 3258:0.029909536 3421:0.038391922 3979:0.010242513 4504:0.00028620203 4602:0.034787595 4800:0.02060055 4812:0.0056625847 4994:0.057417244 5331:0.036474902 5394:0.0085402345 5674:0.02586743 6139:0.057417244 6891:0.0017111344 8113:0.016939754 8598:0.030925846 8792:5.2049186e-06 #
-0.85800097207111336583551519652246 615:0.21515046 852:0.10098778 901:0.26238048 3265:0.095834702 4235:0.1516692 4504:0.0030135389 6320:0.033030424 8051:0.18930736 8792:4.2157485e-06 8846:0.12172271 #
-0.82327480017598908546005986863747 448:0.0080472613 1060:0.01653754 1382:0.11774206 1738:0.0091255549 2309:0.068464138 2787:0.020844115 3232:0.11097328 4232:0.032913152 4814:0.022855202 5208:0.092019074 6363:0.1063285 6732:0.096455857 6883:0.12005057 6959:0.08556781 8558:0.080351681 8792:4.9426017e-06 #
-1.2998798838711698167003305570688 1514:0.069271855 4232:0.068177246 6119:0.13489643 6449:0.27017832 8792:5.1191232e-06 #
-2.8610700196645590942523540434195 35:0.013673878 59:0.0068369391 75:0.0073568528 102:0.0011284006 135:0.0073568528 177:0.013673878 208:0.0010377262 252:0.00071175612 290:0.0015878618 311:0.0073568528 314:0.0043112086 402:0.047858573 418:0.0035984914 433:0.0073568528 448:0.00040305802 501:0.0068369391 645:0.0029112028 686:0.0014807536 729:0.0030208509 784:0.0052317251 862:0.012100199 901:0.0038518722 1019:0.0073568528 1046:0.0019553259 1060:0.0024849153 1067:0.014713706 1097:0.0016537536 1203:0.0073568528 1242:0.0044689463 1248:0.0044531547 1311:0.012025791 1322:0.0030637241 1411:0.0073439684 1423:0.005492982 1514:0.001674967 1531:0.0038309095 1738:0.0027423948 1953:0.022070559 2022:0.0073568528 2199:0.0061496506 2240:0.0073568528 2265:0.0052317251 2302:0.0065622875 2395:0.022070559 2456:0.014713706 2472:0.0065328092 2479:0.0015314434 2528:0.0065328092 2543:0.00063455175 2546:0.0073568528 2602:0.027347757 2778:0.0073568528 2787:0.0010440057 2879:0.0049675447 2937:0.00094336999 3006:0.013673878 3046:0.0036664892 3116:0.0126764 3120:0.022070559 3172:0.0039254567 3207:0.0055582472 3272:0.0073568528 3384:0.0073568528 3531:0.0026037467 3550:0.023589082 3687:0.0019371866 3751:0.0061496506 3834:0.0073568528 3979:0.0021110075 4026:0.0035002101 4067:0.0034659149 4132:0.0073568528 4170:0.012215196 4425:0.029427411 4504:8.8480418e-05 4515:0.0043648081 4635:0.010985964 4751:0.012025791 4789:0.0011403811 4800:0.00063687365 4801:0.001912486 4807:0.0012807067 4857:0.014070205 4936:0.0071293074 5447:0.0060128956 5537:0.038685478 5723:0.0023983228 5769:0.0023289467 5873:0.015415684 5928:0.0052317251 5979:0.0040514749 6119:0.013046977 6406:0.0034914883 6493:0.0034411848 6579:0.0073568528 6640:0.00030126816 6679:0.0065328092 6725:0.0073568528 6766:0.013673878 6771:0.0068369391 6831:0.016889211 6832:0.0073568528 6875:0.012634051 6899:0.0068369391 6921:0.0065328092 6982:0.013673878 7114:0.003948221 7125:0.0040245228 7132:0.014713706 7253:0.0031330113 7325:0.0073568528 7372:0.0031960441 7427:0.029486353 7431:0.0073568528 7612:0.00034689155 7620:0.00068629894 7624:0.036784265 7625:0.0073568528 7740:0.0079256278 7862:0.0090348516 7948:0.022232989 8007:0.0055582472 8025:0.00094744418 8079:0.0057971119 8081:0.022070559 8221:0.030853771 8370:0.0011996491 8508:0.0042611849 8549:0.055582471 8558:0.020122616 8665:0.0058066519 8677:0.0073568528 8792:1.0521169e-05 #
-0.66509721160161494601936738035874 1763:0.11901925 4243:0.23664543 4504:0.0028461202 5580:0.080298342 6640:0.0096907923 8792:3.9815404e-06 #
-0.7050010031215317996000635503151 686:0.023171794 1097:0.0064697522 1844:0.070707165 1850:0.046035547 2543:0.0019859755 3505:0.17395811 4232:0.025796795 4443:0.086979054 4812:0.027394667 5898:0.099263348 6640:0.0047144396 7372:0.012503442 7380:0.012415729 7628:0.067876481 7979:0.11512481 8025:0.01482622 8792:3.8739313e-06 #
-0.056765388304683722653365407495585 252:0.01030267 448:0.008751397 658:0.019972563 1023:0.10938679 1097:0.0089767808 1407:0.026656412 1472:0.16298088 2543:0.0045925686 3116:0.018349089 3172:0.014205246 3253:0.015086547 4069:0.045719471 4504:0.00064037705 4800:0.0046093729 4812:0.0063350168 5394:0.009554388 6424:0.090313479 6476:0.017101005 6781:0.058002464 6891:0.0038286634 7112:0.016976994 7599:0.039320931 7688:0.0089257909 8370:0.0086824605 8504:0.016052324 8665:0.014008548 8792:6.270926e-06 #
-3.9665945676358176363862639846047 37:0.002644286 102:0.0026238712 208:0.0048260516 448:0.0018744626 498:0.0026943695 676:0.0025412224 741:0.0026499752 933:0.0076449476 1046:0.0015155739 1059:0.0032799954 1060:0.0019260588 1097:0.0028841062 1101:0.0050244476 1141:0.0036046635 1323:0.0026853997 1355:0.010082702 1406:0.0026662697 1439:0.0025648568 1538:0.0045900806 1641:0.0026921227 1662:0.010587825 1717:0.0095534306 1920:0.002663617 1941:0.0095081255 2135:0.0026948191 2323:0.0026578833 2543:0.0035412577 2863:0.0017078741 2929:0.0072914576 2937:0.0021936195 3128:0.017913526 3482:0.0026966191 3663:0.0026221448 3885:0.002586701 3932:0.00721775 3979:0.001227182 4000:0.011174684 4049:0.010546785 4128:0.027963586 4274:0.0028043287 4287:0.012503975 4504:0.00020574362 4586:0.002695269 4643:0.018388275 4789:0.0026517294 4800:0.0044427691 4807:0.0014890145 4812:0.00610604 4814:0.0026618508 5108:0.0063388618 5384:0.0026684834 5387:0.0019638017 5546:0.0076220478 5633:0.0073987623 5756:0.0023981656 5769:0.0054155025 5770:0.0023864435 5886:0.0026329632 5977:0.0025130343 5984:0.0091459705 6320:0.0045101787 6377:0.002693021 6640:0.0021016176 6861:0.0026565627 6891:0.0012300926 7292:0.0027914459 7372:0.0018579413 7380:0.0018449075 7436:0.0063028983 7608:0.0018369138 7612:0.00080662733 7620:0.0031917035 8025:0.0022030929 8063:0.013981793 8176:0.0012545388 8390:0.012271076 8457:0.02542649 8598:0.0024702037 8792:7.483377e-06 #
-1.7994785593268440848646605445538 1427:0.12655038 1738:0.012601957 3012:0.055383585 4414:0.096749097 4504:0.0012197657 4800:0.017559515 4807:0.017655456 7412:0.085228369 7717:0.045096062 7862:0.062275939 8120:0.12073056 8176:0.0074376226 8620:0.087136455 8792:5.1191232e-06 #
-1.9163550299908527208003761188593 80:0.029350542 84:0.009148444 108:0.02030045 306:0.0051051723 686:0.0043966994 819:0.012112773 845:0.0095559917 862:0.02395219 898:0.02663446 979:0.01172559 1046:0.0038705429 1050:0.015812956 1060:0.014756573 1097:0.0061379699 1174:0.0053810216 1198:0.07337635 1248:0.013222444 1258:0.010883638 1284:0.014272424 1538:0.0029305897 1607:0.011976095 1629:0.0072827679 1738:0.0040714014 1741:0.017853674 1816:0.018756706 2013:0.012288691 2215:0.02937492 2257:0.015966615 2384:0.016131664 2543:0.0033914351 2753:0.016503718 2895:0.02030045 2937:0.0028010833 2951:0.015669219 3116:0.0075278315 3239:0.015966615 3269:0.019397417 3320:0.016131664 3354:0.011822437 3434:0.012002768 3476:0.012513199 3501:0.015812956 3593:0.010254084 3600:0.021844193 3833:0.0095293187 3979:0.0015670171 4120:0.015966615 4274:0.003580912 4357:0.019484947 4451:0.011375513 4504:0.00026271879 4717:0.017510358 4800:0.0018910248 4801:0.0056786123 4812:0.0025989811 5275:0.017510358 5338:0.017022921 5387:0.0025076238 5396:0.010611723 5829:0.013742739 5945:0.016131664 5977:0.0032089513 6268:0.02030045 6461:0.02030045 6556:0.0090465304 6640:0.0026836039 6707:0.010513348 6794:0.0084075984 7112:0.0069649201 7114:0.0058615897 7125:0.011949738 7292:0.0035644618 7321:0.021844193 7350:0.0029287639 7372:0.0047448962 7542:0.0049191779 7555:0.019397417 7563:0.0050359415 7612:0.0051500052 7620:0.0020377799 7717:0.0048564989 7862:0.013413279 7900:0.018259732 8025:0.0084395409 8370:0.003562035 8490:0.0098623484 8504:0.013171138 8598:0.0031542601 8665:0.01724129 8716:0.02030045 8792:4.7778485e-06 #
-0.77741651646498344252478318594513 1492:0.070344299 2543:0.0045925686 4040:0.10879583 4172:0.11820301 4504:0.0016009426 4806:0.093152002 5873:0.030991949 6124:0.088895135 7153:0.12370587 7242:0.086953014 7372:0.014457106 8069:0.022329943 8178:0.13311306 8792:6.7188494e-06 #
-1.6872200786686499807132122441544 674:0.1065242 2543:0.0043224175 2863:0.016676888 3732:0.12139519 3960:0.092627086 4504:0.001004513 4800:0.0072303889 4812:0.019874562 5385:0.11155468 7350:0.011198215 7620:0.0077915117 7790:0.11689664 8176:0.0061251014 8691:0.040250823 8792:7.0262477e-06 #
-0.91107478263341001856190359831089 290:0.013520177 449:0.062641434 923:0.051198035 1407:0.031360485 1439:0.018783804 1531:0.0081547666 1538:0.0084038973 1549:0.029878398 1738:0.0038917807 2392:0.058214527 2543:0.0021612088 2937:0.0080325184 3475:0.025376348 4504:0.00075338472 4839:0.062641434 5325:0.051198035 5394:0.011240456 5580:0.021255443 5839:0.03832949 6640:0.0025652098 6861:0.019455416 6891:0.00450431 7301:0.051198035 7372:0.0068033435 7612:0.0059073591 8547:0.01743431 8558:0.068535261 8665:0.03296129 8792:6.323623e-06 #
-0.35478652622107037517551475502842 448:0.0072928309 1156:0.041299958 1165:0.080574267 1258:0.022107389 2304:0.10489149 2479:0.027709555 2543:0.0022962843 3531:0.047111541 3900:0.054575004 4087:0.033345323 4504:0.0016009426 4820:0.12370587 5691:0.10329298 5769:0.042139381 5873:0.030991949 6786:0.10489149 7546:0.070344299 7608:0.014293485 8792:6.7188494e-06 #
-0.24081493362097336485838638964196 448:0.0072928309 1097:0.0074806507 1469:0.059728529 1554:0.12370587 1607:0.072979331 1814:0.13311306 2543:0.0045925686 2637:0.064753033 4504:0.0016009426 5031:0.04064301 5416:0.12370587 7114:0.035719063 7380:0.014355686 7612:0.0062765693 7701:0.10489149 7836:0.081755161 8504:0.040130813 8792:4.4792328e-06 #
-2.0167991760142207624539878452197 1629:0.052597769 1722:0.071228072 2543:0.005443044 4504:0.0009487067 4812:0.018770419 5394:0.028309297 5680:0.078981958 6142:0.078625821 7527:0.040598452 7612:0.0074388967 7862:0.048436843 8089:0.076744333 8176:0.005784818 8792:6.6359007e-06 #
-0.87883145475495894061168655753136 110:0.07658761 448:0.011112885 901:0.10620162 1097:0.011399087 1156:0.062933274 1779:0.10620162 1907:0.14979401 2543:0.0069981995 3282:0.030796571 4504:0.0012197657 5394:0.036397669 8176:0.0074376226 8792:5.1191232e-06 #
-2.0779084726229202217950842168648 208:0.0084625836 398:0.11150952 485:0.04030532 1097:0.0033715609 1439:0.017990122 1881:0.033585303 2543:0.0031048351 2637:0.058368932 2663:0.059994616 2926:0.023595585 3490:0.059994616 4504:0.00072155159 4785:0.048338335 4800:0.0051936596 4812:0.014276094 5394:0.010765508 5977:0.017626634 6406:0.028472841 6640:0.0073704617 6891:0.0043139867 7350:0.0080437884 8176:0.0043997206 8792:7.0658321e-06 #
-0.60844897255921348566687356651528 193:0.13478367 598:0.10927326 676:0.016651694 1046:0.004965499 1059:0.0053731501 1060:0.0063103768 1097:0.0062994952 1456:0.028016895 1464:0.049769692 2146:0.040966969 2301:0.046756428 2309:0.026124472 2398:0.044927891 2402:0.040203918 2543:0.0067679957 2937:0.0071869898 3010:0.025384262 3610:0.03541337 3694:0.018008398 4034:0.049769692 4040:0.04580877 4447:0.049769692 4504:0.00067408109 4785:0.015052727 4800:0.014555914 4801:0.014570124 4812:0.0066684387 5977:0.0082334932 6011:0.04416484 6495:0.022073084 6595:0.083695695 6640:0.0022951877 7114:0.015039606 7242:0.036611795 7339:0.09161754 7372:0.0060872021 7612:0.0026427659 7909:0.042345066 8041:0.052086681 8612:0.036805522 8792:4.714982e-06 #
-0.92538209748914690422338935604785 625:0.092926413 658:0.13315043 1126:0.12972873 2479:0.073892146 3531:0.12563078 4232:0.039770059 5616:0.15239824 5769:0.11237168 5873:0.041322596 7546:0.093792401 8792:2.9861553e-06 #
-0.60859714400128595013228505195002 252:0.017171117 448:0.0097237742 539:0.057883911 1738:0.011026712 1998:0.12074541 2543:0.0030617123 3545:0.085532993 4504:0.0021345902 4801:0.046138726 4812:0.021116722 6526:0.11997527 7350:0.023796206 7620:0.016556961 8508:0.10280108 8792:2.9861553e-06 #
-0.99205296090515970863776828991831 165:0.087956794 1059:0.016334377 1439:0.025545973 1731:0.093413539 2937:0.021848449 3593:0.079981856 3979:0.012222732 4504:0.0020492065 5770:0.023768976 5906:0.067147709 6594:0.098689042 6640:0.0069773705 8792:8.6001273e-06 #
-0.49255561375400552792669373047829 252:0.015263215 448:0.0086433552 1615:0.11316659 2337:0.051172994 2543:0.005443044 2625:0.054603256 3545:0.07602933 3687:0.041541889 4504:0.0018974134 4812:0.018770419 5306:0.093600892 5589:0.077602401 6011:0.12431584 6781:0.085929573 7350:0.021152183 7620:0.014717299 8792:2.6543603e-06 #
-0.80106726044263076857987471157685 901:0.13119024 2543:0.0086448351 2926:0.098546267 4504:0.0015067694 5461:0.1065242 6826:0.17534494 7612:0.011814718 8176:0.0091876518 8792:6.323623e-06 #
-0.33056289045670361748108234678512 1097:0.011969041 2543:0.0036740548 4388:0.12371439 4504:0.0012807541 4656:0.097821087 6412:0.16782638 7253:0.090700679 7740:0.045889385 7862:0.065389737 8066:0.18287788 8176:0.0078095039 8351:0.09537176 8792:5.3750796e-06 #
-0.36560428018372376213207530781801 2479:0.049261432 3531:0.083753854 4095:0.15458314 4460:0.18108988 4504:0.0028461202 4756:0.23664543 5873:0.055096798 8069:0.039697677 8792:3.9815404e-06 #
-0.58753599313037219165067881476716 306:0.062219288 901:0.13938962 1507:0.16290033 3475:0.10784948 4384:0.11529028 4504:0.0032018851 6870:0.12214165 6942:0.22254048 7107:0.1127983 8792:4.4792328e-06 #
-0.59467547921660979248770217964193 625:0.092926413 658:0.13315043 2479:0.073892146 3531:0.12563078 4232:0.039770059 5364:0.14836033 5769:0.11237168 5873:0.041322596 7546:0.093792401 8389:0.15760402 8792:2.9861553e-06 #
-0.77628619479621363552723778411746 1097:0.0068394523 1101:0.035745356 1127:0.10450165 1174:0.029979978 1531:0.015843548 1629:0.081150845 1722:0.054947373 1850:0.048666149 2543:0.0041989195 3650:0.049859144 4504:0.00073185947 4812:0.014480039 4945:0.093131937 4993:0.032128148 7112:0.038804557 7612:0.0057385773 8025:0.015673432 8176:0.0044625737 8504:0.036691029 8792:5.1191232e-06 #
-0.26585546127765802282283402746543 448:0.0064825164 1156:0.036711074 1165:0.071621567 1258:0.019651012 2479:0.024630716 2543:0.0020411415 3146:0.093236886 3531:0.041876927 3900:0.048511114 4087:0.029640287 4504:0.0014230601 5463:0.093236886 5769:0.037457228 5873:0.027548399 6304:0.10996077 6786:0.093236886 7546:0.062528268 7608:0.01270532 8792:5.9723106e-06 #
-0.29354011018493686435704148607329 448:0.0064825164 1156:0.036711074 1165:0.071621567 1258:0.019651012 2479:0.024630716 2543:0.0020411415 3531:0.041876927 3662:0.093236886 3900:0.048511114 4087:0.029640287 4390:0.076896004 4504:0.0014230601 5769:0.037457228 5873:0.027548399 6786:0.093236886 7546:0.062528268 7588:0.10996077 7608:0.01270532 8792:5.9723106e-06 #
-0.88818883752865662728481765952893 290:0.033431709 1097:0.0087047573 1492:0.12278277 2178:0.020172283 2543:0.0053440798 3105:0.031825732 3173:0.06695696 3262:0.017369868 3448:0.046247534 3979:0.0055557876 4504:0.0009314575 6249:0.060039699 6839:0.018805608 6891:0.0055689649 7591:0.060078647 8792:7.8182975e-06 #
-0.51158707635878819530717009911314 448:0.0048618871 3116:0.030581815 3172:0.02367541 3545:0.042766497 4018:0.061637245 4504:0.0010672951 4643:0.013627026 4812:0.010558361 5906:0.034972768 6640:0.003634047 6665:0.08874204 6746:0.08874204 6891:0.0063811056 7082:0.08874204 7479:0.12731241 8176:0.0065079201 8472:0.049094331 8792:8.9584655e-06 #
-4.7410559342269893434718142088968 797:0.14704633 2543:0.008164566 3830:0.14646491 4492:0.14959265 4504:0.0014230601 4555:0.20319766 8016:0.093324117 8176:0.0086772265 8792:5.9723106e-06 #
-0.35562808776089566142886155830638 252:0.021689832 1059:0.0214926 1230:0.048169762 1889:0.16739139 2937:0.028747959 3465:0.11962347 3545:0.10804168 4504:0.0026963244 4603:0.11514398 8792:3.7719856e-06 #
-0.31791669018993012896245886622637 448:0.0086433552 2165:0.083214097 4504:0.0018974134 4993:0.041647598 5873:0.036731198 6017:0.14661436 6640:0.0064605279 6806:0.14009246 7841:0.091121376 8792:7.9630809e-06 #
-1.1527407661841497787946764219669 290:0.018026901 415:0.025874503 448:0.0045758937 774:0.025586138 1355:0.049227308 1407:0.041813981 1738:0.0051890411 1854:0.040519472 1966:0.068264052 2543:0.0028816115 3116:0.028782886 3253:0.023665173 3653:0.069816619 3932:0.035239603 3979:0.0059915357 4168:0.054558754 4504:0.001004513 4510:0.019631764 4800:0.014460778 5108:0.030948559 5388:0.031091683 5770:0.011651459 7112:0.026630577 7380:0.0090074893 7519:0.05514627 7620:0.0077915117 8792:5.6209983e-06 #
-0.52916065764526865056183169144788 3254:0.061615907 3826:0.13650303 4504:0.0017665573 4993:0.038775347 5394:0.026356932 5580:0.04984035 5873:0.034198012 6640:0.0060149743 7293:0.030665165 7380:0.015840758 7542:0.033077233 8792:7.4139029e-06 #
-0.29056850510766984996280370978639 290:0.025188275 448:0.0063937148 872:0.040767953 1491:0.031920534 2337:0.037853993 2411:0.064268604 2543:0.0040263613 3458:0.06946142 3531:0.04130327 4095:0.076232783 4173:0.05067629 4504:0.00070178305 5378:0.10020706 5979:0.064268604 6891:0.0041957954 7287:0.076636158 7398:0.10020706 7612:0.0055027455 8792:6.8722479e-06 #
-0.10174054493132336784988467570656 341:0.19792938 1372:0.10346431 1492:0.11255088 2937:0.027310561 4040:0.17407332 4504:0.0025615082 5977:0.031287275 6640:0.017443426 7242:0.13912483 7549:0.21298088 7612:0.010042511 8204:0.10476325 8792:3.5833864e-06 #
-0.79676808080789029986590321641415 1097:0.0055669961 1143:0.05896144 1372:0.024061466 1531:0.012895911 1615:0.035529044 2383:0.029113289 2543:0.005126588 3022:0.02018455 3172:0.013214182 3235:0.04140288 3953:0.046030089 4143:0.035222892 4504:0.00059569959 4643:0.0076057818 4789:0.0076776817 4812:0.0058930386 4993:0.039226227 5394:0.0088878023 5464:0.034661211 5929:0.046030089 5977:0.0072761104 6316:0.046030089 6331:0.028222196 6891:0.0035615473 8176:0.0036323275 8792:8.3334571e-06 #
-0.23089058410860019421306787990034 290:0.024516586 448:0.0062232157 872:0.039680809 1175:0.097534873 1491:0.031069318 2337:0.036844555 2411:0.062554769 2543:0.0039189919 3458:0.067609116 3531:0.04020185 4095:0.074199907 4173:0.049324922 4504:0.00068306882 5979:0.062554769 6485:0.080777839 6891:0.0040839077 7287:0.074592531 7612:0.0053560059 8177:0.06524545 8792:6.6889879e-06 #
-0.2687613593173578396822165359481 448:0.0064825164 781:0.089395143 1156:0.036711074 1165:0.071621567 1258:0.019651012 2479:0.024630716 2543:0.0020411415 3531:0.041876927 3900:0.048511114 4087:0.029640287 4504:0.0014230601 5451:0.093236886 5769:0.037457228 5873:0.027548399 6786:0.093236886 7546:0.062528268 7608:0.01270532 8393:0.10996077 8792:5.9723106e-06 #
-0.28265572691842300034892332405434 448:0.0064825164 1156:0.036711074 1165:0.071621567 1258:0.019651012 2479:0.024630716 2543:0.0020411415 3324:0.089395143 3531:0.041876927 3900:0.048511114 4087:0.029640287 4504:0.0014230601 4821:0.10996077 5769:0.037457228 5873:0.027548399 6786:0.093236886 7355:0.093236886 7546:0.062528268 7608:0.01270532 8792:5.9723106e-06 #
-0.85178017493668600756961950537516 404:0.043983098 663:0.029271126 712:0.042998888 1097:0.0055030072 1579:0.034781232 1738:0.0060837031 2543:0.0067568822 2763:0.1049798 3012:0.026736904 3470:0.054425821 4504:0.00058885245 4800:0.008477008 4807:0.0085233245 4812:0.011650605 5394:0.017571287 5633:0.014117179 6320:0.012908442 6891:0.00352061 7591:0.037980754 7676:0.03823036 8367:0.052352794 8792:5.7663688e-06 #
-0.26632547596699757130878083444259 448:0.0064825164 1156:0.036711074 1165:0.071621567 1258:0.019651012 1302:0.087379843 2479:0.024630716 2510:0.11832272 2543:0.0020411415 2583:0.094847769 3531:0.041876927 3900:0.048511114 4087:0.029640287 4504:0.0014230601 5769:0.037457228 5873:0.027548399 6786:0.093236886 7546:0.062528268 7608:0.01270532 8792:5.9723106e-06 #
-0.23722067323456882959042957281781 110:0.020887529 193:0.04434441 252:0.0053520366 828:0.031120714 1046:0.0049010119 1097:0.0062176837 1101:0.0081239445 2189:0.024623452 2301:0.023074599 2411:0.030464986 2459:0.056824304 2543:0.0057257996 2787:0.0078503806 3010:0.025054598 3135:0.039681789 3694:0.017774522 4232:0.012395863 4416:0.085853904 4603:0.028412152 4801:0.043142706 4807:0.0048151244 4812:0.0065818354 5053:0.051410232 5977:0.0081265653 7219:0.035430375 7242:0.036136318 7372:0.0060081477 7608:0.0059401495 7892:0.032133609 8241:0.049123332 8416:0.029694675 8504:0.016677739 8702:0.042332698 8792:3.7229988e-06 #
-0.60350306418675314645838625438046 625:0.092926413 658:0.13315043 2479:0.073892146 2775:0.12972873 3531:0.12563078 4232:0.039770059 5769:0.11237168 5873:0.041322596 7546:0.093792401 8014:0.15760402 8792:2.9861553e-06 #
-0.27435774985367911149580777419033 214:0.037371766 448:0.0031968574 1097:0.0098375678 1371:0.10419213 1667:0.090998419 2061:0.031321779 2418:0.038318079 2543:0.0020131806 3030:0.038318079 3694:0.018748468 3979:0.012557602 4126:0.040528599 4137:0.071283817 4504:0.00035089153 4656:0.026800297 4865:0.039201066 4993:0.015403906 5040:0.039201066 5489:0.039201066 5802:0.10672027 5977:0.025715569 6110:0.039443925 6582:0.048775997 6687:0.045557033 6962:0.082075343 8176:0.0021395902 8792:5.3996232e-06 #
-0.51163356779819813002774253618554 1060:0.0088812709 1194:0.040378455 1531:0.010268966 2301:0.032902669 2459:0.040513624 2543:0.002721522 2599:0.045309342 2863:0.0078751976 3010:0.035726 3172:0.021044809 3885:0.011927566 4232:0.017675582 4603:0.040513624 4632:0.11531443 4807:0.0068660113 4812:0.0093852095 4993:0.020823799 6052:0.07749261 6297:0.026380772 6320:0.020796934 6532:0.047917034 7372:0.017134348 7380:0.017014148 8222:0.064471602 8665:0.020753404 8792:3.9815404e-06 #
-3.400938140017543798165888802032 31:0.010168001 37:0.0035399313 180:0.010168001 213:0.0077900267 252:0.001107814 306:0.0026760984 382:0.006883462 411:0.0070064659 597:0.0073337066 658:0.012885525 1039:0.0091254031 1046:0.0010144567 1059:0.0010977404 1060:0.0025784336 1082:0.0066136485 1097:0.003860981 1101:0.0033631383 1115:0.011590398 1141:0.002412799 1174:0.0028206969 1204:0.0049047731 1209:0.0095716342 1242:0.0069556986 1284:0.0074815131 1383:0.0022016761 1407:0.011465124 1455:0.0095716342 1458:0.0093587814 1531:0.0014906563 1549:0.0054616425 1620:0.019664289 1629:0.01145274 1722:0.0051697795 1731:0.0062777917 2228:0.0059009669 2283:0.0055402168 2302:0.0051069418 2543:0.0033580069 2624:0.006883462 2625:0.0039631394 2787:0.0032498888 3116:0.0078920815 3119:0.0051644119 3254:0.014410172 3663:0.0035102905 3693:0.0055550891 3754:0.0056244633 3827:0.010168001 3885:0.0017314209 3893:0.0061589647 3979:0.0024642607 4026:0.0054479078 4064:0.0098321447 4137:0.0046628304 4168:0.014959658 4278:0.0087624136 4286:0.0061464785 4330:0.0044499775 4430:0.0087624136 4504:0.0001377155 4536:0.0075603756 4643:0.0035166519 4789:0.001774948 4800:0.00099126296 4807:0.0059800744 4812:0.006811846 4993:0.006045619 5057:0.0051275142 5107:0.014883097 5153:0.0093587814 5208:0.0071735298 5248:0.0082195457 5394:0.006164121 5625:0.0062234816 5633:0.0016507991 5756:0.0016052239 5770:0.0047921324 5771:0.0086511429 5816:0.0072669764 5839:0.0070064659 5873:0.0053319479 5886:0.0017623866 5898:0.0098729674 6052:0.0056244633 6142:0.0057067131 6320:0.0045283646 6476:0.0036776352 6531:0.003005828 6640:0.0028134559 6674:0.0093587814 6861:0.0017781832 6891:0.00082336849 7107:0.0048515401 7204:0.0093587814 7293:0.002390564 7350:0.0015352392 7380:0.0037046934 7387:0.0048515401 7559:0.0086511429 7572:0.0062102899 7612:0.0037794395 7620:0.0021363823 7684:0.002168294 7717:0.012728727 8025:0.0044239531 8156:0.0073337066 8176:0.0008397316 8248:0.0034325118 8334:0.010168001 8370:0.0018671958 8508:0.006632328 8614:0.0054788487 8748:0.0056982222 8792:7.1282416e-06 8832:0.004742133 #
-0.13183925179976918595770030151471 37:0.0029263434 102:0.0029037506 208:0.0026704152 252:0.0018315858 448:0.0020744053 498:0.0029817689 676:0.0028122859 741:0.0029326393 933:0.0084604081 1046:0.0016772352 1059:0.0036298614 1060:0.0021315052 1097:0.0031917442 1101:0.0055603888 1141:0.0019945805 1258:0.003144162 1323:0.0029718424 1355:0.01115819 1406:0.0029506718 1439:0.0028384414 1538:0.005079689 1641:0.0029792825 1920:0.0029477361 1941:0.010522326 2135:0.0029822665 2323:0.0029413907 2543:0.0039189919 2863:0.0018900473 2929:0.0080692135 2937:0.0024276054 3128:0.019824302 3482:0.0029842583 3663:0.00290184 3885:0.0028626157 3932:0.0079876436 3979:0.0013580815 4000:0.012366652 4128:0.030946368 4274:0.0031034569 4504:0.00022768961 4586:0.0029827643 4643:0.0058141979 4737:0.0037310973 4789:0.0029345807 4800:0.0049166642 4807:0.0016478427 4812:0.0067573511 4814:0.0029457815 5108:0.0070150066 5384:0.0029531217 5387:0.0021732741 5546:0.0084350668 5633:0.0081879636 5756:0.0026539702 5769:0.0059931562 5770:0.0026409973 5886:0.0029138126 5977:0.002781091 6320:0.0049912641 6377:0.0029802767 6640:0.0031010534 6861:0.0029399295 6891:0.0013613026 6951:0.0037369754 7292:0.0030892002 7372:0.0020561216 7380:0.0020416977 7436:0.0069752075 7608:0.0020328513 7612:0.00089266762 7620:0.0035321519 8025:0.0024380896 8063:0.015473184 8069:0.0031758142 8176:0.0013883562 8390:0.01357999 8457:0.028138649 8598:0.0027336921 8792:6.6889879e-06 #
-0.25026049042601888894310491195938 448:0.0064825164 1156:0.036711074 1165:0.071621567 1258:0.019651012 2479:0.024630716 2543:0.0020411415 3531:0.041876927 3900:0.048511114 4087:0.029640287 4504:0.0014230601 5137:0.11832272 5769:0.037457228 5873:0.027548399 5976:0.094847769 6786:0.093236886 7546:0.062528268 7608:0.01270532 8194:0.094847769 8792:5.9723106e-06 #
-0.062463864316621341143953571872771 1097:0.01259899 2449:0.06108569 2543:0.003867426 2615:0.10574725 3497:0.10285613 3593:0.10523928 4504:0.0013481622 4780:0.19250304 5388:0.083456621 7293:0.046804722 8176:0.0082205301 8792:5.6579784e-06 #
-0.076689582772278663824749855848495 1664:0.11650649 1881:0.091713712 2637:0.079696037 2863:0.016356179 3230:0.047176782 4087:0.041040398 4423:0.033851191 4504:0.00098519539 5388:0.060987528 7620:0.01528335 8176:0.0060073109 8620:0.070379443 8792:6.8911277e-06 8811:0.072707765 #
-0.085444738949359430590924091575289 252:0.017171117 448:0.0097237742 539:0.057883911 1738:0.011026712 1998:0.12074541 2543:0.0030617123 3545:0.085532993 4504:0.0021345902 4801:0.046138726 4812:0.021116722 6526:0.11997527 7350:0.023796206 7620:0.016556961 8508:0.10280108 8792:2.9861553e-06 #
-0.25556694647548444665474676185113 448:0.013727682 1672:0.14314958 1937:0.10841043 2543:0.0086448351 2879:0.084594369 4504:0.0015067694 4715:0.14203057 8176:0.0091876518 8792:6.323623e-06 #
-6.3013790918497916138107939332258 797:0.12603971 1059:0.019445686 1258:0.03368745 1359:0.10124185 1439:0.030411873 1626:0.099774517 1738:0.012601957 2543:0.0034990998 4504:0.0012197657 4957:0.1468346 5913:0.11247575 7608:0.021780549 8176:0.0074376226 8792:5.1191232e-06 #
-0.12232189369102744458395193305478 208:0.023109363 1097:0.0092069544 1538:0.021979423 2543:0.0056523918 4087:0.041040398 4232:0.036710825 4469:0.14067531 4511:0.12712982 4834:0.078645147 5853:0.088854916 6804:0.080933914 7833:0.076452926 8370:0.026715264 8614:0.026129894 8792:5.5129021e-06 #
-1.6053873388688644219257639633724 37:0.0078384196 290:0.010944905 448:0.0027782212 872:0.017714646 1039:0.020206248 1046:0.0044925944 1097:0.011399087 1326:0.023239544 1439:0.0076029683 1672:0.0579415 1738:0.0031504892 2543:0.0043738745 3128:0.10620162 4504:0.00060988287 4800:0.0087797577 5264:0.039958663 5394:0.018198835 5617:0.018181238 5699:0.047126044 5764:0.069457024 6150:0.045029722 6265:0.038804974 6640:0.0041531967 6653:0.042388663 6655:0.049070492 6891:0.0072926921 7114:0.013607263 7372:0.0055074687 7523:0.017167291 7674:0.025425788 7687:0.04144603 8180:0.043542355 8792:6.8254976e-06 #
-3.1749953093718885632767978677293 114:0.025873123 317:0.020787166 415:0.008624834 448:0.003050596 774:0.0085287122 785:0.0064378963 857:0.016680049 1059:0.0080070477 1097:0.0031291612 1101:0.008177042 1174:0.0068581649 1271:0.019970573 1439:0.020870892 1485:0.025873123 1626:0.027389083 1705:0.01673626 1738:0.0051890411 1843:0.0073641697 1920:0.0043349061 2265:0.019798489 2432:0.020787166 2459:0.014298926 2543:0.0019210743 3369:0.01008353 3618:0.025873123 3997:0.014274972 4136:0.019198682 4224:0.029594544 4232:0.006238441 4603:0.014298926 4800:0.0072303889 4801:0.014474895 4910:0.025873123 4925:0.015067812 5211:0.017915711 5572:0.012213612 5633:0.01605483 5756:0.0039028972 5964:0.012829755 6297:0.0093108602 6320:0.0036700473 6503:0.037184894 6556:0.023059784 6640:0.0011400932 6839:0.013520372 7056:0.045509364 7125:0.015230058 7253:0.011856298 7305:0.025873123 7372:0.0060474165 7380:0.0060049933 7443:0.021304691 7500:0.029652178 7518:0.025873123 7610:0.018703775 7612:0.0013127464 7877:0.025873123 8792:5.1525817e-06 8832:0.023059784 #
-0.058708037003824528610174127152277 1613:0.076505177 2479:0.049261432 3531:0.083753854 4482:0.23664543 4504:0.0028461202 4993:0.062471393 5873:0.055096798 8069:0.039697677 8792:3.9815404e-06 #
-0.086559218087882666692323141433008 435:0.033120714 658:0.017753391 1059:0.0045373267 1097:0.0079793604 1141:0.0049864515 1187:0.023347281 1491:0.051782198 1580:0.032873198 1654:0.031607158 1690:0.03868296 1722:0.021368423 2186:0.039562754 2459:0.024308175 2543:0.0048987395 2582:0.03108022 2887:0.035758056 3149:0.039562754 3254:0.019854015 3282:0.0071858666 4224:0.025155362 4232:0.010605349 4597:0.03108022 4812:0.011262252 4936:0.015288403 4961:0.022632238 5248:0.016987061 5852:0.027039366 5974:0.094658174 5977:0.0069527277 6320:0.0062390803 6388:0.037294753 6640:0.0019381584 7372:0.0051403041 8252:0.047329087 8792:3.1852323e-06 #
