SVM-light Version V6.02
0 # kernel type
3 # kernel parameter -d 
1 # kernel parameter -g 
1 # kernel parameter -s 
1 # kernel parameter -r 
empty# kernel parameter -u 
2075 # highest feature index 
10 # number of training documents 
11 # number of support vectors plus 1 
-0.033200729 # threshold b, each following line is a SV (starting with alpha*y)
-12.580284574926993812482578505296 84:0.0022331916 373:0.012162459 612:0.080373652 1417:0.11510033 1809:0.1845265 1875:0.1016573 1898:0.087536849 2075:0.00012378371 #
-12.580284574926993812482578505296 84:0.0022331916 325:0.1845265 612:0.080373652 847:0.1845265 1174:0.028299268 1875:0.1016573 1898:0.087536849 2075:0.00012378371 #
-11.302046017801204769170908548404 52:0.19770697 84:0.0023927053 307:0.21920912 612:0.086114623 1875:0.10891854 1898:0.093789481 2075:0.0001326254 #
-12.580284574926993812482578505296 36:0.23607135 84:0.0025767596 612:0.09273883 1875:0.11729689 1898:0.10100406 2075:0.00014282735 #
12.580284574926993812482578505296 84:0.0022331916 373:0.012162459 467:0.089102253 612:0.080373652 1217:0.20459518 1875:0.1016573 1898:0.087536849 2075:0.00012378371 #
12.580284574926993812482578505296 84:0.0022331916 373:0.012162459 612:0.080373652 1417:0.11510033 1638:0.1845265 1875:0.1016573 1898:0.087536849 2075:0.00012378371 #
11.302050231086266052216160460375 84:0.0022331916 612:0.080373652 1184:0.1845265 1417:0.11510033 1875:0.1016573 1898:0.087536849 1951:0.04033564 2075:0.00012378371 #
12.580284574926993812482578505296 84:0.0023927053 612:0.086114623 1174:0.030320644 1184:0.19770697 1875:0.10891854 1898:0.093789481 2075:0.0001326254 #
-12.580284574926993812482578505296 84:0.0022331916 373:0.012162459 612:0.080373652 1417:0.11510033 1809:0.1845265 1875:0.1016573 1898:0.087536849 2075:0.00012378371 #
12.580284574926993812482578505296 84:0.0022331916 373:0.012162459 612:0.080373652 1417:0.11510033 1638:0.1845265 1875:0.1016573 1898:0.087536849 2075:0.00012378371 #
