SVM-light Version V6.02
0 # kernel type
3 # kernel parameter -d 
1 # kernel parameter -g 
1 # kernel parameter -s 
1 # kernel parameter -r 
empty# kernel parameter -u 
22 # highest feature index 
33 # number of training documents 
20 # number of support vectors plus 1 
1.0753232 # threshold b, each following line is a SV (starting with alpha*y)
0.11559017160685448877277536894326 7:1 8:1 10:3 22:1 #
-0.028314143857823992345146280058543 10:5 22:1 #
-0.11559017160685448877277536894326 7:1 8:1 10:3 22:1 #
-0.010115885316378216834953818192844 7:1 10:1 #
0.11559017160685448877277536894326 4:1 7:1 8:1 9:1 10:3 22:1 #
0.11559017160685448877277536894326 8:1 9:1 10:3 22:1 #
0.11559017160685448877277536894326 7:1 8:1 10:3 22:1 #
-0.027665115855319971638337506192329 10:7 22:5 #
0.11559017160685448877277536894326 10:2 #
-0.041846202760976537737835911912043 5:1 7:1 8:1 10:3 12:1 #
-0.020923101380488161316062445393982 7:1 8:1 10:3 21:2 #
-0.11559017160685448877277536894326 8:1 9:1 10:3 22:1 #
-0.013933897536171193157206182888785 7:1 9:1 11:2 13:1 #
-0.025107721656585032382613675849825 6:1 8:1 10:3 #
-0.085776572354326674485491821542382 7:1 10:1 #
-0.0083692405522008354173957300758957 8:1 10:2 19:1 #
-0.007624152642718326836068776231059 8:1 10:5 13:2 #
-0.0041846202760975059753434379672399 1:1 3:1 8:1 10:3 16:1 17:1 18:1 20:1 #
-0.072909860631475476022700377143337 8:1 10:2 22:1 #
