SVM-light Version V6.02
0 # kernel type
3 # kernel parameter -d 
1 # kernel parameter -g 
1 # kernel parameter -s 
1 # kernel parameter -r 
empty# kernel parameter -u 
3685 # highest feature index 
13 # number of training documents 
11 # number of support vectors plus 1 
-0.52143437 # threshold b, each following line is a SV (starting with alpha*y)
-30.547512057655783479503952548839 156:0.0024778002 683:0.022855178 1558:0.12344072 2226:0.19899856 2279:0.13622126 2625:0.020309731 3685:0.00013347399 #
-36.767981787907096702383569208905 3149:0.17858022 #
9.6459752368274216394183895317838 145:0.022155676 156:0.00061306398 207:0.03661431 262:0.010376977 371:0.013203843 386:0.0095524145 635:0.0053519839 642:0.013106765 683:0.019792113 832:0.0087602492 886:0.022839339 1092:0.014617999 1266:0.0093212146 1558:0.061084066 1590:0.011250696 1661:0.011898359 1703:0.0046027969 1725:0.033639628 1756:0.010711641 1779:0.0076620206 1804:0.016747987 1816:0.01334599 1819:0.010987252 1858:0.0051700207 1892:0.014617999 1925:0.0097313188 1972:0.012655817 2044:0.03674303 2056:0.03674303 2150:0.033639628 2171:0.010194702 2308:0.033639628 2481:0.0086492728 2490:0.015019217 2540:0.0093605751 2541:0.0087602492 2601:0.018966991 2625:0.0050250879 2876:0.013321984 2900:0.011205698 3041:0.0059793498 3110:0.010541183 3191:0.03674303 3225:0.0063621723 3302:0.010806187 3402:0.011357484 3608:0.038839586 3685:7.705715e-05 #
17.996233853451062856265707523562 156:0.002123829 683:0.02938523 1266:0.032291349 1558:0.052903164 1703:0.015945403 2625:0.017408341 3296:0.12654874 3685:0.00011440628 #
6.5107217982171405878943915013224 26:0.018865518 37:0.019305496 156:0.0005718001 242:0.022961373 262:0.0096785268 334:0.029682238 356:0.020506829 434:0.028480904 611:0.0062220572 683:0.010548544 751:0.029682238 832:0.0081706177 898:0.021974234 971:0.019797346 1085:0.014880554 1267:0.0054489193 1349:0.0060053337 1409:0.024654558 1558:0.071215801 1590:0.010493438 1748:0.0064187283 1756:0.0099906651 1819:0.010247725 1837:0.028480904 1858:0.019288154 1892:0.040902287 1912:0.02416496 1925:0.0090763262 2057:0.0042141108 2238:0.028480904 2279:0.04715351 2378:0.028480904 2481:0.0080671106 2490:0.014008308 2541:0.0081706177 2652:0.025571164 2779:0.025094533 2900:0.010451469 3110:0.00983168 3133:0.027549077 3225:0.0059339493 3296:0.034070812 3302:0.010078847 3402:0.010593038 3459:0.034269944 3538:0.029682238 3572:0.048513103 3608:0.027169038 3685:7.1870607e-05 #
8.0444932733872320795853738673031 37:0.023077833 156:0.00068353111 262:0.011569733 434:0.03404614 611:0.0074378611 683:0.0094573153 832:0.0097671747 898:0.02626805 926:0.0078208335 932:0.013304986 971:0.023665793 1085:0.0088941241 1267:0.0065136505 1349:0.0071787899 1409:0.029472115 1558:0.068105221 1590:0.012543879 1748:0.0076729627 1756:0.011942864 1819:0.012250154 1837:0.03404614 1858:0.017292827 1892:0.048894688 1912:0.014443425 1925:0.010849861 2057:0.0050375578 2238:0.03404614 2279:0.056367416 2378:0.03404614 2481:0.009643442 2490:0.016745564 2541:0.0097671747 2652:0.010189276 2779:0.029998062 2900:0.012493709 3110:0.011752813 3225:0.0070934566 3296:0.040728327 3302:0.012048277 3402:0.012662943 3572:0.057992674 3608:0.03247793 3685:7.3640818e-05 #
-10.9395001487759628844287362881 3149:0.17858022 #
20.781052109272089012392825679854 120:0.029396793 156:0.00053574063 158:0.013899862 207:0.02133086 262:0.0090681687 371:0.011538493 386:0.0083476063 635:0.004676959 683:0.01976664 735:0.013034258 781:0.023099765 832:0.0076553533 886:0.0099793505 926:0.0061298427 1085:0.0069710705 1092:0.012774288 1318:0.019213606 1349:0.0056266193 1546:0.026684811 1558:0.05337977 1590:0.0098316893 1661:0.02079533 1681:0.023099765 1703:0.0080445278 1756:0.0093606235 1798:0.014819783 1816:0.011662712 1819:0.0096014719 1858:0.0045179459 1892:0.012774288 1925:0.0085039455 1972:0.011059588 1989:0.029396793 2481:0.0075583733 2490:0.013124901 2540:0.0081799617 2541:0.0076553533 2625:0.004391293 2649:0.029396793 2652:0.0079861898 2660:0.006901931 2790:0.0086962478 2871:0.023972828 2876:0.011641733 2900:0.009792367 3041:0.0052251979 3110:0.0092116641 3225:0.0055597359 3300:0.029396793 3302:0.0094432449 3402:0.0099250088 3566:0.014090757 3608:0.0339409 3685:8.6577726e-05 #
9.5097993653804735458834329620004 145:0.023108609 156:0.00063943234 207:0.038189121 262:0.010823298 371:0.01377175 386:0.0099632712 471:0.035086494 635:0.0055821766 642:0.0068352488 683:0.017694332 832:0.0091370344 886:0.023821676 1092:0.01524673 1266:0.0097221266 1520:0.035086494 1558:0.063711338 1571:0.024573337 1590:0.011734597 1661:0.012410116 1703:0.0048007667 1705:0.047362283 1756:0.011172357 1779:0.00799157 1816:0.013920011 1819:0.011459822 1858:0.005392387 1892:0.01524673 1925:0.01014987 1972:0.013200154 2171:0.010633185 2291:0.038323376 2481:0.0090212841 2490:0.015665205 2540:0.0097631803 2541:0.0091370344 2625:0.0052412208 2876:0.013894971 2900:0.011687663 3041:0.0062365262 3110:0.010994567 3225:0.006635814 3302:0.011270969 3402:0.011845978 3608:0.040510107 3685:8.0371436e-05 #
5.7667183578033851532040898746345 26:0.015822694 37:0.016191706 156:0.00047957426 262:0.0081174737 371:0.010328813 386:0.0074724536 434:0.02388721 611:0.0052184993 635:0.0041866326 683:0.011058957 832:0.0068527758 886:0.0089331288 898:0.018430004 971:0.016604226 1085:0.012480465 1206:0.028742531 1267:0.0045700613 1349:0.0050367317 1409:0.020678015 1558:0.059729379 1590:0.008800948 1748:0.0053834496 1756:0.0083792675 1816:0.010440009 1819:0.017189732 1837:0.02388721 1858:0.016177161 1892:0.034305144 1912:0.010133693 1925:0.015224805 1972:0.0099001145 1973:0.028742531 2057:0.0035344155 2238:0.02388721 2279:0.039548106 2378:0.02388721 2481:0.0067659635 2490:0.011748903 2541:0.0068527758 2625:0.0039309156 2652:0.014297855 2779:0.021047028 2826:0.028742531 2876:0.010421229 2900:0.0087657478 2974:0.0046665124 3041:0.0046773949 3110:0.0082459254 3146:0.028742531 3225:0.0049768607 3296:0.028575521 3302:0.0084532266 3402:0.0088844839 3538:0.049789559 3572:0.040688407 3608:0.037978224 3685:7.7501027e-05 #
