SVM-light Version V6.02
0 # kernel type
3 # kernel parameter -d 
1 # kernel parameter -g 
1 # kernel parameter -s 
1 # kernel parameter -r 
empty# kernel parameter -u 
535 # highest feature index 
42 # number of training documents 
40 # number of support vectors plus 1 
0.50969922 # threshold b, each following line is a SV (starting with alpha*y)
-68.854774171135403548760223202407 2:0.0090962546 9:0.012882931 22:0.0052469019 27:0.0064414656 28:0.0064414656 35:0.0011945635 37:0.012882931 40:0.0064414656 46:0.0064414656 61:0.0033535636 63:0.0019288734 69:0.0064414656 71:0.0045481273 81:0.0003142113 85:0.038648792 87:0.018192509 90:0.0067071272 97:0.0064414656 103:0.0064414656 106:0.0036677748 118:0.0064414656 122:0.0024794755 124:0.0064414656 132:0.012882931 134:0.012882931 138:0.0052469019 141:0.0064414656 149:0.0052469019 150:0.001278648 155:0.0031174633 168:0.001278648 194:0.0017657749 210:0.00096443668 219:0.018338874 224:0.00089408446 227:0.0064414656 228:0.0024732114 236:0.0011945635 241:0.010493804 245:0.025765862 251:0.032207329 252:0.0064414656 262:0.012882931 271:0.025765862 278:0.012882931 282:0.019324396 288:0.0011143913 296:0.001278648 317:0.012882931 335:0.0036677748 346:0.012882931 350:0.0064414656 353:0.0017881689 357:0.0052469019 359:0.0011143913 361:0.001522901 372:0.0064414656 377:0.0045481273 378:0.0064414656 382:0.022740636 386:0.0025572961 389:0.0031421129 392:0.0064414656 393:0.0011945635 419:0.0052469019 426:0.0064414656 432:0.0081046773 435:0.0041511343 442:0.0045481273 444:0.0064414656 447:0.0045481273 451:0.001278648 454:0.0061758035 459:0.0022287825 466:0.0045481273 477:0.0052469019 478:0.0064414656 483:0.004457565 484:0.0064414656 488:0.019324396 494:0.012882931 499:0.010493804 520:0.0064414656 521:0.0052469019 #
-91.787401387849541833929833956063 13:0.0016723091 25:0.0012695217 29:0.0078798514 31:0.0016723091 35:0.0029226213 61:0.0041024177 63:0.0023595928 81:0.00038437499 84:0.0064185401 95:0.0016723091 98:0.0078798514 99:0.0078798514 104:0.0031283426 120:0.0014613107 121:0.004089708 122:0.0030331449 131:0.0050169276 135:0.023639552 150:0.0015641713 153:0.0016723091 155:0.0019067979 159:0.0016723091 165:0.0055637285 168:0.0031283426 169:0.0016723091 170:0.0016723091 174:0.0016723091 194:0.0020572136 197:0.0037774332 202:0.0033446182 210:0.0023595928 214:0.0037774332 224:0.0010937344 226:0.0064185401 236:0.0014613107 240:0.0015641713 255:0.0020346083 259:0.0031283426 261:0.0016723091 275:0.0016723091 281:0.0016723091 288:0.001363236 296:0.0015641713 300:0.0016723091 333:0.0044867927 347:0.0014613107 348:0.0014613107 353:0.0021874688 355:0.0015641713 359:0.001363236 361:0.0027944495 364:0.0016723091 365:0.0016723091 386:0.0015641713 389:0.0038437499 393:0.0014613107 422:0.0016723091 425:0.0016723091 427:0.0016723091 435:0.003808565 451:0.0015641713 459:0.002726472 468:0.0055637285 469:0.0010937344 483:0.002726472 489:0.0016723091 497:0.0016723091 503:0.0010110482 504:0.0019067979 #
-82.44164336852347219064540695399 13:0.0018036424 25:0.0013692223 31:0.0018036424 35:0.0031521465 63:0.0025449011 81:0.00041456151 95:0.0018036424 104:0.0033740241 120:0.0015760732 121:0.004410889 122:0.0054522497 131:0.0054109269 150:0.001687012 152:0.0084986873 153:0.0018036424 155:0.0020565465 159:0.0018036424 168:0.0033740241 169:0.0018036424 170:0.0018036424 174:0.0018036424 194:0.0019968974 202:0.0036072847 210:0.0025449011 224:0.0011796297 236:0.0015760732 240:0.001687012 255:0.0021943944 259:0.0033740241 261:0.0018036424 275:0.0018036424 281:0.0018036424 288:0.0014702964 296:0.001687012 300:0.0018036424 347:0.0015760732 348:0.0015760732 353:0.0023592594 355:0.001687012 359:0.0014702964 361:0.0030139089 364:0.0018036424 365:0.0018036424 373:0.0044245971 386:0.001687012 389:0.0037310536 393:0.0031521465 401:0.0040740902 418:0.016997375 422:0.0018036424 425:0.0018036424 427:0.0018036424 435:0.0027384446 451:0.001687012 459:0.0029405928 461:0.0069226143 469:0.0011796297 481:0.0048391586 483:0.0014702964 489:0.0018036424 491:0.0084986873 497:0.0018036424 503:0.00109045 504:0.0020565465 519:0.0084986873 #
-140.53596525874831968394573777914 13:0.001775751 25:0.0013480487 31:0.001775751 35:0.003103402 38:0.016734529 63:0.0025055469 81:0.00040815075 95:0.001775751 104:0.0033218483 107:0.0083672646 120:0.001551701 121:0.0043426794 122:0.0042943493 131:0.0053272531 133:0.0083672646 150:0.0016609242 153:0.001775751 155:0.0020247442 159:0.001775751 168:0.0033218483 169:0.001775751 170:0.001775751 174:0.001775751 194:0.0020752407 202:0.003551502 210:0.0025055469 224:0.001161388 236:0.001551701 240:0.0016609242 255:0.0021604605 259:0.0033218483 261:0.001775751 275:0.001775751 281:0.001775751 288:0.0014475598 296:0.0016609242 300:0.001775751 347:0.001551701 348:0.001551701 353:0.002322776 355:0.0016609242 359:0.0014475598 361:0.002967302 364:0.001775751 365:0.001775751 373:0.0043561757 386:0.0016609242 389:0.0036733567 393:0.001551701 401:0.004011089 422:0.001775751 425:0.001775751 427:0.001775751 435:0.0040441463 451:0.0016609242 459:0.0028951196 460:0.0083672646 469:0.001161388 483:0.0014475598 489:0.001775751 497:0.001775751 503:0.0010735873 504:0.0020247442 #
-59.841655748619125176901434315369 13:0.0013947194 25:0.0010587913 31:0.0013947194 35:0.0024374898 61:0.010264348 63:0.0029518791 73:0.0053531146 81:0.00032057185 90:0.0068428991 94:0.0053531146 95:0.0013947194 104:0.0026090632 111:0.0046401946 120:0.0012187449 121:0.0034108495 122:0.0033728897 129:0.010706229 131:0.0041841581 149:0.0053531146 150:0.0013045316 153:0.0013947194 155:0.0015902849 157:0.010706229 159:0.0013947194 168:0.0026090632 169:0.0013947194 170:0.0013947194 174:0.0013947194 188:0.0065718596 189:0.0053531146 194:0.001887306 200:0.0065718596 202:0.0027894387 210:0.0019679195 214:0.0094512301 221:0.0065718596 224:0.00091218331 228:0.005046553 236:0.0012187449 238:0.0065718596 240:0.0013045316 254:0.0053531146 255:0.0016968797 259:0.0026090632 261:0.0013947194 275:0.0013947194 279:0.013143719 281:0.0013947194 283:0.0068428991 288:0.0011369499 296:0.0013045316 297:0.0053531146 300:0.0013947194 342:0.0065718596 347:0.0012187449 348:0.0012187449 353:0.0018243666 355:0.0013045316 359:0.0022738997 361:0.0023305935 364:0.0013947194 365:0.0013947194 373:0.0034214496 386:0.0013045316 389:0.0028851465 391:0.0065718596 393:0.0024374898 401:0.0094512301 412:0.0053531146 422:0.0013947194 425:0.0013947194 427:0.0013947194 435:0.0021175826 442:0.0092803892 451:0.0026090632 459:0.0034108495 469:0.00091218331 482:0.0065718596 483:0.0011369499 489:0.0013947194 492:0.0065718596 497:0.0013947194 503:0.0025296672 504:0.0015902849 511:0.0065718596 516:0.0065718596 531:0.0065718596 535:0.0065718596 #
105.40374881772602577711950289086 25:0.010058518 74:0.062432665 81:0.0030454325 194:0.0024449192 210:0.0093476176 233:0.062432665 272:0.032503773 336:0.05085459 389:0.0030454325 #
11.988328421772264320566137030255 14:0.016740808 44:0.026610645 56:0.026610645 63:0.0039842301 90:0.013854066 100:0.018788984 113:0.016740808 122:0.0034143596 142:0.021675726 194:0.0010420966 229:0.026610645 243:0.021675726 248:0.026610645 250:0.015152119 272:0.027708132 310:0.021675726 336:0.021675726 369:0.025513155 376:0.026610645 380:0.012756578 389:0.0025961064 393:0.0049349181 408:0.018788984 414:0.026610645 433:0.021675726 463:0.021675726 #
64.955385155532582075466052629054 14:0.062267639 63:0.0029638787 81:0.00096562493 194:0.0018088426 206:0.037360583 208:0.019795723 224:0.0027476742 228:0.0076006013 235:0.079182893 243:0.016124625 307:0.019795723 318:0.013977171 325:0.027954342 326:0.019795723 334:0.039591447 353:0.0027476742 359:0.0034247148 361:0.007020202 389:0.0057937498 432:0.024907056 459:0.0068494296 469:0.0027476742 476:0.016124625 490:0.019795723 508:0.019795723 #
93.94922267685728911601472645998 14:0.0381753 24:0.030341107 63:0.0022713835 81:0.00074001163 104:0.0030113952 122:0.0077860164 147:0.015170554 175:0.015170554 194:0.0017822775 206:0.0095438249 224:0.0021056943 226:0.012357189 228:0.017474279 236:0.0028133644 318:0.010711477 323:0.015170554 325:0.010711477 345:0.030341107 347:0.0028133644 348:0.0028133644 353:0.0042113885 356:0.015170554 361:0.0035866452 389:0.0051800814 402:0.015170554 432:0.01908765 454:0.0072724414 465:0.030341107 469:0.0021056943 473:0.015170554 474:0.075852774 501:0.010711477 503:0.0019465041 504:0.011013094 521:0.012357189 527:0.015170554 #
-43.106689429455073536701092962176 3:0.0045596892 13:0.00096768449 16:0.0045596892 25:0.00073461083 30:0.0045596892 31:0.00096768449 35:0.0016911797 61:0.0023738709 63:0.0020480733 64:0.0045596892 73:0.0037140991 79:0.0045596892 81:0.00022241923 87:0.0032194608 90:0.0071216128 94:0.014856396 95:0.00096768449 104:0.0018102208 109:0.0037140991 113:0.0028685092 120:0.0025367697 121:0.0023665163 122:0.0023401792 131:0.0029030535 136:0.0091193784 150:0.002715331 153:0.00096768449 155:0.0022067437 157:0.0074281981 159:0.00096768449 165:0.0032194608 168:0.0018102208 169:0.00096768449 170:0.00096768449 174:0.00096768449 179:0.0091193784 194:0.0017856151 197:0.002185818 202:0.001935369 203:0.0045596892 206:0.0028685092 210:0.0013653823 211:0.0045596892 214:0.0065574544 217:0.0045596892 224:0.00063289126 228:0.005252101 231:0.0045596892 236:0.0016911797 240:0.00090511038 241:0.0037140991 247:0.0045596892 254:0.0074281981 255:0.0023546591 258:0.0045596892 259:0.0018102208 261:0.00096768449 275:0.00096768449 281:0.00096768449 283:0.0094954837 285:0.0045596892 288:0.00078883878 296:0.0036204415 297:0.014856396 300:0.00096768449 303:0.0037140991 308:0.0045596892 309:0.0045596892 312:0.0045596892 332:0.0045596892 339:0.0045596892 347:0.00084558985 348:0.0016911797 349:0.0091193784 353:0.002531565 354:0.0047477419 355:0.00090511038 359:0.0023665163 361:0.0016170129 364:0.001935369 365:0.00096768449 374:0.0091193784 386:0.00090511038 389:0.0022241923 390:0.0045596892 393:0.0016911797 394:0.0037140991 396:0.0045596892 401:0.017486544 407:0.0091193784 422:0.00096768449 424:0.0045596892 425:0.00096768449 427:0.00096768449 435:0.0029384433 438:0.0045596892 439:0.0045596892 442:0.0064389217 451:0.0018102208 459:0.0015776776 468:0.0096583823 469:0.00063289126 481:0.0077888705 483:0.00078883878 486:0.0032194608 487:0.0045596892 489:0.00096768449 493:0.0045596892 497:0.00096768449 503:0.0052654031 504:0.0044134874 506:0.0045596892 515:0.0071216128 533:0.0045596892 534:0.0037140991 #
-112.27226332354726423545798752457 2:0.0060964259 13:0.0018324238 25:0.0013910716 26:0.0086343046 31:0.0018324238 35:0.0016012234 52:0.0086343046 63:0.0025855112 77:0.012192852 81:0.00042117684 83:0.0070330813 95:0.0018324238 104:0.0017139324 113:0.0054318579 120:0.0016012234 121:0.002987517 122:0.0055392538 131:0.0036648477 150:0.0017139324 153:0.0018324238 155:0.0020893638 159:0.0018324238 167:0.017268609 168:0.0017139324 169:0.0018324238 170:0.0018324238 174:0.0018324238 194:0.0019160536 197:0.0041391025 202:0.0018324238 206:0.0054318579 210:0.0025855112 224:0.0011984536 236:0.0016012234 240:0.0017139324 255:0.0022294112 259:0.0034278648 261:0.0018324238 266:0.0086343046 275:0.0018324238 281:0.0018324238 283:0.0044952026 288:0.0014937585 296:0.0017139324 300:0.0018324238 325:0.0060964259 347:0.0016012234 348:0.0032024467 353:0.0023969072 354:0.0044952026 355:0.0017139324 359:0.002987517 361:0.0030620031 364:0.0018324238 365:0.0018324238 373:0.0044952026 386:0.0017139324 389:0.0033694147 393:0.0016012234 422:0.0018324238 425:0.0018324238 427:0.0018324238 435:0.0027821432 450:0.0070330813 451:0.0017139324 459:0.002987517 483:0.0014937585 489:0.0018324238 496:0.0086343046 497:0.0018324238 503:0.0022157016 515:0.0044952026 #
-22.002464877398491438498240313493 13:0.001314869 25:0.00099817349 31:0.001314869 35:0.0011489694 43:0.0061956081 59:0.030978041 61:0.003225565 63:0.0064933831 77:0.021872673 81:0.00030221848 83:0.0050466387 87:0.0043745344 89:0.0061956081 90:0.0064511299 93:0.012391216 95:0.001314869 104:0.0012298446 113:0.003897669 120:0.0011489694 121:0.0021437146 122:0.0063595707 127:0.0061956081 131:0.0026297381 150:0.0024596893 153:0.001314869 155:0.0029984761 159:0.001314869 161:0.0061956081 162:0.0061956081 168:0.0024596893 169:0.001314869 170:0.001314869 174:0.001314869 181:0.0061956081 190:0.0061956081 194:0.0017792542 201:0.0061956081 202:0.001314869 205:0.0050466387 210:0.0018552523 224:0.00085995911 225:0.0061956081 228:0.0023788142 236:0.0022979388 240:0.0012298446 244:0.030978041 255:0.0031994605 259:0.0024596893 261:0.001314869 269:0.0061956081 275:0.001314869 280:0.0061956081 281:0.001314869 288:0.0010718573 296:0.0024596893 300:0.001314869 303:0.0050466387 322:0.0061956081 331:0.0061956081 347:0.0011489694 348:0.0011489694 353:0.0017199182 354:0.003225565 355:0.0012298446 359:0.0010718573 361:0.0029295501 362:0.0061956081 363:0.0061956081 364:0.001314869 365:0.001314869 379:0.0061956081 384:0.0061956081 386:0.0012298446 389:0.0039288406 393:0.0022979388 410:0.0050466387 422:0.001314869 425:0.001314869 427:0.001314869 434:0.0061956081 435:0.0029945204 436:0.0061956081 451:0.0012298446 459:0.0032155719 483:0.0010718573 485:0.0061956081 489:0.001314869 497:0.001314869 503:0.00079494633 515:0.01290226 532:0.0061956081 #
-59.855113465806347505804296815768 2:0.0042137061 7:0.0048611006 13:0.0012665283 25:0.00096147595 31:0.0012665283 34:0.0059678284 35:0.0022134557 51:0.023871314 58:0.011935657 61:0.003106978 63:0.0035740889 71:0.0084274122 81:0.00029110751 88:0.0059678284 90:0.006213956 92:0.0059678284 95:0.0012665283 102:0.011935657 104:0.0023692595 106:0.0033980857 120:0.0011067279 121:0.0030973523 122:0.0030628815 131:0.0037995847 144:0.0059678284 150:0.0011846297 153:0.0012665283 155:0.001444119 159:0.0012665283 168:0.0023692595 169:0.0012665283 170:0.0012665283 173:0.017903484 174:0.0012665283 177:0.0059678284 178:0.011935657 189:0.0048611006 194:0.001869644 196:0.0059678284 197:0.0028608502 202:0.0025330565 210:0.0017870445 214:0.0057217004 216:0.0059678284 222:0.0048611006 224:0.00082834292 228:0.0022913576 236:0.0011067279 239:0.011935657 240:0.0011846297 242:0.011935657 255:0.0015409166 259:0.0023692595 261:0.0012665283 267:0.0059678284 275:0.0012665283 281:0.0012665283 286:0.011935657 288:0.0010324508 289:0.011935657 295:0.0059678284 296:0.0011846297 300:0.0012665283 327:0.0048611006 335:0.0033980857 341:0.0059678284 347:0.0011067279 348:0.0011067279 353:0.0016566858 355:0.0011846297 359:0.0020649016 361:0.0021163845 364:0.0012665283 365:0.0012665283 377:0.0042137061 383:0.0048611006 386:0.0011846297 389:0.0037843978 393:0.0011067279 404:0.0059678284 422:0.0012665283 425:0.0012665283 427:0.0012665283 431:0.0059678284 435:0.0028844278 451:0.0011846297 452:0.0037543725 454:0.0057217004 459:0.0030973523 469:0.00082834292 477:0.0048611006 483:0.0020649016 489:0.0012665283 497:0.0012665283 503:0.00076572038 504:0.001444119 515:0.0093209343 #
-35.159636577777689581125741824508 7:0.0065456401 8:0.008035888 13:0.0017054242 25:0.0012946606 31:0.0017054242 35:0.0014902476 55:0.008035888 60:0.0056739012 63:0.0036094759 71:0.0056739012 77:0.0056739012 81:0.00039198637 95:0.0017054242 104:0.001595145 106:0.00457564 120:0.0014902476 121:0.0027804615 122:0.006186414 131:0.0034108483 150:0.001595145 151:0.008035888 153:0.0017054242 155:0.0019445563 159:0.0017054242 168:0.001595145 169:0.0017054242 170:0.0017054242 174:0.0017054242 187:0.032143552 194:0.0018881554 202:0.0017054242 210:0.0024063173 218:0.008035888 224:0.0011153924 236:0.0014902476 240:0.001595145 255:0.0020748975 259:0.0031902899 261:0.0017054242 275:0.0017054242 281:0.0017054242 283:0.0041836537 288:0.0013902307 296:0.001595145 300:0.0017054242 327:0.0065456401 335:0.00457564 347:0.0014902476 348:0.0014902476 351:0.0056739012 353:0.0022307849 355:0.001595145 359:0.0041706921 361:0.0028497851 364:0.0017054242 365:0.0017054242 367:0.008035888 375:0.0056739012 377:0.0056739012 383:0.0065456401 386:0.001595145 389:0.0031358909 393:0.0014902476 397:0.008035888 399:0.016071776 422:0.0017054242 425:0.0017054242 427:0.0017054242 435:0.0038839821 450:0.0065456401 451:0.001595145 452:0.0050553926 459:0.0027804615 483:0.0013902307 489:0.0017054242 497:0.0017054242 503:0.001031069 518:0.008035888 #
-94.97860949525772866763873025775 13:0.0014176777 25:0.00107622 31:0.0014176777 35:0.002477613 60:0.0094331522 63:0.0030004696 81:0.00032584876 95:0.0014176777 104:0.0026520106 106:0.0038036185 117:0.010882463 120:0.002477613 121:0.0034669952 122:0.0025713078 131:0.0042530331 150:0.0013260053 153:0.0014176777 155:0.0032329247 159:0.0014176777 168:0.0026520106 169:0.0014176777 170:0.0014176777 174:0.0014176777 193:0.0066800383 194:0.0021799691 197:0.0064045372 202:0.0028353555 209:0.0054412317 210:0.0020003133 224:0.00092719868 236:0.0012388065 240:0.0013260053 255:0.0034496239 259:0.0026520106 261:0.0014176777 275:0.0014176777 281:0.0014176777 283:0.0069555393 288:0.001155665 296:0.0013260053 300:0.0014176777 304:0.0054412317 333:0.0038036185 347:0.0012388065 348:0.0012388065 351:0.0094331522 353:0.0018543974 355:0.0013260053 359:0.001155665 361:0.002368957 364:0.0014176777 365:0.0014176777 375:0.0047165761 386:0.0013260053 389:0.0035843363 393:0.0012388065 416:0.0066800383 422:0.0014176777 425:0.0014176777 427:0.0014176777 435:0.0043048798 440:0.013360077 441:0.0054412317 451:0.0013260053 452:0.004202425 459:0.0034669952 469:0.00092719868 470:0.010882463 483:0.001155665 486:0.0094331522 489:0.0014176777 497:0.0014176777 503:0.00085710263 504:0.0016164624 #
38.013185355269321519244840601459 18:0.067635387 81:0.0032992186 108:0.038511638 119:0.067635387 194:0.00088288746 219:0.038511638 256:0.055092469 268:0.067635387 340:0.055092469 382:0.047755335 447:0.047755335 466:0.047755335 #
166.5508652837388012812880333513 4:0.0121138 6:0.0121138 10:0.0121138 12:0.019734615 23:0.0121138 70:0.0121138 75:0.0121138 80:0.019734615 108:0.0068976064 110:0.0121138 111:0.017106388 114:0.019734615 123:0.0121138 158:0.0098673077 180:0.0121138 182:0.019734615 194:0.0026881946 195:0.0098673077 219:0.013795213 240:0.0024046216 263:0.0121138 294:0.0121138 302:0.0121138 306:0.0098673077 335:0.0068976064 347:0.0022464925 348:0.0044929851 355:0.0024046216 361:0.0014319816 370:0.0121138 380:0.0058070989 415:0.0121138 429:0.0121138 437:0.0121138 448:0.0121138 455:0.0121138 459:0.002095721 472:0.019734615 498:0.0121138 503:0.0031085962 509:0.0121138 513:0.0121138 514:0.019734615 #
-120.14136063781427310459548607469 13:0.0020505695 25:0.0015566753 31:0.0020505695 35:0.0035836904 63:0.00289331 81:0.00047131695 95:0.0020505695 104:0.003835944 120:0.0017918452 121:0.0050147609 122:0.0037192132 131:0.0061517088 150:0.001917972 153:0.0020505695 159:0.0020505695 168:0.003835944 169:0.0020505695 170:0.0020505695 174:0.0020505695 184:0.019324396 194:0.0018919017 202:0.004101139 210:0.00289331 224:0.0013411266 236:0.0017918452 240:0.001917972 259:0.003835944 261:0.0020505695 275:0.0020505695 281:0.0020505695 288:0.001671587 296:0.001917972 300:0.0020505695 347:0.0017918452 348:0.0017918452 353:0.0026822533 355:0.001917972 359:0.001671587 361:0.0034265271 364:0.0020505695 365:0.0020505695 386:0.001917972 389:0.0042418526 393:0.0017918452 422:0.0020505695 425:0.0020505695 427:0.0020505695 435:0.0031133506 451:0.001917972 459:0.003343174 464:0.0096621979 469:0.0013411266 483:0.001671587 489:0.0020505695 497:0.0020505695 503:0.0012397377 504:0.0023380974 #
166.5508652837388012812880333513 11:0.0040581231 12:0.0033055483 19:0.0040581231 20:0.01217437 36:0.0040581231 39:0.0040581231 45:0.0040581231 53:0.01217437 62:0.0081162462 72:0.0040581231 78:0.0040581231 80:0.0033055483 86:0.0040581231 91:0.0040581231 105:0.0040581231 111:0.0057306401 114:0.0033055483 128:0.0040581231 137:0.0081162462 139:0.0040581231 140:0.0040581231 143:0.016232492 148:0.0081162462 156:0.0040581231 158:0.0033055483 182:0.0033055483 191:0.0040581231 194:0.002966502 195:0.0033055483 198:0.0040581231 212:0.0040581231 213:0.0040581231 219:0.0023106982 223:0.0081162462 246:0.0040581231 264:0.0040581231 277:0.0081162462 298:0.0081162462 301:0.0040581231 306:0.0033055483 314:0.0040581231 315:0.0040581231 316:0.0040581231 319:0.01217437 335:0.0023106982 338:0.0040581231 343:0.0040581231 344:0.0040581231 360:0.0040581231 368:0.01217437 380:0.0019453781 395:0.01217437 403:0.0081162462 409:0.0040581231 411:0.0040581231 417:0.0040581231 445:0.0040581231 453:0.0040581231 456:0.01217437 458:0.0040581231 467:0.0040581231 472:0.0033055483 479:0.0040581231 495:0.0040581231 500:0.0081162462 502:0.0081162462 507:0.01217437 512:0.0040581231 514:0.0033055483 528:0.01217437 530:0.0040581231 #
166.5508652837388012812880333513 81:0.0034426628 194:0.0018425478 389:0.0034426628 405:0.070576057 446:0.044399533 469:0.009796056 #
-78.253224546830693952870205976069 13:0.0013098696 25:0.00099437812 31:0.0013098696 35:0.0022892016 47:0.0061720507 50:0.0061720507 63:0.0018481981 65:0.0038828491 81:0.00030106938 95:0.0013098696 104:0.0024503369 109:0.0050274497 112:0.0061720507 115:0.0061720507 116:0.0050274497 120:0.0011446008 121:0.0032033455 122:0.0023757713 129:0.0050274497 131:0.0039296085 150:0.0024503369 153:0.0013098696 155:0.0029870751 159:0.0013098696 168:0.0024503369 169:0.0013098696 170:0.0013098696 174:0.0013098696 183:0.0061720507 192:0.0061720507 194:0.0020141918 197:0.0029587499 202:0.0026197392 210:0.0018481981 214:0.0029587499 224:0.00085668929 236:0.0011446008 240:0.0012251685 255:0.003187295 257:0.012344101 259:0.0024503369 261:0.0013098696 265:0.012344101 275:0.0013098696 281:0.0013098696 288:0.0010677818 296:0.0012251685 300:0.0013098696 313:0.0061720507 347:0.0011446008 348:0.0011446008 352:0.0061720507 353:0.0059968252 354:0.0032133006 355:0.0012251685 359:0.0010677818 361:0.0021888083 364:0.0013098696 365:0.0013098696 373:0.0032133006 381:0.0061720507 386:0.0012251685 389:0.00481711 393:0.0011446008 400:0.024688203 401:0.0029587499 412:0.0050274497 419:0.0050274497 422:0.0013098696 425:0.0013098696 427:0.0013098696 433:0.0050274497 435:0.0039775125 451:0.0024503369 459:0.0032033455 469:0.00085668929 483:0.0010677818 489:0.0013098696 497:0.0013098696 503:0.0023757713 504:0.0014935376 515:0.0032133006 517:0.012344101 524:0.012344101 534:0.0050274497 #
-166.5508652837388012812880333513 13:0.001775751 25:0.0013480487 31:0.001775751 35:0.003103402 63:0.0025055469 81:0.00040815075 95:0.001775751 104:0.0033218483 120:0.001551701 121:0.0043426794 122:0.0042943493 131:0.0053272531 150:0.0016609242 153:0.001775751 155:0.0020247442 159:0.001775751 168:0.0033218483 169:0.001775751 170:0.001775751 174:0.001775751 194:0.0020752407 202:0.003551502 207:0.016734529 210:0.0025055469 224:0.001161388 236:0.001551701 240:0.0016609242 255:0.0021604605 259:0.0033218483 261:0.001775751 275:0.001775751 281:0.001775751 288:0.0014475598 296:0.0016609242 300:0.001775751 333:0.0047643264 347:0.001551701 348:0.001551701 353:0.002322776 355:0.0016609242 359:0.0014475598 361:0.002967302 364:0.001775751 365:0.001775751 371:0.0083672646 385:0.0083672646 386:0.0016609242 389:0.0040815077 393:0.001551701 422:0.001775751 425:0.001775751 427:0.001775751 435:0.0026960974 451:0.0016609242 454:0.004011089 459:0.0028951196 469:0.001161388 481:0.0047643264 483:0.0014475598 489:0.001775751 497:0.001775751 503:0.0010735873 504:0.0020247442 #
-163.14437828809488451042852830142 13:0.0019798602 21:0.0093290191 25:0.0015029969 31:0.0019798602 35:0.0034601148 63:0.0027935407 81:0.00045506464 95:0.0019798602 104:0.0037036701 120:0.0017300574 121:0.004841838 122:0.0035909645 131:0.005939581 150:0.0018518351 153:0.0019798602 159:0.0019798602 168:0.0037036701 169:0.0019798602 170:0.0019798602 174:0.0019798602 194:0.0019484413 202:0.0039597205 210:0.0027935407 224:0.0012948809 236:0.0017300574 240:0.0018518351 259:0.0037036701 261:0.0019798602 270:0.018658038 275:0.0019798602 281:0.0019798602 288:0.001613946 296:0.0018518351 300:0.0019798602 347:0.0017300574 348:0.0017300574 353:0.0025897617 355:0.0018518351 359:0.001613946 361:0.0033083712 364:0.0019798602 365:0.0019798602 386:0.0018518351 389:0.0040955818 393:0.0017300574 422:0.0019798602 425:0.0019798602 427:0.0019798602 435:0.0030059938 451:0.0018518351 459:0.0032278921 469:0.0012948809 483:0.001613946 489:0.0019798602 497:0.0019798602 503:0.0011969882 504:0.0022574733 #
99.089023125533771008122130297124 48:0.028986594 65:0.018235523 122:0.0037192132 126:0.023611059 145:0.028986594 171:0.028986594 194:0.001135141 204:0.028986594 228:0.011129452 260:0.028986594 284:0.028986594 287:0.028986594 310:0.023611059 324:0.028986594 328:0.028986594 330:0.028986594 359:0.0050147609 380:0.013895558 421:0.028986594 435:0.0046700258 443:0.028986594 503:0.0074384264 525:0.028986594 #
107.62265490810581525238376343623 81:0.0039590625 194:0.001059465 199:0.057306401 311:0.081162468 389:0.007918125 454:0.038907561 469:0.011265464 #
97.510211717369898565266339574009 15:0.022862665 17:0.022862665 22:0.018622806 32:0.022862665 49:0.022862665 57:0.022862665 63:0.006846142 65:0.014382948 66:0.022862665 101:0.022862665 108:0.013018019 122:0.005866928 126:0.018622806 130:0.022862665 146:0.022862665 154:0.022862665 164:0.022862665 194:0.0011937633 259:0.0045383 272:0.01190279 361:0.0054052263 380:0.010959877 388:0.022862665 389:0.0033456865 406:0.022862665 423:0.022862665 430:0.018622806 432:0.014382948 435:0.0036834008 454:0.010959877 475:0.022862665 480:0.022862665 523:0.022862665 #
87.177701918346173215468297712505 380:0.11116447 #
-104.41131949335174056159303290769 13:0.0020752752 25:0.0015754305 31:0.0020752752 35:0.0018134337 63:0.0029281692 81:0.00047699545 95:0.0020752752 104:0.0019410801 116:0.0079651764 120:0.0018134337 121:0.0033834532 122:0.0037640231 131:0.0041505503 150:0.0019410801 153:0.0020752752 155:0.0023662674 159:0.0020752752 166:0.0097786104 168:0.0019410801 169:0.0020752752 170:0.0020752752 174:0.0020752752 194:0.0019146957 202:0.0020752752 210:0.0029281692 224:0.0013572848 232:0.0097786104 236:0.0018134337 240:0.0019410801 255:0.0025248753 259:0.0038821602 261:0.0020752752 275:0.0020752752 281:0.0020752752 288:0.0016917266 296:0.0019410801 300:0.0020752752 329:0.0097786104 347:0.0018134337 348:0.0018134337 353:0.0027145697 355:0.0019410801 358:0.0097786104 359:0.0016917266 361:0.0034678108 364:0.0020752752 365:0.0020752752 386:0.0019410801 389:0.0038159636 410:0.0079651764 420:0.0097786104 422:0.0020752752 425:0.0020752752 427:0.0020752752 435:0.003150861 451:0.0038821602 459:0.0033834532 481:0.0055679474 483:0.0016917266 489:0.0020752752 497:0.0020752752 503:0.0025093488 505:0.0097786104 #
67.993069369794909562187967821956 81:0.0037705356 194:0.0010090142 220:0.062962823 250:0.044013299 369:0.037054822 389:0.0037705356 457:0.077297583 469:0.010729013 503:0.0099179018 #
59.761699692682981321922852657735 35:0.0077187177 54:0.041621778 67:0.029387899 81:0.0020302883 121:0.0072006821 194:0.0016299461 215:0.041621778 237:0.041621778 272:0.021669181 288:0.0072006821 290:0.041621778 305:0.041621778 318:0.029387899 353:0.0057771611 357:0.067806117 366:0.029387899 369:0.019952595 389:0.0040605767 435:0.0067056785 463:0.033903059 #
70.265007086608434860863781068474 41:0.040581234 65:0.025529733 68:0.040581234 81:0.0019795313 108:0.023106983 122:0.0052068988 142:0.033055481 160:0.040581234 172:0.040581234 194:0.001059465 228:0.015581232 276:0.028653201 288:0.0070206653 361:0.0047971383 369:0.019453781 389:0.0039590625 430:0.033055481 454:0.019453781 469:0.0056327321 476:0.033055481 #
52.790566494677356956799485487863 81:0.0029326386 194:0.0015695777 220:0.048971087 250:0.034232568 369:0.028820416 389:0.0029326386 413:0.060120344 446:0.037821826 469:0.0083447881 503:0.0077139237 #
150.54281975526805581466760486364 25:0.0047549354 81:0.001439659 194:0.0023115599 199:0.020838691 210:0.0044188737 224:0.0040965322 230:0.024040351 276:0.020838691 291:0.048080701 337:0.020838691 353:0.0081930645 354:0.015365419 361:0.0069776555 389:0.001439659 446:0.018567078 462:0.048080701 469:0.0040965322 504:0.01428365 526:0.024040351 #
-75.450341382037635185042745433748 5:0.0081570316 13:0.0017311341 25:0.0013141781 31:0.0017311341 33:0.0081570316 35:0.003025427 63:0.0036638903 81:0.0003978957 84:0.0066443179 95:0.0017311341 104:0.0032383848 120:0.0015127135 121:0.004233567 122:0.0031398383 131:0.0051934025 138:0.0066443179 150:0.0016191924 153:0.0017311341 155:0.0019738711 159:0.0017311341 165:0.0057594376 168:0.0032383848 169:0.0017311341 170:0.0017311341 174:0.0017311341 194:0.002023099 202:0.0034622683 210:0.0024425935 214:0.0039103078 224:0.0011322075 236:0.0015127135 240:0.0016191924 255:0.0021061774 259:0.0032383848 261:0.0017311341 275:0.0017311341 281:0.0017311341 288:0.002822378 293:0.0081570316 296:0.0032383848 300:0.0017311341 333:0.0046446193 347:0.0015127135 348:0.0015127135 353:0.0022644149 355:0.0016191924 359:0.001411189 361:0.0028927466 364:0.0017311341 365:0.0017311341 386:0.0016191924 389:0.0043768529 393:0.0015127135 422:0.0017311341 425:0.0017311341 427:0.0017311341 435:0.0026283562 451:0.0016191924 459:0.002822378 469:0.0011322075 483:0.001411189 489:0.0017311341 497:0.0017311341 503:0.0010466127 504:0.0019738711 522:0.024471095 #
-166.5508652837388012812880333513 13:0.0023276736 25:0.0017670369 31:0.0023276736 35:0.0020339864 63:0.0032842979 76:0.010967901 81:0.00053500844 95:0.0023276736 104:0.0021771574 120:0.0020339864 121:0.0037949542 122:0.0042218096 131:0.0046553472 150:0.0021771574 153:0.0023276736 159:0.0023276736 168:0.0021771574 169:0.0023276736 170:0.0023276736 174:0.0023276736 194:0.0018612222 202:0.0023276736 210:0.0032842979 224:0.00152236 236:0.0020339864 240:0.0021771574 259:0.0043543149 261:0.0023276736 275:0.0023276736 281:0.0023276736 288:0.0018974771 296:0.0021771574 300:0.0023276736 347:0.0020339864 348:0.0020339864 353:0.00304472 355:0.0021771574 359:0.0018974771 361:0.0038895714 364:0.0023276736 365:0.0023276736 386:0.0021771574 389:0.003745059 422:0.0023276736 425:0.0023276736 427:0.0023276736 435:0.0035340737 451:0.0021771574 459:0.0037949542 471:0.010967901 483:0.0018974771 489:0.0023276736 497:0.0023276736 503:0.0014072699 #
17.162002854582322441956421243958 14:0.042549554 81:0.0032992186 108:0.038511638 194:0.00088288746 219:0.038511638 256:0.055092469 340:0.055092469 382:0.047755335 398:0.067635387 447:0.047755335 466:0.047755335 529:0.067635387 #
158.11776471413347167072060983628 25:0.0033528393 42:0.020810889 67:0.014693949 81:0.0010151442 100:0.044081848 120:0.0077187177 121:0.003600341 163:0.016951529 194:0.0024449192 210:0.0031158724 224:0.0028885806 250:0.011849734 272:0.043338362 337:0.014693949 366:0.014693949 369:0.0099762976 389:0.0020302883 393:0.0077187177 408:0.029387899 469:0.0028885806 483:0.003600341 501:0.014693949 503:0.005340409 #
-78.495454892580298178472730796784 13:0.0018036424 25:0.0013692223 31:0.0018036424 35:0.0031521465 63:0.0038173515 81:0.00041456151 95:0.0018036424 104:0.0033740241 120:0.0015760732 121:0.004410889 122:0.0054522497 131:0.0054109269 150:0.001687012 153:0.0018036424 155:0.0020565465 159:0.0018036424 168:0.0033740241 169:0.0018036424 170:0.0018036424 174:0.0018036424 185:0.0084986873 194:0.0019968974 202:0.0036072847 205:0.0069226143 210:0.0025449011 224:0.0011796297 234:0.016997375 236:0.0015760732 240:0.001687012 255:0.0021943944 259:0.0033740241 261:0.0018036424 275:0.0018036424 281:0.0018036424 288:0.0014702964 296:0.001687012 300:0.0018036424 347:0.0015760732 348:0.0015760732 353:0.0023592594 355:0.001687012 359:0.0014702964 361:0.0030139089 364:0.0018036424 365:0.0018036424 373:0.0044245971 386:0.001687012 389:0.0037310536 393:0.0015760732 401:0.0040740902 422:0.0018036424 425:0.0018036424 427:0.0018036424 435:0.0027384446 451:0.001687012 459:0.0029405928 461:0.0069226143 469:0.0011796297 481:0.0048391586 483:0.0014702964 489:0.0018036424 497:0.0018036424 503:0.00109045 504:0.0020565465 510:0.0084986873 #
-18.160961003172133132466115057468 13:0.0011184925 25:0.00084909564 31:0.0011184925 35:0.0019547401 60:0.0074423896 63:0.0023672536 81:0.00025708196 82:0.0052702897 95:0.0011184925 96:0.0052702897 104:0.002092333 106:0.0030009067 117:0.030050438 120:0.00097737007 121:0.0027353242 122:0.0020286618 125:0.0052702897 131:0.0033554775 150:0.0010461665 153:0.0011184925 155:0.0038259777 159:0.0011184925 168:0.002092333 169:0.0011184925 170:0.0011184925 174:0.0011184925 186:0.0052702897 194:0.0021326891 197:0.0075793951 202:0.0022369849 209:0.0042929198 210:0.0015781692 214:0.0050529302 222:0.0042929198 224:0.00073152361 228:0.0020235367 236:0.00097737007 240:0.0010461665 249:0.021081159 255:0.0040824283 259:0.002092333 261:0.0011184925 273:0.010540579 274:0.0052702897 275:0.0011184925 281:0.0011184925 283:0.010975299 288:0.0018235494 292:0.0052702897 296:0.002092333 299:0.0052702897 300:0.0011184925 304:0.0042929198 320:0.0052702897 321:0.0052702897 333:0.0030009067 347:0.00097737007 348:0.00097737007 351:0.0074423896 353:0.0014630472 355:0.0010461665 359:0.0009117747 361:0.0018690148 364:0.0011184925 365:0.0011184925 375:0.0037211948 386:0.0010461665 387:0.0052702897 389:0.0035991475 393:0.00097737007 394:0.0042929198 401:0.0050529302 422:0.0011184925 425:0.0011184925 427:0.0011184925 428:0.010540579 435:0.0025472869 441:0.0042929198 449:0.0052702897 451:0.0031384996 452:0.0033155496 459:0.0027353242 468:0.0037211948 469:0.00073152361 470:0.0085858395 483:0.0009117747 486:0.0074423896 489:0.0011184925 497:0.0011184925 499:0.0085858395 503:0.00067622057 504:0.0012753259 515:0.0027438249 #
