SVM-light Version V6.02
0 # kernel type
3 # kernel parameter -d 
1 # kernel parameter -g 
1 # kernel parameter -s 
1 # kernel parameter -r 
empty# kernel parameter -u 
2041 # highest feature index 
23 # number of training documents 
22 # number of support vectors plus 1 
0.94022353 # threshold b, each following line is a SV (starting with alpha*y)
-1.1801840456905605680759663300705 1767:0.22588167 #
-8.0932711239005978853811029694043 85:0.00051535189 190:0.023459379 366:0.011226885 721:0.017852964 746:0.011026847 882:0.050386582 959:0.007132655 986:0.011330603 1005:0.028781191 1155:0.080803245 1156:0.0065306001 1574:0.04617618 1618:0.093578532 1801:0.01986713 1832:0.048540492 1906:0.04721427 1946:0.046542313 2041:0.00017139282 #
-0.41633626505354204283548824605532 85:0.0020936171 603:0.12017497 672:0.076879911 1155:0.082065798 1406:0.11188588 1411:0.069071233 1642:0.05354625 1982:0.19180797 2041:0.00011604722 #
-22.515295985482154605961113702506 85:0.0020936171 298:0.1729936 603:0.12017497 672:0.076879911 1155:0.082065798 1406:0.11188588 1411:0.069071233 1642:0.05354625 2041:0.00011604722 #
22.515295985482154605961113702506 85:0.0022331916 555:0.20459518 603:0.12818664 672:0.082005233 1155:0.087536849 1411:0.073675983 1642:0.057116002 2041:0.00012378371 #
22.515295985482154605961113702506 85:0.0022331916 298:0.1845265 603:0.12818664 672:0.082005233 1155:0.087536849 1411:0.073675983 1642:0.057116002 2041:0.00012378371 #
22.515295985482154605961113702506 76:0.026893035 85:0.00033497874 190:0.015248596 326:0.015126251 366:0.010946213 429:0.025918063 603:0.057683986 717:0.027399153 721:0.011604425 746:0.0071674511 819:0.025918063 852:0.022238296 882:0.016375639 927:0.021146851 959:0.013908677 986:0.0073648915 1051:0.01477863 1155:0.039391581 1411:0.044205591 1492:0.012300786 1565:0.015918063 1574:0.030014519 1588:0.024052676 1620:0.021560388 1666:0.021146851 1671:0.024668677 1774:0.016065296 1801:0.02582727 1920:0.0060503464 1923:0.029477034 1946:0.015126251 2041:0.00018567557 #
22.515295985482154605961113702506 76:0.033201277 85:0.00041355399 190:0.018825427 326:0.018674385 366:0.011261536 429:0.03199761 603:0.047476534 717:0.033826113 721:0.014326451 746:0.0088487044 852:0.027454685 882:0.020216838 927:0.026107224 959:0.011447471 986:0.0090924585 1051:0.018245222 1155:0.032421056 1411:0.040931102 1492:0.015186154 1565:0.019651931 1574:0.01852748 1588:0.019796442 1620:0.017745174 1666:0.026107224 1671:0.030455155 1774:0.019833699 1801:0.023914138 1920:0.0074695633 1923:0.024260933 1946:0.018674385 2041:0.00018338328 #
22.515295985482154605961113702506 85:0.00057754957 190:0.026290683 326:0.026079744 366:0.0094363904 427:0.047722373 603:0.066303432 717:0.023619959 721:0.020007631 746:0.012357674 819:0.044686317 959:0.015986985 986:0.012698089 1155:0.045277681 1411:0.019054133 1574:0.025874585 1588:0.027646754 1600:0.042532202 1620:0.024782054 1671:0.042532202 1801:0.022264887 1920:0.010431631 1923:0.033881649 2041:0.00019207817 #
-22.515295985482154605961113702506 76:0.033201277 85:0.00041355399 190:0.018825427 326:0.018674385 366:0.011261536 429:0.03199761 603:0.047476534 717:0.033826113 721:0.014326451 746:0.0088487044 852:0.027454685 882:0.020216838 927:0.026107224 959:0.011447471 986:0.0090924585 1051:0.018245222 1155:0.032421056 1411:0.040931102 1492:0.015186154 1565:0.019651931 1574:0.01852748 1588:0.019796442 1620:0.017745174 1666:0.026107224 1671:0.030455155 1774:0.019833699 1801:0.023914138 1920:0.0074695633 1923:0.024260933 1946:0.018674385 2041:0.00018338328 #
-7.6247960194006942913347302237526 85:0.0022331916 438:0.20459518 603:0.12818664 672:0.082005233 1155:0.087536849 1411:0.073675983 1642:0.057116002 2041:0.00012378371 #
-7.624796019400696067691569624003 85:0.0022331916 603:0.12818664 651:0.20459518 672:0.082005233 1155:0.087536849 1411:0.073675983 1642:0.057116002 2041:0.00012378371 #
-4.9584117703162844392750230326783 85:0.0020936171 603:0.12017497 672:0.076879911 1155:0.082065798 1237:0.19180797 1411:0.069071233 1642:0.05354625 1870:0.1104936 2041:0.00011604722 #
-4.9357846993523111223112209700048 85:0.0020936171 603:0.12017497 672:0.076879911 965:0.19180797 1155:0.082065798 1411:0.069071233 1642:0.05354625 1870:0.1104936 2041:0.00011604722 #
-8.062274277931699373311857925728 85:0.0009852316 190:0.044848811 326:0.088977948 366:0.0053657908 717:0.12087861 721:0.034130663 986:0.021661445 1156:0.012484971 1480:0.06219662 1670:0.015328026 1801:0.01899064 1920:0.017795136 2041:0.00021844184 #
-8.7016311255244023215027482365258 85:0.0008170213 99:0.034296826 228:0.038140919 282:0.086238906 366:0.00889936 413:0.016323265 537:0.067509696 603:0.093795098 621:0.0629647 672:0.060003832 732:0.006865052 959:0.022615734 1048:0.051692832 1588:0.039110042 1620:0.01752877 1642:0.041792195 2041:0.00013586017 #
-10.090582600657528544729757413734 85:0.0023927053 366:0.013031206 1411:0.078938559 1574:0.10719471 1588:0.057268277 1642:0.061195716 2041:0.0001326254 #
-1.7080233805347315723111023544334 85:0.00045887497 190:0.020888487 326:0.082883567 366:0.0074974061 717:0.056299627 721:0.015896473 730:0.01355817 746:0.0098184263 882:0.044864763 986:0.010088893 1036:0.032465171 1048:0.0072582401 1155:0.017987024 1156:0.0058149183 1233:0.029669009 1480:0.028968289 1487:0.01017249 1574:0.041115779 1666:0.028968289 1670:0.014278162 1765:0.062760994 1801:0.026534867 1920:0.0082881451 1946:0.041441783 2041:0.00020348007 #
-3.9426910925622280501556815579534 85:0.00063203537 190:0.028770935 326:0.057080194 366:0.006884411 717:0.077544771 721:0.021895144 746:0.013523492 882:0.061794862 986:0.013896022 1155:0.024774581 1156:0.008009227 1480:0.039899718 1574:0.056631166 1666:0.039899718 1670:0.0098330732 1801:0.024365349 1920:0.011415748 1946:0.057080194 2041:0.00021019875 #
-0.10810186936790945610997738413062 85:0.0009852316 190:0.044848811 326:0.088977948 366:0.0053657908 717:0.12087861 721:0.034130663 986:0.021661445 1156:0.012484971 1480:0.06219662 1670:0.015328026 1801:0.01899064 1920:0.017795136 2041:0.00021844184 #
-0.099010476625563725860956765245646 85:0.0023927053 366:0.013031206 1411:0.078938559 1574:0.10719471 1588:0.057268277 1642:0.061195716 2041:0.0001326254 #
