SVM-light Version V6.02
0 # kernel type
3 # kernel parameter -d 
1 # kernel parameter -g 
1 # kernel parameter -s 
1 # kernel parameter -r 
empty# kernel parameter -u 
2078 # highest feature index 
13 # number of training documents 
8 # number of support vectors plus 1 
1.0971707 # threshold b, each following line is a SV (starting with alpha*y)
-1.4525126207658360932839514134685 85:0.00072821463 347:0.12034337 366:0.015864078 617:0.018395895 646:0.13343163 695:0.10304163 732:0.0061188508 1048:0.046074044 1119:0.022000495 1222:0.047083426 1424:0.066845596 1588:0.034858953 1596:0.019993663 1620:0.03124694 1642:0.037249565 1944:0.040539294 2041:0.00016145701 #
-2.1952020174892101778141295653768 85:0.00088152301 190:0.040127885 230:0.047109842 366:0.0048009707 515:0.03039773 721:0.030537963 986:0.019381294 1052:0.11704366 1156:0.022341527 1203:0.036518063 1588:0.042197678 1615:0.041889641 1620:0.018912621 1642:0.02254579 1801:0.016991625 2041:0.00019544797 2051:0.046523623 #
-0.29426570974359311794188442945597 76:0.016200623 77:0.028553706 85:0.00040358884 127:0.024926839 341:0.0074911998 342:0.013488404 353:0.03697503 360:0.03697503 366:0.0043960693 400:0.026094429 413:0.0080632996 447:0.024926839 454:0.018081035 596:0.014525359 617:0.010195315 621:0.031103045 642:0.012984356 682:0.03697503 730:0.02384931 738:0.027599715 781:0.031226583 880:0.073284395 1012:0.018840695 1048:0.012767507 1086:0.028553706 1119:0.012193046 1156:0.0051143258 1214:0.025478134 1313:0.03697503 1424:0.018523479 1425:0.03697503 1469:0.029721297 1492:0.014820223 1596:0.011080826 1620:0.025976371 1670:0.012557901 1783:0.03697503 1801:0.0077792979 1805:0.014744935 1845:0.018371802 1868:0.015819913 1984:0.03697503 2012:0.013547529 2041:0.0001789644 #
-1.4832049924757082504100935693714 85:0.00072821463 366:0.007932039 617:0.018395895 732:0.0061188508 880:0.08815369 1048:0.046074044 1119:0.022000495 1222:0.047083426 1384:0.03537631 1424:0.066845596 1588:0.034858953 1596:0.019993663 1620:0.03124694 1623:0.081078589 1625:0.084999315 1912:0.049767319 1944:0.040539294 2041:0.00016145701 #
-17.387870956813461731371717178263 85:0.00025377178 190:0.011551966 209:0.013571839 226:0.019634897 230:0.013561924 252:0.027479623 341:0.0094207516 350:0.0092812357 366:0.0055283904 413:0.01014021 425:0.011459281 455:0.0071596666 522:0.0065515731 617:0.0064106905 620:0.010249427 695:0.035908449 721:0.0087912316 753:0.0083367024 869:0.018831104 880:0.030720226 885:0.0095152594 915:0.020968921 964:0.016847193 986:0.0055794632 1014:0.0099473698 1048:0.016056107 1052:0.033694386 1131:0.011281394 1152:0.010582044 1155:0.0099473698 1156:0.0064316518 1203:0.010512776 1245:0.01433967 1273:0.0073637697 1384:0.0061640539 1431:0.0071596666 1489:0.015812451 1560:0.012658997 1588:0.012147817 1596:0.0069674887 1615:0.024118278 1620:0.016333627 1623:0.014127331 1642:0.019471364 1801:0.014674585 1912:0.008671578 1920:0.0045835958 1949:0.020968921 2041:0.00019692862 2051:0.013393164 2071:0.020968921 #
33.931321643620947270392207428813 85:0.00029908816 190:0.013614818 209:0.0079976907 230:0.015983697 252:0.032386698 341:0.0055515142 350:0.0054692999 366:0.006515603 413:0.011950962 515:0.010313516 559:0.02740114 695:0.084641345 721:0.010361095 746:0.00639951 869:0.022193801 880:0.072411962 964:0.01985562 986:0.0065757958 1048:0.018923268 1052:0.039711241 1131:0.013295929 1152:0.012471694 1155:0.011723685 1156:0.0075801611 1203:0.012390057 1273:0.0086787287 1384:0.0072647776 1489:0.018636102 1588:0.014317069 1615:0.014212557 1620:0.038500693 1623:0.016650068 1642:0.022948394 1703:0.0059754811 1746:0.02045336 1801:0.017295046 1912:0.010220074 2041:0.00018235993 2051:0.0157848 #
-11.118270589714027707373134035151 85:0.00018507113 190:0.0084246388 209:0.009897694 230:0.0098904641 252:0.020040387 262:0.012286351 327:0.030584505 341:0.010305573 350:0.0067686364 366:0.0050396929 402:0.010623202 413:0.0073950705 425:0.0083570452 522:0.0095558856 547:0.012656223 573:0.0087945098 620:0.0074747195 658:0.010457659 695:0.052374754 721:0.0064112851 746:0.0079198349 753:0.0060798046 869:0.020599769 874:0.023366686 880:0.044807401 907:0.015292252 928:0.011683343 964:0.012286351 986:0.0040690009 1016:0.0086396551 1047:0.028638745 1048:0.014636782 1131:0.0082273148 1152:0.0077172914 1155:0.0072544352 1156:0.0093809729 1173:0.012656223 1245:0.010457659 1249:0.012286351 1273:0.005370263 1384:0.004495332 1391:0.023931907 1429:0.012656223 1489:0.017297598 1553:0.010801018 1560:0.0092319753 1588:0.017718362 1620:0.023823634 1623:0.010302804 1642:0.023666851 1690:0.0087945098 1703:0.0036975353 1801:0.014269209 1870:0.0097673899 1887:0.026909819 1912:0.0063240239 1924:0.0067274547 2041:0.00017439142 2051:0.0097673899 2071:0.015292252 #
