SVM-light Version V6.02
0 # kernel type
3 # kernel parameter -d 
1 # kernel parameter -g 
1 # kernel parameter -s 
1 # kernel parameter -r 
empty# kernel parameter -u 
2041 # highest feature index 
13 # number of training documents 
10 # number of support vectors plus 1 
0.96087603 # threshold b, each following line is a SV (starting with alpha*y)
-0.76679792475168762067028183082584 1767:0.22588167 #
-0.19533224860639389341976368541509 85:0.0020936171 298:0.1729936 603:0.12017497 672:0.076879911 1155:0.082065798 1406:0.11188588 1411:0.069071233 1642:0.05354625 2041:0.00011604722 #
-0.39837249538321756192615907821164 85:0.0022331916 555:0.20459518 603:0.12818664 672:0.082005233 1155:0.087536849 1411:0.073675983 1642:0.057116002 2041:0.00012378371 #
-0.30661254549553496051572665237472 85:0.0022331916 298:0.1845265 603:0.12818664 672:0.082005233 1155:0.087536849 1411:0.073675983 1642:0.057116002 2041:0.00012378371 #
-1.2117403116500984339154456392862 85:0.00063203537 190:0.028770935 326:0.057080194 366:0.006884411 717:0.077544771 721:0.021895144 746:0.013523492 882:0.061794862 986:0.013896022 1155:0.024774581 1156:0.008009227 1480:0.039899718 1574:0.056631166 1666:0.039899718 1670:0.0098330732 1801:0.024365349 1920:0.011415748 1946:0.057080194 2041:0.00021019875 #
21.8139882184901452433223312255 85:0.00057754957 190:0.026290683 326:0.026079744 366:0.0094363904 427:0.047722373 603:0.066303432 717:0.023619959 721:0.020007631 746:0.012357674 819:0.044686317 959:0.015986985 986:0.012698089 1155:0.045277681 1411:0.019054133 1574:0.025874585 1588:0.027646754 1600:0.042532202 1620:0.024782054 1671:0.042532202 1801:0.022264887 1920:0.010431631 1923:0.033881649 2041:0.00019207817 #
-18.138387865470654958244267618284 76:0.026893035 85:0.00033497874 190:0.015248596 326:0.015126251 366:0.010946213 429:0.025918063 603:0.057683986 717:0.027399153 721:0.011604425 746:0.0071674511 819:0.025918063 852:0.022238296 882:0.016375639 927:0.021146851 959:0.013908677 986:0.0073648915 1051:0.01477863 1155:0.039391581 1411:0.044205591 1492:0.012300786 1565:0.015918063 1574:0.030014519 1588:0.024052676 1620:0.021560388 1666:0.021146851 1671:0.024668677 1774:0.016065296 1801:0.02582727 1920:0.0060503464 1923:0.029477034 1946:0.015126251 2041:0.00018567557 #
-0.39837248185448004278441658243537 85:0.0022331916 603:0.12818664 651:0.20459518 672:0.082005233 1155:0.087536849 1411:0.073675983 1642:0.057116002 2041:0.00012378371 #
-0.39837248185448476123227123935067 85:0.0022331916 438:0.20459518 603:0.12818664 672:0.082005233 1155:0.087536849 1411:0.073675983 1642:0.057116002 2041:0.00012378371 #
