SVM-light Version V6.02
0 # kernel type
3 # kernel parameter -d 
1 # kernel parameter -g 
1 # kernel parameter -s 
1 # kernel parameter -r 
empty# kernel parameter -u 
57 # highest feature index 
10 # number of training documents 
11 # number of support vectors plus 1 
0.70622066 # threshold b, each following line is a SV (starting with alpha*y)
-27.741419552587206709404199500568 5:0.025641026 6:0.0039718449 15:0.025641026 21:0.025641026 22:0.025641026 23:0.0039718449 29:0.0039718449 30:0.0077187177 31:0.0039718449 46:0.0039718449 48:0.0079436898 49:0.0039718449 52:0.025641026 54:0.07692308 #
-24.249192019724517876966274343431 2:0.083333336 4:0.027777778 6:0.0043028323 10:0.019415833 23:0.0043028323 29:0.0043028323 31:0.0043028323 33:0.019415833 41:0.027777778 46:0.0043028323 48:0.0086056646 49:0.0043028323 57:0.027777778 #
-27.741419552587192498549484298564 3:0.07692308 6:0.0039718449 18:0.025641026 23:0.0039718449 24:0.025641026 25:0.025641026 29:0.0039718449 30:0.0077187177 31:0.0039718449 34:0.025641026 40:0.025641026 46:0.0039718449 48:0.0079436898 49:0.0039718449 #
-27.741419552587188945835805498064 6:0.0039718449 7:0.025641026 8:0.025641026 9:0.025641026 13:0.025641026 23:0.0039718449 29:0.0039718449 30:0.0077187177 31:0.0039718449 38:0.07692308 46:0.0039718449 48:0.0079436898 49:0.0039718449 53:0.025641026 #
-24.24919201972451432425259554293 6:0.0043028323 10:0.019415833 16:0.083333336 23:0.0043028323 26:0.027777778 29:0.0043028323 31:0.0043028323 33:0.019415833 42:0.027777778 46:0.0043028323 48:0.0086056646 49:0.0043028323 55:0.027777778 #
84.450250686171770553301030304283 12:0.027519934 27:0.052631579 44:0.027519934 45:0.027519934 #
51.377614909953827293520589591935 12:0.027519934 44:0.027519934 45:0.027519934 56:0.15789473 #
51.377614909953834398947947192937 12:0.027519934 19:0.15789473 44:0.027519934 45:0.027519934 #
-27.741418904434343772891224944033 6:0.0039718449 11:0.025641026 14:0.025641026 23:0.0039718449 29:0.0039718449 30:0.0077187177 31:0.0039718449 32:0.025641026 37:0.025641026 46:0.0039718449 47:0.07692308 48:0.0079436898 49:0.0039718449 51:0.025641026 #
-27.741418904434343772891224944033 6:0.0039718449 17:0.025641026 23:0.0039718449 28:0.025641026 29:0.0039718449 30:0.0077187177 31:0.0039718449 35:0.025641026 36:0.025641026 39:0.025641026 43:0.07692308 46:0.0039718449 48:0.0079436898 49:0.0039718449 #
