SVM-light Version V6.02
0 # kernel type
3 # kernel parameter -d 
1 # kernel parameter -g 
1 # kernel parameter -s 
1 # kernel parameter -r 
empty# kernel parameter -u 
267 # highest feature index 
20 # number of training documents 
18 # number of support vectors plus 1 
-0.54264215 # threshold b, each following line is a SV (starting with alpha*y)
-114.1628478089266138795210281387 5:0.025510391 18:0.019607844 32:0.019607844 37:0.019607844 68:0.019607844 75:0.025510391 107:0.019607844 112:0.025510391 140:0.019607844 172:0.010252524 173:0.019607844 184:0.019607844 196:0.019607844 228:0.019607844 237:0.019607844 245:0.016155073 254:0.019607844 259:0.019607844 265:0.019607844 #
-27.664305967245141459898150060326 17:0.061953809 40:0.061953809 90:0.033284284 124:0.061953809 137:0.047619049 172:0.024898987 174:0.0021789281 201:0.033284284 225:0.028669523 257:0.033284284 262:0.033284284 #
-49.94070508428995935901184566319 90:0.038831666 159:0.072279446 172:0.029048819 174:0.0025420829 201:0.038831666 225:0.033447776 257:0.038831666 262:0.038831666 #
-27.664305967245102380047683254816 12:0.061953809 44:0.061953809 90:0.033284284 137:0.047619049 172:0.024898987 174:0.0021789281 201:0.033284284 225:0.028669523 248:0.061953809 257:0.033284284 262:0.033284284 #
-177.17609512312719743931666016579 174:0.0050841658 #
38.713543974362949029455194249749 3:0.0016271892 10:0.0016271892 13:0.0028068898 15:0.0032543784 20:0.0016271892 21:0.0016271892 22:0.0070325946 25:0.016216217 26:0.0016271892 30:0.0070325946 31:0.0032543784 34:0.0016271892 38:0.014065189 46:0.0016271892 47:0.0081359455 49:0.0016271892 51:0.0070325946 52:0.0070325946 53:0.0048815673 54:0.0016271892 56:0.0032543784 57:0.0016271892 62:0.0016271892 66:0.0016271892 77:0.0016271892 78:0.0016271892 81:0.0037782162 83:0.0016271892 85:0.0016271892 86:0.0016271892 92:0.013360682 101:0.0016271892 102:0.0016271892 104:0.0016271892 106:0.0016271892 109:0.0016271892 113:0.0032543784 115:0.0016271892 116:0.0016271892 118:0.0016271892 119:0.0016271892 120:0.0032543784 125:0.0016271892 131:0.0016271892 133:0.0070325946 135:0.0016271892 136:0.0016271892 138:0.013360682 139:0.0070325946 142:0.0016271892 143:0.0044535608 144:0.0016271892 145:0.0016271892 147:0.0016271892 149:0.0070325946 150:0.0032543784 151:0.0016271892 153:0.0070325946 157:0.0044535608 163:0.0016271892 164:0.0016271892 165:0.0016271892 167:0.0016271892 170:0.0016271892 174:0.0002473378 175:0.0016271892 176:0.0070325946 178:0.0016271892 179:0.0016271892 182:0.0016271892 183:0.0016271892 186:0.0054054055 191:0.0016271892 194:0.0016271892 195:0.0054054055 198:0.0016271892 199:0.0016271892 203:0.0048815673 204:0.0014034449 205:0.0089071216 207:0.0016271892 209:0.0032543784 216:0.0016271892 217:0.0016271892 229:0.0044535608 231:0.0016271892 232:0.0016271892 235:0.0032543784 243:0.0070325946 249:0.0016271892 253:0.0043020542 255:0.0016271892 260:0.0016271892 261:0.0016271892 264:0.0016271892 266:0.0093726348 #
156.42047592223542551437276415527 3:0.0019547401 10:0.0019547401 13:0.0033719132 15:0.0039094803 16:0.0064935065 20:0.0019547401 21:0.0019547401 26:0.0019547401 28:0.0039094803 31:0.0039094803 34:0.0019547401 46:0.0019547401 47:0.0097737014 49:0.0019547401 53:0.0058642207 54:0.0019547401 57:0.0019547401 62:0.0019547401 66:0.0019547401 70:0.0064935065 76:0.0045387661 77:0.0019547401 78:0.0019547401 81:0.0045387661 82:0.0033953164 83:0.0019547401 85:0.0019547401 86:0.0019547401 93:0.0064935065 101:0.0019547401 102:0.0019547401 104:0.0019547401 106:0.0019547401 109:0.0019547401 113:0.0039094803 115:0.0019547401 116:0.0019547401 118:0.0019547401 119:0.0019547401 125:0.0019547401 131:0.0019547401 135:0.0019547401 136:0.0019547401 142:0.0019547401 143:0.0053500566 144:0.0019547401 145:0.0019547401 147:0.0019547401 150:0.0039094803 151:0.0019547401 152:0.0033953164 157:0.010700113 163:0.0019547401 164:0.0019547401 165:0.0019547401 167:0.0019547401 170:0.0019547401 174:0.00029712656 175:0.0019547401 178:0.0019547401 179:0.0019547401 182:0.0019547401 183:0.0019547401 191:0.0019547401 194:0.0019547401 198:0.0019547401 199:0.0019547401 203:0.0058642207 204:0.0016859566 207:0.0019547401 209:0.0039094803 216:0.0019547401 217:0.0019547401 221:0.0064935065 229:0.0053500566 231:0.0019547401 232:0.0019547401 235:0.0039094803 249:0.0019547401 255:0.0019547401 260:0.0019547401 261:0.0019547401 264:0.0019547401 266:0.0045037335 #
97.574698203953914799058111384511 3:0.0015678646 7:0.0031357291 8:0.0031357291 10:0.0015678646 13:0.0027045554 14:0.0031357291 15:0.0031357291 20:0.0015678646 21:0.0015678646 24:0.0031357291 26:0.0015678646 31:0.0031357291 34:0.0015678646 35:0.0052083335 46:0.0015678646 47:0.007839323 48:0.0031357291 49:0.0015678646 53:0.0047035939 54:0.0015678646 56:0.0031357291 57:0.0015678646 58:0.0052083335 61:0.0031357291 62:0.0015678646 63:0.0031357291 66:0.0015678646 69:0.0031357291 72:0.0031357291 77:0.0015678646 78:0.0015678646 82:0.0027233269 83:0.0015678646 85:0.0015678646 86:0.0015678646 88:0.0031357291 89:0.0031357291 92:0.0042911912 94:0.0031357291 101:0.0015678646 102:0.0015678646 104:0.0031357291 106:0.0015678646 109:0.0015678646 113:0.0031357291 115:0.0031357291 116:0.0015678646 118:0.0015678646 119:0.0015678646 121:0.0062714582 125:0.0015678646 127:0.0031357291 131:0.0015678646 135:0.0015678646 136:0.0015678646 142:0.0031357291 144:0.0015678646 145:0.0015678646 147:0.0015678646 150:0.012542916 151:0.0015678646 152:0.0027233269 163:0.0015678646 164:0.0015678646 165:0.0015678646 167:0.0015678646 170:0.0015678646 171:0.0052083335 174:0.00023832027 175:0.0015678646 178:0.0015678646 179:0.0015678646 182:0.0015678646 183:0.0015678646 188:0.0062714582 190:0.0052083335 191:0.0015678646 194:0.0015678646 198:0.0015678646 199:0.0015678646 200:0.0052083335 203:0.0047035939 204:0.0013522777 207:0.0015678646 209:0.0031357291 212:0.0031357291 213:0.0031357291 216:0.0015678646 217:0.0015678646 220:0.0062714582 227:0.0031357291 231:0.0015678646 232:0.0015678646 235:0.0031357291 239:0.0031357291 242:0.0031357291 246:0.0031357291 249:0.0015678646 253:0.0020726041 255:0.0015678646 260:0.0015678646 261:0.0015678646 264:0.0015678646 266:0.0018061848 #
-85.249288709336397573679278139025 19:0.014925373 27:0.019418359 43:0.038836718 60:0.019418359 67:0.019418359 71:0.038836718 82:0.015608321 95:0.019418359 97:0.019418359 123:0.019418359 126:0.019418359 132:0.038836718 134:0.019418359 148:0.014925373 154:0.019418359 162:0.019418359 168:0.019418359 174:0.00068294763 185:0.038836718 186:0.014925373 197:0.019418359 202:0.019418359 206:0.04918858 211:0.019418359 218:0.019418359 219:0.020864775 222:0.019418359 234:0.014925373 247:0.019418359 251:0.019418359 253:0.011878806 266:0.015527798 267:0.019418359 #
110.28173280904024977644439786673 3:0.0019052532 10:0.0019052532 13:0.0032865482 15:0.0038105063 20:0.0019052532 21:0.0019052532 23:0.0063291141 26:0.0019052532 28:0.011431519 31:0.0038105063 34:0.0019052532 36:0.0063291141 46:0.0019052532 47:0.0095262658 49:0.0019052532 53:0.0057157595 54:0.0019052532 57:0.0019052532 62:0.0019052532 64:0.0063291141 66:0.0019052532 77:0.0019052532 78:0.0019052532 83:0.0019052532 85:0.0019052532 86:0.0019052532 87:0.0063291141 91:0.0052146125 98:0.012658228 99:0.0063291141 101:0.0019052532 102:0.0019052532 104:0.0019052532 105:0.0063291141 106:0.0019052532 109:0.0019052532 111:0.0063291141 113:0.0038105063 115:0.0019052532 116:0.0019052532 118:0.0019052532 119:0.0019052532 120:0.0038105063 122:0.0063291141 125:0.0019052532 129:0.0052146125 131:0.0019052532 135:0.0019052532 136:0.0019052532 138:0.0052146125 142:0.0019052532 144:0.0019052532 145:0.0019052532 147:0.0019052532 150:0.0038105063 151:0.0019052532 156:0.0052146125 163:0.0019052532 164:0.0019052532 165:0.0019052532 167:0.0019052532 169:0.0063291141 170:0.0019052532 174:0.00028960436 175:0.0019052532 178:0.0019052532 179:0.0019052532 182:0.0019052532 183:0.0019052532 191:0.0019052532 194:0.0019052532 198:0.0019052532 199:0.0019052532 203:0.0057157595 204:0.0016432741 207:0.0019052532 209:0.0038105063 216:0.0019052532 217:0.0019052532 231:0.0019052532 232:0.0019052532 249:0.0019052532 253:0.0025186075 255:0.0019052532 260:0.0019052532 261:0.0019052532 264:0.0019052532 #
-38.709518087542846842552535235882 11:0.083937421 13:0.008375397 41:0.041968711 45:0.041968711 103:0.083937421 130:0.041968711 158:0.041968711 174:0.001476048 180:0.083937421 193:0.041968711 204:0.016750794 215:0.041968711 238:0.083937421 244:0.041968711 #
161.68610102297731145881698466837 3:0.0018025748 10:0.0018025748 13:0.0031094288 15:0.0036051497 20:0.0018025748 21:0.0018025748 26:0.0018025748 31:0.0036051497 33:0.0059880242 34:0.0018025748 39:0.0059880242 46:0.0018025748 47:0.0090128742 49:0.0018025748 53:0.0054077245 54:0.0018025748 56:0.0072102994 57:0.0018025748 62:0.0018025748 66:0.0018025748 74:0.0059880242 76:0.0083708987 77:0.0018025748 78:0.0018025748 79:0.0059880242 83:0.0018025748 85:0.0018025748 86:0.0018025748 101:0.0018025748 102:0.0018025748 104:0.0018025748 106:0.0018025748 109:0.0018025748 113:0.0036051497 115:0.0018025748 116:0.0018025748 118:0.0018025748 119:0.0018025748 125:0.0018025748 131:0.0018025748 135:0.0018025748 136:0.0018025748 142:0.0018025748 144:0.0018025748 145:0.0018025748 146:0.0059880242 147:0.0018025748 150:0.0036051497 151:0.0018025748 152:0.0031310103 163:0.0018025748 164:0.0018025748 165:0.0018025748 167:0.0018025748 170:0.0018025748 174:0.00027399693 175:0.0018025748 177:0.0059880242 178:0.0018025748 179:0.0018025748 182:0.0018025748 183:0.0018025748 187:0.0059880242 191:0.0018025748 194:0.0018025748 198:0.0018025748 199:0.0018025748 203:0.0054077245 204:0.0015547144 205:0.0098671708 206:0.0049335854 207:0.0018025748 209:0.0036051497 216:0.0018025748 217:0.0018025748 219:0.0041854493 231:0.0018025748 232:0.0018025748 240:0.0059880242 249:0.0018025748 250:0.0059880242 252:0.011976048 253:0.0047657485 255:0.0018025748 260:0.0018025748 261:0.0018025748 264:0.0018025748 266:0.0062297154 #
74.380953876231316712619445752352 3:0.0014266825 7:0.0028533649 8:0.0028533649 10:0.0014266825 13:0.0024610171 14:0.0028533649 15:0.0028533649 20:0.0014266825 21:0.0014266825 24:0.0028533649 25:0.0094786733 26:0.0014266825 28:0.0057067298 31:0.0028533649 34:0.0014266825 46:0.0014266825 47:0.0071334122 48:0.0028533649 49:0.0014266825 50:0.006166019 53:0.0042800475 54:0.0014266825 55:0.006166019 57:0.0014266825 61:0.0028533649 62:0.0014266825 63:0.0028533649 66:0.0014266825 69:0.0028533649 72:0.0028533649 77:0.0014266825 78:0.0014266825 80:0.006166019 81:0.0033126541 83:0.0014266825 85:0.0014266825 86:0.0014266825 88:0.0028533649 89:0.0028533649 91:0.0039047808 94:0.0028533649 96:0.006166019 101:0.0014266825 102:0.0014266825 104:0.0028533649 106:0.0014266825 108:0.006166019 109:0.0014266825 110:0.006166019 113:0.0028533649 115:0.0028533649 116:0.0014266825 118:0.0014266825 119:0.0014266825 120:0.0028533649 121:0.0057067298 125:0.0014266825 127:0.0028533649 129:0.0039047808 131:0.0014266825 135:0.0014266825 136:0.0014266825 142:0.0028533649 144:0.0014266825 145:0.0014266825 147:0.0014266825 150:0.01141346 151:0.0014266825 156:0.0039047808 163:0.0014266825 164:0.0014266825 165:0.0014266825 167:0.0014266825 170:0.0014266825 174:0.00021686015 175:0.0014266825 178:0.0014266825 179:0.0014266825 182:0.0014266825 183:0.0014266825 188:0.0057067298 191:0.0014266825 192:0.006166019 194:0.0014266825 195:0.0047393367 198:0.0014266825 199:0.0014266825 203:0.0042800475 204:0.0012305086 207:0.0014266825 209:0.0028533649 210:0.012332038 212:0.0028533649 213:0.0028533649 214:0.006166019 216:0.0014266825 217:0.0014266825 220:0.0057067298 224:0.006166019 227:0.0028533649 231:0.0014266825 232:0.0014266825 233:0.006166019 239:0.0028533649 242:0.0028533649 246:0.0028533649 249:0.0014266825 255:0.0014266825 256:0.006166019 258:0.006166019 260:0.0014266825 261:0.0014266825 263:0.006166019 264:0.0014266825 266:0.0065741702 #
-52.157891691308563508755469229072 19:0.0625 82:0.032679923 128:0.081314377 148:0.0625 174:0.0028598432 234:0.0625 245:0.051494297 #
-177.17609512312719743931666016579 2:0.0097091794 4:0.0097091794 6:0.0097091794 9:0.0097091794 18:0.0074626864 29:0.0097091794 32:0.014925373 37:0.014925373 42:0.0097091794 59:0.0097091794 68:0.0074626864 73:0.0097091794 84:0.0097091794 100:0.019418359 107:0.014925373 114:0.0097091794 117:0.0097091794 120:0.0044929851 140:0.014925373 155:0.0097091794 160:0.0097091794 161:0.019418359 166:0.0097091794 172:0.0078041605 173:0.014925373 181:0.0097091794 184:0.0074626864 189:0.0097091794 196:0.0074626864 208:0.0097091794 219:0.0052161939 223:0.0097091794 225:0.0044929851 226:0.0097091794 228:0.014925373 230:0.0097091794 236:0.0097091794 237:0.014925373 241:0.0097091794 245:0.0061485725 254:0.0074626864 259:0.0074626864 265:0.0074626864 #
-49.940705112985050106999551644549 65:0.072279446 90:0.038831666 172:0.029048819 174:0.0025420829 201:0.038831666 225:0.033447776 257:0.038831666 262:0.038831666 #
160.78425286633313362472108565271 3:0.0020068667 10:0.0020068667 13:0.0034618308 15:0.0040137335 20:0.0020068667 21:0.0020068667 26:0.0020068667 31:0.0040137335 34:0.0020068667 35:0.0066666668 46:0.0020068667 47:0.010034333 49:0.0020068667 53:0.0060206 54:0.0020068667 56:0.0040137335 57:0.0020068667 58:0.0066666668 62:0.0020068667 66:0.0020068667 77:0.0020068667 78:0.0020068667 82:0.0034858582 83:0.0020068667 85:0.0020068667 86:0.0020068667 92:0.0054927249 101:0.0020068667 102:0.0020068667 104:0.0020068667 106:0.0020068667 109:0.0020068667 113:0.0040137335 115:0.0020068667 116:0.0020068667 118:0.0020068667 119:0.0020068667 125:0.0020068667 131:0.0020068667 135:0.0020068667 136:0.0020068667 142:0.0020068667 144:0.0020068667 145:0.0020068667 147:0.0020068667 150:0.0040137335 151:0.0020068667 152:0.0034858582 163:0.0020068667 164:0.0020068667 165:0.0020068667 167:0.0020068667 170:0.0020068667 171:0.0066666668 174:0.00030504994 175:0.0020068667 178:0.0020068667 179:0.0020068667 182:0.0020068667 183:0.0020068667 190:0.0066666668 191:0.0020068667 194:0.0020068667 198:0.0020068667 199:0.0020068667 200:0.0066666668 203:0.0060206 204:0.0017309154 207:0.0020068667 209:0.0040137335 216:0.0020068667 217:0.0020068667 231:0.0020068667 232:0.0020068667 235:0.0040137335 249:0.0020068667 253:0.0026529334 255:0.0020068667 260:0.0020068667 261:0.0020068667 264:0.0020068667 266:0.0023119166 #
