SVM-light Version V6.02
0 # kernel type
3 # kernel parameter -d 
1 # kernel parameter -g 
1 # kernel parameter -s 
1 # kernel parameter -r 
empty# kernel parameter -u 
41 # highest feature index 
20 # number of training documents 
14 # number of support vectors plus 1 
-0.36845645 # threshold b, each following line is a SV (starting with alpha*y)
-0.057741124994495886257883654479883 22:1 34:1 #
0.054132304682339836554572087834458 32:1 37:1 39:1 #
-0.057741124994495886257883654479883 2:1 19:1 26:1 #
0.054132304682340204315948994917562 13:1 37:1 39:1 #
-0.057741124994495886257883654479883 22:1 26:1 #
-0.057741124994495886257883654479883 14:1 17:1 19:1 22:1 26:2 29:1 30:1 #
-0.057741124994495886257883654479883 22:1 29:1 34:1 #
0.054132304682339704715587913597119 35:1 37:1 39:1 #
0.054132304682339892065723319092285 10:1 37:1 39:1 #
0.018044101560779957083013869123533 1:1 11:1 12:1 37:1 39:1 #
0.054132304682339635326648874524835 15:1 37:1 39:1 #
1.1102230246251565404236316680908e-16 5:1 15:1 33:1 37:1 39:1 #
1.1102230246251565404236316680908e-16 27:1 35:1 36:1 37:1 39:1 #
