SVM-light Version V6.02
0 # kernel type
3 # kernel parameter -d 
1 # kernel parameter -g 
1 # kernel parameter -s 
1 # kernel parameter -r 
empty# kernel parameter -u 
258 # highest feature index 
20 # number of training documents 
13 # number of support vectors plus 1 
-0.2242331 # threshold b, each following line is a SV (starting with alpha*y)
-0.0013654188175357979267987573734899 5:1 11:1 25:1 28:1 31:1 35:1 37:1 39:1 40:1 43:1 44:1 52:1 54:1 83:1 92:1 100:1 101:1 102:1 104:1 116:1 117:1 120:1 122:1 126:1 127:1 129:1 149:1 151:1 155:1 165:1 167:1 168:1 169:1 178:1 180:1 182:1 183:1 185:1 190:1 192:1 201:1 212:1 219:1 236:1 237:1 247:1 248:1 #
-0.052246562091799064742048130938201 37:1 185:1 187:1 192:1 212:1 216:1 247:1 #
-0.052246562091799064742048130938201 40:1 68:1 79:1 192:1 212:1 216:1 239:1 247:1 #
-0.052246562091799064742048130938201 185:1 192:1 212:1 216:1 235:1 239:1 247:1 #
0.039852927024014127288520370484548 84:1 122:1 158:1 164:1 204:1 246:1 #
0.019926469669385257765803487473022 17:1 36:1 42:1 65:1 122:1 153:1 164:1 204:1 209:1 #
0.039852963755665493650326425267849 81:1 122:1 137:1 150:1 164:1 204:1 #
0.039852927024014189738565505649603 20:1 56:1 122:1 164:1 204:1 208:1 #
0.039852927236631821572565570477309 55:1 122:1 164:1 204:1 213:1 251:1 #
-0.052246562091799064742048130938201 28:1 31:1 37:1 39:1 44:1 92:1 109:1 128:1 149:1 178:1 196:1 200:1 216:1 247:1 #
-0.0088394376047238459870314386535028 11:1 30:1 37:1 39:1 40:1 43:1 52:1 54:1 83:1 92:1 98:1 101:1 104:1 116:1 117:1 120:1 126:1 131:1 134:1 155:1 167:1 178:1 183:1 185:1 196:1 200:1 201:1 212:1 219:1 223:1 237:1 238:1 247:1 248:1 #
0.03985292702401416198298989002069 80:1 121:1 122:1 145:1 164:1 204:1 #
