SVM-light Version V6.02
0 # kernel type
3 # kernel parameter -d 
1 # kernel parameter -g 
1 # kernel parameter -s 
1 # kernel parameter -r 
empty# kernel parameter -u 
258 # highest feature index 
20 # number of training documents 
21 # number of support vectors plus 1 
0.5930924 # threshold b, each following line is a SV (starting with alpha*y)
57.077254301741859876528906170279 17:0.052041199 36:0.0240824 42:0.052041199 65:0.1040824 122:0.0074834656 153:0.052041199 164:0.0120412 204:0.0120412 209:0.052041199 #
-40.299825283113918317212664987892 3:0.0031055901 5:0.011938929 11:0.00093487574 13:0.0020202328 14:0.0012793614 18:0.0015527951 19:0.0046583852 25:0.0010853572 29:0.0031055901 35:0.0051174457 37:0.0061791926 39:0.00070796889 40:0.0035398444 43:0.007479006 44:0.0032476941 47:0.0020202328 51:0.0077639753 52:0.020567266 53:0.0040404657 54:0.00093487574 62:0.0080809314 74:0.0080809314 83:0.00093487574 88:0.0015527951 90:0.0020202328 91:0.0020202328 92:0.0024357706 94:0.0080809314 100:0.0012793614 101:0.018697515 104:0.00093487574 105:0.0077639753 106:0.012121397 116:0.00093487574 117:0.0018697515 120:0.00093487574 122:0.00029050722 126:0.00093487574 127:0.0025587229 132:0.0031055901 133:0.0031055901 140:0.0031055901 151:0.0012793614 155:0.0018697515 159:0.0063968068 165:0.015892887 166:0.0020202328 167:0.00093487574 177:0.0012793614 178:0.00081192353 182:0.0031055901 183:0.0018697515 185:0.0012358385 188:0.0077639753 190:0.0012793614 191:0.0025587229 192:0.0073073115 201:0.00093487574 212:0.011846777 216:0.0012358385 219:0.0018697515 222:0.0060606985 236:0.0012793614 237:0.00093487574 240:0.0020202328 247:0.003739503 248:0.0018697515 256:0.0020202328 258:0.0062111802 #
-22.003407600159196277900264249183 37:0.011369715 185:0.022739429 187:0.057142857 192:0.029878786 212:0.0099082142 216:0.022739429 247:0.0086008571 #
-8.3892255721857011963038530666381 40:0.015197732 68:0.06666667 79:0.06666667 192:0.034858584 212:0.011559583 216:0.013264667 239:0.023298999 247:0.010034333 #
-28.573945561968425721488529234193 185:0.022739429 192:0.029878786 212:0.0099082142 216:0.022739429 235:0.057142857 239:0.019970572 247:0.0086008571 #
33.796970198043759125994256464764 84:0.081314377 122:0.011692915 158:0.081314377 164:0.018814376 204:0.018814376 246:0.16262875 #
69.8520052509897482195810880512 36:0.0240824 81:0.039999999 122:0.0074834656 137:0.079999998 150:0.039999999 161:0.052041199 164:0.0120412 174:0.052041199 204:0.0120412 #
12.502144913648692181595833972096 81:0.0625 122:0.011692915 137:0.125 150:0.0625 164:0.018814376 204:0.018814376 #
69.858000024174486952688312157989 36:0.0240824 55:0.039999999 122:0.0074834656 164:0.0120412 179:0.052041199 204:0.0120412 213:0.079999998 224:0.052041199 251:0.039999999 #
12.498308258896217992628407955635 55:0.0625 122:0.011692915 164:0.018814376 204:0.018814376 213:0.125 251:0.0625 #
-23.256145320220181105241863406263 28:0.011359623 31:0.011359623 37:0.0075083021 39:0.017204979 44:0.019731274 92:0.0098656369 109:0.018867925 128:0.04909547 149:0.011359623 178:0.0098656369 196:0.031090897 200:0.018867925 216:0.015016604 247:0.017039433 #
-90.797068541335676172820967622101 3:0.0010080645 4:0.0013115222 11:0.0012138307 14:0.0016611064 19:0.0030241935 21:0.0039345664 22:0.0013115222 25:0.00070460688 28:0.00060691533 29:0.0030241935 30:0.002016129 31:0.00060691533 32:0.0039345664 37:0.013639073 38:0.0013115222 39:0.0018384353 40:0.0064345235 43:0.0012138307 44:0.0063251462 49:0.0052460888 51:0.0010080645 52:0.0084968144 54:0.0012138307 58:0.0010080645 60:0.0010080645 68:0.0010080645 69:0.0013115222 75:0.0013115222 77:0.0010080645 79:0.0050403224 83:0.0012138307 86:0.0030241935 87:0.0010080645 92:0.0021083821 101:0.0060691531 104:0.0012138307 105:0.0010080645 109:0.0010080645 110:0.0010080645 111:0.0026230444 116:0.0012138307 117:0.0030345765 120:0.0012138307 125:0.0010080645 126:0.0012138307 131:0.011088709 132:0.0050403224 133:0.0010080645 134:0.0016611064 136:0.0010080645 140:0.0010080645 144:0.0013115222 147:0.0013115222 149:0.00060691533 155:0.0024276613 159:0.0016611064 162:0.0010080645 163:0.0013115222 165:0.0042484072 167:0.0012138307 170:0.0010080645 171:0.0030241935 172:0.0010080645 173:0.0013115222 175:0.0013115222 176:0.0013115222 177:0.00083055318 178:0.0057980507 181:0.0039345664 183:0.0024276613 185:0.0048137903 187:0.0010080645 188:0.0010080645 191:0.0033222127 193:0.0013115222 194:0.0013115222 195:0.002016129 196:0.0066444254 197:0.0010080645 198:0.0026230444 199:0.0010080645 201:0.0012138307 203:0.0013115222 212:0.0038454258 216:0.0036103427 218:0.0010080645 219:0.0024276613 230:0.0050403224 232:0.0050403224 233:0.0010080645 234:0.0010080645 235:0.0010080645 237:0.0012138307 239:0.004227641 241:0.0026230444 243:0.0010080645 245:0.002016129 247:0.0084968144 248:0.0024276613 250:0.0013115222 252:0.0050403224 253:0.0010080645 257:0.0010080645 #
-76.550266898973973184183705598116 11:0.0035208187 30:0.0058479533 37:0.016289942 39:0.0026662687 40:0.013331343 43:0.0035208187 52:0.014083275 54:0.0035208187 83:0.0035208187 92:0.0030577704 98:0.0076083625 101:0.010562456 104:0.0035208187 116:0.0035208187 117:0.0070416373 120:0.0035208187 126:0.0035208187 131:0.011695907 134:0.0048181796 155:0.0070416373 167:0.0035208187 178:0.0091733113 183:0.0070416373 185:0.0023271346 196:0.014454539 200:0.01754386 201:0.0035208187 212:0.0040559941 219:0.0070416373 223:0.0076083625 237:0.0035208187 238:0.0076083625 247:0.0052812281 248:0.0070416373 #
-64.870196136156224042679241392761 5:0.006412569 18:0.0091743115 28:0.0055234861 31:0.0055234861 37:0.0073016514 39:0.0041828621 40:0.0041828621 44:0.0095941052 60:0.018348623 149:0.0055234861 156:0.011936055 159:0.0075587956 162:0.0091743115 165:0.0055234861 185:0.0073016514 192:0.023985263 199:0.0091743115 212:0.0063630734 216:0.010952477 230:0.018348623 234:0.0091743115 243:0.0091743115 247:0.0055234861 257:0.018348623 258:0.0091743115 #
-53.013974407417613576853909762576 2:0.0013228571 5:0.013858582 6:0.0019842857 7:0.00066142855 8:0.00066142855 9:0.0019842857 11:0.00091824098 12:0.0013228571 14:0.00083773129 15:0.00066142855 16:0.00066142855 23:0.0013228571 24:0.00066142855 25:0.0021320896 26:0.0019842857 27:0.0033071428 28:0.00091824098 31:0.00091824098 33:0.0026457142 34:0.00066142855 35:0.005026388 37:0.0038438537 39:0.0013907432 40:0.0027814864 41:0.00066142855 43:0.0073459279 44:0.0026582549 45:0.00066142855 46:0.00066142855 48:0.0013228571 50:0.0013228571 52:0.021425622 54:0.00091824098 57:0.0013228571 58:0.00050838839 59:0.00066142855 61:0.00066142855 63:0.00066142855 64:0.00066142855 66:0.012567143 67:0.0026457142 70:0.00066142855 72:0.0013228571 73:0.0019842857 76:0.0013228571 77:0.00050838839 78:0.00066142855 82:0.00066142855 83:0.00091824098 85:0.0019842857 86:0.00050838839 87:0.00050838839 88:0.00050838839 89:0.0013228571 92:0.0029240805 95:0.00066142855 96:0.0013228571 97:0.00066142855 99:0.00066142855 100:0.0016754626 101:0.020201301 103:0.00066142855 104:0.00091824098 107:0.00066142855 108:0.0066142855 110:0.00050838839 112:0.00066142855 113:0.0013228571 114:0.0013228571 115:0.0026457142 116:0.00091824098 117:0.001836482 118:0.0033071428 119:0.0026457142 120:0.00091824098 122:0.00028533803 123:0.019842857 124:0.0019842857 125:0.00050838839 126:0.00091824098 127:0.0016754626 130:0.00066142855 134:0.001256597 135:0.0013228571 136:0.00050838839 138:0.0079371426 139:0.0033071428 141:0.0013228571 142:0.0039685713 143:0.0026457142 146:0.0013228571 148:0.00066142855 149:0.00091824098 151:0.001256597 152:0.0013228571 155:0.001836482 157:0.0026457142 165:0.018976981 167:0.00091824098 170:0.00050838839 171:0.00050838839 172:0.0035587188 177:0.00041886565 178:0.0010633019 183:0.001836482 184:0.0026457142 185:0.00060692424 186:0.0013228571 189:0.00066142855 190:0.002513194 191:0.00083773129 195:0.0035587188 197:0.00050838839 201:0.00091824098 202:0.0026457142 205:0.00066142855 206:0.0013228571 207:0.0013228571 210:0.00066142855 211:0.00066142855 212:0.011283375 214:0.0033071428 215:0.0033071428 216:0.0032369294 217:0.0013228571 218:0.00050838839 219:0.001836482 220:0.00066142855 221:0.0013228571 225:0.0019842857 226:0.00066142855 227:0.0013228571 228:0.0013228571 229:0.00066142855 231:0.00066142855 232:0.0015251653 233:0.00050838839 236:0.00041886565 237:0.00091824098 239:0.00035534825 242:0.0019842857 244:0.0092599997 245:0.0010167768 247:0.0052033653 248:0.001836482 249:0.0013228571 252:0.0010167768 253:0.00050838839 254:0.00066142855 255:0.00066142855 #
12.505922485514588515798095613718 80:0.125 121:0.0625 122:0.011692915 145:0.0625 164:0.018814376 204:0.018814376 #
12.505922539991159325722946960013 20:0.0625 56:0.0625 122:0.011692915 164:0.018814376 204:0.018814376 208:0.125 #
69.848231848326236104185227304697 36:0.0240824 71:0.052041199 80:0.079999998 121:0.039999999 122:0.0074834656 145:0.039999999 154:0.052041199 164:0.0120412 204:0.0120412 #
69.86038841992333914276969153434 10:0.052041199 20:0.039999999 36:0.0240824 56:0.039999999 122:0.0074834656 160:0.052041199 164:0.0120412 204:0.0120412 208:0.079999998 #
-12.551092919719726737071141542401 5:0.016871689 11:0.0020760689 25:0.0024102414 28:0.0020760689 31:0.0020760689 35:0.011364259 37:0.0082332417 39:0.0031443583 40:0.0062887166 43:0.0062282067 44:0.0036060603 52:0.020760689 54:0.0020760689 83:0.0020760689 92:0.0036060603 100:0.0028410647 101:0.016608551 102:0.022431552 104:0.0020760689 116:0.0020760689 117:0.0041521378 120:0.0020760689 122:0.00064512633 126:0.0020760689 127:0.0056821294 129:0.0044863103 149:0.0020760689 151:0.0028410647 155:0.0041521378 165:0.012456413 167:0.0020760689 168:0.0089726206 169:0.0044863103 178:0.0018030301 180:0.0044863103 182:0.0068965517 183:0.0041521378 185:0.001372207 190:0.0028410647 192:0.010818181 201:0.0020760689 212:0.0095665511 219:0.0041521378 236:0.0028410647 237:0.0020760689 247:0.0020760689 248:0.0041521378 #
