SVM-light Version V6.02
0 # kernel type
3 # kernel parameter -d 
1 # kernel parameter -g 
1 # kernel parameter -s 
1 # kernel parameter -r 
empty# kernel parameter -u 
26 # highest feature index 
47 # number of training documents 
31 # number of support vectors plus 1 
0.88153305 # threshold b, each following line is a SV (starting with alpha*y)
-2.6183800014692765690906706856849e-16 1:1 21:1 #
-0.11846694592234729981328200665303 12:1 #
-0.36613930500794422684407436463516 15:1 #
-0.36894902974773613468784105862142 7:1 #
0.36894902974773613468784105862142 1:1 #
0.36894902974773613468784105862142 10:1 #
0.36894902974773613468784105862142 3:1 #
-0.11903809841393675483800507208798 17:1 #
-0.36894902974773613468784105862142 #
0.36894902974773613468784105862142 4:1 7:1 15:1 #
0.36894902974773613468784105862142 7:1 #
0.36894902974773613468784105862142 3:2 7:1 #
-0.36894902974773613468784105862142 3:2 7:1 #
-0.2820679538107661588064445368218 3:1 7:1 9:1 #
-0.12127667066213920765704870063928 15:1 #
0.36894902974773613468784105862142 1:1 #
0.36894902974773613468784105862142 5:1 #
0.36894902974773613468784105862142 11:1 #
0.36894902974773613468784105862142 6:1 19:1 #
-0.36894902974773613468784105862142 11:1 #
-0.24596601983182411754746965470986 1:1 4:1 5:1 8:1 #
-0.11903809841393675483800507208798 18:1 #
-0.11903809841393675483800507208798 20:1 #
-0.11903809841393675483800507208798 13:1 #
-0.36819992173206106400584758375771 1:1 #
-0.21260590987090255410407735325862 1:1 #
0.36894902974773613468784105862142 #
-0.36894902974773613468784105862142 #
-0.0033870479951736975898768378101522 1:3 3:2 7:1 22:1 25:1 #
-0.019432009997510268917153553047683 1:1 #
