SVM-light Version V6.02
0 # kernel type
3 # kernel parameter -d 
1 # kernel parameter -g 
1 # kernel parameter -s 
1 # kernel parameter -r 
empty# kernel parameter -u 
282 # highest feature index 
47 # number of training documents 
34 # number of support vectors plus 1 
0.61741075 # threshold b, each following line is a SV (starting with alpha*y)
-0.0028516922070207259380658637581973 2:1 3:1 4:1 6:1 9:1 12:1 14:1 20:1 21:1 22:1 27:1 28:1 34:1 35:1 42:1 43:1 44:1 46:1 63:1 65:1 67:1 72:1 78:1 80:1 82:1 86:1 87:1 89:1 93:1 95:1 96:1 97:1 98:1 104:1 108:1 110:1 113:1 114:1 119:1 121:1 123:1 127:1 128:1 130:1 131:1 133:1 134:1 137:1 150:1 152:1 158:1 161:1 162:1 170:1 173:1 174:1 175:1 177:1 179:1 183:1 191:1 192:1 201:1 203:1 206:1 207:1 208:1 212:1 215:1 217:1 218:1 222:1 224:1 227:1 229:1 230:1 233:1 235:1 237:1 240:1 243:1 244:1 248:1 249:1 250:1 252:1 253:1 254:1 255:1 261:1 262:1 263:1 266:1 269:1 270:1 272:1 273:1 278:1 280:1 #
-0.027405602557536722779785165471367 16:1 17:1 25:1 32:1 81:1 90:1 91:1 92:1 94:1 122:1 146:1 153:1 156:1 166:1 182:1 192:1 193:1 241:1 264:1 #
-0.059869241642824005955603183792846 37:1 91:1 92:1 94:1 167:1 192:1 232:1 #
-0.059869241642824005955603183792846 36:1 74:1 92:1 135:1 142:1 146:1 148:1 169:1 184:1 223:1 226:1 268:1 #
-0.020883599048689884675189532003969 5:1 36:1 84:1 85:1 92:1 111:1 114:1 135:1 148:1 164:1 197:1 206:1 223:1 225:1 228:1 239:1 241:1 268:1 #
0.059869241642824005955603183792846 19:1 54:1 70:1 75:1 92:1 140:1 209:1 211:1 241:1 274:1 #
0.059869241642824005955603183792846 64:1 200:1 225:1 #
0.059869241642824005955603183792846 8:1 70:1 140:1 #
0.059869241642824005955603183792846 8:1 11:1 24:1 29:1 64:1 88:1 91:1 92:1 126:1 146:1 153:1 192:1 209:1 241:1 259:1 #
0.036955362101126945639784082686674 11:1 23:1 31:1 36:1 39:1 52:1 57:1 64:1 79:1 88:1 91:1 92:1 109:1 111:1 135:1 146:1 178:1 192:1 209:1 220:1 223:1 241:1 268:1 279:1 #
-0.057010076219675138997633467852211 54:1 92:1 171:1 #
-0.059869241642824005955603183792846 91:1 92:1 120:1 171:1 192:1 241:1 257:1 #
-0.012444867374131394349712209645986 31:1 32:1 33:1 36:1 38:1 70:1 81:1 92:1 153:1 165:1 166:1 192:1 220:1 236:1 247:1 257:1 281:1 #
-0.0098599762346566095783106931094153 36:1 45:1 91:1 92:1 107:1 171:1 192:1 196:1 #
-0.014377628718728066581356017650251 36:1 37:1 49:1 62:1 68:1 76:1 85:1 92:1 180:1 188:1 190:1 220:1 221:1 #
0.059869241642824005955603183792846 32:1 36:1 79:1 92:1 135:1 142:1 146:1 166:1 184:1 189:1 192:1 196:1 209:1 268:1 #
0.059869241642824005955603183792846 13:1 36:1 38:1 58:1 59:1 69:1 83:1 91:1 92:1 101:1 135:1 153:1 155:1 160:1 165:1 187:1 189:1 192:1 194:1 196:1 209:1 241:1 268:1 #
0.059869241642824005955603183792846 36:1 60:1 91:1 92:1 135:1 159:1 192:1 196:1 209:1 268:1 #
0.059869241642824005955603183792846 36:1 52:1 73:1 92:1 135:1 192:1 209:1 221:1 226:1 268:1 #
0.036948955547545049571400710419766 11:1 23:1 24:1 36:1 37:1 39:1 40:1 62:1 64:1 68:1 84:1 91:1 92:1 111:1 124:1 135:1 136:1 138:1 142:1 146:1 149:1 168:1 172:1 180:1 184:1 192:1 209:1 220:1 223:1 231:1 232:1 234:1 241:1 245:1 268:1 279:1 282:1 #
-0.010997211355362999235518728369243 17:1 30:1 36:1 37:1 38:1 39:1 49:1 56:1 70:1 79:1 84:1 85:1 91:1 100:1 102:1 109:1 112:1 115:1 123:1 132:1 135:1 153:1 165:1 172:1 176:1 192:1 195:1 204:1 221:1 223:1 238:1 241:1 246:1 257:1 258:1 265:1 268:1 277:1 281:1 #
-0.0073868869883364964706862210164218 10:1 25:1 27:1 34:1 36:1 39:1 53:1 62:1 69:1 70:1 74:1 81:1 90:1 91:1 92:1 111:1 114:1 124:1 135:1 148:1 151:1 153:1 160:1 180:1 182:1 185:1 192:1 199:1 205:1 210:1 216:1 223:1 225:1 241:1 268:1 #
-0.012997736119554126332786836428568 37:1 91:1 92:1 94:1 135:1 171:1 192:1 260:1 268:1 #
-0.059869241642824005955603183792846 36:1 91:1 92:1 107:1 159:1 171:1 192:1 196:1 #
-0.017756621936388904126058463361915 32:1 36:1 37:1 38:1 39:1 49:1 70:1 81:1 92:1 116:1 135:1 166:1 172:1 220:1 241:1 247:1 268:1 #
0.036973471968142893051556541195168 8:1 17:1 32:1 39:1 41:1 50:1 52:1 64:1 66:1 91:1 111:1 114:1 135:1 138:1 140:1 141:1 153:1 163:1 166:1 168:1 192:1 202:1 213:1 219:1 220:1 223:1 225:1 231:1 241:1 267:1 268:1 #
-0.041512349174489815428756855908432 31:1 36:1 39:1 77:1 84:1 92:1 114:1 123:1 135:1 148:1 153:1 204:1 223:1 225:1 241:1 268:1 #
-0.0058774137812393741422956061626337 10:1 25:1 27:1 34:1 36:1 39:1 53:1 62:1 69:1 70:1 74:1 81:1 90:1 91:1 92:1 111:1 114:1 124:1 135:1 148:1 151:1 153:1 160:1 180:1 182:1 185:1 192:1 199:1 205:1 210:1 216:1 223:1 225:1 241:1 268:1 #
-0.04572475432146176632652867510842 36:1 37:1 49:1 56:1 70:1 92:1 135:1 153:1 268:1 #
-0.041279236149048527393379259819994 32:1 36:1 70:1 81:1 92:1 107:1 135:1 142:1 146:1 166:1 171:1 184:1 192:1 196:1 268:1 #
-0.020546168374099369607899134848594 7:1 9:1 36:1 38:1 47:1 70:1 81:1 85:1 91:1 92:1 111:1 135:1 155:1 172:1 181:1 212:1 223:1 241:1 247:1 261:1 268:1 #
-0.0011960127026387611798297072596142 17:1 31:1 33:1 36:1 39:1 70:1 91:1 92:1 103:1 107:1 116:1 123:1 129:1 132:1 135:1 143:1 153:1 165:1 171:1 172:1 192:1 220:1 223:1 241:1 265:1 268:1 281:1 #
-0.0002469229250523122622985872087753 36:1 37:1 49:1 56:1 70:1 92:1 135:1 153:1 268:1 #
