SVM-light Version V6.02
0 # kernel type
3 # kernel parameter -d 
1 # kernel parameter -g 
1 # kernel parameter -s 
1 # kernel parameter -r 
empty# kernel parameter -u 
282 # highest feature index 
47 # number of training documents 
40 # number of support vectors plus 1 
0.7300338 # threshold b, each following line is a SV (starting with alpha*y)
-3.3252694225459378252196529501816 2:0.0081439037 3:0.0081439037 4:0.0081439037 6:0.0081439037 9:0.0094014043 12:0.0081439037 14:0.0081439037 20:0.024431713 21:0.0081439037 22:0.0081439037 27:0.053287979 28:0.0081439037 34:0.0066609974 35:0.0081439037 42:0.0081439037 43:0.0081439037 44:0.0081439037 46:0.0081439037 63:0.0081439037 65:0.0081439037 67:0.016287807 72:0.0081439037 78:0.0081439037 80:0.0081439037 82:0.0081439037 86:0.024431713 87:0.0081439037 89:0.0081439037 93:0.0081439037 95:0.019982994 96:0.016287807 97:0.0081439037 98:0.0081439037 104:0.0081439037 108:0.0081439037 110:0.0081439037 113:0.081439041 114:0.0043106466 119:0.06515123 121:0.0081439037 123:0.01293194 127:0.0081439037 128:0.0081439037 130:0.0081439037 131:0.053287979 133:0.0081439037 134:0.0081439037 137:0.0081439037 150:0.016287807 152:0.0081439037 158:0.016287807 161:0.0081439037 162:0.0081439037 170:0.0081439037 173:0.0081439037 174:0.0081439037 175:0.0081439037 177:0.0081439037 179:0.0081439037 183:0.016287807 191:0.0081439037 192:0.0015945893 201:0.0081439037 203:0.0081439037 206:0.02664399 207:0.0081439037 208:0.0081439037 212:0.020712364 215:0.0081439037 217:0.0081439037 218:0.0081439037 222:0.024431713 224:0.0081439037 227:0.0081439037 229:0.0081439037 230:0.016287807 233:0.0081439037 235:0.016287807 237:0.0081439037 240:0.0081439037 243:0.0081439037 244:0.0081439037 248:0.0081439037 249:0.0081439037 250:0.0081439037 252:0.0081439037 253:0.0081439037 254:0.0081439037 255:0.0081439037 261:0.0094014043 262:0.0081439037 263:0.048863426 266:0.0081439037 269:0.0081439037 270:0.0081439037 272:0.024431713 273:0.0081439037 278:0.12215856 280:0.0081439037 #
-16.742995198226456210477408603765 16:0.022340709 17:0.023650305 25:0.018272737 32:0.010920466 81:0.0068524932 90:0.10963642 91:0.0025785745 92:0.00069125032 94:0.015893126 122:0.022340709 146:0.020273581 153:0.014574843 156:0.022340709 166:0.010920466 182:0.018272737 192:0.015310213 193:0.022340709 241:0.031310171 264:0.022340709 #
-17.137638600675831668240789440461 37:0.026963457 91:0.0095407255 92:0.0025576262 94:0.058804564 167:0.082660623 192:0.0080925412 232:0.13521825 #
-65.056260540282096371811348944902 36:0.0062650498 74:0.02735096 92:0.0011895936 135:0.0040951455 142:0.022191687 146:0.017444709 148:0.024445407 169:0.038446803 184:0.022191687 223:0.011792663 226:0.031446107 268:0.0044375467 #
-9.9907631976527646600061416393146 9:0.010260672 32:0.0086894026 36:0.0014483718 37:0.0057985932 38:0.0075158067 47:0.011302715 53:0.012646142 62:0.011302715 68:0.012646142 70:0.0075738174 81:0.016357563 85:0.016131667 91:0.0020517691 92:0.00055002712 111:0.0070237904 135:0.0037869087 139:0.053329434 155:0.010260672 166:0.0086894026 180:0.011302715 181:0.012646142 188:0.014539597 198:0.017776478 212:0.011302715 241:0.0035590669 247:0.037579034 251:0.017776478 261:0.010260672 268:0.0020517691 276:0.017776478 #
20.135358665273763278946717036888 19:0.11021417 54:0.090145499 70:0.023478834 75:0.11021417 92:0.0034101682 140:0.078406081 209:0.05000817 211:0.11021417 241:0.022066215 274:0.11021417 #
12.786962844834139474414769210853 64:0.13632035 200:0.23617321 225:0.12500875 #
9.0215774632848635405935056041926 8:0.16801304 70:0.050311789 140:0.16801304 #
65.056260540282096371811348944902 8:0.024501901 11:0.024501901 24:0.056340937 29:0.034441926 64:0.019880053 88:0.028170468 91:0.0039753024 92:0.0010656775 126:0.068883851 146:0.015627552 153:0.011234774 192:0.016859461 209:0.015627552 241:0.03447846 259:0.034441926 #
65.056260540282096371811348944902 11:0.016110839 23:0.018523049 31:0.026143631 36:0.001845186 39:0.030826952 52:0.016110839 57:0.037046097 64:0.039215446 79:0.01439935 88:0.018523049 91:0.0026138974 92:0.00070071948 109:0.018523049 111:0.0089481166 135:0.0048244181 146:0.010275651 178:0.022646748 192:0.015519941 209:0.010275651 220:0.010275651 223:0.0069463626 241:0.0045341537 268:0.0026138974 279:0.018523049 #
-14.004738670244774922934993810486 54:0.16902281 92:0.0063940655 171:0.052845448 #
-25.929342141175087732563042663969 17:0.0082552945 26:0.015596344 37:0.005087445 38:0.0065940567 45:0.011095201 55:0.015596344 57:0.089295074 61:0.015596344 70:0.006644953 91:0.001800137 92:0.00048257096 95:0.012756439 107:0.005087445 111:0.0061623822 123:0.0082552945 131:0.025512878 132:0.0099165328 135:0.0033224765 145:0.015596344 153:0.005087445 157:0.015596344 165:0.015247443 171:0.0079766717 172:0.0057718852 176:0.0099165328 192:0.003053789 196:0.0045011439 223:0.0047838157 241:0.0062451549 247:0.0065940567 256:0.015596344 261:0.0090022879 265:0.039666131 268:0.001800137 281:0.0082552945 #
-5.4354100529929727514399928622879 17:0.010175131 31:0.022191687 33:0.015723053 36:0.0031325249 39:0.026167065 70:0.0040951455 91:0.0022187734 92:0.00059479679 103:0.057670206 107:0.0062705716 116:0.015723053 123:0.010175131 129:0.019223401 132:0.012222704 135:0.0020475728 143:0.096117005 153:0.018811716 165:0.028190039 171:0.0049158558 172:0.021342551 192:0.0018819863 220:0.017444709 223:0.0058963313 241:0.0076975166 265:0.061113518 268:0.0022187734 281:0.010175131 #
-18.847442699424977519129242864437 32:0.021840932 36:0.003640502 37:0.014574843 38:0.018891081 39:0.020273581 49:0.023650305 70:0.0095184464 81:0.027409973 92:0.0013825006 116:0.036545474 135:0.0047592232 166:0.021840932 172:0.016535671 220:0.040547162 241:0.0089457631 247:0.075564325 268:0.0051571489 #
-9.772559929625698416089107922744 31:0.027264072 32:0.023088984 33:0.038633786 36:0.0038485306 38:0.019970572 70:0.010062357 81:0.057952512 92:0.0014615007 153:0.015407691 165:0.023088984 166:0.023088984 192:0.004624309 220:0.021432072 236:0.047234643 247:0.019970572 257:0.025001751 281:0.025001751 #
65.056260540282096371811348944902 32:0.031081326 36:0.0051807142 79:0.040428944 92:0.0019674047 135:0.0067727407 142:0.036701635 146:0.028850866 166:0.031081326 184:0.036701635 189:0.10401404 192:0.0062250313 196:0.018350817 209:0.028850866 268:0.0073390198 #
65.056260540282096371811348944902 36:0.0067349286 52:0.058804564 73:0.082660623 92:0.0025576262 135:0.0088045625 192:0.0080925412 209:0.037506126 221:0.058804564 226:0.067609124 268:0.0095407255 #
30.505718222024949426440798561089 13:0.03005841 36:0.002449065 38:0.012708546 58:0.03005841 59:0.12023364 69:0.024585137 83:0.03005841 91:0.0034693549 92:0.00093004585 101:0.03005841 135:0.0032016593 153:0.0098048942 155:0.017349863 160:0.024585137 165:0.01469299 187:0.03005841 189:0.098340549 192:0.0029427421 194:0.03005841 196:0.017349863 209:0.013638591 241:0.0060180584 268:0.0034693549 #
65.056260540282096371811348944902 36:0.0056124404 60:0.1377677 91:0.0079506049 92:0.002131355 135:0.0073371357 159:0.098007604 192:0.0067437841 196:0.039760105 209:0.031255104 268:0.0079506049 #
65.056260540282096371811348944902 11:0.01367548 23:0.0078615267 24:0.023584578 36:0.00078313123 37:0.0031352858 39:0.0087223547 40:0.0096117007 62:0.0061113518 64:0.011095843 68:0.01367548 84:0.011095843 91:0.0033281601 92:0.00029739839 111:0.011393242 124:0.0078615267 135:0.0040951455 136:0.028835103 138:0.0078615267 142:0.0055479216 146:0.0043611773 149:0.0096117007 168:0.0078615267 172:0.003557092 180:0.0061113518 184:0.0055479216 192:0.0075279451 209:0.0043611773 220:0.0087223547 223:0.0088444967 231:0.0078615267 232:0.031446107 234:0.028835103 241:0.0038487583 245:0.0096117007 268:0.0011093867 279:0.0078615267 282:0.0096117007 #
-65.056260540282096371811348944902 36:0.0051807142 91:0.0073390198 92:0.0019674047 107:0.041482244 159:0.090468556 171:0.016260138 192:0.0062250313 196:0.036701635 #
-3.2457327154251820466868139192229 36:0.0043451153 70:0.011360726 81:0.032715127 91:0.0061553069 92:0.0016500814 107:0.034791559 135:0.0056803632 159:0.075876854 171:0.013637535 192:0.0052209944 196:0.030782016 268:0.0061553069 #
-8.1272372480635013403116317931563 36:0.0051807142 91:0.0073390198 92:0.0019674047 107:0.041482244 171:0.016260138 172:0.023531532 192:0.0062250313 196:0.036701635 242:0.05200702 #
-44.881991956864808912541775498539 36:0.0059866034 37:0.011983759 49:0.019445807 62:0.023358945 68:0.026135361 76:0.036738057 85:0.033338778 92:0.0011367227 180:0.023358945 188:0.030048501 190:0.030048501 220:0.016669389 221:0.026135361 #
-33.010320480728012171312002465129 32:0.023088984 36:0.0038485306 70:0.010062357 81:0.028976256 92:0.0014615007 107:0.030815382 135:0.0050311787 142:0.081792213 146:0.021432072 166:0.023088984 171:0.012078959 184:0.027264072 192:0.004624309 196:0.027264072 268:0.0054518431 #
65.056260540282096371811348944902 8:0.054957535 17:0.0081781428 32:0.022657415 39:0.021031473 41:0.015450585 50:0.030901169 52:0.021983014 64:0.0089181541 66:0.015450585 91:0.0035666265 111:0.012209579 114:0.016356286 135:0.0049371379 138:0.025274439 140:0.010991507 141:0.015450585 153:0.010079797 163:0.030901169 166:0.022657415 168:0.025274439 192:0.0090757469 202:0.030901169 213:0.015450585 219:0.015450585 220:0.014020982 223:0.0094782142 225:0.016356286 231:0.025274439 241:0.0092801834 267:0.030901169 268:0.0017833132 #
-39.846854015041323293644381919876 31:0.016741097 36:0.0023631328 39:0.013160044 77:0.0237225 84:0.033482194 92:0.00089741265 114:0.061407808 123:0.015351952 135:0.0030893204 148:0.018441273 153:0.0094608627 204:0.02063318 223:0.0088962186 225:0.030703904 241:0.0058068987 268:0.0033476232 #
-32.04523871646092203491207328625 17:0.013889861 30:0.0065603671 36:0.0010690363 37:0.0021399569 38:0.005547381 39:0.0059533534 49:0.0069449306 56:0.021463215 70:0.0083852978 79:0.033369921 84:0.015146706 85:0.0029766767 91:0.00075720047 100:0.021463215 102:0.0065603671 109:0.0053658038 112:0.010731608 115:0.026241468 123:0.010417396 132:0.01251372 135:0.00069877482 153:0.012839742 165:0.0032068035 172:0.0048557129 176:0.0041712401 192:0.0012845303 195:0.019681102 204:0.0046670288 221:0.0046670288 223:0.0060367198 238:0.010731608 241:0.0078807911 246:0.019681102 257:0.0069449306 258:0.013120734 265:0.037541162 268:0.00075720047 277:0.053658035 281:0.010417396 #
-17.609848836530375137954251840711 10:0.0095561417 25:0.015632167 27:0.015632167 34:0.0078160837 36:0.0015572089 39:0.0043359683 53:0.0067982152 62:0.0060760262 69:0.0078160837 70:0.0061072111 74:0.0067982152 81:0.0058622481 90:0.015632167 91:0.0011029741 92:0.00029567932 111:0.003775795 114:0.030348945 124:0.0078160837 135:0.002035737 148:0.0060760262 151:0.019112283 153:0.0031171627 160:0.0078160837 180:0.0060760262 182:0.015632167 185:0.019112283 192:0.0056133233 199:0.0078160837 205:0.019112283 210:0.019112283 216:0.0095561417 223:0.0029311241 225:0.015174473 241:0.015306044 268:0.0011029741 #
-19.240984089124925304759017308243 91:0.010600806 92:0.0028418067 120:0.09184514 171:0.023486866 192:0.0089917118 241:0.018388512 257:0.048614513 #
-5.3424971385452133532112384273205 37:0.024512235 91:0.0086733866 92:0.0023251146 94:0.053458694 135:0.0080041485 171:0.019216526 192:0.0073568556 260:0.15029205 268:0.0086733866 #
-7.0720206208799654135077616956551 15:0.017220963 36:0.0042093303 37:0.011234774 48:0.017220963 51:0.017220963 74:0.024501901 77:0.014085234 84:0.019880053 91:0.0039753024 92:0.00053283875 114:0.027345665 117:0.017220963 135:0.0018342839 171:0.0044037872 172:0.0063731233 186:0.068883851 192:0.003371892 214:0.034441926 225:0.0091152219 241:0.003447846 247:0.0072809374 268:0.0019876512 271:0.017220963 #
-5.1123902012981572440253330569249 5:0.056340937 36:0.0056124404 37:0.022469549 49:0.036460888 85:0.031255104 91:0.0079506049 92:0.002131355 135:0.014674271 147:0.1377677 #
-8.3531345943295409739448587060906 9:0.0078216596 18:0.013550922 31:0.015643319 36:0.0022081733 37:0.017680956 38:0.0057292623 47:0.0086160041 70:0.0028867419 81:0.012469291 85:0.01229709 91:0.0015640534 92:0.00041928297 99:0.027101845 105:0.027101845 111:0.005354201 118:0.027101845 135:0.0028867419 142:0.031286638 146:0.018445635 155:0.0078216596 176:0.0086160041 181:0.019280184 184:0.02346498 212:0.0086160041 223:0.0083128605 241:0.0027130591 247:0.045834098 261:0.0078216596 268:0.0015640534 #
-32.062732011373618945526686729863 10:0.0095561417 25:0.015632167 27:0.015632167 34:0.0078160837 36:0.0015572089 39:0.0043359683 53:0.0067982152 62:0.0060760262 69:0.0078160837 70:0.0061072111 74:0.0067982152 81:0.0058622481 90:0.015632167 91:0.0011029741 92:0.00029567932 111:0.003775795 114:0.030348945 124:0.0078160837 135:0.002035737 148:0.0060760262 151:0.019112283 153:0.0031171627 160:0.0078160837 180:0.0060760262 182:0.015632167 185:0.019112283 192:0.0056133233 199:0.0078160837 205:0.019112283 210:0.019112283 216:0.0095561417 223:0.0029311241 225:0.015174473 241:0.015306044 268:0.0011029741 #
-5.3302809607237904288012941833586 36:0.0051807142 92:0.0019674047 107:0.020741122 171:0.016260138 192:0.012450063 196:0.036701635 247:0.026883462 257:0.033656202 275:0.063585095 #
-14.083238993132255245654960162938 9:0.0087545188 36:0.0012357667 47:0.0096436013 70:0.0032310323 71:0.015167087 81:0.027912907 85:0.013763716 91:0.0017505919 92:0.0004692892 106:0.015167087 107:0.014842271 111:0.0059927753 135:0.0032310323 144:0.015167087 153:0.0049474235 155:0.0087545188 165:0.014827789 171:0.003878565 172:0.011226051 176:0.0096436013 192:0.0029697397 196:0.017509038 199:0.012405344 220:0.0068818582 223:0.0093043027 241:0.003036635 247:0.006412569 257:0.0080280853 268:0.0017505919 281:0.016056171 #
-1.1183166183657538006457343726652 36:0.00585646 37:0.023446485 49:0.07609228 56:0.11758109 70:0.015312283 92:0.0022240228 135:0.0076561416 153:0.023446485 268:0.008296283 #
-0.061940787376163486399605062615592 36:0.00585646 37:0.023446485 49:0.07609228 56:0.11758109 70:0.015312283 92:0.0022240228 135:0.0076561416 153:0.023446485 268:0.008296283 #
