SVM-light Version V6.02
0 # kernel type
3 # kernel parameter -d 
1 # kernel parameter -g 
1 # kernel parameter -s 
1 # kernel parameter -r 
empty# kernel parameter -u 
36 # highest feature index 
6 # number of training documents 
7 # number of support vectors plus 1 
0.98704808 # threshold b, each following line is a SV (starting with alpha*y)
-0.28876180374963739128091333441262 6:0.086461253 12:0.086461253 26:0.086461253 29:0.086461253 34:0.086461253 35:0.086461253 #
-6.2637414839500262786486928234808 4:0.026506737 5:0.026506737 9:0.0097828479 11:0.043230627 16:0.0097828479 19:0.0097828479 23:0.019565696 24:0.0097828479 31:0.0097828479 36:0.0097828479 #
-0.055692839649638253840535639938025 4:0.068160176 25:0.11116447 33:0.11116447 #
-7.0546851484147072852692872402258 9:0.0067727407 16:0.0067727407 18:0.011578077 19:0.0067727407 23:0.013545481 24:0.0067727407 31:0.0067727407 32:0.029928895 36:0.0067727407 #
-95.792156276406160486658336594701 2:0.0061169392 3:0.018350817 7:0.012233878 8:0.0061169392 9:0.0067727407 10:0.0061169392 13:0.0061169392 14:0.0061169392 15:0.018350817 16:0.0022575802 17:0.0061169392 18:0.0038593588 19:0.0022575802 20:0.0061169392 21:0.0099762976 23:0.013545481 24:0.0067727407 28:0.0099762976 30:0.012233878 31:0.013545481 36:0.0067727407 #
109.45503920855273349843628238887 2:0.0055479216 3:0.016643764 5:0.0055479216 7:0.011095843 8:0.0055479216 9:0.0061427183 10:0.0055479216 13:0.0055479216 14:0.0055479216 15:0.016643764 16:0.0020475728 17:0.0055479216 18:0.0035003489 19:0.0020475728 20:0.0055479216 22:0.0090482701 23:0.012285437 24:0.0061427183 27:0.0090482701 30:0.016643764 31:0.012285437 36:0.0061427183 #
