SVM-light Version V6.02
0 # kernel type
3 # kernel parameter -d 
1 # kernel parameter -g 
1 # kernel parameter -s 
1 # kernel parameter -r 
empty# kernel parameter -u 
362 # highest feature index 
26 # number of training documents 
19 # number of support vectors plus 1 
0.77284181 # threshold b, each following line is a SV (starting with alpha*y)
-0.023416981617103233004328899369284 8:1 13:1 32:1 37:1 46:1 79:1 93:1 109:1 122:1 141:1 143:1 178:1 204:1 250:1 293:1 296:1 341:1 #
-0.0099657660175758600723527891318554 8:1 32:1 37:1 76:1 82:1 109:1 157:1 176:1 200:1 239:1 248:1 262:1 341:1 #
-0.017255614958186202972933998012195 8:1 32:1 37:1 76:1 82:1 109:1 122:1 157:1 176:1 178:1 200:1 262:1 269:1 315:1 321:1 329:1 341:1 #
-0.015327636197921877189709327637956 7:1 14:1 15:1 82:1 109:1 162:1 164:1 178:1 205:1 206:1 231:1 241:1 248:1 267:1 269:1 301:1 341:1 350:1 #
-0.014340745244385694201483261167596 8:1 17:1 19:1 32:1 37:1 48:1 82:1 109:1 110:1 178:1 218:1 262:1 264:1 321:1 341:1 #
0.023416981617103233004328899369284 20:1 32:1 37:1 39:1 82:1 85:1 103:1 105:1 122:1 126:1 131:1 155:1 178:1 186:1 241:1 248:1 256:1 269:1 293:1 301:1 324:1 341:1 347:1 #
0.023416981617103233004328899369284 8:1 20:1 26:1 28:1 32:1 37:1 39:1 85:1 87:1 98:1 113:1 122:1 123:1 126:1 133:1 155:1 164:1 178:1 191:1 192:1 209:1 225:1 236:1 247:1 255:1 273:1 279:1 310:1 320:1 347:1 #
0.020866277923916438929996530760036 8:1 18:1 20:1 30:1 32:1 37:1 39:1 64:1 69:1 72:1 75:1 81:1 82:1 83:1 85:1 88:1 89:1 92:1 106:1 118:1 122:1 126:1 133:1 135:1 140:1 148:1 152:1 153:1 155:1 159:1 163:1 164:1 165:1 170:1 176:1 178:1 188:1 193:1 194:1 198:1 202:1 216:1 228:1 230:1 253:1 255:1 260:1 265:1 268:1 276:1 286:1 287:1 288:1 301:1 302:1 303:1 304:1 306:1 307:1 310:1 321:1 339:1 340:1 346:1 347:1 349:1 354:1 356:1 359:1 361:1 #
0.023416981617103233004328899369284 5:1 8:1 12:1 20:1 24:1 32:1 37:1 39:1 57:1 58:1 74:1 77:1 85:1 94:1 97:1 114:1 120:1 121:1 122:1 123:1 126:1 130:1 133:1 138:1 155:1 156:1 178:1 195:1 197:1 199:1 234:1 255:1 257:1 260:1 266:1 269:1 273:1 298:1 310:1 325:1 347:1 351:1 #
0.023416981617103233004328899369284 8:1 16:1 37:1 40:1 44:1 62:1 79:1 85:1 93:1 109:1 171:1 172:1 173:1 174:1 178:1 187:1 200:1 239:1 250:1 262:1 278:1 326:1 331:1 338:1 352:1 #
-0.0066396139797635029058953115566055 22:1 29:1 32:1 44:1 53:1 62:1 66:1 69:1 73:1 79:1 87:1 89:1 91:1 107:1 109:1 111:1 112:1 122:1 126:1 132:1 136:1 144:1 146:1 151:1 158:1 160:1 170:1 174:1 175:1 178:1 180:1 182:1 200:1 208:1 211:1 212:1 215:1 221:1 224:1 226:1 235:1 239:1 240:1 245:1 249:1 250:1 252:1 255:1 257:1 258:1 260:1 262:1 268:1 273:1 280:1 282:1 283:1 285:1 286:1 289:1 292:1 294:1 295:1 303:1 305:1 310:1 331:1 342:1 343:1 344:1 357:1 #
-0.0021676370031190128964682095613625 6:1 22:1 24:1 47:1 53:1 54:1 55:1 57:1 58:1 61:1 62:1 65:1 67:1 68:1 80:1 89:1 96:1 109:1 116:1 122:1 136:1 139:1 142:1 145:1 146:1 148:1 164:1 168:1 170:1 171:1 178:1 193:1 200:1 208:1 213:1 219:1 222:1 239:1 247:1 250:1 255:1 257:1 260:1 262:1 268:1 271:1 273:1 277:1 278:1 283:1 289:1 308:1 310:1 312:1 313:1 319:1 322:1 331:1 336:1 342:1 343:1 #
-0.0018905052045494539873782269268077 6:1 22:1 24:1 47:1 53:1 54:1 57:1 58:1 61:1 62:1 67:1 68:1 80:1 89:1 96:1 109:1 116:1 122:1 136:1 139:1 142:1 145:1 146:1 148:1 164:1 168:1 170:1 171:1 178:1 200:1 208:1 213:1 219:1 222:1 239:1 247:1 250:1 255:1 257:1 260:1 262:1 268:1 271:1 273:1 277:1 278:1 283:1 289:1 308:1 310:1 312:1 313:1 319:1 331:1 336:1 343:1 #
-0.00087293655868959669358320141441254 3:1 4:1 6:1 8:1 10:1 11:1 16:1 21:1 22:1 23:1 25:1 32:1 35:1 36:1 41:1 47:1 49:1 53:1 55:1 58:1 62:1 65:1 67:1 78:1 80:1 89:1 90:1 91:1 95:1 96:1 101:1 104:1 109:1 110:1 113:1 122:1 124:1 125:1 128:1 130:1 136:1 145:1 147:1 148:1 160:1 164:1 167:1 170:1 176:1 178:1 185:1 189:1 200:1 201:1 205:1 208:1 214:1 220:1 222:1 223:1 232:1 233:1 238:1 239:1 244:1 246:1 247:1 255:1 258:1 260:1 262:1 263:1 268:1 273:1 275:1 280:1 281:1 285:1 289:1 290:1 297:1 302:1 303:1 310:1 318:1 320:1 327:1 328:1 333:1 334:1 337:1 343:1 345:1 358:1 362:1 #
-0.017000887036076304387188784517093 22:1 27:1 32:1 36:1 47:1 52:1 53:1 67:1 80:1 85:1 87:1 96:1 122:1 136:1 145:1 164:1 178:1 190:1 222:1 229:1 247:1 255:1 261:1 262:1 310:1 319:1 333:1 #
-0.0049840522992963100581964575042093 8:1 9:1 32:1 38:1 53:1 60:1 80:1 82:1 91:1 100:1 109:1 122:1 166:1 170:1 174:1 178:1 200:1 237:1 239:1 242:1 254:1 255:1 257:1 260:1 262:1 268:1 272:1 273:1 274:1 283:1 297:1 300:1 317:1 323:1 332:1 335:1 341:1 348:1 352:1 #
-0.00037287901580838119387079077071689 6:1 22:1 24:1 36:1 42:1 47:1 50:1 53:1 54:1 61:1 62:1 80:1 86:1 89:1 96:1 109:1 115:1 116:1 122:1 127:1 136:1 142:1 145:1 147:1 148:1 150:1 166:1 168:1 170:1 171:1 178:1 183:1 184:1 193:1 200:1 208:1 213:1 219:1 222:1 250:1 255:1 257:1 262:1 268:1 273:1 277:1 278:1 284:1 289:1 301:1 312:1 316:1 322:1 331:1 343:1 #
-0.00029894925985397645786315057314653 22:1 31:1 36:1 47:1 53:1 56:1 59:1 62:1 65:1 68:1 69:1 71:1 80:1 89:1 96:1 99:1 102:1 109:1 122:1 135:1 136:1 145:1 149:1 164:1 170:1 178:1 193:1 196:1 200:1 207:1 227:1 243:1 247:1 250:1 262:1 268:1 273:1 289:1 301:1 309:1 310:1 311:1 318:1 319:1 322:1 333:1 336:1 360:1 #
