SVM-light Version V6.02
0 # kernel type
3 # kernel parameter -d 
1 # kernel parameter -g 
1 # kernel parameter -s 
1 # kernel parameter -r 
empty# kernel parameter -u 
19 # highest feature index 
26 # number of training documents 
13 # number of support vectors plus 1 
0.76024716 # threshold b, each following line is a SV (starting with alpha*y)
-0.2420367636126106170024741004454 8:1 19:1 #
-0.24211289845575634238628026650986 7:1 #
-0.10444557209010607579102725139819 7:1 11:2 19:1 #
-0.18508594892406993182021324173547 5:1 7:2 8:1 #
-0.053324245662838665182903241657186 10:1 13:1 14:1 #
0.24211289845575634238628026650986 2:1 5:1 7:2 #
0.24211289845575634238628026650986 2:1 8:3 #
0.20920122377936467561454492170014 2:1 5:1 8:1 9:1 11:2 #
0.21336208026558473038747365535528 2:1 6:1 12:1 17:1 18:1 #
0.24211289845575634238628026650986 1:2 4:1 10:1 19:1 #
-0.22750841305198221675709646660835 5:1 8:1 10:1 19:1 #
-0.094394326396457284289454037207179 4:1 8:1 13:1 19:1 #
