SVM-light Version V6.02
0 # kernel type
3 # kernel parameter -d 
1 # kernel parameter -g 
1 # kernel parameter -s 
1 # kernel parameter -r 
empty# kernel parameter -u 
12079 # highest feature index 
23 # number of training documents 
15 # number of support vectors plus 1 
-0.18809441 # threshold b, each following line is a SV (starting with alpha*y)
-88.164487036393154539837269112468 5725:0.11607146 #
7.1235187403448776422010269016027 41:0.0086011682 54:0.013739874 108:0.010656514 155:0.010234305 172:0.011932659 276:0.0187172 338:0.0024271926 602:0.0014842527 729:0.011166004 1144:0.01004162 1462:0.0031807022 1711:0.01236988 2050:0.006242699 2075:0.0029713248 2499:0.010212678 2642:0.0077648284 2921:0.012134667 3040:0.011778678 3099:0.010426848 3277:0.0109337 3445:0.0011961404 3524:0.010777129 3876:0.002898342 3908:0.011397269 3956:0.013618265 3985:0.0029810173 4216:0.011133639 4293:0.0070312144 4623:0.030589769 4981:0.0063948911 5050:0.012425588 5127:0.013267436 5384:0.0019258094 5400:0.0075355577 5484:0.001879524 5513:0.0061609764 5524:0.012795917 5964:0.013017213 6014:0.010709341 6049:0.013594697 6077:0.00028899324 6501:0.0023649803 6637:0.0041985298 6721:0.012172235 7221:0.028011808 7280:0.027171733 7569:0.0080698105 7571:0.013247191 7660:0.0099152783 7907:0.013739874 7966:0.0051607871 8404:0.011674684 9053:0.0023575174 9340:0.009695082 9343:0.018771598 9788:0.0089741414 10089:0.0078720842 10108:0.0099236863 10149:0.013548275 10338:0.013690455 10380:0.003170385 10398:0.011470512 10478:0.0072636046 10509:0.0041066096 10517:0.0041009551 10614:0.0094892485 10725:0.0081298882 10739:0.0079561854 10943:0.010804814 10971:0.0039120237 11024:0.0048869564 11093:0.0086280126 11746:0.023248803 11805:0.0036950964 11877:0.013005229 12053:5.6881495e-06 12079:0.009720467 #
14.890259099463662550988374277949 41:0.0086011682 54:0.013739874 108:0.010656514 155:0.010234305 172:0.011932659 276:0.0187172 338:0.0024271926 602:0.0014842527 729:0.011166004 1144:0.01004162 1462:0.0031807022 1711:0.01236988 2050:0.006242699 2075:0.0029713248 2499:0.010212678 2642:0.0077648284 2921:0.012134667 3040:0.011778678 3099:0.010426848 3277:0.0109337 3445:0.0011961404 3524:0.010777129 3876:0.002898342 3908:0.011397269 3956:0.013618265 3985:0.0029810173 4216:0.011133639 4293:0.0070312144 4623:0.030589769 4981:0.0063948911 5050:0.012425588 5127:0.013267436 5384:0.0019258094 5400:0.0075355577 5484:0.001879524 5513:0.0061609764 5524:0.012795917 5964:0.013017213 6014:0.010709341 6049:0.013594697 6077:0.00028899324 6501:0.0023649803 6637:0.0041985298 6721:0.012172235 7221:0.028011808 7280:0.027171733 7569:0.0080698105 7571:0.013247191 7660:0.0099152783 7907:0.013739874 7966:0.0051607871 8404:0.011674684 9053:0.0023575174 9340:0.009695082 9343:0.018771598 9788:0.0089741414 9949:0.01665926 10089:0.0078720842 10108:0.0099236863 10149:0.013548275 10338:0.013690455 10380:0.003170385 10398:0.011470512 10478:0.0072636046 10509:0.0041066096 10517:0.0041009551 10614:0.0094892485 10725:0.0081298882 10739:0.0079561854 10943:0.010804814 10971:0.0039120237 11024:0.0048869564 11093:0.0086280126 11805:0.0036950964 11877:0.013005229 12053:5.6881495e-06 12079:0.009720467 #
7.95379873149238392215920612216 41:0.0086011682 54:0.013739874 108:0.010656514 155:0.010234305 172:0.011932659 276:0.0187172 338:0.0024271926 602:0.0014842527 729:0.011166004 1144:0.01004162 1462:0.0031807022 1711:0.01236988 2050:0.006242699 2075:0.0029713248 2499:0.010212678 2642:0.0077648284 2921:0.012134667 3040:0.011778678 3099:0.010426848 3277:0.0109337 3445:0.0011961404 3524:0.010777129 3876:0.002898342 3908:0.011397269 3956:0.013618265 3985:0.0029810173 4216:0.011133639 4293:0.0070312144 4623:0.030589769 4981:0.0063948911 5050:0.012425588 5127:0.013267436 5384:0.0019258094 5400:0.0075355577 5484:0.001879524 5513:0.0061609764 5524:0.012795917 5964:0.013017213 6014:0.010709341 6049:0.013594697 6077:0.00028899324 6501:0.0023649803 6637:0.0041985298 6721:0.012172235 7221:0.028011808 7280:0.027171733 7569:0.0080698105 7571:0.013247191 7660:0.0099152783 7907:0.013739874 7966:0.0051607871 8404:0.011674684 9053:0.0023575174 9340:0.009695082 9343:0.018771598 9378:0.022001918 9788:0.0089741414 10089:0.0078720842 10108:0.0099236863 10149:0.013548275 10338:0.013690455 10380:0.003170385 10398:0.011470512 10478:0.0072636046 10509:0.0041066096 10517:0.0041009551 10614:0.0094892485 10725:0.0081298882 10739:0.0079561854 10943:0.010804814 10971:0.0039120237 11024:0.0048869564 11093:0.0086280126 11805:0.0036950964 11877:0.013005229 12053:5.6881495e-06 12079:0.009720467 #
7.3245106097748475804110057651997 41:0.0086011682 54:0.013739874 108:0.010656514 155:0.010234305 172:0.011932659 276:0.0187172 338:0.0024271926 602:0.0014842527 729:0.011166004 1144:0.01004162 1462:0.0031807022 1711:0.01236988 2050:0.006242699 2075:0.0029713248 2499:0.010212678 2642:0.0077648284 2921:0.012134667 3040:0.011778678 3099:0.010426848 3277:0.0109337 3445:0.0011961404 3524:0.010777129 3876:0.002898342 3908:0.011397269 3956:0.013618265 3985:0.0029810173 4216:0.011133639 4293:0.0070312144 4623:0.030589769 4981:0.0063948911 5050:0.012425588 5127:0.013267436 5384:0.0019258094 5400:0.0075355577 5484:0.001879524 5513:0.0061609764 5524:0.012795917 5964:0.013017213 6014:0.010709341 6049:0.013594697 6077:0.00028899324 6501:0.0023649803 6637:0.0041985298 6721:0.012172235 7202:0.023752948 7221:0.028011808 7280:0.027171733 7569:0.0080698105 7571:0.013247191 7660:0.0099152783 7907:0.013739874 7966:0.0051607871 8404:0.011674684 9053:0.0023575174 9340:0.009695082 9343:0.018771598 9788:0.0089741414 10089:0.0078720842 10108:0.0099236863 10149:0.013548275 10338:0.013690455 10380:0.003170385 10398:0.011470512 10478:0.0072636046 10509:0.0041066096 10517:0.0041009551 10614:0.0094892485 10725:0.0081298882 10739:0.0079561854 10943:0.010804814 10971:0.0039120237 11024:0.0048869564 11093:0.0086280126 11805:0.0036950964 11877:0.013005229 12053:5.6881495e-06 12079:0.009720467 #
5.0514104383697002731423708610237 41:0.0086469185 54:0.013812957 108:0.010713198 155:0.010288742 172:0.01199613 276:0.018816758 338:0.0024401031 602:0.0014921477 729:0.011225398 1144:0.010095032 1462:0.0031976209 1711:0.012435677 2050:0.0062759048 2075:0.0029871296 2499:0.010267 2642:0.0078061307 2921:0.012199214 3040:0.011841331 3099:0.01048231 3277:0.010991858 3445:0.0012025029 3524:0.010834455 3876:0.0029137589 3908:0.011457892 3956:0.013690703 3985:0.0029968738 4216:0.011192861 4293:0.0070686145 4623:0.03075248 4981:0.0064289067 5050:0.012491683 5127:0.013338008 5384:0.0019360532 5400:0.0075756405 5484:0.0018895214 5513:0.0061937473 5524:0.01286398 5964:0.013086454 6014:0.010766305 6049:0.01366701 6077:0.00029053041 6501:0.0023775601 6637:0.0042208624 6721:0.012236982 7221:0.028160807 7280:0.027316263 7569:0.0081127351 7571:0.013317655 7660:0.0099680191 7907:0.013812957 7966:0.0051882383 8143:0.025098156 8404:0.011736784 9053:0.0023700574 9340:0.0097466521 9343:0.018871447 9788:0.0090218764 10089:0.0079139573 10108:0.0099764727 10149:0.013620339 10338:0.013763277 10380:0.0031872487 10398:0.011531526 10509:0.0041284533 10517:0.0041227685 10614:0.0095397234 10725:0.0081731323 10739:0.0079985056 10943:0.010862287 10971:0.0039328323 11024:0.004912951 11093:0.0086739063 11805:0.003714751 11877:0.013074405 12053:5.7184056e-06 12079:0.0097721713 #
7.3396348972302405400114366784692 41:0.0086011682 54:0.013739874 108:0.010656514 155:0.010234305 172:0.011932659 276:0.0187172 338:0.0024271926 602:0.0014842527 729:0.011166004 1144:0.01004162 1462:0.0031807022 1711:0.01236988 2050:0.006242699 2075:0.0029713248 2499:0.010212678 2642:0.0077648284 2921:0.012134667 3040:0.011778678 3099:0.010426848 3277:0.0109337 3445:0.0011961404 3524:0.010777129 3876:0.002898342 3908:0.011397269 3956:0.013618265 3985:0.0029810173 4216:0.011133639 4293:0.0070312144 4623:0.030589769 4981:0.0063948911 5050:0.012425588 5127:0.013267436 5384:0.0019258094 5400:0.0075355577 5484:0.001879524 5513:0.0061609764 5524:0.012795917 5964:0.013017213 6014:0.010709341 6049:0.013594697 6077:0.00028899324 6501:0.0023649803 6637:0.0041985298 6721:0.012172235 7221:0.028011808 7280:0.027171733 7569:0.0080698105 7571:0.013247191 7660:0.0099152783 7907:0.013739874 7966:0.0051607871 8404:0.011674684 9053:0.0023575174 9340:0.009695082 9343:0.018771598 9788:0.0089741414 10089:0.0078720842 10108:0.0099236863 10149:0.013548275 10338:0.013690455 10380:0.003170385 10398:0.011470512 10478:0.0072636046 10509:0.0041066096 10517:0.0041009551 10614:0.0094892485 10725:0.0081298882 10739:0.0079561854 10943:0.010804814 10971:0.0039120237 11024:0.0048869564 11093:0.0086280126 11805:0.0036950964 11877:0.013005229 11923:0.022903964 12053:5.6881495e-06 12079:0.009720467 #
9.5746139371724439115496352314949 41:0.0086011682 54:0.013739874 108:0.010656514 155:0.010234305 172:0.011932659 276:0.0187172 338:0.0024271926 602:0.0014842527 729:0.011166004 1144:0.01004162 1462:0.0031807022 1711:0.01236988 2050:0.006242699 2075:0.0029713248 2499:0.010212678 2642:0.0077648284 2921:0.012134667 3040:0.011778678 3099:0.010426848 3277:0.0109337 3445:0.0011961404 3524:0.010777129 3876:0.002898342 3908:0.011397269 3956:0.013618265 3985:0.0029810173 4216:0.011133639 4293:0.0070312144 4623:0.030589769 4981:0.0063948911 5050:0.012425588 5127:0.013267436 5384:0.0019258094 5400:0.0075355577 5484:0.001879524 5513:0.0061609764 5524:0.012795917 5964:0.013017213 6014:0.010709341 6049:0.013594697 6077:0.00028899324 6501:0.0023649803 6637:0.0041985298 6721:0.012172235 7221:0.028011808 7280:0.027171733 7569:0.0080698105 7571:0.013247191 7660:0.0099152783 7907:0.013739874 7966:0.0051607871 8404:0.011674684 9053:0.0023575174 9340:0.009695082 9343:0.018771598 9788:0.0089741414 10089:0.0078720842 10108:0.0099236863 10149:0.013548275 10338:0.013690455 10380:0.003170385 10398:0.011470512 10478:0.0072636046 10509:0.0041066096 10517:0.0041009551 10614:0.0094892485 10725:0.0081298882 10739:0.0079561854 10943:0.010804814 10971:0.0039120237 11024:0.0048869564 11093:0.0086280126 11805:0.0036950964 11877:0.013005229 11888:0.020053364 12053:5.6881495e-06 12079:0.009720467 #
6.8751655744068216336017940193415 41:0.0086011682 54:0.013739874 108:0.010656514 155:0.010234305 172:0.011932659 276:0.0187172 338:0.0024271926 602:0.0014842527 729:0.011166004 1144:0.01004162 1462:0.0031807022 1711:0.01236988 2050:0.006242699 2075:0.0029713248 2499:0.010212678 2642:0.0077648284 2921:0.012134667 3040:0.011778678 3099:0.010426848 3277:0.0109337 3445:0.0011961404 3524:0.010777129 3876:0.002898342 3908:0.011397269 3956:0.013618265 3985:0.0029810173 4216:0.011133639 4293:0.0070312144 4623:0.030589769 4981:0.0063948911 5050:0.012425588 5127:0.013267436 5384:0.0019258094 5400:0.0075355577 5484:0.001879524 5513:0.0061609764 5524:0.012795917 5964:0.013017213 6014:0.010709341 6049:0.013594697 6077:0.00028899324 6501:0.0023649803 6637:0.0041985298 6721:0.012172235 7221:0.028011808 7280:0.027171733 7569:0.0080698105 7571:0.013247191 7660:0.0099152783 7907:0.013739874 7966:0.0051607871 8404:0.011674684 9053:0.0023575174 9340:0.009695082 9343:0.018771598 9788:0.0089741414 10089:0.0078720842 10108:0.0099236863 10149:0.013548275 10338:0.013690455 10380:0.003170385 10398:0.011470512 10478:0.0072636046 10509:0.0041066096 10517:0.0041009551 10614:0.0094892485 10725:0.0081298882 10739:0.0079561854 10943:0.010804814 10971:0.0039120237 11024:0.0048869564 11093:0.0086280126 11739:0.023664989 11805:0.0036950964 11877:0.013005229 12053:5.6881495e-06 12079:0.009720467 #
4.3596733248174928121443372219801 41:0.0086469185 54:0.013812957 108:0.010713198 155:0.010288742 172:0.01199613 276:0.018816758 338:0.0024401031 602:0.0014921477 729:0.011225398 1144:0.010095032 1462:0.0031976209 1683:0.025306173 1711:0.012435677 2050:0.0062759048 2075:0.0029871296 2499:0.010267 2642:0.0078061307 2921:0.012199214 3040:0.011841331 3099:0.01048231 3277:0.010991858 3445:0.0012025029 3524:0.010834455 3876:0.0029137589 3908:0.011457892 3956:0.013690703 3985:0.0029968738 4216:0.011192861 4293:0.0070686145 4623:0.03075248 4981:0.0064289067 5050:0.012491683 5127:0.013338008 5384:0.0019360532 5400:0.0075756405 5484:0.0018895214 5513:0.0061937473 5524:0.01286398 5964:0.013086454 6014:0.010766305 6049:0.01366701 6077:0.00029053041 6501:0.0023775601 6637:0.0042208624 6721:0.012236982 7221:0.028160807 7280:0.027316263 7569:0.0081127351 7571:0.013317655 7660:0.0099680191 7907:0.013812957 7966:0.0051882383 8404:0.011736784 9053:0.0023700574 9340:0.0097466521 9343:0.018871447 9788:0.0090218764 10089:0.0079139573 10108:0.0099764727 10149:0.013620339 10338:0.013763277 10380:0.0031872487 10398:0.011531526 10509:0.0041284533 10517:0.0041227685 10614:0.0095397234 10725:0.0081731323 10739:0.0079985056 10943:0.010862287 10971:0.0039328323 11024:0.004912951 11093:0.0086739063 11805:0.003714751 11877:0.013074405 12053:5.7184056e-06 12079:0.0097721713 #
5.0979365384931298876836081035435 41:0.0086469185 54:0.013812957 108:0.010713198 155:0.010288742 172:0.01199613 276:0.018816758 338:0.0024401031 602:0.0014921477 729:0.011225398 742:0.024983365 1144:0.010095032 1462:0.0031976209 1711:0.012435677 2050:0.0062759048 2075:0.0029871296 2499:0.010267 2642:0.0078061307 2921:0.012199214 3040:0.011841331 3099:0.01048231 3277:0.010991858 3445:0.0012025029 3524:0.010834455 3876:0.0029137589 3908:0.011457892 3956:0.013690703 3985:0.0029968738 4216:0.011192861 4293:0.0070686145 4623:0.03075248 4981:0.0064289067 5050:0.012491683 5127:0.013338008 5384:0.0019360532 5400:0.0075756405 5484:0.0018895214 5513:0.0061937473 5524:0.01286398 5964:0.013086454 6014:0.010766305 6049:0.01366701 6077:0.00029053041 6501:0.0023775601 6637:0.0042208624 6721:0.012236982 7221:0.028160807 7280:0.027316263 7569:0.0081127351 7571:0.013317655 7660:0.0099680191 7907:0.013812957 7966:0.0051882383 8404:0.011736784 9053:0.0023700574 9340:0.0097466521 9343:0.018871447 9788:0.0090218764 10089:0.0079139573 10108:0.0099764727 10149:0.013620339 10338:0.013763277 10380:0.0031872487 10398:0.011531526 10509:0.0041284533 10517:0.0041227685 10614:0.0095397234 10725:0.0081731323 10739:0.0079985056 10943:0.010862287 10971:0.0039328323 11024:0.004912951 11093:0.0086739063 11805:0.003714751 11877:0.013074405 12053:5.7184056e-06 12079:0.0097721713 #
4.1768257809990814166667405515909 41:0.0086469185 54:0.013812957 108:0.010713198 155:0.010288742 172:0.01199613 276:0.018816758 338:0.0024401031 602:0.0014921477 729:0.011225398 1144:0.010095032 1462:0.0031976209 1711:0.012435677 2050:0.0062759048 2075:0.0029871296 2499:0.010267 2642:0.0078061307 2921:0.012199214 3040:0.011841331 3099:0.01048231 3277:0.010991858 3445:0.0012025029 3524:0.010834455 3876:0.0029137589 3908:0.011457892 3956:0.013690703 3985:0.0029968738 4216:0.011192861 4293:0.0070686145 4623:0.03075248 4981:0.0064289067 5050:0.012491683 5127:0.013338008 5384:0.0019360532 5400:0.0075756405 5484:0.0018895214 5513:0.0061937473 5524:0.01286398 5964:0.013086454 6014:0.010766305 6049:0.01366701 6077:0.00029053041 6501:0.0023775601 6637:0.0042208624 6721:0.012236982 7221:0.028160807 7280:0.027316263 7569:0.0081127351 7571:0.013317655 7660:0.0099680191 7777:0.02585415 7907:0.013812957 7966:0.0051882383 8404:0.011736784 9053:0.0023700574 9340:0.0097466521 9343:0.018871447 9788:0.0090218764 10089:0.0079139573 10108:0.0099764727 10149:0.013620339 10338:0.013763277 10380:0.0031872487 10398:0.011531526 10509:0.0041284533 10517:0.0041227685 10614:0.0095397234 10725:0.0081731323 10739:0.0079985056 10943:0.010862287 10971:0.0039328323 11024:0.004912951 11093:0.0086739063 11805:0.003714751 11877:0.013074405 12053:5.7184056e-06 12079:0.0097721713 #
4.242504672406127497197303455323 41:0.0086469185 54:0.013812957 108:0.010713198 155:0.010288742 172:0.01199613 276:0.018816758 338:0.0024401031 602:0.0014921477 729:0.011225398 1144:0.010095032 1462:0.0031976209 1711:0.012435677 2050:0.0062759048 2075:0.0029871296 2499:0.010267 2642:0.0078061307 2921:0.012199214 3040:0.011841331 3099:0.01048231 3277:0.010991858 3445:0.0012025029 3524:0.010834455 3876:0.0029137589 3908:0.011457892 3956:0.013690703 3985:0.0029968738 4216:0.011192861 4293:0.0070686145 4623:0.03075248 4981:0.0064289067 5050:0.012491683 5127:0.013338008 5384:0.0019360532 5400:0.0075756405 5484:0.0018895214 5513:0.0061937473 5524:0.01286398 5964:0.013086454 6014:0.010766305 6049:0.01366701 6077:0.00029053041 6501:0.0023775601 6637:0.0042208624 6721:0.012236982 7221:0.028160807 7280:0.027316263 7569:0.0081127351 7571:0.013317655 7660:0.0099680191 7907:0.013812957 7966:0.0051882383 8404:0.011736784 9053:0.0023700574 9340:0.0097466521 9343:0.018871447 9788:0.0090218764 10089:0.0079139573 10108:0.0099764727 10149:0.013620339 10338:0.013763277 10380:0.0031872487 10398:0.011531526 10509:0.0041284533 10517:0.0041227685 10614:0.0095397234 10725:0.0081731323 10739:0.0079985056 10943:0.010862287 10971:0.0039328323 11024:0.004912951 11093:0.0086739063 11568:0.025653243 11805:0.003714751 11877:0.013074405 12053:5.7184056e-06 12079:0.0097721713 #
4.1546335232697515493782702833414 41:0.0086469185 54:0.013812957 108:0.010713198 155:0.010288742 172:0.01199613 276:0.018816758 338:0.0024401031 602:0.0014921477 729:0.011225398 1144:0.010095032 1462:0.0031976209 1711:0.012435677 2050:0.0062759048 2075:0.0029871296 2499:0.010267 2642:0.0078061307 2921:0.012199214 3040:0.011841331 3099:0.01048231 3277:0.010991858 3445:0.0012025029 3524:0.010834455 3876:0.0029137589 3908:0.011457892 3956:0.013690703 3985:0.0029968738 4216:0.011192861 4293:0.0070686145 4623:0.03075248 4981:0.0064289067 5050:0.012491683 5127:0.013338008 5384:0.0019360532 5400:0.0075756405 5484:0.0018895214 5513:0.0061937473 5524:0.01286398 5964:0.013086454 6014:0.010766305 6049:0.01366701 6077:0.00029053041 6501:0.0023775601 6637:0.0042208624 6671:0.025923109 6721:0.012236982 7221:0.028160807 7280:0.027316263 7569:0.0081127351 7571:0.013317655 7660:0.0099680191 7907:0.013812957 7966:0.0051882383 8404:0.011736784 9053:0.0023700574 9340:0.0097466521 9343:0.018871447 9788:0.0090218764 10089:0.0079139573 10108:0.0099764727 10149:0.013620339 10338:0.013763277 10380:0.0031872487 10398:0.011531526 10509:0.0041284533 10517:0.0041227685 10614:0.0095397234 10725:0.0081731323 10739:0.0079985056 10943:0.010862287 10971:0.0039328323 11024:0.004912951 11093:0.0086739063 11805:0.003714751 11877:0.013074405 12053:5.7184056e-06 12079:0.0097721713 #
