SVM-light Version V6.02
0 # kernel type
3 # kernel parameter -d 
1 # kernel parameter -g 
1 # kernel parameter -s 
1 # kernel parameter -r 
empty# kernel parameter -u 
12080 # highest feature index 
23 # number of training documents 
17 # number of support vectors plus 1 
-0.75135347 # threshold b, each following line is a SV (starting with alpha*y)
-11.092042337215175962228386197239 5740:0.077410787 9971:0.38004801 12054:9.9548095e-07 #
-11.092042337215175962228386197239 2859:0.38004801 5740:0.077410787 12054:9.9548095e-07 #
-4.8080633332581985683873426751234 208:0.21717028 2421:0.096321762 2934:0.11453524 3438:0.21717028 4062:0.21717028 4966:0.1448601 5740:0.044234734 6390:0.21717028 7024:0.19445023 7594:0.21717028 10584:0.17173018 12054:5.6884625e-07 #
2.1224745040782408977975137531757 44:0.0086009149 57:0.01373962 109:0.010656262 157:0.010234051 174:0.011932406 280:0.018716188 346:0.0024269398 608:0.0014839999 734:0.011165751 1152:0.010041366 1469:0.0031801965 1716:0.012369628 2053:0.0062424461 2076:0.002971072 2344:0.0041977717 2501:0.010212424 2644:0.0077645755 2930:0.012134415 3046:0.011778425 3106:0.010426595 3452:0.0011953821 3530:0.010776876 3884:0.0028980894 3916:0.011397015 3966:0.013618013 3994:0.0029807647 4224:0.0079559321 4228:0.011133387 4304:0.0070309616 4638:0.030589011 4997:0.0063946382 5070:0.012425336 5146:0.013267184 5399:0.0019255567 5415:0.0075353049 5530:0.0061607235 5542:0.012795411 5974:0.013016961 6023:0.010709088 6059:0.013594445 6067:0.0081296358 6085:0.00028874041 6513:0.0023647277 7225:0.028011048 7285:0.027170975 7571:0.0080695571 7573:0.013246938 7663:0.0099150259 7809:0.018770587 7908:0.01373962 7967:0.0051605348 8396:0.011674432 8544:0.010933447 9044:0.0023570119 9336:0.0096945772 9412:0.0018792711 9784:0.0089738891 10092:0.0078713261 10111:0.0099231815 10152:0.013548021 10340:0.013690202 10382:0.0031701322 10400:0.01147026 10481:0.0072633517 10513:0.0041063568 10521:0.0041007022 10618:0.0094889961 10944:0.010804562 10972:0.0039117709 11025:0.0048867036 11092:0.0086277593 11183:0.012171983 11747:0.023248298 11806:0.0036948435 11878:0.013004724 12054:1.1376925e-06 12080:0.0097202137 #
4.606410944612221669558493886143 44:0.0086009149 57:0.01373962 109:0.010656262 157:0.010234051 174:0.011932406 280:0.018716188 346:0.0024269398 608:0.0014839999 734:0.011165751 1152:0.010041366 1469:0.0031801965 1716:0.012369628 2053:0.0062424461 2076:0.002971072 2344:0.0041977717 2501:0.010212424 2644:0.0077645755 2930:0.012134415 3046:0.011778425 3106:0.010426595 3452:0.0011953821 3530:0.010776876 3884:0.0028980894 3916:0.011397015 3966:0.013618013 3994:0.0029807647 4224:0.0079559321 4228:0.011133387 4304:0.0070309616 4638:0.030589011 4997:0.0063946382 5070:0.012425336 5146:0.013267184 5399:0.0019255567 5415:0.0075353049 5530:0.0061607235 5542:0.012795411 5974:0.013016961 6023:0.010709088 6059:0.013594445 6067:0.0081296358 6085:0.00028874041 6513:0.0023647277 7225:0.028011048 7285:0.027170975 7571:0.0080695571 7573:0.013246938 7663:0.0099150259 7809:0.018770587 7908:0.01373962 7967:0.0051605348 8396:0.011674432 8544:0.010933447 9044:0.0023570119 9336:0.0096945772 9412:0.0018792711 9784:0.0089738891 9950:0.016658755 10092:0.0078713261 10111:0.0099231815 10152:0.013548021 10340:0.013690202 10382:0.0031701322 10400:0.01147026 10481:0.0072633517 10513:0.0041063568 10521:0.0041007022 10618:0.0094889961 10944:0.010804562 10972:0.0039117709 11025:0.0048867036 11092:0.0086277593 11183:0.012171983 11806:0.0036948435 11878:0.013004724 12054:1.1376925e-06 12080:0.0097202137 #
2.1643349893323033938941080123186 44:0.0086466642 57:0.013812704 109:0.010712944 157:0.010288488 174:0.011995876 280:0.018815743 346:0.0024398491 608:0.0014918935 734:0.011225143 1152:0.010094778 1469:0.0031971124 1716:0.012435423 2053:0.0062756506 2076:0.0029868756 2344:0.0042201001 2501:0.010266745 2644:0.0078058764 2930:0.012198959 3046:0.011841076 3106:0.010482056 3452:0.0012017405 3530:0.0108342 3884:0.0029135046 3916:0.011457638 3966:0.013690448 3994:0.0029966198 4224:0.0079982514 4228:0.011192607 4304:0.0070683602 4638:0.030751718 4997:0.0064286524 5070:0.012491428 5146:0.013337754 5399:0.001935799 5415:0.0075753862 5530:0.0061934935 5542:0.012863472 5974:0.0130862 6023:0.010766052 6059:0.013666756 6067:0.0081728781 6085:0.00029027628 6513:0.0023773059 7225:0.028160043 7285:0.027315501 7571:0.0081124809 7573:0.013317401 7663:0.0099677648 7809:0.01887043 7908:0.013812704 7967:0.0051879841 8396:0.01173653 8544:0.010991604 9044:0.0023695491 9336:0.0097461436 9374:0.022118442 9412:0.0018892672 9784:0.0090216221 10092:0.0079131946 10111:0.0099759642 10152:0.013620086 10340:0.013763023 10382:0.0031869947 10400:0.011531272 10513:0.0041281991 10521:0.0041225143 10618:0.0095394691 10944:0.010862033 10972:0.003932578 11025:0.0049126968 11092:0.0086736521 11183:0.012236727 11806:0.003714497 11878:0.013073898 12054:1.143744e-06 12080:0.009771917 #
2.2658504484004211576575471553952 44:0.0086009149 57:0.01373962 109:0.010656262 157:0.010234051 174:0.011932406 280:0.018716188 346:0.0024269398 608:0.0014839999 734:0.011165751 1152:0.010041366 1469:0.0031801965 1716:0.012369628 2053:0.0062424461 2076:0.002971072 2344:0.0041977717 2501:0.010212424 2644:0.0077645755 2930:0.012134415 3046:0.011778425 3106:0.010426595 3452:0.0011953821 3530:0.010776876 3884:0.0028980894 3916:0.011397015 3966:0.013618013 3994:0.0029807647 4224:0.0079559321 4228:0.011133387 4304:0.0070309616 4638:0.030589011 4997:0.0063946382 5070:0.012425336 5146:0.013267184 5399:0.0019255567 5415:0.0075353049 5530:0.0061607235 5542:0.012795411 5974:0.013016961 6023:0.010709088 6059:0.013594445 6067:0.0081296358 6085:0.00028874041 6513:0.0023647277 7206:0.023752442 7225:0.028011048 7285:0.027170975 7571:0.0080695571 7573:0.013246938 7663:0.0099150259 7809:0.018770587 7908:0.01373962 7967:0.0051605348 8396:0.011674432 8544:0.010933447 9044:0.0023570119 9336:0.0096945772 9412:0.0018792711 9784:0.0089738891 10092:0.0078713261 10111:0.0099231815 10152:0.013548021 10340:0.013690202 10382:0.0031701322 10400:0.01147026 10481:0.0072633517 10513:0.0041063568 10521:0.0041007022 10618:0.0094889961 10944:0.010804562 10972:0.0039117709 11025:0.0048867036 11092:0.0086277593 11183:0.012171983 11806:0.0036948435 11878:0.013004724 12054:1.1376925e-06 12080:0.0097202137 #
1.6809987407459061614645179361105 44:0.0086466642 57:0.013812704 109:0.010712944 157:0.010288488 174:0.011995876 280:0.018815743 346:0.0024398491 608:0.0014918935 734:0.011225143 1152:0.010094778 1469:0.0031971124 1716:0.012435423 2053:0.0062756506 2076:0.0029868756 2344:0.0042201001 2501:0.010266745 2644:0.0078058764 2930:0.012198959 3046:0.011841076 3106:0.010482056 3452:0.0012017405 3530:0.0108342 3884:0.0029135046 3916:0.011457638 3966:0.013690448 3994:0.0029966198 4224:0.0079982514 4228:0.011192607 4304:0.0070683602 4638:0.030751718 4997:0.0064286524 5070:0.012491428 5146:0.013337754 5399:0.001935799 5415:0.0075753862 5530:0.0061934935 5542:0.012863472 5974:0.0130862 6023:0.010766052 6059:0.013666756 6067:0.0081728781 6085:0.00029027628 6513:0.0023773059 7225:0.028160043 7285:0.027315501 7571:0.0081124809 7573:0.013317401 7663:0.0099677648 7809:0.01887043 7908:0.013812704 7967:0.0051879841 8141:0.02509765 8396:0.01173653 8544:0.010991604 9044:0.0023695491 9336:0.0097461436 9412:0.0018892672 9784:0.0090216221 10092:0.0079131946 10111:0.0099759642 10152:0.013620086 10340:0.013763023 10382:0.0031869947 10400:0.011531272 10513:0.0041281991 10521:0.0041225143 10618:0.0095394691 10944:0.010862033 10972:0.003932578 11025:0.0049126968 11092:0.0086736521 11183:0.012236727 11806:0.003714497 11878:0.013073898 12054:1.143744e-06 12080:0.009771917 #
2.4369445655362191871518007246777 44:0.0086009149 57:0.01373962 109:0.010656262 157:0.010234051 174:0.011932406 280:0.018716188 346:0.0024269398 608:0.0014839999 734:0.011165751 1152:0.010041366 1469:0.0031801965 1716:0.012369628 2053:0.0062424461 2076:0.002971072 2344:0.0041977717 2501:0.010212424 2644:0.0077645755 2930:0.012134415 3046:0.011778425 3106:0.010426595 3452:0.0011953821 3530:0.010776876 3884:0.0028980894 3916:0.011397015 3966:0.013618013 3994:0.0029807647 4224:0.0079559321 4228:0.011133387 4304:0.0070309616 4638:0.030589011 4997:0.0063946382 5070:0.012425336 5146:0.013267184 5399:0.0019255567 5415:0.0075353049 5530:0.0061607235 5542:0.012795411 5974:0.013016961 6023:0.010709088 6059:0.013594445 6067:0.0081296358 6085:0.00028874041 6513:0.0023647277 7225:0.028011048 7285:0.027170975 7571:0.0080695571 7573:0.013246938 7663:0.0099150259 7809:0.018770587 7908:0.01373962 7967:0.0051605348 8396:0.011674432 8544:0.010933447 9044:0.0023570119 9336:0.0096945772 9412:0.0018792711 9784:0.0089738891 10092:0.0078713261 10111:0.0099231815 10152:0.013548021 10340:0.013690202 10382:0.0031701322 10400:0.01147026 10481:0.0072633517 10513:0.0041063568 10521:0.0041007022 10618:0.0094889961 10944:0.010804562 10972:0.0039117709 11025:0.0048867036 11092:0.0086277593 11183:0.012171983 11806:0.0036948435 11878:0.013004724 11925:0.022903457 12054:1.1376925e-06 12080:0.0097202137 #
3.1790341804554529403503693174571 44:0.0086009149 57:0.01373962 109:0.010656262 157:0.010234051 174:0.011932406 280:0.018716188 346:0.0024269398 608:0.0014839999 734:0.011165751 1152:0.010041366 1469:0.0031801965 1716:0.012369628 2053:0.0062424461 2076:0.002971072 2344:0.0041977717 2501:0.010212424 2644:0.0077645755 2930:0.012134415 3046:0.011778425 3106:0.010426595 3452:0.0011953821 3530:0.010776876 3884:0.0028980894 3916:0.011397015 3966:0.013618013 3994:0.0029807647 4224:0.0079559321 4228:0.011133387 4304:0.0070309616 4638:0.030589011 4997:0.0063946382 5070:0.012425336 5146:0.013267184 5399:0.0019255567 5415:0.0075353049 5530:0.0061607235 5542:0.012795411 5974:0.013016961 6023:0.010709088 6059:0.013594445 6067:0.0081296358 6085:0.00028874041 6513:0.0023647277 7225:0.028011048 7285:0.027170975 7571:0.0080695571 7573:0.013246938 7663:0.0099150259 7809:0.018770587 7908:0.01373962 7967:0.0051605348 8396:0.011674432 8544:0.010933447 9044:0.0023570119 9336:0.0096945772 9412:0.0018792711 9784:0.0089738891 10092:0.0078713261 10111:0.0099231815 10152:0.013548021 10340:0.013690202 10382:0.0031701322 10400:0.01147026 10481:0.0072633517 10513:0.0041063568 10521:0.0041007022 10618:0.0094889961 10944:0.010804562 10972:0.0039117709 11025:0.0048867036 11092:0.0086277593 11183:0.012171983 11806:0.0036948435 11878:0.013004724 11889:0.020052858 12054:1.1376925e-06 12080:0.0097202137 #
2.0484754088661105697610764764249 44:0.0086009149 57:0.01373962 109:0.010656262 157:0.010234051 174:0.011932406 280:0.018716188 346:0.0024269398 608:0.0014839999 734:0.011165751 1152:0.010041366 1469:0.0031801965 1716:0.012369628 2053:0.0062424461 2076:0.002971072 2344:0.0041977717 2501:0.010212424 2644:0.0077645755 2930:0.012134415 3046:0.011778425 3106:0.010426595 3452:0.0011953821 3530:0.010776876 3884:0.0028980894 3916:0.011397015 3966:0.013618013 3994:0.0029807647 4224:0.0079559321 4228:0.011133387 4304:0.0070309616 4638:0.030589011 4997:0.0063946382 5070:0.012425336 5146:0.013267184 5399:0.0019255567 5415:0.0075353049 5530:0.0061607235 5542:0.012795411 5974:0.013016961 6023:0.010709088 6059:0.013594445 6067:0.0081296358 6085:0.00028874041 6513:0.0023647277 7225:0.028011048 7285:0.027170975 7571:0.0080695571 7573:0.013246938 7663:0.0099150259 7809:0.018770587 7908:0.01373962 7967:0.0051605348 8396:0.011674432 8544:0.010933447 9044:0.0023570119 9336:0.0096945772 9412:0.0018792711 9784:0.0089738891 10092:0.0078713261 10111:0.0099231815 10152:0.013548021 10340:0.013690202 10382:0.0031701322 10400:0.01147026 10481:0.0072633517 10513:0.0041063568 10521:0.0041007022 10618:0.0094889961 10944:0.010804562 10972:0.0039117709 11025:0.0048867036 11092:0.0086277593 11183:0.012171983 11740:0.023664484 11806:0.0036948435 11878:0.013004724 12054:1.1376925e-06 12080:0.0097202137 #
1.3212653889453065403358777984977 44:0.0086466642 57:0.013812704 109:0.010712944 157:0.010288488 174:0.011995876 280:0.018815743 346:0.0024398491 608:0.0014918935 734:0.011225143 1152:0.010094778 1469:0.0031971124 1716:0.012435423 2053:0.0062756506 2076:0.0029868756 2236:0.025305664 2344:0.0042201001 2501:0.010266745 2644:0.0078058764 2930:0.012198959 3046:0.011841076 3106:0.010482056 3452:0.0012017405 3530:0.0108342 3884:0.0029135046 3916:0.011457638 3966:0.013690448 3994:0.0029966198 4224:0.0079982514 4228:0.011192607 4304:0.0070683602 4638:0.030751718 4997:0.0064286524 5070:0.012491428 5146:0.013337754 5399:0.001935799 5415:0.0075753862 5530:0.0061934935 5542:0.012863472 5974:0.0130862 6023:0.010766052 6059:0.013666756 6067:0.0081728781 6085:0.00029027628 6513:0.0023773059 7225:0.028160043 7285:0.027315501 7571:0.0081124809 7573:0.013317401 7663:0.0099677648 7809:0.01887043 7908:0.013812704 7967:0.0051879841 8396:0.01173653 8544:0.010991604 9044:0.0023695491 9336:0.0097461436 9412:0.0018892672 9784:0.0090216221 10092:0.0079131946 10111:0.0099759642 10152:0.013620086 10340:0.013763023 10382:0.0031869947 10400:0.011531272 10513:0.0041281991 10521:0.0041225143 10618:0.0095394691 10944:0.010862033 10972:0.003932578 11025:0.0049126968 11092:0.0086736521 11183:0.012236727 11806:0.003714497 11878:0.013073898 12054:1.143744e-06 12080:0.009771917 #
1.3556305961617205468883184948936 44:0.0086466642 57:0.013812704 109:0.010712944 157:0.010288488 174:0.011995876 280:0.018815743 346:0.0024398491 608:0.0014918935 734:0.011225143 747:0.024982857 1152:0.010094778 1469:0.0031971124 1716:0.012435423 2053:0.0062756506 2076:0.0029868756 2344:0.0042201001 2501:0.010266745 2644:0.0078058764 2930:0.012198959 3046:0.011841076 3106:0.010482056 3452:0.0012017405 3530:0.0108342 3884:0.0029135046 3916:0.011457638 3966:0.013690448 3994:0.0029966198 4224:0.0079982514 4228:0.011192607 4304:0.0070683602 4638:0.030751718 4997:0.0064286524 5070:0.012491428 5146:0.013337754 5399:0.001935799 5415:0.0075753862 5530:0.0061934935 5542:0.012863472 5974:0.0130862 6023:0.010766052 6059:0.013666756 6067:0.0081728781 6085:0.00029027628 6513:0.0023773059 7225:0.028160043 7285:0.027315501 7571:0.0081124809 7573:0.013317401 7663:0.0099677648 7809:0.01887043 7908:0.013812704 7967:0.0051879841 8396:0.01173653 8544:0.010991604 9044:0.0023695491 9336:0.0097461436 9412:0.0018892672 9784:0.0090216221 10092:0.0079131946 10111:0.0099759642 10152:0.013620086 10340:0.013763023 10382:0.0031869947 10400:0.011531272 10513:0.0041281991 10521:0.0041225143 10618:0.0095394691 10944:0.010862033 10972:0.003932578 11025:0.0049126968 11092:0.0086736521 11183:0.012236727 11806:0.003714497 11878:0.013073898 12054:1.143744e-06 12080:0.009771917 #
1.265849542642733638331264955923 44:0.0086466642 57:0.013812704 109:0.010712944 157:0.010288488 174:0.011995876 280:0.018815743 346:0.0024398491 608:0.0014918935 734:0.011225143 1152:0.010094778 1469:0.0031971124 1716:0.012435423 2053:0.0062756506 2076:0.0029868756 2344:0.0042201001 2501:0.010266745 2644:0.0078058764 2930:0.012198959 3046:0.011841076 3106:0.010482056 3452:0.0012017405 3530:0.0108342 3884:0.0029135046 3916:0.011457638 3966:0.013690448 3994:0.0029966198 4224:0.0079982514 4228:0.011192607 4304:0.0070683602 4638:0.030751718 4997:0.0064286524 5070:0.012491428 5146:0.013337754 5399:0.001935799 5415:0.0075753862 5530:0.0061934935 5542:0.012863472 5974:0.0130862 6023:0.010766052 6059:0.013666756 6067:0.0081728781 6085:0.00029027628 6513:0.0023773059 7225:0.028160043 7285:0.027315501 7571:0.0081124809 7573:0.013317401 7663:0.0099677648 7809:0.01887043 7908:0.013812704 7967:0.0051879841 8396:0.01173653 8544:0.010991604 9044:0.0023695491 9336:0.0097461436 9412:0.0018892672 9784:0.0090216221 10092:0.0079131946 10111:0.0099759642 10152:0.013620086 10340:0.013763023 10382:0.0031869947 10400:0.011531272 10513:0.0041281991 10521:0.0041225143 10618:0.0095394691 10944:0.010862033 10949:0.025853641 10972:0.003932578 11025:0.0049126968 11092:0.0086736521 11183:0.012236727 11806:0.003714497 11878:0.013073898 12054:1.143744e-06 12080:0.009771917 #
1.2857549221309021447723353048787 44:0.0086466642 57:0.013812704 109:0.010712944 157:0.010288488 174:0.011995876 280:0.018815743 346:0.0024398491 608:0.0014918935 734:0.011225143 1152:0.010094778 1469:0.0031971124 1716:0.012435423 2053:0.0062756506 2076:0.0029868756 2344:0.0042201001 2501:0.010266745 2644:0.0078058764 2930:0.012198959 3046:0.011841076 3106:0.010482056 3452:0.0012017405 3530:0.0108342 3884:0.0029135046 3916:0.011457638 3966:0.013690448 3994:0.0029966198 4224:0.0079982514 4228:0.011192607 4304:0.0070683602 4638:0.030751718 4997:0.0064286524 5070:0.012491428 5146:0.013337754 5399:0.001935799 5415:0.0075753862 5530:0.0061934935 5542:0.012863472 5974:0.0130862 6023:0.010766052 6059:0.013666756 6067:0.0081728781 6085:0.00029027628 6513:0.0023773059 7225:0.028160043 7285:0.027315501 7571:0.0081124809 7573:0.013317401 7663:0.0099677648 7809:0.01887043 7908:0.013812704 7967:0.0051879841 8396:0.01173653 8544:0.010991604 9044:0.0023695491 9336:0.0097461436 9412:0.0018892672 9784:0.0090216221 10092:0.0079131946 10111:0.0099759642 10152:0.013620086 10340:0.013763023 10382:0.0031869947 10400:0.011531272 10513:0.0041281991 10521:0.0041225143 10618:0.0095394691 10944:0.010862033 10972:0.003932578 11025:0.0049126968 11092:0.0086736521 11183:0.012236727 11567:0.025652735 11806:0.003714497 11878:0.013073898 12054:1.143744e-06 12080:0.009771917 #
1.2591237757812336894858162850142 44:0.0086466642 57:0.013812704 109:0.010712944 157:0.010288488 174:0.011995876 280:0.018815743 346:0.0024398491 608:0.0014918935 734:0.011225143 1152:0.010094778 1469:0.0031971124 1716:0.012435423 2053:0.0062756506 2076:0.0029868756 2344:0.0042201001 2501:0.010266745 2644:0.0078058764 2930:0.012198959 3046:0.011841076 3106:0.010482056 3452:0.0012017405 3530:0.0108342 3884:0.0029135046 3916:0.011457638 3966:0.013690448 3994:0.0029966198 4051:0.0259226 4224:0.0079982514 4228:0.011192607 4304:0.0070683602 4638:0.030751718 4997:0.0064286524 5070:0.012491428 5146:0.013337754 5399:0.001935799 5415:0.0075753862 5530:0.0061934935 5542:0.012863472 5974:0.0130862 6023:0.010766052 6059:0.013666756 6067:0.0081728781 6085:0.00029027628 6513:0.0023773059 7225:0.028160043 7285:0.027315501 7571:0.0081124809 7573:0.013317401 7663:0.0099677648 7809:0.01887043 7908:0.013812704 7967:0.0051879841 8396:0.01173653 8544:0.010991604 9044:0.0023695491 9336:0.0097461436 9412:0.0018892672 9784:0.0090216221 10092:0.0079131946 10111:0.0099759642 10152:0.013620086 10340:0.013763023 10382:0.0031869947 10400:0.011531272 10513:0.0041281991 10521:0.0041225143 10618:0.0095394691 10944:0.010862033 10972:0.003932578 11025:0.0049126968 11092:0.0086736521 11183:0.012236727 11806:0.003714497 11878:0.013073898 12054:1.143744e-06 12080:0.009771917 #
