SVM-light Version V6.02
0 # kernel type
3 # kernel parameter -d 
1 # kernel parameter -g 
1 # kernel parameter -s 
1 # kernel parameter -r 
empty# kernel parameter -u 
12053 # highest feature index 
13 # number of training documents 
9 # number of support vectors plus 1 
0.99743277 # threshold b, each following line is a SV (starting with alpha*y)
-0.19054959368545762443680757769471 5725:0.11607146 #
-11.807159975269271967590611893684 1187:0.043568563 1462:0.0054650246 3445:0.0041103736 3574:0.074793935 3606:0.060097296 4785:0.07469523 4924:0.069255479 5484:0.0064587276 6077:0.00099308579 6494:0.016142419 6507:0.023815852 6758:0.061299566 7304:0.032923251 10061:0.010377705 10424:0.018069647 11178:0.0063463547 12053:5.4295974e-06 #
-0.83666120175338831721489896153798 4785:0.13694125 6020:0.17903751 6077:0.0036413146 11178:0.023269968 12053:3.9817046e-06 #
31.695546446533001017087372019887 903:0.0097677568 1187:0.029222818 1462:0.0036655653 3445:0.0055139158 3559:0.017829027 4785:0.10020092 4924:0.046451844 5484:0.0043320735 6077:0.00066609413 6494:0.0054136161 6501:0.0054509914 6507:0.023961069 6758:0.06852594 7144:0.032150544 7304:0.022082668 7942:0.030486902 8704:0.049491342 9721:0.024607299 10061:0.020881968 10089:0.0060480647 10424:0.012119886 10828:0.029079666 11178:0.0042567016 11270:0.025888698 12053:5.0985241e-06 #
-10.875095853092236808379311696626 3445:0.0053826319 4785:0.14672278 6077:0.0019507043 6758:0.080273241 7105:0.055970985 10908:0.033022776 11178:0.012466054 12053:4.2661122e-06 #
-4.1428058968551448870698550308589 564:0.045532655 3445:0.002283541 3465:0.061871253 4785:0.062246025 4909:0.07234659 6077:0.00082757149 6211:0.066294298 6495:0.035075858 6507:0.019846542 6978:0.028945791 7304:0.027436042 7641:0.026344409 7865:0.076460525 7966:0.014778619 8704:0.061489239 9472:0.057741985 10061:0.017296175 10424:0.01505804 11178:0.0052886289 12053:5.4295974e-06 #
-1.9305514141291011398493537853938 1187:0.046082135 1191:0.049497157 1462:0.0057803146 1730:0.026394991 2075:0.010799622 2095:0.039322115 2238:0.05629145 3445:0.0028983403 4785:0.039502285 5245:0.062684499 5261:0.04907738 5484:0.0068313465 5876:0.059298128 6077:0.0010503792 6507:0.012594922 6758:0.086448103 7940:0.045162234 8724:0.03917072 9053:0.017137337 10424:0.0095560635 10739:0.028917674 10908:0.017781496 11178:0.0067124907 12053:4.5942747e-06 #
-1.912723594634925916579959448427 893:0.025477707 1392:0.0059647774 1410:0.012856653 1462:0.0037108192 3120:0.020932345 3445:0.0018606629 3876:0.013525596 4785:0.025359493 4924:0.023512663 5484:0.0043855556 5637:0.07247173 6077:0.00067431753 6494:0.027402256 6495:0.02858033 6507:0.016171256 6758:0.08324632 7074:0.015152817 7105:0.019347996 8470:0.05258758 8685:0.020007478 9053:0.013752185 9726:0.018448124 10061:0.0070465896 10089:0.0061227321 10908:0.022830563 11178:0.0043092533 11283:0.016226809 11579:0.021202359 12053:4.4241165e-06 #
