SVM-light Version V6.02
0 # kernel type
3 # kernel parameter -d 
1 # kernel parameter -g 
1 # kernel parameter -s 
1 # kernel parameter -r 
empty# kernel parameter -u 
12079 # highest feature index 
10 # number of training documents 
11 # number of support vectors plus 1 
0.99663553 # threshold b, each following line is a SV (starting with alpha*y)
-6.5552127146318071027053520083427 108:0.019181727 276:0.025268219 338:0.0043689464 1324:0.022682352 1392:0.0046013994 1462:0.0057252636 1683:0.022655051 2050:0.011236859 3040:0.02120162 3277:0.01968066 3361:0.01615911 3445:0.0021530529 3876:0.0052170157 4293:0.025312372 5384:0.0034664571 5484:0.0033831431 5524:0.034548976 6077:0.00052018778 6637:0.0025191179 7074:0.011689316 7280:0.04890912 7304:0.0086227562 7569:0.014525658 7821:0.014299422 8370:0.01284987 9053:0.0021217656 9064:0.023564419 9259:0.012942417 9343:0.016894437 10089:0.0047232504 10108:0.017862637 10380:0.005706693 10398:0.041293845 10509:0.0073918975 10517:0.0073817191 10725:0.014633799 10739:0.014321133 10943:0.019448666 10971:0.0070416424 11877:0.023409413 12053:5.6881495e-06 12079:0.017496839 #
-7.3620173183087729285034583881497 108:0.019181727 276:0.025268219 338:0.0043689464 1324:0.022682352 1392:0.0046013994 1462:0.0057252636 2050:0.011236859 3040:0.02120162 3277:0.01968066 3361:0.01615911 3445:0.0021530529 3876:0.0052170157 4293:0.025312372 5384:0.0034664571 5484:0.0033831431 5524:0.034548976 6077:0.00052018778 6637:0.0025191179 7074:0.011689316 7202:0.021377653 7280:0.04890912 7304:0.0086227562 7569:0.014525658 7821:0.014299422 8370:0.01284987 9053:0.0021217656 9064:0.023564419 9259:0.012942417 9343:0.016894437 10089:0.0047232504 10108:0.017862637 10380:0.005706693 10398:0.041293845 10509:0.0073918975 10517:0.0073817191 10725:0.014633799 10739:0.014321133 10943:0.019448666 10971:0.0070416424 11877:0.023409413 12053:5.6881495e-06 12079:0.017496839 #
-14.966506462375150476873386651278 108:0.019181727 276:0.025268219 338:0.0043689464 1324:0.022682352 1392:0.0046013994 1462:0.0057252636 2050:0.011236859 3040:0.02120162 3277:0.01968066 3361:0.01615911 3445:0.0021530529 3876:0.0052170157 4293:0.025312372 5384:0.0034664571 5484:0.0033831431 5524:0.034548976 6077:0.00052018778 6637:0.0025191179 7074:0.011689316 7280:0.04890912 7304:0.0086227562 7569:0.014525658 7821:0.014299422 8370:0.01284987 9053:0.0021217656 9064:0.023564419 9259:0.012942417 9343:0.016894437 9949:0.014993334 10089:0.0047232504 10108:0.017862637 10380:0.005706693 10398:0.041293845 10509:0.0073918975 10517:0.0073817191 10725:0.014633799 10739:0.014321133 10943:0.019448666 10971:0.0070416424 11877:0.023409413 12053:5.6881495e-06 12079:0.017496839 #
-7.91791107226489998538454528898 108:0.019181727 276:0.025268219 338:0.0043689464 1324:0.022682352 1392:0.0046013994 1462:0.0057252636 2050:0.011236859 3040:0.02120162 3277:0.01968066 3361:0.01615911 3445:0.0021530529 3876:0.0052170157 4293:0.025312372 5384:0.0034664571 5484:0.0033831431 5524:0.034548976 6077:0.00052018778 6637:0.0025191179 7074:0.011689316 7280:0.04890912 7304:0.0086227562 7569:0.014525658 7821:0.014299422 8370:0.01284987 9053:0.0021217656 9064:0.023564419 9259:0.012942417 9343:0.016894437 10089:0.0047232504 10108:0.017862637 10380:0.005706693 10398:0.041293845 10509:0.0073918975 10517:0.0073817191 10725:0.014633799 10739:0.014321133 10943:0.019448666 10971:0.0070416424 11877:0.023409413 11923:0.020613566 12053:5.6881495e-06 12079:0.017496839 #
-6.6643244706115467579365940764546 108:0.019181727 276:0.025268219 338:0.0043689464 1324:0.022682352 1392:0.0046013994 1462:0.0057252636 2050:0.011236859 3040:0.02120162 3277:0.01968066 3361:0.01615911 3445:0.0021530529 3876:0.0052170157 4293:0.025312372 5384:0.0034664571 5484:0.0033831431 5524:0.034548976 6077:0.00052018778 6637:0.0025191179 7074:0.011689316 7280:0.04890912 7304:0.0086227562 7569:0.014525658 7821:0.014299422 8143:0.022468826 8370:0.01284987 9053:0.0021217656 9064:0.023564419 9259:0.012942417 9343:0.016894437 10089:0.0047232504 10108:0.017862637 10380:0.005706693 10398:0.041293845 10509:0.0073918975 10517:0.0073817191 10725:0.014633799 10739:0.014321133 10943:0.019448666 10971:0.0070416424 11877:0.023409413 12053:5.6881495e-06 12079:0.017496839 #
75.622268890905687044323713053018 108:0.019181727 276:0.025268219 338:0.0043689464 1324:0.022682352 1392:0.0046013994 1462:0.0057252636 2050:0.011236859 3040:0.02120162 3277:0.01968066 3361:0.01615911 3445:0.0021530529 3876:0.0052170157 4293:0.025312372 5384:0.0034664571 5484:0.0033831431 5524:0.034548976 6077:0.00052018778 6637:0.0025191179 7074:0.011689316 7280:0.04890912 7304:0.0086227562 7569:0.014525658 7821:0.014299422 8370:0.01284987 9053:0.0021217656 9064:0.023564419 9259:0.012942417 9343:0.016894437 9378:0.019801727 10089:0.0047232504 10108:0.017862637 10380:0.005706693 10398:0.041293845 10509:0.0073918975 10517:0.0073817191 10725:0.014633799 10739:0.014321133 10943:0.019448666 10971:0.0070416424 11877:0.023409413 12053:5.6881495e-06 12079:0.017496839 #
-6.7257063252478701542713679373264 108:0.019181727 276:0.025268219 338:0.0043689464 742:0.02236606 1324:0.022682352 1392:0.0046013994 1462:0.0057252636 2050:0.011236859 3040:0.02120162 3277:0.01968066 3361:0.01615911 3445:0.0021530529 3876:0.0052170157 4293:0.025312372 5384:0.0034664571 5484:0.0033831431 5524:0.034548976 6077:0.00052018778 6637:0.0025191179 7074:0.011689316 7280:0.04890912 7304:0.0086227562 7569:0.014525658 7821:0.014299422 8370:0.01284987 9053:0.0021217656 9064:0.023564419 9259:0.012942417 9343:0.016894437 10089:0.0047232504 10108:0.017862637 10380:0.005706693 10398:0.041293845 10509:0.0073918975 10517:0.0073817191 10725:0.014633799 10739:0.014321133 10943:0.019448666 10971:0.0070416424 11877:0.023409413 12053:5.6881495e-06 12079:0.017496839 #
-7.6847657006052827455278020352125 108:0.019181727 276:0.025268219 338:0.0043689464 1324:0.022682352 1392:0.0046013994 1462:0.0057252636 2050:0.011236859 3040:0.02120162 3277:0.01968066 3361:0.01615911 3445:0.0021530529 3876:0.0052170157 4293:0.025312372 5384:0.0034664571 5484:0.0033831431 5524:0.034548976 6077:0.00052018778 6637:0.0025191179 7074:0.011689316 7280:0.04890912 7304:0.0086227562 7569:0.014525658 7821:0.014299422 8370:0.01284987 9053:0.0021217656 9064:0.023564419 9259:0.012942417 9343:0.016894437 10089:0.0047232504 10108:0.017862637 10380:0.005706693 10398:0.041293845 10509:0.0073918975 10517:0.0073817191 10725:0.014633799 10739:0.014321133 10943:0.019448666 10971:0.0070416424 11746:0.020923924 11877:0.023409413 12053:5.6881495e-06 12079:0.017496839 #
-10.328979150171278433845145627856 108:0.019181727 276:0.025268219 338:0.0043689464 1324:0.022682352 1392:0.0046013994 1462:0.0057252636 2050:0.011236859 3040:0.02120162 3277:0.01968066 3361:0.01615911 3445:0.0021530529 3876:0.0052170157 4293:0.025312372 5384:0.0034664571 5484:0.0033831431 5524:0.034548976 6077:0.00052018778 6637:0.0025191179 7074:0.011689316 7280:0.04890912 7304:0.0086227562 7569:0.014525658 7821:0.014299422 8370:0.01284987 9053:0.0021217656 9064:0.023564419 9259:0.012942417 9343:0.016894437 10089:0.0047232504 10108:0.017862637 10380:0.005706693 10398:0.041293845 10509:0.0073918975 10517:0.0073817191 10725:0.014633799 10739:0.014321133 10943:0.019448666 10971:0.0070416424 11877:0.023409413 11888:0.018048028 12053:5.6881495e-06 12079:0.017496839 #
-7.4168456766865347162820398807526 108:0.019181727 276:0.025268219 338:0.0043689464 1324:0.022682352 1392:0.0046013994 1462:0.0057252636 2050:0.011236859 3040:0.02120162 3277:0.01968066 3361:0.01615911 3445:0.0021530529 3876:0.0052170157 4293:0.025312372 5384:0.0034664571 5484:0.0033831431 5524:0.034548976 6077:0.00052018778 6637:0.0025191179 7074:0.011689316 7280:0.04890912 7304:0.0086227562 7569:0.014525658 7821:0.014299422 8370:0.01284987 9053:0.0021217656 9064:0.023564419 9259:0.012942417 9343:0.016894437 10089:0.0047232504 10108:0.017862637 10380:0.005706693 10398:0.041293845 10509:0.0073918975 10517:0.0073817191 10725:0.014633799 10739:0.014321133 10943:0.019448666 10971:0.0070416424 11739:0.02129849 11877:0.023409413 12053:5.6881495e-06 12079:0.017496839 #
