SVM-light Version V6.02
0 # kernel type
3 # kernel parameter -d 
1 # kernel parameter -g 
1 # kernel parameter -s 
1 # kernel parameter -r 
empty# kernel parameter -u 
191 # highest feature index 
11 # number of training documents 
12 # number of support vectors plus 1 
0.91702842 # threshold b, each following line is a SV (starting with alpha*y)
-10.232749828852352180774687440135 11:0.02314206 13:0.00091983745 14:0.02314206 28:0.02314206 34:0.02314206 49:0.02314206 57:0.0097629484 61:0.012539365 67:0.02314206 86:0.02314206 87:0.0097629484 131:0.02314206 137:0.02314206 149:0.02314206 188:0.0043621031 #
-6.5554045034998598140418835100718 13:0.0016557074 16:0.041655708 66:0.017573308 92:0.041655708 103:0.041655708 106:0.041655708 123:0.013696907 136:0.013696907 141:0.041655708 163:0.041655708 176:0.083311416 177:0.0055321078 188:0.015703572 #
-7.3078949173490057589219759393018 5:0.043391362 13:0.0017246952 18:0.043391362 55:0.014267611 84:0.043391362 98:0.030848445 127:0.043391362 135:0.043391362 138:0.043391362 152:0.043391362 162:0.030848445 166:0.014267611 174:0.043391362 177:0.0057626124 #
-30.666771523720626646536402404308 3:0.0075547216 13:0.00042237435 23:0.010626456 26:0.010626456 27:0.0075547216 29:0.010626456 37:0.0026861371 46:0.0057578715 51:0.010626456 52:0.0075547216 55:0.0069882181 57:0.0089659737 61:0.0057578715 66:0.0044829869 69:0.0075547216 71:0.0075547216 76:0.010482327 79:0.0040060133 80:0.010626456 81:0.0020030066 87:0.01344896 88:0.010626456 99:0.010626456 101:0.0020030066 102:0.010626456 107:0.010626456 108:0.010626456 116:0.0075547216 124:0.0075547216 126:0.010626456 130:0.0075547216 136:0.0069882181 139:0.010626456 142:0.0075547216 144:0.0057578715 147:0.0089659737 150:0.015109443 160:0.021252912 161:0.010626456 165:0.010626456 166:0.0069882181 169:0.0075547216 177:0.0028225041 188:0.016024053 #
-12.723033704914268327001991565339 10:0.024218434 13:0.0009626206 30:0.024218434 37:0.0061218939 52:0.017217737 55:0.0079633184 65:0.024218434 69:0.017217737 79:0.0091299834 81:0.0045649917 87:0.01021704 101:0.0045649917 129:0.024218434 140:0.01021704 147:0.01021704 150:0.017217737 157:0.024218434 166:0.015926637 180:0.024218434 #
150.5233349357081351627130061388 2:0.0042680027 3:0.0030342734 4:0.0042680027 6:0.0042680027 7:0.0060685468 8:0.0085360054 12:0.012804008 15:0.0042680027 17:0.0042680027 19:0.0030342734 20:0.0042680027 22:0.0085360054 24:0.0042680027 25:0.0042680027 33:0.0042680027 35:0.0042680027 38:0.0042680027 41:0.0042680027 43:0.0042680027 44:0.0042680027 45:0.0042680027 46:0.0069377637 47:0.012804008 48:0.0042680027 50:0.0042680027 53:0.0042680027 55:0.0042101149 56:0.0085360054 58:0.0042680027 59:0.0042680027 60:0.0042680027 62:0.0042680027 64:0.0030342734 66:0.014404351 68:0.0042680027 70:0.0042680027 72:0.0042680027 73:0.0042680027 74:0.0042680027 75:0.0042680027 76:0.011226973 77:0.0042680027 78:0.0042680027 79:0.0016089726 82:0.0042680027 89:0.0085360054 90:0.0042680027 91:0.0042680027 94:0.0085360054 97:0.0042680027 98:0.0030342734 104:0.0042680027 105:0.0042680027 109:0.0042680027 110:0.0042680027 111:0.0042680027 112:0.0042680027 113:0.0042680027 114:0.0085360054 115:0.0030342734 117:0.0042680027 119:0.0042680027 120:0.0042680027 125:0.0042680027 128:0.0042680027 132:0.017072011 133:0.0042680027 134:0.0030342734 136:0.0056134867 140:0.0018005439 142:0.0030342734 143:0.0042680027 144:0.013875527 146:0.012804008 148:0.0042680027 151:0.0042680027 155:0.0085360054 156:0.0042680027 158:0.0030342734 162:0.0030342734 166:0.011226973 167:0.0042680027 168:0.0042680027 171:0.0042680027 172:0.0042680027 173:0.0042680027 175:0.0042680027 177:0.0011336287 178:0.0042680027 179:0.0042680027 181:0.0042680027 182:0.0042680027 183:0.0042680027 184:0.012804008 185:0.0042680027 186:0.0042680027 188:0.012067294 189:0.042680029 190:0.0042680027 191:0.0042680027 #
-22.383271801686731805602903477848 13:0.00094074284 31:0.023668015 37:0.0059827599 39:0.023668015 42:0.012824351 54:0.023668015 76:0.0077823335 79:0.0044612419 81:0.0044612419 85:0.023668015 101:0.0044612419 118:0.016826425 122:0.0077823335 123:0.015564667 177:0.003143243 188:0.0089224838 #
-26.16195645345234410683588066604 7:0.0088138413 13:0.00049277005 19:0.0088138413 21:0.012397532 36:0.012397532 37:0.0031338267 42:0.006717517 46:0.006717517 55:0.0081529208 57:0.0052301511 61:0.0403051 63:0.012397532 66:0.0052301511 71:0.0088138413 76:0.0040764604 79:0.0023368411 81:0.0023368411 96:0.012397532 101:0.0023368411 115:0.0088138413 116:0.0088138413 121:0.012397532 122:0.0040764604 123:0.0081529208 124:0.0088138413 130:0.0088138413 134:0.0088138413 136:0.0081529208 140:0.0052301511 144:0.013435034 145:0.012397532 147:0.010460302 153:0.012397532 154:0.012397532 158:0.0088138413 164:0.012397532 177:0.004939382 187:0.012397532 188:0.0093473643 #
-12.876538591829904234487003122922 9:0.053404752 13:0.0010613509 37:0.0067497804 79:0.005033196 81:0.005033196 101:0.005033196 118:0.018983658 122:0.0087800687 123:0.0087800687 159:0.026702376 177:0.0070924461 #
-10.10283945053326348784139554482 13:0.0011826481 32:0.029754076 37:0.0075211837 42:0.016122041 79:0.0056084185 81:0.0056084185 95:0.059508152 101:0.0056084185 122:0.0097835055 123:0.0097835055 177:0.0079030115 #
-11.512874159870126078430985216983 13:0.0011187212 27:0.020009803 40:0.028145749 57:0.011873856 64:0.020009803 76:0.009254667 81:0.0053052609 83:0.028145749 87:0.011873856 100:0.056291498 101:0.0053052609 122:0.009254667 136:0.009254667 140:0.011873856 147:0.011873856 166:0.009254667 169:0.020009803 188:0.0053052609 #
