SVM-light Version V6.02
0 # kernel type
3 # kernel parameter -d 
1 # kernel parameter -g 
1 # kernel parameter -s 
1 # kernel parameter -r 
empty# kernel parameter -u 
70 # highest feature index 
60 # number of training documents 
32 # number of support vectors plus 1 
0.99993523 # threshold b, each following line is a SV (starting with alpha*y)
-0.15704843220892159005863675247383 #
-0.018162705806536019736974196803203 13:1 21:2 49:1 #
-0.15704843220892159005863675247383 #
-0.09174689986606929248402764187631 #
0.15704843220892159005863675247383 2:1 4:1 #
-0.15704843220892159005863675247383 #
0.020939641969733326781755167189658 4:2 13:1 54:1 62:1 70:1 #
0.15704843220892159005863675247383 4:2 21:1 62:1 #
0.10353870565174026763255454852697 4:2 10:1 59:1 #
-0.15704843220892159005863675247383 4:2 68:1 #
0.15704843220892159005863675247383 13:1 14:1 70:1 #
-0.15704843220892159005863675247383 4:2 13:1 26:1 41:1 65:1 #
-0.070780986484083624477037233191368 4:1 13:1 14:1 16:1 18:1 19:1 22:2 29:1 56:1 66:1 #
-0.15704843220892159005863675247383 4:1 #
-0.15704843220892159005863675247383 4:1 16:1 #
-0.15704843220892159005863675247383 1:1 4:1 13:1 51:1 58:1 #
0.15704843220892159005863675247383 50:1 #
0.15704843220892159005863675247383 23:1 32:1 #
0.15704843220892159005863675247383 13:1 14:1 55:1 70:1 #
-3.5983441990085197267630178624698e-06 7:4 11:1 27:1 #
0.15530805847761025573205984073866 4:2 45:1 52:1 #
-1.0842021724855044340074528008699e-19 61:1 #
-0.042305621114602509624802451071446 #
-0.15704843220892159005863675247383 #
-0.15534405525985905960340005549369 4:1 13:1 24:1 38:1 47:1 60:1 #
0.15704843220892159005863675247383 #
-0.15704843220892159005863675247383 #
0.15530805847761031124321107199648 4:2 42:1 53:1 #
0.15554793479607023631849926914583 4:2 33:1 44:1 #
0.10353870565174015661025208601131 4:2 8:1 10:1 #
0.15530805847761008919860614696518 3:1 4:2 36:1 #
