SVM-light Version V6.02
0 # kernel type
3 # kernel parameter -d 
1 # kernel parameter -g 
1 # kernel parameter -s 
1 # kernel parameter -r 
empty# kernel parameter -u 
867 # highest feature index 
86 # number of training documents 
58 # number of support vectors plus 1 
0.97399273 # threshold b, each following line is a SV (starting with alpha*y)
-0.0037577492941851925976892712100152 79:1 157:1 178:1 179:1 234:1 250:1 260:1 375:1 451:1 467:1 474:1 575:1 577:1 #
-0.013453247139849633384756089071743 75:1 411:1 #
-0.021269175165127607307624657551059 24:1 25:1 35:1 51:1 109:1 119:1 127:1 158:1 178:1 182:1 213:1 214:1 220:1 221:1 230:1 234:1 242:1 274:1 293:1 298:1 303:1 320:1 335:1 336:1 358:1 375:1 382:1 410:1 412:1 419:1 469:1 473:1 474:1 490:1 521:1 575:1 577:1 605:1 611:1 618:1 625:1 658:1 662:1 700:1 712:1 732:1 735:1 757:1 762:1 772:1 810:1 828:1 842:1 846:1 #
-0.0066034619131884247575370316951648 93:1 178:1 199:1 239:1 262:1 344:1 375:1 390:1 428:1 439:1 440:1 450:1 551:1 575:1 577:1 671:1 691:1 789:1 810:1 838:1 #
-0.036645130666552179488082430225404 79:1 85:1 143:1 178:1 501:1 515:1 600:1 #
0.016242736011613835567235497592264 8:1 13:1 24:1 56:1 76:1 79:1 143:1 189:1 206:1 210:1 215:1 234:1 243:1 250:1 252:1 273:1 276:1 298:1 307:1 322:1 324:1 339:1 375:1 413:1 415:1 432:1 464:1 498:1 542:1 558:1 568:1 575:1 602:1 611:1 662:1 695:1 723:1 734:1 780:1 796:1 810:1 843:1 844:1 848:1 849:1 #
0.0059999169658190628501293062413424 2:1 24:1 34:1 43:1 56:1 76:1 79:1 104:1 119:1 128:1 129:1 150:1 156:1 158:1 168:1 176:1 193:1 203:1 204:1 226:1 234:1 236:1 271:1 284:1 298:1 306:1 329:1 338:1 342:1 349:1 370:1 372:1 375:1 386:1 408:1 422:1 423:1 461:1 479:1 493:1 501:1 504:1 510:1 511:1 577:1 581:1 585:1 598:1 605:1 611:1 622:1 665:1 698:1 700:1 732:1 761:1 810:1 851:1 860:1 866:1 #
0.041180984164168606131983807472352 44:1 79:1 98:1 103:1 234:1 248:1 351:1 418:1 604:1 617:1 #
0.041180984164168606131983807472352 79:1 178:1 264:1 329:1 448:1 464:1 539:1 562:1 717:1 810:1 #
0.0025138476419770184634716603255811 24:1 29:1 33:1 46:1 54:1 71:1 76:1 79:1 96:1 106:1 112:1 125:1 127:1 129:1 151:1 156:1 164:1 172:1 178:1 208:1 230:1 234:1 243:1 251:1 261:1 264:1 267:1 269:1 271:1 292:1 302:1 322:1 326:1 327:1 329:1 338:1 340:1 375:1 383:1 398:1 401:1 472:1 474:1 483:1 493:1 520:1 567:1 605:1 609:1 629:1 641:1 650:1 690:1 710:1 765:1 766:1 776:1 795:1 810:1 816:1 821:1 837:1 #
-0.0082438346806699668023465932265026 2:1 7:1 21:1 23:1 24:1 48:1 49:1 76:1 89:1 92:1 107:1 111:1 113:1 117:1 119:1 121:1 127:1 143:1 158:1 178:1 185:1 186:1 200:1 207:1 230:1 234:1 242:1 252:1 265:1 290:1 299:1 305:1 306:1 314:1 321:1 331:1 342:1 351:1 352:1 373:1 375:1 394:1 398:1 405:1 418:1 420:1 425:1 432:1 436:1 451:1 463:1 465:1 470:1 489:1 512:1 542:1 543:1 551:1 555:1 558:1 567:1 575:1 577:1 582:1 605:1 606:1 622:1 631:1 632:1 647:1 657:1 666:1 678:1 697:1 700:1 711:1 712:1 715:1 720:1 732:1 740:1 745:1 756:1 764:1 774:1 783:1 784:1 790:1 793:1 798:1 810:1 817:1 840:1 859:1 862:1 #
-0.0027668456528200480008805595133481 76:1 79:1 91:1 98:1 111:1 143:1 234:1 248:1 351:1 416:1 418:1 577:1 604:1 809:1 831:1 #
-0.010140838386908851420642463381228 5:1 24:1 39:1 51:1 60:1 69:1 73:1 76:1 79:1 83:1 85:1 86:1 92:1 108:1 116:1 119:1 123:1 140:1 143:1 146:1 165:1 172:1 178:1 195:1 207:1 209:1 216:1 219:1 228:1 233:1 234:1 237:1 238:1 249:1 259:1 298:1 300:1 303:1 306:1 309:1 318:1 328:1 330:1 342:1 350:1 365:1 367:1 375:1 380:1 387:1 406:1 409:1 412:1 418:1 430:1 434:1 435:1 445:1 452:1 474:1 489:1 491:1 500:1 519:1 524:1 549:1 560:1 561:1 567:1 575:1 577:1 580:1 605:1 622:1 623:1 651:1 682:1 693:1 700:1 706:1 712:1 714:1 720:1 726:1 730:1 732:1 747:1 760:1 782:1 803:1 810:1 827:1 835:1 863:1 #
-0.041180984164168606131983807472352 79:1 149:1 234:1 264:1 311:1 810:1 #
-0.013222047056721138863499831472836 6:1 24:1 51:1 76:1 79:1 84:1 110:1 175:1 185:1 190:1 234:1 241:1 266:1 282:1 288:1 314:1 325:1 362:1 375:1 380:1 414:1 506:1 522:1 527:1 549:1 554:1 570:1 577:1 595:1 604:1 605:1 646:1 674:1 682:1 692:1 700:1 724:1 725:1 751:1 769:1 789:1 791:1 853:1 857:1 861:1 #
0.041180984164168606131983807472352 6:1 51:1 153:1 178:1 190:1 241:1 314:1 376:1 463:1 506:1 522:1 523:1 538:1 549:1 570:1 577:1 595:1 648:1 689:1 #
0.041180984164168606131983807472352 79:1 108:1 264:1 275:1 286:1 342:1 375:1 380:1 387:1 648:1 668:1 779:1 810:1 832:1 #
0.041180984164168606131983807472352 24:1 79:1 178:1 264:1 298:1 329:1 501:1 554:1 629:1 635:1 782:1 #
0.025191343714088945682227915767726 2:1 6:1 45:1 47:1 57:1 74:1 97:1 108:1 118:1 119:1 127:1 153:1 158:1 161:1 190:1 197:1 200:1 203:1 218:1 222:1 232:1 240:1 242:1 303:1 323:1 331:1 332:1 342:1 345:1 348:1 356:1 360:1 371:1 374:1 417:1 436:1 447:1 459:1 468:1 470:1 480:1 489:1 506:1 511:1 513:1 514:1 522:1 537:1 545:1 567:1 570:1 576:1 587:1 595:1 604:1 609:1 614:1 622:1 625:1 627:1 680:1 689:1 692:1 700:1 732:1 742:1 745:1 749:1 765:1 786:1 791:1 794:1 810:1 816:1 837:1 841:1 #
0.00021780679340861405779428139339871 10:1 24:1 26:1 40:1 63:1 71:1 81:1 87:1 88:1 92:1 94:1 108:1 114:1 119:1 120:1 129:1 130:1 148:1 153:1 172:1 178:1 181:1 217:1 224:1 230:1 234:1 239:1 250:1 264:1 286:1 301:1 306:1 308:1 326:1 329:1 332:1 333:1 338:1 357:1 360:1 364:1 367:1 375:1 380:1 395:1 396:1 403:1 418:1 424:1 431:1 454:1 458:1 466:1 474:1 483:1 484:1 501:1 505:1 520:1 533:1 557:1 558:1 566:1 568:1 575:1 588:1 589:1 594:1 596:1 603:1 605:1 608:1 611:1 635:1 662:1 669:1 672:1 686:1 700:1 704:1 728:1 732:1 739:1 746:1 765:1 768:1 779:1 796:1 801:1 810:1 841:1 #
-0.041180984164168606131983807472352 26:1 108:1 120:1 169:1 178:1 264:1 329:1 338:1 375:1 403:1 676:1 810:1 #
-0.041180984164168606131983807472352 31:1 79:1 264:1 342:1 375:1 530:1 716:1 #
-0.041180984164168606131983807472352 31:1 79:1 187:1 264:1 342:1 375:1 476:1 #
-0.036867645935230203280141836330586 79:1 87:1 178:1 197:1 247:1 289:1 502:1 506:1 605:1 608:1 705:1 810:1 #
-0.041180984164168606131983807472352 79:1 350:1 810:1 #
0.041180984164168606131983807472352 24:1 40:1 56:1 79:1 189:1 196:1 234:1 291:1 298:1 347:1 375:1 455:1 517:1 535:1 575:1 593:1 607:1 611:1 616:1 662:1 696:1 700:1 796:1 810:1 844:1 #
0.041180984164168606131983807472352 24:1 79:1 82:1 172:1 185:1 234:1 263:1 264:1 272:1 298:1 342:1 375:1 464:1 533:1 554:1 575:1 663:1 753:1 759:1 785:1 810:1 #
0.033783937915093258108623075486321 9:1 50:1 56:1 79:1 92:1 100:1 189:1 196:1 234:1 255:1 298:1 375:1 546:1 558:1 591:1 607:1 611:1 624:1 642:1 662:1 696:1 700:1 796:1 810:1 839:1 843:1 844:1 865:1 #
0.027806846041773605054947537951193 24:1 71:1 87:1 92:1 108:1 153:1 156:1 172:1 178:1 203:1 230:1 264:1 284:1 308:1 342:1 354:1 367:1 369:1 375:1 533:1 558:1 586:1 608:1 611:1 662:1 676:1 700:1 753:1 785:1 796:1 810:1 820:1 822:1 #
0.034349470951270083540762811935565 28:1 79:1 178:1 183:1 185:1 191:1 211:1 264:1 298:1 329:1 375:1 449:1 464:1 562:1 640:1 717:1 810:1 #
-0.029458326943263349328994138431881 12:1 19:1 24:1 76:1 79:1 115:1 172:1 174:1 178:1 223:1 230:1 256:1 306:1 367:1 494:1 496:1 497:1 565:1 575:1 630:1 636:1 648:1 667:1 691:1 709:1 725:1 810:1 #
-0.025281321873874010308647086731071 6:1 38:1 51:1 59:1 79:1 86:1 92:1 98:1 139:1 178:1 190:1 234:1 241:1 245:1 268:1 314:1 375:1 474:1 501:1 506:1 509:1 522:1 549:1 554:1 570:1 572:1 575:1 577:1 595:1 604:1 612:1 630:1 648:1 710:1 724:1 740:1 810:1 861:1 #
-0.041180984164168606131983807472352 79:1 234:1 314:1 810:1 #
-0.016805270298296638015189685688711 58:1 90:1 92:1 102:1 108:1 173:1 178:1 264:1 278:1 280:1 315:1 342:1 348:1 375:1 427:1 458:1 474:1 481:1 486:1 499:1 542:1 558:1 575:1 601:1 604:1 605:1 626:1 677:1 692:1 867:1 #
0.025744047891262319960326010459539 79:1 178:1 211:1 264:1 298:1 329:1 367:1 501:1 562:1 599:1 629:1 635:1 717:1 788:1 810:1 #
0.041180984164168606131983807472352 79:1 178:1 211:1 264:1 298:1 329:1 367:1 562:1 629:1 635:1 717:1 782:1 810:1 #
0.018262788365665656026282093193913 46:1 76:1 79:1 96:1 105:1 112:1 129:1 142:1 178:1 202:1 208:1 244:1 252:1 254:1 258:1 264:1 267:1 271:1 277:1 292:1 296:1 314:1 322:1 327:1 329:1 342:1 375:1 404:1 407:1 438:1 464:1 520:1 550:1 629:1 668:1 699:1 759:1 804:1 810:1 824:1 837:1 #
0.016205406937892349178431672385159 79:1 178:1 211:1 261:1 264:1 298:1 329:1 367:1 501:1 562:1 629:1 635:1 717:1 766:1 810:1 #
-0.013875976352972142768837926496417 27:1 79:1 143:1 145:1 155:1 166:1 178:1 188:1 212:1 230:1 258:1 295:1 298:1 351:1 375:1 377:1 381:1 462:1 552:1 575:1 577:1 605:1 630:1 633:1 705:1 707:1 763:1 777:1 800:1 810:1 858:1 #
0.014330065016059054597286070986684 16:1 17:1 20:1 24:1 26:1 43:1 46:1 53:1 54:1 56:1 62:1 68:1 71:1 76:1 77:1 79:1 119:1 125:1 128:1 150:1 156:1 167:1 172:1 176:1 230:1 234:1 245:1 271:1 284:1 297:1 298:1 306:1 314:1 329:1 338:1 340:1 342:1 366:1 370:1 375:1 378:1 386:1 389:1 398:1 474:1 493:1 529:1 542:1 575:1 577:1 605:1 611:1 622:1 630:1 637:1 700:1 710:1 719:1 732:1 765:1 766:1 775:1 810:1 811:1 812:1 818:1 841:1 851:1 #
-0.0096928146128771371786703170414512 79:1 116:1 119:1 132:1 143:1 161:1 178:1 184:1 283:1 314:1 317:1 329:1 356:1 375:1 397:1 463:1 489:1 492:1 542:1 556:1 567:1 575:1 577:1 605:1 622:1 623:1 673:1 681:1 750:1 773:1 816:1 845:1 #
-0.026861060622561931665597256824185 79:1 234:1 397:1 579:1 799:1 #
-0.014960634471025744882122232581878 76:1 79:1 151:1 234:1 279:1 375:1 398:1 569:1 577:1 710:1 #
0.018916885281650343275661185771241 24:1 33:1 46:1 54:1 61:1 71:1 76:1 79:1 80:1 106:1 112:1 129:1 156:1 164:1 172:1 178:1 227:1 230:1 234:1 243:1 264:1 271:1 322:1 329:1 338:1 340:1 375:1 398:1 402:1 474:1 483:1 493:1 629:1 649:1 660:1 699:1 710:1 718:1 810:1 816:1 837:1 #
0.0041326607406253906829007860324054 2:1 14:1 16:1 24:1 34:1 43:1 56:1 76:1 79:1 80:1 119:1 128:1 129:1 150:1 156:1 158:1 176:1 180:1 203:1 226:1 227:1 234:1 236:1 271:1 284:1 298:1 306:1 329:1 338:1 342:1 370:1 372:1 375:1 386:1 408:1 422:1 423:1 461:1 479:1 493:1 501:1 504:1 547:1 577:1 581:1 585:1 597:1 605:1 611:1 622:1 700:1 732:1 761:1 778:1 810:1 851:1 860:1 866:1 #
0.010866493577069369358412131987279 28:1 79:1 141:1 178:1 183:1 185:1 211:1 264:1 298:1 315:1 329:1 375:1 449:1 464:1 501:1 562:1 675:1 717:1 810:1 #
-0.0073447529809635234837594808254835 24:1 67:1 76:1 79:1 99:1 143:1 152:1 178:1 253:1 257:1 293:1 313:1 400:1 441:1 518:1 521:1 575:1 743:1 829:1 836:1 847:1 #
-0.016956310349489491645647021300647 135:1 319:1 375:1 528:1 #
0.0031477888586528557368637848412618 24:1 56:1 76:1 79:1 98:1 101:1 131:1 136:1 144:1 147:1 154:1 162:1 189:1 196:1 234:1 243:1 250:1 298:1 322:1 375:1 413:1 442:1 460:1 478:1 485:1 495:1 498:1 542:1 546:1 574:1 575:1 611:1 629:1 662:1 700:1 701:1 723:1 758:1 780:1 796:1 810:1 819:1 843:1 844:1 #
-0.0017991852390349470213609661684018 79:1 85:1 127:1 143:1 157:1 158:1 163:1 171:1 178:1 179:1 234:1 245:1 250:1 270:1 329:1 343:1 359:1 375:1 379:1 418:1 474:1 477:1 531:1 536:1 571:1 573:1 575:1 577:1 605:1 622:1 647:1 659:1 683:1 721:1 741:1 #
-0.0035563867988260711855419415883262 76:1 85:1 140:1 234:1 246:1 329:1 344:1 356:1 375:1 542:1 575:1 577:1 592:1 721:1 725:1 828:1 834:1 #
0.0051535558091782007750225602649152 30:1 79:1 178:1 211:1 264:1 298:1 329:1 367:1 501:1 539:1 562:1 629:1 635:1 717:1 810:1 #
0.0052647368109704634209222717800003 28:1 79:1 178:1 183:1 185:1 211:1 264:1 298:1 310:1 329:1 375:1 449:1 464:1 501:1 562:1 717:1 736:1 810:1 814:1 #
-0.02061722603363680406118874088861 53:1 613:1 #
-0.0029501685224902068904739849131147 79:1 92:1 111:1 194:1 234:1 375:1 577:1 721:1 834:1 #
-0.0018591475755725872173740320647539 42:1 79:1 111:1 234:1 375:1 380:1 497:1 577:1 781:1 #
-0.0055037450862701516041131100109851 111:1 805:1 #
