SVM-light Version V6.02
0 # kernel type
3 # kernel parameter -d 
1 # kernel parameter -g 
1 # kernel parameter -s 
1 # kernel parameter -r 
empty# kernel parameter -u 
200 # highest feature index 
10 # number of training documents 
11 # number of support vectors plus 1 
0.85528671 # threshold b, each following line is a SV (starting with alpha*y)
-177.90102858132345886588154826313 2:0.0016110932 4:0.0012187449 10:0.0040485831 12:0.00062713341 17:0.0040485831 18:0.0040485831 19:0.00062713341 21:0.0012542668 24:0.0036562348 31:0.0080971662 32:0.00062713341 33:0.00062713341 34:0.00062713341 36:0.00062713341 38:0.0040485831 42:0.00062713341 44:0.0012187449 48:0.0040485831 54:0.00062713341 55:0.00062713341 56:0.00062713341 57:0.0011770447 58:0.00062713341 67:0.00062713341 68:0.0012542668 71:0.00062713341 73:0.0080971662 82:0.0012542668 89:0.0021169181 91:0.00062713341 95:0.0012542668 98:0.0040485831 101:0.0021169181 109:0.00062713341 118:0.0025085337 120:0.0040485831 126:0.0040485831 130:0.00062713341 131:0.000185253 137:0.00062713341 138:0.00062713341 140:0.000185253 144:0.00062713341 146:0.00062713341 147:0.00062713341 148:0.00062713341 153:0.0012542668 154:0.0012542668 155:0.0012187449 158:0.00039234824 159:0.00062713341 162:0.0018814004 166:0.00062713341 168:0.00062713341 169:0.0042338362 170:0.00062713341 182:0.0040485831 184:0.0012542668 187:0.0018814004 192:0.0040485831 193:0.0012542668 194:0.0040485831 195:0.00062713341 198:0.0080971662 #
-160.16530590825354352091380860656 11:0.0023239055 12:0.00068845315 19:0.00068845315 21:0.00068845315 24:0.0026758222 27:0.0088888891 32:0.00068845315 33:0.00068845315 34:0.00068845315 36:0.00068845315 42:0.00068845315 43:0.0044444446 50:0.0026758222 54:0.00068845315 55:0.00068845315 56:0.00068845315 57:0.00086142233 58:0.00068845315 67:0.00068845315 68:0.00068845315 71:0.00068845315 72:0.0053058667 74:0.0044444446 75:0.0044444446 76:0.0044444446 81:0.0088888891 82:0.00068845315 83:0.0031065333 86:0.0044444446 91:0.00068845315 94:0.0044444446 95:0.0013769063 101:0.0046478109 109:0.00068845315 118:0.0027538126 130:0.00068845315 131:0.00061009987 137:0.00068845315 138:0.00068845315 140:0.00020336662 144:0.00068845315 146:0.00068845315 147:0.00068845315 148:0.00068845315 151:0.0062130666 153:0.0013769063 154:0.00068845315 158:0.00043071117 159:0.00068845315 162:0.0020653594 165:0.0044444446 166:0.00068845315 168:0.0020653594 170:0.00068845315 173:0.0031065333 184:0.0013769063 187:0.0013769063 193:0.0013769063 195:0.00068845315 #
-249.08608834507424489856930449605 4:0.0014266825 12:0.00073413254 19:0.00073413254 21:0.0014682651 23:0.0047393367 24:0.0028533649 32:0.00073413254 33:0.00073413254 34:0.00073413254 36:0.00073413254 42:0.00073413254 44:0.0014266825 51:0.0047393367 54:0.00073413254 55:0.00073413254 56:0.00073413254 57:0.0009185783 58:0.00073413254 67:0.00073413254 68:0.0014682651 69:0.0094786733 71:0.00073413254 82:0.0014682651 87:0.0047393367 89:0.0024780983 91:0.00073413254 95:0.0014682651 109:0.00073413254 118:0.0029365302 129:0.0033126541 130:0.00073413254 131:0.00021686015 137:0.00073413254 138:0.00073413254 140:0.00021686015 144:0.00073413254 146:0.00073413254 147:0.00073413254 148:0.00073413254 152:0.0047393367 153:0.0014682651 154:0.00073413254 155:0.0014266825 156:0.0047393367 158:0.00045928915 159:0.00073413254 162:0.0022023974 166:0.00073413254 168:0.00073413254 169:0.0049561965 170:0.00073413254 184:0.00073413254 187:0.0022023974 193:0.0014682651 195:0.00073413254 #
-298.14784842612351667412440292537 4:0.001468439 12:0.00075561932 19:0.00075561932 21:0.0015112386 32:0.00075561932 33:0.00075561932 34:0.00075561932 36:0.00075561932 42:0.00075561932 44:0.001468439 50:0.001468439 54:0.00075561932 55:0.00075561932 56:0.00075561932 57:0.0014181953 58:0.00075561932 67:0.00075561932 68:0.0015112386 71:0.00075561932 80:0.0048780488 82:0.0015112386 91:0.00075561932 95:0.0015112386 109:0.00075561932 111:0.0034096097 117:0.0048780488 118:0.0015112386 121:0.0097560976 130:0.00075561932 131:0.00022320727 136:0.0048780488 137:0.00075561932 138:0.00075561932 140:0.00022320727 144:0.00075561932 145:0.0097560976 146:0.00075561932 147:0.00075561932 148:0.00075561932 150:0.0019411708 153:0.0015112386 154:0.00075561932 155:0.001468439 158:0.00047273177 159:0.00075561932 162:0.002266858 166:0.00075561932 168:0.00075561932 170:0.00075561932 173:0.0034096097 184:0.00075561932 185:0.0048780488 187:0.002266858 190:0.0048780488 193:0.0015112386 195:0.00075561932 #
-212.73364956141585935256443917751 11:0.0049797976 12:0.00073762838 19:0.00073762838 21:0.00073762838 24:0.0043004286 32:0.00073762838 33:0.00073762838 34:0.00073762838 36:0.00073762838 39:0.0095238099 40:0.0047619049 42:0.00073762838 50:0.0014334762 54:0.00073762838 55:0.00073762838 56:0.00073762838 57:0.00092295249 58:0.00073762838 67:0.00073762838 68:0.00073762838 71:0.00073762838 72:0.0018949524 82:0.00073762838 83:0.0033284286 91:0.00073762838 95:0.0014752568 96:0.0047619049 101:0.0024898988 109:0.00073762838 114:0.0047619049 118:0.0029505135 130:0.00073762838 131:0.00043578562 133:0.0024898988 137:0.00073762838 138:0.00073762838 140:0.00021789281 144:0.00073762838 146:0.00073762838 147:0.00073762838 148:0.00073762838 151:0.0033284286 153:0.0014752568 154:0.00073762838 158:0.00046147624 159:0.00073762838 162:0.0022128851 166:0.00073762838 168:0.0014752568 170:0.00073762838 184:0.0014752568 186:0.0047619049 187:0.0014752568 193:0.0014752568 195:0.00073762838 200:0.0047619049 #
389.57853611324077292010770179331 2:0.0027827972 3:0.0069930069 5:0.013986014 7:0.0069930069 8:0.010969484 9:0.0069930069 14:0.0036564947 15:0.0069930069 20:0.0036564947 22:0.0036564947 26:0.0069930069 29:0.0036564947 47:0.0069930069 52:0.0069930069 53:0.0069930069 57:0.00067769241 59:0.0069930069 65:0.0048879022 66:0.0055655944 70:0.0069930069 72:0.0027827972 85:0.0069930069 99:0.0069930069 102:0.020979021 103:0.0036564947 104:0.0069930069 106:0.0069930069 111:0.0048879022 113:0.0069930069 116:0.0036564947 119:0.0036564947 123:0.0069930069 124:0.0069930069 125:0.0036564947 128:0.0069930069 132:0.0036564947 135:0.0036564947 139:0.0073129893 142:0.0073129893 149:0.0069930069 150:0.0083483914 158:0.00067769241 163:0.020979021 169:0.0036564947 172:0.0069930069 174:0.0069930069 175:0.0069930069 178:0.0036564947 179:0.0073129893 181:0.0069930069 189:0.0036564947 #
479.6255648752213005536759737879 2:0.0038634953 8:0.010152985 14:0.0050764927 20:0.0050764927 22:0.0050764927 29:0.010152985 41:0.009708738 50:0.0029226213 61:0.009708738 66:0.0077269906 79:0.019417476 103:0.0050764927 105:0.009708738 115:0.009708738 116:0.0050764927 119:0.0050764927 125:0.0050764927 131:0.00044424747 132:0.0050764927 134:0.0067861164 135:0.0050764927 139:0.0050764927 140:0.00044424747 142:0.0050764927 150:0.0077269906 161:0.009708738 167:0.009708738 178:0.0050764927 179:0.015229478 183:0.0067861164 189:0.0050764927 199:0.009708738 #
607.98591964334093518118606880307 2:0.0037899048 8:0.014939393 14:0.0049797976 20:0.0049797976 22:0.0049797976 29:0.0099595953 50:0.0028669524 64:0.0095238099 65:0.013313714 66:0.0075798095 93:0.0095238099 103:0.0049797976 116:0.0049797976 119:0.0049797976 125:0.0049797976 131:0.00043578562 132:0.0049797976 134:0.0066568572 135:0.0049797976 139:0.0049797976 140:0.00043578562 142:0.0099595953 150:0.0037899048 164:0.0095238099 171:0.0095238099 178:0.0049797976 179:0.014939393 180:0.0095238099 183:0.0066568572 189:0.0049797976 #
-154.75914772701725041770259849727 4:0.0012388065 11:0.0021517645 12:0.0006374566 19:0.0006374566 21:0.0012749132 24:0.002477613 25:0.0041152262 32:0.0006374566 33:0.0006374566 34:0.0006374566 36:0.0006374566 37:0.0041152262 42:0.0006374566 44:0.0012388065 45:0.0082304524 46:0.0041152262 54:0.0006374566 55:0.0006374566 56:0.0006374566 57:0.00079761329 58:0.0006374566 63:0.0041152262 66:0.0016376132 67:0.0006374566 68:0.0012749132 71:0.0006374566 77:0.0041152262 78:0.0041152262 82:0.0012749132 88:0.0041152262 90:0.0028764198 91:0.0006374566 95:0.0012749132 97:0.0041152262 100:0.0041152262 109:0.0006374566 112:0.0041152262 118:0.0044621965 127:0.0041152262 130:0.0006374566 131:0.00018830242 133:0.0021517645 137:0.0006374566 138:0.0006374566 140:0.00018830242 141:0.0041152262 144:0.0006374566 146:0.0006374566 147:0.0006374566 148:0.0006374566 153:0.0012749132 154:0.0006374566 155:0.0012388065 157:0.0041152262 158:0.0011964199 159:0.0006374566 160:0.0041152262 162:0.0019123699 166:0.0006374566 168:0.0006374566 170:0.0006374566 176:0.012345679 184:0.0006374566 187:0.0019123699 193:0.0012749132 195:0.0006374566 #
-224.39695208259257697136490605772 4:0.0013621267 12:0.00070091384 19:0.00070091384 21:0.0014018277 30:0.0045248871 32:0.00070091384 33:0.00070091384 34:0.00070091384 36:0.00070091384 42:0.00070091384 44:0.0013621267 54:0.00070091384 55:0.00070091384 56:0.00070091384 57:0.00087701372 58:0.00070091384 60:0.0090497741 62:0.0045248871 67:0.00070091384 68:0.0014018277 71:0.0014018277 72:0.0018006335 82:0.0014018277 89:0.0023659673 90:0.0031627603 91:0.00070091384 95:0.0014018277 108:0.0045248871 109:0.00070091384 118:0.004205483 122:0.0045248871 129:0.0031627603 130:0.00070091384 131:0.00020704747 133:0.0023659673 137:0.00070091384 138:0.00070091384 140:0.00020704747 143:0.0045248871 144:0.00070091384 146:0.00070091384 147:0.00070091384 148:0.00070091384 153:0.0014018277 154:0.00070091384 155:0.0013621267 158:0.00087701372 159:0.00070091384 162:0.0021027415 166:0.00070091384 168:0.00070091384 170:0.00070091384 177:0.0045248871 184:0.00070091384 187:0.0021027415 191:0.0045248871 193:0.0014018277 195:0.00070091384 #
