SVM-light Version V6.02
0 # kernel type
3 # kernel parameter -d 
1 # kernel parameter -g 
1 # kernel parameter -s 
1 # kernel parameter -r 
empty# kernel parameter -u 
127 # highest feature index 
11 # number of training documents 
12 # number of support vectors plus 1 
0.73663993 # threshold b, each following line is a SV (starting with alpha*y)
-0.024045891357068298332944067396966 7:1 21:1 27:1 41:1 44:1 46:1 50:1 51:1 59:1 61:1 67:1 71:1 72:1 73:1 75:1 87:1 97:1 101:1 117:1 #
-0.031878123162212022856376592017114 8:1 12:1 20:1 21:1 26:1 32:1 40:1 41:1 42:1 51:1 52:1 61:1 65:1 68:1 71:1 87:1 92:1 102:1 110:1 118:1 119:1 #
-0.0039563110408158443098702861107085 22:1 28:1 36:1 37:1 41:1 44:1 49:1 55:1 63:1 67:1 72:1 73:1 77:1 78:1 86:1 88:1 93:1 95:1 97:1 98:1 99:1 100:1 102:1 104:1 109:1 110:1 111:1 117:1 122:1 #
-0.012193022624999752881458370268319 2:1 9:1 11:1 12:1 13:1 19:1 20:1 23:1 25:1 28:1 31:1 35:1 36:1 41:1 42:1 49:1 50:1 52:1 53:1 55:1 58:1 64:1 66:1 70:1 76:1 78:1 79:1 80:1 84:1 88:1 90:1 91:1 92:1 93:1 100:1 103:1 104:1 109:1 110:1 116:1 117:1 124:1 125:1 #
-0.0077677408358578295399787805308733 5:1 14:1 38:1 39:1 41:1 44:1 51:1 57:1 67:1 72:1 73:1 74:1 82:1 86:1 87:1 94:1 96:1 97:1 98:1 107:1 109:1 110:1 117:1 127:1 #
0.039920333879420226430578821918971 5:1 10:1 18:1 29:1 33:1 34:1 38:1 41:1 42:1 47:1 51:1 56:1 57:1 80:1 87:1 92:1 96:1 107:1 109:1 110:1 117:1 119:1 124:1 126:1 127:1 #
0.039920333879420226430578821918971 12:1 15:1 18:1 21:1 32:1 33:1 40:1 41:1 42:1 47:1 50:1 51:1 52:1 56:1 61:1 65:1 71:1 87:1 92:1 101:1 102:1 117:1 118:1 119:1 #
0.039920333879420226430578821918971 12:1 18:1 24:1 33:1 38:1 41:1 47:1 54:1 56:1 60:1 75:1 80:1 81:1 85:1 89:1 92:1 104:1 106:1 110:1 117:1 119:1 124:1 #
0.039920333879420226430578821918971 3:1 4:1 12:1 16:1 18:1 28:1 30:1 33:1 43:1 47:1 48:1 52:1 56:1 62:1 69:1 78:1 80:1 87:1 88:1 92:1 103:1 104:1 113:1 114:1 115:1 120:1 123:1 #
-0.039920333879420226430578821918971 3:1 4:1 6:1 12:1 17:1 20:1 43:1 45:1 48:1 52:1 62:1 69:1 78:1 80:1 87:1 92:1 104:1 110:1 112:1 113:1 114:1 115:1 120:1 #
-0.039920333879420226430578821918971 5:1 10:1 20:1 26:1 29:1 34:1 38:1 41:1 42:1 51:1 57:1 80:1 87:1 92:1 96:1 108:1 109:1 110:1 119:1 124:1 126:1 127:1 #
