SVM-light Version V6.02
0 # kernel type
3 # kernel parameter -d 
1 # kernel parameter -g 
1 # kernel parameter -s 
1 # kernel parameter -r 
empty# kernel parameter -u 
4 # highest feature index 
11 # number of training documents 
10 # number of support vectors plus 1 
0.94931563 # threshold b, each following line is a SV (starting with alpha*y)
-0.058685445637390462603200091962208 1:5 #
0.058685445637390462603200091962208 1:5 2:1 #
0.058685445637390462603200091962208 1:4 2:3 #
-0.058685445637390462603200091962208 1:5 #
0.058685445637390462603200091962208 1:4 2:1 #
-0.050682898807592469125893330783583 3:1 #
0.058685445637390462603200091962208 1:4 2:1 #
-0.0080025836285915197265694587258622 1:8 4:1 #
-0.058685445637390462603200091962208 1:6 #
