SVM-light Version V6.02
0 # kernel type
3 # kernel parameter -d 
1 # kernel parameter -g 
1 # kernel parameter -s 
1 # kernel parameter -r 
empty# kernel parameter -u 
107 # highest feature index 
9 # number of training documents 
10 # number of support vectors plus 1 
0.96786805 # threshold b, each following line is a SV (starting with alpha*y)
-2.6373723156507824505467851849971 2:0.0074550197 5:0.0074550197 6:0.0074550197 7:0.0074550197 9:0.0074550197 10:0.0074550197 12:0.014910039 16:0.0074550197 17:0.014910039 18:0.0074550197 20:0.0074550197 21:0.0074550197 22:0.0074550197 23:0.0074550197 24:0.0074550197 27:0.0074550197 28:0.0074550197 31:0.0074550197 32:0.0074550197 34:0.0074550197 35:0.0074550197 36:0.0074550197 39:0.0074550197 40:0.0074550197 43:0.0074550197 44:0.00039962909 45:0.052185137 46:0.0074550197 47:0.0074550197 49:0.0074550197 50:0.014910039 53:0.0074550197 54:0.0074550197 56:0.014910039 58:0.0074550197 60:0.0074550197 67:0.0074550197 69:0.0074550197 70:0.0074550197 71:0.0074550197 72:0.02236506 79:0.00039962909 80:0.0074550197 81:0.015309668 83:0.0051032226 84:0.00039962909 85:0.0074550197 86:0.029820079 87:0.014910039 89:0.0037275099 91:0.0074550197 92:0.0074550197 95:0.0074550197 96:0.0074550197 99:0.0074550197 103:0.00039962909 104:0.0074550197 106:0.0074550197 107:0.0074550197 #
-102.20395831056382007773208897561 11:0.00090535439 15:0.00096588029 19:0.016889248 26:0.0004526772 29:0.0019317606 30:0.00090535439 37:0.0022590486 38:0.0022590486 41:0.0004526772 44:0.0004526772 57:0.00096588029 59:0.0004526772 61:0.00096588029 63:0.0028976407 65:0.00096588029 73:0.0022590486 74:0.00090535439 76:0.00096588029 77:0.0022590486 79:0.0004526772 83:0.0057806419 84:0.0004526772 90:0.0004526772 97:0.0019317606 103:0.0004526772 105:0.0048294012 #
-114.57215336790886794915422797203 11:0.00090535439 15:0.00096588029 26:0.0004526772 29:0.0019317606 30:0.00090535439 37:0.0022590486 38:0.0022590486 41:0.0004526772 44:0.0004526772 52:0.016889248 57:0.00096588029 59:0.0004526772 61:0.00096588029 63:0.0028976407 65:0.00096588029 73:0.0022590486 74:0.00090535439 76:0.00096588029 77:0.0022590486 79:0.0004526772 84:0.0004526772 90:0.0004526772 97:0.0019317606 103:0.00090535439 105:0.0048294012 #
-114.57215336790881110573536716402 11:0.00090535439 15:0.00096588029 26:0.0004526772 29:0.0019317606 30:0.00090535439 37:0.0022590486 38:0.0022590486 41:0.0004526772 42:0.016889248 44:0.0004526772 57:0.00096588029 59:0.0004526772 61:0.00096588029 63:0.0028976407 65:0.00096588029 73:0.0022590486 74:0.00090535439 76:0.00096588029 77:0.0022590486 79:0.0004526772 84:0.0004526772 90:0.0004526772 97:0.0019317606 103:0.00090535439 105:0.0048294012 #
-17.782853197591315108638809761032 4:0.014910039 8:0.014910039 11:0.00079925818 15:0.0017053824 26:0.00039962909 29:0.0017053824 30:0.00079925818 41:0.00039962909 44:0.00039962909 46:0.0074550197 55:0.0074550197 57:0.00085269118 59:0.00039962909 61:0.00085269118 63:0.0034107647 64:0.0074550197 65:0.00085269118 66:0.0074550197 74:0.00079925818 75:0.010206445 76:0.00085269118 78:0.0051032226 79:0.00039962909 84:0.00039962909 89:0.0037275099 90:0.00039962909 93:0.0051032226 97:0.0017053824 100:0.0051032226 102:0.014910039 103:0.00079925818 105:0.005116147 #
834.62941254401914648042293265462 3:0.008444624 11:0.00090535439 15:0.00096588029 25:0.016889248 26:0.0004526772 29:0.00096588029 30:0.00090535439 37:0.0022590486 38:0.0022590486 41:0.0004526772 44:0.0004526772 57:0.00096588029 59:0.0004526772 61:0.00096588029 63:0.0028976407 65:0.00096588029 73:0.0022590486 74:0.00090535439 76:0.00096588029 77:0.0022590486 79:0.0004526772 84:0.0004526772 90:0.0004526772 97:0.0019317606 103:0.00090535439 105:0.0048294012 #
-429.63282973881229054313735105097 11:0.00090535439 15:0.00096588029 26:0.0004526772 29:0.0019317606 30:0.00090535439 37:0.0022590486 38:0.0022590486 41:0.0004526772 44:0.0004526772 57:0.00096588029 59:0.0004526772 61:0.00096588029 63:0.0028976407 65:0.00096588029 73:0.0022590486 74:0.00090535439 76:0.00096588029 77:0.0022590486 79:0.0004526772 84:0.0004526772 90:0.0004526772 97:0.0038635212 98:0.008444624 103:0.00090535439 105:0.0038635212 #
-2.0385298586084257266293207067065 11:0.00093004585 14:0.035629772 26:0.00093004585 30:0.0018600917 41:0.00093004585 48:0.017349863 50:0.017349863 59:0.00093004585 62:0.034699727 68:0.034699727 74:0.00093004585 81:0.023753183 88:0.023753183 90:0.0018600917 94:0.017349863 #
-51.189562386965441476149862864986 11:0.00079925818 13:0.0074550197 14:0.0051032226 15:0.0017053824 26:0.00039962909 29:0.0025580735 30:0.0011988872 33:0.0074550197 41:0.00039962909 44:0.00079925818 46:0.0037275099 50:0.0037275099 57:0.00085269118 59:0.00039962909 61:0.00085269118 63:0.0017053824 65:0.00085269118 74:0.00079925818 75:0.010206445 76:0.00085269118 78:0.0051032226 79:0.00039962909 82:0.0074550197 84:0.00039962909 88:0.0051032226 89:0.0074550197 90:0.00079925818 93:0.0051032226 97:0.0025580735 100:0.0051032226 103:0.00039962909 105:0.005116147 #
