SVM-light Version V6.02
0 # kernel type
3 # kernel parameter -d 
1 # kernel parameter -g 
1 # kernel parameter -s 
1 # kernel parameter -r 
empty# kernel parameter -u 
213 # highest feature index 
15 # number of training documents 
15 # number of support vectors plus 1 
0.57814672 # threshold b, each following line is a SV (starting with alpha*y)
-72.840108046125706664497556630522 16:0.008127558 25:0.010175131 30:0.0014453002 36:0.0038487583 50:0.00072265009 54:0.0040951455 72:0.020024346 75:0.0014453002 78:0.02735096 85:0.01367548 92:0.01367548 101:0.010175131 106:0.02735096 109:0.0011268606 141:0.01367548 142:0.00072265009 148:0.0061427183 179:0.00072265009 180:0.0031356863 196:0.024382675 198:0.020350263 202:0.0014453002 205:0.010175131 #
-92.138978724241198392519436310977 16:0.0098446477 30:0.0017506452 36:0.0046618762 44:0.0098446477 50:0.00087532261 52:0.016564665 54:0.0049603172 72:0.016169894 75:0.0017506452 102:0.016564665 109:0.0013649297 137:0.012324806 142:0.00087532261 143:0.016564665 148:0.0024801586 158:0.016564665 179:0.00087532261 180:0.0021100861 182:0.016564665 196:0.029533943 198:0.012324806 202:0.00087532261 205:0.012324806 208:0.0067200176 #
-70.333334401327505247536464594305 4:0.009719762 7:0.009719762 11:0.004859881 12:0.004859881 16:0.0028883058 21:0.004859881 29:0.019439524 30:0.0012840476 35:0.009719762 36:0.0041032219 45:0.014579643 49:0.034019168 50:0.00051361904 54:0.0065488485 76:0.009719762 80:0.0072319112 84:0.009719762 87:0.004859881 89:0.009719762 90:0.014579643 99:0.0032887603 109:0.0012013637 126:0.004859881 128:0.0057766116 129:0.004859881 138:0.004859881 139:0.014463822 142:0.00051361904 146:0.009719762 148:0.00072764984 153:0.0023720299 154:0.02531169 165:0.014579643 178:0.011553223 179:0.0012840476 180:0.0022286696 184:0.004859881 190:0.004859881 191:0.004859881 194:0.004859881 196:0.014441529 201:0.009719762 202:0.00025680952 204:0.004859881 #
-87.747160545484916838177014142275 22:0.01031659 25:0.007675976 28:0.0061313156 30:0.0010903141 31:0.01031659 32:0.007675976 40:0.0023947479 48:0.018393947 50:0.00054515706 61:0.01031659 65:0.0019460417 68:0.03094977 69:0.01031659 75:0.0010903141 91:0.01031659 94:0.02063318 104:0.0071842442 109:0.00085008785 114:0.01031659 145:0.012555823 155:0.01031659 162:0.03094977 168:0.01031659 173:0.03094977 179:0.00054515706 180:0.0018398471 185:0.015106086 197:0.0061313156 212:0.007675976 #
-129.53952633019537188374670222402 2:0.010407887 13:0.020815775 15:0.0077439048 18:0.010407887 20:0.010407887 30:0.00054998149 36:0.0029291436 44:0.0061855754 47:0.010407887 48:0.018556725 50:0.00054998149 54:0.0031166594 60:0.020815775 65:0.0019632634 67:0.010407887 75:0.00054998149 98:0.0077439048 104:0.0024159404 107:0.010407887 108:0.010407887 109:0.00085761072 118:0.008444624 123:0.031223662 135:0.0039265268 142:0.00054998149 148:0.0031166594 149:0.010407887 153:0.010159845 175:0.008444624 177:0.004222312 180:0.0013258064 192:0.010407887 197:0.012371151 202:0.0016499445 206:0.01548781 212:0.01548781 #
167.03415623084063668102317024022 23:0.018891081 30:0.0011197821 40:0.0024594709 50:0.00055989105 54:0.0015864078 72:0.015514359 75:0.00055989105 99:0.0035850452 104:0.0024594709 109:0.00087306317 111:0.023650305 116:0.042381667 118:0.012895169 120:0.010595417 122:0.012594054 135:0.0019986373 142:0.00055989105 144:0.021190833 147:0.023650305 148:0.0031728155 153:0.0051714526 161:0.010595417 175:0.0042983899 179:0.00055989105 180:0.0021595117 202:0.0011197821 208:0.0042983899 #
167.03415623084063668102317024022 15:0.012500876 30:0.00088782725 33:0.033602607 40:0.0039000183 44:0.0099852858 54:0.0025155894 75:0.00088782725 79:0.016801303 98:0.012500876 100:0.016801303 109:0.0013844287 135:0.0063385358 142:0.00088782725 148:0.0050311787 150:0.033602607 153:0.0082004471 166:0.033602607 180:0.0017121842 185:0.02460134 186:0.016801303 202:0.0017756545 #
167.03415623084063668102317024022 5:0.026933387 6:0.071822368 30:0.0014232345 40:0.0020839791 42:0.008977796 50:0.0004744115 55:0.008977796 71:0.008977796 75:0.0014232345 99:0.00303771 104:0.0062519377 109:0.0022193133 111:0.020039571 118:0.0072842939 124:0.017955592 128:0.005335649 132:0.017955592 133:0.008977796 135:0.001693502 142:0.000948823 148:0.0026884163 157:0.008977796 179:0.0004744115 180:0.0011436344 199:0.008977796 202:0.001897646 210:0.017955592 #
167.03415623084063668102317024022 27:0.0098007601 28:0.0058247498 34:0.01960152 40:0.0022750106 50:0.00051789923 54:0.0014674271 56:0.0058247498 57:0.0098007601 62:0.0098007601 65:0.0018487396 66:0.0098007601 75:0.0010357985 81:0.0098007601 82:0.01960152 93:0.0098007601 99:0.0033161668 101:0.0072921771 105:0.014584354 109:0.00080758345 113:0.0098007601 135:0.0018487396 142:0.00051789923 145:0.0079520205 148:0.0014674271 167:0.0098007601 171:0.029402282 178:0.0058247498 179:0.0010357985 180:0.0014981611 183:0.029402282 185:0.0095671881 189:0.0098007601 193:0.0098007601 195:0.01960152 197:0.017474251 200:0.0098007601 202:0.0010357985 206:0.0072921771 #
167.03415623084063668102317024022 30:0.00076725811 40:0.0033703861 41:0.043558937 43:0.014519645 54:0.0021739663 56:0.017258519 64:0.043558937 65:0.0027388735 73:0.010803225 75:0.0015345162 104:0.0067407722 109:0.0023928399 112:0.043558937 118:0.017671157 135:0.0027388735 142:0.00076725811 145:0.011780771 175:0.023561543 177:0.0058903857 179:0.00076725811 180:0.0018495817 202:0.0023017742 208:0.0058903857 #
-142.06361694100814929697662591934 10:0.031820409 23:0.019062819 30:0.0028249049 36:0.0060180584 39:0.010691739 50:0.00056498096 54:0.0032016593 65:0.0020168067 75:0.00056498096 80:0.0079551022 104:0.0024818298 109:0.0017620003 118:0.013012398 122:0.04447991 127:0.010691739 128:0.0063542728 134:0.015910204 135:0.0020168067 142:0.00056498096 145:0.0086749317 147:0.023865307 169:0.010691739 175:0.013012398 177:0.0043374659 179:0.0011299619 180:0.0016343576 202:0.0016949429 208:0.0086749317 #
-141.34328432574491785089776385576 14:0.0085224006 17:0.0042612003 23:0.0075975 24:0.0042612003 26:0.0042612003 28:0.0025325001 30:0.00067552074 32:0.0063410238 36:0.0011992508 37:0.0085224006 46:0.0042612003 50:0.00022517357 56:0.0025325001 58:0.0042612003 63:0.0042612003 65:0.00080379983 72:0.0083192941 73:0.0031705119 74:0.034089603 75:0.00090069429 77:0.0042612003 83:0.0042612003 88:0.0042612003 96:0.0042612003 99:0.0014418117 103:0.0042612003 105:0.015852559 109:0.0010533697 119:0.0042612003 121:0.021306001 122:0.0075975 137:0.0031705119 139:0.0031705119 142:0.00022517357 148:0.00063801178 152:0.0085224006 159:0.0085224006 170:0.0085224006 172:0.0042612003 174:0.021306001 179:0.001576215 180:0.00086849922 181:0.0042612003 185:0.014558764 202:0.00022517357 211:0.0042612003 213:0.0085224006 #
-81.130938388608541345092817209661 19:0.018376427 30:0.00097106106 40:0.0042656451 50:0.00097106106 53:0.018376427 65:0.0034663868 75:0.0019421221 95:0.036752854 99:0.0062178127 104:0.0085312901 110:0.018376427 125:0.018376427 135:0.0034663868 140:0.018376427 142:0.00097106106 148:0.0082542775 151:0.036752854 156:0.018376427 163:0.018376427 176:0.018376427 177:0.0074550197 179:0.00097106106 180:0.0014045261 202:0.0029131831 #
-18.03383345146617244836306781508 3:0.02100163 40:0.0048750229 50:0.001109784 51:0.063004889 54:0.0031444868 65:0.003961585 70:0.02100163 131:0.02100163 136:0.084006518 154:0.046878282 179:0.001109784 188:0.063004889 207:0.02100163 #
