SVM-light Version V6.02
0 # kernel type
3 # kernel parameter -d 
1 # kernel parameter -g 
1 # kernel parameter -s 
1 # kernel parameter -r 
empty# kernel parameter -u 
213 # highest feature index 
15 # number of training documents 
16 # number of support vectors plus 1 
0.80895477 # threshold b, each following line is a SV (starting with alpha*y)
-0.015177830939688481334814973422453 16:1 25:1 30:1 36:1 50:1 54:1 72:1 75:1 78:1 85:1 92:1 101:1 106:1 109:1 141:1 142:1 148:1 179:1 180:1 196:1 198:1 202:1 205:1 #
-0.015320155835702663552067015473312 16:1 30:1 36:1 44:1 50:1 52:1 54:1 72:1 75:1 102:1 109:1 137:1 142:1 143:1 148:1 158:1 179:1 180:1 182:1 196:1 198:1 202:1 205:1 208:1 #
-0.0063238912429376750723442057733337 4:1 7:1 11:1 12:1 16:1 21:1 29:1 30:1 35:1 36:1 45:1 49:1 50:1 54:1 76:1 80:1 84:1 87:1 89:1 90:1 99:1 109:1 126:1 128:1 129:1 138:1 139:1 142:1 146:1 148:1 153:1 154:1 165:1 178:1 179:1 180:1 184:1 190:1 191:1 194:1 196:1 201:1 202:1 204:1 #
-0.01464723636464463317474749004532 22:1 25:1 28:1 30:1 31:1 32:1 40:1 48:1 50:1 61:1 65:1 68:1 69:1 75:1 91:1 94:1 104:1 109:1 114:1 145:1 155:1 162:1 168:1 173:1 179:1 180:1 185:1 197:1 212:1 #
-0.021679144381167712862801266737733 2:1 13:1 15:1 18:1 20:1 30:1 36:1 44:1 47:1 48:1 50:1 54:1 60:1 65:1 67:1 75:1 98:1 104:1 107:1 108:1 109:1 118:1 123:1 135:1 142:1 148:1 149:1 153:1 175:1 177:1 180:1 192:1 197:1 202:1 206:1 212:1 #
0.035194167043062711541789866487306 23:1 30:1 40:1 50:1 54:1 72:1 75:1 99:1 104:1 109:1 111:1 116:1 118:1 120:1 122:1 135:1 142:1 144:1 147:1 148:1 153:1 161:1 175:1 179:1 180:1 202:1 208:1 #
0.035194167043062711541789866487306 15:1 30:1 33:1 40:1 44:1 54:1 75:1 79:1 98:1 100:1 109:1 135:1 142:1 148:1 150:1 153:1 166:1 180:1 185:1 186:1 202:1 #
0.035194167043062711541789866487306 5:1 6:1 30:1 40:1 42:1 50:1 55:1 71:1 75:1 99:1 104:1 109:1 111:1 118:1 124:1 128:1 132:1 133:1 135:1 142:1 148:1 157:1 179:1 180:1 199:1 202:1 210:1 #
0.035194167043062711541789866487306 27:1 28:1 34:1 40:1 50:1 54:1 56:1 57:1 62:1 65:1 66:1 75:1 81:1 82:1 93:1 99:1 101:1 105:1 109:1 113:1 135:1 142:1 145:1 148:1 167:1 171:1 178:1 179:1 180:1 183:1 185:1 189:1 193:1 195:1 197:1 200:1 202:1 206:1 #
0.035194167043062711541789866487306 30:1 40:1 41:1 43:1 54:1 56:1 64:1 65:1 73:1 75:1 104:1 109:1 112:1 118:1 135:1 142:1 145:1 175:1 177:1 179:1 180:1 202:1 208:1 #
-0.035194167043062711541789866487306 19:1 30:1 40:1 50:1 53:1 65:1 75:1 95:1 99:1 104:1 110:1 125:1 135:1 140:1 142:1 148:1 151:1 156:1 163:1 176:1 177:1 179:1 180:1 202:1 #
-0.034578302944156390219543339981101 10:1 23:1 30:1 36:1 39:1 50:1 54:1 65:1 75:1 80:1 104:1 109:1 118:1 122:1 127:1 128:1 134:1 135:1 142:1 145:1 147:1 169:1 175:1 177:1 179:1 180:1 202:1 208:1 #
-0.0018749030847306537295171580126407 8:1 9:1 10:1 30:1 36:1 38:1 48:1 50:1 59:1 65:1 75:1 86:1 97:1 104:1 115:1 117:1 134:1 135:1 142:1 145:1 160:1 164:1 175:1 177:1 178:1 179:1 180:1 187:1 202:1 203:1 208:1 209:1 #
-0.020588413690510218301277234331792 3:1 40:1 50:1 51:1 54:1 65:1 70:1 131:1 136:1 154:1 179:1 188:1 207:1 #
-0.010586789932913094960942324007647 14:1 17:1 23:1 24:1 26:1 28:1 30:1 32:1 36:1 37:1 46:1 50:1 56:1 58:1 63:1 65:1 72:1 73:1 74:1 75:1 77:1 83:1 88:1 96:1 99:1 103:1 105:1 109:1 119:1 121:1 122:1 137:1 139:1 142:1 148:1 152:1 159:1 170:1 172:1 174:1 179:1 180:1 181:1 185:1 202:1 211:1 213:1 #
