SVM-light Version V6.02
0 # kernel type
3 # kernel parameter -d 
1 # kernel parameter -g 
1 # kernel parameter -s 
1 # kernel parameter -r 
empty# kernel parameter -u 
487 # highest feature index 
42 # number of training documents 
41 # number of support vectors plus 1 
-0.5977778 # threshold b, each following line is a SV (starting with alpha*y)
-23.481175889302118520163276116364 18:0.034080088 19:0.026284056 51:0.0031046923 100:0.11594637 193:0.011489378 219:0.11594637 307:0.11594637 411:0.11594637 480:0.11594637 #
-20.615994471298531465208725421689 36:0.10145308 44:0.20290616 51:0.0027166058 144:0.10145308 193:0.010053206 248:0.02153098 320:0.015189878 #
-20.616661801840482581837932229973 51:0.0027166058 169:0.20290616 193:0.010053206 248:0.02153098 320:0.015189878 394:0.10145308 415:0.10145308 #
-20.616661801840493239978968631476 51:0.0027166058 56:0.10145308 99:0.10145308 193:0.010053206 248:0.02153098 320:0.015189878 426:0.20290616 #
-20.627195630242272983423390542157 51:0.0027166058 189:0.20290616 193:0.010053206 248:0.02153098 266:0.10145308 281:0.10145308 320:0.015189878 #
32.843745373463178793826955370605 15:0.012882931 27:0.026828509 49:0.003326423 51:0.00034496581 63:0.012882931 88:0.012882931 101:0.0046179094 105:0.012882931 134:0.012882931 137:0.012882931 145:0.0081046773 164:0.012882931 165:0.025765862 168:0.012882931 176:0.012882931 179:0.025765862 184:0.012882931 185:0.025765862 186:0.012882931 193:0.0012765976 204:0.012882931 207:0.012882931 210:0.018527411 232:0.025765862 239:0.0054681855 242:0.012882931 260:0.018192509 286:0.025765862 288:0.012882931 300:0.012882931 305:0.012882931 310:0.012882931 311:0.012882931 315:0.014671099 320:0.0038577467 335:0.0081046773 352:0.025765862 364:0.012882931 366:0.020987608 377:0.012882931 402:0.014671099 409:0.0073355497 419:0.0081046773 430:0.012882931 475:0.010493804 482:0.0081046773 487:0.012882931 #
30.77337037113953499556373571977 27:0.0045680976 29:0.014294263 43:0.0033689151 46:0.0042062229 49:0.0090622557 82:0.017548641 84:0.0042062229 86:0.016559826 110:0.0087743206 112:0.0087743206 117:0.017548641 129:0.0087743206 133:0.0087743206 140:0.0087743206 151:0.0039781276 152:0.0058818166 160:0.0087743206 193:0.00086946646 201:0.0087743206 205:0.0087743206 210:0.0042062229 222:0.0087743206 228:0.0087743206 235:0.0027530051 236:0.0087743206 239:0.013034972 243:0.0087743206 260:0.0061952868 262:0.026322961 280:0.0087743206 313:0.0029409083 320:0.0013137192 324:0.0087743206 325:0.0087743206 339:0.0048341407 346:0.017548641 348:0.035097282 349:0.0087743206 366:0.0071471315 380:0.0042062229 382:0.0087743206 409:0.0049961042 412:0.0087743206 416:0.026322961 417:0.033119652 429:0.0087743206 433:0.0099922083 453:0.014294263 456:0.0033689151 462:0.0087743206 463:0.0071471315 486:0.0087743206 #
34.700298503429223728744545951486 9:0.0018179532 16:0.0088220071 18:0.0090756761 19:0.0049996846 22:0.0019569546 25:0.0044110036 27:0.002296462 28:0.0044110036 43:0.0016936122 46:0.0021145414 49:0.0045557534 51:0.00070867979 58:0.011855286 69:0.0018179532 71:0.0044110036 74:0.0035929873 101:0.0047433963 109:0.0068893861 113:0.017964937 130:0.0027749708 141:0.0031144784 148:0.0044110036 151:0.00099993695 152:0.0014784457 156:0.016936122 163:0.0031144784 167:0.0031144784 191:0.0033872244 194:0.0044110036 199:0.0083249127 210:0.0042290827 239:0.0037445184 247:0.0036359064 257:0.0027749708 265:0.0025116284 291:0.0071859746 292:0.0018179532 298:0.0018179532 301:0.0018179532 303:0.0044110036 308:0.0027749708 313:0.007392229 315:0.0025116284 322:0.0036359064 332:0.0031144784 334:0.0044110036 335:0.0027749708 337:0.0031144784 338:0.0031144784 339:0.0085057234 354:0.0018179532 367:0.0088220071 387:0.0031144784 392:0.0175814 400:0.0018179532 409:0.0025116284 410:0.017964937 419:0.0027749708 434:0.0019569546 437:0.0035929873 440:0.0036359064 452:0.011099883 456:0.0033872244 458:0.0018179532 482:0.0055499417 483:0.0044110036 485:0.0031144784 #
10.651416150751447986522180144675 12:0.027512699 18:0.0080868006 27:0.014323696 29:0.022410497 46:0.026378008 78:0.011339098 102:0.055025399 151:0.012473789 155:0.055025399 170:0.055025399 264:0.027512699 297:0.067231491 315:0.015665751 323:0.027512699 329:0.015665751 333:0.027512699 433:0.015665751 439:0.082538098 478:0.027512699 #
2.4178189066206656754332016134867 49:0.010746906 51:0.001114505 86:0.10473736 116:0.041621778 151:0.0094353026 193:0.0041243923 239:0.008833223 269:0.12486533 289:0.029387899 320:0.0062317448 417:0.078553021 453:0.033903059 #
-20.61666180179758001145273738075 24:0.20290616 31:0.10145308 51:0.0027166058 65:0.10145308 193:0.010053206 248:0.02153098 320:0.015189878 #
-20.627195628971616514490960980766 51:0.0027166058 193:0.010053206 248:0.02153098 320:0.015189878 358:0.10145308 360:0.20290616 468:0.10145308 #
-20.62719562897163427805935498327 51:0.0027166058 180:0.10145308 193:0.010053206 209:0.10145308 248:0.02153098 287:0.20290616 320:0.015189878 #
-20.627195629457290237951383460313 51:0.0027166058 193:0.010053206 248:0.02153098 284:0.10145308 299:0.20290616 320:0.015189878 405:0.10145308 #
-20.627195630242265877996032941155 23:0.20290616 51:0.0027166058 193:0.010053206 248:0.02153098 283:0.10145308 320:0.015189878 474:0.10145308 #
34.700298503429223728744545951486 9:0.0039123204 18:0.01953128 19:0.010759555 22:0.0042114579 43:0.0036447328 49:0.0024510487 51:0.0015251121 58:0.010934198 69:0.0039123204 101:0.010208011 109:0.014826281 151:0.0021519109 152:0.0031816845 156:0.014578931 157:0.028478058 178:0.0077322768 191:0.0072894655 213:0.009492686 239:0.0060437839 247:0.0078246407 265:0.005405142 292:0.0039123204 298:0.0039123204 301:0.0039123204 322:0.0078246407 339:0.0052299183 354:0.0039123204 392:0.010810284 400:0.0039123204 401:0.005405142 434:0.0042114579 440:0.0078246407 456:0.0072894655 458:0.0039123204 477:0.009492686 #
33.916901595024171456316253170371 4:0.0072466484 9:0.0029866374 18:0.014910039 19:0.0082137678 22:0.003214997 43:0.002782363 49:0.0037422259 50:0.0072466484 51:0.0011642596 58:0.011129452 69:0.0029866374 89:0.0072466484 95:0.0072466484 101:0.0077927224 109:0.011318278 127:0.021739947 151:0.0016427535 152:0.0024288753 156:0.016694177 158:0.021739947 191:0.005564726 239:0.0076896357 247:0.0059732748 265:0.004126247 292:0.0029866374 298:0.0029866374 301:0.0029866374 313:0.0048577506 321:0.043479893 322:0.0059732748 339:0.0079849651 354:0.0029866374 392:0.01237874 400:0.0029866374 408:0.0072466484 434:0.003214997 440:0.0059732748 456:0.005564726 458:0.0029866374 #
24.048089052979978674784433678724 51:0.0022876682 55:0.085434176 151:0.019367199 314:0.069590487 401:0.048646279 #
34.700298503429223728744545951486 8:0.0051448219 9:0.0013015696 10:0.002572411 14:0.0031580725 18:0.0055695088 19:0.0028636325 22:0.0056043523 32:0.0051448219 35:0.0051448219 42:0.002572411 43:0.0012125473 45:0.0031580725 46:0.0030278258 49:0.0032617066 51:0.00050738163 52:0.002572411 58:0.016975662 59:0.0031580725 69:0.0013015696 78:0.0039047089 84:0.0015139129 94:0.0051448219 97:0.002572411 101:0.0011320168 123:0.0031580725 138:0.0079469988 145:0.0019867497 149:0.002572411 151:0.00071590813 152:0.0021169963 156:0.02182585 166:0.006316145 173:0.0031580725 181:0.002572411 188:0.006316145 191:0.0024250946 193:0.00031294025 198:0.002572411 211:0.002572411 235:0.00099086761 238:0.0031580725 239:0.0026809003 240:0.002572411 241:0.0022298212 244:0.0016441597 247:0.0026031393 250:0.002572411 252:0.014385669 255:0.0031580725 272:0.0031580725 278:0.002572411 282:0.002572411 290:0.0031580725 292:0.0013015696 295:0.002572411 296:0.002572411 298:0.0013015696 301:0.0013015696 304:0.0031580725 308:0.0019867497 312:0.0031580725 313:0.014818974 319:0.0031580725 322:0.0026031393 326:0.0031580725 327:0.006316145 331:0.0019867497 336:0.0031580725 337:0.0022298212 338:0.0044596423 339:0.012179402 345:0.0031580725 350:0.006316145 354:0.0013015696 369:0.0031580725 373:0.0031580725 376:0.002572411 378:0.0016441597 380:0.0015139129 383:0.002572411 385:0.002572411 388:0.0094742179 389:0.0031580725 393:0.002572411 395:0.002572411 400:0.0013015696 402:0.0017982087 403:0.006316145 420:0.002572411 423:0.0031580725 433:0.0035964174 434:0.0014010881 440:0.0026031393 445:0.002572411 447:0.0031580725 456:0.0024250946 458:0.0013015696 460:0.037896872 467:0.0031580725 #
7.2696044059632756173527923237998 19:0.012265893 40:0.088147953 51:0.0014488564 130:0.034039643 162:0.088147953 235:0.016976865 239:0.01148319 279:0.068079285 339:0.014905267 #
-23.945163751073867075547241256572 19:0.022998549 51:0.0027166058 193:0.010053206 248:0.02153098 320:0.015189878 435:0.20290616 481:0.10145308 #
-23.94516375107385641740620485507 19:0.022998549 51:0.0027166058 193:0.010053206 215:0.10145308 248:0.02153098 320:0.015189878 469:0.20290616 #
-23.931933798697372139940853230655 19:0.022998549 51:0.0027166058 161:0.10145308 193:0.010053206 248:0.02153098 320:0.015189878 361:0.20290616 #
-23.931933798697372139940853230655 19:0.022998549 51:0.0027166058 75:0.10145308 193:0.010053206 248:0.02153098 320:0.015189878 454:0.20290616 #
-23.945163751073867075547241256572 19:0.022998549 51:0.0027166058 193:0.010053206 231:0.10145308 248:0.02153098 320:0.015189878 396:0.20290616 #
11.212610795963319887391662632581 5:0.011272565 11:0.011272565 18:0.0033133421 34:0.022545129 85:0.011272565 111:0.011272565 114:0.011272565 132:0.0091820788 145:0.014183185 150:0.067635387 151:0.0025553943 177:0.022545129 182:0.022545129 202:0.022545129 226:0.014183185 230:0.10145308 235:0.0070736934 237:0.022545129 239:0.0095693246 241:0.0079592224 259:0.027546234 268:0.014183185 277:0.011272565 313:0.011334751 314:0.0091820788 329:0.0064186063 339:0.012421057 351:0.033817694 370:0.011272565 372:0.011272565 406:0.011272565 424:0.011272565 433:0.0064186063 446:0.011272565 463:0.0091820788 #
34.700298503429223728744545951486 18:0.0087545188 19:0.0033759337 51:0.0011963035 53:0.012130452 78:0.012275354 92:0.012130452 107:0.024260905 151:0.0067518675 152:0.0049914499 172:0.012130452 210:0.0071390024 235:0.014017595 239:0.0063210218 244:0.0077531929 252:0.0084796268 276:0.024260905 279:0.046843547 309:0.014892195 313:0.0049914499 339:0.0082047349 340:0.012130452 357:0.012130452 378:0.0077531929 380:0.0071390024 442:0.024260905 457:0.012130452 #
13.430339020009821382473091944121 41:0.042162318 49:0.010886475 51:0.001128979 78:0.034753598 101:0.0075565791 109:0.021950599 113:0.017171679 135:0.021081159 152:0.014131637 199:0.013262198 206:0.021081159 235:0.026457451 239:0.02684382 244:0.010975299 291:0.034343358 378:0.010975299 380:0.01010586 410:0.017171679 418:0.017171679 452:0.013262198 #
34.700298503429223728744545951486 2:0.0028264562 6:0.0020015405 9:0.00082491589 10:0.0016303568 18:0.0035298737 19:0.0018149286 21:0.0020015405 22:0.0071039144 32:0.0016303568 35:0.0016303568 43:0.00076849479 46:0.00095949601 47:0.028021567 48:0.0020015405 49:0.0031008334 51:0.0003215711 52:0.0016303568 57:0.0020015405 58:0.013832906 60:0.0020015405 69:0.00082491589 72:0.004003081 76:0.0020015405 78:0.0041245795 81:0.0020015405 83:0.0020015405 84:0.001918992 94:0.0016303568 97:0.0016303568 98:0.0020015405 101:0.00071745575 104:0.0060046213 115:0.0020015405 121:0.0020015405 125:0.004003081 138:0.0050366921 139:0.0020015405 143:0.0020015405 145:0.0025183461 149:0.0016303568 151:0.00045373215 152:0.0013417214 153:0.004003081 154:0.0060046213 156:0.015369896 159:0.0032607135 181:0.0016303568 191:0.0015369896 192:0.0028264562 193:0.00019833699 195:0.0020015405 198:0.0016303568 200:0.0028264562 203:0.0020015405 208:0.004003081 211:0.0016303568 221:0.0020015405 235:0.0075359694 239:0.0072212415 240:0.0016303568 244:0.0010420445 247:0.0016498318 249:0.004003081 251:0.0020015405 252:0.013676142 275:0.004003081 278:0.0016303568 282:0.0016303568 292:0.00082491589 293:0.0028264562 295:0.0016303568 296:0.0016303568 298:0.00082491589 301:0.00082491589 306:0.0020015405 308:0.0025183461 313:0.012075493 317:0.0020015405 322:0.0016498318 329:0.0159555 330:0.0020015405 331:0.001259173 339:0.013784156 343:0.0020015405 353:0.0020015405 354:0.00082491589 363:0.0032607135 374:0.0020015405 376:0.0016303568 378:0.0010420445 380:0.00095949601 383:0.0016303568 385:0.0016303568 391:0.0020015405 393:0.0016303568 397:0.004003081 400:0.00082491589 402:0.0011396785 413:0.004003081 420:0.0016303568 421:0.0020015405 432:0.0060046213 433:0.0011396785 434:0.0008879893 436:0.0020015405 440:0.0016498318 443:0.0020015405 445:0.0016303568 448:0.001259173 449:0.0020015405 451:0.0020015405 456:0.0015369896 458:0.00082491589 466:0.0020015405 #
23.15602436514100048725595115684 9:0.0069688205 18:0.0099400263 19:0.0057496373 39:0.0084544234 49:0.0087318607 51:0.0009055353 58:0.01947654 69:0.0034844102 87:0.033817694 93:0.0068865586 122:0.0084544234 128:0.0084544234 141:0.0059694168 151:0.0019165458 156:0.012984361 199:0.021274777 235:0.0053052702 239:0.01076549 247:0.0034844102 258:0.0084544234 265:0.0048139547 292:0.0034844102 294:0.0084544234 298:0.0034844102 313:0.011334751 322:0.0034844102 339:0.013973689 344:0.0084544234 398:0.013773117 425:0.0068865586 448:0.0053186943 455:0.041319352 471:0.0084544234 473:0.0084544234 475:0.0068865586 #
-20.61666180179758001145273738075 51:0.0027166058 124:0.10145308 193:0.010053206 248:0.02153098 253:0.10145308 254:0.20290616 320:0.015189878 #
-20.627156091187391240282522630878 51:0.0027166058 187:0.10145308 193:0.010053206 248:0.02153098 320:0.015189878 381:0.10145308 428:0.20290616 #
-20.627195629457297343378741061315 13:0.10145308 51:0.0027166058 193:0.010053206 229:0.10145308 248:0.02153098 320:0.015189878 390:0.20290616 #
-20.615994471326356318741090944968 51:0.0027166058 54:0.20290616 193:0.010053206 234:0.10145308 248:0.02153098 320:0.015189878 431:0.10145308 #
-20.627195629457297343378741061315 33:0.10145308 51:0.0027166058 193:0.010053206 248:0.02153098 320:0.015189878 362:0.20290616 414:0.10145308 #
34.700298503429223728744545951486 2:0.001155371 3:0.0016363401 9:0.001348804 18:0.016352946 19:0.0051932209 22:0.0014519341 27:0.00085191336 37:0.0016363401 40:0.0066644116 43:0.001256551 46:0.00078442664 49:0.0016900375 51:0.0012268543 58:0.0062827552 61:0.0013328823 67:0.0032726801 69:0.001348804 74:0.0013328823 77:0.003998647 78:0.0080928244 79:0.0066644116 84:0.00078442664 92:0.0013328823 101:0.0064520389 103:0.0049090199 107:0.0066644116 109:0.0068153068 126:0.0016363401 130:0.0061765481 131:0.0032726801 146:0.0049090199 147:0.0016363401 151:0.0044513321 152:0.0021938228 156:0.0087958565 159:0.0013328823 162:0.0013328823 167:0.001155371 174:0.0053315293 191:0.0031413776 197:0.0013328823 200:0.001155371 210:0.0015688533 217:0.0049090199 218:0.0016363401 220:0.0016363401 225:0.0016363401 226:0.0020588494 227:0.0032726801 235:0.0046207192 239:0.0097236689 241:0.001155371 244:0.00085191336 247:0.002697608 257:0.0020588494 263:0.0016363401 265:0.0018634663 268:0.0010294247 273:0.0013328823 276:0.0013328823 292:0.001348804 298:0.001348804 301:0.001348804 302:0.0016363401 313:0.0038391899 315:0.00093173317 318:0.0013328823 322:0.002697608 328:0.0016363401 329:0.00093173317 332:0.001155371 335:0.0010294247 339:0.0049584056 340:0.0013328823 354:0.001348804 357:0.0013328823 363:0.0066644116 371:0.0016363401 378:0.00085191336 379:0.003998647 380:0.00078442664 384:0.0049090199 392:0.010249064 400:0.001348804 401:0.0018634663 409:0.0027951994 418:0.0013328823 419:0.0010294247 434:0.0014519341 437:0.0013328823 438:0.0016363401 440:0.002697608 442:0.0013328823 448:0.0010294247 450:0.0016363401 456:0.002513102 457:0.0013328823 458:0.001348804 459:0.0016363401 461:0.0016363401 465:0.0065453602 472:0.0081817005 482:0.0020588494 485:0.001155371 #
6.7706454728886455995962023735046 49:0.007620533 51:0.00079028535 66:0.029513624 86:0.055701233 136:0.059027247 151:0.0066904868 178:0.024040351 193:0.002924569 196:0.059027247 210:0.056592818 239:0.0062635578 289:0.020838691 320:0.0044188737 401:0.016805079 417:0.055701233 427:0.029513624 #
5.8025406663102465643078176071867 49:0.010746906 51:0.001114505 64:0.12486533 86:0.078553021 119:0.041621778 151:0.0094353026 193:0.0041243923 239:0.008833223 289:0.029387899 320:0.0062317448 417:0.078553021 #
9.4939124728971346911521322908811 7:0.010273729 19:0.002328967 43:0.0039446158 49:0.0026527171 51:0.00027509933 58:0.015778463 93:0.0083684763 101:0.0073652733 109:0.010697444 152:0.0034434686 156:0.015778463 163:0.0072539751 171:0.030821189 191:0.0078892317 226:0.0064632236 235:0.0064469106 239:0.013082115 267:0.020547459 274:0.010273729 301:0.0042342199 313:0.013773874 339:0.011320457 342:0.010273729 354:0.0042342199 387:0.0072539751 392:0.017549606 398:0.033473905 400:0.0042342199 407:0.010273729 425:0.0083684763 440:0.0084684398 455:0.016736953 456:0.0078892317 458:0.0042342199 476:0.010273729 #
11.907886718078566801182205381338 2:0.0035594038 9:0.0010388304 18:0.0074087153 19:0.0028569626 22:0.0089460779 43:0.00096777838 49:0.0019524657 51:0.00047245319 53:0.0020531355 58:0.019355567 61:0.010265678 69:0.0010388304 77:0.0061594066 78:0.0041553215 79:0.0041062711 84:0.0012083094 101:0.00090350403 132:0.0082125422 138:0.0063427906 151:0.0011427851 152:0.00084482617 156:0.021291126 172:0.0082125422 174:0.0041062711 175:0.0025205733 183:0.015123441 191:0.0019355568 192:0.0017797019 193:0.0002497691 197:0.0041062711 200:0.0035594038 210:0.0060415468 214:0.0025205733 235:0.0015816955 239:0.0042794496 247:0.0020776608 252:0.01578738 257:0.0015856976 260:0.0071188076 261:0.0025205733 270:0.0025205733 271:0.0025205733 273:0.010265678 279:0.014271279 285:0.0025205733 292:0.0010388304 293:0.0035594038 298:0.0010388304 301:0.0010388304 313:0.014362045 318:0.0020531355 322:0.0020776608 329:0.0071760812 331:0.0015856976 339:0.015275585 347:0.0075617204 354:0.0010388304 355:0.0025205733 365:0.0025205733 379:0.0041062711 399:0.0050411467 400:0.0010388304 402:0.0014352163 434:0.0011182597 440:0.0020776608 441:0.0020531355 452:0.0031713953 456:0.0019355568 458:0.0010388304 470:0.010082293 #
