SVM-light Version V6.02
0 # kernel type
3 # kernel parameter -d 
1 # kernel parameter -g 
1 # kernel parameter -s 
1 # kernel parameter -r 
empty# kernel parameter -u 
487 # highest feature index 
42 # number of training documents 
34 # number of support vectors plus 1 
0.10098644 # threshold b, each following line is a SV (starting with alpha*y)
-0.049742934378677730600237794078566 18:1 19:1 51:1 100:1 193:1 219:1 307:1 411:1 480:1 #
-0.020892155094151806937752269277553 36:1 44:1 51:1 144:1 193:1 248:1 320:1 #
-0.02068617631217008895339048990536 51:1 169:1 193:1 248:1 320:1 394:1 415:1 #
-0.020737951949902647119650112017553 51:1 56:1 99:1 193:1 248:1 320:1 426:1 #
-0.020892316692849358800154746518274 51:1 189:1 193:1 248:1 266:1 281:1 320:1 #
0.022923287255139458695740728444434 15:1 27:1 49:1 51:1 63:1 88:1 101:1 105:1 134:1 137:1 145:1 164:1 165:1 168:1 176:1 179:1 184:1 185:1 186:1 193:1 204:1 207:1 210:1 232:1 239:1 242:1 260:1 286:1 288:1 300:1 305:1 310:1 311:1 315:1 320:1 335:1 352:1 364:1 366:1 377:1 402:1 409:1 419:1 430:1 475:1 482:1 487:1 #
0.026650819406255511073711161884603 41:1 49:1 51:1 78:1 101:1 109:1 113:1 135:1 152:1 199:1 206:1 235:1 239:1 244:1 291:1 378:1 380:1 410:1 418:1 452:1 #
0.049742934378677730600237794078566 18:1 78:1 84:1 151:1 191:1 235:1 268:1 297:1 339:1 422:1 #
0.035335326833385687084199133778384 12:1 18:1 27:1 29:1 46:1 78:1 102:1 151:1 155:1 170:1 264:1 297:1 315:1 323:1 329:1 333:1 433:1 439:1 478:1 #
0.049742934378677730600237794078566 49:1 51:1 86:1 116:1 151:1 193:1 239:1 269:1 289:1 320:1 417:1 453:1 #
-0.020737951949902494463984226058528 24:1 31:1 51:1 65:1 193:1 248:1 320:1 #
-0.020737951949902484055643370197686 51:1 193:1 248:1 320:1 358:1 360:1 468:1 #
-0.02089231669284935533070779456466 51:1 180:1 193:1 209:1 248:1 287:1 320:1 #
-0.020892155094151747957154086066112 51:1 193:1 248:1 284:1 299:1 320:1 405:1 #
-0.020737951949902490994537274104914 23:1 51:1 193:1 248:1 283:1 320:1 474:1 #
0.049742934378677730600237794078566 51:1 55:1 151:1 314:1 401:1 #
0.049742934378677730600237794078566 19:1 40:1 51:1 130:1 162:1 235:1 239:1 279:1 339:1 #
0.049742934378677730600237794078566 49:1 51:1 64:1 86:1 119:1 151:1 193:1 239:1 289:1 320:1 417:1 #
0.011457348752951870135552425722381 7:1 19:1 43:1 49:1 51:1 58:1 93:1 101:1 109:1 152:1 156:1 163:1 171:1 191:1 226:1 235:1 239:1 267:1 274:1 301:1 313:1 339:1 342:1 354:1 387:1 392:1 398:1 400:1 407:1 425:1 440:1 455:1 456:1 458:1 476:1 #
-0.01088596100769284938380998539742 19:1 51:1 193:1 248:1 320:1 435:1 481:1 #
-0.011067415103198995074418320427867 19:1 51:1 193:1 215:1 248:1 320:1 469:1 #
0.046479128503794098214996211027028 49:1 51:1 66:1 86:1 136:1 151:1 178:1 193:1 196:1 210:1 239:1 289:1 320:1 401:1 417:1 427:1 #
0.0016579434368072074219846445686244 9:1 18:1 19:1 39:1 49:1 51:1 58:1 69:1 87:1 93:1 122:1 128:1 141:1 151:1 156:1 199:1 235:1 239:1 247:1 258:1 265:1 292:1 294:1 298:1 313:1 322:1 339:1 344:1 398:1 425:1 448:1 455:1 471:1 473:1 475:1 #
-0.02089231669284935533070779456466 51:1 124:1 193:1 248:1 253:1 254:1 320:1 #
-0.020737951949902536097347649501899 51:1 187:1 193:1 248:1 320:1 381:1 428:1 #
-0.020737951949902574261264120991655 13:1 51:1 193:1 229:1 248:1 320:1 390:1 #
-0.020892155094151813876646173184781 51:1 54:1 193:1 234:1 248:1 320:1 431:1 #
-0.020686176312170113239519153580659 33:1 51:1 193:1 248:1 320:1 362:1 414:1 #
0.0013353000436232837899036551831955 5:1 11:1 18:1 34:1 85:1 111:1 114:1 132:1 145:1 150:1 151:1 177:1 182:1 202:1 226:1 230:1 235:1 237:1 239:1 241:1 259:1 268:1 277:1 313:1 314:1 329:1 339:1 351:1 370:1 372:1 406:1 424:1 433:1 446:1 463:1 #
-0.010743876162091096915229826436189 19:1 51:1 161:1 193:1 248:1 320:1 361:1 #
-0.011067415103199029768887839964009 19:1 51:1 75:1 193:1 248:1 320:1 454:1 #
-0.011067415103199099157826879036293 19:1 51:1 193:1 231:1 248:1 320:1 396:1 #
0.0011746704174717924329396367966183 18:1 19:1 51:1 53:1 78:1 92:1 107:1 151:1 152:1 172:1 210:1 235:1 239:1 244:1 252:1 276:1 279:1 309:1 313:1 339:1 340:1 357:1 378:1 380:1 442:1 457:1 #
