SVM-light Version V6.02
0 # kernel type
3 # kernel parameter -d 
1 # kernel parameter -g 
1 # kernel parameter -s 
1 # kernel parameter -r 
empty# kernel parameter -u 
472 # highest feature index 
42 # number of training documents 
35 # number of support vectors plus 1 
0.058250677 # threshold b, each following line is a SV (starting with alpha*y)
-0.051222113491821860686847855959059 18:1 19:1 51:1 99:1 187:1 213:1 297:1 398:1 466:1 #
-0.021245282767579212745978622933762 36:1 44:1 51:1 140:1 187:1 239:1 310:1 #
-0.021245282767579306421046325681345 51:1 164:1 187:1 239:1 310:1 381:1 401:1 #
-0.021449775499273179141246359336037 51:1 56:1 98:1 187:1 239:1 310:1 413:1 #
-0.021482923421473048425367480263048 51:1 183:1 187:1 239:1 257:1 272:1 310:1 #
0.022726855323718750390149523354921 15:1 27:1 49:1 51:1 63:1 87:1 100:1 104:1 131:1 134:1 141:1 159:1 163:1 171:1 173:1 178:1 179:1 180:1 187:1 193:1 198:1 201:1 204:1 231:1 234:1 251:1 277:1 279:1 290:1 295:1 300:1 305:1 310:1 315:1 324:1 340:1 352:1 354:1 365:1 389:1 396:1 405:1 417:1 444:1 461:1 468:1 472:1 #
0.016287574564763315082549510748322 29:1 43:1 49:1 83:1 114:1 130:1 148:1 195:1 199:1 228:1 231:1 253:1 271:1 314:1 335:1 375:1 402:1 403:1 416:1 443:1 #
0.051222113491821860686847855959059 18:1 78:1 83:1 147:1 185:1 227:1 259:1 287:1 328:1 408:1 #
0.032511540655202543492752198517337 12:1 18:1 27:1 29:1 46:1 78:1 101:1 147:1 151:1 165:1 255:1 287:1 305:1 313:1 318:1 322:1 420:1 426:1 464:1 #
0.051222113491821860686847855959059 49:1 51:1 85:1 113:1 147:1 187:1 231:1 280:1 310:1 403:1 437:1 440:1 #
-0.021449775499273099343966464402911 24:1 31:1 51:1 65:1 187:1 239:1 310:1 #
-0.021449775499273140977329887846281 51:1 187:1 239:1 310:1 346:1 348:1 454:1 #
-0.021482923421472972097534537283536 51:1 174:1 187:1 203:1 239:1 278:1 310:1 #
-0.021245282767579164173721295583164 51:1 187:1 239:1 275:1 289:1 310:1 392:1 #
-0.021482923421473006792004056819678 23:1 51:1 187:1 239:1 252:1 310:1 460:1 #
0.051222113491821860686847855959059 51:1 55:1 147:1 222:1 388:1 #
0.051222113491821860686847855959059 19:1 40:1 51:1 127:1 157:1 227:1 231:1 270:1 328:1 #
0.051222113491821860686847855959059 49:1 51:1 64:1 85:1 117:1 147:1 187:1 231:1 280:1 310:1 403:1 #
0.041638726940639220197581948923471 49:1 51:1 66:1 85:1 133:1 147:1 172:1 187:1 190:1 204:1 231:1 280:1 310:1 388:1 403:1 414:1 #
0.023814963338108372653545430353006 41:1 49:1 51:1 78:1 100:1 108:1 110:1 132:1 148:1 160:1 200:1 227:1 231:1 235:1 282:1 366:1 368:1 397:1 404:1 439:1 #
-0.010722269730016109612336094869534 19:1 51:1 187:1 239:1 310:1 422:1 467:1 #
0.0088890468945380836374159372326176 7:1 19:1 43:1 49:1 51:1 58:1 79:1 92:1 100:1 108:1 148:1 152:1 158:1 166:1 185:1 219:1 227:1 231:1 265:1 291:1 303:1 328:1 331:1 342:1 374:1 378:1 379:1 394:1 410:1 412:1 427:1 442:1 443:1 445:1 462:1 #
-0.021245282767579098254229208464494 51:1 122:1 187:1 239:1 244:1 245:1 310:1 #
-0.021449775499273161794011599567966 51:1 181:1 187:1 239:1 310:1 369:1 415:1 #
-0.021449775499273182610693311289651 13:1 51:1 187:1 221:1 239:1 310:1 377:1 #
-0.021482923421473038017026624402206 51:1 54:1 187:1 226:1 239:1 310:1 418:1 #
-0.021245282767579205807084719026534 33:1 51:1 187:1 239:1 310:1 350:1 400:1 #
0.0014015966539756606959454821037525 9:1 18:1 19:1 39:1 49:1 51:1 58:1 69:1 86:1 92:1 120:1 126:1 137:1 142:1 147:1 152:1 160:1 227:1 231:1 238:1 249:1 256:1 283:1 288:1 303:1 312:1 328:1 333:1 378:1 412:1 435:1 442:1 457:1 459:1 461:1 #
0.0003856462818758605573185582748863 5:1 11:1 18:1 34:1 84:1 109:1 111:1 129:1 141:1 146:1 147:1 176:1 196:1 219:1 222:1 227:1 231:1 233:1 250:1 258:1 259:1 268:1 303:1 304:1 318:1 328:1 339:1 357:1 358:1 360:1 411:1 420:1 424:1 433:1 449:1 #
-0.010800997106488914589750294226178 19:1 51:1 187:1 209:1 239:1 310:1 455:1 #
-0.010722269730016074917866575333392 19:1 51:1 156:1 187:1 239:1 310:1 349:1 #
-0.010722269730016158184593422220132 19:1 51:1 75:1 187:1 239:1 310:1 441:1 #
-0.010722269730016088795654383147848 19:1 51:1 187:1 223:1 239:1 310:1 383:1 #
0.00055265642659794501391490317843136 18:1 19:1 51:1 53:1 78:1 91:1 106:1 147:1 148:1 167:1 204:1 227:1 231:1 235:1 243:1 267:1 270:1 299:1 301:1 303:1 328:1 329:1 345:1 366:1 368:1 429:1 #
