SVM-light Version V6.02
0 # kernel type
3 # kernel parameter -d 
1 # kernel parameter -g 
1 # kernel parameter -s 
1 # kernel parameter -r 
empty# kernel parameter -u 
472 # highest feature index 
42 # number of training documents 
41 # number of support vectors plus 1 
-0.58668618 # threshold b, each following line is a SV (starting with alpha*y)
-23.204705776864496868938658735715 18:0.034080088 19:0.026284056 51:0.0031046923 99:0.11594637 187:0.012577947 213:0.11594637 297:0.11594637 398:0.11594637 466:0.11594637 #
-20.185223106113451052578966482542 36:0.10145308 44:0.20290616 51:0.0027166058 140:0.10145308 187:0.011005703 239:0.02153098 310:0.016345091 #
-20.186531762819811319786822423339 51:0.0027166058 164:0.20290616 187:0.011005703 239:0.02153098 310:0.016345091 381:0.10145308 401:0.10145308 #
-20.18653176281981487250050122384 51:0.0027166058 56:0.10145308 98:0.10145308 187:0.011005703 239:0.02153098 310:0.016345091 413:0.20290616 #
-20.186531762819818425214180024341 51:0.0027166058 183:0.20290616 187:0.011005703 239:0.02153098 257:0.10145308 272:0.10145308 310:0.016345091 #
33.371275230427563940338586689904 15:0.012882931 27:0.029342199 49:0.003326423 51:0.00034496581 63:0.012882931 87:0.012882931 100:0.0046179094 104:0.012882931 131:0.012882931 134:0.012882931 141:0.0081046773 159:0.012882931 163:0.012882931 171:0.012882931 173:0.025765862 178:0.012882931 179:0.025765862 180:0.012882931 187:0.0013975496 193:0.025765862 198:0.012882931 201:0.012882931 204:0.020121383 231:0.0054681855 234:0.012882931 251:0.020987608 277:0.025765862 279:0.012882931 290:0.012882931 295:0.012882931 300:0.012882931 305:0.014671099 310:0.0041511343 315:0.025765862 324:0.0081046773 340:0.025765862 352:0.012882931 354:0.025765862 365:0.012882931 389:0.014671099 396:0.0081046773 405:0.0081046773 417:0.012882931 444:0.012882931 461:0.010493804 468:0.0081046773 472:0.012882931 #
15.827299195071594439809814502951 29:0.029059764 43:0.0068488931 49:0.018423267 83:0.0085511124 114:0.035675809 130:0.017837904 148:0.011957539 195:0.017837904 199:0.017837904 228:0.017837904 231:0.022714002 253:0.053513713 271:0.017837904 314:0.017837904 335:0.035675809 375:0.071351618 402:0.053513713 403:0.011221861 416:0.017837904 443:0.0068488931 #
7.9559074284012218924999615410343 49:0.007620533 51:0.00079028535 66:0.029513624 85:0.062516078 133:0.059027247 147:0.0071418248 172:0.024040351 187:0.0032016593 190:0.059027247 204:0.061461676 231:0.0062635578 280:0.020838691 310:0.0047549354 388:0.016805079 403:0.055701233 414:0.029513624 #
11.103776318684747792531197774224 12:0.027512699 18:0.0080868006 27:0.015665751 29:0.022410497 46:0.028647391 78:0.011339098 101:0.055025399 147:0.013315267 151:0.055025399 165:0.055025399 255:0.027512699 287:0.067231491 305:0.015665751 313:0.027512699 318:0.015665751 322:0.027512699 420:0.017308293 426:0.082538098 464:0.027512699 #
4.3107282104616260198781674262136 49:0.010746906 51:0.001114505 85:0.11755159 113:0.041621778 147:0.010071805 187:0.0045151603 231:0.008833223 280:0.029387899 310:0.0067056785 403:0.078553021 437:0.12486533 440:0.041621778 #
-20.185223106113447499865287682042 24:0.20290616 31:0.10145308 51:0.0027166058 65:0.10145308 187:0.011005703 239:0.02153098 310:0.016345091 #
-20.186531763574130593497102381662 51:0.0027166058 187:0.011005703 239:0.02153098 310:0.016345091 346:0.10145308 348:0.20290616 454:0.10145308 #
-20.18653176357412348806974478066 51:0.0027166058 174:0.10145308 187:0.011005703 203:0.10145308 239:0.02153098 278:0.20290616 310:0.016345091 #
-20.18530986576500296791891742032 51:0.0027166058 187:0.011005703 239:0.02153098 275:0.10145308 289:0.20290616 310:0.016345091 392:0.10145308 #
-20.185223105359128226155007723719 23:0.20290616 51:0.0027166058 187:0.011005703 239:0.02153098 252:0.10145308 310:0.016345091 460:0.10145308 #
33.968356036451943680276599479839 9:0.0039123204 18:0.01953128 19:0.010759555 22:0.0042114579 43:0.0036447328 49:0.0024510487 51:0.0015251121 58:0.010934198 69:0.0039123204 79:0.0039123204 100:0.010208011 108:0.014826281 147:0.0022970783 148:0.0031816845 152:0.014578931 153:0.028478058 172:0.0077322768 185:0.0072894655 207:0.009492686 231:0.0060437839 238:0.0078246407 256:0.005405142 283:0.0039123204 288:0.0039123204 291:0.0039123204 312:0.0078246407 328:0.0055803657 342:0.0039123204 379:0.010810284 388:0.005405142 421:0.0042114579 427:0.0078246407 443:0.0072894655 445:0.0039123204 463:0.009492686 #
33.968356036451943680276599479839 4:0.0072466484 9:0.0029866374 18:0.014910039 19:0.0082137678 22:0.003214997 43:0.002782363 49:0.0037422259 50:0.0072466484 51:0.0011642596 58:0.011129452 69:0.0029866374 79:0.0029866374 88:0.0072466484 94:0.0072466484 100:0.0077927224 108:0.011318278 147:0.0017535731 148:0.0024288753 152:0.016694177 154:0.021739947 185:0.005564726 186:0.021739947 231:0.0076896357 238:0.0059732748 256:0.004126247 283:0.0029866374 288:0.0029866374 291:0.0029866374 303:0.0051951483 311:0.043479893 312:0.0059732748 328:0.008520022 342:0.0029866374 379:0.01237874 395:0.0072466484 421:0.003214997 427:0.0059732748 443:0.005564726 445:0.0029866374 #
24.611729640322739243174510193057 51:0.0022876682 55:0.085434176 147:0.020673703 222:0.069590487 388:0.048646279 #
33.968356036451943680276599479839 8:0.0051448219 9:0.0013015696 10:0.002572411 14:0.0031580725 18:0.0055695088 19:0.0028636325 22:0.0056043523 32:0.0051448219 35:0.0051448219 42:0.002572411 43:0.0012125473 45:0.0031580725 46:0.0032883193 49:0.0032617066 51:0.00050738163 52:0.002572411 58:0.016975662 59:0.0031580725 69:0.0013015696 78:0.0039047089 79:0.0013015696 83:0.0015139129 93:0.0051448219 96:0.002572411 100:0.0011320168 121:0.0031580725 135:0.0079469988 141:0.0019867497 145:0.002572411 147:0.00076420303 148:0.0021169963 152:0.02182585 161:0.006316145 168:0.0031580725 175:0.002572411 182:0.006316145 185:0.0024250946 187:0.00034259001 192:0.002572411 205:0.002572411 218:0.0031580725 224:0.0031580725 227:0.0010584982 229:0.0031580725 230:0.0031580725 231:0.0026809003 232:0.002572411 233:0.0022298212 235:0.0016441597 238:0.0026031393 241:0.002572411 243:0.014385669 246:0.0031580725 263:0.0031580725 269:0.002572411 273:0.002572411 281:0.0031580725 283:0.0013015696 285:0.002572411 286:0.002572411 288:0.0013015696 291:0.0013015696 298:0.0019867497 302:0.0031580725 303:0.015848234 309:0.0031580725 312:0.0026031393 316:0.006316145 320:0.0019867497 325:0.0031580725 326:0.0022298212 327:0.0044596423 328:0.012995521 334:0.0031580725 337:0.0094742179 338:0.006316145 342:0.0013015696 361:0.0031580725 364:0.002572411 366:0.0016441597 368:0.0016441597 370:0.002572411 372:0.002572411 376:0.0031580725 380:0.002572411 382:0.002572411 389:0.0017982087 390:0.006316145 406:0.002572411 409:0.0031580725 420:0.0039734994 421:0.0014010881 427:0.0026031393 432:0.002572411 434:0.0031580725 443:0.0024250946 445:0.0013015696 453:0.0031580725 470:0.037896872 #
7.4991547171873715882384203723632 19:0.012265893 40:0.088147953 51:0.0014488564 127:0.034039643 157:0.088147953 227:0.018135602 231:0.01148319 270:0.068079285 328:0.015904041 #
-23.439471672382737210682535078377 19:0.022998549 51:0.0027166058 187:0.011005703 239:0.02153098 310:0.016345091 422:0.20290616 467:0.10145308 #
-23.439471672382744316109892679378 19:0.022998549 51:0.0027166058 187:0.011005703 209:0.10145308 239:0.02153098 310:0.016345091 455:0.20290616 #
-23.43947167249273277889187738765 19:0.022998549 51:0.0027166058 156:0.10145308 187:0.011005703 239:0.02153098 310:0.016345091 349:0.20290616 #
-23.439471672492746989746592589654 19:0.022998549 51:0.0027166058 75:0.10145308 187:0.011005703 239:0.02153098 310:0.016345091 441:0.20290616 #
-23.439784822554845078457219642587 19:0.022998549 51:0.0027166058 187:0.011005703 223:0.10145308 239:0.02153098 310:0.016345091 383:0.20290616 #
11.491980754225275873636746837292 5:0.011272565 11:0.011272565 18:0.0033133421 34:0.022545129 84:0.011272565 109:0.011272565 111:0.011272565 129:0.0091820788 141:0.014183185 146:0.067635387 147:0.0027277803 176:0.022545129 196:0.022545129 219:0.014183185 222:0.0091820788 227:0.0075565008 231:0.0095693246 233:0.0079592224 250:0.027546234 258:0.022545129 259:0.014183185 268:0.011272565 303:0.012122013 304:0.10145308 318:0.0064186063 328:0.013253368 339:0.033817694 357:0.022545129 358:0.011272565 360:0.011272565 411:0.011272565 420:0.0070915925 424:0.011272565 433:0.011272565 449:0.011272565 #
33.968356036451943680276599479839 18:0.0087545188 19:0.0033759337 51:0.0011963035 53:0.012130452 78:0.012275354 91:0.012130452 106:0.024260905 147:0.0072073461 148:0.0049914499 167:0.012130452 204:0.0077531929 227:0.01497435 231:0.0063210218 235:0.0077531929 243:0.0084796268 267:0.024260905 270:0.046843547 299:0.014892195 301:0.012130452 303:0.0053381338 328:0.0087545188 329:0.012130452 345:0.012130452 366:0.0077531929 368:0.0077531929 429:0.024260905 #
14.394242643252630031724947912153 41:0.042162318 49:0.010886475 51:0.001128979 78:0.034753598 100:0.0075565791 108:0.021950599 110:0.017171679 132:0.021081159 148:0.014131637 160:0.013262198 200:0.021081159 227:0.028263275 231:0.02684382 235:0.010975299 282:0.034343358 366:0.010975299 368:0.010975299 397:0.017171679 404:0.017171679 439:0.013262198 #
33.968356036451943680276599479839 2:0.0028264562 6:0.0020015405 9:0.00082491589 10:0.0016303568 18:0.0035298737 19:0.0018149286 21:0.0020015405 22:0.0071039144 32:0.0016303568 35:0.0016303568 43:0.00076849479 46:0.0010420445 47:0.028021567 48:0.0020015405 49:0.0031008334 51:0.0003215711 52:0.0016303568 57:0.0020015405 58:0.013832906 60:0.0020015405 69:0.00082491589 72:0.004003081 76:0.0020015405 78:0.0041245795 79:0.00082491589 81:0.0020015405 82:0.0020015405 83:0.001918992 93:0.0016303568 96:0.0016303568 97:0.0020015405 100:0.00071745575 103:0.0060046213 112:0.0020015405 119:0.0020015405 123:0.004003081 125:0.0028264562 135:0.0050366921 136:0.0020015405 139:0.0020015405 141:0.0025183461 145:0.0016303568 147:0.00048434077 148:0.0013417214 149:0.004003081 150:0.0060046213 152:0.015369896 155:0.0032607135 175:0.0016303568 185:0.0015369896 187:0.00021712856 189:0.0020015405 192:0.0016303568 194:0.0028264562 197:0.0020015405 202:0.004003081 205:0.0016303568 215:0.0020015405 227:0.0080503291 231:0.0072212415 232:0.0016303568 235:0.0010420445 238:0.0016498318 240:0.004003081 242:0.0020015405 243:0.013676142 266:0.004003081 269:0.0016303568 273:0.0016303568 283:0.00082491589 284:0.0028264562 285:0.0016303568 286:0.0016303568 288:0.00082491589 291:0.00082491589 296:0.0020015405 298:0.0025183461 303:0.012914203 307:0.0020015405 312:0.0016498318 318:0.0159555 319:0.0020015405 320:0.001259173 328:0.014707807 332:0.0020015405 341:0.0020015405 342:0.00082491589 351:0.0032607135 362:0.0020015405 364:0.0016303568 366:0.0010420445 368:0.0010420445 370:0.0016303568 372:0.0016303568 380:0.0016303568 384:0.004003081 385:0.0020015405 389:0.0011396785 399:0.004003081 406:0.0016303568 407:0.0020015405 419:0.0060046213 420:0.001259173 421:0.0008879893 423:0.0020015405 427:0.0016498318 430:0.0020015405 432:0.0016303568 435:0.001259173 436:0.0020015405 438:0.0020015405 443:0.0015369896 445:0.00082491589 452:0.0020015405 #
33.968356036451943680276599479839 2:0.001155371 3:0.0016363401 9:0.001348804 18:0.016352946 19:0.0051932209 22:0.0014519341 27:0.00093173317 37:0.0016363401 40:0.0066644116 43:0.001256551 46:0.00085191336 49:0.0016900375 51:0.0012268543 58:0.0062827552 61:0.0013328823 67:0.0032726801 69:0.001348804 74:0.0013328823 77:0.003998647 78:0.0080928244 79:0.001348804 83:0.00078442664 91:0.0013328823 100:0.0064520389 102:0.0049090199 106:0.0066644116 108:0.0068153068 116:0.0049090199 124:0.0016363401 127:0.0061765481 128:0.0032726801 143:0.0016363401 147:0.0047516176 148:0.0021938228 152:0.0087958565 155:0.0013328823 157:0.0013328823 162:0.001155371 169:0.0053315293 185:0.0031413776 191:0.0013328823 194:0.001155371 204:0.0017038267 211:0.0049090199 212:0.0016363401 214:0.0016363401 219:0.0020588494 220:0.0032726801 227:0.0049361014 231:0.0097236689 233:0.001155371 235:0.00085191336 238:0.002697608 248:0.0020588494 254:0.0016363401 256:0.0018634663 259:0.0010294247 260:0.0016363401 264:0.0013328823 267:0.0013328823 283:0.001348804 288:0.001348804 291:0.001348804 292:0.0016363401 294:0.0016363401 301:0.0013328823 303:0.0041058431 305:0.00093173317 308:0.0013328823 312:0.002697608 317:0.0016363401 318:0.00093173317 321:0.001155371 324:0.0010294247 328:0.0052906591 329:0.0013328823 342:0.001348804 345:0.0013328823 351:0.0066644116 359:0.0016363401 366:0.00085191336 367:0.003998647 368:0.00085191336 371:0.0049090199 379:0.010249064 387:0.0066644116 388:0.0018634663 393:0.0013328823 396:0.003088274 404:0.0013328823 405:0.0010294247 421:0.0014519341 425:0.0016363401 427:0.002697608 429:0.0013328823 435:0.0010294247 443:0.002513102 445:0.001348804 446:0.0016363401 448:0.0016363401 451:0.0065453602 458:0.0081817005 468:0.0020588494 471:0.001155371 #
-20.185223106087313738044031197205 51:0.0027166058 122:0.10145308 187:0.011005703 239:0.02153098 244:0.10145308 245:0.20290616 310:0.016345091 #
-20.185223105374099361597473034635 51:0.0027166058 181:0.10145308 187:0.011005703 239:0.02153098 310:0.016345091 369:0.10145308 415:0.20290616 #
-20.186531763574119935356065980159 13:0.10145308 51:0.0027166058 187:0.011005703 221:0.10145308 239:0.02153098 310:0.016345091 377:0.20290616 #
-20.185223106087303079902994795702 51:0.0027166058 54:0.20290616 187:0.011005703 226:0.10145308 239:0.02153098 310:0.016345091 418:0.10145308 #
-20.185223106113443947151608881541 33:0.10145308 51:0.0027166058 187:0.011005703 239:0.02153098 310:0.016345091 350:0.20290616 400:0.10145308 #
23.46031218152583264213717484381 9:0.0069688205 18:0.0099400263 19:0.0057496373 39:0.0084544234 49:0.0087318607 51:0.0009055353 58:0.01947654 69:0.0034844102 86:0.033817694 92:0.0068865586 120:0.0084544234 126:0.0084544234 137:0.0059694168 142:0.0084544234 147:0.0020458354 152:0.012984361 160:0.021274777 227:0.0056673754 231:0.01076549 238:0.0034844102 249:0.0084544234 256:0.0048139547 283:0.0034844102 288:0.0034844102 303:0.012122013 312:0.0034844102 328:0.014910039 333:0.0084544234 378:0.013773117 412:0.0068865586 435:0.0053186943 442:0.041319352 457:0.0084544234 459:0.0084544234 461:0.0068865586 #
33.968356036451943680276599479839 9:0.0018179532 16:0.0088220071 18:0.0090756761 19:0.0049996846 22:0.0019569546 25:0.0044110036 27:0.0025116284 28:0.0044110036 43:0.0016936122 46:0.002296462 49:0.0045557534 51:0.00070867979 58:0.011855286 69:0.0018179532 71:0.0044110036 74:0.0035929873 79:0.0018179532 100:0.0047433963 108:0.0068893861 110:0.017964937 127:0.0027749708 137:0.0031144784 144:0.0044110036 147:0.0010673923 148:0.0014784457 152:0.016936122 158:0.0031144784 160:0.0083249127 162:0.0031144784 185:0.0033872244 188:0.0044110036 204:0.0045929239 231:0.0037445184 238:0.0036359064 248:0.0027749708 256:0.0025116284 282:0.0071859746 283:0.0018179532 288:0.0018179532 291:0.0018179532 293:0.0044110036 298:0.0027749708 303:0.0079056602 305:0.0025116284 312:0.0036359064 321:0.0031144784 323:0.0044110036 324:0.0027749708 326:0.0031144784 327:0.0031144784 328:0.0090756761 342:0.0018179532 355:0.0088220071 374:0.0031144784 379:0.0175814 393:0.0035929873 396:0.0027749708 397:0.017964937 405:0.0027749708 421:0.0019569546 427:0.0036359064 439:0.011099883 443:0.0033872244 445:0.0018179532 468:0.0055499417 469:0.0044110036 471:0.0031144784 #
7.5373866793466746116791910026222 49:0.010746906 51:0.001114505 64:0.12486533 85:0.088163696 117:0.041621778 147:0.010071805 187:0.0045151603 231:0.008833223 280:0.029387899 310:0.0067056785 403:0.078553021 #
10.219999606035520045566045155283 7:0.010273729 19:0.002328967 43:0.0039446158 49:0.0026527171 51:0.00027509933 58:0.015778463 79:0.0042342199 92:0.0083684763 100:0.0073652733 108:0.010697444 148:0.0034434686 152:0.015778463 158:0.0072539751 166:0.030821189 185:0.0078892317 219:0.0064632236 227:0.0068869372 231:0.013082115 265:0.010273729 291:0.0042342199 303:0.014730547 328:0.012079019 331:0.010273729 342:0.0042342199 374:0.0072539751 378:0.033473905 379:0.017549606 394:0.010273729 410:0.020547459 412:0.0083684763 427:0.0084684398 442:0.016736953 443:0.0078892317 445:0.0042342199 462:0.010273729 #
13.441154615258952276235504541546 2:0.0035594038 9:0.0010388304 18:0.0074087153 19:0.0028569626 22:0.0089460779 43:0.00096777838 49:0.0019524657 51:0.00047245319 53:0.0020531355 58:0.019355567 61:0.010265678 69:0.0010388304 77:0.0061594066 78:0.0041553215 79:0.0010388304 83:0.0012083094 100:0.00090350403 125:0.0017797019 129:0.0082125422 135:0.0063427906 147:0.0012198769 148:0.00084482617 152:0.021291126 167:0.0082125422 169:0.0041062711 170:0.0025205733 177:0.015123441 185:0.0019355568 187:0.00027343363 191:0.0041062711 194:0.0035594038 204:0.0065613203 208:0.0025205733 227:0.0016896523 231:0.0042794496 238:0.0020776608 243:0.01578738 248:0.0015856976 251:0.0082125422 261:0.0025205733 262:0.0025205733 264:0.010265678 270:0.014271279 274:0.0025205733 276:0.0025205733 283:0.0010388304 284:0.0035594038 288:0.0010388304 291:0.0010388304 303:0.015359568 308:0.0020531355 312:0.0020776608 318:0.0071760812 320:0.0015856976 328:0.016299173 336:0.0075617204 342:0.0010388304 343:0.0025205733 353:0.0025205733 367:0.0041062711 386:0.0050411467 387:0.0041062711 389:0.0014352163 421:0.0011182597 427:0.0020776608 428:0.0020531355 439:0.0031713953 443:0.0019355568 445:0.0010388304 456:0.010082293 #
