SVM-light Version V6.02
0 # kernel type
3 # kernel parameter -d 
1 # kernel parameter -g 
1 # kernel parameter -s 
1 # kernel parameter -r 
empty# kernel parameter -u 
99 # highest feature index 
30 # number of training documents 
22 # number of support vectors plus 1 
0.7709405 # threshold b, each following line is a SV (starting with alpha*y)
-531.20544057699862605659291148186 2:0.00054986979 4:0.001222856 7:0.001222856 8:0.001222856 9:0.001222856 12:0.001222856 13:0.001222856 14:0.001222856 15:0.001222856 16:0.001222856 18:0.001222856 20:0.001222856 21:0.0036685679 25:0.001222856 27:0.001222856 28:0.001222856 29:0.001222856 30:0.001222856 31:0.001222856 32:0.001222856 35:0.001222856 36:0.001222856 37:0.002445712 38:0.001222856 39:0.001222856 42:0.001222856 43:0.001222856 48:0.001222856 52:0.001222856 53:0.001222856 54:0.0021994791 57:0.001222856 58:0.001222856 59:0.001222856 60:0.001222856 61:0.001222856 62:0.001222856 65:0.001222856 67:0.001222856 69:0.001222856 71:0.002445712 73:0.002445712 76:0.001222856 77:0.0036685679 78:0.001222856 79:0.0027634723 80:0.0081673004 81:0.0036685679 82:0.002445712 83:0.001222856 84:0.001222856 86:0.001222856 87:0.001222856 88:0.001222856 89:0.002445712 92:0.001222856 93:0.0036685679 94:0.002445712 95:0.001222856 97:0.002445712 99:0.002445712 #
-531.20544057699862605659291148186 2:0.00055371498 4:0.0012314074 7:0.0012314074 8:0.0012314074 9:0.0012314074 12:0.0012314074 13:0.0012314074 14:0.0012314074 15:0.0012314074 16:0.0012314074 18:0.0012314074 20:0.0012314074 21:0.0036942223 25:0.0012314074 27:0.0012314074 28:0.0012314074 29:0.0012314074 30:0.0012314074 31:0.0012314074 32:0.0012314074 35:0.0012314074 36:0.0012314074 37:0.0024628148 38:0.0012314074 39:0.0012314074 42:0.0012314074 43:0.0012314074 48:0.0012314074 52:0.0012314074 53:0.0012314074 54:0.0022148599 57:0.0012314074 58:0.0012314074 59:0.0012314074 60:0.0012314074 61:0.0012314074 62:0.0012314074 65:0.0012314074 67:0.0012314074 69:0.0012314074 71:0.0024628148 73:0.0024628148 76:0.0012314074 77:0.0036942223 78:0.0012314074 81:0.0036942223 82:0.0024628148 83:0.0012314074 84:0.0012314074 86:0.0012314074 87:0.0012314074 88:0.0012314074 89:0.0024628148 90:0.0069930069 92:0.0012314074 93:0.0036942223 94:0.0024628148 95:0.0012314074 97:0.0024628148 99:0.0024628148 #
-531.20544057699862605659291148186 2:0.00055371498 4:0.0012314074 7:0.0012314074 8:0.0012314074 9:0.0012314074 12:0.0012314074 13:0.0012314074 14:0.0012314074 15:0.0012314074 16:0.0012314074 18:0.0012314074 20:0.0012314074 21:0.0036942223 25:0.0012314074 27:0.0012314074 28:0.0012314074 29:0.0012314074 30:0.0012314074 31:0.0012314074 32:0.0012314074 35:0.0012314074 36:0.0012314074 37:0.0024628148 38:0.0012314074 39:0.0012314074 42:0.0012314074 43:0.0012314074 48:0.0012314074 52:0.0012314074 53:0.0012314074 54:0.0022148599 55:0.0069930069 57:0.0012314074 58:0.0012314074 59:0.0012314074 60:0.0012314074 61:0.0012314074 62:0.0012314074 65:0.0012314074 67:0.0012314074 69:0.0012314074 71:0.0024628148 73:0.0024628148 76:0.0012314074 77:0.0036942223 78:0.0012314074 81:0.0036942223 82:0.0024628148 83:0.0012314074 84:0.0012314074 86:0.0012314074 87:0.0012314074 88:0.0012314074 89:0.0024628148 92:0.0012314074 93:0.0036942223 94:0.0024628148 95:0.0012314074 97:0.0024628148 99:0.0024628148 #
-531.20544057699862605659291148186 2:0.00055371498 4:0.0012314074 7:0.0012314074 8:0.0012314074 9:0.0012314074 10:0.0069930069 12:0.0012314074 13:0.0012314074 14:0.0012314074 15:0.0012314074 16:0.0012314074 18:0.0012314074 20:0.0012314074 21:0.0036942223 25:0.0012314074 27:0.0012314074 28:0.0012314074 29:0.0012314074 30:0.0012314074 31:0.0012314074 32:0.0012314074 35:0.0012314074 36:0.0012314074 37:0.0024628148 38:0.0012314074 39:0.0012314074 42:0.0012314074 43:0.0012314074 48:0.0012314074 52:0.0012314074 53:0.0012314074 54:0.0022148599 57:0.0012314074 58:0.0012314074 59:0.0012314074 60:0.0012314074 61:0.0012314074 62:0.0012314074 65:0.0012314074 67:0.0012314074 69:0.0012314074 71:0.0024628148 73:0.0024628148 76:0.0012314074 77:0.0036942223 78:0.0012314074 81:0.0036942223 82:0.0024628148 83:0.0012314074 84:0.0012314074 86:0.0012314074 87:0.0012314074 88:0.0012314074 89:0.0024628148 92:0.0012314074 93:0.0036942223 94:0.0024628148 95:0.0012314074 97:0.0024628148 99:0.0024628148 #
-531.20544057699862605659291148186 2:0.00055371498 4:0.0012314074 7:0.0012314074 8:0.0012314074 9:0.0012314074 12:0.0012314074 13:0.0012314074 14:0.0012314074 15:0.0012314074 16:0.0012314074 18:0.0012314074 20:0.0012314074 21:0.0036942223 25:0.0012314074 27:0.0012314074 28:0.0012314074 29:0.0012314074 30:0.0012314074 31:0.0012314074 32:0.0012314074 35:0.0012314074 36:0.0012314074 37:0.0024628148 38:0.0012314074 39:0.0012314074 42:0.0012314074 43:0.0012314074 48:0.0012314074 52:0.0012314074 53:0.0012314074 54:0.0022148599 57:0.0012314074 58:0.0012314074 59:0.0012314074 60:0.0012314074 61:0.0012314074 62:0.0012314074 65:0.0012314074 67:0.0012314074 69:0.0012314074 71:0.0024628148 73:0.0024628148 76:0.0012314074 77:0.0036942223 78:0.0012314074 81:0.0036942223 82:0.0024628148 83:0.0012314074 84:0.0012314074 86:0.0012314074 87:0.0012314074 88:0.0012314074 89:0.0024628148 92:0.0012314074 93:0.0036942223 94:0.0024628148 95:0.0012314074 97:0.0024628148 98:0.0069930069 99:0.0024628148 #
531.20544057699862605659291148186 2:0.00042117684 4:0.00093665562 7:0.00093665562 8:0.00093665562 9:0.00093665562 11:0.0025378789 12:0.00093665562 13:0.00093665562 14:0.0018733112 15:0.00093665562 16:0.00093665562 17:0.0025378789 18:0.00093665562 20:0.00093665562 21:0.0028099669 22:0.0025378789 25:0.00093665562 27:0.00093665562 28:0.00093665562 29:0.00093665562 30:0.00093665562 31:0.00093665562 32:0.00093665562 33:0.0025378789 35:0.00093665562 36:0.00093665562 37:0.0018733112 38:0.00093665562 39:0.00093665562 40:0.0025378789 41:0.0025378789 42:0.00093665562 43:0.00093665562 45:0.0025378789 47:0.0025378789 48:0.00093665562 50:0.015714057 51:0.0025378789 52:0.00093665562 53:0.00093665562 54:0.0016847074 57:0.00093665562 58:0.00093665562 59:0.00093665562 60:0.00093665562 61:0.00093665562 62:0.00093665562 64:0.0025378789 65:0.00093665562 67:0.00093665562 69:0.00093665562 70:0.0025378789 71:0.0028099669 72:0.0025378789 73:0.0018733112 76:0.00093665562 77:0.0028099669 78:0.00093665562 81:0.0028099669 82:0.0018733112 83:0.00093665562 84:0.00093665562 85:0.0025378789 86:0.00093665562 87:0.00093665562 88:0.00093665562 89:0.0018733112 92:0.00093665562 93:0.0028099669 94:0.0018733112 95:0.00093665562 97:0.0037466225 99:0.0028099669 #
531.20544057699862605659291148186 2:0.00042117684 4:0.00093665562 7:0.00093665562 8:0.00093665562 9:0.00093665562 11:0.0025378789 12:0.00093665562 13:0.00093665562 14:0.0018733112 15:0.00093665562 16:0.00093665562 17:0.0025378789 18:0.00093665562 20:0.00093665562 21:0.0028099669 22:0.0025378789 23:0.015714057 25:0.00093665562 27:0.00093665562 28:0.00093665562 29:0.00093665562 30:0.00093665562 31:0.00093665562 32:0.00093665562 33:0.0025378789 35:0.00093665562 36:0.00093665562 37:0.0018733112 38:0.00093665562 39:0.00093665562 40:0.0025378789 41:0.0025378789 42:0.00093665562 43:0.00093665562 45:0.0025378789 47:0.0025378789 48:0.00093665562 51:0.0025378789 52:0.00093665562 53:0.00093665562 54:0.0016847074 57:0.00093665562 58:0.00093665562 59:0.00093665562 60:0.00093665562 61:0.00093665562 62:0.00093665562 64:0.0025378789 65:0.00093665562 67:0.00093665562 69:0.00093665562 70:0.0025378789 71:0.0028099669 72:0.0025378789 73:0.0018733112 76:0.00093665562 77:0.0028099669 78:0.00093665562 81:0.0028099669 82:0.0018733112 83:0.00093665562 84:0.00093665562 85:0.0025378789 86:0.00093665562 87:0.00093665562 88:0.00093665562 89:0.0018733112 92:0.00093665562 93:0.0028099669 94:0.0018733112 95:0.00093665562 97:0.0037466225 99:0.0028099669 #
531.20544057699862605659291148186 2:0.00042117684 4:0.00093665562 7:0.00093665562 8:0.00093665562 9:0.00093665562 11:0.0025378789 12:0.00093665562 13:0.00093665562 14:0.0018733112 15:0.00093665562 16:0.00093665562 17:0.0025378789 18:0.00093665562 20:0.00093665562 21:0.0028099669 22:0.0025378789 25:0.00093665562 26:0.015714057 27:0.00093665562 28:0.00093665562 29:0.00093665562 30:0.00093665562 31:0.00093665562 32:0.00093665562 33:0.0025378789 35:0.00093665562 36:0.00093665562 37:0.0018733112 38:0.00093665562 39:0.00093665562 40:0.0025378789 41:0.0025378789 42:0.00093665562 43:0.00093665562 45:0.0025378789 47:0.0025378789 48:0.00093665562 51:0.0025378789 52:0.00093665562 53:0.00093665562 54:0.0016847074 57:0.00093665562 58:0.00093665562 59:0.00093665562 60:0.00093665562 61:0.00093665562 62:0.00093665562 64:0.0025378789 65:0.00093665562 67:0.00093665562 69:0.00093665562 70:0.0025378789 71:0.0028099669 72:0.0025378789 73:0.0018733112 76:0.00093665562 77:0.0028099669 78:0.00093665562 81:0.0028099669 82:0.0018733112 83:0.00093665562 84:0.00093665562 85:0.0025378789 86:0.00093665562 87:0.00093665562 88:0.00093665562 89:0.0018733112 92:0.00093665562 93:0.0028099669 94:0.0018733112 95:0.00093665562 97:0.0037466225 99:0.0028099669 #
531.20544057699862605659291148186 2:0.00042117684 4:0.00093665562 7:0.00093665562 8:0.00093665562 9:0.00093665562 11:0.0025378789 12:0.00093665562 13:0.00093665562 14:0.0018733112 15:0.00093665562 16:0.00093665562 17:0.0025378789 18:0.00093665562 19:0.015714057 20:0.00093665562 21:0.0028099669 22:0.0025378789 25:0.00093665562 27:0.00093665562 28:0.00093665562 29:0.00093665562 30:0.00093665562 31:0.00093665562 32:0.00093665562 33:0.0025378789 35:0.00093665562 36:0.00093665562 37:0.0018733112 38:0.00093665562 39:0.00093665562 40:0.0025378789 41:0.0025378789 42:0.00093665562 43:0.00093665562 45:0.0025378789 47:0.0025378789 48:0.00093665562 51:0.0025378789 52:0.00093665562 53:0.00093665562 54:0.0016847074 57:0.00093665562 58:0.00093665562 59:0.00093665562 60:0.00093665562 61:0.00093665562 62:0.00093665562 64:0.0025378789 65:0.00093665562 67:0.00093665562 69:0.00093665562 70:0.0025378789 71:0.0028099669 72:0.0025378789 73:0.0018733112 76:0.00093665562 77:0.0028099669 78:0.00093665562 81:0.0028099669 82:0.0018733112 83:0.00093665562 84:0.00093665562 85:0.0025378789 86:0.00093665562 87:0.00093665562 88:0.00093665562 89:0.0018733112 92:0.00093665562 93:0.0028099669 94:0.0018733112 95:0.00093665562 97:0.0037466225 99:0.0028099669 #
531.20544057699862605659291148186 2:0.00042117684 4:0.00093665562 7:0.00093665562 8:0.00093665562 9:0.00093665562 11:0.0025378789 12:0.00093665562 13:0.00093665562 14:0.0018733112 15:0.00093665562 16:0.00093665562 17:0.0025378789 18:0.00093665562 20:0.00093665562 21:0.0028099669 22:0.0025378789 25:0.00093665562 27:0.00093665562 28:0.00093665562 29:0.00093665562 30:0.00093665562 31:0.00093665562 32:0.00093665562 33:0.0025378789 35:0.00093665562 36:0.00093665562 37:0.0018733112 38:0.00093665562 39:0.00093665562 40:0.0025378789 41:0.0025378789 42:0.00093665562 43:0.00093665562 45:0.0025378789 47:0.0025378789 48:0.00093665562 51:0.0025378789 52:0.00093665562 53:0.00093665562 54:0.0016847074 57:0.00093665562 58:0.00093665562 59:0.00093665562 60:0.00093665562 61:0.00093665562 62:0.00093665562 63:0.015714057 64:0.0025378789 65:0.00093665562 67:0.00093665562 69:0.00093665562 70:0.0025378789 71:0.0028099669 72:0.0025378789 73:0.0018733112 76:0.00093665562 77:0.0028099669 78:0.00093665562 81:0.0028099669 82:0.0018733112 83:0.00093665562 84:0.00093665562 85:0.0025378789 86:0.00093665562 87:0.00093665562 88:0.00093665562 89:0.0018733112 92:0.00093665562 93:0.0028099669 94:0.0018733112 95:0.00093665562 97:0.0037466225 99:0.0028099669 #
-531.20544057699862605659291148186 2:0.00055371498 4:0.0012314074 7:0.0012314074 8:0.0012314074 9:0.0012314074 12:0.0012314074 13:0.0012314074 14:0.0012314074 15:0.0012314074 16:0.0012314074 18:0.0012314074 20:0.0012314074 21:0.0036942223 25:0.0012314074 27:0.0012314074 28:0.0012314074 29:0.0012314074 30:0.0012314074 31:0.0012314074 32:0.0012314074 35:0.0012314074 36:0.0012314074 37:0.0024628148 38:0.0012314074 39:0.0012314074 42:0.0012314074 43:0.0012314074 48:0.0012314074 52:0.0012314074 53:0.0012314074 54:0.0022148599 57:0.0012314074 58:0.0012314074 59:0.0012314074 60:0.0012314074 61:0.0012314074 62:0.0012314074 65:0.0012314074 67:0.0012314074 69:0.0012314074 71:0.0024628148 73:0.0024628148 76:0.0012314074 77:0.0036942223 78:0.0012314074 81:0.0036942223 82:0.0024628148 83:0.0012314074 84:0.0012314074 86:0.0012314074 87:0.0012314074 88:0.0012314074 89:0.0024628148 92:0.0012314074 93:0.0036942223 94:0.0024628148 95:0.0012314074 96:0.0082244147 97:0.0024628148 99:0.0024628148 #
531.20544057699862605659291148186 2:0.00042117684 3:0.012511609 4:0.00093665562 7:0.00093665562 8:0.00093665562 9:0.00093665562 11:0.0025378789 12:0.00093665562 13:0.00093665562 14:0.0018733112 15:0.00093665562 16:0.00093665562 17:0.0025378789 18:0.00093665562 20:0.00093665562 21:0.0028099669 22:0.0025378789 25:0.00093665562 27:0.00093665562 28:0.00093665562 29:0.00093665562 30:0.00093665562 31:0.00093665562 32:0.00093665562 33:0.0025378789 35:0.00093665562 36:0.00093665562 37:0.0018733112 38:0.00093665562 39:0.00093665562 40:0.0025378789 41:0.0025378789 42:0.00093665562 43:0.00093665562 45:0.0025378789 47:0.0025378789 48:0.00093665562 51:0.0025378789 52:0.00093665562 53:0.00093665562 54:0.0016847074 57:0.00093665562 58:0.00093665562 59:0.00093665562 60:0.00093665562 61:0.00093665562 62:0.00093665562 64:0.0025378789 65:0.00093665562 67:0.00093665562 69:0.00093665562 70:0.0025378789 71:0.0028099669 72:0.0025378789 73:0.0018733112 76:0.00093665562 77:0.0028099669 78:0.00093665562 81:0.0028099669 82:0.0018733112 83:0.00093665562 84:0.00093665562 85:0.0025378789 86:0.00093665562 87:0.00093665562 88:0.00093665562 89:0.0018733112 92:0.00093665562 93:0.0028099669 94:0.0018733112 95:0.00093665562 97:0.0037466225 99:0.0028099669 #
531.20544057699862605659291148186 2:0.00042117684 4:0.00093665562 7:0.00093665562 8:0.00093665562 9:0.00093665562 11:0.0025378789 12:0.00093665562 13:0.00093665562 14:0.0018733112 15:0.00093665562 16:0.00093665562 17:0.0025378789 18:0.00093665562 20:0.00093665562 21:0.0028099669 22:0.0025378789 25:0.00093665562 27:0.00093665562 28:0.00093665562 29:0.00093665562 30:0.00093665562 31:0.00093665562 32:0.00093665562 33:0.0025378789 35:0.00093665562 36:0.00093665562 37:0.0018733112 38:0.00093665562 39:0.00093665562 40:0.0025378789 41:0.0025378789 42:0.00093665562 43:0.00093665562 45:0.0025378789 47:0.0025378789 48:0.00093665562 51:0.0025378789 52:0.00093665562 53:0.00093665562 54:0.0016847074 57:0.00093665562 58:0.00093665562 59:0.00093665562 60:0.00093665562 61:0.00093665562 62:0.00093665562 64:0.0025378789 65:0.00093665562 67:0.00093665562 69:0.00093665562 70:0.0025378789 71:0.0028099669 72:0.0025378789 73:0.0018733112 76:0.00093665562 77:0.0028099669 78:0.00093665562 80:0.012511609 81:0.0028099669 82:0.0018733112 83:0.00093665562 84:0.00093665562 85:0.0025378789 86:0.00093665562 87:0.00093665562 88:0.00093665562 89:0.0018733112 92:0.00093665562 93:0.0028099669 94:0.0018733112 95:0.00093665562 97:0.0037466225 99:0.0028099669 #
531.20544057699862605659291148186 2:0.00041894839 4:0.00093169976 5:0.01244541 7:0.00093169976 8:0.00093169976 9:0.00093169976 11:0.0025244511 12:0.00093169976 13:0.00093169976 14:0.0018633995 15:0.00093169976 16:0.00093169976 17:0.0025244511 18:0.00093169976 20:0.00093169976 21:0.0027950993 22:0.0025244511 25:0.00093169976 27:0.00093169976 28:0.00093169976 29:0.00093169976 30:0.00093169976 31:0.00093169976 32:0.00093169976 33:0.0025244511 35:0.00093169976 36:0.00093169976 37:0.0018633995 38:0.00093169976 39:0.00093169976 40:0.0025244511 41:0.0025244511 42:0.00093169976 43:0.00093169976 45:0.0025244511 47:0.0025244511 48:0.00093169976 51:0.0025244511 52:0.00093169976 53:0.00093169976 54:0.0016757936 57:0.00093169976 58:0.00093169976 59:0.00093169976 60:0.00093169976 61:0.00093169976 62:0.00093169976 64:0.0025244511 65:0.00093169976 67:0.00093169976 69:0.00093169976 70:0.0025244511 71:0.0027950993 72:0.0025244511 73:0.0018633995 76:0.00093169976 77:0.0027950993 78:0.00093169976 79:0.0021055026 81:0.0027950993 82:0.0018633995 83:0.00093169976 84:0.00093169976 85:0.0025244511 86:0.00093169976 87:0.00093169976 88:0.00093169976 89:0.0018633995 92:0.00093169976 93:0.0027950993 94:0.0018633995 95:0.00093169976 97:0.003726799 99:0.0027950993 #
531.20544057699862605659291148186 2:0.00041894839 3:0.01244541 4:0.00093169976 7:0.00093169976 8:0.00093169976 9:0.00093169976 11:0.0025244511 12:0.00093169976 13:0.00093169976 14:0.0018633995 15:0.00093169976 16:0.00093169976 17:0.0025244511 18:0.00093169976 20:0.00093169976 21:0.0027950993 22:0.0025244511 25:0.00093169976 27:0.00093169976 28:0.00093169976 29:0.00093169976 30:0.00093169976 31:0.00093169976 32:0.00093169976 33:0.0025244511 35:0.00093169976 36:0.00093169976 37:0.0018633995 38:0.00093169976 39:0.00093169976 40:0.0025244511 41:0.0025244511 42:0.00093169976 43:0.00093169976 45:0.0025244511 47:0.0025244511 48:0.00093169976 51:0.0025244511 52:0.00093169976 53:0.00093169976 54:0.0016757936 57:0.00093169976 58:0.00093169976 59:0.00093169976 60:0.00093169976 61:0.00093169976 62:0.00093169976 64:0.0025244511 65:0.00093169976 67:0.00093169976 69:0.00093169976 70:0.0025244511 71:0.0027950993 72:0.0025244511 73:0.0018633995 76:0.00093169976 77:0.0027950993 78:0.00093169976 79:0.0021055026 81:0.0027950993 82:0.0018633995 83:0.00093169976 84:0.00093169976 85:0.0025244511 86:0.00093169976 87:0.00093169976 88:0.00093169976 89:0.0018633995 92:0.00093169976 93:0.0027950993 94:0.0018633995 95:0.00093169976 97:0.003726799 99:0.0027950993 #
-531.20544057699862605659291148186 2:0.00054986979 4:0.001222856 7:0.001222856 8:0.001222856 9:0.001222856 12:0.001222856 13:0.001222856 14:0.001222856 15:0.001222856 16:0.001222856 18:0.001222856 20:0.001222856 21:0.0036685679 25:0.001222856 27:0.001222856 28:0.001222856 29:0.001222856 30:0.001222856 31:0.001222856 32:0.001222856 35:0.001222856 36:0.001222856 37:0.002445712 38:0.001222856 39:0.001222856 42:0.001222856 43:0.001222856 48:0.001222856 52:0.001222856 53:0.001222856 54:0.0021994791 57:0.001222856 58:0.001222856 59:0.001222856 60:0.001222856 61:0.001222856 62:0.001222856 65:0.001222856 67:0.001222856 69:0.001222856 71:0.002445712 73:0.002445712 76:0.001222856 77:0.0036685679 78:0.001222856 79:0.0027634723 81:0.0036685679 82:0.002445712 83:0.001222856 84:0.001222856 86:0.001222856 87:0.001222856 88:0.001222856 89:0.002445712 90:0.0069444445 92:0.001222856 93:0.0036685679 94:0.002445712 95:0.001222856 97:0.002445712 99:0.002445712 #
-516.95290047544006029056617990136 2:0.00054986979 4:0.001222856 7:0.001222856 8:0.001222856 9:0.001222856 12:0.001222856 13:0.001222856 14:0.001222856 15:0.001222856 16:0.001222856 18:0.001222856 20:0.001222856 21:0.0036685679 25:0.001222856 27:0.001222856 28:0.001222856 29:0.001222856 30:0.001222856 31:0.001222856 32:0.001222856 35:0.001222856 36:0.001222856 37:0.002445712 38:0.001222856 39:0.001222856 42:0.001222856 43:0.001222856 48:0.001222856 52:0.001222856 53:0.001222856 54:0.0021994791 55:0.0069444445 57:0.001222856 58:0.001222856 59:0.001222856 60:0.001222856 61:0.001222856 62:0.001222856 65:0.001222856 67:0.001222856 69:0.001222856 71:0.002445712 73:0.002445712 76:0.001222856 77:0.0036685679 78:0.001222856 79:0.0027634723 81:0.0036685679 82:0.002445712 83:0.001222856 84:0.001222856 86:0.001222856 87:0.001222856 88:0.001222856 89:0.002445712 92:0.001222856 93:0.0036685679 94:0.002445712 95:0.001222856 97:0.002445712 99:0.002445712 #
-531.20544057699862605659291148186 2:0.00054986979 4:0.001222856 7:0.001222856 8:0.001222856 9:0.001222856 10:0.0069444445 12:0.001222856 13:0.001222856 14:0.001222856 15:0.001222856 16:0.001222856 18:0.001222856 20:0.001222856 21:0.0036685679 25:0.001222856 27:0.001222856 28:0.001222856 29:0.001222856 30:0.001222856 31:0.001222856 32:0.001222856 35:0.001222856 36:0.001222856 37:0.002445712 38:0.001222856 39:0.001222856 42:0.001222856 43:0.001222856 48:0.001222856 52:0.001222856 53:0.001222856 54:0.0021994791 57:0.001222856 58:0.001222856 59:0.001222856 60:0.001222856 61:0.001222856 62:0.001222856 65:0.001222856 67:0.001222856 69:0.001222856 71:0.002445712 73:0.002445712 76:0.001222856 77:0.0036685679 78:0.001222856 79:0.0027634723 81:0.0036685679 82:0.002445712 83:0.001222856 84:0.001222856 86:0.001222856 87:0.001222856 88:0.001222856 89:0.002445712 92:0.001222856 93:0.0036685679 94:0.002445712 95:0.001222856 97:0.002445712 99:0.002445712 #
-531.20544057699862605659291148186 2:0.00054986979 4:0.001222856 7:0.001222856 8:0.001222856 9:0.001222856 12:0.001222856 13:0.001222856 14:0.001222856 15:0.001222856 16:0.001222856 18:0.001222856 20:0.001222856 21:0.0036685679 25:0.001222856 27:0.001222856 28:0.001222856 29:0.001222856 30:0.001222856 31:0.001222856 32:0.001222856 35:0.001222856 36:0.001222856 37:0.002445712 38:0.001222856 39:0.001222856 42:0.001222856 43:0.001222856 48:0.001222856 52:0.001222856 53:0.001222856 54:0.0021994791 57:0.001222856 58:0.001222856 59:0.001222856 60:0.001222856 61:0.001222856 62:0.001222856 65:0.001222856 67:0.001222856 69:0.001222856 71:0.002445712 73:0.002445712 76:0.001222856 77:0.0036685679 78:0.001222856 79:0.0027634723 81:0.0036685679 82:0.002445712 83:0.001222856 84:0.001222856 86:0.001222856 87:0.001222856 88:0.001222856 89:0.002445712 92:0.001222856 93:0.0036685679 94:0.002445712 95:0.001222856 97:0.002445712 98:0.0069444445 99:0.002445712 #
-14.252540101558015095406517502852 6:0.045773603 46:0.045773603 54:0.0046577202 74:0.045773603 79:0.023408236 #
531.20544057699862605659291148186 2:0.00042117684 4:0.00093665562 5:0.012511609 7:0.00093665562 8:0.00093665562 9:0.00093665562 11:0.0025378789 12:0.00093665562 13:0.00093665562 14:0.0018733112 15:0.00093665562 16:0.00093665562 17:0.0025378789 18:0.00093665562 20:0.00093665562 21:0.0028099669 22:0.0025378789 25:0.00093665562 27:0.00093665562 28:0.00093665562 29:0.00093665562 30:0.00093665562 31:0.00093665562 32:0.00093665562 33:0.0025378789 35:0.00093665562 36:0.00093665562 37:0.0018733112 38:0.00093665562 39:0.00093665562 40:0.0025378789 41:0.0025378789 42:0.00093665562 43:0.00093665562 45:0.0025378789 47:0.0025378789 48:0.00093665562 51:0.0025378789 52:0.00093665562 53:0.00093665562 54:0.0016847074 57:0.00093665562 58:0.00093665562 59:0.00093665562 60:0.00093665562 61:0.00093665562 62:0.00093665562 64:0.0025378789 65:0.00093665562 67:0.00093665562 69:0.00093665562 70:0.0025378789 71:0.0028099669 72:0.0025378789 73:0.0018733112 76:0.00093665562 77:0.0028099669 78:0.00093665562 81:0.0028099669 82:0.0018733112 83:0.00093665562 84:0.00093665562 85:0.0025378789 86:0.00093665562 87:0.00093665562 88:0.00093665562 89:0.0018733112 92:0.00093665562 93:0.0028099669 94:0.0018733112 95:0.00093665562 97:0.0037466225 99:0.0028099669 #
