SVM-light Version V6.02
0 # kernel type
3 # kernel parameter -d 
1 # kernel parameter -g 
1 # kernel parameter -s 
1 # kernel parameter -r 
empty# kernel parameter -u 
9 # highest feature index 
13 # number of training documents 
11 # number of support vectors plus 1 
1.7177003 # threshold b, each following line is a SV (starting with alpha*y)
-0.14627452944058050299247497605393 3:2 6:1 #
-0.13943897251021386551883551874198 1:1 3:1 6:1 #
0.14627452944058050299247497605393 1:1 3:3 6:1 9:1 #
-0.14627452944058050299247497605393 3:2 6:1 #
0.13943871842791710768949542398332 1:1 3:3 4:1 5:1 6:1 9:1 #
0.14627452944058050299247497605393 1:1 3:3 4:1 6:1 #
0.14627452944058050299247497605393 1:1 3:3 6:1 9:1 #
-0.14627452944058050299247497605393 1:1 3:3 8:1 #
0.14627452944058050299247497605393 3:2 #
-0.14627452944058050299247497605393 1:1 3:2 6:1 #
