SVM-light Version V6.02
0 # kernel type
3 # kernel parameter -d 
1 # kernel parameter -g 
1 # kernel parameter -s 
1 # kernel parameter -r 
empty# kernel parameter -u 
143 # highest feature index 
13 # number of training documents 
14 # number of support vectors plus 1 
0.72616792 # threshold b, each following line is a SV (starting with alpha*y)
-0.024297412691338789170192313804364 14:1 22:1 24:1 33:1 46:1 47:1 54:1 89:1 102:1 106:1 111:1 113:1 115:1 116:1 122:1 132:1 137:1 143:1 #
-0.024422492801894860048328439461329 23:1 24:1 25:1 38:1 46:1 47:1 57:1 78:1 80:1 102:1 106:1 117:1 122:1 129:1 131:1 133:1 137:1 143:1 #
-0.022456060049720300703102182637849 24:1 26:1 33:1 34:1 57:1 70:1 71:1 87:1 100:1 113:1 #
-0.046103869595090996025277263470343 8:1 14:1 21:1 24:1 26:1 29:1 34:1 39:1 47:1 52:1 55:1 57:1 58:1 61:1 66:1 71:1 73:1 77:1 85:1 88:1 94:1 103:1 104:1 122:1 137:1 #
-0.053105704984818861980055970661851 9:1 24:1 47:1 56:1 60:1 62:1 75:1 84:1 102:1 110:1 122:1 137:1 138:1 143:1 #
0.053105704984818861980055970661851 9:1 14:1 24:1 35:1 36:1 47:1 55:1 61:1 67:1 69:1 72:1 75:1 84:1 91:1 93:1 94:1 98:1 105:1 110:1 117:1 122:1 137:1 143:1 #
0.053105704984818861980055970661851 14:1 15:1 20:1 24:1 32:1 40:1 53:1 56:1 84:1 94:1 98:1 99:1 114:1 118:1 122:1 128:1 137:1 #
0.053105704984818861980055970661851 3:1 14:1 19:1 26:1 31:1 34:1 47:1 55:1 61:1 69:1 71:1 74:1 76:1 81:1 83:1 84:1 94:1 110:1 122:1 135:1 137:1 141:1 143:1 #
0.04838891749889889098978912329585 7:1 11:1 12:1 16:1 24:1 27:1 28:1 43:1 46:1 47:1 49:1 50:1 51:1 55:1 57:1 58:1 65:1 84:1 92:1 94:1 95:1 102:1 108:1 109:1 110:1 114:1 122:1 123:1 124:1 130:1 134:1 136:1 137:1 139:1 #
0.053105704984818861980055970661851 14:1 18:1 24:1 27:1 30:1 36:1 63:1 69:1 70:1 84:1 92:1 102:1 110:1 117:1 120:1 122:1 127:1 137:1 143:1 #
-0.047617607362128291925706946585706 2:1 4:1 6:1 14:1 24:1 47:1 68:1 79:1 126:1 137:1 143:1 #
-0.031808222011123404859844754355436 9:1 10:1 24:1 42:1 47:1 56:1 60:1 75:1 96:1 102:1 110:1 122:1 143:1 #
-0.011000373835548969345121683716116 5:1 13:1 26:1 34:1 37:1 39:1 41:1 44:1 45:1 48:1 57:1 58:1 61:1 64:1 75:1 82:1 86:1 97:1 101:1 102:1 112:1 121:1 122:1 125:1 137:1 140:1 142:1 #
