SVM-light Version V6.02
0 # kernel type
3 # kernel parameter -d 
1 # kernel parameter -g 
1 # kernel parameter -s 
1 # kernel parameter -r 
empty# kernel parameter -u 
216 # highest feature index 
12 # number of training documents 
13 # number of support vectors plus 1 
0.7769646 # threshold b, each following line is a SV (starting with alpha*y)
-182.12196993383042809000471606851 2:0.001931665 6:0.00096171553 10:0.004369155 12:0.0009477053 13:0.0048749796 18:0.004369155 19:0.004369155 20:0.0009477053 22:0.0018954106 25:0.0046179504 30:0.00032057185 33:0.0087383101 34:0.0009477053 35:0.0009477053 37:0.0009477053 38:0.00064114371 39:0.0009477053 41:0.004369155 45:0.0009477053 47:0.0015393167 51:0.004369155 52:0.00032057185 58:0.0009477053 59:0.0009477053 60:0.0021387602 61:0.0009477053 70:0.0009477053 71:0.0018954106 74:0.0009477053 76:0.0087383101 86:0.0018954106 88:0.00096171553 93:0.0024374898 96:0.0009477053 100:0.0018954106 104:0.004369155 107:0.0024374898 113:0.0015393167 114:0.00064114371 116:0.0009477053 127:0.004369155 133:0.004369155 140:0.0009477053 141:0.00015299012 148:0.0009477053 149:0.0009477053 151:0.00015299012 155:0.0009477053 157:0.0009477053 159:0.0009477053 160:0.0009477053 165:0.0018954106 166:0.0018954106 167:0.0015393167 170:0.0007129201 171:0.0009477053 174:0.0028431159 178:0.0009477053 180:0.0009477053 182:0.0009477053 183:0.0037908212 193:0.0009477053 195:0.004369155 197:0.0018954106 200:0.0028431159 206:0.004369155 207:0.0018954106 208:0.004369155 209:0.0009477053 214:0.0087383101 #
-148.0645613223578038741834461689 6:0.0007038333 11:0.0026758222 12:0.0010403699 20:0.0010403699 22:0.0010403699 25:0.0033796555 29:0.0095927222 30:0.00035191665 34:0.0010403699 35:0.0010403699 37:0.0010403699 38:0.0007038333 39:0.0010403699 45:0.0010403699 46:0.0047963611 52:0.00035191665 53:0.0020807397 58:0.0010403699 59:0.0010403699 60:0.0015652557 61:0.0010403699 70:0.0010403699 71:0.0010403699 74:0.0010403699 75:0.0063616168 77:0.0047963611 78:0.0047963611 79:0.0047963611 86:0.0010403699 87:0.0034584501 88:0.00035191665 96:0.0010403699 99:0.0047963611 100:0.0020807397 107:0.0053516445 114:0.00035191665 116:0.0010403699 125:0.0095927222 140:0.0010403699 141:0.00050384749 146:0.0047963611 148:0.0010403699 149:0.0010403699 151:0.00016794915 155:0.0010403699 157:0.0010403699 159:0.0010403699 160:0.0010403699 163:0.0069169002 165:0.0020807397 166:0.0010403699 170:0.00078262785 171:0.0010403699 174:0.0031211094 177:0.0047963611 178:0.0010403699 180:0.0031211094 182:0.0010403699 183:0.0041614794 186:0.0034584501 193:0.0010403699 197:0.0020807397 200:0.0020807397 207:0.0020807397 209:0.0010403699 #
-216.77511738376298922048590611666 6:0.0011257997 12:0.0011093991 13:0.0057067298 20:0.0011093991 22:0.0022187983 24:0.0051146029 25:0.003603898 30:0.00037526657 34:0.0011093991 35:0.0011093991 37:0.0011093991 38:0.00037526657 39:0.0011093991 45:0.0011093991 47:0.001801949 52:0.00037526657 54:0.0051146029 58:0.0011093991 59:0.0011093991 60:0.0016691114 61:0.0011093991 70:0.0011093991 71:0.0022187983 72:0.010229206 74:0.0011093991 86:0.0022187983 88:0.00037526657 91:0.0051146029 93:0.0028533649 96:0.0011093991 100:0.0022187983 113:0.001801949 114:0.00075053313 116:0.0011093991 139:0.0036879205 140:0.0011093991 141:0.00017909271 148:0.0011093991 149:0.0011093991 151:0.00017909271 155:0.0011093991 157:0.0011093991 159:0.0011093991 160:0.0011093991 164:0.0051146029 165:0.0022187983 166:0.0011093991 167:0.001801949 168:0.0051146029 170:0.00083455571 171:0.0011093991 174:0.0033281972 178:0.0011093991 180:0.0011093991 182:0.0011093991 183:0.0044375965 193:0.0011093991 197:0.0011093991 200:0.0033281972 207:0.0022187983 209:0.0011093991 #
-279.62973392594540200661867856979 6:0.0011587499 12:0.0011418693 20:0.0011418693 22:0.0022837387 30:0.00038624997 34:0.0011418693 35:0.0011418693 37:0.0011418693 38:0.00038624997 39:0.0011418693 45:0.0011418693 47:0.001854689 52:0.00038624997 53:0.0011418693 58:0.0011418693 59:0.0011418693 60:0.0025769453 61:0.0011418693 70:0.0011418693 71:0.0022837387 74:0.0011418693 84:0.005264299 86:0.0022837387 88:0.00038624997 96:0.0011418693 100:0.0022837387 113:0.001854689 114:0.00077249995 116:0.0011418693 118:0.0037958599 124:0.005264299 128:0.010528598 140:0.0011418693 141:0.00018433444 147:0.005264299 148:0.0011418693 149:0.0011418693 151:0.00018433444 155:0.0011418693 156:0.010528598 157:0.0011418693 159:0.0011418693 160:0.0011418693 162:0.001854689 165:0.0022837387 166:0.0011418693 167:0.001854689 170:0.00085898174 171:0.0011418693 174:0.0034256079 178:0.0011418693 180:0.0011418693 182:0.0011418693 183:0.0022837387 186:0.0037958599 193:0.0011418693 197:0.0011418693 198:0.005264299 200:0.0034256079 204:0.005264299 207:0.0022837387 209:0.0011418693 #
-186.77230311130898599003558047116 6:0.00075410708 11:0.0057339049 12:0.0011146819 20:0.0011146819 22:0.0011146819 25:0.0054315892 30:0.00075410708 34:0.0011146819 35:0.0011146819 37:0.0011146819 38:0.00075410708 39:0.0011146819 42:0.010277917 45:0.0011146819 52:0.00037705354 53:0.0011146819 58:0.0011146819 59:0.0011146819 60:0.0016770596 61:0.0011146819 70:0.0011146819 71:0.0011146819 74:0.0011146819 75:0.0022720059 86:0.0011146819 87:0.0037054822 88:0.00037705354 89:0.0051389583 96:0.0011146819 100:0.0022293639 102:0.0051389583 107:0.0028669524 114:0.00037705354 116:0.0011146819 121:0.0051389583 140:0.0011146819 141:0.00035989107 143:0.0028669524 148:0.0011146819 149:0.0011146819 151:0.00017994553 155:0.0011146819 157:0.0011146819 159:0.0011146819 160:0.0011146819 163:0.0037054822 165:0.0022293639 166:0.0011146819 170:0.00083852978 171:0.0011146819 174:0.0033440457 178:0.0011146819 180:0.0022293639 182:0.0011146819 183:0.0044587278 193:0.0011146819 197:0.0022293639 199:0.0051389583 200:0.0022293639 207:0.0022293639 209:0.0011146819 216:0.0051389583 #
361.58702302136515527308802120388 2:0.0033365123 3:0.007546722 4:0.015093444 6:0.00055371498 7:0.007546722 8:0.0026588198 9:0.007546722 13:0.0042102099 15:0.0042102099 16:0.007546722 21:0.0042102099 23:0.0042102099 28:0.0042102099 30:0.00055371498 31:0.0079764593 38:0.00055371498 43:0.007546722 50:0.007546722 52:0.00055371498 55:0.007546722 56:0.007546722 60:0.0012314074 62:0.007546722 68:0.0054416172 69:0.0042102099 73:0.007546722 75:0.0033365123 88:0.00055371498 105:0.007546722 108:0.022640167 110:0.0042102099 111:0.007546722 114:0.0022148599 118:0.0054416172 120:0.007546722 123:0.0042102099 130:0.007546722 131:0.007546722 132:0.0026588198 135:0.007546722 138:0.0042102099 142:0.0042102099 145:0.0042102099 150:0.0053176396 152:0.0042102099 153:0.0084204199 161:0.007546722 162:0.0079764593 170:0.0012314074 175:0.022640167 185:0.007546722 187:0.007546722 188:0.007546722 191:0.0042102099 192:0.0053176396 194:0.007546722 203:0.0042102099 #
652.71051068816404949757270514965 2:0.0046322453 6:0.00076874997 8:0.0073827426 15:0.0058452426 21:0.0058452426 23:0.0058452426 30:0.00076874997 31:0.0073827426 38:0.00076874997 44:0.010477488 52:0.00076874997 53:0.0022726525 64:0.0058452426 69:0.0058452426 83:0.020954976 88:0.00076874997 110:0.0058452426 112:0.0058452426 114:0.0023062499 122:0.010477488 123:0.0058452426 132:0.0036913713 141:0.00036687922 142:0.0058452426 144:0.0075548664 145:0.0058452426 150:0.0036913713 151:0.00036687922 152:0.0058452426 153:0.0058452426 162:0.0073827426 173:0.010477488 179:0.0058452426 191:0.0058452426 192:0.011074114 196:0.0075548664 203:0.0058452426 215:0.0058452426 #
651.27745866905399907409446313977 2:0.0045440118 6:0.00075410708 8:0.0072421189 15:0.0057339049 21:0.0057339049 23:0.0057339049 30:0.00075410708 31:0.010863178 38:0.00075410708 52:0.00075410708 53:0.0022293639 57:0.010277917 67:0.010277917 68:0.014821929 69:0.0057339049 88:0.00075410708 98:0.0057339049 110:0.0057339049 114:0.0022623213 123:0.0057339049 132:0.0036210595 141:0.00035989107 142:0.0057339049 144:0.0074109645 145:0.0057339049 150:0.0036210595 151:0.00035989107 152:0.0057339049 153:0.01146781 162:0.0036210595 176:0.010277917 184:0.010277917 191:0.0057339049 192:0.010863178 196:0.0074109645 203:0.0057339049 #
-310.14042847160510518733644858003 5:0.018527411 8:0.0045263241 28:0.021502143 31:0.0090526482 53:0.0027867048 64:0.0071673808 69:0.0035836904 98:0.0071673808 112:0.0071673808 132:0.0045263241 136:0.0092637055 138:0.014334762 141:0.00044986382 150:0.0045263241 151:0.00044986382 158:0.0092637055 179:0.0071673808 192:0.0090526482 211:0.027791116 215:0.014334762 #
-25.614706352342654582798786577769 5:0.012652866 8:0.0030911483 26:0.0087738317 28:0.019579187 31:0.0061822967 36:0.0087738317 53:0.0019031155 64:0.0048947968 69:0.0024473984 82:0.0087738317 85:0.017547663 90:0.0087738317 95:0.0087738317 98:0.0048947968 101:0.0087738317 109:0.0087738317 112:0.0048947968 132:0.0030911483 136:0.0063264328 137:0.0087738317 138:0.0097895935 141:0.00030722408 150:0.0061822967 151:0.00061444816 158:0.0063264328 162:0.0030911483 179:0.0048947968 181:0.0087738317 192:0.0061822967 202:0.0087738317 210:0.0087738317 211:0.025305731 215:0.0097895935 #
-123.15297691258092527277767658234 6:0.00097754621 11:0.002477613 12:0.00096330536 20:0.00096330536 22:0.0019266107 25:0.0031293107 27:0.004441075 30:0.00032584876 34:0.00096330536 35:0.00096330536 37:0.00096330536 38:0.00032584876 39:0.00096330536 40:0.004441075 45:0.00096330536 47:0.0015646553 48:0.0088821501 49:0.004441075 52:0.00032584876 58:0.00096330536 59:0.00096330536 60:0.0014493108 61:0.00096330536 66:0.004441075 69:0.0012388065 70:0.00096330536 71:0.0019266107 74:0.00096330536 80:0.004441075 81:0.004441075 86:0.0019266107 88:0.00032584876 92:0.004441075 94:0.0032022686 96:0.00096330536 100:0.0019266107 103:0.004441075 106:0.004441075 113:0.0015646553 114:0.00065169751 116:0.00096330536 119:0.004441075 126:0.004441075 134:0.004441075 140:0.00096330536 141:0.00015550847 143:0.002477613 148:0.00096330536 149:0.00096330536 151:0.00015550847 155:0.00096330536 157:0.00096330536 159:0.00096330536 160:0.00096330536 165:0.0019266107 166:0.00096330536 167:0.0015646553 169:0.004441075 170:0.0021739663 171:0.00096330536 172:0.004441075 174:0.0028899161 178:0.00096330536 180:0.00096330536 182:0.00096330536 183:0.0067431377 189:0.013323225 193:0.00096330536 197:0.00096330536 200:0.0028899161 207:0.0019266107 209:0.00096330536 #
-193.30319496484634100852417759597 6:0.0010748586 12:0.0010592 20:0.0010592 22:0.0021184001 30:0.00035828617 32:0.0048831729 34:0.0010592 35:0.0010592 37:0.0010592 38:0.00035828617 39:0.0010592 45:0.0010592 47:0.0017204129 52:0.00035828617 58:0.0010592 59:0.0010592 60:0.0015935861 61:0.0010592 63:0.0097663458 65:0.0048831729 70:0.0010592 71:0.0021184001 74:0.0021184001 75:0.0021589198 86:0.0021184001 88:0.00035828617 93:0.0027242533 94:0.0035210464 96:0.0010592 100:0.0021184001 113:0.0017204129 114:0.00071657234 115:0.0048831729 116:0.0010592 129:0.0048831729 139:0.0035210464 140:0.0010592 141:0.00017098896 143:0.0027242533 148:0.0010592 149:0.0010592 151:0.00017098896 154:0.0048831729 155:0.0010592 157:0.0010592 159:0.0010592 160:0.0010592 165:0.0021184001 166:0.0010592 167:0.0017204129 170:0.0015935861 171:0.0010592 174:0.0031776 178:0.0010592 180:0.0010592 182:0.0010592 183:0.0063552 190:0.0048831729 193:0.0010592 197:0.0010592 200:0.0031776 205:0.0048831729 207:0.0021184001 209:0.0010592 #
