SVM-light Version V6.02
0 # kernel type
3 # kernel parameter -d 
1 # kernel parameter -g 
1 # kernel parameter -s 
1 # kernel parameter -r 
empty# kernel parameter -u 
216 # highest feature index 
12 # number of training documents 
13 # number of support vectors plus 1 
0.48153724 # threshold b, each following line is a SV (starting with alpha*y)
-0.0038744285439365742408635018279028 2:1 6:1 10:1 12:1 13:1 18:1 19:1 20:1 22:1 25:1 30:1 33:1 34:1 35:1 37:1 38:1 39:1 41:1 45:1 47:1 51:1 52:1 58:1 59:1 60:1 61:1 70:1 71:1 74:1 76:1 86:1 88:1 93:1 96:1 100:1 104:1 107:1 113:1 114:1 116:1 127:1 133:1 140:1 141:1 148:1 149:1 151:1 155:1 157:1 159:1 160:1 165:1 166:1 167:1 170:1 171:1 174:1 178:1 180:1 182:1 183:1 193:1 195:1 197:1 200:1 206:1 207:1 208:1 209:1 214:1 #
-0.0016417103058618525562861734101716 6:1 11:1 12:1 20:1 22:1 25:1 29:1 30:1 34:1 35:1 37:1 38:1 39:1 45:1 46:1 52:1 53:1 58:1 59:1 60:1 61:1 70:1 71:1 74:1 75:1 77:1 78:1 79:1 86:1 87:1 88:1 96:1 99:1 100:1 107:1 114:1 116:1 125:1 140:1 141:1 146:1 148:1 149:1 151:1 155:1 157:1 159:1 160:1 163:1 165:1 166:1 170:1 171:1 174:1 177:1 178:1 180:1 182:1 183:1 186:1 193:1 197:1 200:1 207:1 209:1 #
-0.0013137665344245697679470552543535 6:1 12:1 13:1 20:1 22:1 24:1 25:1 30:1 34:1 35:1 37:1 38:1 39:1 45:1 47:1 52:1 54:1 58:1 59:1 60:1 61:1 70:1 71:1 72:1 74:1 86:1 88:1 91:1 93:1 96:1 100:1 113:1 114:1 116:1 139:1 140:1 141:1 148:1 149:1 151:1 155:1 157:1 159:1 160:1 164:1 165:1 166:1 167:1 168:1 170:1 171:1 174:1 178:1 180:1 182:1 183:1 193:1 197:1 200:1 207:1 209:1 #
-0.0057366874652773390888538251886075 6:1 12:1 20:1 22:1 30:1 34:1 35:1 37:1 38:1 39:1 45:1 47:1 52:1 53:1 58:1 59:1 60:1 61:1 70:1 71:1 74:1 84:1 86:1 88:1 96:1 100:1 113:1 114:1 116:1 118:1 124:1 128:1 140:1 141:1 147:1 148:1 149:1 151:1 155:1 156:1 157:1 159:1 160:1 162:1 165:1 166:1 167:1 170:1 171:1 174:1 178:1 180:1 182:1 183:1 186:1 193:1 197:1 198:1 200:1 204:1 207:1 209:1 #
-0.002886227625493764312181177444927 6:1 11:1 12:1 20:1 22:1 25:1 30:1 34:1 35:1 37:1 38:1 39:1 42:1 45:1 52:1 53:1 58:1 59:1 60:1 61:1 70:1 71:1 74:1 75:1 86:1 87:1 88:1 89:1 96:1 100:1 102:1 107:1 114:1 116:1 121:1 140:1 141:1 143:1 148:1 149:1 151:1 155:1 157:1 159:1 160:1 163:1 165:1 166:1 170:1 171:1 174:1 178:1 180:1 182:1 183:1 193:1 197:1 199:1 200:1 207:1 209:1 216:1 #
0.017402794237147911626806262574974 2:1 3:1 4:1 6:1 7:1 8:1 9:1 13:1 15:1 16:1 21:1 23:1 28:1 30:1 31:1 38:1 43:1 50:1 52:1 55:1 56:1 60:1 62:1 68:1 69:1 73:1 75:1 88:1 105:1 108:1 110:1 111:1 114:1 118:1 120:1 123:1 130:1 131:1 132:1 135:1 138:1 142:1 145:1 150:1 152:1 153:1 161:1 162:1 170:1 175:1 185:1 187:1 188:1 191:1 192:1 194:1 203:1 #
0.019288626839462832268656811152141 2:1 6:1 8:1 15:1 21:1 23:1 30:1 31:1 38:1 44:1 52:1 53:1 64:1 69:1 83:1 88:1 110:1 112:1 114:1 122:1 123:1 132:1 141:1 142:1 144:1 145:1 150:1 151:1 152:1 153:1 162:1 173:1 179:1 191:1 192:1 196:1 203:1 215:1 #
0.019288626839462832268656811152141 2:1 6:1 8:1 15:1 21:1 23:1 30:1 31:1 38:1 52:1 53:1 57:1 67:1 68:1 69:1 88:1 98:1 110:1 114:1 123:1 132:1 141:1 142:1 144:1 145:1 150:1 151:1 152:1 153:1 162:1 176:1 184:1 191:1 192:1 196:1 203:1 #
-0.019288626839462832268656811152141 5:1 8:1 26:1 28:1 31:1 36:1 53:1 64:1 69:1 82:1 85:1 90:1 95:1 98:1 101:1 109:1 112:1 132:1 136:1 137:1 138:1 141:1 150:1 151:1 158:1 162:1 179:1 181:1 192:1 202:1 210:1 211:1 215:1 #
-0.019288626839462832268656811152141 5:1 8:1 28:1 31:1 53:1 64:1 69:1 98:1 112:1 132:1 136:1 138:1 141:1 150:1 151:1 158:1 179:1 192:1 211:1 215:1 #
-0.00060794068620653729517755436972948 6:1 11:1 12:1 20:1 22:1 25:1 27:1 30:1 34:1 35:1 37:1 38:1 39:1 40:1 45:1 47:1 48:1 49:1 52:1 58:1 59:1 60:1 61:1 66:1 69:1 70:1 71:1 74:1 80:1 81:1 86:1 88:1 92:1 94:1 96:1 100:1 103:1 106:1 113:1 114:1 116:1 119:1 126:1 134:1 140:1 141:1 143:1 148:1 149:1 151:1 155:1 157:1 159:1 160:1 165:1 166:1 167:1 169:1 170:1 171:1 172:1 174:1 178:1 180:1 182:1 183:1 189:1 193:1 197:1 200:1 207:1 209:1 #
-0.001342256459233553966825525094464 6:1 12:1 20:1 22:1 30:1 32:1 34:1 35:1 37:1 38:1 39:1 45:1 47:1 52:1 58:1 59:1 60:1 61:1 63:1 65:1 70:1 71:1 74:1 75:1 86:1 88:1 93:1 94:1 96:1 100:1 113:1 114:1 115:1 116:1 129:1 139:1 140:1 141:1 143:1 148:1 149:1 151:1 154:1 155:1 157:1 159:1 160:1 165:1 166:1 167:1 170:1 171:1 174:1 178:1 180:1 182:1 183:1 190:1 193:1 197:1 200:1 205:1 207:1 209:1 #
